0.32627112,4.4748676E-4,-0.084403,0.42074826,-0.106799595,-0.20512077,0.2054256,-0.17163274,-0.27962488,0.080091506,0.11619744,-0.45631912,0.072466396,0.25666875,0.028075544,0.36727604,0.15626936,-0.17559996,-0.13707514,0.42782193,-0.3328011,0.45107916,-0.20613691,-0.33312666,-0.24349694,-0.28484842,-0.02555125,0.19546011,-0.36688915,-0.1450468,0.10215726,0.2819895,0.26373982,-0.39086962,-0.42262086,0.3252513,-0.4350585,0.2671594,0.36547637,-0.17689845,0.12890008,0.27195132,-0.035609476,-0.040903404,0.015404209,0.088877626,-0.3607623,0.21935672,0.3450922,-0.041769885,0.26321787,-0.4995101,0.23936515,-0.01652305,-0.17362148,-0.077156074,0.30701175,5.797299E-4,0.19669063,-0.21710038,0.025028586,0.06927815,-0.42823306,0.08243266,-0.36232048,-0.37771448,-0.2188745,0.33111924,-0.20635931,0.30568072,-0.30952722,0.08921582,-0.41999596,0.18912353,0.30999604,0.49767822,-0.43568093,0.17438355,-0.12234186,0.20886156,-0.33267078,0.06431267,-0.21802415,-0.2572819,-0.110155314,0.008587992,0.028799042,0.19010589,0.42867017,0.21451342,-0.27506995,-0.30718824,0.14276907,-0.17966808,-0.11973673,0.27873805,-0.14682554,0.34526336,0.047520656,0.20090263,-0.10772099,-0.11041733,-0.06332804,-0.3062647,0.25754166,0.013757037,-0.013989751,0.44318768,-0.42007646,-0.2966957,0.0762129,-0.34348455,0.43057382,-0.27335924,0.06519319,0.435986,-0.42360333,-0.39681685,-0.296048,0.33458632,-0.3269906,0.07031293,-0.21823896,0.24353224,-0.008693327,-0.21124929,-0.26605546,0.21537082,-0.044456303,-0.26864335,-0.073496304,-0.39269376,0.3458258,0.13973205,-0.33451748,0.27284506,-0.024517022,0.03410981,-0.31447074,0.14083086,-0.21699344,0.1114358,0.1617697,0.3322767,0.086755246,0.38516113,-0.21078062,-0.34210533,-0.05794756,-0.079264574,-0.3576895,-0.16496511,-0.06218193,-0.30599767,-0.14483577,0.25500917,-0.4211012,0.07347515,0.38634458,0.35568604,0.25653225,-0.38142195,0.18487322,0.14744183,0.16934475,-0.12539135,0.18334714,0.12794134,0.14622876,0.060885306,0.11717311,-0.019861275,0.10792959,0.2741286,0.1641303,-0.35823494,0.17083742,-0.30352503,-0.3134567,0.304417,-0.3897947,0.34071705,0.22555009,0.4291997,-0.20901066,-0.20646298,0.2830948,-0.005622479,-0.086871766,0.30124745,0.042631272,0.056600094,0.33964843,0.13736895,0.11588277,-0.08121995,0.18672478,-0.14840013,-0.040031146,-0.14034201,0.39748728,-0.37550107,-0.028220844,0.20439641,-0.25704518,0.20174257,-0.41287127,0.04311882,-0.4175528,-0.18233682,-0.3762692,-0.2786553,0.44900048,-0.39490032,0.25785905,0.13509434,0.27859113,0.17579441,0.23191558,-0.31901416,0.41623178,-0.3615124,-0.36340302,0.16035064,0.2527273,-0.3717232,-0.23511101,-0.118588604,0.45557663,-0.30715808,0.18477926,-0.37965703,-0.08382074,0.19717804,0.4187808,0.47013345,-0.2210578,0.12058481,0.049016647,-0.15061535,0.35677165,-0.27571872,0.44664514,-0.002596222,-0.14363238,0.23878162,-0.20566544,0.19634901,-0.23325394,0.07175602,-0.2496019,0.4152733,-0.3768739,-0.29289296,-0.27608958,0.13844886,-0.19581276,0.29105067,0.20181791,0.2555574,0.086127065,0.27968165,0.38129708,-0.48842102,0.046807095,-0.22356604,-0.11381177,-0.03598839,0.27558532,0.20605718,0.21081716,-0.18831772,0.4076854,-0.29123154,0.027021356,-0.28138834,-0.13412705,-1.1279015E-4,0.07730207,0.13376348,-0.0011330768,-0.37168762,-0.30654955,-0.34022218,0.2913407,-0.18913405,0.27080315,-0.40492266,0.32847846,-0.023812773,-0.102870464,0.046189617,-0.45260403,0.32790402,0.3273875,-0.15224783,-0.13375293,0.26249775,-0.22211343,0.38191107,0.04906841,-0.2878969,0.21636021,0.078457266,-0.15045689,-0.18501222,-0.30458248,0.019766133,-0.09097956,-0.044828016,0.3521928,0.46114054,-0.07342856,0.0708257,-0.35667163,0.08795982,-0.26203844,-0.10007903,0.4666462,-0.37650242,0.3909995,-0.18984622,-0.015073482,0.35789034,0.12210448,0.1520183,0.1065439,-0.43967056,0.0065941857,0.2435336,-0.09825799,0.17602843,-0.413276,0.019337261,0.25146773,-0.13020581,-0.3702824,0.25021988,0.17639005,-0.09560152,0.2054054,-0.31169307,0.28563848,-0.108085215,0.14085758,-0.26458767,-0.048025765,0.41536498,0.018343832,0.38847604,-0.093282655,-0.18186043,-0.2749601,-9.907406E-5,0.016065164,-0.34110406,-0.32889292,0.2872173,0.24969429,0.17020006,0.1577184,-0.29472646,-0.10732932,-0.3083915,-0.28887904,-0.35860217,0.35062873,0.24824387,0.26046434,-0.025565453,0.3138999,0.29686394,0.24437344,0.20472044,-0.0714033,0.19988327,0.06670938,-0.47485813,0.27804136,-0.5274222,0.2058928,0.25240615,0.31909838,-0.3062906,0.19789602,-0.28594276,-0.25017384,0.23286,-0.056046378,0.028889693,0.11593241,0.076883055,-0.005392907,-0.3350661,0.20054775,0.34861004,0.14848642,0.2862798,-0.42797554,0.011192837,0.09385245,0.07786578,0.31727105,0.39313802,-0.075292885,-0.27811462,0.14864308,-0.3957857,-0.2087836,-0.06201493,-0.02525625,0.33753246,-0.4090628,0.37459168,0.16361086,0.17442921,0.28224632,0.2394674,0.08449486,0.35357517,-0.027539296,0.20889099,0.021723354,0.24413821,-0.38914818,-0.284688,0.2590221,-0.30095538,-0.16817454,-0.21913429,-0.104476884,-0.27625483,0.2552106,0.080823876,0.12105424,-0.050443597,-0.00819855,-0.35421208,-0.18599659,-0.17145792,-0.3246372,-0.292068,0.40509176,-0.1257606,0.1446305,-0.13913463,0.080295116,-0.14774632,-0.38574544,-0.35637936,-0.02967552,-0.045371093,0.31840318,0.1369674,0.063976094,-0.21666285,-0.040507656,-0.30997446,0.21747161,0.4020964,-0.018660214,0.0057438426,-0.06071052,0.1721998,0.13796397,0.23623827,-0.054927025,-0.22401413,0.03829426,0.058136806,0.2106586,0.155995,0.071180806,0.19002494,0.14419581,0.23726794,-0.19105938,-0.32860908,-0.06192761,0.33798486,-0.33595768,0.16420048,-0.20575058,0.23903275,-0.37963745,-0.1455493,-0.33384544,0.35014665,0.21626966,0.046558406,-0.021731652,-0.14739436,-0.3021615,0.022662252,0.19338374,0.20910932,-0.20279469,0.03640371,0.13160415,0.20668544,-0.15768693,-0.28556347,0.06667193,0.08726797,-0.24912332,0.11007473,-0.0027909612,-0.19118613,0.07782234,-0.22639215,0.44988096,0.14717737,-0.39682093,0.07380088,0.16698816,-0.24141161,-0.03008319,-0.35978293,-0.011391757,-0.39304364,0.31810802,-0.33683437,0.22533053,0.07758041,-0.31677234,-0.30148587,0.21396996,0.13548385,0.16850609,0.218165,0.11449901,0.095567696,-0.41111585,-0.36127514,0.2859627,0.1862801,-0.3664969,-0.16256848,0.09064444,0.3862146,-0.3112387,-0.27184647,0.17782213,0.033889167,0.016185291,-0.27493426,-0.2838417,0.2003603,0.35444817,0.046223518,-0.36381093,0.3213451,0.24701366,0.029291265,-0.12820032,-0.37749314,-0.18973169,0.001567496,-0.12522893,0.34302753,0.046617545,0.22883287,-0.03234196,0.026174063,-0.33411622,0.106776424,-0.19485407,0.05355343,-0.25168574,-0.12828395,-0.006434478,0.37913996,0.18282112,0.17482461,-0.11762369,-0.23579414,-0.072262,-0.4619672,0.062720604,-0.37845063,-0.09291888,-0.15087637,0.23598953,0.13233787,0.091209635,-0.36840805,0.38378385,-0.31038183,-0.19629677,-0.41582823,-0.11869446,0.42901108,0.31556287,-0.020987825,-0.39839008,-0.28054577,0.016982587,0.3369009,0.37751162,0.18979667,0.19785024,-0.33249667,-0.40743664,0.4983776,-0.18377256,0.06206265,-0.43095642,0.13555668,0.34454164,-0.005272577,0.3653063,-0.068785705,-0.23631491,0.031957105,0.41929242,0.06535532,-0.035875335,-0.12625138,-0.31177366,0.39740118,-0.09790645,0.17306338,-0.28126103,-0.26599807,0.2921297,0.19072518,-0.18520342,-0.34704643,0.0653504,0.0641697,0.26196048,-0.045506135,0.3254511,-0.12202735,-0.08725658,0.3200125,0.20636545,0.27908862,-0.020831803,-0.08160031,-0.04233498,0.30373374,-0.071686216,-0.5047032,0.40190133,0.35078502,0.034432948,-0.09974893,-0.11401465,-0.005459898,-0.06296527,0.50967497,-0.15165456,-0.4386777,-0.113192804,0.2639427,-0.14395265,0.19988972,0.16518362,-0.11539718,0.20146441,0.1776937,-0.13254479,0.26183373,-0.27063465,-0.23113751,-0.405219,0.2944978,0.2820956,0.37215117,0.24205261,-0.14089502,0.01597311,-0.27294946,-0.07279779,0.12815401,-0.27338824,-0.22711165,-0.28656802,-0.059416883,0.17626953,0.1532565,-0.14988315,-0.44072458,0.13436551,0.42786252,0.27218908,0.26446104,0.0998047,-0.34619847,-0.3999927,0.21758342,-0.028803637,0.4172855,0.13574542,-0.10712762,0.0025141472,-0.12690714,0.18580341,-0.2170203,0.12076287,0.080951914,-0.3703527,0.22976668,0.26608604,0.009734776,0.21067089,0.3529619,-0.21719672,0.12149702,-0.008058938,-0.35917988,-0.18715091,-0.3420864,0.32773754,-0.14675757,-0.013102254,0.3496187,-0.30539453,-0.2390687,0.021636877,0.28045747,-0.10090996,0.17084174,0.4291298,0.100954175,0.20722948,-0.13531747,-0.36133665,-0.10977652,-0.3355316,-0.3309035,0.22009088,0.10546955,-0.16637126,-0.23693863,-0.14558676,-0.10718042,0.27480417,-0.11654945,0.050248023,0.18346263,0.044900447,0.17109992,-0.16138922,0.09814978,0.3464185,-0.40194675,0.3319476,0.11813099,0.18273667,0.025288565,0.27353972,-0.42274663,0.2625048,0.0071885474,-0.09140597,-0.15543725,-0.1537472,-0.015378881,0.23306152,-0.06681822,-0.15375084,-0.35620967,0.30227438,0.4327613,0.08050352,-0.13003999,-0.024031803,-0.052213103,-0.22633198,0.15267436,0.14375146,0.35937625,-0.17521249,-0.2430646,-0.3477287,0.29899642,-0.14817569,-0.14010358,0.45462918,-0.28562108,0.061048985,-0.35095152,0.3188153,0.35459098,0.20938192,-0.30626047,0.08364755,-0.4145782,0.167502,0.18664113,-0.42552492,-0.034578767,0.3559628,-0.2984837,0.18914685,0.018502064,-0.082753144,0.04824136,-0.009586344,0.26491228,0.13909023,0.52061945,-0.44804794,-0.20297398,0.16951667,-0.33876866,0.050679006,0.22472946,-0.1791624,0.15617433,0.14889103,-0.1183129,-0.29069838,-0.37909085,-0.4231802,0.28098506,0.048281293,-0.12668003,0.40129483,0.1999268,0.27032974,0.21586902,0.19478257,0.19160959,-0.1342002,0.22753432,0.1274277,-0.43338257,0.36068672,-0.41962695,0.16779305,-0.3881914,0.26768494,-0.21834034,0.0349966,-0.050565157,0.32655382,-0.15479268,0.059588954,0.42388552,-0.3334067,0.014911764,-0.305152,0.061712425,-0.30502534,-0.25111917,-0.1086244,0.30365208,-0.035122618,-0.15155564,-0.1144699,-0.2736443,0.37267432,-0.059862893,-0.34480202,0.042846963,-0.3911428,0.27963677,0.16814135,0.026101852,0.33939126,-0.18074726,0.22124663,0.15822117,-0.06275678,-0.31373146,0.39683196,-0.031996254,0.4525732,-0.41754326,-0.17300692,0.23957895,-0.0782432,-0.1062144,0.05503565,0.25862387,-0.052534647,0.17732564,0.046310745,0.24778996,-0.04624163,0.2861673,0.021965828,-0.24740776,-0.36585146,-0.25248814,0.027548263,-0.30420756,-0.2996717,-0.29989943,0.23543084,0.46607146,-0.16706662,0.46077615,-0.13792275,0.18933184,0.383994,-0.18092453,-0.028271882,0.010690358,0.0984082,-0.30066565,0.25180432,-0.16661328,0.13858548,0.24447837,0.07532833,0.17966479,-0.4070431,0.297437,0.06674689,-0.0824251,-0.01661332,0.24960645,0.32808644,8.92516E-4,-0.116084956,-0.2954523,0.24562001,-0.169645,0.37730488,-0.009431389,-0.18226814,-0.25546065,-0.25384432,0.0304621,0.22832043,-0.415355,0.40712813,0.20540075,0.19993351,0.38355523,0.3454931,-0.27126038,-0.36406308,-0.27418295,0.3901917,0.31790224,0.28613105,-0.24420984,-0.061858945,-0.24657421,0.3204915,-0.16914439,0.30881226,-0.08526906,-0.031505615,-0.0460883,0.26073715,-0.051903322,-0.20008804,0.07298008,0.3607367,0.25703305,-0.41161877,0.064564325,0.23144966,-0.25083858,-0.34872326,-0.13949265,0.08122449,0.19154716,-0.16426605,0.38845363,0.046872158,0.4611145,-0.1577779,-0.14105827,0.19726203,0.12505266,-0.28135103,-0.45811528,0.1061554,0.39107463,0.35376933,-0.23749922,0.05943018,-0.24457873,0.19760422,-0.16056898,-0.37100527,0.377348,-0.1586164,-0.034374602,0.3764878,-0.22958939,0.5011598,-0.008597857,-0.34244666,0.34448653,-0.08237689,-0.086495206,0.1800872,-0.058254197,0.13189732,0.18377341,-0.34745386,-0.086196154,-0.019302618,0.32311928,0.03415078,0.124430105,0.30692667,0.16797082,0.09737063,0.02413164,-0.49900743,-0.33270308,0.29447794,0.2078181,-0.35896298,-0.034059662,0.27852586,-0.020521082,0.02848221,0.07178958,-0.3348522,0.4024153,-0.37911853,-0.11051992,0.12823227,-0.09769242,-0.13403736,-0.4041516,-0.33148018,-0.116514206,0.33180946,0.082946196,-0.32797846,-0.36910287,0.5344256,0.047009397,-0.34285247,-0.13639398,0.103596255,-0.16489275,0.36297426,0.113677844,0.21933457,-0.38372144,0.4675365,-0.27488485,0.3268979,0.16426614,-0.1733843,0.016730046,0.34520027,-0.39127618,-0.10656873,0.2514146,0.0025974347,0.013098742,-0.31940106,-0.091412395,0.19632685,-0.2913442,0.25167686,0.44246772,-0.18968777,-0.09448335,-0.0978209,0.04127365,-0.3470578,0.37437475,0.14699209,5.703081E-4,-0.26529852,0.120505325,-0.4123018,0.21680209,0.3223416,-0.53621894,0.22152676,0.31072584,-0.4452289,0.008123251,-0.3249303,-0.37942803,0.43507063,-0.17703922,0.050157573,0.070651904,0.23333319,0.32822683,-0.2972232,0.054266956,-0.01747757,-0.06662825,0.20240499,0.06698557,-0.13615072,-0.25965917,-0.14782448,0.059475917,-0.20204121,-0.3920447,-0.20759901,-0.09374753,0.29497686,0.1282431,-0.19465294,-0.04514749,-0.19549526,-0.26176846,0.11755504,-0.061196823,0.011330009,0.35236657,0.24845357,0.2496224,-0.09124204,0.12379111,-0.46106347,0.12742782,0.2635267,-0.37772056,0.31909573,0.10957976,-0.031488597,0.059201155,0.1641863,-0.29011908,0.31710443,-0.24552023,0.3856712,-0.17369933,-0.3620095,0.17900582,-0.025963366,-0.16679467,-0.33118102,0.0038280613,0.110298686,-0.26649946,0.2862375,0.16165583,0.29532626,0.26056275,-0.4686276,-0.34169188,0.0791037,-0.50371027,0.10931109,0.03791001,0.3585276,0.5183945,-0.44538385,0.17957944,-0.3219292,0.29663733,0.028672535,-0.40734956,0.1195086,-0.032003045,0.14687267,0.10207797,-0.327599,-0.3603061,0.24321723,0.057934493,-0.26298568,0.26642174,-0.107277155,0.03530917,0.18920763,-0.0785234,0.09874865,0.45437872,0.08571232,-0.24750182,-0.3401518,-0.29027846,-0.15739605,-0.27495214,-0.18074636,-0.19073729,-0.13394645,0.4606385,0.060791135,0.0571811,0.06674254,0.42311585,-0.2387982,-0.37011585,0.3580844,0.017192718,0.26068735,0.08049122,0.3928102,0.121725984,-0.3751918,0.1972209,-0.40070704,-0.14237215,-0.03955564,-0.22014502,-0.073503874,0.2516662,0.09442136,-0.3724005,0.42233896,-0.20260541,0.506184,-0.29372525,-0.34165806,-0.27942806,0.08548144,-0.13104582,0.13239521,0.11560098,-0.39568272,0.15612997,-0.022146642,0.09800941,0.21098256,-0.104390465,0.3207098,-0.23549622,-0.14827314,-0.19146967,0.17802282,-0.32552317,-0.3265284,0.07178866,-0.37189224,0.5617814,-0.31003714,0.12973592,-0.112262554,-0.044479534,-0.07165356,-0.0049229246,0.16688976,-0.2865044,-0.093534715,0.3776457,-0.28590226,0.1570805,-0.02366074,-0.32329315,0.10504739,0.3479672,0.04383734,0.13255225,-0.16465324,0.0039549456,-0.34083852,0.054195166,0.20010532,-0.13142504,-0.01802595,0.24496607,-0.19836603,0.21449293,-0.5143912,0.27070543,0.29178542,-0.2607219,0.41533896,-0.29632396,0.09882035,0.29093137,-0.09427163,0.12576437,0.2714724,0.1293502,0.28963694,-0.18425058,0.17676283,-0.38671464,-0.007461779,-0.17622416,0.13822603,0.23902096,0.057510756,-0.24881703,-0.3177341,-0.40216413,0.36715153,-0.119757436,-0.42414206,0.29942274,0.0635243,0.14606108,0.40642658,-0.4798259,0.41144133,-0.09182403,0.06117705,-0.20791635,0.07198137,-0.07422911,0.33651137,-0.17567243,-0.38916728,0.0012441896,0.40473098,-0.26660237,0.27932903,-0.36632916,-0.053551678,0.16977933,0.17039132,-0.0102817295,0.40950623,-0.10198403,0.08297432,0.27340832,-0.3263224,-0.2283841,0.2513878,-0.3194997,0.1788454,-0.12091151,-0.31956407,0.39904255,-0.056198996,0.18789868,-0.17797019,-0.111070216,-0.3133592,-0.2218449,0.119529516,0.25986564,0.1827003,-0.30816948,-0.06557405,0.23596273,0.14946702,-0.014528122,-0.3842591,-0.15965375,0.013145322,-0.3402338,-0.052311268,0.28579676,-0.37388355,0.3333261,0.17676747,0.29483762,0.22958298,-0.0046710414,-0.20827492,-0.088119045,0.16425708,0.012324975,-0.040086627,-0.18042132,0.38389996,-0.2562607,0.14023948,0.11464753,-0.31432205,-0.31898898,-0.020750405,0.44910106,-0.18635297,-0.3537448,0.20452076,0.320132,-0.3394482,-0.3680497,0.24091789,-0.1933136,-0.07629148,-0.2896393,-0.070624575,-0.32293528,-0.10731103,0.011746898,0.42103946,-0.07229853,0.43976796,-0.389446,0.18806566,-0.15079662,0.13373707,0.2089449,0.09448992,0.18515942,-0.20496637,-0.024701862,0.20234422,-0.06301431,0.2865796,0.13367496,-0.21481563,0.25453576,-0.23892106,0.19979167,-0.430481,0.34098086,-0.0047079753,0.35145208,-0.12567993,-0.2713005,-0.29678017,-0.43189508,0.5469768,0.18380894,0.26911685,-0.16176738,-0.38964432,0.2918973,-0.16917977,-0.17893909,-0.2829807,0.34963492,-0.35148063,0.0167308,-0.36576322,-0.3003458,0.0048874347,-0.005589319,0.45869163,-0.2626249,-0.25336018,-0.40516844,0.44694832,0.14277513,-0.02790712,0.3660289,-0.28886965,-0.045240898,-0.042940974,-0.3905351,0.15612681,-0.39727715,0.027959568,0.07718649,-0.019606994,0.15466149,0.3107405,-0.40800035,0.2539999,0.24260822,0.31623507,-0.2732413,0.060376193,-0.15102643,0.4369459,-0.38069934,-0.19668423,0.43669584,-0.1890957,-0.0720285,-0.08706027,0.21447943,-0.3719311,0.18015802,0.22705764,0.3429534,-0.12272502,-0.119841106,-0.074321724,0.1394809,0.056702815,-0.011210803,-0.37385172,-0.28807592,-0.01369456,0.2562469,-0.21351673,-0.3054415,-0.23853107,-0.05216107,0.022874266,-0.36430794,-0.32942772,-0.038510695,-0.30186635,0.20632514,0.2502523,-0.40149194,0.34015942,-0.183988,-0.086588025,-0.24259742,0.31845704,0.2775896,-0.4562704,0.26897347,-0.04713836,0.3635003,0.33832604,-0.43221903,0.3598899,0.1808534,0.15491623,-0.29658157,0.24532337,-0.44495055,-0.36456126,0.3049181,0.06843805,0.082751386,0.115657575,-0.32605308,0.23252742,0.26884186,-0.39819703,-0.05288875,-0.39506617,-0.37848726,0.39955503,-0.05484481,-0.054148607,-0.28504825,0.22630824,0.41431487,-0.25901258,0.06716767,0.40606198,0.035375137,0.012376427,-0.20549528,0.07330855,-0.4135272,0.34346467,0.07320172,0.17134584,0.03691645,0.20115182,0.35122427,-0.22038256,-0.23948324,-0.096527606,0.4237338,-0.3531694,-0.099251725,0.2562582,0.20508748,0.12695692,-0.34098935,-0.05396356,0.38469252,-0.20886654,-0.15975238,-0.13805802,0.2874221,-0.1534492,-0.16908856,0.18479858,0.112980105,-0.271025,-0.25995094,-0.029671004,0.11842669,0.3384878,0.1238864,0.020320341,-0.41073528,-0.09241973,0.04787943,0.3396933,-0.17444225,0.35924262,-0.20895708,0.016574198,-0.17773424,0.14252914,0.30640483,-0.28555334,0.18680853,-0.021410521,0.06308635,0.16732627,-0.45775548,-0.23602635,0.4275563,-0.20081075,0.28359884,0.25246486,0.43336365,-0.22829567,-0.26571092,0.4080706,-0.18058825,-0.15941304,-0.30131,0.30644193,-0.39784995,0.2745319,0.023194408,0.0608668,0.24889849,-0.06979495,-0.20207332,0.30916226,-0.062618166,0.0127980355,0.11459743,0.18922086,0.09195979,0.31287616,-0.25011933,0.27445623,-0.27068037,0.17755528,-0.21947628,-0.3651009,-0.026036678,-0.3865789,-0.012213679,-0.15216564,0.39217314,-0.21389915,0.2343763,-0.3138213,0.07363714,0.31722826,0.0134120295,0.28162953,0.12868485,0.17852822,-0.25736433,0.32982692,0.11597606,-0.38015196,-0.11458682,-0.18903904,0.13149118,-0.0049382,-0.08435396,0.19276702,0.13052663,-0.2855569,0.07850265,-0.033629954,0.31786132,0.07122346,-0.12106893,-0.0974194,-0.1962695,0.114709154,0.3706757,0.21419765,-0.13649009,-0.17946048,0.046912864,-0.34791398,0.016570223,0.026496766,-0.046081472,0.29519644,-0.07896376,-0.1512566,0.16451639,-0.18100993,-0.29935586,-0.14963125,0.040936667,0.35449842,-0.17987789,0.39651945,-0.031189213,-0.34432948,-0.25236487,-0.09860743,0.16347353,-0.23432809,0.40294144,-0.25514165,0.38605958,0.11988785,0.21087785,0.21388231,-0.07219468,0.013061313,0.2603416,0.06040592,2.1538472E-4,0.30952767,-0.08383957,0.3289428,-0.08624155,-0.41521573,-0.121369384,-0.06615705,0.077676006,-0.43397245,0.21577871,-0.39222336,0.26519284,0.11706844,-0.37783867,0.45647192,0.2561237,-0.20843913,0.025346382,-0.079241484,-0.41028762,0.2960732,0.40201154,-0.34546566,-0.16282429,-0.06820394,-0.10853445,-0.05142741,-0.19753863,-0.10962595,0.42438322,-0.4212104,0.08575421,-0.20095551,0.104719326,0.25060973,-0.12833308,0.12391585,0.3463112,-0.06784838,0.34752363,-0.042261526,0.1722775,0.08247169,-0.22333838,-0.060680028,-0.15180747,-0.33285302,-0.016014852,0.41681415,0.2295137,-0.38778263,-0.34272417,0.28109786,-0.049158137,0.19152048,-0.1342514,-0.13147856,-0.4076858,0.08483951,0.23635691,-0.3695659,0.31065372,0.25322714,0.26576108,0.028729487,-0.240733,-0.25623652,-0.4339169,-0.24002892,-0.22066578,0.32536125,-0.26944387,-0.1884384,0.15197587,0.32470495,-0.017137937,0.018436609,-0.26098058,0.049513604,-0.298657,0.107630126,-0.2804357,-0.32198945,0.11745226,-0.30831847,0.29806167,-0.18164131,-0.06784024,0.14701805,-0.46475255,-0.14609279,0.16527157,0.12740281,0.12644641,0.24658833,0.108077385,-0.37921467,0.47219062,-0.40278924,-0.40836567,0.042337045,0.02548346,0.2761661,-0.27553532,0.34346196,0.27795234,-0.042999353,0.34519145,0.02208185,-0.12245785,-0.2886578,-0.27158317,-0.040732753,-0.34842813,0.4053108,0.34106347,-0.25626117,0.011133989,0.17124277,-0.2092715,0.31357735,0.026756713,0.23351061,0.10137121,0.1416309,-0.004577647,0.12201894,-0.08155834,0.3315082,0.23916104,-0.37662846,-0.13279057,0.27846986,-0.32999262,0.30418837,0.20759545,0.17438006,0.018879713,-0.4200057,0.15975316,-0.034005173,0.20297694,0.11733197,0.17475343,0.24664213,0.24818754,-0.18497932,-0.211762,-0.06106682,-0.114682056,0.12630025,-0.05293616,-0.3453675,0.10216287,-0.37694314,0.22651525,0.30097857,0.24536629,-0.30884004,-0.34172168,0.27832386,-0.017925587,0.23965022,-0.40940595,0.09854332,-0.023031598,-0.060723037,0.18096645,-0.4265134,-0.003372145,-0.4591669,-0.18089297,0.3647162,-0.118852444,0.32427812,0.43218696,0.23990928,-0.32904398,0.27217537,-0.27226862,-0.16951561,0.32521993,-0.056569833,0.32432535,-0.028085297,-0.46261236,0.24606793,-0.2659267,0.09908427,-0.06269062,0.21310544,0.10264848,-0.274383,-0.35891327,0.47837022,0.36596897,0.29634017,-0.32154077,0.14140078,0.06850925,-0.11007523,-0.4196802,-0.15261349,0.29214868,-0.061661668,0.47645175,-0.3722232,-0.023793373,0.25214285,0.11129575,0.17456006,-0.01638582,-0.31607395,0.26769254,-0.44175282,0.1526212,0.4180281,-0.23572122,-0.18443243,0.015511619,0.0011954637,-0.3592057,-0.051096175,-0.045071892,0.11896402,0.2746163,-0.13603237,0.3131145,0.41808763,-0.058058977,-0.034548838,0.06532667,0.102553055,-0.2573503,-0.29586115,0.0012364216,-0.28267056,0.12704633,0.32108718,0.032711368,-0.33986145,0.14328021,-0.23770419,-0.19603685,0.36533207,0.31022987,-0.1358481,-0.33627936,-0.055347454,0.2224788,-0.0053465934,-0.27450392,-0.3221196,-0.23678246,0.37918347,0.22811592,-0.1620865,0.08018973,0.07031133,0.27956048,-0.071728855,0.1396978,0.08540523,0.31079975,0.07684426,0.13075633,-0.3779555,0.38004658,0.32023877,-0.4126066,0.43098027,-0.029870372,-0.42645842,-0.28786096,0.42263475,-0.0032011778,-0.105612084,0.14633036,0.09583283,0.13748005,0.2952565,0.23787412,-0.25597608,0.41384676,-0.16415265,0.099804,-0.24748425,-0.20029588,-0.41188744,0.08729245,0.1098444,-0.04950911,0.25957596,0.04204131,-0.32051992,0.28487098,0.27231362,0.17954166,-0.06992579,0.20752805,-0.14061232,-0.0911513,0.20099157,-0.23634847,-0.06956408,0.21855919,-0.04993116,-0.16422284,0.120971166,-0.10853283,-0.36195344,0.20141962,0.1913184,0.35409755,-0.51854336,0.18082546,-0.05079262,0.30883837,-0.33256704,-0.26163408,0.14052585,-0.100400046,0.4308012,-0.07565991,-0.08100785,-0.004525337,0.12813778,-0.21082813,0.15560476,-0.20237237,0.21897805,-0.20132402,0.19215229,-0.21758744,0.34608048,-0.032571204,0.4125562,0.010246082,0.07263679,0.040084705,-0.3777988,0.05660124,0.17515825,-0.20037635,-0.33647895,0.3566684,0.2930357,0.10973753,-0.3392727,0.2615324,-0.36061576,0.27285445,-0.0291602,0.13108824,-0.43168682,0.1570431,0.12785946,0.2855493,-0.26636973,0.0689027,0.36077383,0.20388058,0.29481378,0.3111444,0.03702213,-0.39532954,0.13995524,-0.5009818,0.020719524,-0.084833995,-0.12003507,0.12125798,0.34606507,-0.24442786,0.21185914,-0.10774855,-0.43081233,-0.030583275,0.17670313,0.05244128,0.26639962,0.17898647,-0.43655252,0.21397579,-0.30960268,-0.052398413,-0.24015714,0.059784576,-0.0038691023,0.13140011,0.11564585,-0.33110425,-0.07871647,0.3506267,0.07853004,-0.24649788,-0.23862448,-0.010498955,0.057551786,-0.36235768,0.13813172,0.28513607,-0.3797703,-0.26323092,-0.1755445,-0.28036538,0.07594238,-0.28783503,-0.21790944,-0.3479289,-0.2542669,-0.21036588,0.057616983,-0.32863346,0.18911591,0.22700337,0.3725451,-0.4365108,0.3754846,0.3384561,0.15297188,0.25414813,-0.1264838,-0.03215989,-0.18086018,-0.08791004,0.43044093,-0.15010571,-0.004311175,-0.33168733,-0.08465986,-0.09702251,0.4252194,0.33630767,-0.34593222,-0.12028029,-0.19034895,0.071270615,-0.12692091,-0.32853562,-0.05068552,-0.19673322,-0.30277035,-0.08792233,0.28029853,-0.12497836,-0.19777691,-0.3446969,0.20452745,0.36645144,-0.16441181,-0.14850543,-0.11058072,0.41664523,0.19829646,0.082824044,0.39621833,-0.27060345,-0.20985071,0.061026856,-0.29050377,-0.33895028,0.3918056,-0.14415419,0.042826694,0.10925183,-0.11281262,-0.4500967,0.23563173,0.14653419,0.10650872,-0.39130658,0.22426459,0.33172983,0.008355447,0.08394396,0.3216872,0.15137413,-0.42217824,-0.2268212,-0.43214297,0.23726252,-0.41731656,0.35236457,-0.049551394,0.21063487,-0.2738136,-0.10119055,0.3110158,0.028162114,-0.051166378,-0.35931534,0.3134339,-0.28572577,-0.07552233,0.05698195,0.20561847,0.27394676,-0.09295929,0.34197447,0.24459983,-0.19567803,-0.31708252,0.40054938,-0.05879302,-0.08768025,0.17650093,-0.39691508,0.29199067,0.09137357,0.3483746,-0.044596434,-0.24035862,-0.23241113,-0.18910901,0.15118642,-0.30082148,0.37644294,0.18174148,0.33901173,0.3063993,-0.19377196,0.3509412,0.4270583,-0.38122752,-0.04817167,-0.07125574,0.17682633,0.18777166,-0.26815265,-0.22344851,0.052380588,-0.24361734,-0.31313318,-0.31160608,0.345923,-0.2268584,-0.11148284,0.4653497,0.20077504,0.09114827,0.07854453,0.03963267,0.07441753,-0.026242247,0.2458701,-0.17719178,-0.2801817,0.06862394,-0.37184748,0.34843728,-0.3096558,0.07285805,-0.33341324,0.20048371,0.18952565,0.36131725,0.25495958,-0.14435957,-0.37688792,0.24170709,-0.09069251,0.37779117,-0.094740696,-0.2443834,-0.064211786,-0.41806486,0.10873765,-0.41810918,0.059850942,0.39561832,0.3713355,-0.2606827,-0.33267534,0.031388637,-0.18180916,0.03899394,0.266573,-0.13090819,0.42154083,0.10261102,0.095172055,0.3823678,-0.1800403,0.32225844,-0.2581738,0.017981298,0.32306612,-0.19158041,0.2919139,0.008346545,-0.3621011,0.20785841,0.101157986,-0.33408645,-0.38753828,-0.0100469915,-0.31052238,0.2582562,-0.3497363,-0.3453024,-0.2561127,-0.13113187,0.26885527,0.32214352,0.355978,0.021835392,0.2875044,-0.36100346,0.20977396,-0.282242,-0.3480482,0.4106462,0.030924665,0.37703815,-0.22056414,-0.037840955,0.2732369,0.21180293,-0.38234213,-0.31139302,0.1977076,0.1184524,0.15338457,0.3322378,0.12613699,0.09374624,-0.25084895,0.13243717,-0.14522487,0.15730475,-0.14431857,-0.32130292,-0.33913222,0.47452167,-0.14015679,0.23521602,0.15025656,-0.20741414,0.19311304,-0.18311012,-0.049948238,0.31222326,-0.32043895,-0.20016937,0.07286999,0.27117243,-0.031754907,-0.31249902,-0.3707245,0.44795173,-0.3914283,0.0065048668,0.23504524,0.012502454,-0.103168495,0.3743066,0.0826516,-0.0034056215,-0.011219853,0.39842066,-0.00259472,0.24683458,-0.35044977,-0.39452994,-0.22709139,0.10970986,0.06606452,-0.30259195,-0.1164125,-0.1610772,0.03698298,0.1400382,0.30578667,0.028957969,0.34047803,-0.06798697,-0.073478594,0.18758033,0.15267797,-0.03923313,0.21520865,0.2706697,-0.12838617,-0.107537,0.14838363,0.081235975,0.37078273,-0.13320881,-0.19707787,-0.46575686,-0.12183125,0.33538264,0.122237876,0.3227737,0.18131351,-0.28574,0.25087163,0.08695197,-0.4387745,-0.2662669,-0.15899277,0.41392416,0.35216868,0.10870201,0.4415297,-0.2521348,-0.23525542,-0.06610737,0.13726735,0.010269622,0.03353437,-0.30615923,0.26911584,-0.0315023,-0.13730226,0.27016613,-0.24147756,0.09861941,-0.28887033,0.14177865,0.40290636,-0.41127694,0.32383955,0.13263956,-0.11517468,-0.018817384,-0.14809759,-0.28481737,-0.10892647,0.050505962,-0.1632236,-0.1141074,-0.047383804,0.25078216,0.18823142,-0.41703284,-0.11686623,0.39446357,0.1453457,-0.049231034,0.16525657,0.06258513,0.28157908,0.22682478,-0.36622238,-0.22421432,-0.03946813,-0.4032619,0.05316265,-0.3536141,0.24687839,0.39559838,0.14464962,-0.16664985,0.17999922,0.025047438,0.29005265,0.290894,-0.2630912,-0.23370077,0.24024273,-0.039218962,0.21967408,0.2813563,-0.1545085,0.2533915,-0.34816626,-0.3601017,-0.15646537,-0.34764752,0.1102304,-0.319396,-0.0049048224,0.079869896,0.044612736,0.115364514,0.04946249,-0.045544103,-0.11884486,-0.3399228,-0.28114188,0.0888797,0.36503914,-0.10945454,0.036952265,0.39973974,-0.055620663,-0.2169293,-0.104399845,-0.14928387,0.11369351,0.38771403,0.022303408,-0.26038143,0.12461154,-0.15852605,-0.31508413,0.0855169,0.44150373,0.09076619,-0.11872374,-0.13226496,-0.21819106,-0.13637032,0.37872338,0.34172842,0.11561353,0.20143904,-0.17717363,-0.38893095,0.05118647,0.06503105,-0.224028,-0.23879786,-0.3832649,-0.02553173,0.034860507,0.0030087577,0.21111079,0.2672124,-0.10225682,0.37161195,0.04946471,-0.11900487,0.031288553,-0.25883046,0.05646443,0.1512514,0.26471043,0.118437566,0.19475578,-0.0995694,-0.37292,-0.118688405,0.12130833,0.047042985,-0.35117114,0.30999574,-0.08808195,0.37983915,-0.44141576,-0.06358214,-0.08423207,0.2149332,0.16359559,0.21553546,-0.3101035,0.036669098,0.1462179,-0.1667244,-0.18514487,-0.18931778,0.3607455,0.2765109,-0.40996343,0.38961312,-0.38616845,0.1720032,0.17604783,0.28949532,-0.23893842,0.15130657,0.25196955,-0.058179464,-0.11256196,0.096525826,0.19677748,-0.32564276,-0.419992,0.17019406,0.14390482,-0.15028556,0.2332616,0.1461785,0.30005294,-0.38835484,-0.40212175,-0.14881955,0.42425707,0.06313439,-0.29728153,0.47118172,0.02078644,-0.22365041,-0.24673052,-0.1836583,0.41952184,0.19041651,0.32098058,0.039484885,-0.08563018,-0.33113518,0.2869821,0.041934222,-0.12528422,-0.21652772,-0.42416707,0.2350382,0.165509,0.25869575,-0.25061232,0.37084422,0.2444894,-0.1933694,0.15249936,-0.33535108,-0.32735097,-0.11784234,0.44272748,-0.33406612,0.4001083,-0.008296335,0.26472405,0.2965118,-0.1527731,-0.41782406,0.34013656,0.011583287,0.1295406,-0.46412897,-0.42606118,0.4734775,0.12556535,0.40782663,-0.42365724,-0.42414194,-0.15339449,-0.28449455,0.35629356,-0.33645707,-0.1452804,0.2501391,-0.06227455,0.25235128,0.0811283,-0.36941612,0.081202336,-0.15921487,0.31695336,0.2878171,0.19447224,-0.26923683,-0.0986062,0.21447532,-0.0014598871,0.22857812,-0.032674067,0.3814534,0.1182877,-0.18891712,0.04139161,0.3126796,-0.32516897,-0.24680081,-0.3874747,-0.050955143,-0.37197775,0.40570754,0.41727555,0.3158081,0.4042738,-0.30234408,-0.20304254,0.16594222,0.002024945,-0.14502104,0.3614305,-0.10011624,0.11666576,-0.23347911,0.013737412,0.41099697,0.20035405,0.007905902,-0.24308832,0.031598177,-0.31205058,-0.03978083,-0.01187099,0.28993726,-0.43948033,0.011632087,0.37063652,0.35606498,-0.06361067,-0.18905064,-0.11890092,-0.3917042,0.28444877,0.033630013,0.35660028,0.26814082,0.18899119,-0.21357208,-0.13272159,0.09941235,-0.20032749,-0.2211114,-0.1707981,-0.057655334,-0.01846936,-0.1257831,-0.30109778,-0.10101054,0.030937713,-0.06793434,-0.0038301758,-0.31626892,-0.054141384,0.251571,0.38972917,-0.15402575,0.10245257,0.08099186,-0.0854916,-0.07686868,0.42710343,-0.28777215,-0.012200343,0.18108161,0.21154039,0.30491558,-0.14377181,-0.13976835,-0.19234869,0.10812352,-0.3666922,0.17234102,-0.014415814,0.36941546,0.18685836,-0.4588242,-0.15065746,0.4262636,0.002858153,0.22372212,-0.14847925,0.10007821,-0.27802163,-0.15218969,0.19583534,-0.14728113,0.35866022,-0.09611983,-0.32090724,0.39844698,0.33006003,0.37852684,0.06521142,-0.15696578,-0.43787584,-0.26719669,0.40902337,-0.4588332,0.32805958,0.021603866,0.23684981,-0.057227425,0.1573914,-0.20981842,0.0957246,-0.02604338,0.23718974,0.3542673,-0.16096625,0.03279131,0.008986116,-0.27859583,0.0027243157,0.27910644,0.16986877,0.21191354,-0.005025668,-0.37283218,-0.18898611,-0.33550784,-0.065870404,0.19907825,0.21141127,-0.37748024,0.20115468,-0.05463745,0.27505094,0.13250896,-0.28022358,-0.21798329,0.118836716,-0.12613647,-0.14149438,0.17805757,-0.15555447,-0.0029692724,-0.020723365,0.11174226,-0.32636487,-0.3432784,0.2592306,0.27863616,0.2960089,0.33879694,-0.27596214,-0.33269647,-0.007994215,0.19040027,0.009019256,0.18730818,-0.030172447,-0.06488318,0.014289618,-0.014143342,-0.04621619,0.26487225,-0.23498394,0.07700404,-0.21279667,-0.22854042,0.11735298,-0.08576864,0.35435495,-0.15775731,-0.34920457,0.34047714,0.11603222,0.13665536,0.37269428,0.038910974,0.09788632,0.320256,-0.09554858,-0.23825458,-0.15818933,0.29526797,0.31708893,-0.29685602,0.082418844,0.2008769,0.17300716,-0.426017,0.04666373,-0.15549476,0.16077131,-0.20021415,0.05714709,0.4031135,-0.16074924,0.356113,-0.27235338,-0.38224655,0.1396215,0.056526482,-0.15562262,-0.3210208,0.49905244,-0.39506236,0.31512445,-0.017449142,-0.08499265,0.31566218,-0.21517095,-0.010187796,-0.051787943,0.08760871,0.31054753,-0.05085865,-0.4482234,0.22759402,0.19992699,-0.14337115,0.30159724,0.24606635,-0.3144126,0.06721404,-0.3237362,-0.22926964,-0.12786198,0.10132707,-0.087786146,-0.25422248,-0.042365402,-0.20591229,0.41633517,0.14741561,0.25699475,-0.074187554,0.013945021,0.17156874,-0.35442835,0.22862904,-0.1479471,0.3311905,-0.11351029,-0.014646099,0.35589102,-0.25700167,-0.16471222,-0.28072834,-0.22777337,0.45503193,-0.18938392,-0.0059310948,0.48232824,-0.28836697,-0.28894144,0.288167,-0.30714446,0.34068173,0.13943645,-0.103703305,-0.19763266,-0.13122647,-0.16633746,0.2819067,-0.09897908,0.34702685,0.066775754,-0.22650263,-0.36629394,-0.21411476,-0.40195462,0.13129318,0.36507174,-0.278392,-0.25004342,0.05523434,0.0010310402,0.032360267,0.1017031,0.13287497,0.09363548,0.14462742,-0.06193196,-0.26120242,0.40818262,-0.041912463,0.1707673,-0.1468099,-0.04430137,-0.076040395,-0.08710227,0.19194274,0.098663494,-0.30222,-0.37713274,0.40903923,-0.050501663,0.3947632,0.0027435664,-0.3127322,0.3767383,-0.23166183,-0.1672406,0.14141117,0.19558877,-0.063529186,0.095159516,0.21075806,0.12959255,-0.2781936,-0.40376642,-0.0152541315,0.0139204785,0.29582325,-0.19102456,-0.059656817,0.2244613,0.2559526,0.054217257,0.017902303,0.16364501,-0.21470772,-0.1388806,-0.3948961,-0.033736844,-0.029605184,-0.28163174,0.26899263,-0.4066059,0.2712865,0.42251772,-0.3284804,0.47809696,-0.21227792,-0.11989018,0.24067523,0.17231749,-0.034863405,-0.21011712,0.35833934,-0.2954915,-0.07758357,0.35405514,0.42011613,-0.08197297,-0.15411249,0.3643737,0.07963828,0.40744632,-0.14606495,0.19493674,-0.07562851,0.16693841,0.24271806,-0.09589461,-0.061089624,0.22490363,0.23611806,0.09297997,-0.02611892,-0.34672284,-0.19029005,-0.009606171,0.06500447,-0.24792135,0.21947652,-0.34619367,-0.39687508,-0.23414628,-0.40908253,-0.12132548,-0.17259118,-0.14844263,0.43454307,-0.02911247,0.022777284,-0.37865794,0.5159385,-0.27861506,0.38837525,-0.10233842,-0.21241023,0.34995425,0.2029996,0.07705036,-0.3604904,0.0026182171,-0.19928257,-0.47217664,0.36323366,0.23602365,0.1715314,0.33023596,-0.10572347,-0.35865295,0.23444615,-0.1026049,0.3064335,-0.45615718,0.07299937,0.3184572,-0.47596806,0.4074849,-0.43720967,-0.0061049433,0.1400978,-0.257652,-0.33167315,-0.40288803,0.45040277,0.31543115,-0.20442727,0.25274664,-0.43247598,0.33091962,0.14683616,-0.4429694,-0.115670845,0.35275635,-0.17478414,-0.031341944,-0.16663875,0.36586636,-0.097902946,-0.11262811,-0.14123014,-0.13118552,-0.3953241,0.21731755,-0.40654185,0.4001371,-0.4172488,0.37641856,0.29512098,-0.42843616,-0.17468119,-0.19583449,-0.42845097,-0.0049706567,0.38785392,0.24591656,0.0077635995,0.37249762,0.32238227,-0.20753412,-0.28139195,0.09302662,-0.092827566,0.28913367,0.3490204,0.34586617,0.36862183,-0.1352049,-0.42908576,-0.024047514,0.11089057,-0.42524427,0.23734479,0.26725984,-0.09620699,-0.23885989,-0.35684848,0.20553815,0.18526989,-0.024296511,-0.09035678,-0.17550209,-0.0745003,-0.2747597,0.40920538,0.33203435,-0.036550872,-0.3933277,0.102311276,0.33648387,0.22061047,0.2061932,-0.35866785,-0.29009888,0.38192803,-0.01625835,-0.2650984,0.33963898,-0.43103975,-0.26378787,0.32887423,0.027411534,-0.1302456,0.2239468,0.29466367,0.18738328,0.24684465,-0.3682938,-0.22320202,0.15783665,0.26753676,-0.3366325,0.29417434,-0.09141956,-0.011003234,0.12963594,-0.023524996,0.29992592,-0.07750331,0.2864573,-0.12576997,-0.31347752,-0.36740696,0.40238893,-0.42560202,0.2656284,-0.35501882,-0.011343868,-0.24642205,0.3373606,0.12035351,0.14750649,0.2956992,-0.27218685,-0.15016086,0.1451403,-0.032488897,-0.17882128,0.047001436,0.36811346,-0.2500514,-0.30719444,-0.2812478,0.42254615,0.07993368,-0.25696355,-0.01061189,-0.33609384,0.27930778,-0.10601481,0.46566817,-0.34568235,-0.2673987,-0.14165474,-0.3595634,-0.057456147,0.0011981371,0.053186692,0.2818394,0.29894844,-0.22786236,0.20433955,0.0064762644,-0.1450089,0.3676225,-0.006896244,0.21965699,0.025871689,-0.08204394,0.111459,0.2723191,-0.13658264,-0.17775622,-0.21456797,0.30370966,-0.2126873,-0.31110358,-0.22314912,-0.293755,0.11042151,-0.07719995,0.09189285,0.3246027,0.21603923,-0.31062204,-0.08638883,0.35548845,-0.11081359,0.32980475,-0.25656632,-0.22915016,-0.34991732,0.119388595,-0.04412808,-0.12021871,-0.01860075,-0.19249877,-0.009072446,-0.1173008,0.3708209,0.23668234,0.27947506,0.036586355,-0.22479774,0.17979632,0.14968686,0.08243801,0.09764972,-0.0058845445,0.052106462,-0.34573433,-0.15150924,-0.014001628,0.33357126,0.02930037,-0.057418376,-0.24420772,-0.36670262,-0.41592515,0.34855837,0.12688692,0.32605124,-0.25907013,-0.06309442,-0.37591815,-0.25991827,0.40239018,-0.039537396,0.033010464,-0.24170761,0.24121268,0.4356224,-0.25037935,-0.33067715,-0.34640014,0.04653649,0.3269043,-0.12626293,0.1138801,6.7897054E-4,0.0915384,-0.21061221,-0.13890712,-0.033345297,-0.09241066,0.18524584,0.17409647,-0.37986565,0.47020066,-0.05098655,-0.046980605,-0.13785608,0.05979322,-0.12206732,0.3634777,-0.06274607,0.25016266,-0.4503536,-0.33591187,0.3208161,-0.39631313,0.17606129,-0.32294303,-0.37273934,-0.099337585,0.34747374,-0.40904623,0.37072566,0.28127113,0.3006738,0.2578726,0.33152336,0.29856992,-0.33214703,0.24685302,0.3131246,-0.33087724,-0.038048122,0.039923497,-0.35636035,-0.021598672,-0.2552755,-0.11099362,0.060205787,-0.039618857,0.34615335,-0.23861462,-0.076173805,0.24042219,-0.021937244,0.28638414,0.21146195,0.30843264,3.657126E-4,-0.25842738,0.04086657,-0.11982263,0.11096625,0.24607849,0.260828,0.23315388,-0.37984693,-0.05420118,-0.096054114,-0.22730902,0.37675893,-0.17895369,0.0936433,-0.11517688,-0.32843894,0.117519245,0.3173441,-0.26930764,-0.017006548,0.3424876,0.22289401,-0.34484112,0.056961626,-0.3299332,0.3992048,0.19244057,-0.39374438,-0.051370464,-0.08040216,-0.39438468,0.29578108,0.39886633,-0.4253855,0.4409438,0.11053002,0.313821,-0.3192878,-0.37442312,0.36383474,-0.33897334,0.46160161,0.1767083,0.24094948,0.11192404,0.18475594,-0.033648882,0.13759412,-0.23252238,-0.13593686,-0.003074554,-0.17633766,-0.061366398,-0.021422759,-0.20719253,-0.25942594,-0.22859806,0.052662306,0.07840193,0.15302478,0.07760623,0.11072931,0.14386666,-0.022788862,0.066923775,-0.3404319,0.43841365,-0.122973464,-0.42168048,0.4202916,-0.16192979,0.28038615,-0.12310908,-0.43756497,0.42508966,0.1300498,-0.04093914,0.411596,-0.38862956,-0.29653153,-0.3923256,0.09309945,0.14935304,-0.047630325,0.20077015,0.35689414,-0.114861146,-0.12190839,0.2610137,0.040080342,0.23071668,-0.089067556,-0.15983073,-0.24212891,0.3318777,0.3168103,0.30410546,0.17518598,-0.33399674,-0.15325578,-0.36226204,0.50260067,-0.23845676,0.07589167,-0.061825883,-0.39362875,0.053034265,-0.3064788,0.18590054,-0.3856752,0.4402362,0.0041313255,-0.26456213,-0.09828186,-0.111230895,0.38839996,0.07313613,0.23315649,-0.40096715,-0.08664595,0.018294796,-0.120320484,-0.29725596,-0.05349011,-0.012805023,0.35579196,-0.4472675,0.26583898,-0.3152961,-0.20432658,0.23064594,0.32103345,0.28622383,0.18276308,-0.17556019,0.36639282,0.19479528,-0.24362369,-0.20904568,0.1450374,-0.3305225,-0.05016322,0.22720312,-0.36116314,0.26036102,0.3781491,0.18123151,-0.36234832,-0.24204955,0.17311211,0.30825043,0.019094259,-0.048628032,-0.10159161,-0.2565065,-0.09014066,0.34421974,-0.029927468,-0.42802843,0.23889738,-0.008274866,0.45764446,0.15903132,-0.22354083,-0.1689127,0.13200416,0.06342924,-0.4545454,-0.3822011,-0.09934173,0.11497903,0.21627335,0.2853236,-0.08297801,0.21467517,0.28785843,-0.21150982,0.16759999,-0.43259797,0.23114713,-0.15004964,-0.22931494,-0.0026850884,-0.32012376,0.29060698,0.22102012,0.108598754,-0.051574916,0.02243707,-0.28381765,-0.2645523,-0.336832,-0.05491275,-0.13755783,0.14773047,0.2817483,-0.14567867,-0.3093026,0.122362114,0.32146513,0.23990837,-0.38538435,0.19864617,-0.16186363,-0.35330793,-0.2452484,0.15951708,-0.22190917,0.13636775,-0.2592747,0.48361424,0.02579978,-0.03725512,-0.29914626,-0.25984678,0.40844473,-0.17365576,0.3185588,0.28605506,-0.009163205,-0.33585805,-0.33594757,-0.0481866,-0.08639578,0.33812585,0.27703092,-0.27844945,-0.048714418,0.0089567,0.15688673,0.14616305,-0.1625976,0.092780866,-0.053023137,-0.12709306,-0.18938169,-0.32478422,-4.5015677E-4,-0.10167185,-0.24367787,0.4231886,0.13522266,0.1654027,0.09166729,0.057663675,-0.27656054,-0.011121367,-0.40512604,-0.06392555,-0.30811054,0.06739081,0.25006768,0.13519971,-0.39202762,-0.1001373,-0.3888672,0.2310456,0.44705558,-0.3869003,0.19715273,-0.22799583,0.38758302,-0.15309623,0.10539424,0.37683028,-0.33370963,-0.12522219,-0.042978235,0.06245751,-0.3367735,-0.10773668,0.31253186,0.38537535,-0.21382679,-0.2506675,-0.33270183,-0.00939214,-0.22199188,-0.18696113,0.22184561,0.1269831,-0.29427734,0.0019018272,0.14747323,0.4163238,-0.45344436,0.30513567,0.085343875,-0.3677996,0.34935704,0.09154032,-0.0985233,0.0369275,-0.27544507,-0.24648376,0.41308337,0.26654744,-0.19032015,0.4033634,-0.06634183,-0.16607493,0.1974888,-0.08208294,0.19061229,-0.31601378,0.1623368,0.28985336,0.04908882,-0.24159297,-0.13945657,-0.21979415,0.14942595,0.25776064,0.044742893,-0.22658202,0.14718103,-0.23209235,0.28396487,-0.30249792,0.076721676,0.010050897,-0.3057987,0.15007646,0.23463649,-0.20617409,0.3907918,-0.20801987,0.3060558,0.033137463,-0.17016995,-0.10736253,0.14736362,0.031304903,0.14270021,-0.19786458,0.45157054,-0.05070541,0.23874311,-0.27789074,-0.2793281,-0.2836581,-0.12126453,-0.32573393,0.37123528,0.17449822,0.3194552,0.30418777,-0.24348074,-0.44297063,0.116942786,-0.3865583,0.023726797,0.13644785,0.32277155,-0.30166507,0.36129135,0.027373983,-0.45411825,0.3832906,0.3692036,-0.11955915,0.123170875,0.42036217,0.35041398,-0.09377605,-0.39316463,0.34594178,-0.08865633,0.2812246,-0.21425222,-0.24948673,-0.30831558,-0.2020487,0.37390462,-0.059831165,0.009812429,0.37136486,0.3180027,0.007730295,-0.30252376,0.2093985,-0.2779472,0.358288,-0.09184243,-0.08592088,-0.3157505,-0.05638689,-0.09822919,0.031630035,0.17993216,0.23986061,-0.006590583,-0.37476695,0.16233644,-0.29956198,0.039082445,0.14345317,-0.13620575,-0.27247766,0.34804258,-0.14004374,-0.30691823,-0.11832412,0.30174834,0.38364822,-0.015452338,-0.27111787,-0.100404255,-0.30080044,-0.2399212,-0.28244248,-0.0806489,-0.018238463,-0.26095444,-0.17615393,0.3963267,-0.13771358,-0.14952739,0.4190244,-0.30179268,-0.3781924,0.16162668,0.17489718,-0.36729214,-0.3275084,0.25314504,0.14317197,0.3532134,0.187135,0.2291312,-0.45804822,-0.20370792,0.23990744,-0.17360377,0.09888839,0.12795933,-0.37662107,0.1767446,0.06962404,0.14210102,0.4016978,0.18951002,0.20481734,-0.3489881,0.07948531,-0.27879936,0.032341946,0.18810388,-0.31890827,-0.1629384,0.42764977,-0.09377882,0.2502556,0.25844342,-0.2561834,-0.077791765,0.30160385,-0.08645705,-0.22191805,-0.1299735,0.3923416,-0.13570379,0.12849046,0.20464364,0.05427343,-0.41569805,0.34731185,0.024013052,-0.11383495,-0.24921058,-0.32322887,0.33082312,-0.11916328,0.16300434,0.39472276,-0.34802184,-0.3430867,0.10579036,0.05983708,0.19996446,-0.10707193,0.39908037,0.07042154,0.22887744,0.0733413,-0.3163064,0.27151096,-0.29094732,0.33955288,0.15470031,0.014647836,0.15221532,-0.14349645,-0.054190177,-0.37717888,0.43986335,0.27458045,0.40473074,0.076823115,0.089761384,-0.3527845,0.3724319,-0.35868648,0.053528313,-0.38099495,0.092800476,-0.21130763,-0.24160886,-0.32639715,0.05988297,0.19458233,-0.14501223,-0.08632186,0.36562622,-0.0775478,-0.217413,0.3308769,0.48640823,-0.41792423,-0.25484422,-0.120743126,0.20410112,-0.22464919,-0.41301072,-0.3249185,-0.3390402,0.19459802,-0.18110375,0.18440673,0.17264757,-0.20366982,0.30636063,0.34935042,-0.10197613,-0.22462223,0.40458888,-0.20386308,-0.3113981,-0.31463087,-0.3927514,0.24835496,0.1812145,0.30942395,0.22089814,0.32977912,-0.19676867,-0.35270408,-0.32912228,0.37624818,0.09173799,-0.2620585,-0.33498013,-0.29608676,0.43053165,0.37238267,0.20497805,0.16220646,-0.105952516,0.3350246,0.051286902,-0.38815776,0.14013125,0.24960122,0.29241496,0.30792433,-0.3071873,-0.19072656,0.19961193,0.38354516,-0.26658064,-0.14562231,0.027905202,-0.32867277,-0.1064312,0.28845406,0.16612752,-0.043619856,-0.27332544,0.26860636,-0.08706264,-0.27811995,0.05142681,-0.1504817,-0.17955774,0.3405037,0.0642815,-0.33699495,0.39507893,0.22172853,-0.16060066,0.43095943,-0.40821874,-0.105795085,0.1925834,0.046527516,0.3933441,0.09185188,-0.32280958,0.1759388,-0.37649232,-0.39721876,0.025129328,-0.24946085,0.20579691,-0.09333553,0.11949479,0.09014211,0.28115162,0.25205582,-0.4403857,0.30008006,0.47606677,-0.14131235,0.084734954,0.03322621,-0.05312308,0.157751,-0.37901092,-0.35923028,0.25553057,-0.004285241,0.20889704,0.29245934,-0.18976857,0.23156962,0.27448368,-0.4366411,0.13196933,0.19376932,-0.41699958,-0.13525406,0.21793544,0.072428696,0.21979474,0.09242774,0.024303166,-0.009543208,0.40870926,-0.37424424,-0.21698345,0.091909096,-0.16518012,0.22510996,0.1436301,-0.31512302,-0.03998557,0.07072945,-0.38128364,0.3183102,-0.38661262,-0.23837793,0.035886966,-0.16720386,0.09934349,-0.30031788,0.3678584,0.0894188,-0.19470708,-0.057526924,0.187543,-0.47038153,0.35097426,0.27589148,-0.14111443,0.37585905,0.18815143,0.2246357,-0.13081843,-0.3419624,0.37428334,0.30462834,0.009680261,0.16432919,-0.26342234,-0.07220792,0.2727853,-0.34747702,0.05051499,-0.3987719,-0.039160892,0.0208634,0.3072056,0.41274977,0.30122337,0.29792443,-0.26607028,0.18341011,0.12591444,-0.23047355,-0.18362364,-0.077444114,-0.312014,-0.41400388,-0.10634917,0.29953557,-0.32739288,0.1946698,0.19649777,0.058229674,0.052288353,0.38407508,-0.44724455,0.36300638,0.33439904,-0.14999226,0.18179166,-0.22824395,-0.27413797,-0.1575023,-0.11127356,0.1717174,-0.04561696,0.16806407,0.1976573,0.32201147,0.2691029,0.38423127,-0.12792607,-0.16683936,-0.20298883,0.07918704,0.05452181,-0.25528002,0.16929503,-0.10693505,0.25098023,-0.35279202,0.4048353,-0.370435,-0.31375968,-0.174076,0.22519676,0.404263,0.465097,-0.24700035,0.20495199,-0.38270867,0.09506829,-0.017177388,-0.3767236,0.31771868,0.12609507,-0.44779155,-0.34373903,0.34759152,-0.06945735,0.14842696,0.4684098,-0.029160423,-0.35581106,-0.1103795,0.22876267,0.037790164,-0.3772763,-0.29464358,-0.04225004,0.28997576,-0.11489573,0.18132833,-0.20010015,0.39650825,0.0127117215,0.29136756,0.40132928,0.17513496,0.12659627,-0.16019383,-0.42386445,-0.0070414613,0.32719165,-0.21614483,0.29308778,-0.0012127374,-0.16302653,0.25401452,0.12417799,-0.28853792,0.08757152,-0.3143695,0.46679416,-0.37385443,0.35463673,-0.33534843,0.20106213,0.40942797,-0.009290699,0.18783149,-0.15054066,0.19272932,-0.016916003,0.11273822,0.09481626,-0.44734257,0.100765646,-0.20618805,0.07559838,-0.26840046,0.2665616,0.16820887,0.10924937,-0.4071271,0.11660952,0.18251309,0.052956328,0.003259132,-0.19507802,-0.109239556,0.054457556,-0.1470988,-0.40243092,0.3594928,-0.24878164,0.28415793,0.060740434,-0.40318295,0.22934358,0.062178675,0.075458676,-0.12604876,0.2091213,-0.4092071,-0.23725471,0.059972573,-0.34548306,0.37791902,-0.16818817,0.31911632,-0.045834757,-0.36870673,-0.348285,-0.30787972,0.26658404,0.37841615,-0.2077194,0.10937217,-0.23286313,0.28678674,-0.22868863,0.3599507,0.05918606,-0.38544205,0.38342696,-0.041439068,-0.28078103,-0.31300005,0.36370122,-0.12199459,-0.21128169,-0.052487954,-0.3397401,0.4029432,0.20165956,0.07796897,0.48674425,-0.32326052,-0.19082193,-0.3934553,-0.08999,-0.1587873,0.0017359997,-0.36256862,-0.014221111,-0.06042355,-0.43405747,0.28211346,0.051496074,0.2407826,0.041454937,-0.024751153,-0.0765617,0.124163955,0.22934763,0.14341396,0.08729296,-0.37550372,0.37747204,-0.36794892,0.35924885,-0.4005743,0.3881544,-0.42259085,-0.15551756,0.17091264,0.10985854,0.28166515,0.28586745,-0.05242225,-0.3179495,-0.006175971,-0.14444998,-0.08599637,6.5321237E-4,0.11358292,0.15935624,-0.112374075,0.35155445,0.034486815,0.1625184,-0.14467667,-0.37254322,-0.28333506,0.26069385,0.22929347,-0.43651342,0.23957501,-0.13662869,-0.06958813,0.2841177,0.13745074,0.06311855,-0.26851,-0.25165454,-0.07592878,0.297849,0.043846484,0.26995584,0.08480028,0.3892999,-0.24981919,-0.18915322,0.060556374,0.0020335335,0.24260302,-0.19118108,-0.24134074,-0.028100722,-0.3316593,0.3500476,0.17219178,-0.38755208,0.24547885,0.15169217,0.17619728,-0.26243347,-0.040745456,0.06486322,-0.26635623,0.32689032,-0.19396594,-0.22345941,-0.10244214,-0.2835822,0.3431726,0.4040766,0.40796846,0.04215482,-0.29243717,0.055063106,-0.17587762,-0.23424205,-0.31234637,0.021692313,0.17341504,0.2968912,0.16815986,-0.32506683,0.21504137,-0.1426665,-0.36154658,0.22432679,0.29575592,0.2911261,-0.22549081,0.28913677,-0.035688564,0.20465527,0.14804928,0.106684364,0.11815767,0.28329962,-0.10125835,-0.05158767,-0.083126076,0.018644463,0.10843853,0.29042462,-0.17053673,0.08430123,-0.021577157,-0.28216258,0.31623647,0.17381741,0.18968607,0.3895559,-0.360092,-0.37855953,0.1703719,-0.34475914,-0.006849494,0.41859984,-0.38362044,0.3750185,0.09214522,0.028797569,0.39620999,-0.17634676,0.3318697,-0.010547098,-0.0092897825,-0.14060909,-0.41117817,0.11805007,-0.09156761,0.2646835,-0.40918043,0.12924808,-0.059666675,0.2020764,-0.34167138,0.5000888,-0.3259332,-0.15223597,-0.007698347,0.41213518,-0.32736254,-0.07317898,-0.027537426,-0.41194314,0.15437303,-0.02686422,-0.13502157,-0.07132951,0.44609195,-0.016045006,-0.03079233,0.37925965,-0.47015625,0.03535359,-0.08265315,-0.42237166,-0.18561289,0.10247237,-0.23559122,0.24722889,0.14047062,-0.20006153,-0.30199966,0.006372153,0.32195145,0.08161947,-0.12215682,-0.13492753,-0.05932375,-0.12712896,0.08531118,-0.15104376,-0.16144036,0.28701723,0.41278216,-0.33114767,-0.13264637,-0.09479476,0.30095214,0.027990274,0.115990564,0.15334097,-0.028182758,-0.46478438,0.17635225,0.42946672,-0.052585747,-0.295176,0.11927417,-0.35662496,0.017408643,-0.16447729,-0.40258414,0.16778198,-0.10195392,-0.29117998,-0.040326253,0.046335623,-0.22998683,0.047161046,0.051241364,0.33528307,0.28798315,0.23478143,0.11659353,-0.2857381,-0.40159234,0.16589107,-0.120009884,0.515731,0.2682006,0.020045474,-0.16415726,-0.16305605,0.012299529,-0.22784972,-0.32661796,-0.30754673,0.057337355,0.038030405,0.06844766,0.3348476,0.03077178,0.008178405,-0.30252263,-0.058789093,0.21225014,-0.33895904,-0.2408473,0.14699474,-0.050586563,0.32068288,-0.36518633,-0.28198513,-0.13307075,-0.06729277,0.3815606,-0.012765515,0.38600647,-0.21329974,0.3550097,-0.06664709,0.3510887,-0.10235433,0.20326069,0.18002962,-0.098303206,-0.050464936,-0.38483056,-0.10605108,-0.17608887,0.051753078,0.03179119,-0.07115003,5.211017E-4,0.021335367,-0.2790599,-0.0018541028,-0.111974604,0.32683086,-0.43084878,-0.43723726,0.29613245,0.07943628,-0.3859916,-0.35351637,0.10405291,-0.3389591,0.043899678,0.06709072,0.4019441,0.038594175,0.05673333,-0.28954533,-0.032780193,0.2359666,-0.40295058,-0.02509684,-0.3300324,0.13734257,0.009041554,0.42054355,0.016422084,0.050511163,0.13584428,-0.29884368,-0.0033507068,-0.15336813,-0.03343794,-0.14295822,0.45828927,0.34546676,-0.25315174,0.21368575,0.15068583,-0.33751014,0.36458424,-0.3685787,-0.11790506,-0.37951586,0.3840601,-0.32478467,0.22625667,-0.0909596,-0.47454652,0.29712215,0.010984668,0.16104749,0.004458151,-0.48161483,0.21003087,0.089671195,0.38735482,-0.15271229,0.39735407,0.060147174,-0.45841482,0.16578539,0.28557858,-0.082711786,-0.06426064,-0.23725204,0.34858653,-0.13216616,0.2837682,0.21384396,0.34380567,0.14364229,-0.051636446,0.39851916,-0.41764158,-0.13875632,-0.014371217,0.094469644,-0.2530938,-0.25504902,-0.38583052,-0.2120856,0.21925427,0.04101551,-0.06848147,0.23264311,-0.13338389,-0.04048818,0.27013794,-0.4465643,0.4318021,-0.15066789,-0.28794348,-0.14276661,-0.3305927,0.2528812,-0.22872919,-0.15261896,-0.19636747,-0.412175,-0.015276514,0.18403481,0.4787535,0.009120986,0.34331942,-0.15445791,-0.40346926,-0.34987545,0.02823421,-0.22339287,0.22846186,0.3094801,-0.206991,-0.2579672,0.004816355,-0.08949354,0.40507603,-0.30758178,0.22790423,-0.4653778,0.25834197,-0.21639898,-0.11233698,-0.29768673,0.29030588,0.10889018,0.13126972,0.35012943,0.34798092,0.058847237,-0.34542474,-0.18202333,0.05140045,0.41789868,-0.2808373,-0.23143351,-0.28339544,0.092219256,0.1444767,0.33567673,-0.062298812,0.19930437,0.32241976,-0.38262445,0.22928524,-0.061905798,0.10678776,-0.057518356,0.38220066,-0.19809696,-0.366112,0.09130123,-0.14556323,0.18326057,-0.034922954,0.021322893,-0.3333792,0.27920008,0.1268072,0.2561922,-0.19104917,-0.15288809,0.1301011,0.18313193,-0.3568302,0.2562767,-0.1242937,-0.26918092,-0.028163388,0.34139678,-0.058698192,-0.41130194,0.2709194,0.14232348,0.39195412,-0.41391528,-0.16968307,0.16831206,-0.10309062,-0.45989203,0.13873816,0.10570265,0.14081655,0.1582196,0.30172268,-0.19397716,0.38731945,0.3413444,-0.18269664,0.26645026,0.36054873,-0.41326702,-0.010662074,-0.31597304,-0.301013,0.11072437,-0.40638122,0.059751373,0.10609809,-0.3002611,0.3254287,0.33024076,0.40906608,-0.10241733,-0.28499362,0.24855065,0.06748785,-0.25879398,0.40102664,0.24930106,-0.4178948,-0.31762886,0.27132392,0.2132806,0.19003958,0.34403765,-0.4019307,-0.039818645,-0.19114539,-0.38584715,0.27234614,0.3081897,-0.3749502,0.26230165,-0.0645661,0.42321312,-0.08151518,0.09515386,0.26094693,-0.2653175,-0.30933946,-0.0619722,0.2607059,0.008456961,-0.0022134627,0.18614472,0.06829417,0.3944775,-0.14539948,-0.07284595,0.06665035,-0.056010026,0.012807978,0.24588858,0.03403392,0.20618366,-0.27099097,0.2150652,-0.33200243,-0.39228758,0.3739902,0.16601382,-0.3842711,-0.3836865,0.4068068,0.20133625,0.40349174,0.026875136,0.12059883,-0.43976703,0.33555016,0.30802268,0.026396615,-0.27364784,0.18639432,0.1150838,0.3293761,-0.3331116,0.31611297,-0.06846731,-0.27036756,0.36121497,-0.2113464,0.43353876,0.3736333,-0.38909975,0.31995514,-0.092703834,0.10512149,-0.38721567,0.084442206,0.14927886,0.41165486,-0.33265266,-0.14252904,-0.26527083,-0.36700243,0.37021965,0.108872816,-0.16255693,0.17404614,0.3251567,-0.38957196,0.25192845,0.10777383,-0.28332454,-0.0010212146,0.25512263,0.1744639,0.27861232,0.15034737,-0.13489349,0.19683193,-0.15556438,0.344173,-0.09930228,0.2906407,-0.2454167,0.4883968,2.2375878E-4,-0.25914198,-0.31386885,-0.3853751,-0.092697136,0.14865263,0.006270185,-0.431152,-0.49658322,-0.084034935,0.41740423,0.30775157,0.41369805,-0.11560217,-0.058975965,-0.0182204,-0.23567611,0.053852767,-0.22948565,0.2389495,0.34243757,0.104986235,-0.2443741,-0.020114858,-0.45560467,0.30474642,0.41558638,0.31044936,-0.03165105,0.33255768,-0.24073662,-0.033181213,-0.059591137,-0.010820524,0.3407087,0.29206327,0.28898546,-0.31262088,-0.43185717,0.28262568,-0.46013582,-0.28269413,0.17636074,-0.18295687,-0.3895851,0.22131181,0.24631904,0.027776495,0.34510565,-0.15816592,0.28599697,-0.15422478,0.012051477,-0.2469526,-0.32203045,-0.21847913,0.4001184,-0.38199356,0.061773088,-0.38232642,-0.05954532,0.33270237,0.1543584,0.045770757,0.22209069,0.18425657,0.12707844,0.03741174,0.15320054,0.24504213,-0.022527818,0.21569382,-0.15297197,0.18600813,-0.30560082,-0.37040475,0.41922435,-0.07944325,-0.29987806,-0.27562696,-0.15526235,-0.122516476,-0.25796402,0.23870458,0.3060331,0.18283364,-0.07732591,0.21123542,-0.14816634,-0.32493982,-0.20301531,0.34133333,0.3075553,0.27283257,0.35076508,0.12562557,0.2710083,-0.25557244,-0.33043644,-0.07132945,-0.092290275,-0.17880166,-0.22729635,-0.21678537,-0.124048725,0.15361051,-0.05744902,-0.26619527,-0.086016,0.0514345,0.21359049,0.019035084,-0.12928487,-0.17429867,0.008191129,0.27333745,-0.12546042,-0.18643717,-0.20660327,0.25329036,-0.33072507,0.18771659,-0.041109324,0.20380346,-0.40652215,-0.04252258,-0.07196652,0.1755552,-0.0781242,-0.23012002,-0.15528962,0.33082953,-0.08898608,0.14404091,-0.36476487,0.5269195,-0.30807698,-0.009331092,-0.06723725,-0.32546857,-0.30088586,0.080331706,0.113557234,-0.104448214,-0.38272935,-0.14569116,0.3115733,-0.035814468,-0.035006817,-0.21839239,-0.392987,0.18559942,0.37852165,0.3125293,-0.17458904,-0.33686036,0.08580931,-0.07613933,-0.317824,0.31246185,-0.045110364,-0.20952152,0.47438544,-0.35057414,0.22352569,0.024854764,0.48175874,-0.23402411,0.11371679,-0.08804598,0.009770836,-0.10491927,-0.31187746,-0.29131886,-0.23949772,0.45301974,-0.27344197,0.2419228,-0.004063352,0.10846554,-0.046153303,-0.21455194,0.5075374,-0.3683102,-0.22021635,0.4286544,-0.33445138,-0.17502919,0.34289125,0.23309883,-0.11472946,-0.048994932,0.15950564,-0.26269314,-0.14894746,0.025552878,-0.2605378,0.35204053,0.24161293,-0.20805158,-0.07671187,-0.1751271,-0.22298227,0.32175943,0.05282333,-0.24465682,-0.14919329,0.028183252,0.060584765,-0.3559895,0.21669059,-0.043620303,-0.11204944,0.3084819,0.12869635,0.32087457,0.19693232,-0.26372534,0.30628186,0.052755408,-0.32576895,-0.33721283,0.39280015,0.160932,-0.07581576,0.14423177,-0.44589347,0.43126827,0.10813443,0.19538836,-0.28231254,0.0072517465,-0.21549684,-0.34179845,0.21374829,0.17082904,-0.04964114,-0.37430695,0.18090671,0.13919955,-0.11664084,-0.22853045,-0.2880615,0.065252975,0.40371114,0.42826244,-0.31481555,0.1365734,-0.30833673,-0.36490878,-0.2520995,0.2022205,-0.291361,-0.20678256,0.41677284,0.049373817,0.099740796,-0.37624586,-0.16509445,0.44359705,0.0940655,-0.08795691,-0.31444347,0.16053729,-0.18090528,-0.25339848,-0.18998024,-0.050243236,0.008222101,-0.14619406,0.22608477,-0.3967156,0.26238462,0.2938575,-0.40229627,0.28844574,-0.205871,0.26954892,-0.16229907,-0.20258668,0.18608136,0.31039757,-0.29977047,-0.31752145,0.018232448,0.11980955,-0.20913579,-0.0052985908,0.4457047,-0.3691659,-0.06365398,0.06134694,-0.035864536,0.11865477,-0.3324601,0.11714622,0.38822228,-0.07332661,-0.33002833,-0.2782924,0.20267302,0.21670945,0.38754395,-0.31773654,-0.26762956,0.28527245,0.34738752,0.057369858,0.41065696,0.124744795,-0.19015749,-0.35020906,-0.21386303,0.039029468,0.17831482,-0.11773027,-0.39897564,0.083367854,0.23594654,0.23982742,-0.017025407,-0.1725163,0.009669489,0.2298375,-0.24385586,-0.41373658,0.2213875,0.002632538,-0.3481271,0.33490735,0.023432555,-0.031554252,0.03777496,-0.24929567,-0.014957326,0.3327004,-0.046868753,0.118706286,0.0019818132,0.0034353014,0.38390535,-0.16059333,-0.024555095,-0.20942561,-0.18421873,0.3019428,0.3157865,0.10581975,-0.1629875,0.36458835,0.10365376,0.3235601,-0.48813546,-0.1923887,-0.035957597,0.40685263,-0.3615765,-0.24663462,0.33387405,0.31145555,0.020152364,-0.39679778,-0.23602113,-0.2092205,-0.21358812,0.22844273,-0.23733763,0.32886726,-0.30580515,-0.020884031,-0.26570228,0.043977935,0.013708197,0.27022728,0.101923935,-0.2956969,0.3447863,0.34133583,-0.08177573,0.33073086,-0.21163136,0.36422193,0.06896956,-0.18041234,0.21148407,0.07997342,-0.0036208897,-0.08140206,-0.28013805,-0.026832802,0.1655655,0.2257633,-0.00623815,-0.35299063,0.30723795,0.09504434,-0.3284954,0.29953986,-0.03905845,0.3113188,0.06667251,0.13882414,0.3422166,-0.49396074,0.22647546,0.07184664,0.13218062,0.29935884,0.04359484,-0.36407578,0.30409813,-0.048564386,0.377596,-0.2452247,0.2818448,-0.1057215,-0.38479894,0.12745154,-0.42902175,-0.12534186,0.13608693,0.35299262,0.1480844,0.1460104,-0.2617537,-0.13465653,0.22271042,0.2755146,0.19570436,0.23930407,-0.29808474,-0.49231085,0.4637413,-0.3429549,0.3355355,-0.046608478,-0.11931028,-0.37379232,0.15630014,-0.0073561287,0.31773707,-0.14706631,-0.15677209,0.050915256,-0.30754095,-0.12702604,0.1363684,-0.15854743,-0.2721459,0.031105004,0.11356223,-0.092997596,-0.36953944,-0.07809119,0.2671616,0.2670076,-0.23062773,0.31451517,0.40901226,0.14157541,0.111229345,0.17936157,-0.35876012,0.07998227,0.4281914,-0.17735854,0.14403702,0.24399264,0.16756494,-0.4220897,-0.34992978,-0.07948319,0.21129382,0.3364191,0.08892345,0.42324266,-0.010807961,-0.45174384,0.25048026,0.18702674,0.15304844,0.30164987,-0.12844288,0.184275,-0.47321287,0.30010524,0.02217356,-0.31042245,-0.07346894,-0.39384055,0.15517029,0.35914493,0.3337013,0.21740091,0.017508319,0.22851917,-0.14586054,-0.32757047,0.3489959,-0.27932975,-0.18737482,0.24525803,-0.31497106,-0.019019399,0.3472245,0.07856435,-0.2893691,-0.028839007,-0.03791875,0.0015480942,-0.2337119,0.47334713,-0.15704747,-0.1014897,-0.32193038,0.43949553,0.40069267,0.11083845,-0.17254032,-0.16648553,-0.12256316,-0.26248917,-0.33696556,-0.3375409,-0.038352598,-0.35187793,-0.20377359,-0.25009304,0.18586892,-0.30663118,0.072735794,-0.3315865,-0.22118686,0.027626341,-0.3702475,0.22602385,0.048944227,0.23966089,0.26350394,0.12131143,0.22215384,0.027469847,0.26542604,0.018493488,-0.117199495,0.23930323,0.38019454,-0.22887172,-0.16589263,-0.03797313,-0.46146527,-0.16528526,-0.068768375,-0.29260108,0.23516819,0.060070284,0.023220003,-0.031827427,0.4003097,-0.45922324,0.14940491,-0.07133134,0.15954612,-0.32662567,-0.13027571,0.04127287,-0.14353916,0.11912512,0.19513777,-0.13436949,-0.10520475,-0.16003242,-0.31144148,0.1705842,0.29044667,-0.35968122,0.25603124,-0.24411856,0.28230935,-0.43123823,-0.11196117,0.33591586,0.2055046,0.029127559,0.24488446,0.13135509,0.2843441,-0.22440445,-0.34279302,0.02272642,-0.064803496,-0.044692304,0.15529317,-0.18724805,0.37800893,0.11188238,0.17812224,-0.43943107,0.40660903,-0.38927713,0.2516322,0.11486614,0.3958783,0.18453321,-0.06253991,-0.06719965,-0.19415422,-0.3198405,-0.3554232,0.18385799,-0.47642344,0.48223555,0.22313753,-0.116591506,-0.09949179,0.3695476,0.24882616,0.28514525,-0.26610464,-0.098932475,0.21165991,0.36344424,-0.39663327,-0.2875021,0.25423923,0.2665044,0.13233092,0.25830832,-0.019231703,0.10599777,-0.22469485,0.19199711,0.14454176,-0.4586985,0.3030855,0.33482257,0.3559863,-0.28829795,0.19349203,-0.080093935,-0.24323738,-0.1850707,-0.29144153,-0.24662627,0.14403616,0.07010518,-0.22382352,-0.06637027,-0.26870105,-0.3486033,0.30036512,0.24031173,-0.057084274,0.021294683,0.5449489,-0.4123488,-0.0079540415,0.018760828,-0.35765097,-0.029254658,0.0052505843,-0.055209354,-0.15528348,-0.04279255,0.16950288,0.2767351,-0.2067305,0.14568968,-0.2690689,-0.21459503,0.031100115,-0.3585667,0.41705573,0.2051883,-0.10911096,0.010045927,-0.20984799,0.123241805,-0.19590342,-0.029617047,0.41325906,0.11409083,0.1816421,-0.2649499,-0.37067437,0.0064503658,0.33496624,0.12036928,0.29278988,0.17631863,0.045333263,0.40777326,-0.2675259,-0.061402574,0.154359,-0.13794263,0.35293135,0.012600857,0.0925632,0.004486427,-0.41771984,-0.10960491,0.3799783,-0.44471824,0.21283412,0.06099529,-0.17501669,0.4376672,-0.30076754,-0.36189947,-0.4028562,-0.10926633,0.02864548,-0.04145254,0.08206922,-0.39998132,-0.21081032,0.113035336,0.3919156,-0.40609238,0.039817464,-0.1474176,0.4080247,-0.23457764,0.35967278,0.04850423,-0.03306659,-0.3630093,0.2507787,-0.11111312,0.104455404,0.33292848,0.37232983,0.4321326,-0.26853925,-0.25368017,0.38449785,0.051344614,-0.050980434,-0.20861256,-0.009746854,-0.20230179,0.19863664,0.08358741,-0.21198122,-0.059276346,-0.3475301,-0.18464527,0.08230545,-0.39888078,0.19501412,0.1814211,-0.23833421,0.3263852,-0.10310039,0.28062642,-0.39241946,0.3995871,0.1273553,0.35343224,0.1955631,0.15677623,-0.4403874,-0.1281741,0.15761901,0.42511475,0.17860278,0.2054669,-0.16796993,-0.2812756,0.4271888,-0.42320102,-0.22998764,-0.03391512,0.056532077,-0.22310601,0.12506723,-0.07755124,-0.05864209,-0.15894699,-0.29299957,0.22607121,0.019904867,-0.029150695,0.47375363,-0.29004294,-0.14230163,0.2547375,0.07737427,-0.20981656,-0.15726505,-0.23034008,0.13300537,0.38127607,0.19571827,0.10624581,-0.0058846963,-0.18930987,-0.351012,-0.21950105,0.050935496,0.051622625,0.050813384,0.1990974,-0.10698144,-0.31133124,-0.02138244,-0.2615157,0.357411,-0.24521552,0.2301728,-0.3279826,0.1347147,0.17807546,0.13223755,-0.19325846,-0.022219967,-0.35386208,-0.29130906,-0.0011157199,-0.05741439,-0.07981534,-0.16770959,-0.09349637,0.31956124,-0.091269344,0.17475224,-0.39277756,-0.25113302,0.2574492,0.015862959,0.36539403,0.09863926,0.0073606917,0.2859032,0.3678709,-0.29847026,-0.31536183,-0.32502738,0.4243376,-0.4194939,0.33744296,0.3629679,0.31943685,-0.2951477,-0.05733124,0.31001613,-0.17956401,0.29769757,0.0021233757,-0.12530382,-0.07000946,-0.15453261,0.33024067,0.08446625,0.08973788,0.17141388,0.17911623,-0.13386796,-0.12971684,0.03399918,0.26148748,-0.06794932,0.17187588,-0.43438533,0.134479,0.32745892,-0.38188446,-0.38934562,-0.14024493,-0.35350966,0.3313192,0.23802385,-0.06136122,0.44160855,0.34176582,0.1423434,-0.41886473,0.2442324,0.1975147,0.3682031,0.110319056,0.1993475,0.25472647,-0.069693506,0.066193305,-0.39957002,-0.16232193,-0.43722785,0.11900384,-0.072277494,0.014248856,0.22601622,0.016802046,-0.24636075,0.44932377,0.3066694,-0.028035436,-0.08560409,-0.29884607,-0.3088119,0.108187765,-0.15522471,-0.018472457,-0.07174612,0.4271515,-0.32395175,-0.26974836,0.45725593,-0.1040963,0.3336832,-0.30069292,-0.32248464,-0.36545366,0.46457502,-0.13039981,0.39429468,-0.30218622,0.19036956,-0.33860433,-0.32415166,-0.20437685,-0.04523173,-0.3970876,0.2509772,-0.045714024,0.015834626,0.11725405,-0.17349719,-0.3550471,-0.019822853,-0.07919215,0.2704213,-0.15210663,-0.34042928,0.09308663,0.40676922,0.1061832,-0.34144637,-0.3225336,0.14509931,0.17415625,-0.03160372,0.03197034,0.06999633,0.1976153,0.2977438,-0.24204722,-0.25800312,0.14814423,0.431302,-0.11429904,0.109157704,-0.024754275,-0.19000189,0.23334932,-0.113816574,-0.2230179,0.26252055,0.11017156,0.24611506,-0.09706271,0.096419014,0.3715687,-0.15160508,-0.28443128,0.062397778,-0.2334338,-0.28800985,0.033931136,0.11933922,0.35923383,-0.061101478,-0.17162305,0.2768882,0.0390314,-0.00929779,-0.03155801,-0.12189308,0.29614538,0.086245984,-0.41590652,0.23955856,-0.05590406,-0.22816129,-0.2509299,0.06796287,-0.17783764,-0.40128312,-0.021964872,-0.14752612,0.058538966,0.30321652,-0.324069,-0.10453681,0.26565468,-0.28383553,-0.3107379,0.3010275,0.08178755,-0.09490016,-0.18351462,0.044169378,-0.3041092,-0.0075815935,0.119380526,-0.34248045,0.037205886,-0.34936085,-0.19375286,0.06291793,0.088701725,0.43751827,0.27099767,-0.122327805,-0.032361753,-0.05772951,-0.27048868,0.17860854,0.22852679,0.2984996,0.30334952,0.14791927,-0.28811908,0.41223526,-0.27616462,0.18833876,0.06436091,0.25378838,-0.36794013,-0.15573955,-0.19589534,0.11303735,0.36110982,-0.046174265,0.31156427,0.38591525,0.05765745,-0.07760863,0.12437056,-0.32479477,0.040570784,-0.132905,0.2657237,0.1440035,0.4055673,0.34518015,-0.38298965,-0.108219594,-0.3460124,-0.34242558,0.051078573,-0.32985803,-0.37410218,-0.029606573,-0.011952729,-0.36397505,-0.097844765,-0.36832207,0.26774883,0.08768262,0.30134356,0.24209696,-0.13436112,-0.087430656,0.41590533,-0.031048084,-0.047274295,0.27372986,-0.13807239,0.42684412,-0.16773441,0.066487335,0.12252138,-0.27712822,-0.32945532,-0.20758618,-0.38283285,0.02055001,0.02505291,0.31783283,-0.3713594,-0.01343539,0.39840373,0.123352,-0.2325855,-0.26081446,0.064745314,0.011105878,-0.28679624,-0.4476982,0.47182378,-0.25769538,0.26420468,-0.4196761,0.30010745,0.2211832,-0.09055665,-0.06450902,0.21233945,0.09671135,-0.12173925,0.29541343,0.23514393,0.15851386,0.3787916,0.1413129,-0.44182226,-0.2750613,0.007414699,-0.34139535,-0.045701597,0.17156494,0.40761572,-0.1304708,-0.055575866,0.23540464,-0.096152775,-0.23161545,-0.011077535,-0.18146582,-0.3392491,0.10429222,-0.13285664,0.061130483,-0.15091789,0.2553705,0.3575089,-0.1996036,-0.15839867,0.027603917,0.26002562,-0.42118862,-0.23629841,0.26185903,0.031992774,0.41591322,-0.07251232,0.028413052,0.057484984,-0.39418364,0.15492594,-0.29270455,0.13309963,0.29821387,0.24044538,0.08957306,0.1076544,0.4078908,0.28312105,-0.37631243,-0.29465127,-0.251384,-0.16507985,0.23739684,-0.34179974,0.30749303,-0.3277952,0.17658135,-0.094604984,0.2922597,0.22281742,-0.051474836,-0.35827082,-0.07167795,-0.1961258,0.1533608,-0.36806735,0.24508299,0.36055502,-0.32694867,0.41543135,-0.2756541,-0.18287507,0.021832203,-0.15144259,0.22556417,0.16713712,-0.012656972,-0.4241012,-0.29260814,-0.34139392,-0.43789315,0.52742594,0.011732087,0.16380106,-0.2766044,-0.34963846,0.24280223,0.40345365,-0.31670764,0.40444282,-0.1885871,0.41069025,0.10597879,0.20498748,-0.010985939,-0.19811676,0.15078089,0.37562448,0.0630541,-0.017171787,0.0042817406,-0.38110295,0.042301413,0.3788871,0.22612573,0.04621134,-0.031059055,-0.10456871,0.319687,-0.018905664,-0.29947087,-0.3050129,0.2109284,0.20687984,0.009891988,0.3766069,-0.003765141,-0.2402809,0.2559415,-0.04240922,-0.020555524,0.26103303,-0.34162214,-0.12093457,0.32172036,-0.22401367,0.30025318,0.22883512,0.18200825,0.24848206,0.30554137,-0.047263786,0.040373627,0.31857005,0.058758084,0.30780488,-0.31205827,-0.097518206,-0.37233454,-0.29266423,-0.110722564,0.11199531,-0.15805924,0.31434515,-0.34129918,-0.22588387,-0.0065474557,-0.4410698,-0.2355698,0.40458757,-0.025474565,0.089309484,-0.22974147,0.24093406,-0.06494214,-0.2522971,0.1899596,0.21720918,-0.1329586,0.2644065,0.26698264,-0.094476655,0.25370544,-0.19350874,-0.42535606,0.09850707,0.337831,0.107686155,0.37583768,0.13882858,0.32348755,-0.359721,-0.054674968,-0.21238895,-0.13170451,-0.03451038,-0.045975648,0.14668489,-0.44731316,-0.0042842072,0.30838823,-0.30832273,0.35061222,-0.014201292,-0.379188,0.4647019,0.024001762,0.2749958,0.027691921,-0.31598035,0.40358028,-0.17676738,0.3725985,-0.43514338,-0.19615681,0.42477757,-0.030913653,-0.037010234,0.41150618,0.21263342,0.12823293,-0.39312607,0.34631115,-0.039144702,0.08267623,-0.24481244,0.3155548,-0.4176209,0.35248673,-0.15510918,-0.24822855,0.25283667,0.31073207,0.24386165,0.39477593,0.059301663,0.05991771,0.007307113,-0.36156762,-0.34698847,-0.2299626,0.3908219,0.23902817,-0.2530035,0.103614815,0.09740468,-0.11371682,0.39678422,-0.35992447,-0.37503365,0.22069371,-0.46830708,-0.09061441,-0.2798381,0.30022088,0.047129206,0.3903729,-0.11207522,0.110545896,0.21312703,0.18202515,-0.31521672,0.16756032,0.23159316,0.44073597,-0.10757313,-0.22375885,0.1670654,-0.43664575,0.23683766,0.31171486,0.15307042,-0.36141622,0.37991214,-0.40005538,0.2826803,0.20624638,0.28777203,-0.43278545,0.14777477,0.44461825,-0.19588189,0.25321794,-0.101544924,-0.33571118,0.3440799,0.30376592,-0.1881672,-0.23672983,-0.001152001,-0.4266395,-0.3071012,0.4017824,-0.47528738,0.35319102,0.048616387,0.14783667,-0.31315824,-0.35535175,0.045045484,0.13838471,-0.3860876,-0.014993979,0.12567867,-0.18659514,-0.3631713,-0.16713002,-0.34710187,0.20693775,-0.4096628,0.30679196,0.28111997,0.06044773,-0.37156352,-0.18126085,0.07929416,-0.27745783,0.093999095,0.10167997,0.2531595,0.11730618,0.22501788,0.2319125,-0.34767914,0.52128863,-0.26890615,-0.30750328,-0.34040806,0.30426648,-0.13627633,-0.14409518,0.041224528,-0.38411412,0.057403382,0.11444557,-0.05031216,-0.2965158,0.051125426,-0.23410824,0.24384488,0.36657828,-0.44032514,0.2990787,-0.04274548,-0.053453647,-0.27452633,0.09635632,0.021764781,-0.13834155,0.15254644,-0.07448168,-0.011831971,-0.23483002,0.42570832,-0.25162512,-0.25402096,0.27972537,-0.23602298,0.24325319,-0.29242048,-0.011202206,0.06575094,-0.47311834,-0.2403812,0.08683113,0.31493184,0.19780654,0.31066078,-0.25144067,-0.43163317,-0.30841476,-0.42397118,0.024359133,0.030454848,0.05544583,0.045226526,0.07627592,0.19550122,0.1771288,0.30354875,0.23160177,-0.19276091,-0.33418754,0.0845296,0.32843295,-0.05709896,0.3154595,0.21467611,-0.34284046,0.45347437,-0.105985425,0.32798657,-0.3159885,0.084115915,-0.15398945,-0.032518603,-0.1637648,-0.31063396,0.14342725,-0.3763403,0.008598188,-0.22611651,0.18495421,0.18871891,0.30886897,0.023622314,-0.05697793,-0.3859511,-0.0051405677,0.018517131,0.336649,-0.31388855,-0.16238163,0.40578583,-0.028954647,-0.2782861,-0.17220289,-0.09906735,-0.3497812,0.3060303,0.07869408,-0.17080022,0.42172322,-0.026038801,-0.38652048,-0.1505331,0.09461166,-0.19417946,0.35638338,-0.2955982,0.106469296,-0.040944796,0.2952278,0.1801031,0.023714446,0.19341062,0.22355393,0.38636106,-0.3634781,-0.12253961,0.13551854,-0.1706254,-0.33693144,-0.3414111,0.16913424,0.3170135,0.09282007,0.2737768,0.31147873,-0.26122713,-0.26207057,-0.18871048,-0.32481524,0.3648853,-0.19973001,-0.11160746,-0.08421965,0.36964568,0.27915397,0.4278984,0.06202623,0.3311372,-0.1931214,0.10444259,0.37594938,0.004769989,0.29061428,0.25894025,0.18518128,0.24467745,0.017728705,0.16088742,-0.30757922,0.35873294,0.02792807,-0.41572356,0.26339334,0.18567526,-0.37559673,0.030383926,-0.29920572,-0.16361217,0.29463053,0.16355412,-0.31649387,-0.27755463,-0.021428203,-0.16967618,-0.2837112,-0.32547998,-0.06623866,0.27795517,-0.06501935,0.004017522,-0.2288738,0.10338798,-0.08002637,-0.003088853,0.07265217,-0.063851595,0.0077398405,0.2604242,-0.025562095,0.0939983,-0.12009557,0.37007025,0.16110922,-0.059618916,0.3736802,-0.34861365,-0.0020229467,0.035030484,0.1052542,0.18649392,0.34036908,0.031678997,-0.35715377,-0.34875917,-0.40283516,0.08629341,0.1985047,-0.13059394,-0.017793199,0.35751247,-0.2585004,0.068086304,0.07687802,-0.3722963,-0.0688327,0.2938576,-0.0874755,-0.3609091,-0.18962236,0.17204754,0.1876441,-0.049766086,0.35755488,-0.12823245,0.19524987,-0.23229714,0.45763206,-0.2530244,-0.12941055,-0.32743332,0.20948748,-0.35489422,0.1475039,-0.37660554,-0.34799078,0.3077536,-0.03638959,0.15292226,0.24207859,-0.1351134,-0.036262333,0.117886186,0.12197949,-0.041084193,-0.09066189,0.095373996,-0.1001594,-0.16844958,-0.049683668,0.24795167,0.01766814,-0.21305588,0.28633448,-0.18741874,0.22456273,0.007592954,-0.16193725,0.16393565,0.26839912,-0.2409575,0.042189445,0.091728576,0.29566348,-0.4322817,0.33375645,0.061083294,-0.2765398,0.031425156,-0.24367583,0.26939863,-0.043233287,0.11180675,0.3553421,-0.43649364,0.20113944,-0.23855771,0.20689096,-0.14742203,0.3474146,-0.36200246,0.3669658,0.115821145,0.28741324,0.26052165,0.009260686,-0.4118218,-0.15774907,-0.11474535,-0.10384375,-0.3741146,-0.28052163,0.22157781,0.28888386,-0.40276074,0.35362533,0.3313546,-0.083833545,0.32050627,0.3816131,-0.27604952,-0.20904528,-0.05518453,-0.14124039,0.08802522,-0.06920099,0.32569483,-0.1311971,0.2994584,0.07843823,-0.07166364,0.08544855,0.21428783,-0.38118702,0.01162532,0.23955724,-0.46389124,-0.014920846,0.017468676,0.023875302,-0.118857265,0.26752916,0.16711074,0.13541915,-0.34522355,0.31770375,0.05802221,-0.25932965,-0.40934697,0.4282539,-0.26073247,0.056006137,0.3831572,-0.040359378,-0.249758,-0.24459308,-0.39714134,0.13922408,0.28688306,-0.31475228,-0.2911867,0.23290773,0.33498585,0.357465,0.33790663,0.04321127,-0.32323563,0.024507344,-0.01662552,0.12647174,-0.13780873,0.3548786,0.18515311,0.055896726,-0.040789675,-0.23465313,0.42623666,-0.27163327,0.053661488,0.0732039,0.006365193,0.06305804,0.018552057,-0.3740987,0.1472667,0.34999394,0.019273134,-0.3941256,0.18706262,-0.3690531,0.16786493,0.053943686,0.13726722,-0.3227603,-0.12690549,0.28419578,-0.47521213,-0.13829865,-0.017029235,0.26339567,-0.23170121,0.36627734,-0.09600068,0.27852866,0.22010282,-0.37334564,-0.35699522,0.14185734,0.3166591,-0.38459787,0.033954594,-0.29064676,-0.04433296,0.17237616,-0.32417667,-0.25421312,0.47981468,-0.4273809,-0.3003126,-0.15165901,0.058428448,-0.33263248,-0.1080413,-0.10463992,-0.19504558,0.3361934,0.19006991,-0.006959221,0.3168206,-0.38545263,-0.06824517,0.37653714,-0.029640522,-0.28060284,0.10421817,0.31241933,0.30149552,0.37453112,0.35020947,0.23359437,-0.26138833,-0.17707334,-0.44106665,0.10638613,-0.052892357,-0.3661472,0.1211135,0.3479161,-0.10926349,-0.028334523,-0.06916592,0.20853648,-0.3216066,-0.10490273,-0.3046733,-0.21675275,0.38660926,0.106584065,-0.3603294,0.030446956,-0.028272439,0.11889202,0.031025527,0.079925194,0.22745013,-0.28280604,0.053635776,0.44090414,-0.41730833,0.2385035,0.09495021,0.3703124,-0.41251618,0.0024183188,0.0072438093,-0.11728947,-0.26286504,0.31460166,-0.043693017,-0.021943692,-0.1498706,0.18450963,-0.194579,0.31324852,0.22267547,-0.13689671,-0.09440847,-0.024115494,0.14820386,0.17817661,-0.2615745,0.17519721,0.13597135,-0.24697995,0.28288734,0.011993252,-0.12963891,0.29903987,0.3422984,-0.2932899,0.30831897,-0.4865754,0.21703663,0.34156615,0.12502155,-0.38070175,0.25111112,0.0050675585,0.21073286,0.031379946,0.22246493,0.009176915,-0.060623605,0.35490322,0.16843492,0.06816398,-0.074069954,-0.31688505,-0.37520602,-0.263903,0.23170242,0.21071969,-0.26137757,0.13510373,0.3706762,-0.1029444,0.28093275,0.11735371,0.17359059,-0.34656388,-0.15612698,-0.40085736,-0.026077528,0.33354622,-0.37067342,-0.14009461,0.08703822,0.20646863,-0.12771334,-0.25315958,0.23554476,0.09472361,-0.32828552,-0.086547256,0.41973668,0.18899618,-0.10113051,-0.43305296,0.06684592,0.21969505,0.13617903,0.47105542,-0.38118032,-0.11989668,-0.027223391,-0.20960464,-0.1610039,-0.01893819,-0.41686422,-0.11034731,-0.1755155,-0.09307992,-0.19282302,0.44923848,-0.3980276,0.028690945,-0.031719152,0.3683974,-0.005303741,0.28210235,0.30293235,-0.36963773,-0.19267093,0.39093074,-0.4845307,-0.29678723,0.32967767,0.013994428,-0.03356423,0.12745257,0.18973891,-0.19807456,-0.039134745,0.25251806,0.33488768,0.13086234,-0.14357722,0.023920448,-0.30033088,-0.4288548,0.11642377,-0.012517479,0.12515001,-0.15414593,-0.2415566,-0.085105896,0.21680805,0.06630377,0.18710774,-0.13254178,0.3443523,0.30944347,0.2078131,-0.12972702,0.39006373,-0.18289202,-0.21474877,0.2364986,-0.19430786,0.25216746,0.22872916,0.40311623,-0.48921853,0.10558158,-0.23644517,0.037861962,0.21269546,0.3562904,0.07813521,-0.060235802,0.34052628,0.14555003,0.32418886,-0.27103397,0.43219855,0.22195292,0.22471857,-0.09824534,-0.13464844,-0.3471972,-0.3704641,-0.022144832,-0.10661258,-0.19998154,-0.45610064,0.21339412,0.20403594,0.2667021,0.3373536,-0.047651634,0.19261694,-0.33886373,-0.38938382,-0.26356545,-0.3243535,-0.26400417,-0.28771767,0.11340581,-0.26203862,-0.013636982,0.15697142,0.40744895,0.116220996,-0.17935117,-0.18959339,0.02149316,0.39091986,-0.1382774,-0.037900444,-0.056989383,0.20555292,0.32916987,0.31197104,-0.20552945,-0.4043556,0.16896509,-0.2812538,-0.022034416,-0.17346868,0.28139767,-0.24268447,-0.12045737,-0.21341689,-0.2078659,0.15428334,-0.0061517027,0.107914805,-0.0670865,0.090374105,-0.10282502,0.113768466,0.42520735,-0.22170512,0.1231147,0.07537987,-0.115620576,-0.43281788,0.34193397,-0.4204353,-0.054520022,0.36463004,-0.28302318,0.34225804,-0.4100769,0.13921319,0.09747069,-0.2460301,0.08166617,-0.21040009,0.17606695,0.33066285,0.3266877,-0.2580785,-0.20241886,0.0895298,-0.13379525,0.015692951,0.46757942,-0.46605396,0.34416994,0.12406236,0.4060635,-0.15125234,0.125901,0.09778298,0.060535118,0.03665421,0.12931801,0.028707305,-0.406023,0.3899792,-0.11342824,0.08031818,-0.14182289,0.0659079,0.35766718,0.19858263,0.32981366,-0.20171134,-0.4014071,-0.0831885,-0.21275628,0.18990712,-0.31808352,0.41031232,0.07272534,0.0985077,0.10147169,0.16324043,0.13441184,-0.026233539,-0.4673559,-0.04226315,-0.3049463,0.1764801,0.050930273,0.11958995,-0.29131326,-0.34539568,0.1515714,0.09189862,-0.1292456,0.17286195,-0.27816844,-0.13600685,-0.28514192,0.14710721,0.083979316,-0.37952912,-0.27468598,0.07392088,0.44574222,-0.13138898,0.28684762,0.17654194,-0.08698657,-0.02630741,0.26580003,-0.27444658,-0.24127495,0.3296064,-0.031250924,-0.104064055,-0.28597686,0.2972317,-0.22958095,-0.19140129,-0.2876337,0.40983024,-0.3997259,-0.36542577,0.12463061,0.09177874,0.098622516,-0.37629396,-0.24062704,-0.3467635,0.35479715,-0.011312671,0.21335231,0.22991924,-0.15670525,-0.10460957,0.13488433,0.104121424,0.08259794,0.16546696,0.1840489,-0.28881764,0.3059178,0.14328183,0.17022309,0.14648071,0.1567379,0.38278976,-0.36867377,-0.34725612,0.07121189,0.11520299,0.34623757,-0.22579917,-0.13341287,-0.34266758,0.13633005,-0.1458865,0.34124583,0.18816538,-0.16625263,-0.21528126,0.38732165,0.20344543,-0.4445927,-0.1408387,0.014513483,0.37128034,-0.12718038,-0.3314453,0.36232746,0.3969398,-0.10082702,-0.21615456,0.32972768,0.15538906,-0.18212639,-0.33422774,0.17146309,0.265824,-0.36894235,0.010680902,-0.14975376,0.06444569,0.2181953,-0.10110069,-0.028061802,-0.37135288,-0.2596702,0.35246983,0.0833468,-0.19311918,-0.32698435,-0.10122638,0.379887,-0.10394128,-0.2579451,-0.09235161,-0.06719317,0.23396654,0.14263582,0.36703524,-0.16237709,0.09308756,0.1672519,0.3803913,-0.08521135,0.32039082,-0.036019694,-0.32426938,-0.33521202,0.18758264,-0.01251289,0.2231765,-0.27143198,0.1948462,-0.18437342,0.3280392,-0.37856853,-0.23251694,0.053874955,0.41142324,0.40429658,-0.09117883,-0.03247126,0.13607238,-0.057491988,-0.2783379,0.39000425,0.08930223,-0.1787258,0.10343886,-0.336765,-0.4038433,0.22627091,-0.14017686,0.067340806,0.32259887,0.035569195,0.15745203,-0.20965543,0.10230996,-0.42821127,-0.014871151,-0.06582995,-0.2300592,-0.30493844,-0.10799104,-0.21896243,-0.21823578,0.32565835,0.33423495,0.31053793,0.20323513,-0.309913,0.30346105,-0.28817144,-0.3565022,0.3606387,-0.39707246,-0.1365985,0.009555243,-0.2496627,-0.2378332,0.10945769,0.011171562,-0.15518312,0.43818325,0.07471167,0.23418933,0.11102013,-0.1965973,0.021087162,0.21025048,0.12985694,0.097719245,-0.08769386,0.40506515,0.18729378,-0.3938272,0.32342142,-0.060096186,-0.13935594,-0.3207764,0.015475475,-0.16372772,-0.27961218,-0.19384876,-0.20488203,-0.113889374,-0.12569045,0.20216252,-0.23698585,0.37427777,0.4093596,-0.2569929,0.29422528,0.16205324,-0.3293803,-0.14597008,0.18548073,-0.32333404,-0.29921818,-0.32262957,-0.011137351,-0.013037718,-0.29568174,-0.10964022,-0.14171156,-0.12084112,-0.0021646584,-0.2455526,0.40973967,-0.2799339,0.30477446,-0.32728428,0.28425077,0.21851632,-0.386818,0.081372656,-0.11788132,0.24651268,0.16627103,-0.2877359,0.3391064,0.35594317,-0.327297,-0.4290085,-0.2850333,0.2731681,-0.3133877,0.010454856,-0.13999058,0.19537757,0.2699978,-0.42621884,-0.011436061,0.3281706,0.20981582,-0.31751898,0.15597896,-0.278415,-0.35025042,-0.048322883,-0.053657457,0.14072151,-0.19734427,-0.029976742,-0.21485937,-0.29262808,0.19914551,0.27490643,-0.40910318,0.11227222,-0.30688372,-0.40033165,0.32508224,0.34678277,0.33097073,0.029549254,0.17288646,-0.030166414,0.17185338,0.072483286,0.065505855,-0.10923,0.20910503,0.3693035,-0.33045632,0.17553017,0.2060932,-0.43958956,0.37928063,0.22981827,0.38676408,-0.28466234,-0.08287651,-0.1096061,-0.19335628,-0.17809637,0.39969474,0.2488948,-0.24537121,0.36360034,0.28601894,-0.021333532,0.3440573,-0.21533841,-0.3662801,-0.41388685,-0.17941773,0.28453112,0.030064972,-0.19635263,0.09587359,0.19982545,-0.25232598,-0.07025558,-0.34561315,-0.109590515,0.07670786,0.097621836,-0.14751297,0.1578883,-0.03540839,-0.30401167,0.1973593,0.0636593,-0.29954645,0.026568979,-0.16665992,-0.23996377,-0.06676667,-0.053722102,-0.36119324,-0.2308385,0.44419357,0.11658401,-0.0039203814,-0.17285532,0.42862153,-0.33432734,-0.14847477,-0.23430435,0.3059265,-0.0597633,-0.3436406,-0.42939594,-0.41599682,-0.116797574,0.26787615,0.09922193,0.2591311,-0.12687056,-0.40865296,0.27497584,0.024879418,-0.2115103,0.54224074,-0.32330018,0.13925397,-0.21194927,0.25965664,-0.27678424,0.2499916,0.18268864,0.21339041,-0.38639313,0.39249793,0.27312803,-0.027975231,0.1248286,-0.04358328,-0.39574018,-0.21331689,-0.34083644,0.3888542,0.36428007,0.36350027,0.34667557,-0.03808936,-0.18159255,0.20129645,-0.17691153,0.013692419,0.026608344,0.3375868,0.112332605,0.14710948,0.22239676,-0.11853987,-0.28389668,-0.10198915,0.09594138,0.18171471,0.22933522,0.15450579,0.17917703,-0.24092327,0.33091944,0.13781442,0.19126943,-0.5147272,0.20748626,0.25719562,0.2644401,-0.18871632,0.049548157,-0.0016452508,0.33875182,-0.3172431,-0.2688857,0.03237239,0.43511486,-0.07536068,-0.29215732,-0.22664134,0.01582344,0.12362828,0.07034036,0.18849386,-0.076132484,-0.085682854,0.21746695,-0.33414078,-0.04198389,0.22661558,0.010178998,-0.41650018,-0.046921924,0.3967577,-0.35715255,-0.24124396,-0.34828013,-0.082802325,-0.026744884,-0.31419227,0.40194443,0.31954446,0.13839017,0.064805396,0.09971222,0.28675717,-0.29268658,-0.3522667,0.043097425,0.3121941,-0.2116532,-0.20035145,0.082982644,0.20948519,0.1227517,-0.36322057,-0.11283758,-0.093889885,0.42855972,-0.1979819,0.19191837,0.13901356,0.036668144,0.008706675,0.24297565,-0.43132332,0.45390275,0.3376914,-0.3708551,-0.22772326,-0.2881676,-0.22813518,0.050209936,-0.0709181,-0.050127346,0.33283934,-0.44089797,0.025664968,0.30191645,0.21379684,-0.34242707,-0.28872997,0.40056378,-0.21146776,-0.01417528,-0.20019688,-0.09325957,0.40845847,0.1513758,0.19072828,0.18280154,0.07394202,0.12246706,-0.07174944,-0.40368107,0.3573107,-0.09527315,-0.14756854,0.43900338,0.019640235,-0.39047077,0.44883764,0.053061012,0.20760617,0.049254194,0.24972804,-0.349715,0.24613832,-0.35998532,-0.43772405,-0.375479,-0.2294142,-0.3296295,0.3499419,-0.20743008,-0.26186374,0.18442066,0.20626721,0.36743134,0.35748643,0.2863344,0.24152291,-0.29929402,0.051043626,-0.1955013,0.25473478,0.23589197,0.4196332,-0.23720162,0.056282613,0.2708609,-0.026881356,-0.039588064,0.11081443,0.12552181,0.38435885,0.04137721,0.11855985,0.1931063,-0.44473726,0.15425111,0.111798644,0.22727625,0.32686442,0.17688441,0.040291328,0.39002362,0.11910087,-0.35687298,0.43630233,-0.061559003,-0.12641129,-0.30403852,0.13712919,-0.35476425,-0.07484085,0.29537976,-0.10133065,-0.10759541,-0.07213488,0.039388277,0.054705784,-0.05186104,0.03520858,-0.013777268,-0.051875286,0.21333387,-0.14700425,0.041760873,0.21168609,0.2002156,-0.011793672,0.27120748,0.16770445,-0.42327186,0.33333966,0.18906951,0.33271912,-0.12779553,0.30986193,0.18833214,0.015033102,0.06480861,-0.10256342,-0.4608383,0.17681867,0.18627048,-0.16606367,-0.07750058,-0.25785643,-0.33366174,0.28731382,-0.18301871,0.186839,0.04524424,-0.21093725,0.04170667,-0.1424123,-0.057201333,-0.31665006,-0.14967003,-0.009668556,0.036785215,-0.34039053,0.36222395,-0.025623614,-0.18568192,0.13334519,0.40319493,-0.15554482,-0.21820244,-0.27967507,-0.20266159,-0.32554567,-0.29742104,0.21757385,0.12147051,-0.05810098,0.37061474,-0.21609871,-0.22556883,0.46826294,0.14439426,-0.32039163,0.33011633,0.005991152,-0.32761723,-0.3235238,0.16502643,-0.119340815,0.3351974,0.18835577,0.33329675,0.06805503,0.16657059,-0.40598658,0.1161222,-0.24503323,-0.005966247,-0.39025384,-0.16950859,0.35284021,0.25843957,0.08220339,0.20906346,-0.22198048,-0.3367645,0.050707597,0.11907225,0.23691538,0.23086163,0.029803794,-0.2753973,0.16511075,0.35518125,0.2575495,-0.287499,0.0128676,-0.22061814,0.046381794,-0.31532663,-0.11625075,0.21174666,0.14338893,0.12978144,0.113401346,-0.09791433,0.29648387,0.20346746,0.11415276,-0.26808807,-0.19246589,0.116479695,0.12714095,0.37075472,0.26445726,-0.34452885,-0.3363899,-0.014156886,0.2327236,0.31097788,0.09317998,-0.18367746,-0.11983895,0.2631963,0.042800743,-0.44573793,0.06870359,-0.06458659,-0.09908545,0.3301617,0.30144867,0.03694071,-0.2344823,0.23452671,0.24215509,0.16365199,-0.104681335,0.15709981,0.098007716,0.18844308,-0.2481635,-0.3513513,-0.089629024,-0.060512915,0.40190834,-0.051409066,-0.07266941,0.09609651,0.37731072,-0.19071364,-0.1830147,-0.18905282,0.43456492,-0.254745,0.37336758,0.18090455,0.15403506,-0.34834802,-0.35299966,0.3185215,0.23144381,0.2671399,-0.2855966,0.3049188,0.4652891,-0.14168233,-0.10546428,-0.25077605,0.18334489,-0.08705884,-0.25426963,0.0680689,0.05268719,0.26586217,0.1700551,0.2569519,0.20133738,0.12634455,0.3430595,0.15121879,-0.3275311,-0.38057578,0.23830515,0.2897434,-0.12471328,-0.25133213,-0.07148668,-0.23005556,-0.057299376,-0.1042588,0.2137303,0.12955815,-0.25609884,0.4697422,-0.14402184,0.23916553,0.22837631,-0.35154378,-0.07593047,0.21274742,0.030378718,-0.073025465,-0.14992784,-0.33845547,-0.17800514,-0.19585983,-0.19212487,-0.26628834,0.17272502,0.25412673,-0.029781848,0.18085632,0.37956202,-0.023933478,-0.398908,0.26063514,-0.2557741,0.30013868,-0.11216231,-0.42522544,0.40965483,0.1706738,0.27982032,0.41690075,0.3422331,-0.25174645,0.09636637,0.11577281,-0.2540123,-0.41720545,0.37203345,-0.06589366,0.34893778,-0.40610376,-0.07543735,0.048900615,-0.06442543,0.16772798,-0.32540777,0.32201496,-0.28366977,0.46520853,-0.3387238,0.07981055,-0.2701517,0.30337754,-0.3441894,-0.01820613,-0.05216282,-0.05679202,0.26724216,0.15507473,-0.17275502,0.06582964,-0.13460253,0.2628848,0.42731488,-0.45638984,0.26431334,0.3998143,-0.23249549,-0.06477972,0.115859926,-0.017765397,-0.02294736,0.1560748,-0.37830347,0.26556763,-0.09560182,-0.24729607,0.16995074,-0.31502458,0.177955,-0.33471587,-0.20098764,0.21599133,-5.2486826E-4,0.11017984,-0.06877572,0.400835,-0.22680283,0.41862893,-0.02081057,0.2098676,-0.15666862,-0.27953,-0.16984975,-0.022097757,0.038906407,-0.20440164,-6.204268E-4,-0.2936498,-0.109170884,0.44692266,-0.13553897,0.28520724,-0.09159331,-0.06258209,0.42989323,-0.3183217,0.080326706,0.15269923,0.20281693,-0.042184524,-0.22668713,-0.38710344,-0.07341449,0.2392331,0.11348532,0.2791242,0.13040671,-0.17465243,0.10537639,0.06537065,-0.39891967,0.36275232,0.16049564,-0.1478762,-0.1286247,0.2499701,-0.12690593,0.04612691,-0.32711557,-0.42750615,-0.05328277,0.20061387,0.3734558,-0.14243263,0.23043337,0.14465782,-0.26752865,-0.11714591,-0.16674519,-0.35548088,0.4201484,-0.38431102,-0.10927097,-0.26211753,0.124664165,-0.195829,0.4355064,-0.3487023,-0.25749198,0.3937784,-0.14958042,0.28603935,0.04428445,0.24335928,-0.13582459,0.19345427,-0.2919024,0.3592382,0.16621755,-0.23149793,0.019769683,-0.3640652,-0.15203458,0.069376096,0.047370672,0.32494888,-0.064223416,0.40134665,0.05541707,-0.18919756,-0.2890798,0.09152614,-0.17394423,-0.019408176,-0.19862184,-0.2739046,-0.2616695,-0.27681044,0.120859206,0.28358242,0.22025293,0.022563806,-0.24752127,0.26666668,-0.3426323,0.043487616,0.15545557,0.045038823,0.12750739,0.2798832,0.07067622,-0.45242494,0.35800263,-0.20299321,-0.42256233,0.4135249,0.38287497,-0.22629313,-0.36092523,0.046491902,0.19720851,0.32842025,-0.23609535,0.34541586,-0.1895494,0.113409795,-0.1239153,-0.029134784,0.14165892,0.40281314,-0.1153819,0.2301556,-0.11693698,-0.051387373,-0.363214,-0.018912977,-0.2508898,-0.22393717,0.40422055,0.042630352,0.0506262,0.19002657,0.43042794,0.019291736,0.03128056,0.21304467,0.21923943,-0.070061274,-0.22854033,-0.15436374,0.15521425,0.1542663,-0.363516,-0.3883262,0.2506124,0.021632917,-0.21204299,0.42236924,0.1715349,-0.2474511,-0.050508007,-0.104502596,0.07320054,-0.26292384,0.14647229,-0.28982222,-0.3445197,0.05767687,-0.2763811,-0.15692814,0.10186815,-0.4347238,0.35903442,0.009798397,0.39041266,0.0035453395,-0.28609985,-0.3577113,-0.013962925,-0.39297462,0.36765963,-0.016078116,0.43223795,-0.23268412,-0.19758704,-0.10051946,0.3607493,0.07483036,-0.09534981,-0.183677,0.03618059,-0.20244065,0.32293233,-0.1742889,0.32744637,0.13761404,-0.114080444,-0.22656454,-0.18331066,-0.21112064,-0.067823805,-0.04354527,-0.040515203,0.003258997,0.27333543,-0.34021696,-0.11911053,-0.12901947,0.36060047,-0.22851473,0.20405012,-0.2531921,-0.19305463,0.25992155,0.24706876,-0.24725696,-0.10532915,0.3649526,0.18586777,0.34562868,-0.017334003,0.22293292,0.33053365,-0.18897858,-0.31276098,-0.28819802,-0.4593739,0.15185332,0.20337738,-0.35675576,0.11322095,-0.40038124,0.100299194,0.0546391,0.306851,0.3313762,0.18414605,-0.22106646,-0.35863492,-0.19087408,0.26433024,-0.09747926,0.0072001964,-0.19470654,0.21209514,-0.02344816,0.22191143,-0.16219658,0.060524102,0.08296999,0.23077308,-0.29430044,-0.09000112,0.031660423,-0.22725047,0.49415967,0.12661316,-0.2412134,0.16848154,-0.35179508,0.12874751,-0.33321428,0.06450445,-0.2117457,-0.36817697,0.37539876,0.034410514,0.17087844,0.10492426,0.18893172,-0.28890952,-0.08571195,0.3182063,-0.40101904,0.4466526,-0.24220851,-0.17574254,-0.44944176,0.31288058,-0.022676876,0.13942268,0.016602837,-0.11400218,0.36706775,-0.0075232005,-0.17250834,0.43232137,0.06899858,-0.12555197,-0.25362802,-0.1569467,-0.18310137,-0.3600478,-0.29394752,-0.43555322,0.4329671,0.37587208,-0.32773292,-0.2985062,0.40351355,-0.19089359,0.3819321,-0.010355784,-0.28701398,-0.18722,-0.26630563,-0.3063977,-0.33318707,0.03612437,0.09346066,0.32527286,-0.39266473,0.41800988,-0.3804924,-0.24454325,0.0015494669,-0.35479027,0.0039835027,-0.080594055,-0.14166965,-0.33277464,-0.23727804,0.3905215,-0.14161001,-0.035899203,0.32521385,-0.0037434942,0.42461428,0.28363013,-0.3581862,0.1967313,0.28180945,0.04890125,-0.402186,-0.35815313,-0.11295741,-0.347913,0.32170096,-0.09995457,0.017389538,0.23240942,0.14126548,0.3852508,-0.28633606,0.2317136,-0.25045377,0.103150785,-0.13412257,0.017301863,-0.34573737,-0.44362167,0.20700797,0.48942804,0.118195355,-0.11462288,-0.1838173,0.4110909,0.19252847,-0.0633247,-0.05232424,0.14335251,0.03850282,0.14644393,0.19862504,0.113406606,-0.3495999,-0.18312152,-0.3278165,-0.17105673,-0.42672515,0.26742262,0.36957222,-0.081271745,0.122624524,0.3221771,-0.32784373,0.20867379,-0.37681592,0.24458088,-0.14318372,0.26044646,0.04249816,0.34548306,-0.44104743,-0.2676465,0.1921551,0.15569915,-0.028998105,-0.31975353,0.3215863,0.14528948,0.106705345,0.0700911,0.07438377,0.1076452,-0.39901632,-0.0567084,0.27235842,-0.2532251,-0.004358514,0.3657187,0.06747767,0.25141385,0.25627068,-0.4790679,-0.02928099,0.041607823,-0.06287587,-0.46033785,0.23211038,0.19685106,0.16449076,0.27502733,0.17264965,-0.5308232,0.42608225,-0.20320909,0.051749952,0.17912935,0.23442666,0.043810926,-0.22462748,-0.4448189,0.4126613,0.051468443,0.22214484,-0.18298663,-0.20728554,-0.36912313,-0.22378096,-0.0035343084,0.124344446,0.41562024,-4.7584184E-4,0.31309706,-0.26266915,0.048393223,-0.16081855,0.038999025,-0.26898837,0.23393592,-0.24096088,0.08316892,0.32466176,0.10172393,-0.14018072,-0.21623732,-0.29005197,0.24962786,-0.2697249,-0.2066608,-0.033199295,0.059328094,0.1262418,0.13504864,4.6959077E-4,0.42267337,-0.20982674,-0.23233148,0.054529265,0.10943395,0.34734356,0.2475105,0.20652166,0.075272456,0.24923493,0.40003675,-0.2076181,-0.40899044,-0.4027772,-0.42984793,0.24999927,-0.41961598,0.17653264,0.1871464,-0.32941246,-0.019132236,-0.22462827,-0.17165518,-0.101873696,-0.1723809,-0.30061376,0.16040225,-0.34170893,-0.3352134,0.3309373,0.20077893,0.15524742,0.34414047,0.3097919,-0.07561491,-0.36661485,-0.23636691,-0.26314425,0.2507753,0.34114438,0.06128196,-0.14316247,-0.19840704,0.19756313,-0.24278848,-0.3105122,-0.268737,-0.36173263,-0.24289095,-0.10755673,0.39295226,0.35482153,0.120305374,-0.4719744,0.051547073,-0.16240767,0.25791726,-0.11562576,-0.24159871,0.24642815,-0.01727433,-0.41081154,0.005472107,-0.023485105,-0.040940885,-0.41532257,0.32546502,0.28118473,0.3063519,-0.25528744,0.36940274,-0.40228274,0.1316319,-0.15909182,-0.3791228,0.12835675,0.2836794,0.07402729,-0.13153921,0.15129624,-0.26313165,-0.051312428,-0.18521143,0.135648,-0.13164671,0.14308341,0.031422697,-0.13918614,-0.2002337,-0.08773034,-0.09084209,0.0794707,0.058312796,0.24131928,-0.15783897,0.414304,-0.10169063,-0.26490825,-0.120369226,-0.046764947,0.36957887,0.079017594,0.41449094,-0.31249785,-0.22865456,-0.1965482,-0.13410121,0.49054173,0.09872022,-0.3062408,-0.14798556,0.043484084,-0.19365238,-0.13742727,-0.073945984,0.1164985,-0.08160207,0.17818858,0.26066205,-0.1635067,0.2711096,0.07768905,-0.25931382,0.42337358,-0.16965233,-0.12880145,-0.15333301,-0.13507974,-0.24488385,0.20104292,-0.29256967,-0.036975957,-0.07364784,-0.20366108,0.38922244,-0.0970594,-0.421587,-0.27512267,0.3067954,0.12725699,0.107119635,-0.3896574,0.096853346,0.060933083,0.12053417,0.1724766,0.062359884,-0.2034159,-0.18573216,0.09349152,-0.15874466,-0.5109951,-0.0919194,0.18175437,0.1624068,0.09143357,0.23476113,0.3592641,-0.097538754,-0.2720259,0.2851991,0.24961542,-0.2724061,0.06541597,0.19991581,0.13914965,-0.18481727,-0.0015125137,-0.03756936,-0.36621055,0.20732813,0.009144893,-0.22326621,0.13664344,-0.37227398,-0.16131493,0.29560414,0.4202346,-0.22277205,-0.34794486,0.24396452,-0.36527434,0.25892478,0.15710258,-0.32697734,0.35091797,0.32149696,-0.3359999,-0.0041871164,-0.38684955,-0.053598605,0.22379379,0.4056733,-0.2933271,-0.0060136104,0.36007836,0.110927075,0.16046412,0.16730817,-0.46045238,-0.068458624,-0.10745818,0.18762913,-0.3346962,-0.26883253,0.25846246,-0.114124194,-0.10149118,0.14970772,0.2130078,-0.3227827,0.27516833,0.042786703,0.13296403,0.3082498,0.062909484,0.10032297,0.220541,0.23396643,-0.0073532504,-0.026697956,0.28899553,-0.20647588,-0.41088533,0.08441622,-0.15409082,0.330677,0.080267504,0.027291955,0.08579472,0.29492715,-0.40311775,-0.24234088,0.018911162,0.21472476,-0.14831482,-0.12769698,-0.28542244,-0.19901893,-0.22822633,0.1210445,-0.20909037,-0.11748314,0.3433286,-0.12897247,0.23068382,-0.03600022,-0.11410872,0.18304482,0.16875705,0.36068383,-0.24169263,0.2804675,-0.09199542,-0.14036854,0.029959664,0.27386832,-0.1767722,0.059418198,0.27533802,0.03539988,-0.16884941,-0.57321167,0.38411522,0.33191374,-0.048665404,0.23271601,-0.032129135,-0.09056071,0.4076257,-0.26897007,-0.15091275,0.31063348,-0.030519273,0.23360036,-0.27605295,0.2831355,0.050630003,-0.3264941,0.1177969,-0.18331604,-0.35097593,0.22159667,0.1773616,0.31961963,0.045797992,0.054567568,-0.29516992,-0.36601642,0.054499373,-0.007990776,0.19193323,-0.22398387,0.20131914,-0.34901276,-0.270018,-0.35893136,0.2982037,-0.42384174,0.3672181,0.16156265,0.28814992,-0.35321692,0.33429673,-0.10487027,-0.13552503,0.06351831,0.37903395,-0.10911475,-0.338322,0.018301364,0.14607887,-0.14324155,0.32022786,0.009831385,-0.18327591,0.051668935,0.12754197,-0.11526991,-0.22382714,0.15578267,0.06870426,0.19232364,-0.05304817,-0.19960879,-0.12984307,0.077827446,-0.4074967,0.27745682,-0.30475143,0.39229545,-0.21541134,0.09943299,0.11790162,0.4159441,0.15743196,-0.4192457,-0.09358151,-0.23344645,0.045376837,0.026723225,0.2655776,-0.25636348,0.06441908,0.15058787,0.061651744,-0.44845265,-0.13603482,-0.37998644,0.1852117,-0.41049224,0.3552013,0.3390094,0.3710804,0.32951856,0.13382314,0.42337978,-0.086194895,0.12373244,0.053694095,0.06703839,0.3367063,-0.15399261,-0.3436628,0.098413445,-0.419748,-0.16909888,0.4905721,-0.29782045,-0.008733206,0.41687375,0.022741389,-0.19807546,0.39260352,-0.14560351,-0.09068776,-0.3159516,0.059810933,0.10164804,0.34306762,-0.061353046,0.16114089,-0.020044962,0.008676447,-0.14187256,0.13794528,-0.32054824,-0.08024248,0.093102545,-0.34473816,-0.11142508,-0.23285434,0.09518997,0.4256712,-0.13459703,0.09073426,-0.33151948,0.15067396,0.17326756,-0.3399578,-0.16870661,-0.29826862,-0.100954026,0.053884283,-0.15514317,-0.4879733,-0.38270277,0.16190934,0.009029607,-0.10470023,-0.21303424,0.086626515,0.016340101,0.18125367,0.1411071,-0.011771043,-0.115245506,0.28713828,0.4090133,-0.4017155,0.10295368,0.01359619,-0.39079452,-0.1589051,-0.33583522,-0.28909013,0.12993552,0.18953495,-0.20762965,0.3461352,0.11645925,0.25562,0.14583899,-0.077342376,0.48640275,0.20705892,-0.26908213,-0.32976192,0.23678346,0.28344867,-0.2839256,0.24330685,0.31001607,0.07820696,0.061566085,0.07084187,0.31886986,-0.49605587,0.06335641,-0.01102573,-0.37785012,0.3137808,0.27920926,-0.15265387,-0.18315275,-0.21530469,0.2735669,0.18828163,-0.23709096,0.18403201,0.20619279,-0.084860794,-0.24071562,0.23075369,0.27884653,-0.38133478,-0.31100622,0.078855276,-0.32968333,0.43422964,-0.080862,-0.0022691907,-0.2607513,-0.25640854,0.021044403,0.27224442,0.15977699,-0.3542033,-0.045371003,0.00479907,0.12913142,-0.24759398,0.04732909,-0.05483287,0.26415956,0.2919655,-0.07405,0.24532431,0.3830451,0.0773856,-0.42111212,0.23494573,0.074949384,-0.22642049,0.10200345,0.3040681,-0.08163946,-0.42720512,0.35160422,-0.14134717,-0.47387913,0.17519784,0.16122614,0.15801336,-0.20177048,0.054100864,0.264643,-0.20174867,0.32335657,-0.22360544,0.30389068,-0.09707139,0.31244087,-0.26556143,0.12112284,-0.36428338,0.017285857,-0.42060283,0.4757608,-0.24223804,0.18420233,-0.06064613,0.16153134,0.17215867,0.28841764,-0.2667023,0.1670537,-0.13482511,0.023016432,0.04010566,-0.28317425,-0.26010135,0.28623295,0.17706569,0.11840631,0.052308872,0.023069203,0.09324134,0.3057705,-0.14702187,0.12575214,-0.1347267,0.17083238,0.27265683,0.031091668,-0.033253036,-0.1329366,0.30943516,0.21658207,-0.12067145,0.27970502,-0.23939228,-0.23922312,-0.03391228,0.36693788,-0.23033069,-0.09004605,0.10480248,0.01933968,-0.3607172,0.007806445,-0.049817145,-0.10915531,-0.39461666,-0.19902828,0.35595155,0.47087523,-0.43357775,-0.13671869,0.23010206,-0.152485,0.29466072,0.08181375,-0.23961993,0.13347523,-0.10015889,0.44643906,0.24601507,0.27355045,-0.047358554,-0.10509943,-0.38012016,0.30418894,-0.29851088,0.23197387,0.39673382,