-0.106948726,-0.06770108,-0.48702684,-0.37765834,-0.12045991,-0.091795236,0.8866825,0.31106418,-0.14370665,-0.15184139,-0.19617249,0.0671171,-0.1745335,0.37372646,0.5308247,-0.0028053154,-0.09123115,0.13160175,-0.35750714,-0.39979237,0.85463464,-0.2346772,-0.49071065,0.41935265,-0.14485277,0.023664355,0.3724809,-0.117972136,0.5709287,-0.0814273,0.41616303,0.01022482,-0.25070035,0.15682168,-0.007161899,-0.5414323,0.5011359,-0.4839947,-0.40220067,-0.25837126,-0.04308237,-0.37069824,0.26432768,-0.098842986,-0.17378858,0.25441143,0.5718409,0.60012007,0.64868516,0.30768618,-0.096241705,-0.65320975,-0.030258011,0.42604852,0.10887395,-0.11160852,-0.17182265,0.12794808,-0.23452117,0.101388335,0.9562839,0.29151547,0.075946085,-0.006972129,-0.45031986,0.14373957,0.20801167,0.2600106,0.02992497,-0.12150856,-0.049917527,0.110551536,-0.42568398,-0.017256243,0.71219486,-0.61182463,0.08623382,2.4046552E-4,-0.41132146,0.19475502,0.15820582,0.2246356,0.25255612,0.27285358,0.30698743,0.11521868,-0.18755135,-0.063257776,-0.07256046,-0.22697194,0.38082996,-0.25292948,-0.795822,-0.20677407,-0.14584154,-0.2749293,0.5352896,-0.11078553,-0.29329783,-0.23325491,0.5889901,0.38894695,0.15590173,8.1914297E-4,0.4512987,-0.45617303,-0.1583668,0.2806477,0.42375824,-0.22586173,-0.009375446,-0.27616045,0.18314725,0.4184116,0.67872435,0.76220816,0.20197298,0.14528026,-0.16391033,0.18346965,0.01945355,0.12283694,0.24162677,-0.11540924,-0.22445652,0.13095398,-0.75283283,-0.018177632,0.61823076,-0.56381613,0.015272641,-0.023340251,-0.30789798,-0.03225506,0.46174532,0.24161309,0.41439998,-0.02943906,0.14375581,-0.14009652,-0.0116694905,0.006266137,-0.04527491,-0.3877982,0.12593122,-0.21755826,-0.39826718,0.3036689,-0.14144014,-0.30228305,0.64992344,-0.15605444,-0.605605,-0.22047313,0.27481133,0.17232539,0.3746194,0.01712367,-0.19512233,-0.3532309,-0.24007136,0.22092468,0.6501328,0.015249267,0.21973807,0.25677073,0.6254265,0.7013445,0.7636246,0.93104106,0.25733587,-0.05329459,-0.23199694,0.16112791,0.14862004,-0.073837034,0.15868695,-0.12205291,-0.42230707,0.17020823,-0.041370325,0.13202338,0.9408454,-0.0074146916,-0.29712296,-0.06063027,-0.37748373,0.10979348,-0.041381635,-0.38946345,0.2735112,-0.11358325,-0.22502261,-0.1401997,-0.5088807,0.3758762,-0.7538554,-0.3026671,0.31197518,-0.05029624,-0.5936803,0.1633103,-0.12767768,-0.056636438,0.40575835,0.20447692,-0.48759353,-0.46074936,0.0031163692,-0.12476967,-0.3084081,0.045477226,-0.17936024,-0.5040014,-0.051319085,0.3018193,0.0031954474,0.051022284,-0.48931164,-0.22508311,-0.29611298,-0.01998227,0.6265324,0.32683453,-0.11009689,-0.19477873,-0.100159906,0.25152165,-0.054999318,0.3107814,0.17949715,-0.24968092,0.18183562,-0.07526727,-0.34951648,-0.09443133,0.72208166,-0.23967846,3.0785255E-4,0.18943164,-0.017704127,-0.09994248,0.56737316,0.18378785,0.22200796,0.1291042,-0.18900287,-0.22806564,-0.118589126,-0.1792197,-0.14972806,-0.20441486,0.24862155,-0.3081382,-0.6647467,0.23972952,-0.18277758,-0.21377397,0.555014,-0.0037809708,-0.55476904,0.14453377,0.2362999,0.5908125,0.47970533,0.43588004,0.115426116,-0.20649329,-0.16126843,0.44259936,0.472712,0.244711,-0.066875346,0.14228727,0.1657084,0.9291328,0.7577034,0.5499765,0.6796113,-0.29426977,-0.1918349,0.31383157,-0.20510258,0.37673685,0.37952158,-0.009803247,-0.25353375,-0.037035156,-0.59318703,0.15143411,0.9413506,-0.20393586,-0.34915262,0.26843435,-0.52325,0.038955703,0.058308065,-0.0400497,0.0858535,-0.13394518,-0.3874871,-0.15230124,-0.7330621,-0.010415121,-0.3412483,-0.4078602,0.47209275,-0.08994201,-0.5049576,0.33098486,0.15782614,-0.29508033,0.77802664,-0.0792903,-0.38036582,-0.045661658,-0.105146214,0.06976865,0.26965892,-0.13898765,-0.45071816,-0.5294789,0.104257874,0.069025956,0.555829,-0.04894814,-0.22821458,-0.13677128,0.16324453,0.23120147,0.6418122,0.31689197,0.35590678,-0.069958165,-0.1978214,0.56763685,0.2176405,0.109074526,0.43912104,-0.20039739,0.06479983,0.05209875,-0.2770699,-0.08989625,0.68276304,-0.6312037,-0.20512523,0.053058323,-0.39955387,0.4145124,0.20379543,-0.08889286,0.46090543,0.3255603,0.19620836,0.10462191,-0.3579065,-0.040435843,-0.11687643,-0.4158759,0.2674655,-0.21238303,-0.86336553,0.02598412,-0.26261812,-0.11281889,0.68840027,-0.06692648,-0.46837416,-0.35835835,0.13637534,0.09439153,0.2667405,0.09890828,-0.07507052,-0.19795103,-0.47420588,0.2754262,-0.092801444,-0.23388892,-0.54235023,-0.42520717,-0.17553449,-0.053712178,0.72635,0.41751838,0.033507437,0.19930856,0.07707854,0.1610161,0.29069862,0.508764,0.42618307,-0.09355521,-0.049394738,-0.06992545,-0.67725563,-0.33016112,0.8632082,-0.6606382,-0.18111733,0.06602186,-0.48613912,0.09395713,0.6021382,0.24806698,0.44478327,-0.18536848,0.60494936,0.075763084,-0.24034584,0.10872152,0.10709777,-0.73294556,0.18561539,-0.10633794,-0.54759187,-0.11009656,-0.22714783,-0.20091264,0.64848334,-0.32330003,-0.20425944,0.22831468,0.19543879,0.74404603,0.34293935,0.064287275,0.09170228,-0.37282568,-0.17104736,0.44010502,0.21488051,-0.051567614,-0.24548954,0.08170134,-0.22000879,0.35151985,0.72836834,0.6086255,0.32184687,-0.28299114,-0.30216566,0.10530269,0.30924332,0.3046083,0.5379988,-0.50504595,0.07476819,0.40772784,-0.3406708,-0.22705305,0.860543,-0.35294816,-0.28783053,0.25199932,-0.33371556,-0.0238212,0.31839764,0.40274483,-0.078694,0.40200838,0.14127043,-0.18749501,-0.21497327,-0.1334568,-0.02877015,-0.4869042,0.23057495,-0.02059896,-0.8240914,-0.12979221,0.1792307,-0.47922793,0.7513859,-0.20908672,-0.438279,-0.17962106,0.68978506,0.26598075,-0.04659843,0.2580511,-0.29976586,-0.058550484,-0.36095846,-0.049897872,0.2752246,-0.47939944,-0.11977059,-0.092404366,0.069586694,-0.122362725,0.6452091,0.8528064,-0.11164875,0.14827538,-0.07446624,0.12058365,0.12540597,0.45835373,0.5387305,-0.23893781,-0.4346169,0.39935672,-0.5260201,-0.36746913,0.86253315,-0.5500826,-0.23945338,0.23192325,-0.3257795,0.16089286,0.5007846,0.12924021,0.43822625,0.032970246,-0.089842625,0.19972505,-0.26461264,0.015317907,-0.19695066,-0.5695665,0.16290757,-0.03520394,-0.6961453,0.20510575,-0.31436816,-0.09324895,0.6804697,-0.15792513,-0.400635,-0.15987062,0.53794676,0.2862776,0.39594334,-0.14081731,-0.09497398,-0.21980865,-0.17661564,0.2627278,0.10361113,0.046590056,-0.63035446,-0.32691568,-0.0089814095,-0.29568648,0.6484521,0.50106996,-0.07366677,-0.09928709,-0.036976505,0.55316234,0.36315,-0.15776747,0.30408642,-0.060716547,-0.39641726,-0.12005744,-0.32371855,-0.09465441,0.7087308,-0.31390327,-0.43629897,0.19612539,-0.3528854,0.16167256,0.5097239,-0.045621637,0.36292502,0.09231475,0.40799284,0.11517995,-0.34357175,0.38861585,-0.1743968,-0.5479179,0.3662931,-0.35485035,-0.5848278,-0.24586101,-0.14656845,-0.12391779,0.41996393,-0.14046414,-0.14407279,0.05762042,0.09287609,0.41672918,0.16548425,0.60901725,0.39962065,-0.5337367,0.1232048,0.4686082,-0.03858838,-0.23203284,-0.3055738,-0.243026,-0.2604952,0.08507014,0.84458154,0.4439206,-0.089709,0.05003529,-0.39419627,0.188277,0.1523902,0.49220785,0.06941142,-0.07650285,-0.38041404,0.10195872,-0.85924834,0.030003738,0.5045763,-0.61569226,0.011061559,0.23950693,-0.24312995,0.2530476,0.33234277,0.08887532,0.40658885,0.28261515,0.18522523,-0.25463974,-0.26376504,0.3300414,-0.36714908,-0.46858624,0.32840565,-0.13985924,-0.57120574,-0.041712683,0.0959998,-0.22689281,0.3195144,0.057205338,-0.28915682,0.41891602,0.35732895,0.41402045,0.5463567,0.005508719,0.22188585,-0.61760736,0.101507485,0.4732648,-0.0075921407,0.120466836,-0.19076721,-0.32291794,0.2757552,-0.064715005,0.59431183,0.6219198,-0.10509351,-0.34457546,-0.4902272,0.1336758,-0.20160611,0.24351303,0.3512298,-0.14772606,-0.10949244,0.1188042,-0.45374438,0.11973751,0.7475638,-0.18974467,0.035120677,-0.27549312,-0.10374463,-0.082095556,0.30544367,0.32085142,0.15902983,0.2323006,0.24462949,0.09012788,-0.09480148,0.29930416,-0.36693275,-0.061409175,0.2580409,-0.19530167,-0.7469695,0.08480931,-0.47011945,-0.18827324,0.32947382,0.03915397,-0.61077404,0.24133833,0.3278065,0.37400723,0.42671776,-0.123584986,0.36001864,-0.42267552,-0.05818273,0.39104852,0.47979018,0.473493,-0.22884876,0.4373365,0.2169164,0.6878272,0.9025427,0.7059952,0.56110233,-0.09090723,-0.23503532,0.47890493,-0.16381484,0.6293445,0.04580756,-0.15783097,-0.085726306,0.13005203,-0.23863432,0.03472767,0.74038786,-0.07002113,-0.24479279,0.049300667,-0.4001317,-0.08719955,0.14230594,-0.18993977,0.6592994,-0.07114676,-0.39095855,-0.6464204,-0.4706457,-0.14428632,-0.5184822,-0.7719845,0.4958745,-0.5579237,-0.38910097,0.19528612,0.4035917,-0.21286987,0.6208192,0.16523018,-0.3640012,-0.4219174,-0.29938078,0.0885465,-0.03629119,-0.2871381,-0.022882812,-0.38462692,-0.1995653,0.25515878,0.4754411,-0.03640906,-0.15519518,0.17248194,0.28111738,0.14971903,0.85688025,0.6012649,0.30938885,-0.083532125,-0.24737911,0.12949891,0.20299883,0.22040057,0.7139647,-0.5337871,-0.6794042,0.3822512,-0.41087997,0.20310453,0.6848083,-0.33011124,-0.10507045,-0.20835428,-0.41394433,0.109631285,0.11213676,-0.063814625,0.3147087,0.43171206,-0.03471659,-0.33281732,-0.019747118,0.035616666,-0.46776485,-0.4853526,0.27472204,-0.110608995,-0.86455137,0.01873917,-0.07443983,-0.24690028,0.60173035,0.13113372,-0.278631,-0.16955869,-0.035561565,0.33243254,-0.041456267,0.018278345,-0.23185393,-0.11636127,0.3152011,0.018933466,0.075967774,0.017210267,-0.104485676,-0.089947894,-0.18234915,0.17943226,0.8365041,0.6499254,-0.18188354,-0.09996069,0.1290822,0.32479104,0.037997898,0.19350998,0.31735888,-0.076480106,-0.48915094,0.3650624,-0.39090475,-0.14234138,0.7075932,-0.28176263,-0.44550365,0.1955268,-0.28588632,0.047717877,0.42664984,-0.1417154,0.44264475,0.005599618,-0.10608443,0.16299418,-0.45912623,-0.105823345,0.11041045,-0.19330916,0.50594574,-0.41238835,-0.57305396,0.17060687,-0.14954315,-0.19634493,0.60705674,-0.22577058,-0.46866047,0.067826696,0.004302019,0.14194334,0.2857355,0.42583296,0.06962178,-0.43291187,-0.028041309,0.1775838,0.12486083,-0.17538808,-0.4351989,-0.38063774,-0.09906634,-0.12127446,0.86305076,0.17634962,0.11844912,0.19090992,-0.008721123,0.4961801,0.21586962,0.44752443,0.14916067,-0.1387563,-0.1671599,0.04954027,-0.8117612,-0.14053504,0.5041429,-0.5572358,-0.2385869,0.17115797,-0.38903666,-0.01751943,0.5522143,0.37999615,0.41180408,0.28150958,0.4226927,0.00718353,-0.33584863,0.30190465,-0.377155,-0.5008291,0.15273896,-0.26670897,-0.65854746,-0.0376487,-0.30231717,0.052824076,0.4164278,0.14833494,-0.34021127,0.021411639,0.22318128,0.35538483,0.36617157,0.22938566,0.19962591,-0.52553487,0.309633,0.18849827,0.31599027,-0.16453326,-0.3456649,-0.024329806,-0.025542881,-0.046299264,1.0014577,0.69181985,0.014178639,-0.12762712,0.073648386,0.34361848,0.17780074,0.2477614,0.12012799,-0.56197304,-0.3556344,0.21087517,-0.6540116,-0.04731972,0.58400387,-0.48301172,-0.2563177,0.2698033,-0.22194384,0.052506547,0.28192195,-0.035809457,0.39169627,-0.055583023,0.23742804,-0.16490923,-0.15136886,-0.010115281,-0.40616134,-0.15429573,0.25862077,-0.26971984,-0.4561205,-0.025129098,0.040846568,-0.1601826,0.520793,0.046899095,-0.5147816,0.23146047,0.053015985,0.42861313,0.14065789,0.20072311,0.12750703,-0.2282447,0.02039005,0.24065804,0.29329214,-0.28895473,-0.25115782,-0.0016422197,0.025740182,0.16321431,1.0057049,0.5405528,0.2839068,-0.13048276,-0.22208746,0.63578296,-0.3613103,0.18602848,0.07784262,-0.22360432,-0.05960487,0.5370082,-0.469115,-0.24115656,0.54931015,-0.6527298,-0.06477115,0.0800829,-0.51468766,0.15715685,0.18916993,-0.1475016,0.62930894,0.08993157,0.26549312,-0.05303651,0.2143796,0.13376957,0.046447754,-0.35239524,0.41951013,-0.31010225,-0.61310333,0.08509539,-0.06857675,-0.3605014,0.5582272,-0.17751682,-0.5563156,0.04112225,0.43395898,0.11226262,0.6150538,0.041579694,0.01663726,-0.47299784,-0.4040996,-0.014319402,-0.2732214,0.16928513,-0.7225224,-0.14234385,-0.5683845,-0.006838383,1.1695102,0.2762866,-0.17546181,0.09416702,-0.053316854,0.45977172,0.3919213,0.26812842,0.74898034,-0.13620134,-0.029110974,0.46185565,-0.67685485,-0.36363244,0.67302763,-0.90537566,-0.2610327,0.19636951,-0.35577664,0.1958442,0.6069396,-0.040916402,0.5312007,0.040341474,0.1476939,-0.060217705,-0.31245255,-0.16736686,-0.15313834,-0.42990762,0.55697966,-0.5463406,-0.56476194,0.14710061,-0.1383251,-0.18936124,0.5313405,-0.107456006,-0.3602731,0.40203243,0.18196224,0.66257805,0.2977115,0.7559221,-0.2315486,-0.5807195,-0.06429476,0.11951899,0.19619666,-0.028307498,-0.3963574,0.054438382,-0.042162757,0.1593564,0.8204509,0.65300727,-0.10331497,-0.16519909,-0.11208509,-0.20155574,-0.1624312,0.089790165,0.40443212,-0.54106367,-0.10494821,0.49986142,-0.62205553,-0.1418162,0.5780963,-0.37101802,-0.51437116,0.19627158,-0.15387206,0.034714922,0.4941001,0.26102135,0.40456986,0.29759362,-0.02644826,-0.020515665,-0.24808243,-0.17113693,-0.19881146,-0.3078797,0.16925783,-0.22180386,-0.5222168,0.09151593,-0.04247745,-0.15893702,0.627725,0.024088565,-0.59625846,0.17921473,0.13788597,0.74161255,0.38138762,0.5206897,-0.18004248,-0.052317638,-0.33177525,0.10533874,0.31198296,-0.10026624,-0.0838135,-0.31098387,-0.051131878,0.54040116,0.5869007,0.6905712,0.21387517,-0.21211843,0.1235709,0.5406369,0.17511992,0.24670362,-0.214072,-0.29520383,-0.35293025,0.05229303,-0.30272096,-0.25890353,0.6392218,-0.29773238,-0.25030813,0.06908553,-0.38991663,0.40840772,0.103232905,-0.19268315,0.20805779,0.20927137,0.18639036,-0.20719984,-0.19671606,0.10273635,-0.08982543,-0.0903494,0.31471357,-0.068239406,-0.66677344,0.16379268,-0.07989607,-0.24600567,0.71899927,-0.22016299,-0.6635037,0.06806149,0.14977881,-0.10638245,0.093478136,0.37219763,0.13243471,-0.16238165,-0.3171366,0.392605,0.19148502,-0.20488374,-0.11356439,-0.34093845,-0.26503202,0.14403202,0.58920205,0.5209348,-0.16076636,-0.48134485,0.13849102,-0.1486564,-0.11052028,-0.05221058,0.020179965,-0.29587695,-0.21767043,0.41764355,-0.42440912,-0.2691455,1.0019187,-0.3380234,-0.16299452,0.35966787,-0.15617605,0.2918377,0.28357193,0.28492624,0.21511452,0.10655193,0.15889937,-0.1893058,-0.54216176,0.1411165,-0.4316763,-0.08588897,0.1529746,-0.12138886,-0.7298295,0.015439198,-0.040312573,-0.022910196,0.47566265,-8.0775144E-4,-0.48512182,0.24605504,0.29846007,0.4309797,0.5985253,0.7457839,0.16762766,-0.2162609,-0.07279894,0.10211689,-0.07138569,-0.029367149,-0.6965174,-0.14603966,-0.32085523,-0.24145368,0.85755986,0.40713152,-0.17826499,0.103016995,-0.5311778,0.4463798,0.45110106,0.3942933,0.25101537,-0.03734991,-0.104597725,0.3700263,-0.74803257,-0.22057338,0.43229023,-0.6411509,-0.40812135,0.2627999,-0.45595628,0.2989872,0.41224772,0.0602721,0.5319753,0.15497227,0.4045046,0.2818256,-0.48225167,0.01571618,-0.37322068,-0.44344974,0.38358748,-0.39014906,-0.46406275,-0.23229972,-0.19541538,0.044524603,0.50183094,0.087749586,-0.3541281,0.30230844,0.57556134,0.68704456,0.12318745,0.28692764,0.3564204,-0.39284822,-0.19310938,0.33321238,