0.13845876,0.15738912,0.0034165285,-0.05582687,0.22668707,0.31368798,-0.13178362,-0.06573419,-0.23698193,-0.27625877,0.25586858,0.06492114,-0.20937566,-0.3102749,0.16483337,-0.05510858,0.21832015,0.26535305,-0.1191549,-0.05962052,0.020599335,0.20318128,-0.31763217,-0.24505837,0.106444225,0.22579165,-0.2730824,-0.13770483,0.09423449,0.079621956,0.04621905,-0.08981081,0.26471028,0.4026926,-0.05783844,0.008230964,-0.12892841,-0.1609354,0.31774488,0.1933037,0.1562268,0.23810424,-0.0486392,-0.05110468,-0.116424754,-0.03522305,0.15978804,0.1258721,0.1926402,0.2818869,-0.19723003,-0.11853735,0.03174324,0.08325897,-0.24165697,-0.19886208,0.15184139,0.24744843,-0.1895863,-0.09654868,-0.25597623,-0.36378404,0.18645677,-0.009666681,0.10027484,0.047533564,0.034548577,-0.114693545,-0.21728183,-0.27425563,0.26512673,0.12284617,-0.13617991,-0.15597078,0.3873636,0.27122405,-0.10393449,0.003326088,0.08106716,0.12810259,-0.03574558,-0.060680002,0.34439376,0.37089986,-0.28552532,-0.3658537,0.21094441,-0.0035963636,0.1624576,0.28598896,-0.18082923,-0.12786783,-0.085386775,0.021998292,0.024254404,0.11209067,0.11296826,0.15751106,-0.012094254,-0.06188964,0.18790169,0.26695254,-0.12772563,-0.07952281,-0.25723556,-0.27543992,0.2350774,0.055611115,-0.21462259,-0.32486406,0.16846523,-0.062449235,0.19066349,0.23340382,-0.1474922,-0.095604576,0.025770687,0.19829462,-0.3012041,-0.23540936,0.09951177,0.20175382,-0.26969162,-0.14617738,0.14740124,0.124686524,0.099382624,-0.03282407,0.21965137,0.35543945,-0.10346859,-0.03675035,-0.13664143,-0.17587927,0.30845633,0.17612244,0.11737752,0.2285089,-0.036616527,-0.049156424,-0.08327352,-0.019723706,0.15710394,0.14156608,0.18366142,0.26623526,-0.19498096,-0.13402863,0.06734167,0.1364506,-0.21867085,-0.15110737,0.12758282,0.22226237,-0.19419466,-0.10677541,-0.25072315,-0.31232184,0.23685998,0.050387606,0.11866822,0.06965362,0.043292265,-0.09318636,-0.21654971,-0.24773239,0.2762336,0.12382917,-0.16775128,-0.20133112,0.35158014,0.22571878,-0.027959645,0.04642334,0.10624656,0.14930388,-0.05489781,-0.11341768,0.28610638,0.31148523,-0.2650786,-0.3326442,0.21571171,0.04285827,0.11785222,0.22919653,-0.19678906,-0.15461284,-0.011633063,0.06933553,0.042771555,0.13475403,0.08744143,0.15970019,-0.017266138,-0.07725444,0.18496606,0.2547141,-0.12724197,-0.08133412,-0.23577593,-0.25626004,0.23702165,0.07250466,-0.21453847,-0.33045486,0.17347251,-0.060865432,0.19118343,0.2414785,-0.14507125,-0.09783124,0.05008249,0.21057035,-0.28688043,-0.23094806,0.12386194,0.20483427,-0.25686166,-0.13343675,0.10700443,0.09215772,0.07280159,-0.07535538,0.21430144,0.36180305,-0.102109835,-0.035048727,-0.12179967,-0.1706055,0.32324326,0.21021995,0.093843214,0.20681202,-0.05980777,-0.054791436,-0.085930794,-0.021484602,0.16269411,0.15649217,0.16356748,0.23988438,-0.2008834,-0.12825054,0.057258233,0.14786816,-0.22206104,-0.17184943,0.13153926,0.21720763,-0.18874572,-0.10762463,-0.23497085,-0.29949316,0.23141532,0.055698253,0.0972959,0.058825646,0.016762592,-0.13969961,-0.19444738,-0.24180464,0.27001166,0.13017717,-0.13253771,-0.17609517,0.36955604,0.25447062,-0.018216554,0.046850216,0.10346013,0.14480852,-0.05754437,-0.1030046,0.31994832,0.34289494,-0.25589707,-0.30627137,0.21493153,0.024637925,0.12910011,0.23085718,-0.19399995,-0.14950195,-0.03973297,0.063619256,0.04145797,0.1342908,0.08991342,0.16128454,-0.031117769,-0.07760926,0.1729091,0.2614418,-0.11350548,-0.06310286,-0.2166259,-0.2545629,0.2530482,0.080351174,-0.22196695,-0.3085198,0.16590734,-0.057711385,0.17213741,0.23271371,-0.123613834,-0.08053135,0.038547266,0.19587375,-0.29815745,-0.23523478,0.093700096,0.20018847,-0.25085706,-0.14841257,0.117590725,0.11458114,0.058801576,-0.08456609,0.22628587,0.36472392,-0.07579786,-0.01203501,-0.11814722,-0.17712091,0.34665415,0.2168009,0.091606386,0.21637975,-0.05505932,-0.07922951,-0.09632657,-0.05561844,0.15702045,0.1493165,0.15689708,0.2492797,-0.21352033,-0.15273644,0.047144778,0.13286838,-0.27511758,-0.22664097,0.11879869,0.21574126,-0.19940743,-0.119139284,-0.23610316,-0.31586444,0.22979689,0.0479893,0.10177322,0.075856715,0.029155834,-0.10955728,-0.18763943,-0.2448799,0.26525474,0.13359061,-0.12902571,-0.18020748,0.39462033,0.28884837,-0.018236963,0.043393612,0.079069756,0.12935916,-0.042470254,-0.09462545,0.3519945,0.36712223,-0.23557222,-0.3223249,0.22422314,0.04835518,0.11941636,0.22969273,-0.1915329,-0.14735052,-0.019404631,0.07227093,0.005657009,0.110426836,0.07573589,0.16100028,-0.02967825,-0.09203986,0.17647764,0.2551229,-0.10814477,-0.059836995,-0.21772583,-0.25031084,0.26101542,0.09022128,-0.21753353,-0.31212524,0.15683137,-0.08491649,0.18029355,0.24339806,-0.14120187,-0.094376765,0.052017134,0.21720347,-0.31945357,-0.2484436,0.117566794,0.2137873,-0.25773752,-0.13650163,0.107882366,0.11560583,0.0695384,-0.08846695,0.21417788,0.36276922,-0.091048,-0.025636898,-0.110975906,-0.16587353,0.34568045,0.21989998,0.07331727,0.2116612,-0.04709148,-0.060583837,-0.08999003,-0.07228319,0.17332105,0.18733601,0.14544514,0.24817276,-0.1865686,-0.13316302,0.0209214,0.107111484,-0.24177033,-0.22166596,0.11693542,0.2101639,-0.19773662,-0.12990281,-0.20179142,-0.27730924,0.22605728,0.0499874,0.09187726,0.07593619,0.026896447,-0.12946774,-0.1892287,-0.23441878,0.275358,0.15826558,-0.13197698,-0.18684883,0.39610928,0.28388932,-0.0032750193,0.060812213,0.0518638,0.120623425,-0.05471035,-0.14132355,0.3525963,0.368465,-0.2052854,-0.293275,0.21854548,0.043378457,0.112701684,0.22704281,-0.1879351,-0.14894852,-0.037736613,0.06811497,0.014771189,0.12547721,0.075205036,0.1820733,-0.02846697,-0.086026914,0.16520971,0.2547327,-0.10174829,-0.044042397,-0.1917966,-0.2244751,0.25222585,0.101466015,-0.19841823,-0.29058224,0.1809608,-0.051006645,0.18056913,0.21923003,-0.11059475,-0.07607159,0.04367068,0.20748128,-0.3224901,-0.25277394,0.12307046,0.20795994,-0.24509998,-0.14140013,0.06344919,0.07117598,0.01694655,-0.15413947,0.22850373,0.37772152,-0.063141614,0.0024740226,-0.091466635,-0.1630471,0.3755209,0.24979468,0.066734456,0.20868391,-0.04522425,-0.08239035,-0.09637095,-0.06611935,0.1583497,0.19131301,0.12234119,0.22307591,-0.2134245,-0.14518331,-0.0038980537,0.10684583,-0.2900084,-0.26559085,0.107668504,0.21445115,-0.20411184,-0.13398261,-0.20238012,-0.30236843,0.23279464,0.041521177,0.06268326,0.056795396,-0.0032683345,-0.1534775,-0.17073119,-0.21904862,0.2643454,0.1480064,-0.08818286,-0.13626242,0.42388493,0.32643336,1.12737755E-4,0.041340105,0.04423918,0.09996712,-0.025613269,-0.11135467,0.41090846,0.42335615,-0.20842947,-0.29673922,0.2162286,0.037658006,0.12532967,0.22897604,-0.1748902,-0.13675688,-0.059515055,0.053543303,-0.02646083,0.09231288,0.07326791,0.16024616,-0.03260033,-0.07881631,0.17130284,0.25105575,-0.091607496,-0.046022035,-0.20002145,-0.23512687,0.25547856,0.093146585,-0.2038649,-0.28913227,0.17960553,-0.06483879,0.1657756,0.2191281,-0.13171138,-0.0786545,0.04371759,0.21535821,-0.31032005,-0.23707479,0.1227205,0.20685796,-0.24845608,-0.14478034,0.10677383,0.114399105,0.040576946,-0.10529906,0.20673877,0.35886323,-0.07398446,-0.006408383,-0.10142063,-0.17227262,0.36074916,0.22076647,0.07185927,0.20802802,-0.046076413,-0.082816325,-0.10585815,-0.080693975,0.15511887,0.18319231,0.13555984,0.23112008,-0.20857966,-0.14780892,0.00974695,0.11174902,-0.27497557,-0.22914656,0.10702934,0.21198206,-0.19648111,-0.12027368,-0.18975073,-0.28125733,0.22793514,0.030648092,0.07788936,0.071516596,0.011036453,-0.12326331,-0.17064857,-0.22219479,0.27506483,0.143923,-0.11643825,-0.16631106,0.41799834,0.30198988,0.0057690125,0.051973093,0.036915716,0.08853508,-0.041793562,-0.13717617,0.40214178,0.40282738,-0.21031737,-0.28369167,0.20653936,0.042163625,0.10602752,0.21324602,-0.1785399,-0.13801232,-0.040612277,0.059784543,-0.023967816,0.09246687,0.10315719,0.16914575,-0.019932043,-0.0627991,0.18555097,0.27733704,-0.13694313,-0.079609625,-0.21755981,-0.25663006,0.24894665,0.076413594,-0.21775427,-0.32238623,0.18450066,-0.058908314,0.17247812,0.2234808,-0.13279672,-0.096219,0.0344469,0.209151,-0.29135442,-0.22688317,0.09868705,0.20104095,-0.2674215,-0.15316357,0.09183952,0.08659334,0.044536915,-0.096353784,0.23318648,0.37595707,-0.07245236,-0.006740318,-0.12378347,-0.18128559,0.3420936,0.21234709,0.10243095,0.2131735,-0.064394675,-0.0868084,-0.10062981,-0.031729124,0.1494252,0.14299044,0.15663749,0.24056494,-0.22834544,-0.16417876,0.06320224,0.13493505,-0.24020712,-0.17250477,0.1380753,0.23829888,-0.18710569,-0.0995634,-0.25226372,-0.34336397,0.23335518,0.041823663,0.08506304,0.06551044,0.006275845,-0.12249193,-0.19757935,-0.2548555,0.2655717,0.11565988,-0.11702597,-0.15321274,0.392364,0.28505287,-0.021380123,0.04552417,0.12786011,0.15603356,-0.023583038,-0.0753108,0.3417963,0.36013508,-0.2693451,-0.34491205,0.2093703,0.031983335,0.13461426,0.25142783,-0.19326645,-0.14928849,-0.030280935,0.05574096,0.018123537,0.12114973,0.081240885,0.16822991,-0.027613621,-0.09536706,0.17128542,0.24924812,-0.09747474,-0.060433127,-0.21549624,-0.25073287,0.2466266,0.087823875,-0.20400295,-0.30158287,0.18002614,-0.06803994,0.18972793,0.24330027,-0.12693913,-0.083587915,0.04534251,0.2054327,-0.31787172,-0.25629315,0.11462533,0.19833726,-0.24808933,-0.13668911,0.102275215,0.113731384,0.069795586,-0.0839699,0.21019863,0.36241373,-0.09498054,-0.021057447,-0.107616685,-0.17357899,0.34648824,0.23188317,0.08387568,0.23173982,-0.027991317,-0.04546583,-0.08056327,-0.062013485,0.17216001,0.20199175,0.14367473,0.24088413,-0.18096548,-0.12589636,0.02297058,0.11919491,-0.25521114,-0.23410912,0.111322306,0.2096054,-0.20448914,-0.1350574,-0.20516385,-0.28408566,0.22497268,0.050901603,0.08699526,0.07551915,0.028013933,-0.13165072,-0.18299599,-0.23072878,0.2684228,0.14609906,-0.12319979,-0.18063375,0.3904554,0.27942094,-0.009703909,0.05141577,0.031991433,0.10638681,-0.047090907,-0.1370308,0.36137444,0.37547737,-0.20851903,-0.2911525,0.2119255,0.04219818,0.113953084,0.22693919,-0.19359854,-0.15578665,-0.054329723,0.054171693,0.0020182505,0.109634414,0.13296081,0.17640422,-0.008898155,-0.062687986,0.18689781,0.28753868,-0.151146,-0.09084978,-0.22639532,-0.25902364,0.24065974,0.07979348,-0.20764679,-0.311625,0.18780957,-0.04662253,0.19612788,0.24946305,-0.11180774,-0.08504298,0.012561552,0.18544577,-0.3026765,-0.23632836,0.0995207,0.20682105,-0.26600003,-0.15029913,0.08556909,0.05537907,0.028224716,-0.12389594,0.27097744,0.40316862,-0.062461987,0.013674081,-0.13336049,-0.1560038,0.3306618,0.20550264,0.10622101,0.21277338,-0.08377764,-0.09289395,-0.096509695,-0.022178814,0.14625531,0.13692667,0.17091215,0.26894417,-0.22748119,-0.15304515,0.07296189,0.12942919,-0.22571978,-0.16408175,0.12749334,0.23829773,-0.20085713,-0.107103944,-0.28128922,-0.3558249,0.24400678,0.04192169,0.080508605,0.029678913,-0.012249036,-0.14778201,-0.20281322,-0.24992655,0.26552424,0.12724204,-0.124622785,-0.15271962,0.3795171,0.2770765,-0.04411059,0.030943394,0.14673732,0.16360962,-0.014429389,-0.05898271,0.33021453,0.35676426,-0.2916396,-0.38141525,0.22762807,0.033893466,0.15567118,0.27395156,-0.19397512,-0.15261875,-0.039212257,0.048479173,0.0478677,0.14563064,0.10906106,0.176369,-0.025593882,-0.06213704,0.18143398,0.27530584,-0.1336505,-0.06888242,-0.21338004,-0.24535772,0.25432095,0.075100005,-0.22452539,-0.32967964,0.18273528,-0.06605146,0.1873538,0.21562505,-0.111879535,-0.086059146,0.027469043,0.19937429,-0.3075123,-0.23448561,0.095238864,0.18572658,-0.27340093,-0.15545538,0.09866697,0.099002875,0.06355559,-0.068569995,0.23395939,0.3690017,-0.08289131,-0.005838172,-0.12344454,-0.17740394,0.34098083,0.19590805,0.10523395,0.21017462,-0.060399447,-0.073944114,-0.100494154,-0.037849005,0.15846315,0.14154458,0.16414729,0.24723692,-0.20585693,-0.15405354,0.03831379,0.123036064,-0.25714624,-0.2070084,0.13608432,0.23315072,-0.19101582,-0.110463284,-0.23385656,-0.32288584,0.2440984,0.033231698,0.09406661,0.07048579,0.02761039,-0.097381294,-0.19123581,-0.25172454,0.25880387,0.12204381,-0.1277515,-0.16033418,0.37134728,0.28817898,-0.038796756,0.031208605,0.08398458,0.13574651,-0.042753886,-0.08737707,0.34240243,0.35726646,-0.25078392,-0.32241532,0.22782522,0.039309405,0.14383548,0.25288466,-0.18367048,-0.1477597,-0.03393066,0.06762956,0.012445305,0.122557655,0.13177672,0.16945545,-0.015095713,-0.07828832,0.18722847,0.28137764,-0.15241326,-0.09691141,-0.2351047,-0.2651801,0.2433151,0.08268537,-0.20782009,-0.31898555,0.171488,-0.055694498,0.18398659,0.23186238,-0.12105904,-0.08232454,0.034892492,0.20636372,-0.2899633,-0.23276946,0.09448705,0.1916939,-0.27238172,-0.15308927,0.10156192,0.09672922,0.06273225,-0.080717854,0.23629889,0.3715954,-0.08583374,-0.014191364,-0.13007137,-0.17676309,0.33302808,0.20107634,0.10065515,0.21255316,-0.07251312,-0.07914537,-0.101874836,-0.04406191,0.16528037,0.13874035,0.15796,0.25456533,-0.22778723,-0.14506164,0.05391542,0.1421343,-0.2279834,-0.16739342,0.13917853,0.23329246,-0.20505796,-0.11931384,-0.24865551,-0.32335013,0.23343132,0.040467393,0.09772524,0.05547608,0.023560055,-0.1243993,-0.20269719,-0.25627026,0.26991865,0.12717083,-0.12980911,-0.17195731,0.38511714,0.26816598,-0.024820458,0.04181869,0.12502818,0.15796192,-0.046059776,-0.08624774,0.31858298,0.34798872,-0.26205724,-0.33276886,0.23583579,0.050933342,0.1320295,0.24472123,-0.2136637,-0.16240282,-0.02633243,0.06746593,0.047068417,0.1427154,0.086967014,0.14642513,0.0010319104,-0.059864413,0.19774386,0.2565342,-0.09660111,-0.031486105,-0.23097762,-0.25373238,0.26061532,0.05036405,-0.20587194,-0.31840938,0.13514239,-0.09280042,0.21340585,0.25733387,-0.15041018,-0.08159952,0.026789004,0.19477555,-0.319463,-0.23729014,0.12646522,0.19589517,-0.26434618,-0.14042175,0.14124975,0.14252171,0.10329209,-0.009335961,0.21320574,0.3567572,-0.095474176,-0.035178263,-0.11266969,-0.16774505,0.2910901,0.17077193,0.13888477,0.2217686,0.0056090527,-0.01755201,-0.09999527,-0.034561068,0.17153259,0.17983986,0.18001497,0.25164014,-0.1523305,-0.11675623,0.002522719,0.094109684,-0.24059685,-0.23116475,0.11528243,0.20410137,-0.17591551,-0.09929625,-0.19927366,-0.2952505,0.16659702,0.0035637983,0.12415045,0.09167068,0.07701231,-0.07271873,-0.19632834,-0.25168425,0.2705188,0.13064247,-0.15295944,-0.19654077,0.36695957,0.2520844,-0.07075119,0.027644139,-0.012111843,0.097743034,-0.056623403,-0.11704684,0.34159052,0.36044908,-0.2265183,-0.27174154,0.19699518,0.008196018,0.11357221,0.22774522,-0.15626577,-0.12236531,-0.068634555,0.056374945,0.013510885,0.095651105,0.11425445,0.16313383,-0.0045057037,-0.071586974,0.19532658,0.2694586,-0.1127657,-0.055064656,-0.23752694,-0.25728604,0.24466212,0.06874182,-0.22577041,-0.32255378,0.14205557,-0.08692753,0.20663589,0.26197493,-0.12119719,-0.083912134,0.028044747,0.18407293,-0.3317808,-0.26030996,0.10476016,0.20182809,-0.2618841,-0.14206605,0.12638138,0.122414716,0.08916245,-0.057060346,0.23772773,0.37736338,-0.08675622,-0.014180053,-0.12447632,-0.15892531,0.3243738,0.19824716,0.12755723,0.25100014,-0.027035668,-0.041010927,-0.093161516,-0.054490738,0.16896899,0.16624878,0.17317796,0.27709153,-0.17205319,-0.11232523,0.021879114,0.10312161,-0.24153705,-0.20429707,0.1234546,0.21631049,-0.20887293,-0.12090354,-0.23944639,-0.31935534,0.20050669,0.021195354,0.11217963,0.068731554,0.05016741,-0.10835822,-0.20019186,-0.2466513,0.2597747,0.14344065,-0.13190587,-0.17754503,0.3823949,0.26770496,-0.0540355,0.026207821,0.052230254,0.12119458,-0.04544376,-0.108679295,0.3305362,0.36280483,-0.2424994,-0.32701984,0.2171003,0.022314524,0.11814349,0.23706315,-0.19870886,-0.15921415,-0.052609198,0.054947104,0.042148568,0.13290116,0.08997425,0.17047691,-0.022890024,-0.07278332,0.18102331,0.27095455,-0.109904766,-0.048390586,-0.19374345,-0.22982731,0.2614625,0.08716049,-0.21220277,-0.30450645,0.18254542,-0.04169425,0.19618876,0.2440644,-0.10713932,-0.06242328,0.037260037,0.2030394,-0.3120709,-0.25037107,0.10836264,0.20809242,-0.26256737,-0.1598517,0.076686144,0.07371423,0.018742148,-0.13045377,0.240471,0.38167253,-0.06193195,-0.004860753,-0.10975584,-0.16149251,0.3654959,0.23455323,0.08741165,0.20705533,-0.03885144,-0.07170607,-0.103404246,-0.045706652,0.16760257,0.18043204,0.14842714,0.24056406,-0.21579374,-0.14536825,0.020074649,0.107907414,-0.30183554,-0.27319878,0.11832462,0.21576424,-0.19845761,-0.12073165,-0.23640227,-0.3338267,0.22279416,0.034834277,0.09246108,0.06806592,0.008832342,-0.13372664,-0.19131671,-0.24778338,0.26237884,0.13418788,-0.10526622,-0.14404276,0.42392102,0.31408337,-0.048650853,0.013987238,0.032277625,0.094279,-0.0107577,-0.06898018,0.41070914,0.4214707,-0.23575844,-0.3226951,0.21921368,0.038848825,0.14457002,0.24926361,-0.16815774,-0.12313738,-0.062226973,0.049583618,-0.03181388,0.08343855,0.0729788,0.16674691,-0.028320583,-0.08796189,0.17087302,0.25278363,-0.09914125,-0.05234514,-0.19591694,-0.22068077,0.25061616,0.09536317,-0.19832735,-0.28472698,0.18429595,-0.055412155,0.17624342,0.2129093,-0.110957436,-0.081197076,0.050095093,0.2148601,-0.30986112,-0.24544513,0.119401045,0.19874926,-0.2460959,-0.13933451,0.08571084,0.083379656,0.025219778,-0.13099591,0.20384419,0.34852818,-0.07280346,-0.001918994,-0.099299885,-0.16495834,0.35887742,0.23229077,0.07639433,0.20606215,-0.05464256,-0.0826986,-0.10517673,-0.06929133,0.16035472,0.18195044,0.13245764,0.22432724,-0.2027618,-0.14449121,-0.0013747531,0.099507235,-0.27145636,-0.23487315,0.10506444,0.2061729,-0.1973195,-0.11556551,-0.18654828,-0.26676887,0.23566222,0.043145545,0.07034431,0.061206795,6.0964137E-4,-0.13997686,-0.1684448,-0.21848534,0.25977072,0.13862601,-0.10191348,-0.14675388,0.40421867,0.30680978,0.0069684694,0.049020022,0.043950353,0.10256833,-0.051613566,-0.12780613,0.38839474,0.40506425,-0.20788288,-0.27805367,0.21301459,0.04077441,0.12587616,0.22406594,-0.16557951,-0.1313746,-0.053938247,0.05671847,-0.027368227,0.0913383,0.09463538,0.1512281,-0.0010554865,-0.060286906,0.19817145,0.25686613,-0.09627485,-0.03647344,-0.23740011,-0.26876485,0.25103322,0.04910256,-0.21362627,-0.3219738,0.13768254,-0.094932646,0.1989168,0.26339787,-0.15132004,-0.085037835,0.033613447,0.1939234,-0.32209432,-0.25128993,0.121007085,0.20562136,-0.27436405,-0.14843881,0.14377765,0.14273193,0.11958874,-0.008818147,0.21631543,0.361508,-0.105794266,-0.04401136,-0.12382386,-0.17238152,0.2988799,0.18210645,0.13110435,0.22751552,-0.0055518975,-0.007975447,-0.093285844,-0.041393396,0.17483437,0.16870515,0.17937939,0.2562458,-0.15848087,-0.11049715,0.026535487,0.106215194,-0.2547539,-0.23190594,0.12128456,0.21039039,-0.18767825,-0.10658065,-0.2142976,-0.29924804,0.18262795,0.029184325,0.12178873,0.089471094,0.076579824,-0.077458866,-0.2090956,-0.25518885,0.27071613,0.1364381,-0.15732044,-0.2052657,0.3646222,0.244348,-0.058066677,0.043397743,0.023402667,0.105914205,-0.059126873,-0.11154335,0.33705574,0.3461537,-0.22770515,-0.2942473,0.20402628,0.015891284,0.112821184,0.22686002,-0.18211447,-0.1428283,-0.05081779,0.06224847,0.035234813,0.118841216,0.108705506,0.16053517,-0.036130406,-0.10013011,0.17241073,0.26358408,-0.14621359,-0.09916246,-0.2374911,-0.2560291,0.25253832,0.09137321,-0.19525737,-0.2923042,0.19665247,-0.05273981,0.17192385,0.23454563,-0.12510747,-0.08856019,0.040320057,0.21209544,-0.29256693,-0.23297818,0.101166844,0.1948112,-0.26779002,-0.14835842,0.10206338,0.09202976,0.05238373,-0.096283786,0.23807663,0.37549624,-0.094763,-0.016418368,-0.12106991,-0.16795142,0.34829915,0.21282458,0.07417984,0.1968313,-0.08488519,-0.097747,-0.09900768,-0.05685101,0.15868008,0.14230324,0.14534302,0.2538419,-0.22589612,-0.15705517,0.060459204,0.14833646,-0.23230454,-0.16650528,0.119984165,0.22518903,-0.21557313,-0.12531656,-0.24599117,-0.30232003,0.26996708,0.07433639,0.08602354,0.04822199,0.0062761926,-0.13638781,-0.19003026,-0.24292171,0.28393957,0.13668825,-0.12948439,-0.18465886,0.38617244,0.27456272,0.011343734,0.06938599,0.1370033,0.17195368,-0.0338369,-0.09717792,0.3148489,0.34521183,-0.2496012,-0.32933018,0.24134028,0.07130488,0.113521576,0.24075851,-0.21998385,-0.17265856,-0.015310666,0.06335175,0.042153798,0.14774783,0.15220393,0.16267206,0.008809001,-0.04678396,0.21428299,0.3071339,-0.13942617,-0.06089328,-0.24584037,-0.2899108,0.2594952,0.043306142,-0.20488179,-0.32184118,0.17514008,-0.052418455,0.23476522,0.29366454,-0.112535045,-0.058918387,0.0074118725,0.19070227,-0.30081764,-0.23688383,0.10611218,0.2183924,-0.2761119,-0.15135863,0.10404316,0.07424826,0.054436956,-0.06852671,0.27592075,0.41485322,-0.07351837,-0.006389551,-0.13858148,-0.16417153,0.31381762,0.18169987,0.15548281,0.22861297,-0.044710297,-0.04286448,-0.11820933,-0.019307982,0.15633798,0.1208381,0.20565856,0.285313,-0.20140342,-0.12555593,0.058148786,0.12475107,-0.25790927,-0.20032811,0.14083368,0.24370334,-0.19350006,-0.087361865,-0.28131562,-0.37125516,0.20030555,0.007292956,0.120028876,0.048948247,0.029710134,-0.11165955,-0.23150039,-0.29636046,0.2653599,0.09839458,-0.1493959,-0.18338904,0.38017797,0.26272076,-0.10362405,0.016709926,0.09390024,0.14780211,-0.036644157,-0.05970491,0.32810912,0.3518629,-0.30296618,-0.37763923,0.22156379,0.012099051,0.16209473,0.2899224,-0.18675376,-0.1376238,-0.067135386,0.038312696,0.033371516,0.12562005,0.13569118,0.15434535,0.005314691,-0.064582914,0.22041763,0.29874143,-0.114347525,-0.045982417,-0.25535825,-0.28240988,0.25131616,0.047530476,-0.20515129,-0.31239605,0.15804198,-0.065849535,0.2209515,0.2762297,-0.12768091,-0.07744155,0.0013991635,0.18182448,-0.32543546,-0.24549854,0.11383271,0.2223616,-0.27905774,-0.15240999,0.13044077,0.107954875,0.073989965,-0.053639773,0.25938463,0.39892372,-0.07588279,-0.014759933,-0.122061774,-0.14958128,0.31404555,0.18760702,0.1590947,0.25089535,-0.026902635,-0.034219887,-0.11490274,-0.041226298,0.17771101,0.16532952,0.1932301,0.29436284,-0.18449472,-0.12257321,0.010094937,0.08428166,-0.25454417,-0.22166602,0.12979348,0.23468181,-0.19351667,-0.09591797,-0.25808907,-0.35206246,0.17487927,-0.0054268735,0.1264869,0.05723088,0.05431456,-0.101514965,-0.21916105,-0.27074215,0.26055673,0.1256683,-0.14234182,-0.17897373,0.38684127,0.27116206,-0.08442051,0.018235922,0.059656754,0.12690584,-0.031206658,-0.07815995,0.35732514,0.38618279,-0.27649733,-0.36270046,0.20731303,0.0048023053,0.13148092,0.267278,-0.18402182,-0.14545998,-0.06837104,0.038003333,0.031846724,0.11339587,0.14450978,0.1476038,0.028039454,-0.03876274,0.2284635,0.3081281,-0.11898206,-0.049138438,-0.2584128,-0.28747112,0.24553458,0.039263252,-0.20782897,-0.31490427,0.15182512,-0.06732379,0.21769261,0.27333894,-0.13190886,-0.08244957,0.004764477,0.19328572,-0.319981,-0.23942426,0.11940557,0.2387486,-0.2887451,-0.15735638,0.13130489,0.09982027,0.09007139,-0.033446413,0.26351646,0.3963213,-0.068167485,-0.013201982,-0.1257335,-0.1513566,0.29684296,0.1715264,0.16712485,0.25223896,-0.011608567,-0.027537635,-0.12461178,-0.036552407,0.16341871,0.1473053,0.19652615,0.2997226,-0.18775204,-0.121865004,0.022500899,0.09457673,-0.23727043,-0.19568673,0.12865853,0.23619965,-0.18568423,-0.090720244,-0.26057673,-0.3566636,0.17108655,-0.013089945,0.12872855,0.04932604,0.06609116,-0.08235234,-0.22020377,-0.269727,0.25946084,0.104778774,-0.14473619,-0.18354258,0.37600446,0.2547075,-0.09148269,0.009804597,0.06309932,0.12848122,-0.044324677,-0.08859756,0.3329833,0.36687195,-0.28917864,-0.36812449,0.199012,5.6623924E-4,0.13632277,0.27663106,-0.18269137,-0.14340396,-0.06918917,0.028504016,0.029873261,0.121063925,0.10110311,0.16843458,-0.030298818,-0.08782217,0.16986814,0.25873494,-0.15092371,-0.09574382,-0.20707384,-0.24442889,0.2542502,0.102900535,-0.20546733,-0.31210732,0.199142,-0.044152778,0.18313335,0.24114707,-0.1150606,-0.087251805,0.054626815,0.22623952,-0.2878239,-0.23729688,0.10569154,0.2088638,-0.24540941,-0.13957204,0.06268052,0.053586397,0.02066037,-0.13838345,0.2288194,0.36705863,-0.09116576,-0.016881585,-0.12195164,-0.17005847,0.35867646,0.23192798,0.07863473,0.19253764,-0.0837234,-0.0942571,-0.09320093,-0.023353972,0.15386055,0.15366761,0.14936952,0.23251618,-0.22854283,-0.14341123,0.060607944,0.14314549,-0.2496285,-0.19799116,0.12726758,0.22249456,-0.20777386,-0.123577714,-0.24151272,-0.3192452,0.25991622,0.066388026,0.0707855,0.042563472,-0.012200387,-0.15810485,-0.20312878,-0.2634987,0.26019508,0.12632011,-0.11295201,-0.15513285,0.39990827,0.29500014,-0.017256755,0.053251762,0.1222547,0.14840615,-0.015809739,-0.069667764,0.34432757,0.36737755,-0.25563502,-0.33090776,0.23730138,0.054223698,0.14894357,0.25830352,-0.19617227,-0.14197601,-0.038774054,0.058833648,0.024558047,0.12706122,0.102824315,0.16173932,-0.017629117,-0.065527864,0.18838657,0.27739885,-0.13672209,-0.09835753,-0.22932148,-0.25107792,0.24642299,0.093323775,-0.20849733,-0.30232868,0.19646773,-0.042658053,0.17914352,0.22935553,-0.12282177,-0.08569283,0.04253865,0.21413344,-0.29684004,-0.23281607,0.10959462,0.2076591,-0.25737098,-0.14287083,0.09648271,0.070312425,0.03492796,-0.12323652,0.2378958,0.37583393,-0.07487629,-0.004707944,-0.12670052,-0.17182972,0.3490886,0.2152814,0.09081547,0.2083877,-0.07675841,-0.09386607,-0.10890166,-0.045854665,0.14924604,0.14076824,0.15908809,0.25090656,-0.22738856,-0.14915718,0.057412982,0.13608077,-0.24311608,-0.16651239,0.13338092,0.23641387,-0.20080176,-0.10987592,-0.24153553,-0.3193533,0.2483209,0.033747822,0.086223334,0.05159148,-0.003603617,-0.13867475,-0.19828029,-0.24509424,0.26602346,0.1227863,-0.12804718,-0.15321991,0.39168164,0.27902463,-0.008716862,0.04047953,0.12322027,0.14388376,-0.045041103,-0.09772024,0.34844965,0.3752316,-0.26844764,-0.33694193,0.22426225,0.03616803,0.13716803,0.24800111,-0.19991669,-0.14432462,-0.037760414,0.0526236,0.014542496,0.12867446,0.12014144,0.19598794,-0.020870365,-0.09356112,0.17188899,0.2567305,-0.12242185,-0.06692479,-0.23063926,-0.2565584,0.21794754,0.07160247,-0.21554415,-0.32333297,0.16181119,-0.07041769,0.1913991,0.24180958,-0.11443408,-0.0910833,0.040843602,0.1789126,-0.2984486,-0.2280877,0.093509965,0.18467578,-0.23203781,-0.11921828,0.108450934,0.09236166,0.06030536,-0.096001565,0.2463616,0.37790924,-0.10648545,-0.015099627,-0.12911405,-0.16811305,0.32348785,0.20627992,0.111858554,0.25309378,-0.06438892,-0.07146767,-0.066769764,-0.036775354,0.13983016,0.15110938,0.16058078,0.26556897,-0.19536279,-0.13899092,0.065911606,0.15378413,-0.22679046,-0.17141062,0.121704645,0.22464278,-0.19681495,-0.1133244,-0.268124,-0.326062,0.24481371,0.06684123,0.0892116,0.056335013,0.007157814,-0.14248815,-0.20849225,-0.24714309,0.24640484,0.12617527,-0.13445576,-0.18413459,0.36834118,0.26258367,-0.030079039,0.035835687,0.12219432,0.15136953,-0.041451845,-0.1119976,0.30999377,0.33656603,-0.26739866,-0.3524857,0.22849046,0.04746817,0.12170663,0.23989609,-0.18722542,-0.16118377,-0.02228824,0.083389364,0.05335752,0.13062693,0.09565511,0.18687952,-0.036525432,-0.090343684,0.16659087,0.2582228,-0.12836802,-0.075513825,-0.20146327,-0.22709356,0.24448347,0.107204035,-0.20969146,-0.3066405,0.17736411,-0.056497637,0.17893231,0.21264848,-0.103507005,-0.08907289,0.036336057,0.19031087,-0.3135675,-0.24705315,0.10429343,0.19630034,-0.2388907,-0.14373627,0.06814096,0.05753701,0.023112558,-0.14047463,0.25176865,0.3854003,-0.065147854,0.014833759,-0.10934113,-0.1582444,0.3684914,0.24268603,0.06705961,0.19973648,-0.0851886,-0.094452545,-0.089271694,-0.04903701,0.15640283,0.16905555,0.13019142,0.2251707,-0.22297874,-0.14924884,0.030081004,0.12184692,-0.2699601,-0.21322778,0.12225542,0.21902819,-0.2138502,-0.13195677,-0.2460712,-0.3205337,0.25519022,0.05044906,0.07627541,0.054413814,-0.009580215,-0.15800145,-0.18040179,-0.21939474,0.2659756,0.15028986,-0.086661704,-0.1262373,0.40999743,0.3091496,-0.00633554,0.040279727,0.10394367,0.13080142,-0.020357136,-0.07586387,0.3688717,0.37889075,-0.24088731,-0.32752597,0.23888145,0.047206443,0.13419041,0.23562771,-0.19861634,-0.1583058,-0.03795161,0.0634201,0.0145569425,0.12908933,0.101033725,0.1783044,-0.037871007,-0.08721186,0.16791345,0.26132494,-0.1442328,-0.09023201,-0.21594748,-0.24750686,0.27029446,0.10273784,-0.20369904,-0.29716244,0.21093157,-0.03816239,0.18020673,0.24074703,-0.118397325,-0.08010254,0.06467277,0.22958708,-0.28956017,-0.23869604,0.110510625,0.20470725,-0.26427338,-0.14939238,0.07702505,0.06482404,0.011569836,-0.1438558,0.220573,0.36919516,-0.09132433,-0.01744094,-0.12371797,-0.17489997,0.3656008,0.23396613,0.073415056,0.2084796,-0.076746896,-0.089056335,-0.088224836,-0.04847463,0.17455558,0.17748286,0.14235522,0.23667884,-0.23158489,-0.15662906,0.043794222,0.13667774,-0.25918084,-0.21727192,0.11326343,0.21375836,-0.20935358,-0.1324359,-0.22983804,-0.29367328,0.2608921,0.06546441,0.078446425,0.04765127,-0.014139983,-0.15941004,-0.19161895,-0.24872893,0.2675157,0.11804867,-0.1148339,-0.17035435,0.4171361,0.31013605,-3.9237292E-4,0.06075211,0.09881237,0.14208491,-0.03197913,-0.1031898,0.37417823,0.38894528,-0.23456782,-0.31321922,0.2394657,0.06281305,0.13228832,0.24161476,-0.19348244,-0.14543325,-0.04562582,0.058521062,-0.0040106075,0.116822936,0.084722206,0.18589076,-0.033372026,-0.09247854,0.17030789,0.27208978,-0.123111844,-0.07797556,-0.1894904,-0.23369533,0.2578674,0.110617295,-0.1987143,-0.29551345,0.21136494,-0.043040156,0.1870889,0.23410802,-0.106818795,-0.080470495,0.05711204,0.22579329,-0.3014612,-0.23905514,0.1190517,0.21507445,-0.24171235,-0.13937458,0.037148513,0.037445825,-0.0018093587,-0.16738178,0.23931132,0.37935057,-0.07677793,-0.0014388297,-0.10196969,-0.1700318,0.37346002,0.24898003,0.058305286,0.20290683,-0.08027163,-0.104765326,-0.09636538,-0.049288876,0.15736943,0.18715683,0.13592078,0.23810677,-0.22373083,-0.15442872,0.02129473,0.110350564,-0.26811707,-0.22683886,0.11727801,0.22955218,-0.20841725,-0.12976708,-0.23994316,-0.32590148,0.2570201,0.05333183,0.05473718,0.046899535,-0.02840906,-0.1693315,-0.18616769,-0.23698242,0.26394203,0.1342559,-0.087471046,-0.13947855,0.41749933,0.3201122,-0.009303871,0.0336708,0.089161254,0.12271558,6.926453E-4,-0.07665342,0.39264807,0.40855262,-0.2417418,-0.3308612,0.21927094,0.052183088,0.15154478,0.26479664,-0.17757522,-0.13628837,-0.060392436,0.04275772,-0.020497423,0.098809145,0.08910374,0.18470952,-0.023797933,-0.082140215,0.17403363,0.27619174,-0.11215286,-0.060669545,-0.19817416,-0.23411518,0.2510614,0.100018054,-0.20259793,-0.2952597,0.2063417,-0.03643558,0.19260587,0.23431772,-0.10332984,-0.06341086,0.04609124,0.20858933,-0.31156743,-0.24418724,0.10795606,0.20297521,-0.25885803,-0.15514776,0.05202271,0.044970077,0.0044126343,-0.16526325,0.2506935,0.3901663,-0.05674095,0.011656782,-0.10518247,-0.16528809,0.37393963,0.24704333,0.06533633,0.21676156,-0.056937523,-0.094920844,-0.09387845,-0.053086672,0.15847717,0.17963363,0.13131744,0.2394642,-0.22972132,-0.14912537,0.02041342,0.113458574,-0.2850861,-0.23777594,0.11331978,0.2279314,-0.20341925,-0.12869383,-0.2445912,-0.32572135,0.24136247,0.044894096,0.06616669,0.046565812,-0.014589351,-0.1612651,-0.18559286,-0.23715644,0.25873387,0.12005679,-0.083702676,-0.13534342,0.42939413,0.32413858,-0.012736139,0.027279746,0.07300052,0.111120954,-0.0025675483,-0.08443047,0.4039543,0.42027947,-0.2421211,-0.33221895,0.21655358,0.042774606,0.14583811,0.2603023,-0.1834272,-0.13632262,-0.06234144,0.041946214,-0.026254417,0.09340445,0.119870156,0.15070246,0.009823571,-0.049385205,0.20524281,0.27721587,-0.11141192,-0.054690145,-0.24344751,-0.27279884,0.2416835,0.055524632,-0.21614718,-0.33474916,0.14651203,-0.07593293,0.19631526,0.25605565,-0.14427105,-0.087771274,0.0014375313,0.1854944,-0.31048682,-0.2453955,0.095177576,0.21083884,-0.28062096,-0.15283057,0.14750484,0.122929774,0.09795772,-0.019344263,0.23383483,0.3705072,-0.07919405,-0.020148342,-0.13421382,-0.17054991,0.29507074,0.17543955,0.13761246,0.23458885,-0.019044833,-0.035489395,-0.09170053,-0.024214108,0.15337078,0.13305037,0.1983579,0.28712332,-0.18175648,-0.11588611,0.054027475,0.118322,-0.22904176,-0.17650378,0.12647949,0.22318001,-0.18687269,-0.09788565,-0.2519572,-0.33710733,0.19939467,0.02252579,0.13110651,0.07572367,0.059655145,-0.08558958,-0.20721206,-0.25154692,0.27645928,0.117809385,-0.15330657,-0.1867612,0.3662113,0.24082406,-0.07688843,0.015430512,0.059097763,0.11815434,-0.048153892,-0.100004114,0.30730116,0.3377319,-0.26164058,-0.3456303,0.1998976,0.01675476,0.12274344,0.2452495,-0.18632545,-0.14007603,-0.03655442,0.05484766,0.038815744,0.12658957,0.10810245,0.15597124,-0.021779165,-0.083200075,0.20343325,0.27302358,-0.11834937,-0.05911667,-0.22975695,-0.2625277,0.26229814,0.06167682,-0.21291582,-0.33294165,0.1675575,-0.06193179,0.18755466,0.2558177,-0.13739058,-0.076692924,0.023650633,0.19563238,-0.3100341,-0.23597737,0.106446296,0.20012593,-0.26862183,-0.14243108,0.108579084,0.11212694,0.068299435,-0.07174464,0.23492925,0.38052148,-0.09792075,-0.026216278,-0.11103174,-0.16051668,0.32583836,0.20611238,0.12989935,0.22931285,-0.04433274,-0.04700035,-0.091855496,-0.022681871,0.17521068,0.16431013,0.18200254,0.2667346,-0.1958068,-0.13819374,0.033531155,0.12200477,-0.25057742,-0.23067293,0.13049376,0.22530955,-0.19978279,-0.11409215,-0.23542719,-0.32950675,0.20901881,0.04265121,0.110207796,0.06493158,0.037792984,-0.121258095,-0.20443797,-0.258603,0.26973557,0.12897585,-0.13354778,-0.18111195,0.3941123,0.2726484,-0.064573266,0.03500141,0.05763894,0.136678,-0.02887563,-0.0791906,0.36098707,0.37978753,-0.26593417,-0.3369664,0.22343813,0.030436538,0.120012514,0.24536498,-0.19368652,-0.1438247,-0.05479072,0.055277344,0.029893396,0.10798496,