-0.10359875,-0.0030556668,0.032444715,0.075105675,-0.006515382,0.004630773,0.09299099,0.0011024218,0.030921485,-0.10595341,0.10197111,-0.053125035,-0.0046999604,-0.027187198,-0.05058984,-0.003971139,-0.10678944,-0.061311726,0.029539919,0.083635464,0.04791204,-0.040070403,-0.025510529,-0.053771023,0.089798495,-0.046028137,-0.085488394,-0.046310626,0.042490344,-0.047572047,-0.0770709,-0.01744608,-0.068430975,0.13952096,-0.015481958,-0.072082736,0.026344875,0.02505618,-0.07773533,-0.070817634,-0.060142998,-0.03743773,-0.07463017,-0.13519996,0.08466265,0.05989388,-0.061898924,0.05611945,-0.062138416,0.08430328,0.0030572242,0.086198375,0.06795101,-0.039349332,0.04264824,0.01446228,0.008338057,0.054451562,0.037205163,-0.107057765,0.042445824,0.07223132,0.15860371,-0.08849756,-0.06784938,-0.025305001,-0.007962599,0.063794754,0.08501015,-0.06536823,-0.026308272,-0.025330568,-0.14046049,-0.06219964,-0.046883713,-0.07020772,-0.15657537,-0.0267755,0.0608925,-0.036669776,0.04375116,-0.033513203,-0.104100324,-0.17666113,0.03395487,0.011219032,8.3938014E-4,-0.06458489,-0.06448863,-0.08037958,-0.10787231,0.06213772,0.027721038,-0.014762135,0.06114857,-2.2185815E-4,-0.019181866,0.012412624,-0.06839828,-0.093309335,0.07998427,-0.021877812,-0.08445458,-0.0737485,-0.009661342,0.010668267,0.036916673,-0.13422026,0.1145798,0.015536473,0.029782828,-0.115793206,-0.009625165,0.007223288,-0.030260623,0.07643991,0.079608016,-0.036499407,0.051999897,0.060290057,-0.102639146,-0.02284531,0.03942526,-0.0021780822,0.11845336,-0.0810962,-0.10146524,0.024506016,-0.11804435,0.08479694,0.0101780305,0.100667305,-0.043326218,-3.5249755E-5,-0.031401295,-0.1275741,0.07732376,-0.024656545,-0.077451594,-0.010672793,-0.010776442,-0.07073617,0.019192612,0.093521506,0.021623448,0.026450515,-0.029459113,-0.05106104,-0.07887126,-0.1344991,-0.15615486,-0.042385634,-0.069337636,0.040501676,-0.10992777,-0.024643054,-0.046754576,0.028195944,0.063901335,-0.02670152,0.07598214,-0.07400873,-0.04877427,-0.112553924,-0.05460997,0.08100254,0.04902208,-0.0970889,-0.014555495,-0.07536465,-0.05046604,-0.05405005,0.031556517,0.006891057,0.015159042,0.042822234,-0.0068694265,-0.07525186,0.06551092,0.06874011,0.15500893,0.052634876,0.024313396,0.047892626,-0.1086302,0.04118252,-0.0054829884,-0.06048393,0.05946187,0.098583154,0.10068095,0.002717947,-0.08702571,0.09479776,-0.1168285,-0.07102256,0.0020237658,-0.07654619,-0.091496944,-0.046175558,-0.044838767,-0.094657086,-0.017699433,0.059932157,-0.045987226,-0.10588194,-0.07365672,0.022948774,-0.109066434,0.12461487,0.042200677,-0.046358857,0.051965397,-0.06659183,0.061917238,-0.13680843,-0.050509512,-0.03598355,-0.012578104,-0.025223983,-0.0737024,0.15259294,-0.10332343,-0.071151845,-0.07541972,-0.0470089,-0.03304713,-0.10560134,-0.0017736795,-0.15153909,-0.19307633,-0.09621408,-0.06425602,0.021317894,-0.07362084,-0.11888208,-0.021065108,-0.006077812,0.06457358,-0.11164565,-0.059977774,0.06933247,0.052064754,-0.019739954,-0.026480999,-0.03836561,0.0072288304,-0.045585085,0.06866086,0.045846812,-0.11846815,-0.080502905,0.021665813,-0.017558757,-0.011048876,-0.13553157,-0.0044056093,0.04723549,-0.0058715576,0.07487291,0.0012369001,-0.08148303,9.488203E-4,-0.10835914,-0.093944035,-0.018261278,-0.035953328,0.027678356,0.15207402,-0.060056526,0.05606777,0.030806417,0.056518584,-0.020370984,-0.0013347254,0.067061394,-0.08236876,-0.03159673,-0.04702062,-0.028099386,-0.037175618,6.113714E-4,0.05035249,0.03850381,0.040290788,0.0647317,-0.10461007,0.03160164,0.07321039,-0.060923915,0.035835043,0.01702117,-0.030614473,-0.06317805,-0.028776687,-0.03793718,0.06360605,0.0671198,-0.058787633,0.037496082,-0.00770942,-0.076185666,0.03741414,-0.0765917,-0.06731106,-0.034757152,0.107765764,-0.026911158,-0.08007562,-0.068646684,0.086367995,0.015483835,0.14677536,-0.060563706,0.026954982,0.041724704,-0.057629842,-0.048766304,-0.039555203,-0.049687352,-0.069059625,-0.02172135,0.022644483,-0.024709823,-0.09582239,0.026350567,0.0024162969,0.008549816,0.082584515,-0.032705225,0.023037434,-0.01613882,0.033231344,0.020883031,-0.1150495,-0.18482861,0.04343895,0.005014742,-0.0346544,-0.107989766,0.005186883,-0.005887511,-0.06713451,-0.030988501,0.02250507,0.18603994,-0.01428298,-0.10425895,0.050871726,-0.09941742,-0.00356808,-0.10765334,0.05787015,-0.059676155,-0.05376532,0.06859691,0.11054545,-0.018096216,0.16543575,0.025824474,-0.08469316,0.020204432,0.096949436,-0.073831335,-0.016806478,-0.051089916,0.025808899,-0.10531091,-0.12802134,-0.21336807,0.07483043,-0.046640467,-0.11171996,-0.0017756459,0.020760933,-0.054868888,-0.11877368,-0.04042928,0.036505185,0.14323455,-0.08591728,0.0028716275,0.027138945,-0.032687284,0.07053999,0.059904907,0.032445192,0.07923416,-0.032401443,-0.08361137,0.08253572,-0.13305293,-0.045710832,-0.040568102,-0.14394966,-0.036959086,0.09102111,0.10463131,-0.0765094,-0.04253445,0.10800517,-0.08648748,0.04195579,-0.0094094705,-0.17246945,-0.005889336,0.027107071,0.05830495,-0.05391715,0.02139725,0.06248439,-0.084666975,-0.0063843788,0.022294331,-0.030300133,0.15059763,-0.16265698,0.038947754,-0.037658352,0.07213559,-0.023737885,0.15890892,-0.02257654,0.0742245,0.049969632,0.017247492,-0.08923077,-0.10712961,-0.1127084,0.038304675,0.005047345,-0.1353546,-0.09342228,-0.16750525,-0.08137902,0.012338343,-0.08997072,-0.019112287,-0.075053215,0.046752006,-0.01906481,0.04569288,0.07796772,-0.056010403,-0.04204117,4.841149E-4,-0.09490681,-0.073065475,0.009846887,0.04736163,-0.012957822,0.042896405,-0.020628046,0.053523418,-0.017893609,0.06645363,-0.08999687,0.08149712,-0.05251409,-0.03610763,-0.043432064,-0.0043807933,-0.0083010215,-0.1599622,-0.14671884,-0.1008607,0.058538713,-0.012962478,-0.010143112,-0.075116664,0.0028745288,-0.07097013,-0.19440606,0.09783394,-0.083505794,-0.059651844,-0.08987246,0.05253057,-0.084440604,0.011090876,-0.010319053,0.045318574,0.0078723105,0.15146455,0.024019161,0.022393819,0.059189755,-0.043143153,0.12366413,-0.04299834,1.4582771E-4,0.01548269,-0.018659651,-0.10319926,-0.15563676,0.097693354,-0.047635473,-0.06628728,-0.0031016334,0.13696751,0.03273284,0.0050092502,-0.1502872,-0.09165647,-0.04743299,-0.038899288,0.18008249,0.061931353,-0.1377668,-0.07211414,-0.07793771,0.029978272,-0.07622873,-0.055960882,0.12839985,-0.111652486,-9.3383214E-4,-0.05783831,0.017945062,-0.00392462,-0.014996425,-0.07968237,-0.07474929,-0.09149151,-0.0054823803,-0.14762323,0.069065884,-0.09923567,0.046431817,-0.19444464,0.049279563,-0.043900717,0.055148497,-0.011435773,0.07507034,0.084576696,-0.013681706,-0.12921138,-0.114586845,-0.12911734,-0.15284479,0.058593534,0.11504411,0.008571502,0.13279462,-0.101449005,0.027786877,0.029487362,0.11016811,-0.022993725,-0.026968308,-0.061053265,0.011850157,0.0035161895,-0.008031183,-0.09795611,-0.1358458,-0.12659855,0.012140744,-0.03198863,0.066938594,-0.06691874,0.12518416,0.10775681,0.035533823,0.0045552445,0.035844255,0.18873586,-0.076411545,-0.08657978,0.0010978101,-0.014974173,-0.032661475,0.033814393,-0.16922884,0.14923103,-0.033672456,-0.050066132,-0.06368954,-0.12499475,-0.0016702398,0.1452962,-0.08465559,-0.08590158,0.043959323,-0.05281583,0.033077434,0.109611295,-0.10448504,-0.14181417,-0.04437872,0.14679174,-0.027194006,0.027266273,-0.03587186,-0.1661839,-0.27779377,-0.081872925,-0.025372392,0.02124634,0.1330385,-0.10893933,0.0026453924,-0.047723364,-0.073620245,-0.2223612,-0.01747893,-0.124546215,0.096269086,0.02333006,-0.054234587,-0.16058397,0.022473741,0.0047655115,0.013261855,-0.04445108,0.033846732,0.038974952,-0.046888776,-0.06118359,-0.158975,-0.088153526,-0.04069423,-0.096298926,0.059194997,0.11307051,0.08115252,0.028237866,0.05053839,-0.08519033,0.0875353,0.05236688,-0.062112875,-0.16472083,0.102839746,-0.104067035,-0.05246463,-0.073753946,-0.04505345,-0.015289862,0.054579556,-0.11997953,0.12658092,-0.0051389188,-0.081944756,0.097262286,-0.06123443,0.030756814,-0.1202279,0.10808298,-0.13537247,0.03057037,-0.010267081,-0.09264094,0.015758894,0.011136766,0.014406905,-0.0026796102,0.06692995,-0.05943506,-0.15668882,-0.065396495,0.109293304,0.19476096,-0.13369542,-0.05531213,0.03224943,0.08963047,0.06973565,-0.06348458,0.06010167,-0.069680326,0.033184636,0.06150868,-0.041175928,0.0790342,0.060694214,-0.05152125,0.029773358,-0.07125334,-0.0077425637,0.0041539185,9.662293E-4,-0.029549593,0.19556017,-0.1550722,-0.010440639,-0.06163803,-0.02122695,0.1274745,0.04283551,-0.02492126,-0.05714676,-0.046189338,0.060141023,-0.11603992,-0.04223025,0.036711313,0.079876,-0.016362812,-0.049735595,0.043579765,0.027039984,-0.0136719,0.03908293,0.07140658,0.10170494,-0.04546346,0.008294426,-0.03425199,-0.023949783,0.095286794,0.040933732,-0.063083336,-0.07312703,-0.0027000136,-0.13463186,-0.055145457,-0.091998994,0.078533106,0.04897834,0.08820837,-0.027541678,-0.12849481,-0.0720482,-0.037249178,0.058353737,-0.13096642,-0.09744081,0.032282438,-0.0045758933,-0.012603896,-0.09701583,0.10543258,0.018605918,-0.06845339,0.1080376,-0.015234349,-0.02598942,-0.0069763726,0.04113778,-0.03611279,0.0470134,-0.023099896,-0.12135516,-0.06868471,-0.016653778,-0.06994529,-0.004924761,-0.004415834,-0.010245338,0.015620214,-0.1779489,0.05976989,0.022515865,-0.010653797,-0.08325258,0.0153315365,-0.09871208,0.107971914,0.01757919,0.06255606,-0.078807,0.10049746,-0.101342544,0.003080881,0.08641973,-0.022551335,0.09937061,-0.032819893,0.04559962,-0.115449145,0.022683877,0.029183568,0.08327656,0.05676885,0.043130953,0.08945,0.02438532,-0.07237779,0.039337613,0.06314208,-0.10368305,0.1113164,-0.04657081,0.077154994,-0.067237675,0.022555323,0.031858247,0.025018089,-0.063833825,-0.07169732,0.054263145,-0.012037582,0.0573347,0.057919152,-0.055580284,0.0041569932,0.016471528,-0.052156836,-0.07379577,-0.016085869,-0.0057016625,-0.02180849,0.016235892,-0.0574551,0.031537678,-0.0167298,-0.13480574,-0.17156613,-0.11680922,0.04544964,-0.05808386,0.0034697794,-0.18911359,-0.07889836,0.07509926,-0.09517391,0.038173243,-0.07480267,0.05327477,0.012997672,-0.010894838,0.07134251,-0.069607526,-0.07790721,0.06077002,-0.017836213,-0.088364914,0.011886728,-0.071100704,-0.045443837,-0.08630277,-0.12616836,-0.12278488,-0.11331924,-0.021896075,-0.044964932,0.010665111,-0.032394394,-0.07543898,-0.09346512,-0.036424216,-0.056750827,-0.009374682,0.025770076,-0.10494708,0.021134049,-0.06573856,0.043585178,0.026958732,-0.004246506,-0.09372735,0.061827358,-0.029560108,-1.9257153E-4,-0.03376738,0.051655214,-0.07965143,-0.011434696,-0.044163182,0.03123739,-0.0057062604,0.006780211,0.041922435,-0.058730923,-0.095319204,0.062450487,0.07472397,-0.042239524,0.044496767,0.03546509,0.07134855,-0.03806155,0.006156012,0.02068567,0.0046334816,0.0012512938,0.0673614,-0.030330837,-0.010427265,0.011170983,0.028594032,-0.053617865,0.0063626897,-0.07230989,-0.10901916,-0.05056624,-0.08385724,0.0018112166,-0.032019105,0.009704492,0.010850613,0.024747454,-0.028840082,-0.05495789,0.057142243,-0.1066365,-0.01718976,-0.09028258,0.009233639,0.0014180009,-0.12794884,-0.092612125,-0.13309638,-0.04773703,-0.010596098,-0.034159645,0.049581494,-0.06860905,-0.16755755,0.04560857,-0.06612927,0.0430758,-0.15369998,-0.040159065,-0.032851756,0.020843752,-0.09877227,-0.004341981,0.05408854,0.09437467,0.09781905,-0.058144,-0.036275625,0.056017093,0.13373089,-0.07735722,0.10101114,0.118106104,0.045318153,0.031772934,-0.058695376,0.026079148,0.05353172,-0.05067556,-0.05208413,-0.15550894,0.06313548,-0.05444484,-0.12002587,0.052218113,-0.017663274,-0.06631474,-0.13806969,-0.011897572,0.04119753,0.03708844,0.11085354,-0.04676596,-0.10474313,0.009960334,0.13313238,-0.094892405,-0.025581943,0.0063214223,-0.033843428,-0.040312633,-0.011919876,-0.12409625,-0.07984004,-0.08021795,0.14248563,-0.015489296,0.030909209,0.039224558,-0.0023687324,-0.09790728,-0.054624896,0.07195908,0.023078581,0.028745618,-8.291503E-5,0.029550388,0.060653858,0.14828639,0.047039934,-0.07913888,0.08236739,0.037091207,-0.032400727,-0.026883313,0.060485035,-0.10634091,-0.060829844,-0.0648479,-0.07077399,-0.10026877,-0.071452945,0.08796077,-0.032515172,-0.11253768,-0.053468253,-0.042562813,-0.036359437,-0.07569489,0.07923771,0.1137929,0.035489205,-0.10884268,0.032347705,-0.03698659,0.07785319,0.031736672,-0.10087652,-0.025992883,-0.01892879,0.03262709,-0.042781685,0.028230973,0.059881162,0.08366425,0.0105471425,-0.02321222,-0.05965555,-0.08855073,0.051120196,-0.061312534,0.119585946,-0.077408396,0.07482636,-0.12385327,0.010783522,-0.06778559,-0.042244527,0.079988785,0.0057309777,-0.051973615,-0.06727918,0.04598395,0.06618817,-0.081971616,0.022735013,-0.0336213,0.087024175,-0.03172614,-0.12797594,0.01095004,-0.06444548,0.06594555,-0.041237116,0.0056092427,0.08008037,-0.03727146,0.056094382,0.021656562,-0.031087125,0.036128487,0.012786214,-0.07195982,-0.032914575,0.1517747,-0.026554586,-0.018820815,-0.059109457,0.074372545,-0.010700833,0.054739762,0.0017044868,-2.959003E-4,-0.10864894,-0.046253,0.07978745,-0.09893511,-0.12387755,0.019976811,-0.050660588,-0.07531914,0.06586726,0.07520539,0.014405485,-0.05428676,0.03629352,-0.002660686,-0.03411139,-0.0089746965,0.023223527,0.028922332,0.022226296,-6.102485E-4,-0.044106033,-0.037117824,-0.022620823,-0.04936964,-0.104516044,0.057272565,-0.07447775,0.029508753,-0.22240682,0.049470246,0.006248364,0.06450418,-0.09248295,0.074264914,-0.08131635,0.1494618,0.019162245,0.058617964,-0.030946169,-0.0033967402,-0.102445744,0.06094136,0.07548393,-0.009361904,0.027394213,0.03907612,0.029257497,-0.16783446,-0.050281662,0.03890181,0.12594767,0.06725831,0.10045093,0.059628434,-0.018230848,-0.06376793,-0.04292489,-0.070850104,-0.11618834,0.058063835,0.0588708,0.06131701,0.023668673,-0.011444349,0.012489786,0.07945277,-0.06392689,-0.08997324,0.018592304,0.043607667,-0.04131295,0.041884635,-0.04458751,0.010744678,0.022372605,-0.117911994,-0.096078075,-0.06135257,0.0031646858,0.013937242,0.0120394565,-0.041739568,0.10371144,0.028967071,-0.13574904,-0.0646295,-0.017087445,0.020501124,-0.05144878,-0.041879978,-0.14960726,-0.1303326,0.06435551,-0.07534979,0.030388381,-0.07287283,0.10638947,-0.03946601,0.10129549,-0.07808724,-0.008640255,-0.054749306,0.045201574,0.025067843,-0.009375826,-0.07047582,-0.054009072,-0.02834866,-0.0616073,-0.057485923,-0.107337415,-0.032672793,-0.010948713,0.021280564,-0.03606092,-0.06839201,-0.0072836815,-0.110575244,-0.024259565,0.004117327,-0.024150088,0.0069320896,-0.07446095,-0.005658264,-0.13832444,0.0133393975,0.06936211,0.062194776,-0.11093224,-0.064215735,-0.022920903,-0.033817153,3.2739883E-4,0.027011845,-0.024986215,-0.033488568,-0.0558058,-0.024574647,-0.028180217,0.025247281,0.007369227,-0.08076589,-0.11027732,0.063184716,0.060100876,-0.04118805,0.04882158,0.04136058,0.014173065,0.029684678,0.009883672,0.02373398,-0.040438253,0.07715343,0.06869589,-0.005763899,0.073627315,0.0034306692,-0.04563202,9.969267E-4,-0.056856107,0.0022735938,-0.08281432,0.040418312,-0.15575443,-0.022315197,0.04574795,0.063357905,-0.06253924,-0.04665303,-0.11547312,0.03699424,-0.057091635,-0.095413394,0.013937745,-0.086531065,0.08068488,0.046125486,-0.085663415,-0.056693472,-0.15867998,-0.0709121,-0.02863847,-0.06020736,-0.021925773,-0.058119815,-0.11573904,0.0848423,0.07396249,0.09051373,-0.11329201,0.06372056,0.09815682,0.070517726,-0.07365383,0.049969252,0.018538792,0.067482255,0.009255699,0.0010020555,-0.06824544,0.071791016,-0.038061667,0.009791215,0.1185531,0.07160149,0.05198386,-0.08180657,-0.030912593,0.05762283,-0.08170227,-0.06792494,0.010125774,-0.14547248,0.006033007,-0.0048154634,-0.08888718,0.077686265,0.051889252,-0.093005344,0.056743048,-0.016709767,-0.098818496,0.04664096,0.066600956,-0.10420063,-0.060736325,-0.06109827,0.085558586,-0.06465706,-0.07600621,-0.07062095,0.10257625,0.054179113,0.04540729,-0.094205536,-0.018454077,-0.07078436,0.05797322,-0.03077717,-0.04302432,0.03706211,-0.04126664,-0.012364605,0.058204778,-0.044229798,-0.045863822,-0.050717678,-0.11156349,-0.056650434,-0.067663915,-0.060157333,0.11683166,-0.029762695,0.07409724,0.018231597,0.051042303,-0.08300946,0.091424204,-0.026825394,-0.018595599,-0.046281908,-0.03323076,-0.012023064,-0.0474008,0.037779152,0.0023823895,-0.04786777,0.00499651,-0.07746653,0.06857957,-0.06130821,0.008183753,0.02038605,0.004216942,-0.06427009,-0.01792159,-0.02035556,-0.008570139,-0.027297957,-0.06270715,-0.016535379,0.010565912,-0.044840436,-0.109481916,-0.053427044,-0.012940811,-0.11465194,-0.01599325,-0.021508032,-0.010301001,-0.015176203,-0.104128845,-0.068953775,0.05430943,0.053679366,-0.14057755,0.06699304,0.040658776,0.011661721,0.062357064,-0.022167256,-0.021501392,-0.006719334,-0.03182658,0.06431468,-0.01370322,0.051711936,-0.06319607,0.0064452263,-0.05313443,0.0069214953,-0.046079747,-0.0062980857,-0.0891832,0.06139599,0.054542653,-0.016698973,-0.022336088,-0.04634275,-0.06478163,0.045902472,0.03887118,-0.06928163,-0.17967425,0.030538922,0.03470098,-0.16406585,-0.016005756,0.040004227,0.08664688,-0.039605964,-2.8887883E-4,-0.06503324,-0.061956413,-0.053790104,0.007702893,-0.009703759,-0.017871564,0.060497478,0.019657545,0.04477371,0.07837862,0.0625519,0.12704346,0.09905689,-0.0058663674,-0.010708624,-0.0076182066,-0.045610644,-0.007511012,0.011339613,-0.04893012,-0.014463726,0.024113193,-0.047581337,-0.0017230627,0.12538436,-0.023216931,-0.05422854,-0.15641007,-0.033560306,0.082500435,0.07617296,0.07917993,0.084369995,-0.0709619,0.02215139,0.07704297,-0.03389778,-0.067873985,-0.033117417,-0.052704033,-0.04281825,-0.044910308,-0.04025583,0.034112755,0.016426757,-0.116200335,0.032202687,-0.11581255,0.011709831,-0.06909721,0.06633018,-0.036707137,0.075211324,-0.10927379,0.010925953,0.042773176,0.05551551,-0.08635264,0.09304286,0.032121796,-0.052169077,0.006782922,-0.12864241,0.029389508,-0.063008584,0.018207422,-0.038992837,-0.04877066,0.0542073,0.022436926,0.1214783,-0.04022994,-0.035687022,-0.028608387,-0.13239093,0.08300525,-0.06732463,-0.06827726,-0.10971877,0.081279,-0.051507983,-0.058968548,-0.053574283,0.047126908,-0.044627734,-0.08912669,0.040116508,0.05489683,0.039746612,-0.066993415,-0.13045903,-0.0463909,-0.08119725,-0.018856741,-0.04196256,0.029441224,0.023674812,0.036803074,0.07235243,0.0012133277,0.011219269,-0.010513772,0.029546505,0.104627974,-0.05243879,-0.067447625,-0.100574106,0.07613824,0.14102587,0.02707524,-0.10300137,0.008387554,0.0671437,0.05726223,0.106904626,0.0040697795,-0.037664358,-0.043818057,-0.096002124,0.016093053,0.02340866,0.013917136,-0.17849655,0.0042406665,0.062017474,-0.16116375,0.037521638,0.045183334,-0.008269811,-0.13010998,-0.020521287,0.09354941,0.024443896,-0.039533503,-0.060737737,0.026779806,-0.097642355,-0.0844965,-0.028218213,-0.0010234399,-0.043201923,-0.0016370846,-0.113565795,-0.12199352,-0.006132453,0.06985549,-0.029240562,-0.11102882,0.07860187,-0.096083015,-0.07419845,-0.03932046,0.05700844,-0.07423591,-0.0364774,0.002380007,0.032312013,-0.107461296,-0.07484859,0.004424486,-0.12069747,-0.06377856,0.09438728,-0.036014337,-9.875061E-4,-0.034968466,0.007973256,-0.0073707663,0.019832265,-0.031600527,0.031660404,0.15387593,-0.18071994,-0.068358794,0.020570267,0.065281175,0.009828226,0.027342748,0.035457924,-0.056976568,0.096799195,0.085220546,0.070549026,-0.041295134,-0.03351527,-0.07039195,-0.057736147,0.05515819,-0.027403004,0.028459301,-0.052839108,-0.059255663,-0.06946207,0.052103303,0.019863896,0.044604007,-0.11708188,0.03529018,0.07177183,0.0021862125,0.03306766,-0.05795679,0.032822408,-0.05515323,-0.08198139,-0.0625135,0.11644726,-0.15519236,-0.015731156,-0.015413452,0.044848993,0.07021191,-0.049825188,0.001458517,0.09350362,0.023149073,0.052989267,-0.059497878,0.041796163,0.07459804,-0.013031917,-0.0477703,-0.1253769,-0.092637874,0.031814486,-0.053474072,0.08436655,0.008429549,-0.03117864,0.04928187,0.030774964,0.016366066,-0.039665863,0.078180596,-0.028063115,0.096063875,0.06676789,-0.032377645,-0.09410497,0.076872915,0.049607918,-0.043728307,0.09563029,0.026080316,-0.2438322,0.0332807,0.02774461,-0.010361845,0.096909024,-0.15024975,-0.027600436,-0.0465835,0.025231145,-0.20307413,-0.07702268,-0.08782397,0.0041591087,-0.09007522,-0.10222416,-0.024459386,-0.035279803,-0.14289653,-0.08297687,-0.060616974,-0.03841531,0.0018847155,0.0994983,0.013967853,0.0110042775,0.03698721,0.09734181,-0.07506035,-0.06639075,-0.0014121956,-0.07058516,0.015981281,-0.12556355,4.681074E-4,0.020334985,-0.11147941,-0.011367407,-0.124768995,-0.03233754,0.070261985,0.07046021,0.04730557,-0.09793716,-0.11464164,0.006781507,0.09896317,-0.1136995,-0.06411825,-0.11929833,-0.036935374,0.11479555,-0.05600642,0.11914099,-7.929689E-4,-0.17356059,-0.080065615,0.008777706,0.056201354,0.060396615,0.09268435,-0.09856239,-0.01762967,-0.016424775,-0.034179136,0.11380327,-0.14205675,-0.054279603,0.060781784,-0.034084886,-0.17888573,-0.06668775,-0.061221913,-0.11208881,-0.10343367,-0.086071245,0.036043845,0.08687461,-0.023930626,-0.037682742,-0.040890235,-0.039089512,-0.05150773,0.11924702,-0.063294664,-0.03166328,0.06720102,-0.060738068,-0.12987442,0.04846492,-0.021410683,0.043650325,-0.09921464,-0.009707557,0.035318915,-0.055167448,-0.035360277,0.037037153,0.017684361,0.025105461,0.0016199321,0.07638609,-0.03059417,-0.016521987,-0.08849446,-0.11725958,-0.030479847,-0.09722415,0.03493769,-0.109067306,-0.07379133,-0.022675628,0.028530538,0.0699699,0.017961033,0.045787062,-0.04091542,-0.020169223,-0.048581827,0.058398467,0.041115947,-0.15291083,-0.1105288,0.08230177,-0.0714647,-0.082249284,-0.05758654,-0.17422694,-0.01914826,0.13263644,-0.07858641,0.046656247,-0.0945208,-0.058549974,0.14846687,0.0878492,-0.006814168,-0.09685253,-0.036363505,0.06131225,0.03401359,0.009570156,-0.0021078624,-0.064437754,-0.08861699,0.032621685,-0.07086741,0.036715757,0.1043247,0.0077972356,-0.02917287,0.08570891,0.104264945,0.026216805,0.067169994,-0.016801095,-0.053677335,-0.010207002,0.08454471,-0.0504844,0.016707884,-0.008757773,-0.03377767,-0.022696394,-0.14316681,0.048034385,-0.077751696,-0.009072145,-0.02156124,-0.008250758,0.039293237,0.09199306,-0.0103117,-0.05699908,0.06577831,-0.006050936,-0.013215967,-0.08070237,0.028104141,-0.09662837,-0.0024704684,0.08950304,0.10356659,-0.1604077,0.095259555,-0.049412735,0.07371665,0.052363023,-0.06636426,0.009673123,-0.032165013,-0.09574304,-0.063720606,-0.080909096,0.009941682,-0.07791724,0.056162745,-0.055415776,-0.012485649,-0.08850475,0.15638942,0.08506586,-0.06761341,0.0070017665,0.034800664,0.026523532,0.07648793,-0.060602598,-0.033949614,-0.04028473,-0.15943958,0.0742107,-0.08731646,0.032570153,0.09368239,0.035835728,-0.02772069,-0.035965234,-0.11494019,-0.014107271,-0.05037663,0.032406572,0.13948284,-0.021091193,-0.044040464,-0.08087211,-0.06918117,-0.0473471,0.08016896,0.05901937,-0.046111785,0.06583633,-0.081365734,-0.12568808,-0.06531487,0.03319904,-0.027373692,0.055062555,-0.0019004134,-0.025288004,-0.060560044,0.043582335,0.061115332,-0.15882051,0.05501809,0.0045451964,0.114675865,-0.021558687,-0.08803403,0.038434934,-0.080376245,0.0068663135,-0.0127980495,0.0609519,-0.0077866227,-0.0602138,-0.07172071,-0.06540795,0.051779777,-0.016898263,-0.01795924,0.034674093,0.020466195,-0.010669763,-0.07638613,-0.030315284,-0.060148135,-0.024159368,-0.0614385,-0.081281625,-0.05028593,-0.09910651,0.06018533,-0.05264962,-0.005201822,-0.056085333,0.10461311,-0.03224942,-0.023989467,-0.04904289,0.09696181,0.11474488,-0.0015092151,-0.08843971,-0.021196652,-0.054310232,0.023421802,0.061089072,0.059544664,0.03862567,0.0071340417,0.057311825,0.060871933,0.024306044,-0.13168935,0.07994683,0.09435018,-0.02099088,-0.12880616,-0.017002584,-0.048818007,-0.070262566,0.024451783,-0.15695053,-0.01867649,-0.015804673,-0.046170466,-0.02791076,0.085871235,0.010106283,-0.06805425,0.036525317,0.33416227,0.08939605,0.12411132,0.052613392,0.115409374,-0.14363806,-0.009359926,-0.083766714,-0.004020668,-0.07107369,0.012365106,-0.06690682,0.0061767697,-0.046828784,-0.0058764713,-0.06961449,0.077597804,0.14483108,0.059497807,-0.014441343,0.06236239,-0.011258557,0.038834974,-0.035822824,-0.022562532,-0.04825246,0.054920953,0.15075773,0.06549407,0.014650245,-0.06285432,-0.03155671,-0.036491204,0.06695172,-0.07837987,-0.11697589,0.04076083,0.051230334,-0.02467222,-0.06106577,-0.11901776,-0.03954053,-0.023827046,0.012250911,-0.05853298,-0.11458119,-0.03710504,0.1471152,0.03758542,-0.04860749,-0.034602646,0.06700094,-0.040999457,-0.0018355742,-0.029957976,-0.0067997477,-0.064800605,-0.11810176,-0.0018002229,-0.11306498,-0.015134991,0.041345168,-0.049028773,0.08228471,0.011871409,-0.11995771,-0.10757995,0.04754094,0.026427926,-0.1241731,0.18338571,-0.10364443,-0.06391498,-0.0688264,0.022880428,0.029792981,0.098316595,0.1360253,0.08740344,-0.09452875,-0.008150283,-0.23038638,0.01974831,0.018908758,0.091963954,0.0882747,-0.05535808,-0.14702475,-0.023432456,0.08038119,0.0642838,-0.15620814,-0.0033505685,-0.0523413,-0.08503265,0.092926316,-0.03354933,-0.106034085,-0.0033971013,-0.011209453,-0.1275644,-0.05278407,-0.104568884,0.0018182861,-0.0071740486,0.07764493,0.044729352,-0.03439379,0.036770094,-0.015889369,0.06697651,-0.009848762,-0.0724997,-0.057302706,0.09380118,-0.15548192,0.08505451,-0.14741486,-0.051407162,-0.16338418,0.044763338,-0.117801145,-0.03690491,0.033005398,-0.12513506,0.12538159,0.093222804,-0.11318556,0.08123373,-0.073575184,-0.099988215,0.0045102206,-0.14645457,-0.0825942,-0.015403564,-0.0010686636,-0.1253955,-0.14021766,0.09691686,0.09531832,0.14106113,-0.07336965,0.1615167,0.011333203,0.10136985,-0.12136458,0.001761365,0.104342096,-0.10215433,-0.086924054,0.07063669,-0.120623305,0.059289847,0.11152769,-0.18731965,-0.08852091,-0.15698846,-0.04649053,0.018972427,0.14192905,-0.13797249,-0.0751357,-0.017484104,-0.10346637,0.07882271,-0.07045927,0.098645344,0.031053439,-0.041232735,-0.10323822,0.04598932,-0.025022551,-0.035812147,0.07477984,0.09724627,0.07979693,0.10471677,-0.011413093,0.04930437,0.1051758,-0.09162578,-0.09102329,0.04718612,-0.04707424,-0.078767926,-0.15562554,0.09536426,-0.121709235,0.021796944,-0.013638394,-0.061462596,-0.099527605,0.09291686,-0.029342085,0.0948645,0.1379475,0.061455857,0.031477146,0.024153376,-0.110068835,-0.030746719,0.044473793,0.06800037,-7.609394E-4,-0.06727745,-0.10069705,-0.124385536,-0.12214433,0.10820495,-0.039290648,-0.18568832,0.03629589,-0.14553016,0.06578464,-0.07122858,-0.12575422,0.07233952,0.04154179,7.538488E-4,0.017787816,0.0012821199,-0.04372204,0.11354783,-0.1758025,0.025857752,-0.042250346,-0.08995569,-0.050967976,-0.06619018,-0.07157344,0.06682495,0.008165604,-0.1060628,-0.11406263,-0.0131289605,0.10998589,0.060714126,-0.05862593,-0.02251937,0.12647316,0.01444835,0.057492703,-0.1693728,0.020817362,-0.009838175,-0.06884242,-0.16777542,-0.08316778,0.08625295,-0.039878987,-0.023784831,-0.11405996,-0.06163958,0.08933225,-0.028761512,0.11585629,-0.16967867,-0.08336522,0.03332975,-0.087707356,-0.042400986,-0.10133127,-0.07901864,0.01810229,0.061568893,0.090500265,0.113127984,0.010201144,-0.16908915,-0.11823184,0.062728874,0.10776165,0.035269465,-0.040633745,-0.06330346,-0.116377816,-0.045703836,-0.12729482,-0.087921776,0.039282996,0.10113128,0.025335232,0.036133382,0.07168333,-0.12083727,0.14211711,-0.048847694,0.0067176553,-0.16354758,-0.115104,0.023693386,-0.051385496,0.0945666,0.03485843,0.010271072,0.06656402,0.13801166,0.08145,0.0013843387,0.085911594,-0.018823829,-0.09866404,0.02918124,-0.050739706,0.05039141,0.06191864,0.10680085,-0.07614472,-0.09492678,-0.10089796,-0.025066314,0.02789594,0.06866905,-0.28058293,-0.066857114,-0.026635922,-0.0617149,-0.109520204,-0.008823913,-0.067246124,0.18748127,0.011278353,0.025797287,-0.11152845,-0.0829767,-0.05722441,0.14414251,-0.08666903,0.193023,0.0015365428,-0.02997274,0.13861929,0.12513556,-0.19166733,-0.052217696,0.10274893,-0.0039875475,0.17446408,0.067826554,-0.009744389,-0.07906544,-0.031871278,-0.08031665,0.035671324,-0.049347945,0.05000267,-0.081424534,-0.015573434,0.06896222,-0.07827002,-0.010705004,0.0037345763,-0.0065194434,-0.081934,0.04924911,-0.21583119,-0.11255045,0.040144492,-0.11949549,-0.011733337,-0.045352228,0.13313743,-0.13747324,0.14870732,8.448425E-4,-0.03405699,0.082507245,0.06994837,-0.025366072,-0.088091806,0.07188135,-0.042019263,0.10872996,-0.07337986,-0.12566918,0.040722,-0.08393484,0.0028940067,-0.15625773,0.06206947,0.016542135,0.14716272,-0.20885336,0.114482455,-0.1724425,0.056226373,-0.053799976,-0.018334797,0.05576424,-0.13661414,-0.064031884,-0.052174546,0.1116825,0.0056708013,0.03727835,0.14152828,-0.120565675,-0.057892777,0.030787304,0.061879277,-0.07239288,-0.12597746,0.065439284,0.0033192076,0.082648575,0.078835316,-0.13449168,0.11465694,-0.14182326,0.07047496,-0.07959815,-0.04273884,-0.06783934,-0.050193936,0.013068597,0.12617518,-0.17770223,0.02496521,-0.06070458,-0.047161974,0.052630514,0.0066256654,0.026084691,-0.103032894,-0.029157693,-0.071238235,-0.14831826,-0.00755609,-0.045273084,0.06071183,-0.1226853,-0.08346529,0.080937415,-0.032257255,-0.027359342,0.04646289,-0.061808318,-0.017959664,0.048741188,-0.044197977,-0.1036381,-0.021116676,-0.02034562,-0.057770003,-0.0651886,-0.015734581,-0.031089136,-0.13708863,0.01087559,0.0124894325,-0.1615856,0.032768663,-0.037988883,-0.17747617,-0.15055703,0.10098705,0.016582357,0.113703445,-0.1375157,-0.041250348,0.106518686,-0.12349891,-0.051685214,0.10982433,-0.078243144,-0.033741105,-0.011379059,0.05609914,-0.080189034,0.079707384,-0.006964513,-0.017315794,-0.07873737,-0.046823535,-0.065176144,0.0036849398,0.065405175,0.0103455,-0.11371076,0.04259568,-0.08678422,0.1592528,0.014677942,-0.11117764,0.0789986,-0.003709255,-0.016718023,-0.0025805682,-0.033439856,-0.12875451,0.084728934,0.096758,-0.13063204,0.009376486,-0.051340714,0.08463226,-0.06722763,-0.088171445,-0.0072211255,0.1526434,0.039094027,-0.09777894,-0.005497284,0.07320861,-0.019386735,0.015482533,0.02110871,0.034893207,-0.13148397,-0.15565261,0.06828489,-0.08723568,-0.1347991,0.022179384,0.020951882,-0.12288,0.019454438,-0.11104708,-0.005504901,0.087776005,0.09062389,-0.06256137,-0.06660299,0.04423651,-0.051931735,-0.08256848,0.029510047,0.15789165,-0.103696495,-0.058399923,-0.12411031,-0.1858637,0.08422985,-0.025750766,-0.090274766,-0.1352078,0.05232406,0.1577983,-0.17447075,0.15341514,0.030101107,0.04080513,-0.041108612,0.074994065,0.045864902,0.09619356,0.06866592,0.019043574,-0.006393267,-0.10077701,-0.06283735,0.09257493,-0.12618332,0.038318332,-0.081487484,-0.05967241,-0.021402523,0.13769883,-0.13993709,-0.008127056,-0.039170586,0.07032441,0.093985245,0.018853959,-0.055570733,0.08314334,-0.03395777,-0.013640441,0.06108128,0.11358875,-0.1356115,-0.17624697,0.04401881,0.12720723,-0.05848912,-0.06885924,0.094860554,-0.0712798,0.047279347,-0.041698307,0.12370779,-0.053197432,-8.326256E-4,0.08415322,-0.017182464,-0.041942604,-0.07094166,-0.024567563,0.051545687,-0.10973452,0.027642956,-0.08218488,-9.2538685E-4,-0.11159596,-0.12178267,-0.06581324,0.031371452,0.101517595,0.04127718,0.07477562,-0.10704835,-0.05539787,-0.06394106,-0.022433644,-0.021878878,0.050805196,0.09001319,-0.12017583,0.075502485,0.026463281,-0.14093474,-0.091166146,0.08291476,-0.0011022361,0.045082815,-0.05141304,-0.13656466,0.052628245,-0.015277197,0.015493132,0.047687784,-0.07881007,0.046612132,0.013385293,-0.049785938,-0.007696024,-0.10878194,-0.0030769305,-0.15362796,0.060573697,0.019908944,-0.08107486,-0.08142139,-0.12032964,-0.16971317,-0.09610273,0.1207715,0.008079267,0.063205,0.04604386,-0.026566485,-0.049281433,-0.11558089,-0.119364634,-0.05359781,0.040056802,-0.116355695,0.0115479175,-0.094471216,-0.12463731,0.03764897,0.15428576,0.028017567,0.09228748,-0.047677413,0.052127462,-0.12898429,0.08636292,0.0032786594,-0.03689102,-0.14940941,-0.05633533,-0.05156223,0.092053674,0.005437423,-0.11902523,0.04306951,0.054119635,-0.07636991,-0.05986327,-0.05058326,-2.4445215E-4,-0.1225527,-0.22525726,0.070580035,0.023953155,-0.053849194,0.007364035,-0.11457257,-0.07059217,0.1479611,-0.016651746,-0.074195236,0.17494677,0.03041143,0.027096929,-0.0095591545,-0.05310122,0.09707187,0.053882252,0.107146926,-0.038533404,-0.054725356,-0.05006413,-0.07963092,0.092156455,-0.014881544,-0.1055762,-0.043798972,-0.027512297,-0.02113468,0.042314995,-0.025242744,-0.04580453,0.06546649,-0.0615142,-0.07352646,0.023474464,-0.006363521,0.09836515,0.04346118,-0.060157944,0.05699166,-0.019327758,0.03628179,0.07065524,-0.07960532,-0.041877277,0.033963192,-0.064768024,0.05097765,-0.06511597,-0.12192594,0.04504599,-0.03449279,0.05313663,-0.04919002,0.071521096,-0.008117951,-0.012341783,-0.0061281854,-0.17733859,-0.011643268,-0.008653165,-0.20403601,-0.04182808,0.030291768,0.041581642,-0.049377576,0.052615568,0.013978724,-0.051042665,0.0966456,0.065500505,-0.05215734,-0.040475495,0.038224775,0.08552281,-0.108940884,0.007185277,0.0070217443,0.012812553,-0.051280342,-0.088258184,0.041681927,0.024151217,0.036110204,0.004322154,-0.026031755,0.03888839,-0.038654324,0.0026154497,-0.032608237,-0.079107635,-0.071959555,0.053707927,0.012375534,-0.05731395,-0.05453159,-0.023252208,-0.051935107,0.06458836,0.0235214,-0.0100157,-0.008912406,-0.07013948,0.011824542,0.11129228,-0.003248388,0.0041024718,0.02013638,-0.046161316,-0.0623334,-0.049575258,0.03856574,0.048148096,-0.0347291,0.02537499,-0.07396077,0.03305878,-0.045400336,0.031825818,-0.07867573,-0.012271695,0.080788486,-0.06306405,-0.094824396,-0.012608627,0.038225427,-0.019896671,-0.027261248,0.0947373,0.05632434,-0.10158464,0.032704838,-0.03219071,-0.05078513,0.012668691,3.258014E-4,-0.016761146,0.021310627,0.0145392865,0.0013510156,-8.495592E-4,0.07310024,-0.04745339,-0.11967265,-0.086483225,0.06046827,0.0010923673,-0.053675864,0.04714836,-0.032286316,-0.039650373,-0.07130594,0.068398796,0.03461534,-0.027704364,0.043012023,-0.07195629,-0.007180391,0.10750678,-0.04263817,0.042892836,0.008835508,-0.03198892,-0.057603735,-0.034920566,0.019338833,-0.031716015,0.047533505,0.10199889,0.015759243,0.03499792,0.03126184,8.482303E-4,0.034974344,0.031327326,-0.031527374,-0.049814332,-0.022031877,-0.107512966,-0.057199243,0.091751516,-0.07019172,-0.01880179,0.002898045,0.050069336,-0.049179673,-0.061303914,-0.10234742,0.04082257,-0.08218161,-0.028024778,0.02003685,-0.03145155,-0.073713794,-0.0336488,-0.030667597,-0.02085284,0.041048888,0.059815776,0.06226727,-0.06999476,-0.065078884,-0.017725782,-0.08021412,0.14862444,-0.01498759,-0.029022112,-0.053767607,0.024084084,-0.045097217,-0.09213172,0.088665694,0.020603204,0.055999205,-0.032371644,-0.047583412,-0.06585535,-0.07776131,-0.026940716,0.031546693,0.02463996,-0.001341113,0.010353662,0.040934354,0.02477727,-0.01521694,-0.03409263,-0.008745808,0.022065628,-0.0070837266,0.056808583,-0.021977855,0.030004142,0.08285024,-0.035316717,0.0064570014,0.017744122,0.10589421,-0.047759544,0.023831617,-0.021168668,-0.09534552,-0.052507475,-0.088711105,-0.02473619,0.072932385,0.056145746,-0.11354842,-0.028760262,-0.080673955,-0.07311845,-0.057138547,0.028499674,-0.017933246,0.0030253679,-0.114041395,0.020841375,-0.008699118,0.010766668,-0.03432369,-0.0042802193,-0.011290705,-0.0033367798,0.026861228,-0.012581998,-0.009818769,0.03174394,-0.01580392,0.049648702,0.023637174,-0.014215662,-0.04370658,0.00842833,-0.010085451,0.018322805,-0.03714223,0.08436847,0.057460092,-0.03692734,-0.007688672,0.051579155,-0.040792003,-0.09255416,-0.002265142,-0.011206209,-0.09291892,0.07788737,0.0195172,-0.089019686,-0.068050124,0.010822834,-0.043290272,-0.11838996,-0.03298555,-0.034766033,0.0137545755,-0.05751614,0.08030768,-0.050578743,-0.017190762,0.0049596857,-0.1172437,-0.07588276,0.027295219,-0.05338906,-0.07615889,0.07147875,0.03945348,0.016140928,-0.08780695,0.03674811,0.03817302,0.08358332,-0.064442925,-0.003618914,0.050628815,0.036608007,0.032556668,-0.025836661,-0.04561122,-0.04697704,0.05548489,-0.007591839,0.049243923,0.055501755,0.031025395,-0.023824684,-0.057740528,-0.10940519,-0.048657015,-0.102562584,-0.07648302,0.030440219,-0.04317694,-0.016450893,0.09631361,0.006049769,0.012890553,-0.023415986,0.03761624,-0.0473897,-0.08323684,0.017718596,0.09145342,-0.080564536,0.053452924,-0.05171571,-0.019796088,-0.04305666,0.007946627,-0.06375736,0.10733245,0.006441095,-0.055018034,-0.085330136,0.037853368,-0.113471515,0.033968154,-0.009537409,0.04320463,-0.05929911,0.07971375,-0.06645223,0.045556333,-0.039553184,-0.12148749,0.04624116,0.030012066,0.02646496,-0.07308761,-0.0628692,0.07414461,0.04133815,0.039890874,-0.0680661,-0.019679263,-0.08084621,0.017173652,-0.055615038,-0.004977995,0.060185503,0.02201151,0.125272,0.03808258,-0.0367945,0.025038611,0.0019853644,-0.11425134,-0.02565505,-0.021645974,0.024291866,-0.032099757,-0.05430272,-0.025662638,-0.119198576,0.03712097,-0.068007596,0.012850684,-0.012010364,0.042589057,0.101948954,-0.04619666,-0.041642994,0.04578804,-0.022442736,-0.0782648,-0.048694033,-0.10276694,0.02425111,0.07391024,0.10778583,-0.04402242,-0.07580888,0.027405776,0.045362953,-0.28822514,-0.06989321,-0.023190634,0.0020512643,0.09245,-0.0733958,-0.010216053,0.11786313,-0.019262742,0.06354754,-0.051836222,0.0047403136,-0.030654773,-0.02039286,-0.10178234,-0.081829056,0.04118418,0.0034054057,0.022035921,-0.037877858,0.0472369,-0.10802997,-0.02015982,-0.07194764,-0.09996608,0.07886571,0.02830811,-0.033299975,-0.06675779,0.11357748,0.06286273,-0.16013026,0.12859741,0.06191896,-0.11318998,-0.08916682,-0.010496236,-0.14626548,-0.0137818735,0.03671308,0.02169445,0.050564654,-0.07925092,-0.06479008,0.02782589,-0.03016654,0.100619994,0.11380388,0.07743417,-0.026945945,0.09433549,0.06820072,-0.058997616,0.014961333,-0.07763514,-0.011884348,-0.123987205,0.08117204,-0.074222215,0.013814136,0.0810505,0.10294916,-0.08730853,0.03754778,-0.08230702,0.022092339,0.08032826,-0.17571521,0.13520426,0.07956387,-0.1469878,-0.045029067,-0.053104926,-0.022533026,0.06952308,-0.038423892,-0.123491906,-0.021243123,-0.06546134,-0.031210888,-0.04465776,-0.055152357,-0.036913734,-0.06587632,-0.018568676,0.026319265,-0.029346626,-0.06293431,0.032945022,0.051148072,-0.03726195,-0.050635647,-0.043353252,-0.088923916,0.008547834,0.13420679,7.8562717E-4,0.07296359,0.056879774,-0.11479471,0.02769337,-0.076938264,-0.114122055,0.074078515,0.08526472,-0.04988672,-0.11538798,-0.019282348,-0.19993447,0.022874383,0.018099809,-0.028441748,-0.050191022,-0.12018186,-0.03889775,0.012494975,0.06738595,-0.038253877,-0.009849439,0.047748335,0.072019614,0.1383634,-0.14476964,-0.06421422,0.12157736,0.08048383,0.07726843,0.03527038,-0.024911348,-0.09377339,0.13546517,0.0054499377,0.15132155,-0.032062717,-0.011895829,0.0691943,-0.052934956,-0.028067244,-0.18882672,0.05967448,0.0021409502,0.08768773,-0.076176755,-0.119989276,0.17961642,0.004518463,0.03883536,-0.06279408,0.104868725,0.09434081,0.045425605,0.035674736,0.06783829,-0.001884124,-0.017532172,-0.097798005,0.005920244,0.15052502,-0.039414406,0.014665837,0.028571991,-0.022986498,0.03790135,-0.03515052,-0.10533745,-0.14007202,0.049493868,0.10867721,0.053752083,-0.06595114,0.014152308,0.026968878,-0.15039612,-0.022340927,-0.039017044,-0.06440681,0.05503802,0.109063685,-0.026216118,-0.14629966,-0.01735228,0.06007537,-0.00872142,-0.057470415,-0.053257674,0.06916207,-0.123852886,0.089798816,-0.01196583,-0.012409767,-0.0697755,-0.039646193,0.055616647,-0.04313396,-0.11975178,-0.064189255,-0.06858737,-0.047772665,0.02901413,0.06196233,-0.050536856,0.058997452,0.073618114,-0.007932778,-0.021938676,-0.028990218,-0.04580025,-0.06770057,0.09183419,-0.104568414,-0.03950291,0.06343957,-0.05506895,-0.09628031,-0.12786026,-0.113762066,-0.16072026,0.029247934,-0.046410445,-0.008706598,0.119200885,0.012342788,-0.02303084,0.072716884,-0.0019012868,-0.064058736,0.046200212,-0.041799136,0.084492944,-0.09139217,0.062789574,0.048069015,-0.13280642,-0.04494532,-0.012588005,0.01785579,-0.011368052,-0.019694552,-0.041570827,-0.016065845,-0.15442306,-0.096277684,-0.15476988,0.059715535,-0.17427693,-0.0789218,-0.02724882,0.015028516,0.08329613,-0.10876448,0.057113644,-0.022584897,-0.10421429,0.09548676,-0.17040287,0.043402985,0.047144968,-0.07218908,-0.005239628,0.009224212,0.033706952,-0.04289129,-0.06766588,-0.05445126,0.066855565,-0.079223014,-0.06713393,0.10651436,-0.042563893,0.047549676,0.06316671,-0.06629456,0.052641332,0.058750622,0.10039019,-0.10335724,0.036362488,-0.09360532,-0.18871114,0.08292615,0.031234661,-0.110920705,-0.032943737,-0.041302487,1.1947159E-4,-0.087096274,-0.10628831,-0.0675347,0.09699652,0.059878364,-0.103581846,-0.062824786,0.078575805,0.04452096,0.006418853,-0.06871266,0.026632074,-0.0418577,-0.0056104497,0.02300925,0.06786171,-0.012207352,0.024126828,0.004857741,0.118070975,0.016533738,-0.026352879,0.1677574,-0.1240465,-0.028172433,0.020505842,0.220589,-0.112402394,-0.002003948,-0.05131266,-0.09968012,-0.06776423,0.10188947,-0.14515312,0.063365914,-0.0389672,0.032175824,6.556034E-4,-0.074791916,