0.06946734,-0.11846935,0.17239895,-0.23407629,0.30857036,0.3346772,0.1025435,-0.17851824,0.3209062,-0.23840463,0.1514723,0.11745566,-0.0017664061,0.07974904,-0.10108327,-0.31160247,0.013148304,-0.21896392,-0.37872577,0.062767476,0.13084415,-0.12376224,-0.15775643,0.04882943,0.03770729,-0.24011953,0.031698275,0.21266161,-0.13896741,-0.2142379,0.12795362,0.22807671,0.23551372,-0.31547472,-0.114676006,0.110680394,-0.07051772,0.040370684,-0.024219152,-0.06683482,0.12890057,0.1532868,-0.17736456,0.16681911,-0.11728468,0.026129715,0.08635379,-0.15438324,-0.025388232,0.06910023,0.10887346,-0.04744127,-0.2151164,-0.0748807,-0.14062308,0.33521035,-0.13647464,0.078920774,0.30025527,-0.095193736,-0.18644726,0.04921562,-0.14261115,-0.00874116,-0.088843025,0.19096851,-0.15143278,0.14834473,-0.21357577,0.17013316,-0.0065635694,0.17958936,-0.25093132,0.09202048,0.011840585,0.21102503,-0.2785861,-0.17029922,-0.10876867,-0.024054993,0.26403132,-0.0605828,0.071347274,0.039015774,0.113929704,-0.2192385,0.1405208,-0.20344904,0.13588275,0.004726095,0.24767877,-0.24519834,0.24190308,-0.16019656,0.30688635,-0.097334854,-0.2438466,0.046291236,0.15657003,-0.14681411,0.17633614,-0.08852312,0.28816125,-0.29063633,-0.030219257,-0.076441936,-0.17050192,0.2106119,-0.096105866,-0.0020548191,-0.059883285,-0.058041222,0.024215514,0.1438381,-0.08480139,-0.052350327,0.053775657,-0.101920314,0.43896556,-0.06986558,-0.13400123,0.15938678,-0.04507885,-0.23877025,0.2363274,0.3238777,0.33464062,-0.3754552,-0.14954208,0.15174916,-0.29699188,0.1530569,-0.26701075,-0.035034712,0.058211878,0.09816604,-0.22665946,0.17749944,-0.24378762,-0.04351287,-0.02392663,0.026976261,0.06364311,0.10473661,-0.24304041,-0.08702355,-0.0048759268,0.28482547,-0.04037464,0.21157147,-0.10324577,0.2246342,-0.42128193,0.346537,-0.29276666,0.08506552,-0.061512366,0.30428517,-0.27361932,0.18138486,-0.17231852,0.41830465,0.024945503,-0.16188462,-0.07865872,-0.051292364,0.24960949,0.026501073,0.16183412,-0.14163749,0.014199318,0.04096289,-0.21744892,-0.09084516,0.05658231,0.059868827,0.099578224,-1.3866674E-4,-0.2776742,0.24040696,0.038125347,-0.13702998,-0.14446846,-0.017147442,-0.08360468,0.052652534,0.120688215,0.09385091,0.10530777,0.10143164,-0.10317568,-0.15711272,-0.2665374,0.07536575,0.051252753,-0.24503295,0.15679176,0.0046004094,0.064797334,0.16391702,0.269847,0.17608672,-0.35377392,0.2048074,-0.014598953,-0.23946668,-0.16845158,0.17905517,-0.21970797,0.26936138,0.13173681,0.19244805,-0.26506332,-0.1846639,-0.0843268,-0.19808935,0.15056908,-0.20681122,0.19284499,0.06424707,0.12051062,-0.34074438,0.3528506,-0.14712742,0.11271,-0.06917411,-0.1144124,0.16071992,0.19186072,-0.2851098,0.11484019,0.14314449,-0.22064272,0.16080485,-0.10463918,-0.1865159,0.08614687,0.07964545,-0.16427408,-0.071157075,0.122583374,-0.33712402,-0.08252331,-0.03346417,0.18182407,0.21196045,0.16891447,0.03750533,-0.18386292,0.1659214,-0.27299398,-0.14470406,-0.08289334,0.19035842,-0.12585019,0.26538566,-0.1520615,0.30824623,-0.1866469,-0.20936346,0.029901,0.05795506,0.14524649,0.07764419,-0.08713303,-0.051826853,-0.14315145,0.17717439,0.048230726,0.14199843,-0.087025575,0.13914979,-0.1743367,0.23488146,-0.07143357,0.033124596,-0.103301,0.14262615,0.011601911,0.12841894,0.2082202,-0.11798358,-0.14500917,0.059806257,-0.04289803,-0.041752655,0.18364786,-0.15002413,0.16320659,-0.10774497,0.2538026,0.13463043,-0.037508845,-0.24728107,0.18798207,0.08853088,-0.15636547,-0.009743819,-0.16263366,-0.16247442,-0.10939368,0.08284913,-0.020358482,0.32754877,-0.14006664,0.1642269,0.12575187,0.059767433,-0.23867172,-0.21502303,-0.15746218,-0.18480442,0.15990242,-0.20239265,0.11622768,-0.24552839,0.09956502,0.03623737,-0.024033846,0.011482574,-0.12778741,0.10494764,0.12764478,-0.07696476,0.19456236,0.030370744,0.17143534,0.2773048,-0.3899583,0.010988238,0.34010687,0.08140075,-0.15521744,-0.12347172,0.12724774,-0.11424357,-0.13363841,0.13177568,-0.097755305,-0.14246,0.2305114,0.042439777,0.14192274,-0.26087496,-0.06883639,-0.2249679,0.21403332,-0.03786519,-0.23775229,0.1871139,-0.15820968,0.13158281,-0.023222351,-0.110325515,-4.6789728E-4,0.13433413,0.23846716,-0.16192879,0.13041666,0.08523315,-0.054142147,0.14102875,-0.32617527,0.062119022,0.17762093,-0.21769479,0.107314005,0.10849536,-0.24910554,-0.20780092,0.25750297,-0.04710847,-0.2295834,0.20231527,0.026347762,0.07583244,0.17386284,-0.11369699,0.014032389,-0.034212507,-0.14918528,-0.21274413,0.2210795,-0.13018708,0.18959564,0.109086424,0.21174882,-0.08894967,-0.18272798,0.25150037,-0.21875131,0.16499431,-0.17933296,0.14192665,-0.12466375,-0.14826597,0.33710265,-0.034445565,-0.22275485,-0.0020355831,-0.19811743,-0.1450248,0.27239192,0.101728,0.06104939,0.04552591,-0.124563724,0.0078124087,0.0023418632,-0.14290309,0.26515767,-0.28806677,-0.0034228272,0.2598355,-0.15911095,0.019722397,-0.24694057,-0.17421688,0.18488939,0.21664152,0.1383183,0.046417076,-0.022216938,0.01292776,-0.16983421,-0.058213748,0.25507694,-0.10694041,0.20243089,-0.2468587,0.034069356,-0.1456153,-0.052942537,0.26769206,0.12614352,0.055090647,0.061550237,-0.34396607,-0.19804879,-0.21051183,-8.515613E-4,0.019031532,0.109584734,-0.1234179,0.06767886,0.0923663,-0.28539008,0.07665689,0.084305614,0.16485451,-0.33830777,0.20861483,-0.14589924,-0.09895513,0.32729775,0.22150129,-0.24843544,0.33338863,-0.124364845,-0.071888156,-0.1512302,0.006497755,0.20020784,0.0684762,0.043545067,0.016564773,-0.09177966,0.12409788,0.15447567,-0.31976098,0.01845726,0.0011956381,-0.046728358,-0.053169813,-0.03303421,-0.25026068,-0.23934399,0.22271024,-0.35474005,0.25629076,-0.101378396,-0.061517026,-0.13779202,0.12765892,0.012563426,-0.24329704,0.037229825,0.2172547,0.031068983,0.11947009,-0.024862986,0.37402534,0.14375517,-0.13381879,-0.17260568,-0.038346905,0.13061872,0.08576536,-0.16738264,0.18781756,0.269104,-0.12347143,0.21082845,-0.13160047,0.15917286,-0.05798043,0.09045699,-0.29343763,0.25637758,-0.07425202,0.2314703,-0.18133344,-0.09157023,0.35110262,-0.2258823,-0.19883211,0.1223575,0.021921614,-0.17175724,-0.11487568,0.13435552,-0.19443345,0.13458604,-0.11296509,0.025582928,0.07631169,-0.03735916,-0.0037202518,-0.008168686,0.1154839,-0.03969602,0.12284417,-0.059561048,0.13810788,0.05079019,0.1562221,-0.41920912,0.093537346,-0.03122763,-0.020140175,0.10212351,-0.2544385,0.14191715,-0.043085154,-7.8732206E-4,-0.011627572,0.03957713,0.21179433,-0.110926874,-0.26188037,0.27060032,0.24046637,0.20031916,-0.095012926,-0.062026102,-0.08723225,-0.21772775,0.15056978,-0.09010063,0.12591544,-0.12111515,0.1622321,-0.36798534,-0.023960926,1.14146795E-4,0.18891889,-0.015189731,-0.20291114,0.048875764,0.0035868746,-0.14111803,0.029976342,-0.29492834,0.21669766,0.13105324,-0.12310276,0.08447056,0.23032475,-0.1162435,-0.012245881,-0.016589345,0.018406542,-0.03754931,-0.1844221,0.18468808,0.058001377,0.15710284,0.019658271,0.048163522,-0.2161461,-0.17011122,-0.028256029,-0.2314588,-0.10846153,0.0017883773,-0.08108875,0.27330056,0.0732385,-0.0577816,0.16061613,-0.3029976,-0.08706763,0.06284511,0.045566246,0.09965215,-0.29206237,0.23228131,-0.2158672,0.10722527,-9.288052E-4,-0.12792464,0.36267105,-0.12460602,0.19009028,0.01309832,0.1496387,-0.080226265,0.22619648,-0.015648061,-0.13245527,0.19942251,-0.06778793,0.18687166,-0.06059428,-0.23694828,-0.06439858,-0.16651566,0.09656459,0.24720976,-0.2877222,-0.051912583,-0.065351516,-0.12234005,-0.112567015,-0.055482466,0.0873822,0.03313186,-0.20151569,0.22864377,-0.0018201924,0.1455062,-0.1397716,0.1908036,-0.14090392,0.025667025,-0.104392506,0.20640562,0.051912982,0.2329379,-0.07242602,0.29603544,0.059550423,0.0500799,-0.0027355494,0.18204947,-0.07493558,-0.18805887,0.1291696,-0.2275936,0.3527466,0.27995527,-0.2161045,0.23781793,-0.19824098,-0.2618908,-0.094251804,-0.024406275,0.057196278,-0.025308639,-0.0048746765,0.21254148,-0.21344328,0.29486784,-0.19167809,-0.36517814,0.15481098,-0.33142617,-0.06303848,0.2256219,0.17641337,0.056362104,0.20886356,-0.13663436,5.3845368E-5,0.12777898,0.14660627,-0.3072828,-0.065688126,-0.07578899,-0.036334462,-0.17899182,0.11097952,0.045177132,0.022958336,0.24817885,-0.07445175,-0.34183824,0.10760646,-0.005666743,0.016752651,-0.057410043,-0.095367685,-0.031304922,-0.1425028,0.35019827,-0.08980806,0.1533576,-0.116924874,-0.23324075,0.28988364,-0.077249154,0.3246736,-0.2987118,-0.35600057,0.106689334,0.25338942,0.25438878,-0.37927768,-0.20881584,0.15173852,0.0044268826,0.30029508,-0.23929532,-0.09939092,0.23333074,0.20575134,-0.36493698,-0.054825,-0.1335726,-0.015880305,0.0070728697,0.11707,-0.18301173,0.13524485,0.12225736,-0.07305645,-0.21597616,0.29651266,-0.063733,0.24448462,0.030934056,0.2753565,0.12369881,0.056963693,-0.039442923,-0.21168394,-0.058884922,0.10142333,0.17459388,-0.2572234,0.065854646,0.01550131,0.0046814093,0.08847925,-0.1250143,-0.21071748,-0.09485404,-0.058998443,-0.16058171,0.32717386,0.046565223,-0.13378261,-0.0049737263,-0.04567504,0.39945087,-0.06518379,-0.097069725,-0.0756463,0.07665253,0.08135175,0.16056539,-0.12177665,0.13582782,0.23710574,-0.3663269,-0.20402144,0.22557648,0.04097148,-0.010460855,-0.061183657,-0.122621454,0.079640426,-0.02785924,-0.26921868,-0.19567592,0.19085313,0.27220756,-0.054988943,0.11351867,0.22092782,0.2652306,-0.13924792,0.05023855,0.03284952,0.1405372,-0.14869894,-0.0626956,-0.27410203,-0.05673571,0.26898596,0.27488294,0.074547686,0.068521164,-0.055863235,-0.27618232,-0.17319743,-0.08210825,-0.12466642,0.26889506,-0.024214938,0.100829124,-0.31764793,0.21278161,-0.26921937,0.06086754,0.035474066,-0.011207028,0.17786671,-0.13734663,0.110327534,-0.057811283,-0.24710114,0.34383988,-0.07689712,0.11981284,0.113485895,0.10403435,-0.021730458,-0.053547718,0.035965297,0.20677388,-0.060629174,0.19636244,0.04599469,-0.31184304,-0.3208204,-0.07586813,-0.009511637,0.24980848,-0.104762375,-0.13379832,0.18553162,-0.04221763,0.045542438,-0.08586752,-0.15745491,0.14514005,-0.2140483,0.20128766,-0.0155977495,0.05400453,-0.25973597,0.3145435,0.1721994,0.12108226,-0.21126492,0.21978816,-0.052920125,-0.18830551,-0.116854236,-0.056592166,0.19231358,-0.031589948,-0.001340705,-0.019298192,-0.2013268,0.25402907,-0.07845771,-0.028383946,0.095590614,-0.012031452,-0.003415958,-0.05434368,0.19242992,-0.2686846,0.13539508,-0.29208484,0.21990599,0.02496907,-0.24801618,-0.021713793,-0.22692218,0.07377857,0.07610399,-0.1904589,-0.070122264,0.04276976,0.12843114,-0.07851886,0.11132765,0.026318606,0.015934592,0.037143487,0.3057712,-0.09452343,0.19398533,-0.04468456,-0.30995414,0.073005676,0.16724668,0.05185646,-0.118109174,-0.20408064,-0.026009189,0.1365208,-0.13941887,-0.10257075,0.076559,0.07301348,-0.18082842,-0.105709575,0.17050794,0.38238522,0.06082575,-0.09895513,-0.05359733,-0.19214992,0.08544909,-0.05189982,0.0053686127,0.19070928,0.11754668,-0.0963767,0.16475143,-0.12212794,-0.11562082,0.32519346,-0.21617599,-0.10095624,0.020844806,-0.16168675,0.06940168,0.023802392,0.27641693,-0.08812619,-0.1371784,-0.17584921,0.07644552,-0.102875404,0.25831866,0.15125823,0.08878652,-0.15240835,0.29471678,-0.30203208,0.2653266,-0.15426755,0.14121653,-0.00453525,-0.20841138,-0.15111399,-0.074272126,-0.11106095,0.17711405,-0.32804197,-0.27716392,0.36828434,-0.042240035,0.17864771,0.019032521,0.26588503,-0.2813166,0.11332632,0.04118239,0.11423155,0.16849095,-0.11596678,-0.08361694,0.23271929,0.0120326895,0.029628526,-0.24554043,-0.14071144,0.21302246,-0.11015678,-0.116031386,0.09354322,-0.19316171,0.38095564,-0.13273892,0.1959962,0.20933767,-0.0783883,0.021618193,-0.2615559,-0.13851501,0.11127923,-0.032032833,0.17118473,-0.09639924,0.13883208,-0.06343031,0.16740751,-0.19443819,-0.065845884,0.24625638,-0.38288036,0.1440478,0.008666942,-0.09860073,-0.21698506,0.20108324,-0.27658162,-0.12206683,0.16433875,-0.07051188,-0.21993613,0.08930387,0.27501342,0.17537296,0.17022277,-0.24644774,-0.17492625,0.058088556,0.24079771,0.08966852,-0.2003013,0.10480031,0.1127538,0.09699925,-0.097117595,0.056316912,-0.22677448,-0.14168222,0.1856768,-0.14749506,-0.062324066,0.1897932,0.17017516,-0.019784309,-0.25098205,0.11403017,0.04024882,-0.10506033,-0.15082102,0.06320554,-0.08126696,0.22628537,0.012773602,0.10982516,-0.10605226,-0.075435795,-0.10585671,0.08113697,0.0156141445,-0.21195723,0.3671106,0.15270433,-0.09963474,-0.116660304,0.26095176,0.087293535,0.065073796,-0.24463849,-0.13324457,0.102162436,-0.19059561,0.29048613,-0.19380806,0.08590183,0.047158506,-0.25997278,0.16234295,0.098699674,0.14861481,-0.056985553,0.20149052,-0.2392771,-0.26812157,-0.18023606,-0.02475487,0.18848212,-0.12759863,0.25868034,-0.1856386,-0.27554372,0.1111368,0.035621185,0.2252992,0.057427414,-0.14359002,-0.16084844,-0.22712119,-0.052741095,0.28157446,-0.2054232,-0.11571983,0.107448205,0.1746252,0.19951615,0.11265567,-0.13395102,-0.1557866,-0.06392847,0.12207396,-0.16927671,0.055120647,-0.054305736,0.35639617,-0.108862065,0.03907761,-0.21437158,-0.071046375,0.1345815,-0.008421338,0.225972,0.2479084,-0.2301786,0.20626129,-0.014918553,-0.0027227092,0.10346122,-0.21359071,0.20495088,-0.4511534,-0.17553976,0.064695075,-0.08744698,0.0672941,0.04978366,0.025394196,0.0921505,0.110863656,-0.14377739,-0.038994998,0.22243387,-0.23369415,-0.15209326,0.073244385,0.2894318,-0.09530804,0.0063874824,-0.026426908,-0.15247095,0.19533543,0.25380585,-0.19269189,-0.15445593,-0.24374191,0.07238913,0.4298786,-0.20458692,0.18104456,-0.08932653,-0.01640629,-0.32830083,-0.048827205,0.10877029,-0.05895224,0.2072984,-0.113441065,0.042647406,-0.0756301,0.18112881,0.15659879,-0.34575722,0.18250024,-0.3008199,0.27412754,-0.061893724,-0.103880994,0.03007992,-0.058646176,0.19641592,0.2851439,0.049364083,-0.0071796402,0.13830116,-0.18748778,0.10977862,0.01986316,-0.071875215,-0.16613169,-0.13250692,0.095623136,-0.11685121,0.22309715,-0.3704527,0.22693223,-0.09161194,0.029813753,0.10817954,0.17795524,-0.37901697,0.15319926,0.14072397,0.031207895,0.19041578,-0.07286446,-0.18078575,-0.3238469,0.28910187,0.07387807,0.14812648,-0.23230375,0.19339813,0.014699682,-0.18187033,-0.1450225,0.052022826,-0.19269808,0.0100059165,-0.16766645,0.2966403,-0.03385356,-0.1999554,0.19393212,0.20441946,-0.036001835,0.10839396,-0.0878474,-0.07988083,-0.09522716,-0.08649568,0.30401695,0.1603963,3.1579306E-4,0.084086046,0.04388959,-0.2708461,0.044949636,-0.19793406,0.24019565,-0.023545962,-0.1627318,0.13227746,-0.4051254,0.20480481,0.22013144,0.017963676,-0.09710003,-0.354442,-0.06908997,-0.118452676,0.07853496,0.08744906,-0.3509608,0.07680757,0.12979957,0.17000018,-0.13261084,-0.09941869,0.22713141,0.004144073,0.06715658,0.10456938,-0.11175833,0.18734376,-0.23514302,0.23096026,0.27140415,-0.061919313,-0.22635856,0.1920941,0.03826069,0.048233602,-0.3935042,0.22142327,-0.24992277,0.16467705,-0.016940584,-0.054330178,-0.17330272,-0.20206529,0.054735266,0.036146365,0.13572986,-0.20773059,-0.01121265,-0.10722618,0.12516338,0.020690078,0.19619896,-0.08858054,0.27290875,0.21817982,-0.10427105,0.12620899,-0.12181207,0.18616834,-0.18043365,-0.108620174,-0.15740833,-0.05988523,-0.11801912,0.18908799,0.09633913,0.16298981,-0.20707919,0.18446255,0.027734714,0.01981682,-0.2905963,-0.063623935,0.1559216,0.054960914,-0.31210345,0.11892725,-0.07099163,0.24062717,-0.2741014,0.1851946,-0.036789354,0.07671136,-0.25015262,-0.24907255,0.13057251,0.14442495,0.18154478,0.28712717,0.14300117,-0.04939722,-0.18664278,0.072995804,-0.15190658,0.027566709,-0.10581637,-0.08890508,0.13439892,0.32639906,0.12782632,-0.23301503,0.17087933,-0.1260443,-0.19490229,0.07763057,0.2052911,-0.21137896,0.046090238,-0.11369903,0.09375126,0.1567318,-0.1290105,-0.20046929,0.28562012,0.087090455,0.06877205,0.13908845,0.11876175,-0.29960078,0.2044002,-0.022107104,0.2990243,-0.10061426,-0.06758424,-0.17791042,0.02219131,-0.26040557,-0.07423293,-0.04028124,0.24028368,0.117585465,-0.1628105,0.1860418,-0.21061312,0.058891177,0.30603865,-0.1219532,-0.032733038,0.22219004,-0.22448353,-0.13799925,-0.236336,-0.16566546,0.048911937,-0.037849545,-0.13366039,-0.11312693,-0.21234864,0.1150953,0.10586579,-0.27880117,0.29070216,0.025636729,0.2190709,-0.07617075,0.0700311,0.41729861,-0.21105003,-0.09388388,0.11992723,-0.06197365,-0.076404735,0.113962546,-0.120004654,-0.21336113,-0.045687515,-0.004584437,0.17057395,-0.06896977,0.11166616,0.054036662,0.15276214,-0.1274896,0.074537896,-0.20404676,-0.14595143,0.03569465,-0.01345842,0.12817702,-0.11239537,0.113327324,0.16115351,-0.08143822,-0.18924972,0.1362828,-0.00832042,-0.23449065,0.17960182,-0.055194315,0.22250508,-0.05373816,-0.058569074,0.053480886,-0.2618133,-0.2100859,0.16749844,-0.04823449,0.1826468,0.12755425,-0.09198468,0.038293853,0.042955577,0.06977255,-0.059311073,0.13585907,0.0626213,0.19016166,0.23421283,-0.24551469,-0.09569601,-0.34208143,0.3796238,0.04602915,0.15212843,-0.19042946,0.12547043,-0.19898288,-0.24200669,-0.0757005,0.08610072,-0.26073375,0.1776017,0.19871083,-0.11101516,-0.20108321,-0.1945676,0.24586196,0.041396532,0.11062032,-0.18921523,0.17605111,-0.020113017,-0.19460872,-0.20096402,-0.09395389,0.18462074,0.18175639,0.08883341,-0.1509747,0.06266902,0.014684072,0.2884503,-0.23809886,-0.12042953,-0.17558193,0.18675081,-0.0085208425,-0.10303491,0.13382928,0.12980509,0.070227765,-0.14152943,0.04101052,0.03315491,-0.19178723,-0.09241075,-0.16047496,0.24578862,0.18910402,0.16372736,0.34737822,-0.0075725806,-0.0546241,-0.24454322,-0.13342814,0.15880468,-0.1931392,0.01558069,0.088174045,-0.21533065,0.14745852,-0.21373928,-0.24299625,0.03882888,0.07707756,0.1918158,0.04166005,-0.25311184,0.15677832,0.007163995,0.114566095,-0.12921774,-0.006627531,-0.106755316,0.13992319,-0.13242978,0.19754948,-0.3440095,0.10277998,0.013409715,0.23859733,-0.1199743,0.13067505,0.26044446,0.14385948,-0.41978723,-0.09354689,0.20886877,-0.017689653,0.2247691,-0.33239344,0.15162273,-0.007667624,-0.24819687,-0.18751469,0.25783232,0.06469341,-0.26426122,-0.11524968,-0.025570722,0.13329276,-0.22456357,0.29792237,-0.14120767,0.051891763,-0.17714487,0.09494137,0.034101613,-0.017950483,0.11530422,0.052933972,0.091824725,-0.075569086,0.17526464,-0.17647076,0.11857649,0.06281883,5.051699E-4,-0.08952032,-0.1456709,-0.17004639,0.13001394,-0.09546765,0.21978186,-0.059751134,0.15599768,0.07540349,0.0060921526,0.08345719,-0.050146952,-0.03786846,0.27561563,-0.14034098,-0.11014194,-0.09293977,-0.027096018,0.24593137,0.09468273,-0.09958663,-0.121271,-0.118759215,-0.19838962,-0.016733862,0.20039581,0.267094,-0.34097436,0.018968478,-0.16915849,0.29005215,0.08332625,-0.06899783,-0.007280668,-0.0101979915,0.11248215,-0.31029505,-0.25000042,0.036831208,-0.0144479135,0.20024765,0.10261668,-0.2405199,0.1389243,0.09201165,0.03465332,0.013355508,-0.15810443,-0.2063466,0.29175216,0.010445496,-0.08993801,-0.14455707,0.35009858,-0.21238312,0.27380645,0.15567814,-0.041053332,0.18241194,-0.05826573,0.19453178,0.15653351,0.08109943,-0.40543044,0.11449658,-0.1275198,0.17848021,-0.2558289,0.19412601,-0.014087488,0.083053514,0.04065446,-0.2591281,-0.06510008,-0.2367008,-0.020172136,-0.22495489,0.32236776,-0.013709935,-0.23368332,0.25484747,-0.015619162,-0.08522837,0.066578396,-1.9770385E-5,0.07691552,-0.04054056,0.13609007,-0.1568257,0.2016891,-0.08279734,-0.25432637,-0.28140393,0.009404322,0.12630558,-0.13373618,0.11495664,0.21062133,0.16641305,-0.25271156,0.020855704,-0.023095656,-0.08945742,-2.966655E-5,-0.24196954,-0.05562576,-0.28257737,0.10780963,0.13213584,-0.16393775,0.0020610383,0.19829223,0.056548566,-0.070323765,0.25441906,2.1425821E-4,0.050524402,0.18086523,0.21165892,0.07834416,-0.14425057,0.13550992,0.012215414,-0.25229058,0.06126977,-0.04620165,-0.08542206,0.33969668,-0.1482909,0.043755613,0.2156134,0.13602565,0.09397882,-0.14354831,0.050089166,0.1627824,0.006221903,0.042274687,-0.24724317,-0.08280505,-0.22651272,0.05409902,0.17529371,-0.16231135,-0.12331243,0.082497,-0.019906532,-0.11871246,-0.07028372,0.142879,-0.09147616,7.3835545E-4,0.23049292,-0.1490072,-0.13961238,0.20734808,-0.15537746,0.036772717,0.14439188,0.022548612,-0.061529182,-0.19130771,0.0323378,0.12688613,-0.13149415,0.17244878,-0.038791414,-0.123897836,-0.1680603,0.14387831,0.06426184,-0.17212948,0.100639395,0.06313391,0.07742779,-0.06639767,0.13476478,-0.2052822,0.12637895,0.08009793,0.13083002,-0.113048784,-0.15642415,-0.1363321,-0.26302475,0.14727418,-0.012105676,0.32688877,0.06930315,-0.266503,-0.19588767,-0.16455057,0.28230587,-0.17119507,-0.060089543,0.044237126,-0.12693998,0.20317475,-0.06262814,0.12980455,0.26323298,0.13447274,-0.04850338,0.059091814,-0.096299395,0.11348688,-0.2663777,0.14956315,0.038437262,0.3044254,-0.16140887,-0.044291448,-0.23011751,-0.07048392,-0.13871664,-0.04562799,0.15264177,-0.042533558,0.28723818,-0.043216713,-0.034281597,0.005286181,0.27592957,-0.16786656,0.038703125,-0.17654341,-0.12208346,-0.104732804,-0.25096533,0.22183937,-0.11870692,0.12021436,0.0652189,0.13305423,-0.04214908,0.10976927,0.10916037,-0.016672738,-0.014020976,-0.2164967,0.30834827,-0.08698921,-0.08103082,0.29973158,0.15224318,0.16038308,-0.056472167,0.15935133,-0.08151382,-0.27909356,-0.15259044,0.29081637,-0.19028811,-0.25751352,-0.08366757,-0.027851053,-0.038779255,-0.018182814,-0.1821458,0.19162916,-0.17975953,0.042969715,-0.005689325,-0.061860178,0.120794885,0.1079582,0.0073212166,0.17757936,-0.08506398,-0.21658787,0.22010536,0.13858439,0.14080559,0.10955485,0.09215634,-0.25366232,-0.15188372,-0.081444494,0.013179395,-0.18987152,0.04929836,0.170772,0.08319343,0.03715543,0.27097186,-0.33165473,-0.02956912,0.1697039,0.2488786,-0.023917185,0.13581438,0.14515658,-0.020858463,0.07908568,-0.019117933,0.048940703,-0.08872398,-0.16568361,-0.043465976,-0.018629879,-0.019809028,-0.38145727,0.093065694,-0.20086151,0.23390178,0.18544123,-0.15215266,0.099385016,-0.07299982,0.0076241335,-0.20449497,0.06342307,0.26885885,0.128396,-0.121262155,-0.26166695,0.13169889,0.09431233,-0.00266174,0.1306343,-0.22592543,0.275367,-0.14076206,0.023240384,-0.15402481,0.15124243,0.1012847,-0.04408306,-0.09190759,-0.16876754,0.033099234,0.2938483,-0.12416319,-0.06224113,0.16177693,-0.3037444,-0.060448024,0.07949404,0.010209726,0.06689943,-0.1927294,0.04314793,0.02285279,-0.20553549,0.099909015,-0.0088651655,0.1895712,0.08468535,-0.2725477,0.035161138,0.21092471,0.3951207,-0.14555487,0.16892393,0.045530822,-0.07628155,-0.11604976,-0.2854964,-0.23113222,0.2632435,-0.20476417,-0.093437046,-4.940841E-4,0.21620387,0.023882346,0.087080345,0.06274314,-0.16983326,-0.1737655,0.02886102,0.17141224,-0.14018363,-0.021572718,-0.047893193,0.3701403,-0.11272003,-0.25368214,0.07168362,0.39606673,0.12628673,-0.26994115,-0.1542492,-0.08766783,0.16371426,-0.3109184,0.118537985,-0.19782843,0.13037756,-0.21277463,0.24723327,-0.10439195,0.12420364,0.14960308,-0.047533486,0.11713652,-0.11509991,-0.059265584,0.19694968,0.22274926,-0.20019957,0.015075235,-0.03414356,-0.13051477,0.2121245,-0.16232952,-0.332012,0.45543063,0.096684135,0.15398952,-0.037774384,-0.26108536,-0.12472865,0.01774995,0.20744586,-0.024419228,0.26353508,0.047517024,0.23066208,0.10637616,-0.2772155,-0.10749016,0.15753253,-0.12241222,0.08475322,-0.2136223,-0.15178357,-0.050924897,0.2916969,-0.16711679,-0.16929138,-0.27716812,-0.041106407,-0.27722293,-0.11419701,0.41142642,-0.25583825,-0.09346388,-0.025242586,0.11072316,0.07445028,0.19188112,0.23908615,-0.14758068,-0.19957857,0.21479964,0.08390685,0.06924755,-0.17942911,0.07403904,0.32432523,-0.07489364,-0.02428861,-0.250606,0.12365673,0.1438756,-0.062146842,0.058398884,0.05774032,-0.0520993,-0.21732004,0.086068735,0.07276446,0.04101566,0.33383185,-0.18975648,-0.09734546,-0.21861158,0.1269312,0.015025737,0.025740588,0.00829868,0.012798139,0.18091796,-0.094298944,-0.09001831,0.017975017,-0.0076502548,-0.021018723,0.08889881,0.1729105,0.028690727,-0.15477768,-0.16707382,-0.10965325,0.071012415,-0.0073040915,0.19951805,0.11989885,-0.28228122,-0.277817,0.1598762,0.041851852,0.05059777,0.10220354,-0.24390976,-0.0337542,0.051584706,0.17037418,-0.022621548,0.05355461,0.02961845,0.14821157,0.12539265,-0.05460808,-0.28005448,0.1320121,0.18358928,0.10476068,-0.22773513,0.01966346,-0.18168026,0.05882296,-0.1959892,0.3577731,0.21315153,0.07043047,-0.20359726,0.09488743,-0.15009151,-0.019556673,-0.2257074,0.028651059,0.23297262,-0.27076527,0.35349888,-0.27199477,0.123145826,0.0703954,0.17290641,-0.149994,0.068471976,0.050551556,-0.06390983,0.07346717,-0.1348582,-0.04654629,0.3461383,-0.2254709,-0.018263103,0.38765264,-0.26234868,-0.32474288,-0.024455437,-0.008246258,0.1672566,-0.22920924,-0.04134115,0.34373662,-0.108493075,-0.04748416,-0.056837935,-0.09197309,0.35179275,-0.30026126,0.34084776,-0.158008,-0.012631907,-0.032391317,-0.065556936,0.17790867,-0.06903507,-0.07191228,0.16824418,-0.06768995,0.08187782,-0.13540652,-0.029204058,0.15749983,-0.30471703,0.021627495,0.08078675,0.0030577343,-0.21149088,0.11068182,-0.09116189,0.0047205756,-0.19194894,-0.11116535,0.16936871,0.10615856,0.23979734,0.11962106,-0.18264754,0.23530936,0.10837742,-0.22063698,-0.06570931,-0.31769004,0.17694974,0.25002328,-0.11344846,-0.053654633,0.16793469,0.14342761,-0.16174549,0.02161536,-0.30199745,-0.119515136,-0.028437667,0.018763527,0.105161145,0.055037387,0.0693342,-0.07976165,-0.11536688,0.11454282,0.05346154,0.3347587,-0.32625276,-0.33174843,0.26655942,0.008239527,0.023262126,0.16045263,-0.13511448,-0.01111543,0.016363157,0.119382985,-0.24081151,-0.27885962,0.31887352,0.00883192,-0.043591525,0.13484311,-0.2220169,0.02211949,-0.047664076,0.1802818,0.2670443,0.011329905,-0.054738626,0.15481788,-0.26898158,0.03786384,-0.18733455,0.24624626,0.037181795,0.12116234,-0.35616586,0.08111599,-0.022961844,-0.17703639,-0.06790308,0.20109998,0.10266812,-0.27977583,-0.2756767,0.09736708,0.053857468,0.0844291,0.11887961,-0.18473382,-0.0016939981,0.025818057,0.19262609,0.16894402,0.22357212,-0.02527381,-0.1770452,0.25413835,-0.13045199,0.09608194,-0.04013113,0.0030556368,0.0049787927,0.08477036,-0.12016202,0.073302716,0.14719813,-0.25749493,0.31179503,-0.06741168,-0.23197478,0.14813718,-0.28156662,-0.062551044,-0.22299267,-0.20976955,0.3001898,0.019478943,0.19773006,-0.24842119,0.09520648,-0.34792402,0.14207311,-0.11206562,-0.07780615,0.037995297,0.16169861,-0.23682378,-0.22587691,-0.1777297,0.27385816,0.021852564,-0.01702832,0.16062172,0.086579025,-0.062232926,0.29441902,-0.13455355,0.21015635,0.26061723,0.19295587,-0.22882488,-0.30758014,-0.19415791,-0.2049577,-0.19472013,0.1847775,0.2540584,0.11582908,-0.12102693,-0.10243895,0.08594364,-0.04791829,0.2344894,0.12422817,-0.19915421,0.39124078,0.072948076,-0.12988281,0.09973709,-0.14506933,0.0019716416,0.026059473,-0.12950425,0.18197684,-0.29377028,0.06781429,0.06470623,0.25141877,-0.27353024,0.14176226,0.094439656,-0.1747577,-0.16338144,-0.021566756,-0.03300513,-0.030043198,0.22615042,0.095155135,0.07462131,-0.22858867,0.16398588,-0.10592829,0.052715927,0.20030712,-0.1906597,0.104923755,0.08282028,-0.27174407,0.038182233,0.11726939,-0.11928288,0.02365121,-0.25611615,0.13241164,0.17357372,0.12254738,0.17670758,-0.22880411,-0.2525988,-0.22452804,-0.17361578,0.38635576,-0.13485336,-0.056694187,0.1534338,-0.29345968,0.21826555,-0.038805295,0.23763914,0.04193658,0.12636988,-0.24618311,0.06987999,0.28201964,0.07118653,-0.06244201,0.07690231,0.04653131,-0.0046545845,-0.16201982,0.19818878,-0.25620592,0.08199517,0.2799304,0.17252515,-0.2205264,-0.06898498,-0.015516699,0.013605025,-0.055405624,-0.2888869,0.116708554,-0.085510276,0.11219045,-0.23391849,-0.11154066,0.028897895,0.07650562,0.17180799,-0.056735236,0.09310315,-0.2695303,-0.13601975,0.12429667,0.005521916,-0.21967389,-0.1523543,0.3553972,0.014475129,-0.0413681,0.30244753,-0.019832285,0.09275325,0.15171736,-0.3214837,0.17655051,-0.10763995,-0.13684024,0.15909792,0.12500791,-0.22671033,0.04828715,-0.08128792,-0.072137155,-0.022147106,0.21925291,0.20336132,-0.20802884,-0.24931154,-0.18022534,0.03133699,0.14541261,0.22651634,0.30127937,-0.012104378,0.17459194,-0.20645966,-0.28960904,0.27183214,0.05192696,-0.116983786,0.19932203,-0.18089898,0.04532866,-0.083519235,0.022995153,0.035202123,-0.21026984,-0.17147845,0.19178535,0.020810569,-0.16506651,-0.24207614,0.09913142,0.2923083,0.2539409,0.16783123,-0.2666562,-0.377138,0.18832827,-0.029095296,0.045880876,-0.18490857,-0.06578627,-0.106921576,-0.08786489,-0.027688177,-0.2827057,0.19010618,0.21960601,-0.13259605,0.10249346,0.23375371,-0.056761324,-0.07785766,-0.29515308,-0.29316548,0.3512328,0.07102634,0.1534679,-0.043441363,0.0693574,-0.2579151,0.23410358,0.025707863,0.024065044,-0.08920723,-0.13457718,-0.22176035,0.2911768,0.2658737,0.013183383,-0.048078675,0.10107058,-0.020372698,0.016179686,0.07365337,-0.18375598,-0.087716684,0.19992355,-0.31738254,0.18350203,0.021440748,0.1378711,0.026871229,0.07265613,-0.32479447,0.41610387,0.07664976,-0.11239417,-0.12580653,-0.324722,0.21679442,0.15339653,-0.01823414,-0.21965553,0.01593381,0.23712987,-0.15033019,-0.066896036,-0.056873605,0.039469793,0.03396539,-0.12494085,0.027896209,0.07188998,-0.17697771,0.12545586,-0.0035135339,-0.1638681,0.059115797,-0.13630022,0.22790919,-0.20799915,0.21802162,-0.13902722,0.265315,0.06535558,-0.14120471,-0.124526754,0.006813382,0.09451299,0.18435779,-0.3179085,0.17619577,-0.038380034,0.022451945,0.009911311,-0.14654833,-0.2736521,0.2500076,-0.16314422,-0.022108212,0.221124,0.16687012,-0.050896525,-0.016246727,-0.098038256,0.26788157,0.14403838,0.041082617,-0.13044406,-0.22324435,0.10393002,0.060668144,-0.058472186,-0.02735369,0.11711348,0.2012157,-0.18001033,-0.05275207,0.005861408,-0.13314581,0.007253933,-0.24325933,0.21970382,0.04925996,-0.05330952,-0.094003595,0.13012558,0.24744992,-0.21071358,0.22697783,0.36087745,-0.11284573,-0.09348367,-0.4020247,0.21175243,-0.25285345,0.0026899476,0.07621847,-0.22499084,-0.008529726,0.08000499,0.10315353,-0.026630023,-0.06485239,-0.07039811,0.02549095,-0.1288811,0.16923262,0.17662033,-0.27743253,0.03747036,-0.19176316,0.28404412,-0.27729377,0.028645314,0.19677,-0.11491459,0.12937959,0.009230586,-0.12805212,-0.010427822,0.27026013,-0.16821948,0.012938892,0.007185677,-0.06872113,-0.005195183,0.19479257,-0.4601649,0.2579512,-0.29100892,-0.1317353,0.22325607,-0.030796276,0.10264273,0.034397263,-0.3152334,-0.06067974,-0.19621359,0.09951746,0.18387268,-0.03944181,-0.0693817,0.21957554,-0.08682263,0.0678812,0.07048304,0.2096322,-0.20918635,0.1014002,-0.044940967,0.068896845,0.073282965,0.011380696,0.030595955,0.07310058,0.35774302,0.042524643,1.0135235E-4,-0.09244889,-0.28020623,-0.09556698,-0.21336216,-0.24009457,0.27982932,0.1793193,-0.10951397,0.0021746384,-0.13870212,0.087482914,-0.022640586,-0.20572491,-0.051057708,0.029650418,0.17461525,-0.10142789,-0.37970033,0.2698136,0.20226033,0.24459015,0.14784184,-0.1720425,-0.23144345,0.15041012,0.021659154,0.35429433,-0.06685573,0.0018898576,0.017410675,0.122279465,-0.11737024,0.03660104,-9.271659E-4,-0.17583276,-0.1321957,-0.14994664,-0.12732154,-0.06477107,0.09720586,0.07982013,0.025542127,-0.034399297,-0.04857527,0.08883427,0.121451795,0.22295377,-0.025793808,0.0083084265,-0.094949715,0.17752479,-0.0026970727,0.0048497347,0.04812027,0.028800821,-0.1563711,-0.1325217,0.1864373,-0.3276814,0.32248682,-0.19347057,0.021140764,-0.033155933,-0.04595877,0.1987689,-0.06471975,0.06614334,0.024617884,-0.13350327,-0.03821759,-0.008082706,0.07024649,0.16951363,-0.17100756,0.059273705,0.06582649,-0.2736692,0.11525676,-0.056829378,0.042364158,0.16778491,-0.18741477,-0.100133345,0.10825744,0.07979043,-0.043081004,0.010003685,-0.030275721,-0.06253915,-0.039000936,-0.101546615,0.04289483,0.20252413,0.09120606,-0.23488908,0.0075936187,-0.21001592,-0.28070888,0.29020628,-0.18791911,-0.18023157,0.015482374,-0.14804053,-0.15830842,0.20187029,-0.18380934,0.20111811,0.109432116,-0.08951771,0.09423761,-0.05693762,0.24366863,0.1447197,0.0110657895,0.22686276,0.13512403,-0.3187943,0.13825595,-0.05411119,0.23889068,-0.09298715,0.06261653,0.27842405,0.032208998,-0.078602016,-0.010935866,-0.2459232,0.20815311,-0.14232312,0.2779969,-0.12721236,0.03129672,-0.12406613,-0.052022096,0.18305063,-0.062241446,0.038261462,-0.0032068905,-0.19773033,-0.18905981,0.008969372,0.3209352,-0.14941688,-0.21029039,0.24149631,-0.068580225,0.17244345,0.07100512,-0.1721309,-0.10088837,-0.017362058,0.24767123,-0.054270003,-0.22557065,0.20061536,-0.07524535,-0.15777749,0.012795116,0.17525527,0.17505744,-0.1446894,0.20669954,-0.12140276,0.17068057,-0.08175763,-0.07993606,0.15675403,0.021119328,0.12693965,-0.34427914,-0.11300253,0.07883559,-0.21135542,-0.010941051,0.20954786,-0.075291045,0.16608602,-0.07366994,0.115410134,-0.1667483,0.03556862,-0.20945236,0.02313388,0.12906224,0.006916023,0.16856799,-0.16721638,-0.117065,0.06681295,0.04804565,-0.055122297,0.04439838,0.111684516,-0.25213295,0.2824362,-0.13514662,0.0149817495,0.108338796,0.10608082,0.059632156,0.16199781,0.059962407,-0.020294014,0.29056007,0.017009906,-0.18990305,-0.18105702,0.030786162,-0.2681122,-0.16414028,0.14448872,0.145345,0.02634231,-0.07491897,0.017831536,-0.2530262,-0.039395597,0.15075861,-0.061096206,0.12883832,-0.156413,-0.16727929,0.21414492,-0.3151774,0.020738736,0.19685379,0.14860359,0.18061255,-0.049596734,-0.037809037,-0.32668072,0.15148205,0.28113133,-0.108776465,-0.15751502,0.23660266,0.013127026,0.04865743,0.096742876,0.20937535,0.060864,-0.2768316,0.10045854,-0.13225284,-0.03546602,-0.12676077,-0.16508436,0.07559925,-0.3905731,7.1076676E-4,0.1638235,0.04629184,-0.07820643,0.17852885,-0.06583186,-0.1633661,0.2135364,-0.1699198,0.1278317,0.0063431915,0.23201972,0.010700928,0.14340699,-0.2005198,0.027269147,-0.21300721,0.11801529,0.16888303,-0.18968265,0.02103644,0.16406171,-0.25340015,0.118253976,0.007042824,0.023861382,-0.17897196,0.10879557,0.00798613,0.20619996,0.3057106,-0.19571112,0.04942024,-0.10023903,0.05609559,-0.12820554,0.23065296,0.27498308,0.06834517,0.045931786,0.057381496,-0.041647803,-0.12435594,-0.25076112,-0.10021792,-0.060780726,0.12315975,0.22014576,-0.08938484,0.1755647,0.053097,0.09487023,-0.288736,0.19558427,-0.40026933,0.215705,-0.27209005,0.018248923,-0.17577213,0.18240732,-0.32062918,-0.046087623,-0.27331656,0.24353103,-0.06976577,0.0987923,-0.08612999,0.29464462,0.29192656,-0.026289457,0.305709,-0.34942287,-0.015983395,0.15306924,0.23182133,-0.13562977,-0.18208246,-0.027512481,-0.174851,0.18466218,-0.21871151,0.21268651,-0.3293847,-0.08419905,0.01759676,-0.27148002,0.11883286,0.20145306,-0.023121791,0.13365713,-0.08439298,-0.14876541,-0.09456754,0.24902965,-0.014295039,-0.04113941,0.2151653,0.3769491,0.013151956,-0.1691175,-0.090017274,0.050551582,0.15695365,-0.21881975,0.08363275,0.1911304,-0.05508875,-0.1493055,0.08409212,-0.13793886,0.16800012,-0.09511162,-0.18199375,-0.052486107,-0.15041624,0.16070603,0.10927478,-0.16711129,0.046474706,-0.048947606,0.25475636,-0.15009986,0.062125277,-0.18321678,0.050624363,-0.026783865,0.26432648,0.08715207,-0.15077181,-0.12996475,0.17667194,-0.27115938,-0.26346773,0.028441276,0.18517876,0.37465203,-0.19569272,-0.081741884,-0.048929825,0.024227584,-0.11581107,0.25005323,0.04360563,-0.31597024,0.12160717,0.065618366,0.12055665,-0.009537525,0.078897275,0.18102536,-0.28878564,0.18054126,-0.088822834,-0.03930737,-0.22839238,0.26319394,-0.32799506,-0.2880976,0.36230052,0.28009996,-0.060472548,0.06771438,-0.09824425,-0.10848707,0.054555383,0.017941063,-0.070311375,0.008495614,-0.19880986,0.0756301,0.17674479,0.06915086,-0.011351498,0.09469535,-0.15738706,0.123380646,-0.24528891,-0.23516276,0.139733,0.17302974,0.05965754,-0.043474223,0.08034599,0.025409516,0.18245299,-0.04225652,-0.081909455,0.16290131,5.8161427E-4,0.051835477,-0.11152169,-0.1213172,0.023957739,0.14493324,-0.1362868,-0.06310346,0.041710626,-0.0342516,-0.023456497,-0.14951028,0.247895,-0.2021508,-0.11640282,0.14166161,-0.27143243,0.14243668,-0.043800063,-0.024217958,0.26267722,-0.31978285,0.14352433,0.25107145,-0.34259412,0.12662742,0.0737684,0.19797744,0.024916908,-0.112798624,-0.1139833,0.15063502,-0.22370465,0.21832798,0.04799453,-0.016962416,0.0033882512,-0.15899764,0.020081634,-0.017588153,0.16228642,0.12950137,0.10219566,-0.081473395,0.026240764,-0.20035404,0.050841227,0.1789195,0.21187772,0.25465485,0.07291979,-0.23176697,-0.10680465,-0.07212668,-0.08858374,0.11964667,-0.07148162,-0.06516388,-0.23439386,-0.029162968,-0.21947417,0.16271181,-0.028238274,-0.05271473,-0.27891096,-0.13640085,0.020829398,-0.23161982,0.2851287,0.08368937,0.083284624,-0.1363807,-0.10921838,0.0845236,0.26814255,-0.32626233,0.3423509,-0.065260835,-0.020142462,0.019836023,0.025676552,0.08950961,-0.08712353,0.24052295,-0.032224767,-0.059898224,-0.2286141,0.33819166,-0.20049615,0.17106919,-0.06870086,-0.23285413,-0.24318928,0.44730917,0.0070706466,-0.3311109,0.09503217,0.00936068,0.08949702,-0.050438534,-0.088627666,0.16869377,-0.1786184,0.21657683,0.12257566,0.2740606,-0.12429829,0.031079816,-0.15120767,-0.25085232,-0.011986077,-0.17059967,0.25915948,0.10054567,0.0637966,-0.033212576,-0.040139794,0.030997789,0.1711435,-0.13043343,-0.08370332,-0.045783933,0.17381555,0.015606093,-0.13960728,0.11124789,-0.027241027,0.16378519,-0.36249214,0.010754462,0.02097789,-0.055934496,0.19984151,-0.11996081,0.0819472,-0.16599095,0.11586259,-0.29431328,0.11940911,0.15097156,0.12808113,0.020789789,0.17919354,0.104786806,-0.33918497,-0.08778052,0.06521643,0.22885764,0.15092194,-0.11555229,0.19554386,-0.13493222,-0.25748456,0.118775,-0.06396929,-0.13663265,0.31503832,-0.10926502,-0.26063192,-0.21566814,0.16643852,0.12887049,0.13425799,-0.10916056,0.055322327,-0.106706925,0.12028886,-0.29667893,-0.2044956,0.17639133,0.09608183,0.09097451,-0.43198824,0.025316546,0.08583027,0.09154989,0.15614538,-0.08251041,-0.1305542,-0.16641197,0.021155568,0.36783504,-0.09515232,0.022639062,-0.007501555,0.0016093832,-0.003102344,-0.18227795,-0.12810086,0.23447318,0.057080798,0.17518802,0.2005134,0.18282835,-0.13859756,-0.10912636,-0.08503854,-0.105829045,0.063608505,0.102741644,-0.14232662,0.23707056,-0.14078036,0.16341744,-0.0013027722,-0.11207805,0.112353146,-0.10986969,-0.20422283,-0.029428583,0.045876954,-0.1259855,0.05709149,0.2471073,-0.17988974,0.1184129,-0.073950104,-0.3123345,0.11097392,0.022674818,0.057723075,0.1550864,-0.005000094,0.1283954,-0.010529157,0.15679751,-0.17377819,0.12725788,0.040620454,-0.13456471,0.08747195,-0.22848919,-0.054928496,0.11040031,0.12400778,-0.058611356,-0.20492671,0.2506585,-0.16097143,0.28113744,0.23205812,-0.18357076,-0.21365964,-0.0040456126,0.102547094,0.07231984,-0.122892745,0.12556767,-0.22427823,0.063795365,-0.18880111,0.031478312,0.03162206,0.02623567,-0.19730012,0.14908764,-0.1533419,-0.08003376,0.27528632,-0.24243973,0.31638074,-0.25539288,0.21228456,-0.044545185,0.07100637,0.024745861,-0.17656311,-0.19118255,-0.1255974,0.25111693,-0.020179946,-0.067715056,-0.16223715,0.31085387,0.20561333,-0.11903552,0.25179818,-0.16792798,0.17420433,-0.27179956,0.2966691,-0.1878192,-0.013089011,-0.01989431,0.20751078,0.04820819,-0.15444157,0.10671379,-0.17145498,0.13523886,-0.09920072,0.023584127,-0.104849234,-0.10170414,-0.061341446,-0.012519533,-0.072880626,0.27521837,-0.14162618,-0.041844063,0.26234666,-0.07008129,-0.10446179,0.0067331446,0.07738252,-0.11689995,0.10760596,0.10878638,-0.12136478,-0.06175706,-0.23985024,-0.09744524,0.18348385,0.23438591,-0.16030635,-0.20197703,0.06864273,0.21771234,0.07926427,-0.0836337,0.3470977,-0.301873,0.21538347,-0.16055208,-0.23426084,-0.08430943,0.046920437,0.25841236,-0.011127905,0.15558825,-0.063256286,-0.048661146,0.039941255,-0.121919446,-0.22429353,0.005119405,0.3586598,0.1899412,-0.18907358,-0.3291762,0.16958725,0.25596368,0.0422761,-0.19772778,0.26014566,0.0091680745,0.12983595,-0.09315027,-0.14392522,-0.05150353,-0.13718303,-0.024681462,-0.0321647,-0.12149803,0.05336511,0.098165855,-0.124073565,-0.1513109,0.23164217,-0.28114626,-0.037061322,-0.18123281,0.16242762,0.100936234,0.09256905,0.08832298,-0.042625695,-0.084809035,0.071872495,0.21693578,0.030941755,0.10526325,-0.17876221,-0.19007553,0.23027459,-0.3213424,0.19505017,0.060605057,0.10013237,0.098072864,-0.14395088,-0.14659634,0.11067288,-0.0059707323,-0.08110957,-0.13745245,0.24933508,0.14158273,-0.11926145,0.16417153,-0.36100638,-0.040590044,0.09177378,0.22839457,-0.06532788,-0.2657684,0.3199337,0.041482594,0.11486789,-0.1974829,0.19277875,0.05536392,-0.11419904,-0.06282442,-0.14109346,0.15584557,-6.334158E-4,0.01643214,-0.08507255,-0.07127238,-0.09538182,0.1484628,-0.14731377,0.14715883,0.096620515,-0.0754567,0.06462447,-5.3452794E-4,0.121180214,-0.039424706,-0.037694573,9.0420997E-4,0.03480755,-0.29572827,-0.15460946,0.14379035,-0.19260558,0.049709156,-0.14647676,-0.03185994,0.12944053,-0.05752064,0.016291965,0.25833696,0.17527533,0.012187438,0.15104768,-0.26068273,-0.23274295,0.15918076,0.11444196,0.078245975,0.0138836,-0.2978183,-0.16776185,0.19227313,-0.111908145,0.014289319,0.19275786,0.12459989,-0.006195606,0.12124851,-0.06480428,-0.13850378,0.14111862,-0.041552037,-0.16404898,-0.15099277,0.11491124,0.22309972,0.028206963,-0.15855852,0.014335168,-0.29231465,-0.0024731911,0.13221434,0.25647992,0.19605562,0.09564419,0.052908156,-0.12051981,0.02156907,-0.2810293,-0.1757987,0.15633331,0.009172762,0.018830003,0.11894862,-0.13444044,-0.05183052,0.013530781,0.05020756,0.030280076,-0.18891345,0.04086851,0.27341658,-0.034048736,-0.16686448,0.14272225,0.051895026,0.07358617,-0.05321746,-0.027403958,0.034822337,-0.035175297,0.13670759,-0.1279854,-0.10146894,0.12339203,0.08672749,0.069422215,-0.14831577,0.31783038,-0.32179633,-0.02896161,0.07019271,-0.17743841,-0.13737302,-0.022212202,0.12641029,0.13159408,0.0075034695,0.059352502,-0.099156454,2.5363278E-4,-0.14428125,0.22972521,-0.3652155,0.3023263,-0.08993984,0.064064994,-0.043489084,-0.22653893,-0.22130041,0.31397456,-0.20918913,-0.003786308,0.012686371,-0.1209881,0.099022694,0.16675244,-0.2439404,0.07270945,0.1810421,0.20757118,0.08892708,-0.21103878,0.089276426,0.0056481054,0.26530617,-0.21451499,0.18390247,-0.2368691,0.050691552,-0.43447828,-0.2701669,0.2735608,-0.16061217,0.10709482,0.10977286,-0.08154228,-0.21283501,-0.03530645,-0.011395887,-0.029642904,-0.060058933,0.29335532,-0.02227226,0.12821783,-0.025699116,0.42305827,-0.16920954,-0.299116,0.097544216,0.013389493,-0.06364735,0.07512707,0.30034763,-0.14057675,0.3400833,-0.28232437,0.1725911,0.038063027,-0.008386135,-0.20820458,0.24413216,-0.08826578,-0.17497006,0.10502451,-0.103955865,0.046741143,-0.23572032,0.17776346,-0.24422204,-0.008776652,-0.1607987,0.106942974,-0.16228165,-0.078816585,-0.00439464,0.07252347,-0.07876769,0.22369434,0.023850152,-0.18354875,0.16895738,-0.298026,0.1861129,0.12393017,-0.05630341,-0.027861357,0.15512563,0.032500546,0.1665511,0.24607596,-0.2649315,0.019203013,-0.074466035,-0.0900821,0.085633785,0.033820562,-0.21482983,-0.1954634,0.2582717,-0.1139839,0.2078326,-0.13189472,-0.041324414,0.13698728,0.032703087,0.15722722,0.18332636,-0.097621135,-0.013129686,-0.19417782,0.02959888,-0.089599036,0.19225332,-0.24937184,0.0052467003,0.0010830213,-0.0057077175,-0.080531016,0.12023515,0.083571345,-0.19766657,0.12496605,0.06716087,-0.13600495,0.25113866,-0.05750412,0.13036431,-0.13379139,-0.017832015,0.04099567,-0.087952584,-0.24969164,-0.03646925,0.040774576,-0.046509244,-0.06343121,0.20889977,-0.1105601,0.052977927,0.044056196,-0.025441095,-0.15928334,0.40002915,-0.16561997,-0.19074613,0.3351127,-0.22637984,0.2317549,0.15509582,-0.042843007,-0.04499478,-0.14236972,-0.017382888,-0.17289379,0.294664,-0.28866544,0.20407946,-0.17717636,0.1301805,0.07085265,-0.031921875,0.22760245,-0.1324095,-0.28500652,0.3649435,-0.08224837,0.074824005,-0.10929175,-0.1123044,0.1508069,0.10857289,-0.10466446,-0.2709065,0.35281837,-0.21212721,-0.12026369,-0.008289864,0.04391136,0.111089855,0.07889176,-0.14799574,-0.06505487,-0.19419356,0.14439492,-0.24870287,-0.17049953,0.010676271,0.009805726,-0.016826734,0.18282011,0.17016397,-0.06267828,0.04536743,0.12475885,-0.10389783,0.20860657,-0.29525197,-0.06459587,0.024156787,-0.29013908,-0.09789007,-0.17782007,0.17344427,-0.03178598,-0.30429116,0.3718717,0.093492955,0.02159226,0.17793526,0.084086515,-0.00478796,0.116911806,0.08819849,-0.08232817,0.1822878,-0.10653957,0.1231719,-0.11808762,0.13834298,-0.21415666,0.15726392,0.37282613,-0.002622158,0.1241976,-0.123983756,0.031455345,-0.23806228,0.18884183,-0.3567933,0.100214556,0.29992086,-0.19901411,0.026893996,-0.19339006,-0.020994851,-0.09903223,-0.18128738,0.10391853,-0.09558369,0.24672267,0.12419798,-0.22927582,0.06334378,0.11141228,-0.10699477,0.20201677,-0.18495692,0.14991976,0.14278936,-0.06920946,-0.178985,0.046859227,0.008155893,0.28632167,0.15466973,-0.09674235,-0.0575282,-0.31329483,0.15870579,0.04153612,-0.017238842,0.060044184,-0.17069721,0.28863618,0.029351808,-0.22335719,0.052142117,0.033224456,-0.19934668,0.1446007,-0.33682933,0.01117662,0.09581272,0.07168494,0.18173626,0.1921831,-0.038998697,-0.04380496,0.16578132,0.13552997,-0.26474616,0.11162111,-0.30380395,0.12960294,0.16432008,-0.05024422,-0.24602003,0.013578818,0.22530769,0.026911486,-0.16684219,0.064846285,-0.2725864,0.010826245,-0.0026527892,0.025804907,-0.13489726,0.29806557,-0.13535027,0.08445367,0.034707975,-0.05643038,-0.30167076,0.19109803,0.1848035,-0.076626584,-0.36838812,0.20820549,-0.028411014,-0.2605815,0.036650117,0.12002838,0.014072085,0.15808499,0.113463365,0.20843267,-0.23763867,-0.16991416,0.09590385,0.28467265,-0.27292246,0.12445106,0.13488789,-0.33146557,-0.033660106,-0.024500908,-0.16896643,0.12808317,-0.0289155,0.26302502,-0.14505191,0.19116665,-0.07131436,0.24334686,-0.08288639,-0.03838775,0.06679161,-0.08462687,0.30450583,-0.16263723,0.2627195,0.095743574,-0.21647689,-0.22557253,0.11754165,0.17631587,-0.07109652,-0.0746912,-0.1695708,0.25814852,0.019990716,0.029140685,-0.078498855,-0.07718173,0.09994505,0.03521789,-0.04368444,0.3043563,-0.14845845,-0.0241821,0.08780981,-0.1791811,-0.16258885,0.022334002,0.04793359,-0.11155652,0.2498237,-0.337234,0.13615708,-0.11307129,0.09819765,-0.01819152,0.04233681,-0.25139534,0.081377804,0.030397508,-0.129695,0.12658103,-0.37596643,0.03410188,0.074848145,0.04123676,0.34918267,0.11376786,-0.0772051,0.31627086,-0.12021238,0.042136416,-0.113577254,0.039053768,-0.043808624,0.20238443,0.020146508,-0.12517427,-0.14040989,-0.2399186,0.14691947,0.052041516,0.13361315,-0.2033395,-0.078133084,-0.20845792,0.14318432,-0.31719667,0.11553104,0.3202879,0.20112033,0.05196353,-0.17195287,-0.24699381,0.17718923,0.106596254,-0.18425296,0.12295241,-0.17491208,0.0504246,0.069502085,-0.017996555,0.2805209,0.1492144,-0.046427812,0.09069679,-0.014797667,0.0019657372,-0.28033376,-0.253792,0.27454317,-0.023266586,-0.22118464,-0.14420334,-0.08726782,0.09728285,-0.15766065,0.056404166,0.12932277,0.13537477,-0.123809405,-0.24096571,0.23649983,0.02347215,-0.22206834,0.24570605,0.3211347,-0.08166471,0.0128396405,-0.08531039,0.29889095,-0.12964584,-0.051617183,-0.26483083,0.16599463,0.08771833,0.10348365,0.19311869,0.022092845,-0.14536868,-0.16135578,0.068923965,-0.0409638,0.30592367,-0.24210376,-0.08038766,-0.051617213,0.22563249,-0.1589122,0.093052484,-0.17697984,0.21580069,-0.1443942,-0.24451937,0.1437575,0.15394717,-0.35281086,0.24686842,-0.07152404,0.24474302,-0.2328416,-0.19850443,0.25517696,-0.08614791,0.07477784,-0.034202516,0.25314918,-0.24225442,-0.0019768653,0.011520775,0.22490013,0.010836464,0.020180915,-0.10164845,-0.100191034,0.12262545,0.1287785,-0.16579413,-0.14495727,-0.07850485,0.34631288,-0.20684023,0.0012644492,0.15742788,0.03371201,-0.32294065,-0.03363136,-0.22176658,0.19287221,-0.045924596,0.025180725,0.025443282,0.15403329,-0.14089818,0.031100068,0.058667727,0.11019209,-0.23175079,0.17026336,0.092260025,-0.13866213,-0.04238814,0.2251409,-0.26686767,-0.17466423,0.02441902,0.19754927,-0.041266195,-0.26945803,-0.14934824,-0.09563247,0.35621694,-0.11762973,-0.1763368,-0.047912188,0.26549986,0.082916744,-0.09581263,0.17316037,0.0594727,0.04397548,-0.007895545,0.27225128,-0.12410643,-0.19741847,0.3002972,0.19729206,-0.1866467,0.27962342,-0.068264864,-0.20750748,-0.110434085,-0.17873627,0.0015573942,0.4009553,-0.21733133,-0.06441362,0.11457613,-0.03298034,0.11137503,0.011272149,-0.07917509,-0.09202953,0.22447994,-0.06932574,-0.26456007,0.20797713,0.22132577,-0.22448483,-0.08125601,-0.07166834,-0.21720503,0.4097007,-0.038471993,0.07233795,0.114232905,-0.15383267,0.24049446,-0.011360731,-0.19168697,0.39836094,-0.2199234,0.2031928,-0.27313536,0.15818335,-0.32741663,0.11812289,0.24089286,0.16058794,-0.42428553,0.12884834,0.3087351,-0.21171765,-0.1773756,0.21042544,0.031034723,-0.08908942,-0.23136218,0.10365858,-0.33254007,0.23232336,-0.10029174,-0.11134764,-0.016680637,0.031226147,0.09657792,0.025848413,0.0755574,-0.09566438,-0.14806956,-0.07563537,0.063605875,0.19456315,0.0316547,0.10677329,-0.004232168,0.005285783,-0.0069432086,0.0013561577,-0.16757421,-0.24160804,0.41033614,-0.050891683,0.26334727,-0.1601885,-0.0040686103,0.2045077,-0.09651774,-0.1745092,-0.049843065,-0.084833056,-0.035835173,-0.12349396,-0.09712697,0.077176936,0.111489505,0.20458868,-0.34391996,-0.07787309,0.10721025,-0.23067172,0.060665473,-0.07352193,0.08265131,0.0714982,0.08874539,0.04593898,0.22215283,-0.0044052945,0.3357463,-0.21922502,-0.1552319,0.25157505,0.30402553,0.12869678,-0.062287264,0.16257915,0.031552073,-0.2269535,0.24418333,-0.08648822,0.14777628,-0.26297152,0.12617418,-0.25054076,0.05022991,-0.17486316,-0.117192686,-0.2647827,-0.15815054,0.09247803,0.014243086,-0.012194844,0.20746158,0.17484953,0.12603512,-0.0013087968,-0.30688787,-0.26272318,0.017253084,0.16051209,-0.022185598,0.21362258,-0.17270218,0.033062007,-0.3816175,0.21843919,0.18681945,0.016117996,-0.0030747415,-0.32414284,-0.04440783,0.10762079,0.04508895,0.15463641,0.012725394,-0.1502409,-0.007383843,-0.086552,-0.018205618,-0.018903937,-0.10850156,-0.14719945,-0.12269445,0.11496097,0.08125445,-0.267997,-0.2317067,-0.07355731,0.044526596,0.306895,-0.29882354,-0.05265847,-0.060159672,0.031951528,0.16618878,-0.28303242,0.1470187,0.20096442,0.04671317,0.31002948,0.1684679,8.237167E-5,0.043772917,-0.056389026,0.36696145,-0.3888236,0.22088669,0.22390403,-0.14461327,-0.19675049,0.15953,-0.10917156,0.09544132,-0.27761272,-0.2216244,0.11208714,0.28288832,-7.559154E-4,-0.32025522,0.022546185,0.12767762,-0.23348142,0.05741373,0.23754832,-0.0066263955,-0.088395454,0.12634361,-0.33267015,0.29826134,-0.25463876,0.13143909,-0.10903187,0.14253706,-0.09450186,0.18372826,-0.06670372,-0.17291643,-0.10148928,0.17772968,0.024508534,-0.19576594,0.23090501,0.3276833,-0.16349146,0.23814683,0.2001674,-0.19243467,0.039064847,0.086251415,-0.27845567,0.09298205,-0.0972458,-0.07897465,0.035095613,-0.03309584,-0.20906565,-0.049373776,0.13565047,0.06428292,-0.17210671,0.14883178,-0.15007322,0.06357478,-0.12344424,0.053707026,-0.23044465,0.064996995,0.052448273,0.32178527,-0.19879304,0.24694109,-0.07444752,-0.18249936,-0.10658069,0.049097016,0.019604806,0.2873561,0.124404356,-0.24347733,-0.051446162,0.26659098,-0.06528867,-0.29825795,0.24468145,-0.11933403,-0.05278737,-0.18863189,-0.062758945,0.19143924,0.2672493,-0.12745503,0.21639083,0.028993003,-0.19106273,0.22464915,-0.32425207,0.15724635,0.013125456,0.3162689,-0.09912196,-0.2087882,0.03039956,-0.38582742,0.16109277,0.12554726,0.13149832,-0.20544045,0.30086663,0.037728637,-0.20365076,0.080757946,0.020669011,0.1023366,-0.045507155,-0.20107941,-0.007760896,-0.13923295,-0.19445805,0.24336466,0.20171079,0.061694264,0.17254929,0.10862133,-0.20517805,-0.10430503,-0.22176379,0.1429688,-0.17611106,-0.0333819,-0.16913289,0.2460483,0.07795264,-0.13279806,0.21909699,-0.030873755,-0.31364748,0.23539199,0.21872024,-0.24020147,0.2651545,0.066227145,-0.13164514,-0.15033118,-0.0650285,0.049886063,0.07161982,0.09251093,0.016087858,-0.067986004,0.108895205,0.03294076,-0.1950468,-0.10316493,-0.05875103,0.17319138,0.25174734,-0.08012689,-0.3127763,-0.19923595,0.1796451,-0.0071119727,0.03227053,-0.11338664,-0.094455175,0.017007066,-0.006972936,-0.185036,0.12896961,0.13111845,0.018371738,-0.021700483,-0.09081813,0.051917136,-0.058232497,-0.24651499,0.35502276,0.16421749,0.19792618,0.12747936,-0.12427824,0.1532751,-0.2378315,0.13084629,-0.26943597,-0.07027585,-0.016314521,0.24252936,0.3105806,0.01509792,-0.0015602682,-0.3169092,0.1198568,-0.08638965,0.18558125,-0.006450021,-0.14577441,-0.04053468,0.17731886,-0.22033006,-0.060643736,0.01850721,-0.01562806,0.026870523,0.22703242,-0.31318194,-0.033618473,-0.20076992,0.2346356,-0.17242539,0.20616814,0.12822777,0.24829558,-0.05731964,-0.26075763,0.1309687,-0.11352771,-0.027437339,0.29494193,0.13261762,-0.06073971,0.09552825,0.02786633,0.003567786,0.01835663,-0.20947209,-0.08897618,-0.1546533,0.16674232,-0.13615845,-0.21672922,0.18887475,-0.052417774,0.31423226,0.33912548,-0.12287904,-0.0053379163,-0.01252291,0.06774706,-0.25405568,-0.069234475,-0.27464446,0.17386158,-0.23768675,-0.4187751,0.13064452,-0.059237838,0.16611221,0.09730573,-0.024956655,-0.022175843,0.2156561,-0.06961933,0.013809065,0.10638558,0.059440028,-0.012260066,-0.14909294,-0.2333598,-0.15864046,0.29417986,-0.14860232,0.052077442,0.09887549,-0.03592391,0.18724504,-0.18572448,-0.16685109,0.27343875,-0.18053937,0.02575267,0.1242683,-0.079726644,0.16219725,-0.18137585,-0.0037136772,0.07566101,0.021823982,0.09086715,0.1995257,-0.18616791,0.19017805,0.040170986,0.09048268,0.013221892,-0.24843073,0.12797043,-0.19967622,0.25544178,-0.22150631,0.2396803,-0.15998827,-0.31978896,0.09474387,0.18077838,-0.31298468,0.045286268,0.11909223,-0.13109875,-0.08107125,0.13163953,-0.11600398,0.1617489,-0.2601546,0.29424655,0.11563744,0.009411192,-0.011117788,-0.28707498,0.011142874,0.090408005,-0.17363074,0.27439037,-0.19989079,0.32075605,-0.1969625,0.12058582,-0.08624061,0.020895282,0.06789207,0.2209518,0.023224495,-0.31970033,0.13493344,-0.256099,0.1440446,-0.11670798,0.04388343,0.06441188,0.10738804,-0.22456257,-0.14876738,0.24404283,-0.07822122,-0.31572834,-0.020421142,0.21210933,0.22981985,-0.1380036,0.12273617,-0.109252945,0.0019680578,-0.25319844,0.10182771,-0.37665778,0.13850982,0.122004665,0.06284358,0.015832566,-0.15312642,0.25211143,0.11864801,-0.0021803067,0.20541783,0.012243228,-0.29534894,-0.119479194,0.20391266,0.049092386,0.185113,0.14132147,0.0041068005,-0.13675883,-0.15488859,0.21262692,0.15348698,-0.23860908,-0.313906,0.057062946,-0.06003918,0.15438314,-0.23657618,0.120406,-0.25364015,0.09609902,0.059407655,0.097247876,-0.05356509,0.21453838,-0.26442623,0.23326422,-0.093435,0.1470318,-0.2743969,0.10720829,-0.10112694,-0.087389104,0.058130827,-0.05852854,0.24747108,-0.014525632,-0.08166974,-0.026667189,0.021456242,-0.021793058,0.18367593,0.017378993,-0.3954269,0.105637,-0.032820087,-0.11606682,0.104919456,0.111333326,-0.11207042,-0.18395658,0.0963484,-0.11591805,-0.17922825,0.29699388,-0.09817333,0.18461014,-0.20707898,-0.08787444,-0.17453712,-0.032937095,0.13301176,0.071716554,0.19391362,0.027853709,0.3608159,-0.22132142,0.14975135,-0.13467419,-0.14563449,0.08056606,-0.062239263,0.0676686,0.103797026,0.067271605,-0.14020252,-0.1786293,0.25236136,0.2323308,-0.2744539,-0.09943737,0.39052805,-0.15592083,0.10695628,0.1421131,-0.070592806,-0.034845244,-0.030358313,0.20739509,-0.2084989,-0.16774869,0.08691359,-0.015688019,-0.041671645,-0.06635744,0.28922552,-0.3226391,0.15469329,-0.10140799,-0.105152786,0.026172372,0.30679464,-0.0039350926,-0.058623303,0.10885357,-0.0072444077,-0.095480286,0.022353202,-0.22954074,0.056373067,-0.2302793,0.06824287,-0.31731158,0.2834805,-0.2258263,-0.1650004,0.0469071,-0.075840384,0.026980823,0.2982118,-0.12167478,0.17501639,-0.024669036,0.14942467,0.21853012,-0.1128508,0.035358813,0.18599398,-0.13601023,-0.21935248,0.36697367,-0.24234322,0.025542043,0.23092291,-0.0025779149,0.19389535,-0.3492392,0.13301,-0.25983056,-0.035022404,0.06091179,-0.18860042,-0.05154212,0.30038014,-0.034830693,0.05380253,0.21851477,-0.13323896,-0.21434623,0.25312206,0.13602951,-0.3642195,0.12382356,0.17108506,-0.010168255,-0.36345133,0.13891695,-0.129237,0.15573941,0.09802969,0.09354873,-0.14201748,-0.039817628,0.123236805,-0.08923848,0.071854755,-0.2809045,-0.14489505,-0.023380117,-0.07318556,0.29222155,-0.15706739,0.016751347,0.07633817,-0.27567947,0.0060571553,0.15225199,-0.029599352,-0.10753701,0.0069183586,-0.055566788,0.10263983,0.30901197,-0.2941402,0.1859581,-0.0038058227,0.05266083,0.11457183,-0.072853506,0.22968356,0.19242828,0.286478,-0.08117776,-0.18210678,0.016429069,-0.09702625,-0.017999955,-0.17069352,-0.13135259,-0.33190534,-0.07907253,0.13117748,0.06834715,0.2026747,0.2253688,-0.018501323,-0.23943816,0.22046734,-0.05615361,-0.010203449,0.17329912,-0.19986948,0.19984938,0.15832582,0.022741877,-0.051630784,-0.062204476,0.17801052,0.078738324,-0.26984233,-0.046629667,-0.13674201,0.015914332,-0.1470456,0.23288447,0.11868835,-0.02060181,0.13900416,0.045083422,-0.131741,-0.07960872,-0.0124256,-0.18256135,8.38173E-4,0.13475817,-0.07889627,0.22643624,0.0070163743,-0.22801206,0.1819408,0.19073182,-0.20094237,-0.040877797,0.15466006,-0.14300023,0.040305857,-0.23321483,0.23395139,-0.2884659,0.04162882,-0.02441773,0.117232606,0.24441756,-0.036957856,-0.14185652,0.28700545,-0.21196713,-0.04156148,0.06230234,0.2803746,-0.1279556,0.10881307,-0.21120352,-0.23608027,-0.016320229,0.085771166,-0.102618925,-0.11913708,-0.046388786,0.17583504,-0.20339423,-0.095730096,0.03640704,0.22318202,-0.13603586,0.11430023,-0.07266461,0.24858254,-0.0031799974,-0.16133766,-0.106987685,0.1679757,-0.11463081,0.3185794,0.022545952,-0.30879492,0.043289296,0.35234502,0.0076633906,-0.21858913,-0.08708974,-0.026668029,0.3285299,-0.21167871,-0.06803936,0.053158797,-0.18595755,0.039748367,0.0069904244,-0.07294286,-0.40788656,0.2502989,0.0083856685,-0.11534802,0.15662435,-0.01904335,-0.047823295,-0.061396487,0.020614788,0.018331716,0.019107357,0.04408881,-0.12767115,0.35547796,0.13265973,-0.15296511,0.3347738,0.105876856,0.051501688,0.042481422,-0.07096053,0.05950593,0.0076952325,-0.3405386,0.13984409,-0.2796312,-0.06511655,-0.011658102,0.19813663,0.28139895,-0.14564486,-0.13503057,0.2561529,0.07215693,-0.13316803,0.032630373,0.18075342,0.21063937,-0.05015889,0.07221738,-0.25934795,0.09007729,0.020581855,-0.10600325,-0.10960534,0.16873045,-0.06669722,0.0841331,-0.3422326,-0.09828293,-0.12268942,0.14903685,-0.13254775,-0.01529161,-0.03882853,-0.10837202,-0.045699097,0.043036558,0.14258024,0.12405663,-0.073120534,-0.0016151816,0.2076996,0.09457006,0.11805676,0.17556137,0.030320823,-0.060803786,0.1311837,-0.31547523,0.17713822,-0.06129188,-0.32166395,0.2716363,-0.19007988,-0.10658113,0.09556497,-0.16005361,0.33365983,0.029836282,-0.12176685,-0.10183115,0.19183876,0.11673631,-0.2438555,0.23786633,-0.17000009,-0.04587773,-0.22807106,0.0100613,0.14588305,0.09665794,0.02747749,0.18908802,-0.27428392,0.15620798,0.09583429,-0.24848753,0.15699956,0.18211693,0.19836637,-0.12544894,-0.34032732,0.129497,-0.16719083,0.3874242,-0.37044725,0.35032108,-0.29703403,-0.13461211,-0.011909418,-0.24388404,-0.09895838,0.16841908,-0.070060216,0.2137458,-0.13038236,0.12350151,0.09681601,0.0698295,-0.0531465,-0.12419186,0.018177886,0.14465247,-0.30113664,0.20841616,0.35332066,-0.37938198,0.03589272,0.11966387,0.21712162,-0.2542931,0.042880718,-0.14583968,-0.18713449,0.10222613,0.13512084,0.017128812,0.34304234,-0.25516725,-0.28350797,-0.006256766,-0.067252755,0.18071711,0.27379957,0.11086478,0.009074026,-0.27662888,0.017674768,0.00826226,-0.08207654,0.22552305,-0.1825164,-6.8270945E-4,-0.070341684,-0.27987957,0.1601476,-0.11609943,5.5897527E-4,-0.10942044,0.15751259,-0.10947693,0.37320518,-0.08582757,-0.014227449,-0.042437963,-0.118168175,-0.087243326,0.41639176,-0.123695455,0.11386326,-0.020601504,0.29766217,-0.24614538,-0.09657942,-0.13013595,-0.1420165,-0.051307466,0.19302496,0.07117494,-0.024482189,0.10528134,-0.4013098,-0.13497134,-0.027933793,0.19055423,-0.15113024,0.016996462,0.3420274,0.090700395,0.32234085,-0.20930104,0.0048867012,-0.17665927,0.22553124,-0.16489077,0.116682455,0.08951076,-0.053788956,0.15854251,-0.16042589,-0.007700808,-0.15080312,-0.27770466,0.10493091,0.060921777,0.08386841,0.20628111,-0.27516672,-0.20424886,-0.0728856,0.15434223,0.0064733913,0.2745227,0.15617125,0.047243528,0.04280472,-0.2514608,0.12688902,-0.053951733,-0.034120843,0.06537008,-0.14510098,0.17272958,-0.034102984,-0.01941057,0.2635081,-0.2760897,-0.20127799,-0.13015364,-0.08455612,0.16596255,0.005889275,-0.027997268,-0.08181872,-0.0022153815,0.1765086,0.19812655,-0.0210834,-0.20338628,0.1824133,0.049414046,-0.14576149,-0.046698,-0.032002114,0.17664076,0.20045625,0.07993562,-0.19443329,0.17189454,-0.017002108,-0.13170958,0.04002995,0.3383248,-0.06387014,-0.23137899,0.19571298,-0.25304687,0.2919819,0.18530032,-0.39259073,0.20164739,0.12594087,-0.20840898,-0.04825323,0.021582289,-0.19161284,0.13029401,-0.18010293,-0.03949916,0.06129698,0.18013893,-0.14260331,0.0073005403,0.25910452,-0.015964665,-0.20133893,0.15811823,-0.30387592,0.05201511,-0.16457441,0.21148342,-0.17181234,-0.06622578,-0.103779376,0.080294445,-0.10997856,0.1042409,0.1348654,-0.03481878,-0.15199576,-0.23111491,0.089251205,0.23184386,0.07825535,-0.118184045,0.12411876,0.119565286,0.036525432,0.119641736,-0.09959695,-0.097749256,0.26403287,-0.081527986,-0.09486379,0.3734646,-0.120911986,0.1638043,-0.2930908,0.2988849,0.25517398,-0.36766425,0.26736102,-0.30595773,-0.31976005,0.026607404,-0.030866379,0.07094995,-0.028921336,0.25498402,-0.21591131,0.13466008,-0.03044743,-0.112046845,0.13752499,0.35386714,-0.21462937,0.22640121,-0.019289305,-0.2344978,0.40354872,0.005590228,-0.071656324,-0.1129398,0.25987357,-0.107205935,0.24451947,-0.21728352,-0.13721894,-0.30907428,0.114602365,-0.26435396,0.1108163,-0.34183678,-0.28283125,0.1526883,0.01938124,0.3406946,-0.18006504,0.22796792,0.23967683,-0.0549634,0.10653283,-0.07038717,0.075457856,-0.27271405,-0.14556317,-0.4028436,0.21440098,0.2048695,0.110740006,0.23998739,-0.23578897,-0.05467015,-0.016176134,-0.29316357,-0.11066746,-0.25682044,0.31476563,0.10827179,-0.13019417,0.04103498,-0.015451851,0.15443933,0.17742164,0.054469604,-0.07579823,0.16984506,-0.25917605,0.06634333,-0.07749812,0.11547043,-0.018432138,0.13350885,0.15511625,-0.1902333,-0.34086552,-0.30365425,-0.08112232,0.098964445,0.13597491,-0.29696444,-0.04419105,0.21673334,-0.041658804,0.2216948,-0.03989793,-0.09606886,0.21951553,-0.045661192,0.31133333,-0.07080084,-0.2554807,0.15510364,-0.16245703,0.2581813,-0.33164912,0.044037487,0.27601895,0.07355299,-0.052437365,0.31317797,-0.23497318,-0.003483687,-0.23406275,0.10733785,0.14820495,-0.04642723,-0.20624241,-0.008453391,-0.1986088,0.0019069221,0.09081879,0.12632819,-0.16652118,-0.33000278,-0.07829296,0.2890221,-0.085314445,-0.044267498,0.049202286,-0.009168051,0.14052537,-0.16923116,0.04227445,0.10806673,-0.037088204,0.2670696,0.049786665,-0.22601797,0.30269572,-0.0011064821,0.09391258,0.25239614,-0.081963934,0.0528005,-0.23036633,-0.13687545,0.07118164,-0.12494607,-0.08803288,0.23482005,-0.10346196,-0.12523447,-0.13688368,0.25081304,0.04037908,0.155432,0.028577065,-0.055356205,-0.20064197,-0.048186433,-0.13077639,0.109176144,-0.033074826,0.19626783,0.18944484,-0.2255523,0.022515167,0.22286703,-0.10985818,-0.16458677,0.24188939,-0.16929063,-0.16733633,-0.06065877,0.121952556,-0.18293424,-0.19998056,0.39805663,0.046944823,-0.099473104,-0.14792229,0.014098409,0.31399658,0.023570701,0.030306712,-0.12756772,-0.099882685,0.30614516,-0.10644806,0.07468213,0.28683278,-0.007255844,0.060939223,-0.100508325,0.12253999,-0.39179194,-0.07914333,0.27740553,0.13765407,0.1406908,-0.031245656,-0.027123,0.047917776,-0.09361151,0.12443668,0.027959008,0.089345634,-0.0054123513,-0.13385613,-0.23486082,-0.20801124,0.3376495,0.20902969,0.1354177,-0.4486581,-0.11279702,0.063453406,0.15619254,-0.09591845,-0.13506098,-0.038556844,-0.13714927,0.107581034,-0.23031658,-0.11295621,0.044109892,-0.06057628,-0.050941944,-0.023000399,-0.067583375,-0.02645159,0.4245362,-0.094476774,-0.20408486,-0.12180105,-0.27456903,0.35168323,0.03955557,-0.1384616,-0.11290074,0.28229442,-0.007664383,0.041768737,0.110034004,-0.09928576,-0.07250558,0.25616968,0.17677574,-0.14240508,0.055114526,0.10572283,0.0050437115,0.084109224,-0.09734804,0.13181162,-0.14896093,-0.14414799,-0.14967975,0.24961184,-0.09410665,0.12591091,-0.032344725,0.07958435,-0.3797472,-0.10058616,0.21010768,-0.104228765,-0.110879876,-0.15240239,0.12018135,0.15677407,0.13200548,0.024271993,-0.1722876,-0.22768389,0.04812791,-0.18717146,0.09769472,-0.3164453,0.1378178,-5.899565E-4,0.18203393,-0.0069837524,0.2829517,-0.18297319,0.21535194,-0.27605048,0.03657606,0.28014126,-0.073061585,-0.08596196,0.23469897,0.202258,-0.1381526,0.05780147,-0.35790664,0.24168472,-0.16095605,-0.1567831,0.16904198,-0.09512925,0.25493187,-0.17236924,0.28153262,-0.36891583,0.15167335,0.06455238,0.123686634,0.27698553,-0.16905272,-0.24688724,0.20889546,0.32885176,0.08750983,0.15114573,-0.1262949,-0.20608024,-0.052284677,-0.24220882,-0.03210283,0.13263053,-0.09622565,0.049944997,-0.26506093,0.0560225,-0.041934606,0.026320891,0.27740198,-0.16508877,-0.1380475,0.111513086,-0.10140452,0.10307877,0.029129786,0.20719649,0.1530293,-0.2889293,-0.13481086,-0.2474168,0.14254212,-0.24842162,0.3369887,0.21817945,-0.2052448,-0.14787704,0.2807909,-0.12829839,-0.021276817,-0.09582083,-0.09470785,0.07688726,-0.19703154,-0.08777939,0.32564786,0.041512705,-0.25972807,-0.06896667,0.17424023,0.053927936,0.1619771,-0.14656457,-0.060765225,-0.0039340747,0.12648062,0.033057813,-0.056672487,0.22307883,-0.2092013,-0.08768818,-0.0023506,0.13601603,0.010418798,0.36421022,-0.13172922,-0.13822497,-0.02928792,0.21500242,-0.2102124,-0.04200791,0.07853333,-0.076238066,-0.028428482,-0.21740824,-0.033511322,-0.09557677,0.07434309,0.39110467,-0.11419484,-0.036118522,0.077084914,-0.027614187,-0.1526969,-0.2843528,0.28148958,0.20042858,-0.042232357,-0.02956993,0.24038437,0.21761164,0.25905055,-0.33973917,-0.17742898,-0.12776023,0.3428136,0.0568722,-0.11666666,0.00511483,0.09385412,-0.19089596,0.12704965,-0.28436902,-0.06921064,0.07257673,0.10224592,0.14843613,0.07485812,-0.124656305,0.0030764698,-0.17574877,-0.092110224,-0.18487896,0.18138438,-0.07659332,-0.09161174,-0.12230854,0.19301009,0.14499715,0.16389567,0.08702657,-0.089006886,0.030538473,0.23065756,0.15472433,0.054656934,-0.15715131,-0.13654588,0.034239795,0.011402302,-0.1581238,-0.07653558,-0.028140109,0.30496764,-0.17746297,0.07714064,-0.10942859,-0.23157844,0.0042202557,-0.014134539,0.1609565,0.05340137,0.15967466,-0.28092393,0.33117285,0.014220096,0.30333927,-0.0041459086,-0.27521494,-0.17658038,-0.17417157,-0.13249291,0.052038096,-0.25308552,0.10438388,-0.0070408704,-0.21592154,0.1649884,-0.15145999,0.0653503,-0.07627985,-0.23006481,0.31918636,0.114790946,0.18639179,0.06641601,-0.25077015,-0.018090714,0.22576538,-0.20015538,0.038309425,0.31742564,0.029000303,-0.07246639,-0.14234254,0.16367611,-0.120436236,-0.017443271,0.142056,-0.0031638383,-0.026826378,0.22451167,-0.20329788,0.037823156,-0.3508397,-0.21727332,-0.13316683,0.0052123806,0.30072853,-0.32231426,0.15574719,0.20004289,0.20739833,0.08016769,-0.006712402,-0.28883484,-0.22639948,-0.07876178,-0.012501327,0.06326191,0.26400727,-0.09483157,-0.04044463,-0.016827546,-0.06884833,-0.0611877,0.19238238,0.24089822,-0.22876872,0.13829635,-0.037708074,-0.10011983,0.08564095,-0.016768241,-0.21988453,0.13824841,-0.00672146,-0.11473914,0.11414228,-0.029741628,-0.28882647,0.16387299,-0.13674119,0.037514105,-0.14025699,0.23736815,0.28154314,-0.27522478,0.3315558,-0.19320732,0.087550625,-0.08356219,-0.048435036,0.053389024,0.15658583,0.18597397,-0.07446651,-0.1465332,-0.02818321,-0.19003586,-0.16042566,-0.021902414,-0.085236795,0.06777308,0.14617635,-0.12890674,0.25095123,-0.18315986,-0.14980975,-0.18150654,-0.023050463,-0.03244584,0.16227852,-0.10487775,-0.15078469,-1.8841476E-4,0.14794365,0.18221746,-0.0030612121,-0.2521527,0.36383536,0.31852266,-0.16133778,0.08472405,-0.13337569,0.03962148,-0.24909899,-0.090217754,-0.15012723,0.23269577,0.1888308,0.042211365,0.16702458,0.03812571,-0.30410093,-0.20169148,0.16986439,0.011405484,0.03484493,-0.21383274,0.23861009,0.24618827,0.2829165,-0.08656336,0.20881428,-0.085565634,0.06338595,-0.25919083,-0.16722897,0.11589513,0.031512417,0.14530984,0.053022616,0.18290187,-0.03788147,0.039728902,0.11430365,-0.09361277,-0.16510633,0.108770184,0.054468803,0.07306803,0.15080473,-0.107057,-0.27791288,-0.25057665,0.23315804,-0.20478654,-0.06997846,-0.08572285,-0.16582838,0.2092821,-0.17556362,0.09587197,-0.19965328,-0.013789253,0.29209188,-0.28921762,0.03618813,-0.21697247,-0.1015575,-0.0047645927,-0.034658417,-0.024077702,-0.028068041,0.12147218,0.03393348,0.17911021,-0.014950539,-0.015522842,-0.0053988122,-0.01200635,0.009059545,0.27892298,0.017065264,0.076955244,-0.09277498,0.19757281,-0.09083929,0.084063314,-0.13801876,-0.06894217,0.104198255,-0.24808522,0.20884845,0.1363945,-0.30989712,0.042481422,-0.032238007,-0.14746462,0.1062355,0.092575975,-0.045945633,-0.23705207,0.20119189,-0.29133958,0.19566578,-0.048239492,0.12742741,0.08435099,0.180063,-0.15953201,-0.07310772,0.19832899,0.023862142,-0.1745579,0.03486922,0.14472894,-0.21081072,0.1554086,-0.13478594,-0.12272996,0.14695968,-0.18400277,0.10664725,-0.04118262,0.13526963,-0.24367815,0.10314255,0.15923716,0.07625302,-0.06635861,0.09402807,0.08476835,0.016864402,0.12787814,-0.16313036,0.13863009,-0.18433721,-0.32866764,-0.19109043,0.17723398,0.15961117,0.3367572,-0.09712873,0.053348973,-0.3263361,0.22664736,-0.12292634,0.07741091,0.273458,-0.10473948,0.1359376,0.11987537,-0.14780295,0.06593791,-0.2523768,0.037408516,-0.03904466,0.15098071,-0.16111888,-0.021810522,0.25985864,-0.2740174,0.22927338,-0.019105088,0.16307384,0.010443054,0.15299147,-0.121532954,-0.29035583,0.049706344,-0.005145973,0.01775623,0.24623786,-0.26297778,0.008105548,0.025030937,0.05247809,0.19821109,-0.32692057,0.041617632,-0.102944,-0.1797504,0.17171489,-0.15349768,0.23063086,-0.21568154,0.11147357,-0.2808955,0.18520369,0.102120794,-0.16545576,-0.16481407,-0.0802243,-0.05462846,-0.14969358,-0.21658932,0.2387885,-0.18244535,-0.28903162,0.31123948,0.07014453,0.19334707,0.21837956,0.10339196,0.0047403364,-0.22048037,0.239139,0.17874053,0.088765636,0.099490106,-0.07314443,0.002722719,-0.24703534,-0.17836651,0.1233255,0.14233553,-0.070098795,0.1321909,0.03569464,-0.009689194,0.17815273,0.20144846,-0.20036906,0.048124563,-0.05439394,0.10256198,-0.06414539,0.317399,0.14636007,-0.1735336,-0.20336562,-0.06177629,-0.18201917,0.066092364,-0.13149768,0.28403285,-0.11486687,-0.2509467,0.121830165,0.20558609,-0.30105475,0.11554038,-0.042789865,-0.17135999,0.13499646,0.24195513,-0.37719613,0.2627443,0.21422757,-0.27075627,0.39383337,0.22524919,-0.27389312,-0.09587173,0.11456186,0.37222537,-0.3051748,0.15879811,-0.22387531,0.048725057,0.12691295,-0.15792245,0.03449372,0.18115298,-0.3603594,0.1562729,-0.32167086,-0.05493637,0.15120067,-0.20507877,0.34269875,-0.15779689,-0.032821495,0.02548308,0.03687555,0.21022612,-0.28621247,0.29273164,0.069638066,0.14555198,-0.248555,-0.21054363,0.2961202,-0.090651624,0.17032641,-0.22144441,0.06180148,0.041270692,0.109100424,0.04030624,0.07736947,0.17794068,0.048030067,-0.18864797,0.13547656,-0.15702255,0.22164306,-0.17708485,0.07556287,-0.23080757,-0.19832136,-0.13916935,0.13396625,-0.0317029,-0.21662481,0.2763696,-0.22866148,0.17205778,0.069185495,0.03994978,0.11135109,-0.23633349,-0.048848704,0.11647203,-0.2559009,-0.17490764,-0.072287634,0.007942795,0.028445829,0.20995598,-0.08022887,0.17275448,-0.27905658,-0.09121051,-0.18724121,0.26427686,0.007533252,-0.15106377,0.23530725,-0.02050102,0.1464098,0.21119207,-0.3536766,0.22734277,0.16220622,0.086772226,-0.15810886,0.27585247,-0.10535563,-0.07497525,-0.35349125,0.08739445,-0.016492363,-0.31333992,0.2206089,0.023771878,-0.217269,-0.09302231,0.121260695,-0.14232282,-0.06606403,-0.08083946,0.20061815,0.035072412,0.01828988,0.20119888,0.2582353,-0.063740045,0.23551652,0.044497356,-0.08083641,-0.06676932,0.04585511,-0.09425383,-0.13760391,0.2867401,-0.27352902,0.061191063,-0.1374278,0.24699324,-0.24877924,-0.03460409,0.16297218,-0.122916006,0.26822746,0.2989498,-0.31394836,0.27564636,-0.06137844,0.006981038,-0.15661405,0.19171384,0.02499741,-0.22863688,0.013765232,-0.13307334,0.072330646,-0.02175532,0.07920012,0.121468425,0.048552793,0.18001732,-0.24005672,-0.27392033,0.24152154,0.040229853,-0.2557878,0.17719221,-0.0506697,-0.059501886,0.0072591105,0.12098364,-0.030921698,0.27615154,-0.25387815,-0.087979846,-0.20446979,-0.0086041335,0.20391446,0.18818977,0.12914461,-0.24410166,-0.109182246,-0.06699989,-0.06851203,0.13484523,-0.064024985,-0.14879031,0.34734398,-0.25357926,0.3060315,-0.15445668,-0.104439944,-0.040800817,0.077270575,0.23694946,-0.2288955,-0.23275489,0.06318744,0.20434579,-0.11100824,0.029921895,-0.010712371,0.13896735,0.26476046,-0.31391084,0.103549354,0.18152228,0.14778487,-0.11326438,0.06986056,0.28020748,-0.047996845,0.21556278,-0.2721259,0.34405288,-0.26241276,0.06826581,-0.17638622,-0.0016762884,-0.17461301,0.22725748,0.10990855,-0.3731252,0.06158485,0.08803461,-0.161866,-0.15301706,0.15673816,-0.096121244,-0.0017752878,-0.0438344,-0.09082358,0.1855855,0.1916595,-0.22474575,0.045542642,-0.12557226,0.1340037,-0.20487472,-0.0063234656,0.24375027,0.20820427,-0.09579423,0.0765891,0.0032272756,0.31491706,-0.21599507,0.12750813,0.09187284,-0.24484108,-0.0694169,-0.11221739,-0.17842959,0.08424714,0.14367045,-0.21244276,0.08219725,-0.10779417,0.09374282,-0.029501058,0.22000414,0.0057890275,-0.122155726,0.11555146,-0.24826697,0.352602,-0.40464813,-0.27613112,0.22878711,0.36369976,-0.107584335,-0.22821231,0.009054628,-0.05191761,-0.15607189,-0.034810975,0.10427012,0.2621143,-0.1760318,0.04680159,0.08215927,-0.06421037,0.12999609,-0.04106286,0.11302792,-0.028395,0.20984922,0.27508593,-0.05331294,0.17206517,-0.047806524,-0.060887743,0.10672055,-0.22576043,-0.06530082,-0.18900755,-0.018063052,0.2709764,-0.31802073,0.009585739,-0.10702161,-0.02736057,-0.14755128,-0.0065047597,-0.09267016,0.063706666,0.16711178,-0.14498663,0.021355422,-0.21667187,-0.0063691717,0.18621288,-0.14373405,0.15902092,-0.2361748,0.09751113,0.03430865,0.11331176,0.18864162,0.062283956,-0.0073543554,-0.23533505,-0.2427564,0.16285418,-0.16289519,0.27630076,-0.11597631,-0.2506746,0.17665152,-0.15393491,0.23526658,0.008294174,0.14881076,-0.028240042,0.12924765,0.0103542525,-0.18726765,0.055764053,0.017973185,0.15696359,-0.042427782,-0.1675041,-0.23928545,-0.2910769,-0.043765888,-0.09151049,0.123158805,0.33707914,-0.3795447,-0.10481579,-0.05691426,-0.07100988,0.22187363,0.16295576,-0.14934656,0.36125904,-5.6053995E-4,0.22689289,0.112614594,-0.24841338,0.17086214,-0.09068984,0.31045344,-0.24164946,0.25228783,-0.06545957,0.08424346,-0.2314952,0.09075683,0.014750728,-0.14599065,0.15234752,0.16539554,-0.014560594,-0.08702926,-0.24734914,0.117548674,0.023312403,-0.243667,-0.119374804,0.09267777,-0.45166966,0.12300735,-0.07932585,-0.09234668,0.047997963,0.0201469,-0.03305224,-0.06677404,-0.059594512,0.30739322,-0.10327027,0.14900473,-0.07242287,0.27214348,0.014915359,-0.05661795,0.14241132,0.07339011,0.37428802,-0.04633333,0.1991243,-0.022765074,-0.09881867,-0.27697727,-0.1632555,-0.19851446,0.018840933,0.0016725499,0.13315089,0.008817201,-0.2674947,-0.05385873,0.120295666,-0.11777579,0.03705566,0.004229319,-0.33320838,0.042674717,-0.20856552,0.11228072,0.05084719,-0.10054878,-0.02698219,0.099008374,0.035047896,0.20340945,0.13612762,0.16483702,0.21315669,-0.15946093,0.06756829,-0.22515714,-0.049977005,0.32114142,-0.16302653,-0.1698533,0.098484635,0.012324424,0.1725543,-0.3471208,0.06962609,-0.2614463,0.3102986,0.23298137,-0.20322521,-0.17283532,0.2167701,0.008109769,0.17070515,-0.17476016,0.084949724,-0.24343762,0.08546646,0.10932065,0.07264377,-0.14194945,-0.050011452,-0.12775606,-0.041547548,0.3813329,0.1786795,-0.12590407,0.035853017,0.10638276,0.1461471,-0.2909143,0.29263282,-0.2500596,-0.109397486,0.25059706,0.04623937,-0.047962926,0.13433476,-0.040252138,0.087186165,-0.23216565,0.09844077,-0.19073711,-0.2082294,0.10202085,0.05580819,-0.27103603,-0.24921474,0.20687167,0.17837636,-6.519398E-4,-0.22231142,0.2122111,-0.031266686,-0.15556692,0.20361549,-0.29827258,0.3207709,0.12684149,-0.24248002,-0.099288315,-0.065404624,0.2782782,-0.18244423,0.124438964,-0.07577894,-0.024334425,0.023741204,0.22141428,-0.049669337,-0.1936789,0.09685418,0.13008648,0.25264367,-0.2202669,-0.07157334,0.19648,-0.10211985,-0.09413435,-0.24095733,0.32280383,0.20886415,0.16914351,-0.20890047,0.15180263,0.1286974,-0.06542612,-0.19978446,-0.04352939,-0.15475462,-0.15233937,0.17640662,-0.114475586,-0.022275161,0.05419376,-0.27885666,0.11881266,0.2087586,0.18021338,0.049210053,-0.14806455,-0.044433773,-0.054569114,-0.1796395,0.21518743,0.0047368924,0.03762605,0.14913599,0.27786836,-0.15146238,-0.27771994,0.14319417,-0.18165427,-0.1767159,0.24236597,0.17351148,-0.01281593,-0.13147579,-0.2666164,0.17678289,-0.029499143,-0.17383124,0.114540175,-0.15839043,0.011874931,0.24025543,-0.29492286,0.112180546,-0.1928506,0.008278354,0.11545501,-0.056282032,0.15158604,0.0034572724,0.16862597,0.32036117,-0.2261233,0.19849661,-0.18472311,0.10646375,0.037549082,-0.0147445435,-0.0618415,-0.06950602,-0.04306773,-0.16757594,0.11351328,-0.04612745,-0.18315142,-0.009055494,-0.08416615,-0.05625429,0.23536174,-0.11749745,-0.18927978,0.03367195,0.12107107,-0.16595352,0.034611337,0.24570794,0.095311694,-0.3315659,0.18483455,-0.097063445,-0.051243655,-0.15830503,0.23343986,-0.05013292,0.05458778,0.2139157,0.10153729,0.2781926,0.013272687,-0.20105268,-0.29865587,-0.074039936,0.36920857,-0.34867224,0.26080194,-0.27971643,0.11535785,0.09456375,-0.12862246,-0.27959606,0.21836649,0.05589093,0.09212661,0.1919771,0.17848106,-0.07509892,0.25387904,-0.2786848,-0.1939559,0.17063482,-0.24313822,0.107175,-0.084007345,-0.042049985,0.13459793,-0.17734733,-0.11189404,0.08048457,-0.14261237,0.29956153,-0.099357285,-0.05449611,-0.15563849,-0.11051141,0.11172374,-0.15135795,-0.08019262,0.25885427,0.004416728,-0.09835208,0.22373511,-0.22082366,0.27699995,-0.114870556,-0.17582208,0.29916725,-0.097884245,0.3898626,-0.24967544,-0.087787546,-0.0038757704,0.14142111,0.10572827,-0.23835017,0.33201683,-0.2529841,0.09530507,0.18555366,-0.19081593,0.06770773,-0.16172679,0.040764242,0.09737292,-0.24395938,0.07555735,-0.039145954,0.13635242,-0.1774709,-0.17247552,0.12730436,0.13514198,0.13096438,-0.2474841,0.09543614,0.24509886,-0.14885405,-0.21004023,0.13019396,-0.17229483,0.2300477,0.23447868,-0.109703995,-0.34578323,0.2196971,-0.07274784,-0.020144336,0.19138205,0.18976574,-0.03879185,-0.17181273,0.09928324,-0.04149538,-0.086301826,0.12593423,-0.158272,-0.046913937,0.07374011,0.17620005,-0.11537867,0.20109555,-0.057810545,0.29089662,-0.3377062,0.0038673293,-0.0577136,0.07242468,0.019382395,-0.023775246,-0.02643819,-0.28981408,-0.13849679,0.12856206,-0.23623602,-0.124905184,0.1502356,-0.25988355,0.0012011353,-0.07236804,0.072574615,0.26142582,0.12531148,0.036003932,0.034262076,-0.17484082,0.18570188,-0.05342048,-0.099405035,0.048010245,-0.043684814,0.090036236,-0.05941117,-0.1448553,0.047872692,-0.11632502,0.021495795,0.32276216,-0.042752128,0.01620257,-0.14732356,0.10034034,0.1358339,-0.026920952,-0.25382844,0.059627477,-0.27550822,0.3128201,0.054744355,0.204009,-0.0046106903,0.11189927,-0.11903957,-0.09315598,0.11601952,0.17959876,0.033830814,0.05684105,-0.3715947,0.20325159,0.16019219,-0.29115433,0.3752307,0.11862868,-0.16372836,-0.040567387,-0.17904006,-0.13244066,0.047758643,-0.04189025,-0.048384886,0.1600387,-0.26663533,0.11581892,0.077027,0.07997233,-0.1027127,0.09302753,-0.06668421,0.030883469,0.26930472,-0.1631405,0.2857857,-0.3176425,0.2874959,-0.32924953,0.040223747,0.14777264,-0.10379805,0.061529033,0.36172426,-0.16151263,-0.11661444,-0.078304596,-0.059533343,-0.118674695,-0.10923464,-0.07243818,0.16102605,0.033905417,0.21585928,-0.23913115,0.19366251,0.0031917642,0.28027925,0.028129326,-0.2635067,-0.15630402,0.15115376,-0.08782183,-0.3123746,0.249544,0.05810152,-0.087109126,0.075483985,-0.15874311,0.022851674,-0.13210726,0.0836393,-0.23112996,0.30223483,-0.15461804,-0.062511295,0.31101823,-0.1570019,-0.10221626,0.2124697,-0.21011436,-0.19329764,-0.20811138,0.25003934,-0.18745731,0.07725046,-0.011973413,0.18225355,-0.100285955,0.09422376,0.016544627,-0.25601563,0.17433143,-0.13871825,0.31153738,-0.12863728,-0.034093443,0.008632842,0.027658485,0.21918382,-0.14499958,-0.28896272,0.29600525,-0.06274501,-0.10505389,0.3671504,-0.2559479,-0.08971096,-0.03279588,-0.11254344,-0.20606507,0.11456767,-0.22979122,0.1942679,0.05865069,0.03270965,-0.037660085,-0.42885667,-0.019727217,0.21172372,-0.2636217,0.18347348,0.22127497,0.09376784,0.10916351,0.15933512,0.107825086,-0.2944499,0.08978635,0.049255997,-0.19477461,-0.008627283,-0.19161326,0.014088963,0.32053065,-0.03785055,0.055666074,0.24028827,0.083701015,-0.13166821,0.020728093,0.08730857,0.06360271,0.30171356,-0.07317552,-0.051506534,0.023033608,0.09789695,-0.056097794,-0.09691432,-0.27037668,0.13257743,0.1642465,0.08927334,0.10769813,-0.28602973,0.21666075,-0.3959278,0.1817043,0.04994623,0.06495771,0.074541315,-0.12561837,0.16528127,-0.33784613,-0.12380014,-0.25070575,0.214585,-0.20958146,0.17766237,-0.17488539,0.23524801,-0.11171962,0.31549835,-0.14130494,-0.035066217,0.2162827,-0.39844745,0.32209605,0.23592962,0.0738727,0.12501077,-0.2862753,0.2759699,-0.1924799,0.012456501,0.19341598,-0.26206896,-0.112744935,0.118915424,-0.09106202,0.24741393,-0.23131226,-0.13718821,0.21531008,0.22178006,-0.12629049,-0.13669036,-0.014751015,-0.20368387,-0.011279698,-0.3142103,-0.24884014,0.19293892,0.0074124876,-0.09961405,0.17702319,0.11707155,-0.17400083,-0.21719404,0.0037410273,-0.14430386,0.28360933,-0.08226632,-0.068209074,-0.0038290708,0.16503166,-0.30884334,0.034670163,0.12296575,0.0030789122,-0.0030859995,0.18948004,0.19339773,0.13991278,-0.013275567,0.10873252,0.0683976,-0.114041515,-0.066535965,0.065370716,0.09480597,-0.1837908,0.074474365,-0.21265191,0.04851028,-0.0059129074,0.2193573,-0.084481336,0.022529056,-0.22681957,-0.1294747,0.21146962,-0.06233393,-0.01555807,0.10741547,-0.0365857,0.1176291,0.045672175,0.020442352,-0.0798145,0.10455212,-0.34775653,0.029659081,-0.109253004,-0.09807979,0.1079207,-0.41720137,0.27656105,0.17227313,-0.11288491,0.13047731,-0.4182771,0.3117544,0.06073861,0.25892124,-0.2145119,0.002390101,0.10886307,0.04005079,0.30754977,-0.061460096,-0.09647964,0.0053423704,0.11014495,0.02501786,0.16967902,-0.34623158,0.012239861,-0.038846042,-0.120877534,0.19005965,0.08223509,-0.04106571,0.16345817,0.13608393,-0.16057266,-0.04118118,-0.09577713,-0.063180104,0.36478627,0.23849474,-0.12629773,0.3203811,-0.2603864,0.10512089,-0.12322944,0.069608904,-0.20359805,0.025441682,-0.15212534,-0.19631267,0.08387403,0.072060734,-0.031734582,-0.06749917,0.11723454,-0.07186214,-0.19427426,0.27185556,-0.28804782,0.22531064,0.14103924,-0.19868968,0.36815393,0.20362082,0.018500164,0.034042507,0.2590496,-0.07840725,-0.18566938,0.021018414,-0.15450458,0.098125294,-0.38409364,0.2197049,-0.1115668,0.14060788,-0.087595925,-0.09412113,0.1012555,-0.31009638,0.04359695,0.2556278,-0.20378202,0.0826206,0.034642477,0.17955443,-0.015649337,-0.26234365,0.18181562,-0.048279196,0.13515627,-0.2547124,0.13283886,0.1263197,0.13096906,0.0072143786,0.14695568,-0.14112653,-0.1698482,-0.069099896,0.3830255,-0.2601436,-0.020820905,-0.24644484,0.04855861,0.14929543,0.23467089,0.06817057,6.595497E-5,-0.3041754,0.057391603,0.021928424,-0.046945293,-0.079609044,0.13939941,-0.18166463,-0.044764183,-0.06088752,-0.019497778,0.17939048,-0.060214765,0.04931517,0.09736096,-0.13629755,0.09847562,-0.12223563,-0.22964256,0.17774698,0.108492136,0.28462207,0.18474068,-0.14595106,-0.18826626,0.010097796,0.17354581,-0.1339967,0.30533776,-0.259915,-0.0058327075,0.18911189,-0.32165802,0.20041448,-0.17171128,0.23460466,-0.2957522,0.16335104,-0.322729,-0.040420644,0.15702333,0.20998958,0.33801132,-0.18274127,-0.09590232,0.39216185,-0.19273655,-0.3203961,-0.27033728,-0.15488636,0.2587618,-0.1902283,0.23101568,-0.021536572,0.080262214,-0.14619157,-0.26274523,0.31677672,0.024754887,-0.33030862,0.18586165,-0.10982335,-0.0049178028,0.14684866,0.15165952,0.039811913,-0.15889128,0.10295426,-0.05450235,0.016338168,0.12907554,-0.05951898,0.08859076,-0.23602477,-0.12416468,0.07236588,0.11551167,-0.09704451,0.21681517,-0.1766527,-0.16998497,0.08547154,0.24147384,0.17807408,0.04899379,-0.33881178,0.1274078,0.086009786,-0.009309609,0.027874103,-0.1065528,-0.28727353,-0.33218253,0.2128377,-0.15512685,0.18331487,-0.26796582,0.020581014,-0.1606498,0.164179,0.13478999,-0.13766071,0.2332656,0.097682096,0.11561261,-0.20936407,0.03848434,-0.22298066,0.23296368,0.063748054,0.14900953,-0.23816702,0.26589906,0.21674548,0.13221276,-0.22715764,0.22966498,0.24332121,-0.13711992,-0.2955798,0.038010735,-0.053426392,0.09881573,-0.012803612,0.15072306,0.13172033,-0.12662096,0.0060980143,-0.14321585,0.16324148,-0.10186418,-0.27608496,-0.11197835,-0.27760494,0.22060357,0.3910067,0.008804918,-0.109360576,-0.28702918,0.29642138,-0.031371575,0.085023865,0.0033776022,-0.04829902,-0.088436514,-0.052140404,0.28498834,0.33356088,-0.24389002,-0.010999777,-0.20210716,0.021389622,-0.19175439,0.09958527,0.17093478,0.030151127,0.23286356,-0.102089554,-0.18032761,-0.053576123,-0.23408143,0.0537283,0.33994344,-0.1628177,0.18768108,-0.23000635,0.14898196,0.04069006,-0.10720529,-0.15174392,-0.15363438,0.1362521,0.008265959,-0.2109621,-0.23253947,0.05462825,0.4056716,0.06803325,-0.11824751,-0.032092355,-0.11134459,-0.006002182,0.17304519,-0.013237885,0.11464624,-0.05767933,-0.011269854,-0.030053582,-0.08146303,0.047774103,0.12585744,0.16675887,-0.34282365,0.26809752,0.02047315,0.025907226,-0.06878241,-0.05511964,0.1083931,-0.018628472,0.31356427,-0.0100048585,-0.08431805,-0.021908505,0.05742264,-0.20303057,-0.095576786,0.17961013,-0.14450184,-0.19372544,0.05475324,0.10433035,-0.085996285,0.13226792,0.16683362,-0.2516643,0.23664844,-0.19417763,0.098185234,-0.06356964,0.2828346,-0.08648029,0.03812254,0.27108252,-0.006813139,-0.28880793,0.1745698,0.05009487,-0.04448222,0.24121909,-0.282882,-0.29879448,-0.18818793,-0.16038767,-0.03837596,-0.32570395,0.23366085,0.06892792,0.20942459,0.16362907,-0.23278973,0.03429976,-0.23650743,-0.09921686,0.12332133,-0.07547632,0.25135183,0.2267816,0.013681354,-0.05525409,0.04201338,-0.17485093,-0.118974306,-0.03633156,0.13392189,0.09985436,-0.124461085,0.11179578,-0.18716818,0.18139257,0.18471299,-0.04477788,-0.11490008,-0.037467036,-0.120407835,0.0072820103,-0.12485939,0.15354337,-0.21894564,0.2504322,0.0017965897,0.18761878,-0.18541531,0.034747645,-0.02375346,-0.19811098,-0.08896032,0.39465293,-0.29646373,0.29418445,-0.35491025,-0.045125205,-0.14820984,-0.2147971,0.21911265,0.0048669963,0.14030744,0.035961207,0.17014122,-0.088043384,-0.0039069443,-0.12939034,-0.18494987,-0.13231896,0.17521277,0.16308606,0.033246543,0.06426987,-0.008241328,0.24645862,0.15582299,0.14954868,-0.31680787,0.33223233,-0.34234837,-0.13597822,-0.103721105,0.117044985,0.18547735,-0.061259463,0.011310936,0.15671223,-0.1943368,-0.012892207,-0.24384628,0.1150089,-0.28932554,0.20320837,0.06529043,0.01738269,-0.020021373,-0.29154637,-0.19776393,0.243928,0.046505574,0.11293475,0.16889164,-0.13922705,-0.19727618,0.23194994,-0.101183936,0.14855959,-0.039416462,0.08865725,0.12559927,0.24602391,-0.09433255,0.12070306,-0.13349225,-0.34331262,0.14830525,-0.1087592,0.15404068,0.014250596,-0.16671056,-0.061426993,0.0842192,-0.12734944,-0.16442816,0.037132073,0.067888044,-0.16240326,-0.3050477,0.28577602,0.05078043,0.06683059,-0.100692414,0.16867316,-0.103142224,0.13424036,-0.11119204,-0.069081,0.08015491,0.19564073,-0.3030615,0.38427186,0.28296152,-0.13164291,0.10441055,-0.037923582,-0.24171418,-0.27653563,0.15392347,-0.2060354,-0.124666944,-0.0023982844,-0.17036745,0.20097552,0.12659651,0.21755417,0.15846995,-0.09503423,-0.18289563,0.26185873,-0.2676743,0.20755315,0.3192963,-0.42062575,0.11683719,0.3118163,-0.25680476,0.014798291,-0.13000032,0.34922376,-0.09697351,-0.085405886,-0.27477443,0.11016057,-0.26486427,0.24279228,-0.2378356,0.10067856,0.18436316,-0.19325857,0.2578195,0.19272009,0.00567713,0.044098556,-0.21844819,0.16549826,-0.17332792,0.16662712,-0.20495951,0.040930107,-0.14506175,0.1629834,0.23051694,-0.26653215,-0.08539319,0.23332393,-0.2392012,0.082640976,-0.17584577,0.03581192,-0.17548339,0.34808832,0.014801878,-0.17044893,-0.25976416,-0.20292446,0.11024384,0.059180833,0.18603367,0.014583509,4.982656E-4,0.10523403,0.07199914,0.17312467,-0.028334247,-0.08383055,-0.008228971,-0.046183217,0.17148285,0.18971713,-0.13415916,-0.18529776,-0.086822666,-0.18221566,0.27538475,0.25153375,0.15465106,0.18761846,-0.08021398,0.011481546,0.15351513,-0.3592034,-0.06860407,0.15381616,-0.08010737,0.107371114,0.15645555,-0.25087154,-0.27230132,0.2017053,-0.2163839,-0.075045325,-0.08391542,0.3001929,-0.34562528,0.12177897,-0.2748732,0.19862036,-0.19602658,0.067516364,0.033725932,0.016300356,0.12389596,-0.3406353,0.18726653,0.023706611,0.15417066,0.24844198,-0.07988046,0.14251022,-0.093409434,0.19053735,0.13977101,-0.17622967,-0.23567486,0.17720659,-0.24787799,0.040391915,-0.20654672,0.018828567,0.120706454,0.10820982,0.0779627,-0.2462231,0.15794806,-0.0014298859,-0.1251007,0.18393365,0.044638813,0.2652475,-0.2846083,-0.12243607,0.16340712,0.020307451,0.047266193,0.20306544,-0.14962399,-0.06770016,0.06010237,-0.04001129,0.07358836,-0.22895153,-0.17907827,-0.23156169,0.3483804,0.028473863,-0.13977149,0.069104835,-0.14076668,0.19456373,-0.17823315,-0.107177764,-0.0714966,-0.039701942,0.08450947,-0.045964945,-0.33886737,0.09212985,0.122341976,-0.06842094,0.12943411,0.10240174,0.046346996,0.096578896,-0.11603277,0.18624447,0.021864828,0.28048363,0.25902718,-0.3460389,0.08428815,-0.11955759,0.3192898,-0.042953063,0.037764333,-0.021482155,-0.36472553,-0.03523756,0.1264588,0.13953814,0.052908253,-0.03147999,-0.12427545,-0.02453493,0.052559096,-0.07051768,-0.23002723,-0.21865298,0.069460995,0.23603062,-0.08694036,0.056279052,0.30703673,-0.37443247,0.053565457,-0.20673294,-0.1107351,0.054640617,-0.087561645,0.22375709,0.14859302,-0.16117805,0.15530293,0.1259578,-0.3876505,0.25275245,-0.23411646,0.02484695,0.036622826,0.13833268,-0.20645824,0.1755269,0.2906301,-0.12842803,-0.0035629664,0.08923215,-0.20133267,0.23985073,0.04364876,-0.17443696,0.04768832,0.28717396,-0.34644443,0.13568725,-0.10366941,-0.059618678,0.17031232,-0.05268348,-0.2456673,-0.002974152,0.11368058,0.05858105,0.22958672,-0.22119257,-0.08955785,0.05481578,-0.11073821,-0.14308101,0.13157003,-0.13102724,0.15651989,0.037127256,-0.29478973,-0.022784302,0.27408814,0.10478571,-0.2512922,0.09212108,0.157387,-0.20713365,-0.053458277,0.04220611,-0.3576917,0.311822,-0.15569419,-0.09826121,-0.15139833,0.24025388,0.03337195,-0.07052073,-0.3444589,0.1930639,0.25714937,0.10227486,0.2565955,-0.12512183,0.034114715,-0.13798892,-0.13399944,0.30671638,0.056933686,0.08307595,0.07054432,0.22414516,-0.22974658,0.34859312,-0.11418876,-0.24907753,0.36751974,0.090842515,-0.23838288,-0.19669199,0.17913726,-0.3522964,0.27766165,-0.18687144,-0.038024694,-0.21886651,0.20299259,-0.25127578,0.06934182,-0.028452327,-0.009800236,0.33900186,-0.17703125,-0.27355897,0.19204207,-0.26778245,0.042955518,0.23280314,-0.030834362,-0.17732546,0.020808553,-0.042152017,0.19449961,0.09990819,0.21256796,0.025147522,0.088827185,0.22540595,-0.088254124,-0.39483047,0.007090314,-0.0014109862,-0.05773797,-0.28439537,0.12179813,-0.14687459,0.011376092,-0.17484777,0.08793534,-0.113951385,-0.19585098,0.17914316,-0.049913883,0.2796772,-0.014209896,0.2633168,0.09944335,-0.14819524,-0.0632531,-0.084534176,0.052039303,-0.057009466,0.2897091,0.018778713,-0.12618533,-0.05591397,-0.10927229,-0.06409313,0.29073188,-0.11240449,0.16054097,-0.01123904,0.36415654,-0.18247521,0.094344184,-0.05909465,0.28811547,0.14466375,-0.17100383,-0.28566673,0.046489604,0.09875293,0.008495014,-0.19517669,0.13859317,-0.3097768,0.17942926,-0.13974276,-0.05985495,0.073652126,-0.25476205,-0.097325884,-0.10455612,0.091268465,0.19605702,0.02566286,-0.25370958,0.04405713,0.12114217,-0.2353081,0.19539872,-0.036860522,0.072932445,-0.026504884,-0.043133605,0.029179996,-0.041103967,-0.20309347,0.16440049,0.1579362,-0.33218408,-0.11478838,0.17785364,-0.019709682,-0.04102902,0.22567679,-0.11764083,0.11901365,-0.031776868,0.07806383,0.24905397,0.14129259,-0.1836232,-0.20719846,0.0086381,-0.13399915,0.0130272675,0.002888987,-0.29483202,0.2273505,0.086786054,-0.21605198,0.007985311,0.13063127,0.09192778,0.16925564,0.07644665,-0.31256312,0.105719455,0.078308515,-0.20189808,0.20765105,-0.093814924,0.18149197,-0.12716046,-0.15989673,0.21835539,0.020823697,0.0673017,-0.034644704,0.07155567,0.1579935,0.066669725,-0.2063196,0.3495707,-0.25678158,0.18630207,0.023705592,-0.25016472,-0.1671874,-0.21578339,-0.21593513,0.094408065,-0.23317489,0.0635292,0.22281335,0.015899513,0.06056033,0.23541461,-0.17920877,-0.08179816,-0.10671704,-0.091003686,0.040339544,0.099461794,0.09718694,-0.20709616,-0.1808526,-0.1805306,0.003221648,0.098084256,-0.11618422,0.060745873,0.32165846,-0.100223094,0.24191467,0.27392933,-0.08440751,-0.07329903,-0.1461359,-0.17426969,0.23267691,-0.06803643,-0.052255813,0.31695238,-0.2861992,0.29955813,0.13752738,0.2434405,0.32945722,-0.19609147,-0.29640338,-0.14326558,-0.16851726,-0.10096034,0.14339128,-0.11309565,0.22323176,0.1313041,0.07989727,-0.13129649,-0.13253006,-0.29325974,0.19287738,-0.22669429,-0.028658232,-0.25144452,0.106146,0.13063599,0.35303727,-0.16888694,0.34782544,0.064530246,0.027215682,-0.19750722,0.23724434,-0.010667963,-0.2053438,0.09972405,0.08045485,-0.34541404,-0.021582175,0.17963053,-0.12632173,0.10055251,0.14445251,0.01169752,-0.11338254,-0.075647585,0.16913728,0.12224564,-0.12256633,0.2712264,-0.14979695,-0.28827164,0.03820066,0.13457158,0.14942239,-0.27790773,-0.014857604,0.010287368,-0.08624874,-0.10175361,0.09833788,0.22731215,0.07225247,-0.2214477,-0.26483986,-0.009575428,0.3031874,-0.023666967,0.18213734,0.039399013,0.06574037,-0.17972916,-0.23371498,-0.14095005,-0.20397756,0.32940882,0.111151606,0.31318033,-0.18219353,0.28086525,-0.24305327,0.06485946,-0.068232454,0.013716989,-0.020942718,-0.22409895,-0.087131456,0.2646247,0.006505467,-0.20009892,-0.09154079,-0.24313559,0.13658692,0.15027979,-0.10495742,-0.069956064,-0.060609043,-0.10237406,0.017254908,0.05020448,0.095203824,0.294732,-0.30282968,0.018614601,-0.10230574,0.32768336,-0.18180642,-0.042915963,-0.004099455,-0.2060417,-0.3443157,0.38167098,0.24222383,-0.22529733,0.007467912,0.2893804,0.07772313,-0.21160293,0.4366381,-0.14546116,-0.13983455,0.41406003,0.18109892,-0.075178966,-0.078280054,-0.30866027,0.18105067,-0.2952469,-0.012393976,0.04664574,0.110322185,0.16381486,-0.089054264,-0.061476313,-0.09748174,-0.030685553,0.08339967,0.060617562,0.09626837,-0.09299699,-0.16313572,0.45791355,-0.059320994,7.2596746E-4,0.15196894,-0.14658087,-0.0012943026,-0.22815426,0.13540538,0.059547815,-0.16683179,0.14969917,-0.18242858,0.028023003,-0.040621385,-0.24615873,0.012995147,-0.111299686,0.0127075985,0.10673634,-0.05208579,-0.07899197,0.13725822,0.33081326,-0.10835811,-0.184323,0.3619042,0.03544268,-0.058786146,0.27445403,0.0065579684,0.22613448,-0.22894208,0.035861857,0.055995964,-0.33762288,0.22983555,-0.061758935,-0.005328369,0.067334846,0.31565717,-0.24800283,0.031831726,-0.25444767,0.20723613,-0.2575952,0.20370969,-0.1540489,-0.07086622,0.10063707,-0.17272331,0.14686553,-0.091958955,0.10300162,-0.06941267,0.14016633,-0.042431552,0.1383438,0.06971432,0.044254836,-0.22903678,0.08035869,0.032527253,-0.15506333,-0.021059558,0.11730629,0.10088722,-0.29880583,0.06555121,0.07383244,-0.21275173,-0.20217864,0.031045191,0.07039135,0.032003704,-0.30521467,-0.027093723,0.053880762,-0.15916961,0.0078031034,0.32247648,-0.13437623,0.121343516,0.17740455,-0.1357354,0.094179824,0.24092446,0.3421009,0.059545357,-0.1884263,-0.10022377,0.10414481,-0.043558523,0.17964809,-0.09790054,0.010769066,-0.13019961,0.20287183,0.10124773,-0.20469311,0.07263289,0.1399549,0.08532265,-0.21074532,0.0070324065,0.19615693,-0.062266584,-0.1105226,-0.06932102,-0.12913932,0.07958306,-0.1705849,0.1658923,0.17277896,-0.37415838,-0.04144256,0.32476014,-0.046393953,7.7829836E-4,-0.36237448,0.244631,-0.0674537,-0.055925675,-0.091146186,0.2896343,-0.2532472,0.08036462,0.06403786,-0.13976118,-0.08811947,-0.04195132,0.33389762,-0.13177405,0.05363118,0.16746417,0.11093764,-0.23393384,0.17477655,-0.026906364,-0.18335925,-0.20548093,0.12215863,0.16290414,-0.23415251,0.0990066,0.13686292,-0.027018497,-0.08195028,0.030465072,0.18824741,0.10371959,-0.057291843,-0.08203367,-0.053195596,-0.10665243,-0.094734915,0.2180865,-0.11702671,0.29623634,-0.29178017,0.38493097,-0.3185855,-0.0753564,0.06020565,-0.16608919,0.109831676,0.26795906,-0.13403486,0.22731477,-0.24595107,0.23153967,-0.273127,-0.12125261,-0.05004436,0.25970772,0.019829465,0.13700534,-0.051932316,-0.10091407,-0.08063479,0.12918587,-0.1684633,0.04387521,0.2416512,-0.055249393,0.06362665,-0.1992075,-0.22190186,0.29649204,0.0062993057,0.13426636,0.04556266,-0.03333444,0.16191895,-0.19280757,-0.22892037,0.37408423,0.15771541,0.15728186,-0.08362584,-0.30668256,-0.11894665,0.25320938,-0.15707213,-0.1892291,0.2379742,-0.07697884,-0.061934274,-0.2067146,0.050533537,-0.017125003,0.04092106,-0.13385212,-0.11511659,-0.08740303,0.03273694,0.020197434,0.37132317,0.14051352,0.016852673,0.3091792,-0.0060291877,-0.09334522,-0.20593704,-0.17143214,0.16994508,-0.113345586,0.14894484,0.26811135,0.092830054,-0.23286505,-0.08273865,0.21147738,-0.16932231,-0.11923292,-0.21064822,0.0014845969,0.28001565,-0.3217468,0.2553346,-0.37988713,-0.13295785,0.19197282,-0.035155486,0.238783,0.23884773,-0.037408113,-0.27983987,0.1602423,-0.13129327,-0.034431584,0.15599282,-0.071513034,-0.16653514,0.19386071,0.1513866,-0.076295204,-0.095202275,0.015401175,0.05550304,0.117940575,-0.25461018,0.021256711,-0.007486059,0.15164138,-0.32543683,0.027115159,0.20662817,-0.11410698,0.12891479,0.09697791,0.111045286,-0.34226218,0.111932725,0.02374884,-0.15239993,0.05434244,-0.045901336,0.21011403,0.07941699,-0.27671006,-0.034131255,0.119521365,0.18404557,-0.100894816,0.0336567,-0.14067204,0.34942323,0.009253274,-0.23676112,-0.23291725,0.11345945,-0.071328536,0.16914958,-0.057970848,-0.056745116,-0.27456728,-0.0014117743,0.2146305,0.054787766,0.13820516,0.14680861,-0.20778975,-0.09543266,-0.13104935,-0.35384816,0.028712265,0.0043790946,0.075980544,0.24731897,0.0675512,-0.049025923,0.26151294,-0.46190527,0.11018124,0.13556585,-0.09674558,-0.11432926,0.27668795,0.071475774,0.022004291,-0.16979858,-0.27623427,-0.06592434,-0.09300408,0.18987563,0.1247402,0.119659916,-0.35216564,-0.09909992,0.23343326,-0.12335666,-0.039503627,-0.105691604,0.0404825,0.33233666,0.030888395,0.08986939,-0.2929638,-0.118056744,0.07069682,0.1812602,-0.21792749,0.27298874,-0.28991178,0.22163133,0.15027913,0.11300821,-0.056406878,-0.28681672,0.02953814,-0.1948353,0.021830374,0.004288901,0.025234817,0.10362039,-0.15747385,-0.016707815,0.12023062,0.07342457,-0.12305068,0.18964644,-0.024513407,0.13566674,-0.16449828,0.1725145,-0.042505138,0.06827486,0.21533549,-0.24801499,0.23850009,-0.109972715,-0.110685185,-0.0692358,0.06248649,0.052258823,-0.13179621,-0.0028570537,0.11919,0.21935518,-0.36806613,0.24760726,-0.09156876,-0.19444098,0.3664052,-0.13293174,-0.16738811,-0.16269359,0.11342147,0.03050326,-0.10032632,-0.1815972,0.08610266,-0.25980783,0.024048835,0.05016765,-0.16534597,0.13311632,0.07455436,0.2130166,0.10842329,0.0064130328,0.0679188,-0.24924056,0.2134407,-0.16899228,0.17972077,0.17579055,0.21754336,-0.08297088,-0.3288217,0.13588658,0.13120946,0.055889882,-0.110252224,-0.30571926,0.27146605,-0.22086181,0.12585147,0.19947824,-0.19644326,-0.22104621,0.15657927,0.11395839,-0.28566766,-0.28970805,-0.026488103,0.15563314,0.09599544,0.24987987,-0.026986402,0.1402341,0.22270977,-0.33698907,-0.153119,0.022846477,0.17875135,-0.009502919,-0.076495506,0.035204064,0.18810464,-0.29439667,-0.04756734,-0.17470075,-0.28190798,-0.056259595,0.24600074,0.087354794,0.16930404,-0.25424287,0.25603426,-0.08154707,0.048015155,0.096090615,-0.17776948,0.45100182,-0.09300388,0.19355202,-0.2633285,0.17038059,-0.10637552,0.018529082,0.19889891,-7.448196E-4,-0.0282479,-0.26022914,0.14970022,-0.09301447,0.24507193,-0.17672063,0.13598059,-0.05483118,-0.11749651,0.13935107,-0.25676188,-0.030168021,-0.055772714,-0.017681476,0.07470048,0.032984946,-0.11133742,0.28090364,-0.18268476,-0.2028492,0.09931062,0.13919239,0.106891766,0.33219528,-0.28266814,0.18289427,-0.024109105,-0.09638592,