-0.06407915,0.3575468,-0.15271217,-0.100949675,-0.24682494,0.4307774,0.029333329,-0.1699188,0.13826507,0.25978088,-0.003106003,-0.22755526,0.24744008,0.21362372,-0.092018045,-0.13615483,-0.22690627,0.07903263,0.2727345,-0.09438833,-0.42646745,0.058809586,0.11267259,0.3107471,0.102816835,-0.10285697,0.30958548,-0.2595544,0.06066789,-0.07567164,0.09735014,-0.11012337,-0.2929563,0.16694139,0.102560185,0.046627514,0.19750577,0.10203623,-0.31883186,-0.012226038,-0.17906813,-0.31633392,0.05828861,0.45232835,0.027598275,-0.24614944,0.09015221,0.18176231,0.36045915,-0.24561755,-0.4175667,0.30447048,0.3271455,-0.095558375,-0.12973467,-0.08398211,0.043347083,-0.26995778,0.27546838,-0.09830122,0.121361814,0.061886113,-0.048925318,-0.15108097,-0.15760158,0.16257082,-0.048486236,0.12679687,0.061054073,-0.10770835,-0.14906374,0.12594715,0.003230179,0.3641295,-0.24666078,-0.10390816,0.29558387,-0.15867066,-0.12412206,-0.022571426,-0.20630734,-0.053377386,0.42554218,-0.0037403281,-0.05092805,0.16832519,0.21280263,-0.17609006,-0.21887651,-0.31102645,0.33433875,0.33096159,0.14238304,0.29369032,0.08618374,-0.34210128,0.049855813,0.2903411,-0.16842979,-0.050488357,0.08435144,0.12062269,0.2505677,-0.42207596,0.33932608,-0.067900926,-0.17501305,0.033659067,0.13938193,0.17713909,-0.20036298,0.010881989,0.021245604,-0.09967491,-0.013743546,0.08023868,-0.20833041,-0.10443703,0.17733222,0.19480066,-0.18608834,-0.07461041,0.061333477,0.1648791,0.06397558,-0.04550246,-0.22521022,0.15312666,-0.21412557,0.26529264,-0.04770786,0.01701325,0.31402227,0.14392425,-0.053604815,-0.35741422,-0.2884204,-0.2256145,0.35521564,0.2758326,0.20081887,-0.4914158,0.23568836,0.06581233,-0.17904627,0.385354,-0.098541886,-0.049917344,0.10325819,0.21774247,-0.1344461,-0.17298341,-0.3567673,-0.10702245,0.42639017,0.07571511,-0.1970981,0.12043564,0.048315138,0.041937526,-0.12400256,0.15811561,0.16155131,-0.18830311,-0.0930818,0.06943163,-0.25734276,0.26257145,0.20254025,0.16928837,-0.123243414,-0.26165792,0.17543688,-0.07583383,-0.14026505,0.017666928,0.022836829,-0.28062168,0.43344185,0.10381377,0.03772256,0.12645759,0.041852225,-0.13800438,-0.15386808,-0.17322335,0.31669316,0.20343141,0.2543068,0.18848963,-0.08959192,-0.20159784,-0.121509664,0.23385246,-0.1668757,0.105556324,0.13973872,0.11428738,-0.22983816,0.044188187,0.01680036,0.28230867,-0.1281736,-0.0636978,0.33627117,-0.058394596,-0.14129567,-0.09921886,0.08376533,-0.2041098,0.28995007,-0.12781563,-0.2013764,-0.20661423,0.20904012,0.24674109,-0.23411395,0.15535353,0.2668136,-0.16245103,0.058596052,0.003458858,-0.14125532,0.0749282,0.18292058,-0.20665415,-0.003450863,0.05959674,0.29430768,0.12916704,0.0052665723,-0.40655175,-0.06711396,-0.14842066,0.020917961,0.27647385,-0.1681823,-0.06758645,0.26955447,0.031238334,0.22112891,-0.03210188,-0.10951291,-0.07950526,-0.02151811,0.32078752,0.14459892,-0.41359222,0.047773253,-0.4997505,0.21941875,0.2443509,-0.24675204,0.36198148,-0.03135543,0.007537132,0.08341852,-0.005915287,0.10762777,-0.20869373,-0.3006571,0.21794271,-0.07075811,0.15475722,0.19953823,0.20392261,-0.20962887,-0.1664431,0.07040125,0.12936957,-0.056405816,-0.17316633,-0.24741909,-0.094136745,0.48904634,0.16047184,-0.027694305,-0.020412503,0.20038252,-0.11475735,-0.12043511,-0.2571467,0.08028313,0.40041015,0.014530642,0.34332135,-0.2671195,0.04263404,0.064895205,-0.014638287,-0.0597446,0.062254515,0.36756656,-0.014999474,-0.12884748,-0.1476185,0.41408053,-0.025845416,0.2324601,-0.5123766,0.2136502,0.15706758,-0.07488406,-0.14805728,-0.113955095,0.071206935,-0.016383989,0.07224246,0.053516433,-0.29377294,0.1124069,0.17143697,-0.07625634,0.08702874,0.013377292,0.046945725,-0.16074976,0.19401196,-0.06482971,0.032668382,-0.017292956,-0.054057952,-0.2226733,0.27964303,0.1892819,0.12045574,-0.4580737,0.13535428,0.044996936,-0.3982718,0.52980864,-0.09910066,-0.06588676,-0.26738065,0.113729216,0.25675023,-0.0721585,0.1762558,0.25456843,-0.33975145,0.122741714,0.18040581,-0.3860146,0.08830375,-0.21672824,-0.48612535,0.24543056,0.39536572,-0.32331982,0.19321041,-0.062288653,0.20282206,-0.3088965,0.41097867,0.10235846,-0.17888983,0.18465589,-0.03407574,0.039061207,-0.1894925,-0.16497384,0.55013156,0.12789711,-0.48018578,0.05837429,0.10805079,-0.2533044,0.09894194,0.06239845,-0.24231264,0.47833398,-0.07457606,-0.29797253,0.2538805,0.17244264,-0.052428592,-0.37160107,-0.08265081,0.24232477,0.40860134,0.41151068,0.17039166,-0.22277491,-0.19642307,0.27953613,0.15389584,-0.15291838,-0.20167288,0.011279422,0.1917679,-0.105829135,-0.0436586,0.23934105,0.22851476,-0.07623337,-0.33080032,0.023994897,0.35058385,-0.035783004,-0.2900593,0.058495156,-0.07105874,0.114311405,-0.03294873,-0.44222555,-0.058474276,0.31961963,0.2360064,-0.21389423,-0.027206894,0.24277984,0.035907526,0.09415697,0.045499153,-0.10663605,0.048454627,-0.08723067,0.039340563,0.091105446,0.033783104,0.10951267,0.28279647,-0.3339766,-0.08302946,-0.14546065,-0.20098552,0.46863258,0.0010574774,0.16229421,-0.45760265,0.23658296,0.1080058,0.105682775,0.11425161,-0.26055548,0.017481126,0.2395108,0.22390263,-0.40162334,-0.049412526,-0.3271568,-0.18576676,0.39624193,0.15532184,0.11481698,-0.06287194,0.1322025,-0.14568847,0.028900633,-0.027715445,-0.05812021,-0.044499733,-0.08665108,0.063665316,-0.04251001,0.11477318,0.10255648,0.35017037,-0.103112005,-0.2874179,0.3144357,-0.17188866,0.026854161,-0.21532264,-0.42815363,-0.05661836,0.3438637,0.4200147,-0.028192014,-0.14414379,0.06616451,0.093261644,-0.067919075,-0.1404687,0.16200209,0.18266614,-0.12489239,0.30660066,-0.14403662,0.073704585,0.15961197,-0.04886161,-0.20509227,0.16439982,-0.11557907,0.4012309,-0.0021960654,-0.20489836,0.1995681,0.23543018,-0.10179676,-0.16572423,0.45266882,-0.079169795,0.07139056,-0.27981186,-0.04417016,-0.20894757,0.12964095,0.07657038,-0.21719444,-0.16101106,0.16633448,0.24712782,-0.27622354,0.23706171,0.19772224,-0.14141254,0.18254803,-0.22435294,-0.14048472,0.0634336,-0.14661457,0.10704045,0.022669815,0.026340727,-0.20887926,0.43793887,-0.1794515,-0.06783269,-0.23745687,-0.10143619,0.024499614,0.3731962,-0.22577846,0.014610275,0.13223132,0.16189441,0.18003702,-0.09227333,-0.22568356,0.1842602,-0.033698004,0.24958575,0.04840543,-0.22984667,0.25131613,-0.6300798,0.25266033,0.14401126,-0.1611026,0.18286794,0.11049126,-0.08905321,-0.12992272,0.350477,0.060081907,-0.2006581,0.06675234,-0.09299539,0.13170208,-0.14503509,0.22065407,0.2794997,-0.04181455,-0.47765484,0.030380854,0.07957889,-0.17774253,0.072532974,-0.08223805,-0.18990324,0.4485388,0.063345,-0.01380694,0.21719219,-0.09862398,-0.019186769,-0.041799635,-0.2990447,0.31053892,0.202584,0.20304613,0.03872029,-0.15525879,0.07472106,0.25480178,0.053203996,-0.39126873,0.08931743,0.40085977,0.008187411,-0.06024402,-0.27326798,0.16927049,0.17944446,0.015893215,-0.27618003,0.117518365,0.28107747,-0.15158905,-0.15155676,0.05767359,0.09090614,0.068650685,-0.07309813,-0.13062859,-0.24038684,0.10011552,0.3172882,-0.088553146,0.14421166,-0.0143885175,0.087463476,-0.11219393,0.104053766,-0.12548132,0.3173082,0.104950696,-0.093425676,0.0202945,0.04348554,0.096041426,0.27101165,-0.12560186,-0.22693099,-0.35717633,-0.12608454,0.107989274,0.462535,0.02210187,-0.3300015,0.4188303,-0.09989749,-0.14183341,0.18433185,-0.07369133,2.8532403E-4,0.3119419,0.05205194,-0.34748468,-0.019539198,0.04970189,-0.6191429,0.5788128,-0.053433504,-0.06670869,0.043433633,0.18008527,-0.16018774,-0.17676896,0.14435159,0.003432357,-0.034174956,-0.26195675,0.23713277,-0.21294364,0.22227032,0.13428031,0.03611969,-0.0667858,-0.05669659,-0.2046049,0.28197417,0.17033213,-0.28833106,-0.28825617,-0.17739153,0.35465473,0.33260384,0.2095957,-0.049859818,-0.004314373,-0.09493542,-0.27967313,0.07191447,0.31572717,-0.053781744,0.22812292,0.202576,-0.12844282,-0.1738931,-0.061377488,0.1624551,-0.30827323,0.20761333,-0.012467597,0.0465792,-0.22063111,0.20519452,0.18738472,0.1667321,0.10041546,-0.34758666,0.2518634,0.19440201,6.3902256E-4,-0.2527995,-0.052610718,0.03572887,-0.019239012,0.088227205,0.13360776,-0.48876053,0.3423401,0.05326224,0.22640614,0.012167594,0.05963724,-0.17391126,0.18057689,-0.050964747,-0.014784925,-0.022862818,-0.22749816,0.17050646,0.22372246,-0.06950543,0.27301678,0.07539267,-0.15320718,-0.19217753,-0.400907,-0.10387667,0.3730963,0.2153551,-0.23163566,-0.15404737,0.08015596,0.35540697,-0.06517026,0.19348574,-0.25222954,0.13188095,-0.016277725,0.324765,-0.12939438,-0.17458402,-0.046122868,-0.51508915,0.38338992,0.10691375,0.06086458,-0.09090836,-0.035443947,0.0018373012,0.016183896,0.1427995,0.04733887,-0.21586597,-0.14016825,0.3191721,-0.0734521,-0.15063839,0.11349886,0.23058762,-0.20097655,-0.12735294,0.18000227,0.045233123,-0.2816871,0.04040816,-0.31361926,-0.021601543,0.40989983,0.101490796,-0.19684672,0.29934704,0.11939986,-0.11850625,-0.0979294,-0.34614792,0.27230552,0.3349045,0.3507292,0.10199665,-0.074151576,-0.259044,0.16845581,-0.088243976,-0.07016056,0.006319807,0.068790935,0.2904907,-0.19258898,-0.10806606,-0.15483849,0.4862762,0.019247495,-0.16620228,0.2938918,0.07186017,0.033954866,-0.19081187,-0.05180382,0.05940397,-0.04053933,0.018432405,-0.34648353,-0.15481782,0.37844014,0.20251372,0.071895525,-0.075243495,0.30853388,-0.26769552,0.38117003,-0.3682496,0.17051864,-0.23134649,0.09205473,-0.12567164,-0.10418922,0.1389998,-0.14757532,0.3874834,-0.27394623,0.022881806,-0.14502046,-0.10735275,0.2644907,0.06674475,-0.18202189,-0.049195275,0.3140739,-0.00827944,0.27738413,-0.1264926,0.0448,-0.17715308,0.1553381,0.21538466,-0.16043422,-0.19776128,-0.095468625,-0.23494422,-0.04050014,0.33237964,-0.11349923,0.1201793,-0.1029376,0.10576492,0.3001387,-0.025795434,-0.021326646,-0.16376959,-0.15140955,0.069023065,0.15599613,-0.16691892,0.06046438,0.25365883,-0.06932715,-0.26671273,0.07510071,0.062228393,-0.10971203,-0.012083821,-0.29154637,0.0066968617,0.16396411,0.29709747,-0.124741755,0.09923667,0.19033276,-0.036913574,-0.11009486,-0.31571627,0.07801913,0.5047071,0.041165683,0.2846328,-0.27354732,0.12751932,0.15849349,0.207427,-0.2210925,-0.03835999,0.29363215,0.046487223,0.15866974,-0.3992238,-1.5816616E-4,0.30739242,0.13079181,-0.37971988,0.19216985,0.1719155,-0.18442538,-0.1564146,0.07183366,-0.08824803,0.18687515,-0.004399359,-0.47243717,-0.091184266,0.30231345,0.28603908,-0.09163938,0.043713674,0.014062176,0.14231919,0.14896405,-0.079774916,-0.09562491,0.18580252,-0.08444216,-0.01826137,-0.1276357,0.3121783,0.4194611,-0.07720635,-0.39663443,-0.019180575,-0.3141367,-0.2044051,0.42828125,0.16516206,-0.05731417,-0.2822828,0.57732165,-0.1780321,-0.11850115,0.22533369,-0.2006681,0.03609901,-0.021693064,0.2903267,-0.24999733,-8.298416E-4,-0.20353496,-0.22348157,0.12927052,0.34389132,0.030197423,0.224731,-0.02860525,-0.13251646,-0.01635686,-0.011763228,-0.11443804,-0.041111883,-0.029101769,0.039038148,0.17889293,-0.14794609,-0.05900894,0.5703395,-0.36752656,-0.02660728,-0.054138932,0.0483372,-0.31595883,0.24640904,-0.061270963,-0.35303494,0.8744659,-0.14050351,0.0046312977,0.1140036,-0.07118585,-0.09693322,0.08871903,-0.42606992,0.10009187,0.28128573,0.2011499,0.32081258,0.061442554,-0.467506,-0.0481957,0.42743188,-0.19278136,-0.124393255,0.06809044,0.1468493,-0.21670951,0.056576382,0.17610876,0.23448324,-0.13520524,-0.11696607,0.15492912,0.25800836,-0.001190472,-0.22245364,-0.043199472,0.07591906,0.2474649,-0.27381828,-0.061084114,-0.2757716,0.3083167,0.07225369,0.086412385,-0.0949688,0.011207225,0.025708167,0.20460588,-0.1737069,-0.07920341,0.020080358,0.095459566,-0.1552204,-0.13430715,0.21347477,0.33709922,-0.016116628,-0.13486986,-0.21382673,-0.19859529,-0.013697277,0.32087737,-0.034504846,-0.023178842,-0.28959194,-0.04540827,0.4021873,-0.20663589,0.32527664,0.11673509,-0.20184115,0.3292884,0.11150289,-0.39314803,-0.025317356,-0.07970777,-0.3941558,0.43840268,0.0065206033,-0.016736401,0.016530205,0.09870227,-0.091467835,-0.30452833,0.26897302,0.18761629,-0.09040266,-0.46597585,0.33325854,0.0940448,-0.0063740215,0.037259404,0.24243261,-0.015226634,-0.26097915,0.40791726,-0.1574993,-0.15321916,-0.101654604,-0.16871536,-0.28750575,0.25975293,0.39770302,-0.13930081,0.0703935,-0.07782358,0.25757742,-0.25620863,-0.02744873,0.33095282,0.11768245,0.17242898,0.09586577,-0.15786979,0.038209267,0.07469746,0.20009607,-0.2460339,-0.04386091,0.17116265,0.23437963,-0.12187146,-0.20666292,0.5997416,-0.10843365,-0.04444657,-0.36283717,0.41835573,-0.030177271,0.029190706,-0.35167706,-0.09366032,0.14796528,0.27136678,-0.17155235,0.08783009,-0.31051278,0.15461916,0.11309782,-0.15304853,0.0056282533,0.06644663,0.18389557,-0.02326551,0.11171449,0.028181734,0.029759571,-0.16941838,0.15778586,-0.19994801,0.27368435,-0.026669636,0.30720264,-0.109628,-0.13289477,-0.18852209,-0.084787235,0.10091449,0.28871197,-0.15648766,-0.20664302,0.28346872,0.09845243,0.13503365,-0.011844393,-0.010228771,-0.14632268,-0.08530187,0.3604961,-0.32097125,0.035916924,-0.4406652,-0.304481,0.5147316,0.22236243,-0.29017138,0.19413564,0.33694217,-0.23919007,0.14069317,0.012582283,0.09017275,-0.30006889,0.16724415,-0.20166194,-0.07215962,0.080201305,0.18365468,0.25608423,-0.4134031,0.042341884,-0.14847048,0.03974943,-0.11910935,0.17928095,-0.09425985,-0.21173593,0.20163746,0.3433966,-0.10401813,0.1838573,0.054379277,-0.11188408,-0.033379,-0.2339155,0.3920709,-0.06602374,0.06302322,0.23874122,-0.21621603,0.019284474,0.15131298,0.16125107,0.15087563,-0.3198538,0.3135168,-0.07121096,-0.04574198,-0.108538225,0.29455817,0.05003466,0.10476189,-0.34122103,0.094875105,0.19172184,-0.061849646,-0.15828623,-0.09401783,0.11475246,0.13411026,-0.05042739,-0.03792332,-0.17558405,0.1309435,0.117537625,-0.030444173,-0.021715427,-0.030523775,0.110578,-0.105421126,0.20234191,-0.2478222,0.20066242,-0.26986158,0.20665881,-0.1186331,0.24304436,0.16862287,0.09585803,-0.3542107,0.031335004,0.031869084,-0.4727783,0.44078836,0.05303329,0.00508952,-0.2994208,0.33533332,0.04141093,0.24350251,-0.17097326,-0.18677433,0.09426504,-0.20109601,0.33783072,-0.081290975,-0.035112064,-0.41125765,-0.16998686,0.38683456,0.2533956,-0.08419104,0.1366358,-0.04680591,0.09427028,-0.06364859,0.20894757,-0.058081873,-0.14585002,0.08613746,0.10808967,-0.12628156,-0.07677855,0.2829257,0.20612673,0.05044088,-0.47487116,0.043521933,0.041862085,-0.07904024,-0.065016456,-0.10329827,-0.050431404,0.22364166,0.22371839,-0.22714508,0.09801893,0.31604803,-0.18550013,-0.077618845,-0.41882336,0.15373926,0.3955051,-1.4949773E-4,0.39087865,-0.20919248,-0.06006076,0.19218029,0.035136677,0.17331684,-0.33059615,0.069104336,0.32292423,0.070780285,-0.40427303,0.190408,0.23855355,-0.2367251,-0.040485997,0.25506324,0.27903172,-0.26300606,-0.07070061,-0.18765303,0.18388179,0.32488924,-0.20896989,-0.14958814,-0.2166089,0.28311756,0.09981428,0.25460008,-0.28936842,0.030771028,0.07987958,0.15395904,-0.16904007,0.046501182,0.084702976,0.060809493,-0.07406822,0.23613697,-0.1090787,-0.08781909,0.4484546,-0.42052844,-0.010629867,-0.13921873,-0.43094045,0.46022007,0.084529996,-0.34317333,0.02132992,0.008067568,0.37241063,-0.061332326,0.12862656,-0.36024615,0.2905284,0.21876244,0.21088795,-0.3430311,-0.069058634,0.04276856,-0.37785977,0.21004665,0.06949802,-0.12997846,0.20288287,-0.09053224,-0.022022806,0.2394672,-0.10180516,0.23229934,-0.40029472,-0.053814016,-0.08785558,0.13561338,-0.053302746,0.25466993,-0.07478333,0.021984726,-0.13942489,-0.10456145,0.1592612,-0.23265369,0.13839266,-0.1631551,-0.13965744,0.44221193,0.032653525,-0.123774335,0.13092096,0.049235947,0.03934811,-0.4036101,0.002531939,0.16325226,0.32021546,0.15540452,0.2590835,-0.23878595,-0.03818134,0.19198166,-0.0654947,3.7008934E-4,0.024043066,0.36252874,0.026754605,-0.46171045,0.11552266,0.13402449,0.23629105,-0.18344511,-0.025859607,0.3605607,0.12260208,-0.030023858,-0.24889904,-0.14714848,0.015342003,-0.07925705,0.18510896,-0.13920936,-0.14545672,-0.046702087,0.37214768,-0.07765213,0.072460614,0.13785218,-0.12495758,-0.17616299,0.07156423,0.1827506,-0.13552108,-0.091972,0.01563078,0.049792092,0.068026595,-0.19489829,0.4487853,-0.047370885,-0.2624602,0.13177556,-0.6740523,0.27882054,0.27977613,-0.44768995,0.17282695,0.09611187,0.24253173,0.29701096,-0.13562042,-0.006278162,-0.17720702,0.3100395,0.33901426,-0.24495673,-0.35215324,-0.28630206,-0.19287547,0.4758468,0.019771172,-0.25226298,0.1839929,-0.16265091,0.28292206,0.058019638,0.074692085,0.093877815,-0.18734142,-0.08828588,0.07946288,0.26940733,-0.2574168,0.14087708,-0.084702745,-0.029674035,-0.034767356,0.13026969,0.10302515,-0.094973885,-0.16617543,0.06314563,-0.14387015,0.2592382,0.068404354,-0.15684009,0.09034171,0.1684215,-0.004261558,-0.06375521,-0.24521174,0.24361593,0.23235057,-0.06260032,0.38237482,-0.100239016,-0.042917266,-0.0076479246,0.1175221,-0.22162472,0.12955536,0.22013097,0.114518166,0.14832239,-0.42761636,0.24745995,0.066963375,-0.13330722,-0.018936593,0.13461208,0.2749633,-0.21547815,0.024207996,-0.2757432,0.29482827,-0.15864916,0.16053392,0.050579708,-0.42470828,0.4757243,-0.06983305,0.1263038,-0.14461303,0.25943637,-0.19861887,0.070119046,-0.14211348,-0.07032836,0.118045114,-0.114952825,0.04077438,0.081200376,0.017270207,0.30572048,0.1304139,-0.35929817,-0.114296615,-0.07073077,-0.4064495,0.12542711,0.38509133,-0.28792545,-0.0138720395,0.17094101,0.16466819,-0.31984347,0.45722112,-0.2089952,0.11989989,0.27166957,0.30272597,-0.08336695,-0.4369167,-0.11518699,-0.34240806,0.3769014,0.011415661,-0.09177345,0.1381209,0.16536169,-0.2184553,0.05026509,-0.05735416,0.20347655,-0.13387111,-0.33814317,0.18561473,-0.11656034,0.21097046,0.0034776726,0.16509467,0.0033150138,-0.15451126,0.38055187,-0.13325575,-0.08173561,-0.1791087,-0.33267024,0.0048388783,0.43868086,0.051113702,0.065780714,-0.0046084565,-0.04578906,0.13329317,0.07583487,-0.2652828,0.053224508,0.3005697,0.08195262,0.3083233,-0.13250707,-0.07451193,-0.121639505,0.35753787,-0.19724585,-0.058804467,0.16025433,0.097864494,-0.18415028,-0.020321077,0.20838666,0.14063804,-0.11317357,-0.14415017,0.03790297,0.3251711,-0.20874684,-0.09892153,-0.13644154,0.114871606,0.14908482,0.025806727,0.10718775,-0.33659884,0.15009297,0.0809734,-0.088266626,0.20519812,0.28881064,-0.2240561,0.13643624,-0.044831883,0.27296752,-0.23989454,-0.15105367,0.073837325,0.21035421,-0.01864127,0.4280161,-0.012625298,-0.33629623,-0.052625336,-0.47423798,-0.059552796,0.47001496,0.14447854,-0.03733495,-0.22416903,0.42503148,-0.115164205,0.29236716,-0.14942904,-0.15823054,0.011376298,0.12649253,0.2210386,0.07299462,-0.40797216,0.020153016,-0.58422005,0.11972911,0.40832314,-0.15064807,0.22557011,-0.017868789,-0.057312716,-0.1363919,0.1231672,-0.06953734,0.042341553,-0.21167138,0.047394503,-0.033055484,0.17730317,0.0069099856,0.17991158,-0.16726747,0.05156731,-0.04881463,0.1633765,-0.2198473,0.06138093,-5.1129964E-4,-0.3000071,0.16694586,0.32634458,-0.29373083,0.3529056,0.16681865,-0.19609715,-0.09250164,-0.19039704,0.1808796,0.14599022,0.42711467,0.052504074,-0.31829023,-0.07737799,0.33991113,0.022243425,0.098554246,-0.36509803,-0.07148217,0.3850525,-0.16657971,-0.06564197,0.3114388,0.0657669,0.08091895,-0.39796394,0.042174365,0.2444809,-0.12164783,-0.16895144,-0.01778981,-0.11842569,0.25818786,0.018639686,-0.12153442,-0.13843834,0.1347605,0.1841738,-0.112865984,-0.034265652,0.29003903,-0.07868104,0.0647741,0.074125566,0.12630579,-0.1872799,-0.09159704,0.058886465,-0.040168066,0.13112178,0.12590727,0.2687455,-0.098284215,-0.31062013,-0.10897667,-0.29258165,0.25625184,0.26010537,0.23507626,-0.46810895,0.23849288,0.056780152,0.19606733,-0.011800559,-0.23487051,-0.005224524,0.31906456,0.13311058,-0.5919392,0.12660792,-0.08989258,-0.32112393,0.3561916,0.1316673,-0.1362457,0.14078061,0.08013114,0.011298089,-0.17211193,0.053020827,0.24416254,-0.2678919,-0.0046540764,-0.04274899,-0.011151364,0.08210507,0.015707588,0.43133688,-0.41519788,0.04038647,-0.14522156,0.2194078,-0.24593703,0.12903434,-0.29782215,-0.14454447,0.3302765,0.45081162,0.017412398,-0.016450996,-0.0838696,0.037211064,-0.43247306,0.065965265,0.40977427,0.055632792,0.12185278,0.12763502,-0.07767069,-0.08337666,0.33542922,0.14589743,-0.49537542,0.052128214,-0.10833951,0.27657974,-0.2242487,0.113121726,-0.0073770154,0.33179542,0.049845625,-0.30692497,0.13130994,0.13147478,0.038243257,-0.2824567,-0.19911695,0.2988738,0.07445673,-0.06500404,-0.018879531,-0.310952,0.30109513,0.08276863,-0.09746831,0.021628328,0.42212078,-0.27507517,0.20902587,-0.09209147,-0.029506758,3.470941E-4,0.3191003,-0.3834274,-0.28065047,0.36341268,-0.083668,0.3877874,-0.18537074,-0.08887246,-0.38006455,-0.114401326,0.40360114,0.21369848,-0.05690026,-0.2002679,0.1267831,0.16581956,-0.115100026,0.1924927,-0.027057644,-0.04912351,0.46172863,-0.10366911,-0.034050446,-0.3358392,-0.033556715,-0.4737162,0.42533955,0.09082114,-0.3020867,0.35441184,0.09554887,-0.10116476,-0.009418754,0.051701095,-0.11613522,-0.013346008,-0.14259674,0.20357831,-0.24185863,0.18885264,0.109188974,0.37517613,-0.048098322,-0.37265792,0.23435085,-0.20088713,-0.07385794,0.015167998,-0.11131986,-0.15338121,0.36411425,0.21526515,0.016900271,-0.069059506,-0.02631935,0.065883294,-0.2843265,-0.15271655,0.19639017,0.3710894,0.12133114,0.22123477,0.03180868,-0.26777065,0.36006448,-0.14913735,-0.057526287,-0.1498667,0.34935418,-0.01913623,-0.031176709,-0.2557036,-0.101953454,0.5194149,0.04537379,-0.32407558,0.34853438,0.12444755,-0.22847055,-0.036988292,-0.023246158,-0.053996187,-0.080621004,0.1946176,-0.38479143,0.027828757,0.00939639,0.40338978,0.058312867,-0.0391363,0.22801602,-0.1329463,-0.18529986,0.25137714,0.105849706,-0.097684786,0.1264651,-0.15662152,0.034458205,0.038388617,-0.13707653,0.3900778,-0.42804936,0.15055463,-0.05632297,-0.33384052,0.3220008,0.13312805,-0.18373938,-0.03703972,0.3504525,-0.08135837,0.12788962,-0.06544999,-0.32456332,0.263115,-0.12841748,0.50231534,-0.06369178,-0.27951044,-0.18654528,-0.32266226,0.3325135,0.08708938,0.06616985,-0.0097228475,-0.012352689,-0.08590993,0.14965147,0.25657687,-0.113160014,-0.28861484,-0.13955835,0.090433046,-0.14783709,0.12306419,0.30646223,-0.07959884,-0.06974292,-0.14000416,1.7437368E-4,0.034923576,-0.19096002,0.15709862,-0.14506553,-0.38959602,0.2631686,0.40635312,-0.0298351,0.28985012,-0.01993898,-0.1193569,-0.097511254,-0.3060064,0.553817,0.0053673093,-0.0052477666,0.26218182,0.1523932,-0.2503715,0.33022112,-0.112316124,-0.4374662,0.2547979,0.017182786,0.30548066,0.093009785,-0.33708304,0.17579201,0.23192008,-0.037955593,-0.2813676,0.1530162,0.22191344,-0.16134407,-0.16401781,0.014156214,-0.10210566,0.08904175,0.04489312,-0.43441263,0.043709874,0.012624487,0.42904577,0.25992334,-0.30164376,0.0804418,-0.046452675,-0.10378597,0.06418526,0.05371994,0.039593488,-0.007200308,-0.03369836,0.06801488,0.028578393,0.35479066,0.110484675,-0.04320366,-0.36738923,-0.30660716,-0.21879561,0.37045586,0.29019514,-0.39182892,0.056857124,0.35962132,0.026517475,-0.038234986,0.09007949,-0.09483225,0.04663481,0.16219255,0.33176994,-0.26111588,-0.22973901,0.14514776,-0.6241267,0.5028552,-0.0032207135,-0.26898998,0.35610425,-0.13421082,0.10961999,-0.0017488156,0.04040388,-0.008004142,-0.09008723,-0.095840625,0.006738986,0.19254768,-0.100415446,-0.12350138,0.43228164,0.041663673,-0.33137172,0.08888327,0.12091031,-0.21662568,-0.04006364,-0.20309265,-0.24528939,0.46328345,0.28814113,0.20344119,-0.21292934,-0.09371844,0.10069181,0.030031033,-0.0644822,0.17388585,0.002843179,0.07237385,0.17974962,-0.25633928,0.12052427,-0.07348383,0.12677205,0.05956799,-0.1114441,0.15047209,0.016567059,-0.09227693,-0.029798089,0.19730844,0.23724437,-0.13866897,-0.1151782,0.4210807,0.11903364,-0.15314269,-0.13718468,0.018822715,0.105677515,0.031547293,-0.042837415,-0.16899467,-0.10641831,0.13069597,0.15373054,0.023282511,0.04982644,0.23650068,-0.17599048,0.17136028,-0.10712106,0.17893836,-0.18163143,-0.10380043,0.12812367,-0.07009883,0.0945069,0.282753,0.0067679407,-0.43046048,0.12875096,-0.21575254,-0.14517683,0.26434574,0.106378466,-0.080323294,-0.29347992,0.3128426,0.07939175,-0.14077184,0.1616546,-0.0034259313,-6.717999E-4,0.068884425,0.11786093,-0.16818206,0.0064766416,-0.19001774,-0.2715912,0.3858841,-0.008441409,-0.13749304,0.22973056,0.20482224,-0.34350723,-0.09758768,0.23155929,-0.07884465,-0.021082364,-0.28595546,0.056135748,-0.043176338,0.15645793,0.25770256,0.32701302,-0.23869735,-0.28165412,0.065409966,0.060592335,-0.20091455,0.06792893,-0.04720588,-0.38200098,0.28136218,0.27128753,-0.15793975,0.32420775,0.0153172305,-0.04479437,-0.069925375,-0.40627486,0.10675942,0.45714578,0.2349101,0.1850347,0.008930245,-0.2709125,-0.0022446283,0.12100505,-0.33539954,0.23704547,0.18596643,-0.006451236,0.14507748,-0.2643837,-0.12695085,0.41518313,-0.18278177,-0.007079837,0.22825429,0.13939342,-0.065364316,-0.203076,-0.0446964,0.10885288,0.11472969,-0.16733877,-0.09448366,-0.38719383,0.26778817,0.26075208,-0.26686874,0.16413432,0.17781809,-0.013301603,0.3000878,-0.27434412,-0.18873788,0.16629107,0.083406314,-0.13166259,0.13640586,-0.032683324,0.08973361,0.29752314,-0.06984912,-0.31717953,-0.100443006,-0.20195079,0.30361333,0.13041772,-0.07920333,-0.18550497,0.35600853,-0.0065423804,-0.047955595,0.13992485,-0.20424649,0.07489559,0.29850826,-0.042397022,0.17541373,-0.437936,0.07004317,-0.48068634,0.2985924,0.13245437,-0.03145716,0.19054857,0.07538707,-0.16446343,-0.29689124,0.34583035,0.15351157,-0.11428142,-0.39424604,0.3539358,-0.13484073,0.20018737,0.08841432,0.3929952,-0.40302598,-0.059028983,0.14855592,-0.009919501,-0.182808,-0.009574569,-0.11640169,-0.009187518,0.35001627,0.041182313,-0.17291686,0.14496759,-0.106318586,0.18301547,-0.06342038,-0.37471777,0.2467635,0.3115071,0.35560253,0.04799063,-0.20070316,-0.08203149,0.044330567,0.21459897,-0.16839175,-0.02367017,0.07207437,0.18269509,-0.16587454,-9.257811E-4,0.040508162,0.3255785,-0.22133304,-0.053646393,0.39915335,-0.044503663,-0.1729575,-0.15161884,0.056218423,0.06896721,-0.108066246,0.046025388,-0.24915257,-0.28128147,0.31483123,0.259383,0.03868464,-0.0041153925,0.23597106,-0.22598672,0.10952939,-0.11655065,-0.030948961,0.04261746,-0.22705296,0.16368379,0.053024236,0.059074998,-0.10993564,0.33576518,-0.11417368,-0.09625867,0.1649548,-0.31669384,0.24769454,0.005379384,-0.32079837,-0.09186775,0.30822784,0.15535556,0.097621456,0.10005673,-0.13507496,-0.07362704,0.11813458,0.19230549,-0.030357705,-0.25808895,-0.36874568,-0.32822704,0.36230287,0.39007214,0.07269449,-0.010538103,-0.0970914,0.120427795,0.1641332,-0.14371227,0.113881,-0.21316291,0.018880028,0.004264608,0.17574042,-0.1757267,0.3902569,0.065931655,0.056901608,-0.46435657,0.03313511,0.08819939,-0.21868925,0.05693374,-0.36185932,0.07134755,0.4844763,0.11923476,-0.19031766,0.1491902,0.07027482,-0.045126192,0.17850785,-0.43692508,0.04029255,0.32812175,-0.1553166,0.4665155,-0.17247185,0.009069068,-0.04641911,0.42030078,-0.17789966,-0.119658604,-0.111719504,0.3670763,-0.38108876,0.1798402,-0.020392116,0.36805788,-0.17754705,0.009762777,0.13822094,0.19175716,0.16365463,-0.30080572,-0.09595321,0.11870191,-0.04224448,0.0015945106,-0.26260284,-0.073187046,0.20370564,0.19570044,-0.017991098,-0.0017754799,-0.11365464,0.1841683,0.14809985,-0.15831779,-0.08397222,0.024623979,-0.1023393,0.02677768,0.1088889,-0.008310622,-0.09069075,0.32136294,-0.08961458,-0.16497527,-0.10424999,-0.11372951,0.22059627,0.052649155,-0.042408645,-0.1525065,0.08138112,0.1913051,0.34274608,-0.23263913,-0.08783871,-0.037321452,0.31190643,0.008622694,0.037631102,-0.32917625,-0.18203907,-0.39016038,0.40847814,0.15004066,0.2070166,-0.18769492,-0.17160809,0.18958664,0.35465467,-0.07995352,0.112933844,-0.32485458,-0.2279834,0.09814208,0.13186236,-0.06223395,0.27259997,-0.018089911,-0.17472203,-0.104164734,-0.024701249,0.06653945,0.007938194,-0.06116452,-0.15289526,-0.21347743,0.40019092,0.16558759,-0.02950281,0.251876,0.16090482,-0.26068172,-0.25249904,-0.19917248,0.20766188,0.42153284,0.05064869,0.3158741,-0.05622147,-0.12398825,0.024399761,0.29396784,-0.27605203,0.0035188298,0.06430389,0.26433712,0.14390303,-0.39459625,0.29794315,0.04041971,0.029107518,-0.30075735,0.09985381,0.24365507,-0.12732433,-0.16944411,0.116237216,0.10870656,0.32189402,-0.44367114,-0.058484353,-0.4211764,0.04411384,0.48541218,-0.030456401,-0.13575794,0.21465594,-0.0044816528,0.2772344,-0.24154945,0.004248086,0.04980054,-0.0569754,0.10971469,0.13802579,-0.10954493,-0.0695703,0.24508223,-0.35676524,0.15708248,-0.37900823,-0.13646743,0.4081644,0.22398075,-0.20885856,-0.23238805,0.34181273,0.14283283,-0.108432196,0.2271015,-0.21579154,0.07308325,0.10991129,0.3791912,-0.1632184,-0.31322834,-0.50011396,-0.051540665,0.67091805,-0.09299487,0.069996804,-0.017204586,0.09155216,-0.0921908,0.19793457,-0.26068756,-0.15262406,0.12247332,0.09555943,-0.13424008,-0.21178055,0.2570067,0.1928987,0.3389568,-0.14535874,-0.33818665,0.077851065,-0.06772022,-0.27920005,0.23035793,0.0446251,-0.22901274,0.31593102,0.12756275,-0.21102247,0.16207887,-0.043261815,0.106556386,-0.18285291,-0.049751982,0.17771615,0.16737425,0.16480255,0.27441248,-0.1974723,-0.121787995,0.085587315,0.09491385,-0.09240232,-0.08098525,0.19623753,-0.011130812,-0.07427825,-0.06752854,0.30289343,0.090798005,-0.2551792,-0.06348152,0.15467179,0.23526533,-0.11709085,-0.19861402,0.042532146,0.14818436,0.029173745,-0.10634905,-0.29433176,-0.21485235,0.3516191,0.21500349,-0.11630176,0.05738014,0.307543,-0.14358298,0.10932064,0.05208633,-0.031334467,-0.009953214,0.06378118,-0.0467859,-0.26570278,0.28288758,-0.2062492,0.4158037,-0.17929025,-0.001513599,-0.32485077,-0.091966026,0.48743692,0.04397867,-0.18338726,-0.19218826,0.53270257,-0.087026596,0.16157624,-0.007890756,0.14111046,-0.33272105,0.2019537,0.35304105,-0.34837708,-0.20923245,0.1553536,-0.5887298,0.32315865,0.12436257,0.1852512,-0.10354437,0.13247582,-0.21044838,-0.24240573,0.222214,-0.023934625,0.008490292,-0.105437405,0.026605152,-0.09838418,0.18864946,0.29554528,0.25877336,-0.1762769,-0.308865,-0.067005776,0.062057827,-0.16130307,0.13059369,-0.14908406,-0.06974529,0.045253586,0.44673404,-0.19427045,0.24024363,-0.21569811,0.18575542,-0.13245566,-0.35173804,0.31605843,0.2587134,0.03947134,0.19464624,0.07497813,-0.22798513,0.444921,-0.036188144,0.012890127,-0.3720014,0.13482985,0.06011738,-0.3471005,0.20600367,0.030125095,0.25819623,-0.27289867,0.15383305,0.06458593,0.3406896,-0.18640484,-0.022098837,0.17067356,-0.076429926,0.109658144,-0.20369186,0.041296266,-0.5071646,0.23629695,0.2848731,0.09186185,-0.086681075,0.23102798,-0.19224189,-0.23555622,0.25367647,0.09905113,-0.16436477,-0.040821705,-0.0047304314,0.11407502,-0.03347541,0.10430515,0.16319439,-0.30557555,0.026979603,-0.58538365,0.069671534,0.35513517,0.22320095,0.08304257,-0.3524642,0.31013888,0.0049363845,-0.034196783,0.26924127,-0.2136762,-0.0076013203,0.30152157,0.2799491,-0.4087059,-0.129989,-0.16818231,-0.2095538,0.33870515,0.006343589,0.06537023,-0.06693547,0.056368653,-0.024676759,-0.20324966,0.16110039,0.17530636,-0.08790458,-0.088704124,0.021718891,-0.12942943,0.15824598,0.2070695,0.015865443,0.19570714,-0.43119803,-0.06787587,0.21698104,-0.21527372,0.05384221,0.037749678,-0.23865892,0.16702974,0.22844777,0.015809027,-0.07300787,0.13751788,0.03203645,-0.44871905,0.01556206,0.1763947,0.4173452,0.16721547,0.23836337,0.08858235,-0.31401142,0.13892919,0.1718079,-0.31040153,0.070970275,0.21488498,0.056739528,-0.07006126,-0.12746383,0.27261278,0.017292948,-0.21284215,0.0019307708,0.054328557,0.2918355,-0.13808107,-0.20026647,-0.17750117,0.17940909,0.23145378,-0.1289265,0.08645134,-0.41725668,0.3866949,-0.005153573,-0.060620017,0.090632714,0.079334445,-0.03892671,0.23124263,-0.19748515,0.3404095,-0.32584682,-0.07660475,0.083030686,0.20705177,-0.1422742,-0.17997459,0.44808,-0.24984479,-0.005757907,-0.30002168,-0.13582551,0.36247256,0.20046857,-0.049203616,-0.3275463,0.19003657,0.21963146,0.057524323,0.11178292,-0.10836436,-0.08502891,0.14793192,0.39720967,-0.0495688,-0.49311754,-0.37826037,-0.2678606,0.2172977,0.47625953,0.066691115,-0.0016188887,-0.22687963,0.25949967,0.09314855,-0.26155853,0.04900123,-0.001717224,-0.1687668,0.17876777,-0.13488863,0.1387692,0.24251933,-0.117718175,-0.037293676,-0.045209322,0.01687522,0.20907979,-0.055762082,-0.20364858,-0.118336916,-0.14505151,0.56316644,0.037310205,0.17168316,-0.15930972,-0.1060497,0.062704496,-0.3338758,0.02019474,0.09112894,0.33992764,0.042401053,0.45875826,-0.23265114,-0.15307425,0.040215574,0.29217267,-0.07928622,-0.19593807,0.20336543,0.16536036,-0.28370038,-0.026544139,0.38848248,0.009598182,-0.038612157,-0.20310429,0.17172067,0.19214407,0.07097374,-0.26319832,0.08555949,-0.06457495,0.19836172,-0.20719373,0.12968662,-0.35765284,0.41727015,-0.1305824,-0.21924402,0.12075184,0.31485495,-0.14651018,-0.045075186,-0.032623354,-0.021662913,0.08602527,0.067380406,-0.20354733,-0.27402234,0.40277177,0.20079918,0.05606994,-0.17458555,-0.10615348,-0.20553516,-0.3820436,0.3208544,0.30771446,0.031136185,-0.28515464,0.0053204196,0.2892338,-0.43000427,0.3560576,-0.03448575,0.1567717,0.17991285,0.13736501,-0.39333758,0.10453682,-0.24264438,-0.08910471,0.05076585,0.23778571,0.07465779,0.057299603,0.08901909,-0.2048261,0.06425169,0.08691165,0.1636631,-0.2729494,-0.31173405,0.20944497,-0.043065604,0.07598907,0.39391923,0.20216398,-0.36008433,-0.24169038,-0.07123886,0.15657645,0.059060525,-0.14468156,2.0835796E-4,-0.41878754,0.3244834,0.2823603,-0.116344176,0.23956785,0.26552093,-0.24957044,-0.24965137,-0.018791338,0.20640069,0.23442368,0.018967891,0.26583713,-0.07551922,-0.019557446,