0.45889848,0.2732066,0.28293574,0.25020257,0.16053787,0.34899297,0.30282825,-0.03973787,0.3320981,-0.028172143,0.11485663,-0.024703445,0.22244132,0.17677881,0.0692743,-0.10787805,-0.038182903,0.021615235,-0.30285215,-0.29407218,0.10625141,-0.11940032,-0.06388997,-0.3462002,-0.21492213,0.36526477,0.025848351,0.22584666,0.028061518,0.102821074,0.21276267,-0.045590095,0.06261888,-0.26151752,-0.18538779,-0.12691857,0.22642274,-0.23698063,-0.3626711,-0.02075922,-0.008697933,-0.37730375,0.31123385,0.33032838,-0.2753166,-0.23729496,0.043691542,0.08708517,-0.0065707243,0.23925129,-0.29563597,0.02548885,-0.25044677,0.21018207,-0.108902894,0.087927684,-0.19476217,0.0022477317,0.12724139,-0.3654611,0.25847992,-0.08529427,0.115238026,0.121595696,0.04377063,-0.26101014,0.27269012,-0.28034553,0.43909165,-0.023218222,0.18922223,-0.31895986,0.088238224,-0.1950399,-0.0049697403,-0.14192638,-0.2691502,0.23794013,0.28619617,-0.28041822,0.023246355,0.06817725,0.29509926,-0.31921327,-0.060286503,-0.13179462,0.20361066,0.19846088,0.3049238,-0.30576137,-0.038656436,0.16736907,-0.092269965,-0.21914707,0.11270633,-0.23021163,0.06344699,0.02575152,-0.030133627,0.21096212,0.2372788,0.28813118,-0.1470226,-0.19172862,-0.1313894,0.31759354,-0.20840766,0.20856093,-0.029239757,-0.22449765,0.09548287,-0.090252616,-0.22109072,0.09692346,-0.20517161,0.019717649,-0.2459921,0.4502328,0.15404525,0.069377095,-0.11798744,0.0050017308,-0.16854648,0.057420906,-0.24080881,-0.24511483,-0.4188245,0.22978613,0.12457519,0.046820667,-0.20335576,0.15405388,0.06688398,0.39485618,0.33553416,-0.14122827,-0.18944043,-0.20299073,-0.089106634,0.20979351,0.3598756,-0.16841415,-0.1893245,0.002160355,-0.14644895,-0.09954174,0.13361011,0.06873279,-0.048912384,0.109323025,-0.059234157,-0.32570732,-0.16705814,-0.25485373,0.13795917,0.33279452,-0.07631123,-0.14568824,-0.21178034,-0.007652043,0.29850444,0.013232401,0.20924564,-0.27581924,-0.072592184,0.2967986,0.07535631,-0.092672385,0.2324862,0.08809997,0.120026305,-0.25384945,0.13309644,-0.09046325,-0.055851165,0.06239558,0.13203654,0.23039064,-0.07289763,-0.16333728,-0.12537178,0.23900254,-0.3873173,0.38477468,0.2441893,0.057638016,-0.16289966,0.09274005,0.35365522,0.0026941937,0.10475587,-0.10638581,0.14693435,-0.16425294,-0.28822216,-0.0769458,0.36994627,-0.3435309,0.25633463,-0.2401974,-0.14818835,0.35058287,-0.42428687,0.24699545,-0.02919749,-0.331848,0.15775234,-0.07119424,0.14419474,-0.015608651,-0.25935817,0.18788658,0.26017404,-0.237651,-0.28642213,0.08164126,0.16354431,0.080558516,0.27208245,-0.12122497,-0.11714431,-0.13525304,0.17534791,-0.19906367,0.30205074,-0.05882598,-0.112607114,-0.029370341,0.07340908,0.054217186,-0.26268977,0.22808535,-0.43158522,-0.10928894,-0.15560046,0.052889474,0.25132114,-0.00161088,-0.18258007,0.12758671,0.23910783,0.09622126,-0.09513902,-0.14822297,-0.07019191,0.26650783,0.036023233,0.050206553,-0.24380812,-0.14123254,-0.3186972,0.07854073,0.18348834,0.27254644,0.34727076,0.36496875,-0.32790458,0.30063814,0.08196474,-0.11517648,0.11476726,-0.087202616,0.018866437,0.16236986,0.0955346,-0.17409064,0.3546286,-0.24904987,-0.2498431,-0.12967981,-0.116139494,0.076307625,-0.06026661,-0.17122678,-0.12424052,0.010323915,0.387519,-0.008137537,-0.20195161,-0.030911839,0.11213289,0.06780425,-0.034464628,0.038094748,0.1383805,0.22086883,-0.117161214,-0.21025194,0.015665922,-0.16587846,-0.04146184,0.37969875,-0.3613362,-0.31026068,0.1515703,-0.14304179,0.027697293,0.17232093,-0.094666936,0.04338819,-0.14882654,0.134945,-0.19621915,0.18785962,-0.2731697,-0.12584555,-0.11998093,0.18003239,-0.14180553,-0.17425416,-0.34503606,0.12889707,0.13401538,0.16927469,0.041700702,-0.05018447,0.0923547,0.13381293,-0.21390393,0.31713527,0.10866506,5.8675115E-4,0.07853252,-0.049348295,-0.095023684,0.046665695,0.2828716,-0.29769936,0.10376496,0.08791059,0.24535483,0.0602201,0.25964916,0.07387276,0.17495874,-0.35627818,0.02279767,0.023753537,-0.37255484,0.060350552,-0.14694902,-0.18570565,-0.3312423,-0.035127543,0.2121365,0.2009505,0.030053765,0.050878745,0.17044601,0.06712767,-2.0678644E-4,-0.19041497,0.29552773,-0.4845392,0.16306765,-0.087176405,0.096063696,0.4601754,0.25819904,0.18619953,-0.08217594,-0.0024065995,-0.23320124,0.024585243,0.2379612,-0.11973612,-0.21951924,0.09325431,-0.28331605,-0.038939625,-0.011985237,-0.11959861,-0.27558815,-0.039079618,0.13215774,-0.12484789,-0.07997583,-0.286566,0.021862863,-0.02907094,0.24062991,0.05079622,0.20603368,0.23676005,0.19311492,-0.27927545,0.19533388,-0.35367483,0.15748641,9.850494E-4,-0.3050474,0.1273755,0.26047486,-0.1461626,0.19996178,-0.33992323,0.026941039,-0.0846053,0.26099682,0.35684812,-0.05884059,-0.08335814,0.2562821,0.14751518,-0.09814326,-0.105186224,-0.046083424,-0.15283135,-0.115125805,0.22749576,0.33524227,-0.03897035,-0.32766423,0.20218448,-0.25772232,-0.06512065,0.2859719,0.06270302,0.024628248,0.04429104,-0.08029435,0.05647626,0.14711751,-0.17581007,-0.06667264,-0.047066532,0.14734548,-0.15412895,0.038736552,-0.091712855,-0.118182026,0.13126995,-0.29097685,0.18876821,0.16201426,0.33182767,-0.19840503,-0.21883263,0.28006282,-0.03898706,-0.13590798,0.093358144,-0.16333182,-0.025816947,0.19616064,-0.03907373,0.09957394,-0.1579432,0.25365356,-0.011773074,-0.09210368,0.097154155,0.258566,-0.27237508,0.3771201,0.13943473,-0.30541712,0.14341736,-0.16170137,0.19092007,0.21055602,-0.23397344,0.17303938,-0.012941761,0.1316586,-0.24415457,0.21038035,-0.1297375,0.124054074,0.015656479,0.21069033,-0.018950878,-0.06892455,-0.010917759,-0.10579231,0.4644944,-0.20786801,-0.013424968,0.13769715,-0.17423275,0.220993,-0.16785389,-0.2824388,-0.023024982,0.13567384,0.10637279,-0.07888139,-0.07156597,0.23556735,-0.06465395,0.14634904,-0.07379248,-0.016116425,0.26114902,-0.2311936,0.3034857,-0.0036921613,-0.34829846,0.107732974,0.17299362,0.30330986,-0.27903533,-0.02853575,-0.23692864,0.2067211,0.13390462,-0.08002033,0.07164424,0.0565237,-0.37774694,-0.24099113,-0.040953416,0.016780775,-0.37851465,0.37886205,0.054382555,-0.4769974,-0.015584708,0.12207349,0.1203301,0.42332777,-0.20984825,0.29069647,-0.05333966,0.14033253,0.30258575,-0.20636882,-0.13417663,-0.19257943,-0.27937734,-0.0036251484,-0.31624317,0.123756506,0.057443257,0.027765602,0.09649157,-0.106041685,0.23939227,-0.14011952,0.38820013,-0.16223574,-0.16621521,0.25215536,0.09891499,-0.18609843,-0.08693186,0.089024544,0.010570352,0.3176679,-0.17689203,0.31404716,-0.08061531,0.2281973,0.044925947,0.4017101,0.09246182,-0.09516483,0.23280165,0.13381746,-0.26349303,-0.1863967,-0.023931913,0.10442147,-0.103676274,-0.2895767,0.051860854,-0.21796651,-0.41211143,-0.023704765,-0.12032939,0.059511192,-0.019869981,0.061635222,0.019505525,0.10815577,-0.36799142,0.26099646,-0.0763219,-0.28862208,0.09146224,-0.36234972,0.06634915,0.11619598,-0.20281236,-0.1982026,0.15367024,0.3018412,0.14148977,0.32777542,-0.38468227,0.08310231,-0.0051426366,-0.22275105,-0.16612867,0.14066468,-0.3925229,0.11811502,0.05286281,0.15754144,0.3510961,0.006852062,0.009887001,-0.11932517,-0.15840869,-0.1881097,0.034955796,0.13761638,-0.35069278,-0.28892276,0.115542926,-0.2024797,-0.13074966,0.40931034,-0.22861044,0.22858708,0.03393354,-0.14205633,0.35863858,-0.23432884,0.27513325,0.20829405,-0.20166673,0.23510079,0.16490297,-0.066792764,-0.21175109,0.32493868,-0.21949863,-0.03803328,0.02938327,-0.19703759,-0.09242241,-0.43205622,-0.15155777,0.055657826,-0.2932421,-0.10566018,-0.22071607,-0.24473876,0.23587891,0.0038859656,0.32293093,0.1601723,0.051761813,0.17810102,0.2381757,0.10157785,0.14443769,0.047689833,-0.018525494,-0.50119406,-0.03931801,0.038251743,0.23167008,0.1585386,-0.16781028,0.08781939,0.05865133,-0.32403934,-0.29541147,0.013862398,-0.21981674,0.24650739,0.042019255,0.2172977,0.23550017,-0.16674949,0.050267093,0.26486215,0.048575602,0.14281906,0.1636919,-0.04867634,-0.21264987,-0.15893818,-0.017845247,-0.35300565,-0.44317552,0.2616087,-0.44270155,-0.40906432,0.17246184,-0.30017352,-0.14284725,0.12641965,0.19269302,0.084341004,0.32487565,-0.30667248,0.03895828,0.31889507,0.1697128,0.09253881,-0.16844994,0.26533243,-0.45808834,0.28309128,-0.031413533,0.02060698,-0.15209705,0.18023202,-0.1319363,0.41296214,-0.10072394,0.45743307,-0.30327252,-0.12357835,-0.108005434,0.20488909,0.061564237,0.16250442,0.15533173,-0.31968638,0.059514664,-0.38857323,0.12556086,-0.25059316,0.11963938,0.095125005,-0.31067035,-0.067446694,-0.0117467195,-0.21667919,0.32683796,-0.18078664,0.25531322,0.011072199,0.25743026,-0.07034956,-0.2955001,0.0041732593,0.17969316,0.24539323,-0.16534702,0.018692454,-0.19594282,0.1944583,-0.30310112,0.21816382,-0.050336286,-0.25246635,0.062289502,0.106989324,0.31895518,-0.10517398,0.107253805,-0.2758928,0.04194135,-0.13634574,-0.053865574,0.26056942,0.38602176,0.14153373,0.1678336,0.2258539,0.22396003,-0.2411309,-0.036588956,-0.28940606,0.07906906,0.23619218,-0.23559162,-0.20355831,0.06556086,0.032430723,-0.06597055,-0.11983365,-0.05190855,0.062447138,0.13237624,-0.1858384,0.16383144,0.27282256,-0.25023898,-0.04855326,0.074897975,-0.31515595,0.06307791,0.14039074,0.18916547,0.112666,-0.17431788,-0.12383985,0.31389153,-0.042189263,0.37077543,-0.21136159,0.077758774,-0.05249671,-0.33382043,-0.035757765,0.024567079,-0.20740923,0.019220943,-0.13256231,-0.11699188,-0.05807201,0.12485888,0.23245516,-0.20757104,-0.2989388,-0.12204064,0.012719351,-0.05220041,-0.27875018,0.23555866,0.03558103,0.24928273,-0.32577124,0.20786482,0.33016276,0.26619056,0.31831482,0.07641559,-0.2700894,0.09175304,0.03259902,0.18259552,-0.31311914,-0.02842091,-0.21916296,-0.19389607,0.28243855,-0.1353915,0.06659472,0.28008637,0.037713625,-0.10449689,-0.066214904,-0.107950695,0.24343894,0.09020087,0.2641663,-0.13547441,-0.26308468,-0.2384021,0.29167065,0.18334295,-0.39245743,0.018613607,-0.21974644,-0.19617327,0.16387357,-0.08660207,0.4106233,-0.082811676,0.20335427,-0.33603114,0.24185447,0.1511764,-0.3653562,-0.08350205,0.06555778,-0.24818489,0.074798115,-0.23512512,-0.3544584,-0.06679577,-0.023978798,0.27634943,-0.19873528,0.24456446,-0.22589989,0.20153008,0.08820077,0.210482,0.34953293,0.18772306,-0.046477493,0.09553851,0.20920794,-0.36192262,-0.124380305,0.05680475,-0.2324293,-0.33013892,0.115989864,0.1827285,0.19345622,-0.11281731,0.0025283077,0.22258587,0.30231863,0.24585605,-0.035825863,-0.27559552,-0.25957128,0.13184139,0.24958514,-0.09627315,0.05234185,-0.24817628,-0.072778314,0.24874303,-0.14286932,-0.055996828,0.19707516,0.061385926,-0.1878644,0.21344979,0.1368609,-0.47763628,0.27074882,-0.06390844,0.072434716,0.06604928,0.11655979,-0.07700384,-0.2966225,0.3030717,0.08790817,-0.13075703,0.195274,-0.047232643,0.13151492,-0.09493796,-0.082040936,0.28001174,0.15848343,-0.22181839,-0.1463329,-0.28916603,0.11159284,0.080960214,-0.09179973,0.04683978,0.20803979,-0.2492317,-0.33745214,0.26198897,-0.043745883,0.13902782,0.08752825,-0.35557777,-0.45955145,0.26620072,0.10800875,-0.06601984,-0.16052729,0.28156498,0.24834856,0.007640213,-0.23098026,0.30214357,0.22469828,-0.4468621,0.26720673,-0.23782733,-0.06750372,0.106134996,0.25147223,-0.12783763,-0.11799002,-0.31563982,0.24607159,-0.13073987,0.11347694,-0.22094625,0.29026768,-0.18964808,0.28290915,-0.10754505,-0.37453365,0.25966376,-0.08692333,0.2770155,-0.090759955,0.31777582,-0.11858549,-0.27211943,0.20330194,0.290254,-0.16515599,0.061538287,0.24383211,0.09638721,0.31576422,-0.017670186,0.09922005,0.26150984,-0.033651322,0.14107786,0.109317616,-0.307262,-0.0951502,-0.21554513,0.08557363,-0.23632792,-0.18884344,0.38256276,-0.22373551,-0.007458587,-0.06970451,0.22525044,-0.12964082,0.31773993,-0.0031745625,0.17479365,-0.14455906,0.070764475,-0.30959484,0.34343442,-0.01603851,-0.22708997,-0.15214571,-0.00942128,0.11503912,0.3096728,-0.03715851,-0.039776165,0.17499514,0.16420108,-0.046130996,0.14145173,-0.12309738,0.2898351,-0.008643269,-0.34523013,0.05202818,-0.034543037,-0.016182266,0.04165722,0.14969999,-0.016574677,-0.09914595,-0.006381559,0.015172913,-0.24982242,0.09030742,-0.021042105,0.012291312,-0.13139166,-0.42456198,0.08335889,0.16021448,0.25708237,-0.07769409,-0.039924372,0.13840052,-0.17108963,0.16771495,-0.23495822,0.17277996,-0.3880872,0.30261713,0.012605256,0.09060957,-0.16168517,-0.26733744,-0.061102696,0.13048586,-0.31923884,0.2665648,0.27972955,-0.3016233,0.17777745,-7.492405E-4,-0.24503541,0.08367391,0.043246165,-0.026336947,-0.033872433,-0.006662179,-0.14659414,-0.11582477,-0.15999185,0.16944283,0.18338999,-0.17237943,0.3805428,0.07239191,-0.0575575,-0.1878742,0.2244112,-0.22875941,0.3673852,-0.33302388,0.37017077,0.17578384,-0.32950565,-0.2777014,0.13661091,-0.19192097,0.2959759,-0.16748728,-0.37939385,-0.33555377,0.07729021,-0.17609806,-0.02032919,-0.19003782,-0.012875477,0.02399094,-0.0012798666,0.09786451,0.06969683,0.27002952,0.12804626,-0.3032095,0.2848354,-0.4245471,-0.11587995,-0.084641315,0.046287335,-0.3287438,0.12534615,0.2404249,-0.19040944,0.065906174,0.14990532,-0.049062356,0.19419296,-0.10519278,-0.2075919,0.25492233,-0.3025656,0.012570045,0.18741098,-0.42343593,0.2974362,0.056213897,0.20343447,-0.28710124,-0.13471515,0.2729066,-0.12163487,0.084000275,-0.22657047,0.163072,-0.17298903,-0.07251682,-0.19514199,0.25576523,-0.14212881,-0.18611881,-0.18132454,-0.14026695,0.13777912,0.024983024,-0.007865804,0.20809054,0.15019238,-0.15779772,0.2786558,-0.085532136,-0.2653333,0.10119643,-0.22646095,-0.100697204,0.08514967,-0.08004576,-0.2329858,0.26837605,-0.083351314,0.0264899,0.45791116,0.045496847,0.27315474,-0.08897333,0.1489549,-0.19648753,0.0015508975,0.14260013,-0.13154535,-0.12235592,-0.18619058,-0.2693147,0.20522656,-0.14440759,-0.04814437,0.08464827,-0.23388535,0.24084772,0.19445686,-0.02394006,0.36330962,0.3081097,-0.21249564,-0.27072522,0.06863718,-0.23897828,-0.018748414,-0.067940965,0.12591147,0.12685867,0.07687722,0.072777465,0.25349945,-0.050016314,0.21699093,0.22739361,0.1515134,-0.16237655,0.03394785,-0.05344182,0.032862034,-0.29548836,-0.010421889,0.174243,-0.29690638,0.26923817,0.07895617,-0.17636977,0.34664282,0.25508136,-0.19603118,0.2749306,-0.068220206,0.21548633,-0.04045022,0.062180642,-0.11508318,0.12470113,-0.3048413,0.37064713,0.2597336,0.013969374,-0.28108418,-0.020611871,-0.083765544,0.18018179,-0.11596448,-0.23229411,-0.26528373,-0.0339464,0.37031102,0.25053412,0.35688365,-0.26803243,0.15893798,0.39262438,-0.48592535,-0.017377732,-0.3191813,0.11155252,0.24417879,-0.14868857,-0.26190606,0.31345823,0.17662339,-0.12487134,0.19374116,0.18520327,0.1789998,-0.35661706,0.17978784,-0.19712313,0.14012034,0.17914909,-0.30075756,-0.030972032,-0.16554481,0.033478312,0.34086102,0.12794495,-0.17122994,-0.00284032,-0.09097542,0.24391764,0.16927873,0.22202629,-0.08367467,-0.20280616,0.1985326,-0.062252507,-0.17544435,-0.019405857,-0.044854313,-0.29755613,0.21537092,0.05541635,-0.010470501,0.0016469761,0.024239833,0.021337552,-0.16084386,-0.22977522,-0.19980131,0.12820897,0.24832937,-0.06849409,0.016785733,-0.25335985,0.35851717,0.2078462,-0.25007117,0.006378733,-2.908348E-4,-0.025047993,-0.031688657,-0.08614378,0.20279482,-0.31731495,-0.16515464,-0.188198,0.19629067,-0.15422536,0.1385316,0.049762625,0.10966851,-0.2854261,0.0018643629,0.22269905,0.2173156,-0.0972999,-0.06589934,-0.25109676,0.22201791,-0.44291243,0.26540998,-0.3188537,0.009939677,-0.2519018,0.12319855,0.13488726,0.22792327,-0.1817057,-0.28866383,0.045760468,-0.1894939,0.10289867,0.067627065,0.0065741153,0.124017745,0.06575613,0.17490248,0.28517225,-0.12223761,-0.23268332,0.20582497,-0.15323782,0.2419167,-0.2090124,0.011895255,-0.09531203,-0.1997854,0.21589425,0.03250064,0.05563893,-0.16921788,-0.057402518,0.02118118,0.30849186,0.15651229,-0.21250227,0.041120466,0.15704627,0.041640993,-0.2968964,0.18642752,0.22560881,0.046683066,0.11259259,-0.016654972,-0.47102746,0.017871587,-0.34576595,0.32102668,-0.19419627,0.08892404,0.064308256,0.1975725,-0.069980845,0.11975104,-0.41581208,0.0029808043,0.3452616,0.09547598,-0.04133092,-0.07656875,-0.1322606,-0.07908666,0.24762267,-0.043137126,0.22946064,-0.30513766,-0.29020324,-0.099841684,0.11730298,0.15228693,0.13409977,-0.03823696,-0.332128,0.13969512,-0.004294601,0.02074846,0.2591977,0.06423007,-0.2007091,-0.116996594,0.055842467,0.007977549,-0.16804408,0.20615004,0.21083452,-0.08432048,-0.29787418,-0.11478783,0.28769878,0.09857681,0.19474114,-0.25903764,-0.3318766,-0.020190049,-0.22439606,-0.057407618,-0.033570092,0.10590916,-0.1787966,-0.12675656,0.1243545,-0.17599359,0.40718225,-0.119415365,-0.08460314,-0.11995702,-0.16889477,0.34803113,0.27472067,0.03849647,-0.27384698,0.35269153,0.12829256,0.05379473,-0.10628812,-0.47171208,0.094351664,0.16386968,-0.39930344,0.21831067,-0.28078604,0.14386086,0.2797264,0.20501137,-0.39506295,-0.05722612,-0.17332748,0.05571319,0.17112276,0.14458649,-0.08053705,0.18770067,0.011665842,0.25088564,0.23470846,0.23962222,0.0361489,-0.13674812,0.12504867,-0.24693206,0.17078857,0.36463448,-0.17949967,-7.205074E-4,-0.05319441,0.1463713,0.22050339,-0.24650767,0.31318283,-0.275054,-0.12919283,0.08573203,-0.05984657,-0.28927344,0.24430189,-0.01893728,-0.17965262,-0.25479496,-0.06071722,-0.23483099,-0.18914089,0.35742548,-0.24642886,0.19601831,0.100079894,-0.075423226,0.21174805,-0.047556784,0.19543222,0.017341856,-0.18673617,0.024636272,0.09966423,0.20342171,0.016362166,-0.120319396,0.027272506,-0.017416317,0.3108103,-0.26580524,-0.11327571,-0.02547703,-0.15981303,-0.10418234,-0.06194557,0.2289374,-0.3914258,0.25604042,-0.04644715,-0.20066288,0.10555966,-0.21821706,-0.12067828,0.2455259,0.028657421,-0.16365066,-0.36021733,-0.14603452,0.015533238,-0.15902913,0.15925756,-0.02306921,0.094566934,0.29851246,-0.27755117,-0.22051533,0.09816482,-0.35600394,0.25611505,0.2244596,0.29026228,-0.10756061,0.049169466,0.18084162,0.05837904,0.31271157,0.29326493,0.24076506,-0.23927327,-0.28447613,0.2611194,-0.025755592,-0.2666112,-0.1399669,-0.14625953,0.21426722,-0.11140854,-0.20884907,0.15685919,0.15757066,0.080082275,0.004410228,-0.061088,-0.22502847,-0.027785415,-0.27137017,-0.054553304,0.041903857,-0.09522423,0.15028419,0.18236826,-0.34680915,0.09820797,-0.18612169,0.13798136,0.012326619,0.20493376,-0.29183555,-0.06764902,0.30841735,0.11985183,-0.18922701,-0.006470658,-0.34431875,0.45498222,-0.10834095,-0.23455298,0.09848032,-0.23865919,0.3085731,-0.033398774,0.14908987,0.2980607,-0.36617544,0.21826614,0.02891396,0.24162413,-0.4147611,0.24999572,0.15391748,0.14539175,-0.0020425115,-0.26498407,-0.19047977,-0.036378548,-0.19842383,-0.12670204,0.27942988,0.17900561,-0.016155457,-0.14351915,0.10873571,0.15476619,0.06814565,0.101362005,0.13082887,-0.15857582,-0.03769035,0.19962433,-0.25212544,-0.35129848,0.1951531,-0.111321904,0.13938552,0.04747505,-0.18015197,0.036913626,0.1876374,0.2541534,0.15733705,-0.14771038,-0.30568066,0.20917459,-0.044698983,-0.02102589,0.028645152,0.04710112,0.036396638,-0.10421929,-0.08328391,0.08975161,0.101875655,0.12786853,-0.15934199,0.017986964,-0.16926043,-0.018147128,0.0772345,0.070206806,0.1296013,-0.09362658,0.003577981,-0.3190155,-0.02237742,0.024861077,-0.059146047,0.20051791,-0.24563943,0.20471254,-0.16490547,0.31002724,0.16031802,0.12814465,0.05232364,0.10467066,-0.11950185,-0.08095035,-0.013495865,-0.26687056,0.03193412,-0.21061301,0.072726056,0.19615477,-0.3102204,-0.2425953,0.35312122,0.046566598,0.16209099,0.38275006,-0.14742357,-0.36699602,0.022182144,0.007595043,0.2142837,-0.16039391,-0.24196331,0.14241087,-0.09189153,-0.23192962,0.11780922,0.2429795,-0.14562747,-0.16219261,0.021826487,0.1974575,0.21891294,-0.262769,-0.22504413,0.15871124,-0.07632809,-0.13560787,-0.2756501,0.2697277,-0.13047591,0.07453052,0.06650016,-0.12527019,0.2773846,-0.03925507,-0.26408938,0.28525686,-0.060720798,0.13185562,0.08928924,-0.27405858,0.325208,-0.20362945,-0.12352306,0.07952361,0.11483857,-0.0782548,-0.18983395,0.015065109,-0.38161522,0.16861176,0.081654675,-0.20524447,0.20343602,-0.2608388,-0.029879373,0.05171932,0.3776915,0.23045957,-0.42840284,0.16675648,0.25225288,0.23086758,0.1662877,-0.29193154,0.05635174,-0.15860707,0.11630998,-0.2110884,-0.27289683,0.059546497,-0.39201248,0.42171973,-0.02445932,0.5000127,0.17061439,-0.1459145,0.018710328,-0.07530633,-0.16163237,0.012916265,0.26939845,0.1671982,-0.059149947,0.21225485,0.17271549,-0.1471562,-0.05853412,0.23475662,-0.09585435,0.19496162,0.024242152,-0.21512337,-0.17456931,-0.14901248,-0.1533378,0.16702297,0.36371222,-0.07801057,-0.10008056,-0.082985096,-0.23819174,-0.12437234,-0.20416282,-0.20191246,0.22183247,-0.116121404,0.14854042,0.23538241,0.05419539,0.3297385,-0.24085388,0.12567303,-0.06277135,0.057162486,-0.10858182,-0.074390784,0.15021856,-0.26873246,0.01662837,-0.3403632,-0.13166396,0.053345848,0.21650821,-0.1510246,0.015746545,-0.15789852,0.09487012,-0.38043037,0.31167412,-0.19848774,0.1550717,-0.2571863,-0.109718785,-0.064638056,0.076386414,-0.06772101,0.13105452,-0.3206742,0.21684761,0.03882972,0.13544019,-0.13487552,-0.06342921,0.18079227,0.22250557,0.05411127,0.29806653,-0.31639442,0.25030243,-0.32986104,0.13974197,0.17764167,0.13401155,-0.16316491,-0.31576785,0.033648565,-0.3486904,0.24570303,0.045789864,-0.40486154,0.0291579,0.13767546,0.13104923,0.23285343,-0.254107,0.14238442,0.10112351,0.1311737,0.12618582,-0.068781495,0.21786429,-0.24132545,-0.20634677,-0.07226381,0.048040625,-0.1449087,-0.13208356,0.061849706,0.19995247,0.30354294,-0.04604179,-0.14842594,0.16691759,-0.29180914,-0.23815799,0.16430165,-0.36506197,0.2641313,-0.45964056,0.007390329,-0.17493902,-0.044053555,-0.015255076,-0.051742796,0.20085323,0.16361496,0.22090875,0.032749094,0.0049654874,-0.021010585,0.297982,-0.24124053,0.18755215,-0.052499887,0.22837119,-0.39416343,-0.3041325,-0.22580826,0.20408279,0.35823077,0.06834164,-0.19335358,-0.02149369,0.0065326355,0.27212775,0.25760376,-0.14297041,0.38414502,-0.39498377,-0.07286247,-0.28195474,-0.54706043,0.05176984,-0.38052815,0.06315386,-0.21355681,0.07930469,0.2418012,0.013307712,0.18491077,0.1309624,-0.21077676,-0.19397052,-0.3020361,0.032077026,0.012258974,0.023938874,-0.12148097,0.35713276,-0.18625908,-0.21226078,0.11196149,0.14541686,0.302759,-0.094134726,-0.13997202,0.30828917,0.09750443,-0.27142105,0.05695282,0.17158149,-0.002462541,-0.12437465,0.040300008,0.025282348,-0.37428978,0.24803364,-0.23249039,-0.058662705,0.31491166,0.004423701,-0.05131233,0.08698233,0.10199798,0.039884165,-0.05411307,0.26271585,0.029901689,-0.0012660351,0.025689142,0.240257,0.3983165,-0.38384482,0.27612334,-0.2842356,-0.05448432,0.18306655,0.018276885,0.3076379,-0.20968087,-0.2966479,0.3682274,0.052438166,0.047417786,0.0573736,-0.026950859,-0.15306388,0.082363464,0.21005574,-0.3154755,-0.063250855,-0.13488232,-0.16546322,-0.10320364,-0.041531213,0.26326057,-0.29256007,0.3008125,0.33879182,-0.006344709,-0.28928137,-0.0017433679,-0.03537477,-0.20536666,0.29088488,0.21858516,0.06860505,0.08873439,-0.33761597,0.17276004,-0.003431319,-0.054429702,0.24790154,-0.046534214,-0.3368342,0.13933194,-0.21207452,-0.007432659,0.05945602,-0.29451928,0.081949666,-0.024612632,-0.22788747,-0.2726448,0.22561707,0.19545676,0.24142912,0.09085161,0.031195672,-0.08390098,-0.08959481,0.2312078,0.07610978,-0.20021074,-0.2853072,-0.1668596,0.16675441,-0.30227038,0.10260633,-0.22437342,0.11089164,0.11389442,0.05997394,-0.017869633,0.034678705,0.010897446,-0.049528945,0.30706376,0.031977735,0.21162829,0.12642772,0.29641744,0.023691649,0.037672456,0.021833004,0.0154250255,-0.029908238,-0.42979217,-0.29578176,-0.17527798,-0.21381128,-0.11027258,-0.17726661,-0.26066813,0.28219938,0.1867136,0.019482652,0.30837876,0.14722523,-0.055390332,-0.095904306,0.04574774,-0.1665216,0.12673174,-0.40022716,-0.13727954,-0.2959022,0.33995908,-0.07982746,-0.042705204,0.1949906,0.11219428,-0.08608574,0.25929883,-0.07744581,0.37702295,-0.3291887,-0.05055318,0.20616479,0.100013554,-0.087728694,-0.15937401,0.09070022,-0.09598583,0.086208,0.1771604,0.09780168,0.21051213,-0.11817107,0.12307498,0.07921659,-0.22964239,-0.41247192,-0.07681938,-0.18753918,0.10215806,0.15520859,0.13463417,0.2918089,0.3762146,0.07236635,0.09280227,0.07680034,0.14465022,0.23467271,-0.32218432,0.12852958,-0.24250877,-0.15422414,-0.16905174,-0.08166594,-0.14810452,0.1510054,-0.31690687,0.08543611,0.23341581,-0.4415601,0.15333508,-0.0595503,-0.3482328,-0.05095848,0.2482296,-0.13810189,0.3067812,-0.16687436,0.18293826,0.034388766,0.087278806,-0.075985886,0.035120904,0.068765596,0.36155263,-0.1547268,0.04219494,-0.097662084,0.092843674,-0.23560669,0.01834372,0.34476772,0.13895565,-0.18212584,0.19369096,0.15092978,0.20555341,0.09775432,0.15007979,0.13004068,-0.29680032,-0.25406036,-0.083777644,-0.20230818,0.05691534,-0.15132436,0.15763819,-0.016341034,-0.14374396,-0.056615066,0.12783338,0.17922147,0.053951576,0.26066417,-0.4193752,0.22006153,0.057821553,-0.51192796,-0.026762528,0.46203786,-0.07335331,0.100571364,0.16194846,0.26109686,-0.015067954,0.10286416,0.15605792,-0.08688665,-0.0957672,-0.14501801,-0.12631464,-0.06392683,-0.1946804,-0.323983,0.034521602,0.101890884,0.32496464,0.008606677,-0.4447,-0.43381196,0.25137672,0.21948661,0.13111997,-0.25997806,-0.13284685,0.0416402,0.22421405,0.0848723,-0.22878836,-0.1825528,0.16910133,0.31489635,-0.17911775,0.05203836,0.071024336,0.1686051,0.255875,-0.10154926,-0.12862071,0.2029319,-0.3107812,0.23837405,-0.017919468,-0.32026526,0.26249325,-0.40188488,-0.15142259,0.14723456,0.028478414,0.3609158,0.13727494,-0.31863916,0.16901313,0.27465412,-0.16148615,0.22071901,-0.13480543,-0.17189796,-0.2215579,0.2726808,-0.04314,-0.0030647789,0.1829809,0.3513457,0.065038115,-0.14243595,0.038524248,0.0018055096,0.062126864,0.0023055098,0.38441497,0.002147956,0.2433479,0.17668514,-0.3867207,0.20774771,-0.23244457,-0.13957764,-0.07394881,-0.05668041,-0.23684658,0.12300424,0.29020384,0.18961707,0.037597336,0.17174907,-0.26526058,-0.020066477,-0.10666385,0.16967209,-0.15102932,-0.10115798,0.0016315078,0.2457157,0.2862405,-0.06907751,0.033159357,0.09039883,0.2219008,0.4289704,-0.01505849,0.2700186,-0.37915736,0.03074262,0.08935034,-0.11397994,-0.3032928,-0.20711073,0.03851738,-0.12226946,-0.31797972,-0.08532562,-0.041482475,-0.13233656,-0.17701894,0.3904474,0.14338021,0.29266697,0.3931575,-0.26133755,0.20650226,0.081160516,0.2919806,-0.048889153,0.1691293,-0.072302714,0.075156055,-0.29951382,-0.07644373,-0.08487973,0.2213282,0.3807064,0.028327253,-0.012229126,0.024914524,0.066057675,0.0921529,-0.18816951,0.05746947,0.118764736,-0.114750884,0.16886984,-0.26201254,-0.08901724,-0.11387909,0.3955307,-0.2810095,0.25861937,-0.25447872,0.14041947,0.09133188,-0.30672348,0.13087024,0.23289996,-0.25158906,0.29926997,-0.3705781,-0.12390158,0.07466117,0.07830202,0.02534339,0.13698252,0.1428937,-0.106774166,-0.40249938,0.4229684,0.17255394,0.18477364,-0.3235015,0.104763046,-0.15760368,0.18463507,-0.049904782,0.37427017,0.050555836,0.12983888,-0.24465717,-0.2798107,-0.07653399,-0.1731934,-0.18684497,-0.06244089,0.1176148,-0.014781657,-0.0143382745,-0.11117052,0.27191836,0.13067222,0.057879154,-0.33301568,0.3721236,0.058757517,0.18590629,-0.14383876,-0.24981326,-0.1827194,0.45878088,0.0035760847,-0.071220554,0.27856365,-0.336724,0.42035344,-0.42253584,-0.19188206,-0.23327488,-0.17896964,0.15684819,0.07966619,-0.12455052,-0.09524402,0.11532654,0.19956306,-0.09512154,-0.024773965,0.043423336,0.20467794,0.1513521,-0.004825148,0.0056132134,0.29994595,-0.38059273,-0.054644182,-0.3314015,-0.20256649,0.21412368,-0.096719466,-0.2481727,0.27411225,0.08808118,0.0070551364,-0.18667081,-0.32913822,0.21273665,0.076815546,0.12857632,0.1626445,-0.27343026,0.30216354,-0.20007022,0.10120763,-0.11473686,0.14295295,-0.16367182,-0.21609722,-0.34674484,0.27863944,-0.4182324,-0.15290096,-0.1610021,0.025292289,-0.2525596,0.33746818,-0.34148157,0.17052372,0.21110395,0.16668157,-0.0263798,0.11349034,0.034597952,-0.049845327,0.29443932,0.004160735,0.3263864,0.04134847,-0.0033810851,-0.02119216,0.05207016,-0.030847661,-0.05651835,0.17719148,-0.1100193,0.11439359,0.14402321,0.38178077,0.06485701,0.36298916,-0.17132877,-0.17191114,0.03532289,0.27264193,-0.18251975,-0.15926309,0.1829806,0.077603765,0.075205326,0.17553267,-0.20376733,0.054821275,-0.22482696,-0.114175536,-0.03381657,-0.1714015,-0.16911972,0.22138758,0.13438445,0.1565532,0.04828914,0.05298148,-0.07258806,-0.18810713,0.29531634,-0.08605531,0.00553981,-0.43698865,0.3322543,-0.12542455,-0.27526933,0.12406872,-0.07635269,0.17369108,-0.03500795,0.17764926,-0.27169707,0.237261,0.24795918,-0.1454807,-0.14665839,-0.14736278,-0.33276898,0.13895264,-0.37368736,0.25570238,1.2283071E-4,-0.06753943,0.3962466,0.08366636,-0.09799597,-0.047472205,-0.05347278,0.123072155,-0.009384364,-0.055786014,-0.36725,-0.23232186,0.11125448,-0.16769539,-0.17508766,0.43716842,-0.14801456,0.14073476,-0.15336284,-0.038739435,0.06382142,-0.34930602,0.17361134,0.33677033,-0.08706608,-0.033037066,0.09183269,-0.34676966,-0.056320004,0.1805341,-0.2373463,0.22086532,0.10714653,0.1355342,0.3131051,-0.32411972,0.19177301,-0.0498531,-0.24159065,-0.002095474,-0.026649933,0.15888633,0.08365295,-0.11810822,-0.08726856,-0.045528263,0.236572,-0.01949054,-0.1926896,9.53233E-4,0.010826836,-0.18592206,0.01870913,0.013639924,0.38583514,-0.16868779,0.31358227,-0.00824379,0.30552942,0.0205374,-0.31025612,0.038850624,-0.29762897,0.07116035,-0.04587892,0.044866625,-0.19618446,0.17296852,0.060912784,0.26796845,0.21829514,0.3606314,-0.036288377,0.08027409,0.37432614,0.17780057,0.12122668,-0.028901523,-0.27477103,-0.31093135,0.29510936,0.2551258,-0.0065349336,-0.24752046,0.08836676,0.24675447,-0.35207775,0.2910049,0.0649353,-0.24561504,0.011358303,0.27406758,-0.35906953,-0.09911985,-0.23024788,-0.028355777,-0.24406394,-0.3246155,-0.044698894,0.13468155,0.36344892,-0.06862952,0.1317565,0.101438,0.20573398,0.13311957,-0.10667936,-0.32268763,-0.34391674,0.18285125,0.0716517,-0.08801734,-0.10080613,1.9117928E-4,-0.0125036435,0.050972026,0.1811415,0.30184594,-0.26301706,-0.10433136,0.025665717,0.19934979,-0.15567279,0.07717291,-0.3478429,0.059910946,0.29773113,-0.034972433,-0.18332893,0.09656004,0.24177404,-0.3407861,0.07900193,-0.07784196,0.26968256,-0.099164315,0.06508787,0.034883004,0.05390025,-0.047404636,-0.09694709,-0.22130379,0.0055340873,0.33305082,-0.1336001,-0.04616251,-0.322933,0.28974977,-0.34222645,0.2251415,-0.31833845,-0.2973972,-0.18821006,0.24565999,0.28494635,0.23426798,-0.22296838,0.08855299,0.2506649,-0.32008648,0.14663878,0.1036792,0.38296926,0.037529804,-0.15732771,-0.15467024,0.2179952,0.15731254,0.09252264,-0.30123922,-0.1674799,-0.015749231,-0.27369833,0.06988784,-0.4100899,0.24300721,-0.074842796,-0.22929294,0.40231723,0.17902291,0.17615293,-0.099163085,0.19046056,-0.18420342,-0.10504456,-0.12370939,0.06763956,0.07272768,-0.190382,0.25893417,-0.16968003,0.09924663,0.09475415,0.2055872,0.19603992,-0.15217753,0.25161308,0.086281694,0.30071625,0.23802595,-0.04184783,0.3560506,-0.039296623,0.01684525,0.006838399,-0.053533845,-0.18615307,-0.004153498,0.24791744,-0.12477842,-0.16091989,0.027440136,-0.112547696,-0.15132442,-0.10228689,-0.16732883,-0.13025399,-0.2165051,0.20936626,0.1960371,-0.19491553,-0.16979259,0.15680802,0.18306047,-0.35090184,-0.113523275,0.13836813,-0.22714783,-0.028967647,-0.10437056,0.14541109,0.263913,0.1868465,-0.2019561,-0.09105644,-0.1476264,-0.16216306,0.13344665,0.12169831,-0.22991674,-0.15913355,-0.20004036,0.21912633,0.13544504,-0.17291144,-0.0013932771,-0.12797755,-0.14555213,-0.21675625,0.046260867,0.15357153,-0.13371229,-0.15420158,0.14610763,-0.034524374,0.027622916,0.03879192,-0.14195533,0.035529066,-0.3575264,0.10037573,-0.24081244,-0.30504122,-0.01572443,0.023839166,0.011562869,0.20689096,0.4064808,-0.14721064,0.19107085,-0.041644286,0.33321422,0.18757933,-0.1895015,-0.04066086,0.016852044,0.019464599,-0.3950597,0.33145028,-0.0331886,0.12422486,-0.19428115,0.055185396,0.27467787,-0.0057808678,0.27504048,0.04926401,0.15630457,-0.1718821,-0.06369449,-0.29050007,-0.15637283,0.3205166,-0.22503908,-0.24952804,-0.11477844,0.43203026,0.33756208,0.32291362,-0.2743416,0.044799168,-0.07077419,-0.21949837,0.21936534,0.19805577,0.113243215,0.033434432,-0.25516954,-0.18994673,0.1802716,-0.34090108,-0.3451437,0.17534766,-0.21898314,-0.018368658,0.093855694,0.47557113,0.0652295,-0.002429145,-0.29856238,0.25109023,-0.22663231,-0.36218962,0.22254886,-0.13846256,-0.3245552,0.21719627,0.21486428,0.16509143,-0.0044048987,0.14438584,-0.12568077,0.17865916,-0.048519336,-0.049707953,0.041131027,0.117592536,-0.32576713,0.016100891,-0.07143757,0.13731247,0.041064683,0.22425734,0.067956045,-0.030530851,-0.15624785,-0.133815,0.32742956,0.32380694,-0.36110634,0.19389956,0.34804392,0.12771428,-0.39382762,-0.3966034,-0.24983262,-0.13837859,-0.1305239,0.31407884,0.27211693,0.17320918,0.011337417,0.2730114,0.03225473,0.36733454,-0.0028994696,0.21526325,-0.2445816,-0.29697666,0.21699351,0.123229526,-0.08862232,-0.17275108,-0.13479377,0.12020199,0.30263913,-0.2232718,0.28005663,0.024623076,0.23699918,-0.07384891,0.10315366,0.3209661,0.1572701,0.024627546,-0.33456454,-0.07310725,0.009470768,-0.12121098,-0.124007374,-0.00952577,-0.38766503,0.12463491,0.00871335,-0.15916337,0.089385755,0.24150126,0.009193372,-0.3044375,-0.11722256,-0.37438965,0.2541479,-0.18023059,-0.19068228,0.31941167,0.11013898,0.11225723,-0.18557404,0.09383529,0.23995711,0.14802366,0.006372752,-0.13575524,0.0800683,-0.2932038,0.34177402,0.11778713,-0.35091397,-0.20449877,0.10830547,0.27908996,0.31689975,0.16385995,0.13012475,0.18664719,-0.10086031,-0.3222421,0.40120688,-0.24467404,-0.2936398,0.23052841,0.07932482,-0.19908807,-0.24291308,0.26982155,-0.09297079,0.24510403,-0.31505588,0.2739548,0.070517465,-0.2658367,-0.2669581,-0.06861091,-0.2378814,0.11869679,0.111490816,-0.42752218,0.07734358,0.06555885,0.16011299,0.012567532,-0.16383736,-0.24783109,0.11050174,-0.21510294,-0.02720056,-0.25934404,-0.36702812,0.27684322,0.09255672,0.22981608,0.15243305,-0.19035958,0.16465557,-0.01177562,0.3181962,-0.17177157,0.15250254,0.09705747,0.19971628,-0.049424205,0.07104575,-0.26766592,-0.010290549,-0.33359385,-0.27088875,-0.06360927,0.34008378,-0.39616135,0.07358825,-0.04202485,0.4053508,-0.016975632,-0.115427025,-0.29784602,0.07738135,-0.10668129,-0.09418261,-0.11941785,0.33122054,0.031014862,0.13248508,-0.23740594,-0.040441766,0.18288864,0.010239027,0.10543178,0.05383539,-0.07455269,0.27690154,0.12805219,-0.09498774,-0.115497105,-0.25886068,-0.15272857,-0.3134891,0.054338094,0.35139006,-0.043663118,0.014018286,-0.14947325,0.24524663,0.09235377,-0.1020241,0.23763922,-0.2671949,0.05099266,-0.20248975,-0.028385285,-0.067948796,0.095515415,0.2651901,0.067845605,-0.30050334,0.4171966,-0.11106961,0.10784996,-0.26582834,0.01653184,-0.2272766,0.28094965,0.11030777,-0.12773958,-0.23705657,0.11010169,0.21007162,0.26474467,-0.07381892,-0.07739765,0.03217118,-0.15093549,-0.028112523,-0.40540674,0.12635152,-0.17070429,0.26962274,2.2099186E-4,0.093957834,-0.230762,-0.11876776,0.287365,-0.30050507,-0.023729267,-0.2475325,0.017534653,-0.25319642,-0.17815834,-0.38468367,-0.022888219,0.013841926,-0.026498355,0.14124228,-0.2788158,0.28918478,0.26757243,0.07901344,0.33788404,0.3269918,0.1472799,0.23662704,-0.08725346,-0.146467,0.31363916,0.22131641,-0.037758052,-0.12182965,-0.14939627,0.14879674,0.24320656,-0.35714725,0.16839443,-0.24451889,0.08045258,-0.095496796,0.1453505,-0.09341579,-0.11154636,0.2110843,-0.10515419,-0.09261221,0.118221186,-0.04972374,0.0041375244,0.08216199,-0.06523712,-0.022943871,-0.12617879,0.07350281,-0.0012250751,0.27703726,-0.003586143,-0.17534989,0.20023741,-0.04447664,-0.17726675,-0.07745229,0.15326528,0.026669877,-0.15262163,-0.13557723,-0.07621303,0.057344582,0.25206485,-0.20325437,0.07959484,0.2581101,0.27018762,-0.097013235,0.07009664,-0.12413065,0.12342537,0.331828,-0.16654406,0.16465482,-0.1675471,0.14178306,0.25804302,-0.42546368,0.37754744,0.112131424,-0.053598225,0.06995469,-0.16283317,-0.003649903,-0.1561892,-0.067024544,0.02723077,0.16535085,-0.24009983,-0.038618747,-0.28089243,0.35473955,-0.14616126,0.027886191,-0.049776446,-0.048075803,-0.32920727,-0.11770272,-0.39200637,0.1545347,0.19969557,-0.30997512,-0.02597699,0.17034788,0.27517825,0.076618224,0.28380215,-0.15342844,0.2781569,-0.29938355,0.032242198,-0.06543724,-0.4158341,0.1679065,0.13864057,0.037456617,-0.19749054,0.052522678,0.15708779,0.20698975,0.13483952,0.076396756,-0.22522199,0.36110145,-0.25457677,0.082556844,0.29312116,0.36769953,-0.018414209,0.078689195,0.22438988,-0.15841407,-0.33185256,0.0056591285,-0.22622025,-0.03214161,-0.2431277,0.27412885,0.05389454,0.12933065,0.20021135,0.109305315,-0.16549668,0.18584786,-0.06634991,0.07975177,-0.01776266,-0.20481777,-0.13633846,0.11368491,-0.20928957,0.30820224,-0.12016377,-0.27804786,0.11997377,0.3329478,-0.37251753,-0.02778232,-0.13174357,-0.04196137,0.1208873,0.043985236,0.25841162,-0.0702583,0.21516371,-0.1965088,0.06542386,-0.042845625,-0.1009745,0.10725119,0.1528366,-0.21224663,-0.27839944,0.31291386,0.09821401,-0.2360889,0.046456713,0.29840127,0.055209897,-0.16915926,-0.089996025,0.152989,-0.39571607,0.22354266,0.33393586,0.21933544,0.06954476,-0.2528147,0.11449473,-0.29577443,-0.065611884,-0.0068901805,-0.035233695,-0.11150426,-0.03541163,-0.20908406,-0.33532947,-0.026660778,-0.14644393,0.13190283,-0.23143083,-0.3710087,0.21286942,-0.29880756,-0.02869378,0.04674215,-0.26355788,0.29990864,-0.5184951,0.008307549,-0.20454346,0.2989914,0.2913387,0.10864021,-0.2064075,0.04953991,-0.3277042,0.31657544,-0.36608052,0.3401412,-0.030185921,0.25066245,-0.060339246,0.0934704,-0.09877032,0.07253891,-0.25370684,-0.33736664,0.11425497,0.15876915,0.12312047,-0.07082696,0.2604314,-0.22448686,0.20560227,-0.14673837,0.039057292,0.13009992,-0.012991801,-0.4501223,0.15947708,-0.1669156,-0.072345644,0.10918373,0.27022406,-0.19199857,-0.20549355,-0.14957958,0.16038814,-0.15652227,0.31510437,0.27322474,0.1115618,-0.11249612,0.33132318,-0.17308323,-0.18698503,0.19718796,-0.081354916,0.29023978,-0.12740491,-0.004945958,-0.37583953,0.30666727,0.18036947,-0.16705377,0.0074544107,0.28392276,-0.08087871,-0.06794985,-0.18780456,-0.11681872,0.21275751,-0.23320462,-0.086898796,0.29047614,0.33786884,0.08453133,-0.42012903,0.018268783,-0.12244776,0.26094896,0.34152153,-0.2904932,-0.10444216,-0.30813476,-0.017535008,0.16828161,-0.22009641,0.10651216,0.128754,-0.11487416,0.09657117,0.26209465,0.11675587,-0.02474747,0.094109975,0.32202932,-0.16013072,-0.021471117,-0.32563,0.3576265,-0.2658128,0.39668548,0.07427123,0.19219416,0.17393614,-0.14715864,0.17900568,0.045685355,0.07138316,-0.110286266,-0.19995114,0.23233856,-0.26858145,-0.22940587,0.19492812,-0.2165285,0.10544079,0.07223225,0.13715878,-0.04788684,0.18778458,0.18595256,0.14704527,0.035813265,0.2583989,-0.11788182,0.42345685,-0.034421545,-0.33331373,-0.03129349,-0.29660234,-0.1613731,-0.3676171,-0.012702738,-0.30735692,-0.28892624,0.24904731,0.23116183,0.1632951,0.100000836,0.07255321,-0.05539929,0.38032106,8.973386E-4,0.04827955,-0.07862099,0.058263704,-0.3926131,0.0891956,0.13342631,0.37222624,0.22526312,0.25663823,-0.18932982,0.057964273,-0.1646663,0.16381072,0.2550167,0.12826084,0.16519253,-0.259898,-0.20661032,0.33416474,-0.12543799,-0.2735382,0.17416036,-0.2921613,0.005073444,-0.22849533,-0.10766532,-0.37100586,0.05638254,0.12383759,0.23089494,-0.1277278,0.39746267,-0.15126777,-0.08038469,-0.15211909,-0.3017192,0.17796512,-0.19159688,-0.17030874,-0.03775215,-0.047786288,-0.14644437,-0.08264338,-0.025192443,0.16249885,-0.15112391,0.2142615,0.1866506,-0.17510702,-0.13446577,0.17381497,-0.026710795,-0.26876962,0.02389979,-0.10968578,0.16985883,0.23162171,-0.09946814,0.070199974,0.03710543,-0.0031326998,-0.010585722,-0.050546434,0.16381612,0.058467902,0.034214854,-0.1221464,0.22962102,-0.122683994,0.042366583,-0.19564429,0.1701295,-0.2158555,-0.13393794,0.14225939,-0.044940174,-0.076677606,-0.17533241,0.2061481,0.08024943,-0.07316451,0.197262,-0.25247243,-0.13592853,-0.1744731,0.25107345,-0.12630355,0.16856405,-0.103374764,-0.33407813,0.056675367,-0.08921882,0.011916749,-0.17339185,-0.005402663,0.20147474,-0.19097553,0.16578159,-0.20526676,0.1548221,0.41092512,-0.07261321,0.018275486,-0.012556375,0.3866287,0.008773194,0.22785527,-0.11026288,0.046670116,0.19825707,0.2024198,0.31780264,-0.255691,0.13920808,-0.1191329,-0.15205082,-0.19683859,0.038977914,-0.35011587,-0.03479052,0.11825096,-0.029330898,0.022529345,-0.24955495,0.03136652,0.08060775,0.4519995,0.031203756,0.1720046,0.05581366,0.14498726,-0.06389952,-0.3493953,-0.23993388,-0.28818038,0.030818798,-0.16975982,0.20902534,-0.15813358,-0.12805302,0.068252765,0.13246565,0.2562377,-0.05918579,-0.036995474,0.26227957,-0.25974268,-0.19368578,0.07416942,0.21997526,0.044038568,0.45162752,0.45294255,0.08373042,-0.24493106,-0.17870171,0.042573273,-0.27605224,0.3718351,-0.11139817,-0.14649007,-0.039738696,-0.03199414,0.11402129,-0.25673583,-0.0681142,0.27263245,-0.22676046,0.09201283,-0.20172176,0.052549604,-0.11153789,0.0046951035,-0.12101349,0.1597742,0.2254844,-0.0135596795,0.08959949,-0.16524108,-0.2400629,-0.4040782,0.31646314,-0.0685275,-0.23419854,-0.12813549,-0.17003393,0.14200604,0.3190365,0.19267257,0.015002585,-0.05149788,-0.13120446,0.05979646,0.1571286,0.20734563,-0.11515835,-0.1619014,0.06195881,-0.013735835,-0.1509168,0.019350225,0.133865,-0.1454458,0.38790637,-0.24222039,0.39815715,-0.15911467,0.35502383,-0.1112923,0.05346059,0.10355775,-0.25510457,0.20050019,0.16647793,-0.05064133,0.13883172,0.059044678,0.0051170997,-0.023352847,-0.16417535,-0.17460687,-0.1642453,-0.07317936,0.18316717,-0.12122347,-0.33084235,-0.3076766,0.021811694,-0.20960167,0.012535148,-0.24065907,-0.13529246,-0.075286254,-0.22097336,0.26190242,0.040457685,0.19801706,-0.19810231,0.22280571,0.30327886,-0.12521058,0.24706501,-0.3371603,0.31852716,-0.20758978,0.12669264,0.17401215,-0.17191109,-0.13024998,0.18969233,0.26409054,-0.31642798,0.07932147,-0.10320621,-0.2814402,-0.259935,-0.43442473,0.09135856,0.23456055,0.1043831,0.013315234,0.2602151,0.14549078,-0.24384591,0.1895943,0.1261806,0.19577774,-0.33394292,-0.03904119,0.08436867,-0.055229247,-0.046723403,-0.15051717,0.107710786,0.24068548,0.10245492,-0.19213451,-0.37518966,-0.28073308,-0.32624856,-0.28075123,-0.06636562,-0.051346865,0.21251199,0.2514686,0.116982356,0.25586808,0.29006225,0.19353941,0.30109978,0.2745446,-0.28772655,-0.2481392,0.042306267,-0.022014854,0.14401968,-0.08522943,0.18046841,-0.1610368,-0.07126063,0.2156778,0.0713483,-0.3943143,0.1937549,0.030472314,0.3339048,-0.3003455,0.22466265,-0.25407362,-0.22610901,-0.17669195,-0.24082379,0.23106158,-0.28457123,0.36444178,0.13773857,-0.047796585,0.2115912,-0.087430574,0.27938944,-0.09395267,-0.020732382,-0.13449055,-0.10861584,0.3266484,0.029411973,-0.08903084,0.33068657,0.12415615,-0.01801604,-0.1560694,-0.21469685,-0.14934666,-0.08197613,0.33645916,0.15712085,0.29200438,-0.24492827,0.029772846,0.18242145,-0.0023747412,0.18573189,0.18168284,-0.01623828,0.07893477,-0.24496122,-0.09954888,0.14580661,-0.080504216,-0.025308037,0.09035035,0.3274589,0.13459969,0.11583431,0.2726388,-0.08087328,-0.13179174,0.18818723,0.10227826,-0.1173298,0.09289693,-0.10378247,0.2586013,-0.10904786,0.19139187,-0.3124646,0.0075979354,-0.08996603,-0.28605095,-0.13885896,-0.055363692,0.004051153,0.041124366,-0.22270715,-0.3018846,-0.2987507,0.23199965,-0.0024351275,-0.14249794,0.17949,0.16990949,-0.37473208,0.16533278,-0.29254353,0.05849603,0.10766964,0.12795992,-0.0047906246,-0.12705694,-0.15685603,-0.030589214,0.3004219,-0.1283453,0.34642023,-0.072238386,-0.028923925,0.111269414,0.051297445,-0.0535172,-0.16022791,0.16229437,0.19207864,-0.20987658,-0.003997065,-0.11184225,-0.0320669,-0.031008793,-0.5123697,0.06158564,0.23058696,0.1333339,0.2686528,-0.24644412,-0.1602991,0.292089,0.024330694,0.3887472,-0.26245314,0.01876544,-0.18131047,-0.0465711,0.099119745,0.1491959,0.16929984,-7.918405E-4,-0.25866944,0.26853538,-0.33704075,-0.17321329,0.4800592,0.05630392,-0.07117399,-0.31602958,0.1831735,-0.23366942,0.10323493,0.15021828,-0.050687287,0.2347164,-0.20414954,0.019388823,0.09545306,-0.35249868,-0.12262239,0.08773175,0.25280452,-0.0070923567,-0.34999323,0.23330514,-0.1693987,0.08843368,0.2980807,0.28071263,-0.099406995,-0.25621974,-0.10062651,-0.021831352,-0.058834385,0.24496901,0.06343406,-0.18100137,0.028133685,-0.19908205,0.16808525,0.37900218,-0.18786922,0.1172656,-0.073590875,-0.087521166,-0.16381218,0.16001981,-0.21305273,-0.11967337,0.18203737,-0.026448026,0.041320432,0.2165927,-0.1757082,-0.1645873,0.37671655,0.087473914,-0.17197444,0.1456803,-0.35846034,0.3109133,-0.1987721,0.27810946,0.0057579316,0.08270514,-0.30566046,0.15950586,0.18073846,0.24646227,-0.26708955,-0.26972353,-0.13276209,-0.20432371,0.19822419,-0.08876494,0.19001813,-0.1501159,-0.21470127,-0.23366632,-0.06905935,-0.18444276,0.11127564,0.03877589,-0.28212255,0.090586424,-0.08179757,0.08764855,-0.37428498,-0.19207036,0.36232287,-0.18104954,0.10169817,0.13339865,-0.018579196,0.22513881,0.12477714,-0.053579424,0.21017483,0.053133782,0.02340411,0.16775928,-0.23161447,-0.075730905,0.21155111,-0.12172227,-0.25602242,0.03341908,-0.1416397,0.26195833,-0.0969836,-0.03564821,-0.012246767,0.21916147,0.027618868,-0.2540175,0.13643128,0.089267015,0.1748178,0.2569029,-0.32682806,0.30948713,-0.38110173,0.1614194,-0.1484836,0.13361166,0.2247542,0.06755258,-0.032040603,-0.42522138,-0.32133737,0.14429632,0.32269627,-0.06235789,-0.012620699,0.15566766,0.11340213,-0.047782283,0.08533293,-0.04453748,-0.0032647066,-0.20566878,-0.0038604268,-0.10253974,0.040330604,-0.13721773,0.058360707,-0.20422958,0.23906182,0.06367101,-0.21281564,0.29648516,-0.21634953,-0.17010461,0.31716764,-0.2525588,-0.19499142,0.32545388,0.29608583,0.024639357,0.12007398,-0.2451057,0.055601638,-0.32981408,0.013313848,0.19534425,0.03274832,0.21590646,-0.31230652,0.25033924,-0.18622167,0.19222556,-0.15517588,0.12885857,0.14790156,0.14011157,0.11161851,-0.1660803,0.05358491,-0.31272483,0.089520715,0.22794421,-0.20603223,0.14200367,-0.068662316,0.058619045,-0.039271004,-0.19267571,-0.101659045,0.2260551,0.010813778,0.34638125,-0.29010138,0.22679357,-0.10579462,0.14582254,0.3105854,0.06548065,0.060945954,0.05592631,-0.21233791,-0.22876945,0.17263696,-0.1463513,0.11811908,0.29708663,0.4295426,-0.019387057,-0.043072775,-0.14257857,0.061031394,-0.19619252,-0.29897645,0.072118185,0.22699311,-0.17577505,0.12322162,-0.11708536,0.3610928,-0.32679936,0.37274405,-0.06738931,0.29306266,0.18448028,-0.05002148,-0.16715103,-0.26455945,0.21356383,0.105432205,-0.32916355,0.15571825,-0.3340452,-0.18573254,0.051217373,-0.1524871,-0.14523278,0.35522303,0.26553577,0.27444795,0.041964788,-0.30775076,0.103825755,0.045349102,-0.05847684,-0.3197249,-0.020111216,0.30224547,-4.8838934E-4,-0.39394245,0.22039782,0.05008824,0.060762405,0.09262289,0.03655895,-0.4060445,0.49196434,-0.34982443,0.1299233,0.009787612,-0.05271438,0.1329203,-0.36741376,-0.09923992,0.2213881,0.06468942,-0.36411288,0.37962243,0.24239631,-0.40169862,0.12189479,0.12633815,-0.06026218,-0.008184703,-0.04891946,-0.029640352,-0.18720995,-0.14121126,0.16478296,-0.361518,0.28608093,0.12146384,0.34743494,0.22823533,-0.2219171,0.461175,0.14288364,0.086501606,0.058339596,-0.2605519,-0.009719973,-0.06282153,-0.4121907,0.19891992,-0.1108223,0.26987264,0.0730985,-0.19539772,-0.21750928,0.18758346,0.22424775,-0.20276776,0.13362424,-0.25102893,0.05434257,0.2599462,-0.0053316453,-0.18421175,-0.2850947,-0.0066895606,0.307292,-0.118259996,-0.14614847,-0.1883049,0.26005074,0.41614282,-0.43398008,0.16344859,-0.18549228,0.25063288,-1.7019684E-4,-0.22805952,-0.060566913,0.045270603,-0.20647937,0.01310391,-0.056268845,-0.040498246,0.3221139,-0.4009665,-0.28748727,-0.31582218,0.1274446,-0.25560603,0.35480943,0.014835122,-0.30888507,0.008718933,0.25244215,-0.31960022,-0.28288925,0.27697402,0.22409964,-0.2812255,-0.12140892,0.18634775,0.20193934,-0.17854705,-0.11604738,0.378508,-0.037433688,0.072600126,-0.094225205,-0.2603171,-0.30350447,-0.1804067,0.15064412,-0.15609685,-0.15707251,-0.022356972,-0.11403199,0.43562365,0.008405464,0.19870263,-0.26010114,0.065817975,0.03401407,-0.02906372,0.008090458,-0.07006936,-0.09914566,-0.12480278,-0.13293312,0.21314351,-0.24974881,-0.30613664,0.26842618,-0.15115245,0.0875558,0.17500916,-0.03654171,0.023578715,-0.19877952,0.40569663,0.18449469,-0.0945153,0.08119403,0.09461304,0.02181903,0.037926283,-0.23582813,0.16743302,0.18263085,-0.21063343,-0.14800386,-0.13689405,0.15142685,-0.12590854,0.15780526,-0.1289717,0.1493583,0.02358402,-0.17648326,0.2839532,0.28582358,-0.06105753,0.08345559,-0.13886268,0.12878187,-0.091561586,0.020067781,0.23860522,-0.07175267,-0.27555767,0.1775015,0.14033407,-0.218864,-0.13127303,0.0839687,-0.16241002,-0.2011336,0.0010964331,0.32677534,0.15828949,-0.06952164,-0.08945836,0.17680702,0.10979893,0.28700984,-0.07842383,0.27215144,-0.060974427,0.41734177,-0.31213245,0.16945921,0.19928649,-0.0870442,-0.032007318,0.15696713,0.029166939,0.091248296,0.17330188,-0.21385312,0.21208932,-0.517157,0.11681932,-0.0120907035,-0.11115116,0.024364062,-0.15608652,-0.17731781,-0.10981811,0.16702822,0.0052602445,0.11318532,0.3104029,0.3327362,-0.21484745,-0.085827425,-0.09216925,0.23083618,-0.08527967,0.30022186,0.037494227,0.01670044,-0.20422357,0.11690197,-0.10045581,-0.16856739,-0.1362295,-0.09793144,-0.14751603,0.028954841,-0.028714327,0.20669107,0.16661717,-0.102702364,0.0659684,0.5334715,-0.057201434,0.0028204864,-0.16031726,0.21439071,0.14262123,-0.250203,0.18891571,-0.14605477,-0.23285607,-0.02396551,-0.2886633,-0.27211243,-0.265783,-0.31744128,0.14657556,0.037951916,-0.15640199,-0.07604996,-0.20824583,0.1939595,0.20570341,0.21887887,0.029745104,0.18751742,-0.09001513,-0.24154277,0.3854712,-0.22765324,-0.057029873,-0.108094536,-0.24297468,-0.19568974,-0.07944267,0.025177693,0.12700051,-0.18052988,0.31415075,0.01767792,0.0041319616,-0.20286085,0.047108907,-0.11182013,0.12840539,0.21941696,-0.03627404,-0.09902035,0.110008955,-0.05002646,0.03591843,-0.20054,-0.36760926,0.4072847,-0.071535416,-0.27309954,-0.32967132,0.18761554,0.08581436,-0.3536803,0.3457414,0.19659118,-0.17616762,0.47545806,-0.30689344,0.36366528,0.23106389,-0.13108319,0.29713136,0.01806018,-0.22555879,0.25204688,-0.26325393,0.06830678,-0.35625964,0.0330564,0.15740596,-0.080569535,0.06480786,-0.15043628,0.24814306,0.007519633,-0.047814,-0.10733819,-0.21860391,-0.17105202,0.15704666,0.2542787,-0.17683162,0.28000712,-0.1864774,-0.03547487,-0.28661296,0.37179172,0.018608151,0.038211912,-0.27057755,0.24639791,-0.22368051,0.28758126,-0.17554863,-0.084897146,0.2478659,0.0075618047,0.047067184,0.18096788,-0.16964583,0.059683125,0.08602085,0.24254863,0.055233657,-0.014311444,-0.101539634,-0.26328558,-0.13039172,-0.14813659,-0.13787931,0.19876423,-0.28151724,0.19449352,-0.18636928,-0.016457096,-0.22276849,0.18749796,0.1894333,0.29698107,-0.313653,0.36589804,-0.42971978,0.36031428,-0.23171698,0.08211488,-1.7274615E-4,0.2750604,-0.3032169,-0.365681,-0.021644592,0.16075388,-0.10769719,-0.18834932,-0.15192229,-0.28849676,-0.19866095,0.40492207,0.1500258,0.35167414,0.16904089,0.23722398,0.06248454,0.014623212,-0.025432441,-0.39178976,0.077141024,0.05757029,-0.28027943,-0.2540412,0.09543451,-0.22902079,0.14762338,0.20626858,0.04278502,-0.31220493,0.32894775,0.23059952,0.3390024,-0.1058385,0.071918264,0.39578703,0.20201029,-0.25879797,-0.1635415,0.26292628,-0.12806942,-0.274225,-0.114966795,-0.121573254,-0.08038824,-0.017447997,0.17536554,0.0051493095,0.29373586,0.30219495,0.21958369,0.012705299,0.2153347,0.3412692,-0.051378597,-0.10836901,-0.009837553,0.23132032,-0.089443,0.12820709,-0.24478363,-0.17917638,-0.036059987,0.19388014,-0.338937,-0.18676068,0.20776395,0.10879729,0.022419728,0.12177341,0.08691688,0.36101907,0.27358913,0.03393551,0.07699172,0.25267226,-0.20792936,-0.1545643,0.024763094,-0.07981114,-0.28538066,-0.061207388,0.24893397,-0.25164032,0.13423465,0.19653241,0.07787352,0.12412569,-0.20189947,-0.10868512,-0.07377006,-0.25428575,-0.12898065,-0.087439455,0.0486479,0.047242183,0.013918163,0.13468869,0.07066436,-0.14656945,-0.22040536,-0.1575438,-0.13568431,-0.21989691,0.14402032,-0.098515004,0.018338485,-0.071540765,0.27655694,0.04224918,0.24913144,-0.08256793,0.17703147,0.07963282,-0.042023804,0.15568376,-0.19923283,-0.04668775,-0.29430416,-0.045027554,0.24945082,0.15168041,-0.013975017,-0.22888477,-0.16826236,-0.28442594,-0.20608985,-0.17860305,0.20991504,0.050794717,0.22691156,0.1517366,0.22195919,-0.13382854,-0.025680909,0.10502066,-0.011664423,0.2644168,0.009910687,-0.23708478,-0.0057658427,0.18816487,-0.089349926,0.0684676,-0.100425795,0.30454403,0.063256554,0.28597188,-0.24636516,-0.1866769,0.07703723,0.00878376,0.095835075,0.23066708,-0.0865954,0.13638969,-0.15698649,-0.10645599,0.20151079,0.00724688,-0.15576957,0.082921356,-0.24086565,-0.11434951,-0.12071793,0.30266294,-0.071407564,-0.20873165,-0.05563635,0.1936547,-0.29631886,0.4249078,-0.10639725,-0.12498098,-0.07870731,-0.059621435,0.31822145,0.06486137,0.23457734,-0.3241078,0.19071154,-0.15792434,0.10264385,0.057381894,0.20161209,-0.3223626,-0.2777518,0.3057859,-0.25512838,0.2830667,-0.2538252,-0.19950052,0.27305463,-0.26209462,-0.15941976,-0.005072629,0.34268084,-0.12307609,0.25428167,0.24860169,-0.011097209,-0.04475768,0.14167833,0.06589489,0.25474146,-0.12395036,-0.08433377,0.353316,-0.29325056,0.20765717,-0.18622795,-0.26862425,0.1989363,0.008942914,-0.115193546,-0.12560886,-0.17375103,0.22961791,-0.108514115,0.2217168,-0.042368144,0.022162717,-0.046348985,-0.1873037,-0.08437482,-0.16205321,-0.28182134,0.2302882,0.23658104,-0.36844918,0.15989494,0.12639545,-0.08263041,0.044866454,-0.006505584,0.34001866,-0.1423853,0.25857437,0.15925796,-0.24286973,-0.16590288,2.0634182E-4,-0.07842049,0.3302236,-0.14600153,0.15254083,-0.020925192,0.023671504,-0.22454454,0.20920226,0.43961564,0.279773,-0.059745047,-0.09413836,-0.10724316,0.21825656,0.1373051,-0.13440308,0.29014564,-0.19422135,-0.28939626,0.2547634,0.10827869,-0.09792374,0.16572925,-0.2809573,0.012469502,0.3461641,-0.31397182,-0.4156248,0.014080138,0.2700955,-0.08154962,-0.49224302,0.44951445,-0.06909324,-0.13425483,0.12643375,-0.02229934,0.10364749,0.102574036,0.2112273,0.09518885,0.009446052,-0.013504176,-0.12743583,-0.19732583,-0.09008663,0.0623277,-0.014768251,-0.060146846,-0.2640761,-0.02729593,-0.050262243,0.3016389,-0.090248115,-0.28760174,-0.29159322,-0.26217902,0.09101271,-0.28225273,-0.0677279,-0.31967467,-0.2931889,0.15486924,-0.041089363,-0.170905,0.12238947,-0.07196192,0.20248112,0.14709802,0.27298564,0.08772641,0.06502634,0.25210783,0.011628659,0.20837557,0.23053046,-0.0418341,-0.2638704,0.07633552,-0.10341762,0.040315893,0.20081891,0.044699803,-0.090776466,-0.014374646,-0.3141939,0.052288506,-0.19992927,0.25941297,-0.1793688,-0.17363393,0.03861072,0.26183736,-0.033191413,-0.080336764,0.30555275,-0.13660102,0.023578344,0.06706502,-0.014381873,-0.2576826,0.29904595,-0.15606986,0.23880845,0.2610827,0.24177055,-0.20201306,-0.14030041,-0.37782648,-0.3835366,-0.23660938,0.07959936,0.2831708,-0.11893397,0.37766615,0.09913023,-0.06533272,0.08164237,0.0940509,0.15448053,0.088833876,0.15293385,0.14434825,-0.060956717,-0.20142488,-0.24872172,0.19914745,0.04226939,-0.14259486,-0.014970114,0.05900751,0.252161,-0.07319058,-0.16168569,-0.14746581,0.12743153,0.027421786,0.27948818,-0.23556139,0.045576453,0.25930804,-0.1745775,0.09755339,-0.30100837,0.0829486,0.17460908,0.172644,-0.24414697,0.06445384,-0.23685458,0.25490108,-0.21942273,0.16121104,0.08950604,-0.14947519,-0.19878818,0.15667473,-0.022663323,0.00448171,0.19557302,-0.03549092,-0.27675724,-0.002407815,0.118149556,0.05964124,-0.1569609,-0.0357051,-0.20236635,0.095409155,-0.021015828,-0.051491693,-0.14005597,0.29031187,-0.20638013,0.42231923,0.0047447076,-0.2046639,0.28528166,-0.04810076,0.25649473,-0.043826867,-0.24768135,0.2740397,-0.24517292,0.07860894,0.20143436,-0.25880387,0.11883115,0.026906876,-0.33110017,0.09288059,-0.38506907,0.07501509,0.028595172,0.100323334,0.24816802,0.24780829,0.14135098,-0.26548457,0.15240695,0.36600697,-0.24685061,-0.27878654,-0.18497525,-0.3010394,-0.1787598,0.25627562,-0.24652451,-0.11023492,-0.08700521,0.057729013,0.2304485,-0.22676092,0.25290185,0.26665604,-0.3776957,0.11937007,-0.3750754,0.2142713,0.20826134,-0.18506679,-0.04654368,0.31247413,-0.114540525,0.21155073,0.22606207,-0.09115195,0.024956703,0.2791757,-0.2058917,-0.29312232,-0.1327732,0.1996181,0.31648153,-0.17667305,-0.3895949,0.19548059,0.026446573,-0.077383764,0.0032621701,0.17181617,-0.31328613,-0.15986927,-0.2599534,-0.1943649,0.1971137,0.2979045,0.058998413,0.019583095,-0.29202238,0.30893943,0.22408518,0.18029912,-0.24267082,-0.3737688,-0.18863875,0.10592925,-0.0607719,-0.014101369,-0.019577935,-0.25525135,-0.17278033,-0.12275045,-0.1739196,0.11232953,0.031591207,0.29910898,0.21662758,0.17264608,0.3369474,-0.23937912,-0.13539271,-0.08476602,-0.19207713,0.2620045,-0.2634498,0.113319986,0.04305416,-0.1828032,-0.10746984,0.3346651,-0.05103463,0.14308843,0.30005628,0.1322938,-0.20149568,0.30451363,0.11578689,0.09207914,-0.107909575,-0.09281699,0.051303275,0.13398594,0.017281856,-0.3219397,-0.1399282,-0.23343655,0.022689762,0.08356976,0.07155899,-0.19065194,-0.28391567,0.34657124,-0.10498407,-0.043400723,0.21336302,-0.08027868,-0.14081515,-0.27300838,0.06968291,-0.015526587,0.08348371,-0.13989519,-0.14625145,0.1037778,-0.28796962,0.19878042,0.06002459,0.19767101,0.22760937,-0.3474142,0.06877411,-0.08544266,0.11807626,0.14509326,0.037115835,0.15914056,0.39100957,-0.15490861,0.103777796,-0.09133223,0.5811012,-0.26952374,0.34805456,-0.3416032,0.28921968,0.10648178,0.1504543,-0.14270376,0.3376834,-0.26720896,-0.04547212,-0.25208044,-0.192076,-0.16498503,0.052594785,-0.14477865,0.18275647,-0.0013253199,-0.17439507,0.38537502,-0.1070376,-0.21085949,0.10917037,0.29553896,0.40871313,0.20582712,0.10903643,0.06876039,0.22555766,-0.18605517,-0.027674507,0.021721069,-0.2667432,-0.21389142,0.027645472,0.30384046,0.065603584,-0.09848435,-0.109545164,-0.33662313,-0.10972711,0.042951394,0.1686269,-0.07541046,0.015469363,-0.09328541,0.1048255,-0.062194843,0.038695548,-0.28132516,0.2508065,-0.09274953,0.3153969,0.067566656,-0.02013736,-0.2917364,0.27324033,0.061775632,0.15779592,-0.24284151,5.0601544E-4,-0.3474473,0.1440769,0.0049897847,2.8342617E-4,-0.24407248,-0.20769267,0.27183786,-0.14065407,-0.09753377,0.241063,-0.2420006,0.42982173,-0.39442217,0.29227144,-0.02813156,-0.28483814,0.22695772,0.08267836,0.15420277,0.17730547,0.1372122,-0.05914065,-0.062177762,-0.085649654,-0.12354188,-0.18860766,8.532821E-4,0.28263587,-0.29556602,-0.081201196,-0.17088,0.12077104,-0.17268911,-0.113895595,0.2896845,0.34069765,0.024392556,0.07727365,0.12297519,0.29802826,0.20313138,-0.17215516,0.33526674,-0.2715113,0.00867858,-0.26696217,-0.18059397,-0.22256838,-0.065154254,-0.25948194,0.14687556,-0.24964254,-0.025708763,0.1173656,0.19813916,0.45810497,-0.22201936,0.19784704,0.32291868,-0.3549603,0.24274455,0.066909105,-0.09792584,-0.090061605,0.105371885,-0.11890386,-0.06761608,0.1927516,-0.3788329,0.052786637,-0.09470436,0.09127403,-0.18043333,0.17938884,-0.11134936,-0.096157,0.023687426,0.15481365,-0.27213898,0.20262004,-0.26626122,0.22588474,-0.19465987,-0.13399048,0.21251294,-0.23664345,-0.15851818,-0.04140443,0.020339685,-0.33916193,-0.05393675,0.051588748,0.02928701,0.32226837,0.051640544,0.21887247,-0.25814098,-0.12981535,0.07150778,0.24506931,0.13795334,0.116603844,-0.06896818,-0.2242775,-0.20156188,-0.18169811,0.29830915,-0.120449156,-0.14277117,0.29906934,-0.18674538,-0.07588055,-0.25779793,0.18721634,-0.24790108,0.186225,-0.42728034,9.77649E-4,0.4392562,-0.30586165,-0.2054783,-0.24479574,0.27152097,0.2820431,-0.07486899,0.06582971,0.3565326,0.013831649,-0.035159875,0.23766734,-0.035100907,-0.13163786,0.055119816,-0.19550215,0.09420497,-0.25337374,-0.2808383,0.109267935,-0.07522275,0.04739114,0.23470344,0.18097393,0.30642882,-0.027575294,-0.022772457,0.22262093,-0.064460844,-0.088388875,-0.31713477,0.35575032,-0.06972912,-0.3154566,-0.18587647,0.25006202,-0.10049888,-0.1818406,0.24920125,0.1384977,-0.197292,0.24035332,-0.04999976,-0.28696638,-0.27060342,-0.09733379,0.102639645,0.0154326,0.052633777,-0.17166138,0.15663616,-0.38227302,0.11535238,0.41929388,-0.33314908,0.2886082,-0.24502675,0.15561707,0.29383484,-0.14900973,-0.18495046,0.29201007,0.0726602,0.22826657,-0.06397672,-0.10004543,-0.043803055,-0.08620609,0.3305277,-0.060957562,0.20914423,0.1755215,-0.087126546,0.3260691,-0.135583,0.16548607,-0.31939873,-0.44363582,-0.15911299,0.07936022,-0.13246688,0.023815457,-0.26057726,0.15235195,0.23921026,0.03723653,0.20158635,-0.030652711,0.033373833,0.21532564,-0.29261702,-0.111017466,0.14207318,0.101887554,0.41325852,-0.16344567,0.24086921,-0.1921965,0.11743709,-0.094327115,0.37084487,0.082567535,0.043220293,-0.1001545,-0.039524574,0.10454782,0.08456366,0.12454249,0.05941574,-0.14239793,0.07445429,-0.21953024,-0.15598595,-0.13017878,0.16987194,-0.29508984,-0.065388955,-0.19484559,0.3998993,0.043714706,0.0056307316,0.36237305,0.10779909,-0.2179044,0.14182118,-0.15765297,0.045443717,0.25399444,-0.097091034,-0.08828866,-0.027335217,0.3405041,-0.29647052,0.2659394,-0.08301239,-0.36179137,0.2803025,0.20410404,-0.08191896,0.111446865,-0.09752901,-0.17975229,0.23721729,0.0142889125,0.009716159,0.29528764,-0.29778168,-0.09855364,-0.2630611,0.09157956,-0.16688068,0.23013212,-0.13155533,0.09838022,0.10738924,0.20305027,0.10612811,0.15356958,0.022463515,-0.06953603,0.056007188,-0.08109443,-0.25009665,0.09248938,-0.011692241,-0.10129103,-0.2283115,0.23380204,-0.19960038,0.09561752,0.08384946,-0.41042534,0.2311924,-0.39764953,0.19005017,-0.34126502,-0.03921858,0.06090997,-0.24086018,0.37746033,-0.30269274,-0.19799742,-0.11934229,0.08750508,0.3453031,0.17918496,-0.2956071,0.24093166,-0.25892702,0.10481381,0.41753027,-0.17329162,0.03805164,0.10052497,0.10374852,-0.1575559,-0.11210229,-0.2143902,0.26342148,-0.2339147,0.07380223,0.10824035,-0.22324666,-0.15051171,0.22843574,-0.15236862,-0.21593188,-0.13291155,-0.12794073,0.03624459,-0.090321146,0.030274263,0.33766496,-0.22785634,0.15052885,-0.10401813,0.19085546,-0.13595106,-0.010684408,-0.06964952,0.048773922,0.25122643,0.33221078,0.18244623,0.096278794,0.20335372,0.1724421,0.06111062,-0.22776505,-0.36406028,0.17707786,0.22214095,0.0646744,0.040004704,0.2662113,-0.4167585,0.22625408,-0.29360992,0.017291673,0.030429402,-0.12258746,0.030451432,0.10440484,-0.12226413,0.12314619,-0.43108824,0.029420663,-0.2624176,0.2920783,0.24453434,0.16286217,-0.10593181,-0.30622783,0.116181515,-0.010515689,-0.011631888,0.2560908,-0.17578903,0.26448882,-0.33489132,-0.1560023,0.30426586,-0.04803211,-0.18231362,0.029453697,0.045500472,0.03264675,0.3381962,-0.27856135,-0.09801704,-0.3154347,0.097392686,-0.13842632,0.2887,0.19544053,-0.35023314,0.16269267,-0.17505474,0.31293866,-0.033668917,0.04126094,0.04299908,-0.26406375,0.10302635,-0.24216202,0.09732539,0.24797955,-0.15832885,-0.037071783,-0.19755015,0.13637005,-0.18726973,-0.19929479,0.049609043,0.3195326,-0.07251686,-0.01607485,-0.011969143,0.08753827,0.09113942,-0.22403517,0.19235472,0.07864292,0.24443512,0.08328771,-0.17853688,0.17176037,0.035107598,0.25271145,0.095654495,0.08600899,-0.24913682,0.13049915,-0.2310693,0.247821,-0.20935838,0.20783041,-0.4360414,0.06354789,-0.25514165,0.0021992207,-0.13890164,0.11017646,0.35950488,-0.09529989,0.21335392,-0.13749664,-0.041061554,-0.23510446,-0.07529691,-0.13871759,-0.24190575,-0.34721926,0.05909285,0.214443,-0.29962304,0.27022073,-0.27515122,-0.02796222,0.3260047,-0.050229352,0.24494264,-0.21122758,0.14631023,-0.095119506,0.24682406,0.37358633,0.0095414845,-0.13919134,-0.10765824,0.1352814,-0.28014198,0.024035934,0.1706345,-0.20041624,-0.10852671,-0.057980914,0.065045595,0.093850024,-0.22189039,-0.048541095,0.2605419,-0.11480662,0.05806252,0.02248612,-0.2094302,-0.031722683,-0.013474731,-0.16272283,-0.055902958,0.048593305,0.10115979,-0.3418231,-0.2688859,0.036291484,0.26821113,-0.2819808,0.029674156,-0.26945937,0.25794655,-0.04319714,0.08976135,0.28858718,0.13972357,-0.28342173,-0.14034833,0.15391944,-0.053435087,0.25416908,-0.099107005,-0.14185339,0.18030946,-0.14158791,-0.0024567933,-0.3405404,0.27054048,0.08773076,0.4155994,-0.23917344,0.0764761,-0.2547925,-0.29512078,-0.17229973,0.1285953,0.27272516,-0.07071314,-0.22555551,-0.088389106,-0.16059832,-0.10345797,0.27120477,0.12831303,0.32163182,-0.31298116,0.14483522,0.23323241,-0.041521993,0.050675,0.019522773,0.23365743,0.07265452,0.36054707,0.43894246,0.42855853,-0.008278556,0.19948724,0.11659364,-0.13299873,0.13152821,-0.2631137,-0.037321232,-0.18471819,0.072834484,-0.22081502,-0.14410128,-0.057739913,-0.074151285,0.19049704,0.038574055,-0.18843383,0.0073328204,0.031945106,-0.20943661,0.24800722,-1.15211194E-4,-0.30430818,0.20009874,0.03421269,-0.017872684,0.085505195,-0.23914897,-0.04898967,-0.2853796,-0.05438941,-0.29869527,0.20763637,0.115380906,-0.25653443,-0.03739614,-0.28349578,0.1777234,0.17894517,-0.20517497,0.13682136,0.055151463,-0.18619117,0.15679634,-0.10818276,0.20941839,-0.2665599,-0.068674,0.034764487,-0.025531746,-0.18660024,0.22650881,0.29573995,-0.2409157,-0.097089544,-0.09221671,0.29878923,-0.30773923,0.31477687,-0.14220686,0.28163528,0.25970742,-0.10109121,0.016438302,-0.21914007,0.00550241,0.022704506,0.3223297,-0.053545192,0.097086824,-0.08673229,0.1335203,-0.087375,-0.16324396,-0.03404323,-0.24858381,0.10892466,0.1161189,-0.04807823,0.24011618,0.071973026,0.23602708,0.3511948,-0.1421595,0.22626974,0.21914296,0.0807555,0.24900487,-0.27283666,-0.20715941,0.0047176993,-0.075071596,-0.15090914,0.08847006,0.30413026,0.084924184,0.11739514,0.1656716,-0.005152005,-0.23050205,-0.12812993,-0.31914943,0.074145645,0.20395005,-0.1586049,-0.22481532,0.08068084,-0.25662512,0.28605106,0.095747076,-0.072829336,0.10103413,0.10879182,0.007864621,0.06402331,0.027254008,-0.28925306,0.15183194,-0.27353528,-0.13031955,-0.118470244,0.21347587,0.08864662,0.2861811,-0.3508508,0.3520424,-0.34506053,0.353568,0.33426517,0.24866629,-0.09579925,-0.19738173,0.39383793,-0.28019205,-0.0043627853,-0.21952322,-0.019719338,-0.015094045,0.10445809,-0.2883634,0.19730924,-0.18173729,0.11348842,0.25791228,-0.09025766,-0.35906723,0.28005677,0.46349323,-0.16618831,0.05650388,0.12805504,0.077900544,-0.18914038,-0.23233218,0.076736376,0.07623284,-0.16170634,0.117871806,-0.22394353,0.27252084,-0.13677712,0.11880824,0.19899854,-0.36010173,0.29989997,0.1559582,-0.101595916,-0.030847847,0.0037409004,0.24536023,0.16836904,-0.28211346,0.26713675,0.390548,-0.22687177,0.29873085,-0.10798449,-0.061376423,0.2893836,0.115192704,-0.25310075,0.13205382,-0.18620007,-0.090898916,-0.45390493,0.027086692,-0.326808,0.23626499,-0.13122404,0.2305675,0.067574054,0.061902165,0.19293411,-0.25781956,0.38777143,0.42946452,-0.063830644,-0.18811606,-0.083319984,-0.09975722,-0.016461963,0.17849422,-0.014673775,-0.18039024,0.22871363,0.16977029,0.22883959,-0.021334345,-0.17299129,-0.21451503,0.24482705,-0.19538459,-0.16447811,-0.22183229,-0.07041472,-0.22310777,0.11908518,-0.114325784,-0.0067467783,-0.27363846,-0.083605796,0.13554247,0.061470974,-0.09506649,-0.24855866,-0.45032498,-0.19833238,-0.022885744,-0.26543596,0.054892905,-0.1281277,-0.20064749,0.0029211033,0.13835749,0.21414398,0.29917586,0.13127972,0.22941503,-0.3380847,-0.2216384,0.3898769,-0.1077109,0.09906635,0.112032704,0.46633413,-0.5089576,0.012374297,0.26412976,-0.3769341,-0.078907855,0.071505696,-0.23788506,-0.14136106,0.36893672,0.18979779,0.19200033,-0.19775422,0.29367104,-0.39842746,-0.18370672,-0.19357498,-0.13156173,0.2942501,-0.24911366,0.22172514,-0.09083159,-0.122431986,-0.04190437,0.30178356,-0.24129727,0.013248021,0.1308996,-0.093875915,-0.26618904,-0.0682369,-0.056602545,-0.2264078,0.06775614,0.11501196,-0.02301017,-0.022493966,-0.0389962,-0.20921831,0.17911763,0.068452686,-0.3844014,0.32967722,-0.09262067,0.08853876,0.04961035,0.30454952,-0.0844329,0.0064866454,0.2145076,-0.010890212,-0.24173175,-0.023241641,-0.19590212,-0.19551519,-0.10164629,-0.012374035,-0.24646847,0.27547586,-0.017835788,-0.2224409,0.35114416,-0.16417325,0.042260893,0.1451018,0.11102311,0.08632015,0.09983014,-0.31686085,0.2031861,-0.02081639,0.11683844,0.10756601,-0.11466633,0.07501049,-0.2592124,0.1936093,-0.40062615,0.04613602,0.2892754,0.21726072,0.05339986,-0.27932316,-0.12788133,-0.18302493,-0.023562858,0.23713465,-0.14704064,0.24155034,0.18686093,0.05779259,-0.32487318,0.13653433,0.22666638,0.10860014,0.22935486,-0.21991186,-0.18171759,0.024397234,-0.28385806,-0.32712936,0.23406687,0.020720063,-0.21448363,-0.37598252,0.3417297,0.09257749,0.103407085,0.09558176,-0.36002377,0.13369794,0.16696258,0.16513214,-0.052771103,0.05307314,0.20279475,-0.35108906,0.17544056,0.15259391,0.055464942,0.094021074,0.08532328,0.053188454,-0.07938037,-0.057690162,-0.07784648,0.06703151,-0.20856826,-0.17379552,-0.031104796,0.04769469,-0.12402419,0.31804046,-0.043978736,0.32943454,-0.13950662,0.0336824,0.081555225,-0.13522053,0.07169485,0.3229916,-0.10347056,0.25938734,-0.3680428,0.08399767,-0.21649924,0.10798853,-0.20759068,0.075869866,0.003035564,0.5400413,-0.19949543,0.113854624,0.18417886,-0.13478102,0.2195095,-0.3070078,-0.05298831,-0.12876399,0.21469516,0.33034965,-0.25337002,-0.27689928,-0.1562678,-0.15353593,0.31508818,0.05727365,0.028548535,0.09545243,-0.27748877,0.17769478,0.038605224,0.23699461,-0.1931881,0.06439678,0.18626618,0.020341897,0.19588223,-0.22278866,0.15569109,0.055134773,0.13171288,0.19804117,-0.023874069,-0.17884797,-1.2857304E-4,-0.15609097,0.16872594,0.30032074,-0.13547824,0.18863834,-0.13871256,-0.19838281,0.0955442,-0.11807497,-0.053816617,-0.15096879,0.07760311,0.16256376,-0.29468548,0.4754491,0.31803438,-0.23888984,0.30906975,-0.31339782,-0.10020356,-0.07055708,-0.11106593,0.046425942,-0.10084791,-0.19320975,0.12565519,-0.35437745,0.3429031,0.06913067,-0.18496536,-0.08571547,-0.18339962,0.16167882,-0.29004434,0.30499637,0.012422777,-0.29873303,0.10206235,-0.108055584,0.37712482,-0.2813717,-0.105672926,0.12527211,0.48524272,0.16005823,-0.23480798,-0.026044575,0.24312507,-0.17130592,-0.014032295,-0.019609235,0.1827134,-0.18341029,-0.17776662,-0.19625291,0.23389803,-0.04440367,0.0018939715,-0.082104616,-0.19258375,0.16792284,0.14973888,-0.060905535,-0.16880307,-0.2800979,-0.301344,-0.051399413,0.1736918,-0.051798698,-0.04554966,0.25941548,0.210182,-0.16517006,-0.2654702,-0.06392535,0.24070986,0.25119638,-0.2366746,0.3705667,-0.032643847,-0.30263942,0.26899976,0.29860118,-0.11331012,0.17311579,0.1753041,0.03081113,-0.38333556,0.08180868,0.24056605,-0.0025826083,-0.15933187,-0.09780509,0.1275077,-0.14290528,-0.014806324,-0.1153569,0.2147343,0.1466291,-0.1760542,-0.19182223,-0.12686446,-0.16441245,-0.035335533,-0.05431359,-0.17371182,0.0022254705,0.110601954,-0.049525302,0.02843186,0.16733068,-0.123591386,0.12640823,0.10010379,0.084080495,0.21214134,-0.11907527,-0.019198641,-0.1694132,-0.208617,0.38345176,0.22204767,-0.18315996,0.32935968,-0.16914462,0.34421828,-0.16582665,0.14250202,-0.121162854,0.10877706,-0.12434993,-0.022474915,-0.18824767,0.047795378,-0.005427591,-0.26538566,-0.096548505,0.29339883,0.08005585,0.20305279,-0.16478397,0.29327002,-0.018096754,-0.07293527,0.35110506,0.017502697,0.025903575,-0.033168297,0.23012634,0.19895661,-0.10893677,-0.013181765,-0.20540425,-0.008555242,-0.031237584,-0.049310986,-0.17588815,0.23035581,-0.1168567,0.06311652,0.09581576,0.21135888,-0.34797302,0.14605048,-0.11876691,0.213591,-0.00792435,-0.23683777,-0.3373426,-0.07969504,0.36421344,-0.17998526,-0.22425486,0.10037912,-0.24265109,-0.052143916,-0.11515529,-0.30390623,-0.07544991,-0.023559228,0.2388449,0.057362597,0.20523287,-0.1375649,-0.0015718114,0.09611158,0.24581356,-0.011807088,0.3879819,-0.31931317,0.19107077,-0.31410238,0.0025293299,0.2516323,-0.25249046,0.030302512,-0.04661862,-0.08453158,0.17587419,-0.23487082,-0.19474232,0.24051957,0.12883607,-0.055384774,-0.2601753,0.09974027,0.32268506,-0.24833705,0.28142264,-0.020227533,0.11659579,-0.31040335,0.11040775,-0.17599045,-0.19793619,-0.36427423,0.33068177,-0.18156713,0.40572873,-0.07915738,-0.13388179,-0.013569764,0.28821835,0.028435022,0.21118185,0.30900264,-0.40845177,0.047522992,-0.06535998,-0.14541234,0.123430274,0.06636232,-0.37283832,0.15735565,-0.08690076,-0.027656443,0.07418228,0.06977064,-0.1848374,0.075490616,0.024187032,0.3219,0.30294675,0.039427355,-0.15573387,-0.3362635,-0.28099772,0.23058796,-0.36225554,-0.17936824,0.41911122,-0.10559385,0.11360087,0.01329042,-0.04935573,-0.065535426,-0.076351196,0.19277033,0.06504555,-0.07656372,-0.01918454,-0.35762915,0.18038796,-0.13566461,0.3004938,-0.104057446,-0.0023972883,0.363746,-0.110264525,0.079360634,-0.31726506,0.08145357,-0.35741338,-0.09230684,0.005420703,-0.26282853,-0.17142044,0.2453029,0.10292,0.11468235,0.11435213,-0.039289743,0.3306739,-0.121051185,-0.063308954,0.20948614,-0.0032146822,0.04567181,-0.09278844,-0.2906013,0.3672236,-0.10026536,-0.17732549,-0.28227645,0.33970383,0.00686713,-0.23337047,-0.031783286,0.27750942,-0.15656225,-0.044079218,0.26177996,0.031725757,-0.18298408,-0.11714579,0.16220503,0.17133,-0.10426688,-0.0529378,-0.03401691,0.03185109,0.15626344,0.19757965,0.010162233,-0.033355348,0.22800684,-0.13287242,-0.2853888,-0.31431434,-0.10359881,0.15629205,0.1581944,0.40456867,0.12616889,0.09542076,-0.20260456,0.11418277,0.005761297,0.10561225,0.27518573,-0.013973723,-0.20565556,-0.24559684,-0.19334023,0.12123708,-0.2201892,0.13936195,0.090670496,-0.28928116,0.22860946,0.18723758,0.21728224,-0.1776547,0.07328612,-0.08183797,-0.11354245,0.15529346,-0.06830368,-0.15785992,0.111072615,-0.06291078,-0.15659,0.071807474,0.21972677,0.16141972,0.12383958,0.07669803,-0.11685841,0.08633062,0.050830636,0.048840065,-0.049019217,-0.12351959,-0.060469046,0.31565812,-0.17678231,-0.314882,-0.13862233,0.18215191,-0.27596974,0.32662886,-0.14928912,0.20241638,0.04812733,-0.092913084,0.24894969,-0.021685801,-0.14963719,0.14433675,0.213043,0.119692974,-0.1507268,0.21795106,-0.103271514,0.19795245,-0.22043802,-0.0859535,-0.016305322,0.27120042,-0.2353254,-0.1493263,-0.40673813,-0.028672287,2.590362E-4,0.06496751,-0.24968274,0.42755723,-0.35962355,0.20891598,0.117295444,-0.32410324,0.38291454,0.052666377,-0.12274441,0.2636529,-0.25175697,0.345452,-0.09117069,0.13638878,-0.17805482,-0.10406918,-0.013157271,0.13307858,-0.17087723,-0.197405,-0.4258184,-0.04261592,0.12500751,-0.11484399,0.13263594,0.09682517,-0.14231671,0.04247436,0.124575995,-0.043831654,0.1536163,-0.4977442,-0.0020285272,-0.22695841,-0.23580287,0.22797795,-0.2769692,0.33558095,0.011944356,0.2428365,0.3467789,0.15962584,-0.11792583,0.24973194,0.27237982,0.35776857,0.19024359,-0.16409886,-0.20053843,0.12748992,-0.06305989,-0.0029037236,-0.1752406,-0.31278852,0.10209223,0.004402193,-7.4029533E-4,0.33940342,-0.20968896,0.05313359,-0.015110464,0.038232468,0.17301802,-0.11534618,-0.23425563,-0.10262107,0.076490276,-0.24364433,0.17205243,-0.16796461,0.23321696,0.23296474,0.053010564,0.3947744,-0.11895301,-0.01078734,0.007645754,-0.049915075,-0.08551828,-0.12514016,0.01869944,0.123867705,-0.14458099,0.31277403,0.20578192,0.040454406,-0.01835107,0.03831287,0.11851099,-0.060361825,0.27386236,0.1112741,0.05356624,-0.06824854,-0.09213408,0.36177933,0.028235042,-0.3334828,0.15746838,0.26726928,0.17155255,-0.15680104,-0.31968632,-0.3090318,0.059803218,-0.06300734,-0.26803717,-0.048584048,-0.16265671,0.0871056,-0.13380164,-0.29980662,0.15872431,0.07608933,0.23543605,-0.010508853,0.2607599,-0.353425,0.2620169,0.26602903,0.2553558,0.18515874,0.40344557,0.29344356,-0.004581856,-0.08524658,0.1632042,-0.071168095,-0.00952262,0.34017187,-0.046367582,0.2545677,-0.36354458,-0.21458702,0.19097467,-0.19927062,-0.04022975,-0.29247487,-0.17988867,-0.07520513,-0.28993726,0.1733119,-0.15885058,0.22511032,0.3097053,-0.36195594,-0.26243657,0.15976588,-0.12305305,0.13989706,-0.33084574,-0.27787468,0.19494388,-0.25761425,0.06057415,-0.028692614,-0.05117636,0.12786916,0.21140778,0.03286518,0.05605425,0.19729966,-0.12321981,0.23315574,0.1946642,0.020746503,-0.11841423,-0.12332338,-0.059751093,-0.055583354,-0.0017404004,-0.11734983,-0.13735612,-0.16110083,0.21173678,-0.32815045,0.17942965,0.03720579,-0.12348796,1.2344574E-4,-0.24824461,0.23360273,-0.1304052,0.27078798,-0.24589837,0.19268088,-0.1695097,0.31801662,0.33206898,0.03781047,0.032839105,0.17047408,-0.330921,-0.163113,0.31508136,0.08072579,0.26528165,0.016659187,-0.083936736,-0.16806518,0.12559892,0.030360922,-0.06037986,0.16187923,-0.046157766,-0.1953046,0.04080857,0.1733943,0.22117014,-0.11640644,0.22907051,-0.06576453,-0.24696425,-0.22573829,0.0050086183,-0.32437754,-0.0035850808,0.094400845,-0.05603968,-0.2622577,0.0431762,-0.05124776,0.3676556,0.33370978,0.32903823,0.016462915,0.25531116,-0.0839099,-0.11829224,0.05241428,-0.13749525,0.17366634,-0.15005942,-0.17912695,0.22728653,-0.29666063,-0.018718101,-0.0040912037,0.07962194,-0.16889168,-0.22017418,-0.07652679,0.17609037,-0.15746936,0.028739765,-0.31276315,-0.41169184,0.34260488,-0.0853742,0.3346315,-0.23409711,-0.092385374,-0.14987089,0.03194139,0.20240177,0.52378666,-0.24510397,-0.14424683,-0.31312633,0.028625006,-0.093141906,0.19851835,-0.32309702,-0.084698424,-0.18439116,-0.060965892,0.08394478,0.18491289,0.13761498,-0.33509845,0.09606311,0.24310276,-0.44837904,0.080699876,-0.2131147,-0.009976893,-0.04226065,0.2956201,-0.2513092,-0.005104045,0.0019749114,0.31541082,0.21695751,0.04736221,-0.10533699,0.2703546,0.12811455,0.18263128,-0.07098298,-0.0033431025,-0.14683712,-0.17671643,-0.09258643,-0.035062183,-0.3679313,-0.4941348,0.046620224,0.27190745,-0.018355494,-0.32547045,0.16352199,0.16831112,0.052733604,0.071069546,0.20010684,-0.27236694,-0.037014555,0.13214503,0.04723443,0.20169051,-0.0025139505,-0.10272213,-0.012070657,0.30292097,-0.26115325,0.40515292,-0.1628889,0.21799995,0.08898498,-0.16718145,-0.031497635,0.3466637,-0.26230854,0.036713403,-0.22061366,0.08260171,-0.17051646,-0.15266079,0.19394912,-0.34841177,0.27172744,-0.10390696,-0.07260453,-0.12995125,-0.2757488,-0.076579705,0.33673406,-0.07129872,0.2993472,0.1132209,-0.113439016,-0.023663588,0.14753902,0.039067186,-0.1975388,0.08946755,0.2573291,-0.21097676,-0.24117336,0.12287491,0.34012792,-0.034961756,0.37809166,0.3359692,0.31192043,-0.26932296,0.2668907,0.07125997,0.113056816,-0.0676762,-0.27996373,-0.25606316,-0.4031885,-0.16124214,-0.0150907105,-0.032021273,-0.08765565,0.20627423,-0.21308987,0.37706622,0.35028225,0.070948645,0.41223794,0.1894825,0.0033891702,-0.08674813,-0.35249713,-0.24500747,0.2040098,-0.22081824,-0.1438065,-0.097880185,-0.18942681,-0.05937965,0.22354978,0.11256843,-0.28635043,0.28082773,0.12076737,-0.05690363,0.0065513123,0.1792851,-0.19040303,0.05672093,0.25919494,0.0865012,0.04295698,-0.3737665,0.28194237,-0.10613463,0.16468415,0.08445206,-0.24795772,0.068604566,0.22162367,-0.1558123,-0.10529679,0.2229514,0.016133,-0.04031712,-0.19583987,-0.29010296,0.018077472,-0.020671142,0.10004732,0.025470711,0.01586575,-0.13404807,0.050062127,0.11757168,-0.20119438,-0.30653656,0.018991243,-0.09895093,0.060099505,-0.1125415,-0.25549397,0.2669792,0.026395194,-0.03444079,0.0107795205,0.08367351,-0.02572902,0.30551517,-0.26482123,-0.17971337,-0.0016736813,-0.1433402,0.32521176,-0.27816364,0.11073574,0.04933558,0.19036663,-0.048845258,-0.07554413,0.23758578,0.048090093,-0.028290108,0.174976,-0.19624886,0.03818254,0.121617645,0.07606019,-0.054781705,-0.10562355,-0.1549132,0.0069479286,-0.11746816,-0.15557358,-0.0774369,0.16678616,0.13854638,0.2109416,0.09895119,-0.22938062,0.12196138,-0.13286006,0.106096625,0.15332662,-0.0482562,0.18656106,0.080439866,-0.21625583,-0.24550985,0.08221981,-0.30780324,0.22883622,-0.2606887,0.09683768,0.02069869,-0.1184879,-0.0481405,0.33655486,-0.24130914,0.273173,0.067938976,0.04335653,0.38054237,-0.2972461,-0.033421848,-0.07429934,0.19359933,-0.11929477,0.25788915,-0.1406196,-0.10113995,0.043910477,-0.11970985,-0.3485801,0.10014151,0.022345576,-0.2782002,0.025239635,0.036765695,-0.1346018,-0.1769234,0.044547003,-0.02561421,-0.07891397,0.14766456,-0.16587411,0.33596045,-0.34131795,0.26594257,0.06363756,0.21923731,-0.091756165,-0.23274004,0.2926037,0.1274765,-0.0417262,-0.32592666,-0.12042131,-0.046318773,-0.00995357,0.14627765,0.24496876,0.11673226,0.041123185,-0.23547183,0.41816175,-0.25390938,0.061666243,0.048869032,0.14184135,0.24086407,-0.14857596,-0.20572698,0.2183762,-0.13345231,-0.2547311,-0.1777335,-0.14047693,0.22333395,0.15163597,-0.08008857,-0.07473955,0.39118302,0.096752696,0.19212528,-0.37169865,-0.34968728,0.075380564,0.29416773,0.19507103,-0.06910923,-0.11002215,-0.21493071,0.2396008,-0.09633436,0.31482,-0.113708995,-0.3024485,0.10056064,-0.04871506,-0.042415153,0.0039104857,0.12348958,0.021219084,-0.17641158,0.11107923,-0.19448581,0.26451844,-0.2502204,-0.27574992,0.026572531,-0.02053719,0.06877057,0.23304832,-0.29014763,0.25242382,0.14615053,0.08512157,-0.06703545,0.05919042,0.27669632,-0.028835088,-0.022461288,0.25953716,-0.033162694,0.06348455,-0.084229246,0.25505304,-0.23233667,0.07089207,0.438486,0.22041012,0.21484262,-0.18928044,-0.034796465,0.09352088,0.29579553,-0.32062963,-0.3199089,0.16612124,0.18311498,-0.08913039,0.062325418,-0.011447859,-0.005248063,-0.03505994,-0.121011816,0.04989932,0.13596892,0.12690799,-0.12482955,-0.18310529,0.21260098,-0.22787206,-0.25007302,0.1637392,-0.17420456,-0.15707788,0.22765952,0.23662382,-0.4576926,0.020546382,-0.35179603,0.091958195,0.14634517,0.03472281,-0.21927278,-0.032393705,0.311799,0.35059372,0.18151332,-0.22052704,-0.18749416,0.04695396,0.20500255,-0.08099462,0.15422726,-0.33323485,-0.26529682,-0.009638053,-0.32721612,0.3161736,-0.22007976,-0.14330299,-0.10146746,-0.2491168,-0.34758878,0.022800876,0.40969416,-0.044523228,-0.35142267,-0.077248454,0.3510041,0.075352594,0.40040848,0.36680436,-0.15652698,-0.19748573,-0.2076867,0.14493404,-0.103909716,0.15051432,-0.18072042,0.037943475,-0.01887689,-0.23064552,0.39257658,-0.16036543,-0.17387356,0.12644836,0.10207928,0.30236796,-0.012188248,0.061562486,-0.09534705,-0.1203698,0.05598969,0.120987445,-0.17081557,-0.12358384,-0.10752174,0.28383473,0.18710823,-0.097232476,0.0946582,-0.13643934,0.25153387,-0.24852218,0.20622323,0.19451997,-0.056691106,-0.24331589,0.15526222,-0.12179993,0.19891386,0.062413692,0.096823744,0.24955258,-0.25119224,-0.021943964,-0.057708945,-0.18330486,-0.20072982,0.068426065,-0.053259917,-0.21465735,-0.09215118,-0.2272823,0.21405959,-0.07754992,-0.04686928,0.03620005,0.13132055,0.041320838,-0.06115277,0.14130546,0.2336366,-0.29464847,0.12155626,0.30514735,0.21421869,0.23294252,-0.1994577,0.030710753,-0.27144453,0.3772212,-0.28301677,-0.15155905,0.27014017,-0.17993894,0.0029263564,0.3504628,-0.071242705,-0.11844813,-0.17526494,-0.024210365,0.342239,-0.08045072,-0.054915905,-0.43686232,-0.15900642,0.09189751,0.04668657,-0.22275229,-0.08744538,0.15605326,-0.027448803,-0.25376305,0.17512842,-0.06161159,-0.33601853,0.251338,0.27053675,0.21844612,-0.0047896416,0.26047122,0.2235221,0.010236246,-0.19495253,0.2115688,-0.14826266,-0.17060767,-0.18815146,0.008018365,-0.1358949,0.021851165,-0.02527486,-0.20561996,0.32418442,-0.113028616,0.3009045,0.22712767,0.16764522,0.26304233,-0.04048076,0.16537456,-0.20615116,-0.041148163,-0.33761343,-0.09036355,-0.033496205,-0.21385247,-0.05694759,-0.2107642,0.12955599,0.014761069,0.011448069,0.3019239,-0.093768895,-0.43401965,0.3812664,0.18781267,0.1721082,0.2454087,0.08046021,0.17844526,-0.38351467,0.21524295,-0.011673681,0.09859226,-0.31657782,0.18780269,0.06165004,-0.07590646,-0.2196106,0.37198645,-0.32825318,-0.19226219,-0.22048007,0.25721857,0.005473355,-0.31806844,0.012797272,-0.010333639,0.24901332,-0.28850517,0.4085907,-0.2945456,0.3024409,0.064035594,-0.012963844,0.17178491,0.0712801,-0.23737398,0.24681453,0.18608525,0.025169209,0.27475443,0.2073155,-0.016150372,0.13327189,-0.13122787,-0.35432255,0.067852385,-0.07776824,-0.029263262,0.15581474,-0.2713074,-0.021325717,0.24139245,-0.23112111,0.16289398,0.38927004,0.14476423,0.19554518,0.051774584,0.33492348,-0.2529131,-0.24122682,0.26792875,0.07700534,0.30219474,-0.23571458,-0.41414708,-0.18977135,-0.18558511,0.2999089,-0.2568894,-0.35361242,-0.13758676,0.28608197,-0.2425802,0.0042116833,-0.16824137,0.40290323,0.29068446,-0.18871701,-0.20601663,0.38173953,-0.2463199,0.10279145,-0.21552481,0.19610497,-0.21367279,-0.29950735,0.3859886,-0.057548735,-0.15118545,0.019945273,-0.086707845,-0.42536533,0.19322832,-0.16138698,-0.2469984,0.2987013,-0.069077045,0.07132922,0.1591787,-0.14923541,0.15801714,-0.39799538,0.041998602,0.045617975,0.09180585,0.1384276,-0.16388369,0.2658065,-0.101672195,-0.027224727,0.023310106,-0.123552874,0.2337027,-0.24232484,0.2491891,-0.2658749,-0.27162787,-0.15254283,0.19416714,-0.049682293,0.18579791,0.1360473,-0.23966537,0.3569409,-0.17415383,0.17193381,0.017343404,0.046150997,-0.33650133,-0.31015486,0.058996618,0.09827138,0.043033443,0.20037375,-0.40502343,-0.3384315,0.1688727,0.17742296,-0.17892903,0.3124691,0.27047572,0.0046933275,0.32904595,0.23293354,0.0893235,-0.21645351,0.21486816,0.08524754,-0.16958238,-0.23452117,0.2787275,-0.0974016,0.36062956,-0.044816975,0.3777562,-0.0857818,0.11886578,-0.40385535,-0.09541287,0.23682119,-0.2452689,-0.19659653,-0.25123098,-0.1732094,0.23219816,-0.3906516,0.027718425,0.040380374,0.1228623,0.29214245,-0.0047842776,-0.10618473,0.08300021,-0.22940293,0.14174944,-0.101872936,0.3429138,-0.1284524,0.37688932,-0.105635844,-0.28667703,0.18111114,-0.19926713,0.21542355,0.3090435,0.081381574,0.198809,0.11891249,-0.06261019,-0.20878261,-0.14596252,-0.38328874,-0.19191985,0.3055033,-0.1381752,-0.24647458,-0.031099224,-0.027926996,-0.14070384,0.2639417,-0.30628827,-0.28691572,-0.11285659,5.490326E-4,-0.03510106,-0.033093464,0.041045777,-0.25843254,0.40867403,-0.03202436,0.15205851,-0.3441602,0.338419,0.026086925,-0.021012794,-0.08482989,-0.12576923,0.026210813,-0.31370774,0.16557564,-0.17902072,-0.26189795,-0.046943683,0.40469527,0.31763273,-0.16123897,0.19822651,-0.3254558,-0.027026046,-0.26927945,-0.106387995,0.2038649,-0.0662999,-0.26786852,-0.18176194,0.26200262,0.17250656,-0.11341638,-0.281173,0.0910392,-0.10837781,0.24078508,0.18287866,0.30055046,-0.02986169,0.0069002267,0.0935795,0.09500064,-0.25367758,0.1165906,0.088490956,-0.009120634,-0.4505797,0.16036268,-0.012773538,0.25374335,-0.44133186,0.30114824,0.28972656,-0.26088983,0.36162642,-0.19664216,0.072053425,0.13143802,-0.22410268,0.33796394,-0.1666749,-0.09257671,0.2894216,0.16035974,0.12637989,0.15360907,-0.17831516,0.051160634,-0.14549682,-0.19195782,-0.24581541,0.28652447,0.105722174,0.026782049,-0.25895676,0.08766715,0.039871287,-0.26885265,-0.17421864,0.22000201,-0.07568077,-0.07121931,-0.11475495,-0.29353568,0.1801197,0.12960596,0.29378024,0.18499462,-0.032866538,0.21630412,-0.057809368,0.17116317,0.2385734,-0.14644529,-0.16485225,-0.14238164,-0.3293669,0.13398033,-0.23498054,-0.07778788,-0.17310177,0.15647288,0.26368645,-0.1920979,-0.034085892,0.26566383,0.108805835,0.40201923,-0.30340877,0.118295886,-0.36475238,-0.11932753,0.38953847,-0.24058919,-0.13174993,0.16797082,-0.09043789,0.40593153,-0.101010494,0.41543236,0.3411028,0.28086025,0.36981222,-0.22151409,0.29495797,-0.25172284,-0.37311292,0.09454991,-0.038915288,0.03701122,-0.41190335,-0.3520427,0.30122197,0.14606509,0.055286497,-0.3382102,-0.3558479,0.22899742,0.23206608,0.018973483,0.17073922,-0.03187679,-0.18750286,0.33940852,0.2875403,0.1903599,0.21449097,0.23554406,0.15806662,0.2541227,0.29349908,-0.46942416,-0.23445386,-0.021971876,0.3445598,0.26403672,0.2575234,-0.36808118,-0.12849714,0.26763433,0.1750824,0.082876846,-0.10695743,-0.45009682,-0.27610415,-0.3248468,0.0820986,-0.23524535,-0.0036761889,-0.022943929,0.40282878,0.1082584,0.07981379,-0.056185104,-0.044625632,0.4181276,-0.42897773,0.16608684,-0.20920803,0.2693434,-0.16682069,-0.047322486,0.3221933,-0.021382187,-0.11487934,0.32656553,0.016496725,-0.03226329,-3.708836E-4,-0.22495916,-0.14216848,0.22221527,-0.31152156,-0.058958214,-0.39195955,0.37134936,0.047491837,-0.07701604,0.33685791,-0.24183759,0.3774644,-0.4213195,0.25623778,0.037335753,-0.28920716,-0.076970324,0.10056091,-0.25080004,0.1891783,-0.15543859,0.13387243,-0.13859679,-0.030198352,0.12356551,0.0371493,0.04239025,0.10569212,0.30641353,-0.24730648,-0.0121693555,-0.17966565,-0.2977439,-0.18317558,-0.06101622,0.19993992,-0.03873201,0.43778712,0.21264572,-0.038055792,-0.08246237,0.14318608,-0.17472698,-0.21741557,0.07965453,-0.2278201,0.30637562,-0.19078289,0.15197383,-0.09714827,0.16100231,-0.0022653725,0.07692103,-0.101495236,0.27679217,-0.09560293,0.16009004,-0.09639803,0.118603274,-0.0076030465,0.2611785,0.054278478,-0.041725427,0.06646837,0.21265504,0.34067962,-0.3676785,-0.029194338,0.20920663,-0.18990257,0.32657078,-0.23685655,0.13881968,-0.16034856,0.121415734,-0.19812156,-0.17012993,0.15458378,-0.13114288,0.011504747,-0.22737089,-0.2514952,-0.16162118,-0.14953288,-0.2883787,0.29464176,0.26487687,-0.3182175,0.06415043,-0.08883498,0.16955237,-0.30434862,0.25438842,0.23758702,-0.011640747,0.015898498,-0.0039377664,-0.016640048,-0.1004183,0.036148537,-0.06201379,-0.0185038,-0.13797931,0.085999966,-0.054886114,0.37443465,-0.07242389,-0.3165393,0.31022814,-0.2656483,-0.20325975,-0.12305172,-0.31053725,-0.16778634,-0.09281118,0.16247119,0.056616683,-0.22051659,0.03602151,0.26626718,0.34257638,-0.1932148,0.14649843,0.18955342,0.104387455,-0.17867516,0.22322346,0.23075943,-0.08575191,-0.27105567,-0.07625033,-0.33615422,0.14941503,-0.02036709,0.20226945,-0.04745655,0.08763321,-0.13468364,0.14569609,-0.2196286,-0.2454671,0.013832815,0.03263337,-0.4098913,-0.40678972,0.42519814,-0.108340226,-0.025457537,0.23312956,0.0038494305,0.39336818,-0.1310115,0.32721883,-0.28823632,0.17200181,-0.18994142,-0.2258563,0.3804368,0.3922069,-0.13523918,0.15295511,0.1242861,-0.09448416,-0.06383842,0.19477952,-0.20632432,-0.18132198,0.16525294,0.18980059,0.0261873,0.099526145,-0.2241925,0.1403803,-0.2535359,0.20897804,0.25782552,-0.13027436,0.11873379,-0.2863825,0.2143881,-0.15840441,0.022824647,0.10709196,0.30081868,0.19559748,-0.046617497,0.1488462,-0.09774717,0.08499694,0.036072586,0.32915026,-0.3830074,-0.32100308,0.24748352,-0.25042358,-0.41198087,0.26180136,-0.008232225,-0.19327267,0.2843036,0.08083873,-0.12216477,0.0441064,0.22222172,0.22631964,-0.0065150657,0.27428448,-0.027310777,-0.19196054,0.44488257,0.061416283,0.19651955,-0.02166219,0.049539927,-0.1611444,-0.2886909,0.1610125,-0.26000577,0.38920075,0.11746382,-0.17568867,-0.24599788,-0.066144854,-0.12977658,-0.21348989,-0.20513685,0.2001094,-0.24923986,0.20397314,-0.32335812,0.22776264,0.11021366,-0.4184286,-0.38805136,0.099759184,0.1510073,-0.26670814,0.22519822,-0.08236399,0.3307877,-0.44054723,0.13722435,0.14276281,0.1026825,-0.036095105,-0.0072257253,0.18719946,0.096513376,0.25788778,-0.327718,0.342197,0.04280645,-0.31414956,0.22142418,0.14801252,-0.082861684,0.2863871,0.33695272,-0.16482225,-0.18268943,0.2726614,0.054284446,0.4145966,0.30059347,-0.38551018,-0.058256183,-0.027660338,0.082727894,0.18812755,-0.34980136,0.13456066,-0.29463345,-0.25716147,0.24736148,-0.32078734,0.055862024,-0.24625576,0.1997035,-0.09596234,-0.23494446,-0.31657508,0.02027767,0.11816991,-0.07594565,-0.34113893,-0.20610717,0.25125906,0.28083107,-0.13133405,0.28140405,0.049955446,0.07900755,0.26699972,0.15839154,-0.14971235,-0.17213908,0.3224582,-0.403618,0.031278063,-0.119725466,0.21528631,0.24685605,-0.30999076,0.16224845,-0.26543543,-0.08217688,-0.08167783,0.06272704,0.06445781,0.17129666,-0.2539012,0.09767172,-0.16749604,-0.2515035,-0.13411795,-0.18344879,0.36863092,-0.32833487,-0.2342238,0.3366141,-0.105133295,-0.09264174,0.41617528,-0.15067886,0.16558124,-0.22228257,-0.16298646,0.14386119,-0.1657606,-0.08708554,-0.13486564,-0.17802346,0.07119446,-0.020732699,0.011077154,0.14211224,0.27582094,0.0043723397,-0.16359937,-0.09542424,0.018471591,-0.0328964,0.18419129,0.056348257,-0.37868065,0.19462354,-0.3358693,-0.021444714,-0.07601265,0.2271759,-0.24477927,0.074141435,0.03737819,0.04319681,0.24045998,0.40120268,-0.3475658,-0.14545536,-0.21782492,-0.14765123,0.2831715,-0.020768303,-0.0019501179,0.3372438,-0.08154461,0.23654598,0.3041796,-0.23208876,-0.14790213,-0.17627001,-0.31071347,-0.20336159,0.32096684,-0.3038731,0.06736837,-0.08449872,0.07591508,0.23031868,0.12465767,-0.11376412,0.08193528,-0.06734033,0.31201562,0.004155405,0.0047569913,-0.26352802,-0.13408832,0.039447814,0.039040126,-0.18708321,-0.20787852,0.3051829,-0.023244148,0.2577219,-0.06449595,-0.12618096,0.24673519,0.26751184,0.049325384,-0.055388715,-0.11308371,0.017553214,-0.20820636,0.16281621,-0.28146824,0.38103002,-0.10918588,0.29140726,-0.06125486,0.12558927,-0.16280247,-0.10108961,0.22617093,-0.10552621,-0.037017476,-0.038692288,-0.032048423,0.21888448,-0.21787763,-0.0852509,-0.41275597,-0.03731145,0.104558855,0.23745097,-0.21693243,0.024016358,0.17658424,-0.41393295,0.2628929,0.12206224,0.5004933,0.016794078,-0.248618,-0.12684144,-0.13935807,0.24925679,-0.094236635,0.124434985,0.23109135,0.171711,-0.14177768,0.2405946,0.20875464,-0.3666988,0.22886574,-0.039562672,0.309091,-0.20223498,-0.2566957,-0.38019118,0.28393483,0.17676051,-0.14675714,-0.10781294,-0.20432037,0.29447287,-0.22004105,0.22671069,-7.4453844E-4,-0.013042013,-0.1616386,-0.16052438,0.3047519,0.13703917,-0.18317902,0.21709913,-0.051016647,0.27001587,-0.08262964,0.019241473,-0.27505502,-0.062351163,0.26452073,-0.20681141,0.12891845,-0.11638633,0.080152206,-0.249093,0.0442109,0.077210315,-0.06465426,-0.20756118,-0.09541957,0.15756874,0.39491734,-0.24550252,-0.2434837,0.21974874,-0.4335908,0.092445575,-0.045166515,-0.3585247,0.12727505,0.091009974,0.09042202,-0.03021971,-0.09092582,-0.03963366,-0.009809766,0.18721165,0.12840077,0.035602894,0.14286037,0.15992521,0.07494707,-0.33363178,0.45892945,-0.18164125,0.11180028,-0.10891483,-0.27133584,-0.26704678,0.24764968,-0.32158393,0.19883394,-0.098086916,0.2283495,-0.20071162,-0.24237415,0.16943231,0.19337511,-0.06347548,-0.29521865,-0.066129945,0.13917948,0.25652272,0.09489204,0.23325409,0.0155418,-0.11504239,-0.16274309,-0.32137242,-0.29351667,-0.2757054,0.14154124,-0.12608688,-0.3480264,0.2136574,-0.16363183,0.0026144558,0.18854474,0.06045023,-0.22221087,-0.08790995,0.2660632,0.20221905,0.21145879,0.15566461,0.29912317,0.040430132,-0.039614085,-0.12040618,0.12379684,-0.30514237,0.34194267,0.27000374,-0.10324515,-0.15273589,-0.34664047,-0.45864812,-0.12364,-0.063594885,-0.17448555,0.3390243,0.07257241,-0.33091554,-0.010955191,0.24499531,0.10770344,0.32280046,0.110688455,-0.30467027,-0.106976144,-0.18682241,0.017364854,0.29675302,-0.13767068,0.11421698,0.060363557,-0.03325729,-0.033735435,0.10954228,0.22969536,0.044659607,0.11040671,0.1865861,0.1218927,-0.037140924,-0.4037133,0.07626762,0.08838541,-0.2989248,0.16231038,-0.08144468,-0.20718938,0.30293185,0.037825968,0.26232782,0.22685027,-0.11967717,-0.2434746,-0.05005915,-0.23799522,0.3659881,-0.15810211,-0.62428796,0.17984647,-0.5195052,0.37148958,0.11104326,-0.30368596,-0.198458,0.31089944,0.077656485,0.2090196,0.34975284,-0.23500092,0.10169901,-0.20571871,0.2088922,0.009494583,0.23389442,0.09998385,0.18510555,0.11010499,-0.30219328,0.21807928,-0.30657107,0.22934164,-0.11181506,-0.13970736,-0.27940533,-0.06953392,0.19923359,-0.14846005,0.114231646,-0.26797664,0.29338518,-0.17144695,0.17261346,0.21624999,0.18649498,-0.42260364,-0.046496302,0.09951528,-0.36096445,0.16011056,-0.20444222,-0.16891001,0.13711832,0.1406407,0.11846647,0.32013562,-0.14463094,0.06888493,0.0924634,0.14984646,0.19029087,-0.32918274,0.23726076,-0.0982731,-0.15386318,-0.25313687,0.10370806,-0.16602522,-0.35234606,0.375127,1.597026E-4,0.07051672,-0.109194525,0.27675113,-0.0038204223,-0.15092055,0.1720069,0.079263546,-0.0925834,-0.19791847,-0.2067301,-0.18446597,0.3528911,0.3379252,-0.14000353,0.07755162,-0.09192512,0.13313313,-0.094197735,0.020524936,-0.31880328,-0.36910543,0.27617085,0.028738387,0.0837126,0.05065933,-0.20320596,-0.1335131,0.21317469,0.17314102,0.010650461,0.32438788,-0.29553938,0.25519982,-0.2515642,0.0021569603,-0.0045611598,-0.06730247,-0.03825588,0.063896924,0.33150098,0.39966577,0.08195427,-0.24372838,-0.084216684,0.3479475,-0.23032618,0.25644305,-0.21384361,-0.029080642,-0.30306256,-0.17896338,-0.22126795,-0.1377637,-0.12424769,-0.051905792,0.13488705,-0.2424052,0.24867186,0.17755796,-0.18680988,-0.14475769,0.17278747,-0.37932515,-0.4075351,0.32155687,0.14167799,0.13028158,-0.30538902,0.14465897,-0.05245975,-0.16041908,0.1151415,0.39489377,-0.18490669,0.22751118,-0.21423769,0.060781997,0.204761,0.054394357,0.24553177,-0.16722739,0.090820625,-0.10617755,-0.13828832,-0.2703177,0.20154846,0.201608,-0.390612,0.13925053,0.099249825,0.17682198,-0.03285341,0.07263829,-0.08053707,0.1528571,0.2733365,0.023452187,0.26534876,-0.10543476,0.12041764,-0.18733378,0.27850047,0.23358499,-0.1965127,0.020827575,0.08515969,0.06866531,-0.30449244,0.067685865,-0.16288455,-0.2083208,-0.2259453,-0.22790238,0.011710975,0.094911166,-0.11658803,0.12356411,0.11347155,0.06074445,0.06576191,-0.037004676,-0.30661818,-0.19109936,-0.050794862,-0.19780707,-0.047473975,-0.165944,0.13572714,-0.22434048,-0.012799989,-0.0024256615,0.12259369,0.020567076,-0.13106903,-0.121969454,0.08859522,0.25422472,0.1803512,-0.40054873,-0.22840942,0.08896943,-0.15599272,-0.16387838,0.12701309,-0.060072415,0.23967238,0.28832018,0.295201,-0.25589666,-0.047427334,0.05562422,0.042861115,0.035434067,0.097404815,0.22496276,0.060574036,0.1636899,0.06546482,-0.16307038,0.053180505,0.3499902,0.084693104,-0.1916429,-0.015623182,0.12938417,-0.09297387,-0.15506239,0.106624484,0.4185532,-0.081216946,-0.102192186,0.013508871,0.17907277,0.19145407,-0.3015658,0.132212,-0.17696296,-0.027388606,0.007759202,0.35725537,-0.23580042,0.029394072,-0.1292581,0.27849683,-0.14757395,0.0121124005,-0.065742165,0.3285153,0.23376532,0.0032786776,0.16898379,-0.02278657,-0.19915862,0.285825,-0.2683531,-0.26903558,0.1804571,-0.25014636,-0.024734154,0.2676952,-0.07436921,-0.08646644,-0.20111012,-0.19311479,0.09054422,0.27597344,-0.37439308,0.08680366,-0.0015927126,-0.08581391,0.24037167,-0.30830342,-0.43905655,-0.19841896,0.14161436,-0.28436846,0.0056324564,-0.021469668,-0.14259723,0.00614174,0.055372685,0.088348426,-0.20986602,-0.1880836,0.15088032,-0.103769965,-0.13300732,-0.20074268,0.3648184,-0.049852166,0.19254756,0.04703597,-0.17286399,0.29867777,0.02766473,0.21257788,0.2123168,-0.1741596,0.36557156,-0.34685,0.3168334,-0.056345828,-0.13442999,-0.07130595,-0.36311167,0.29519454,0.15391897,0.11798323,0.45626357,0.15152796,0.3598207,-0.045438383,-0.24306616,0.18286929,0.14948238,-0.22553684,-0.119637355,-0.2563853,0.21097739,0.046027374,-0.19451742,-0.21285604,0.3207086,0.19142425,-0.058727838,0.28622723,-0.11559923,-0.0026896745,-0.051413313,-0.14658445,-0.0088767,0.20934235,-0.057101887,-0.14424111,0.07552211,0.05157366,-0.05362782,0.20274968,-0.11244662,0.32979742,0.12995759,0.14533538,-0.056016892,-0.37243867,0.36644512,0.12039782,-0.0036552525,0.3075835,0.038398627,-0.1284281,0.023579517,-0.3269241,0.10206101,-0.35242224,0.32220298,0.2001485,0.01494413,-0.26375943,-0.22303383,-0.13613588,0.31015512,0.2149679,-0.26855224,0.2985793,-0.19699453,0.31193662,-0.0071453787,0.15217306,-0.13681903,-0.088772684,0.13365753,-0.11093584,0.041235283,0.12688112,-0.17554063,-0.18623109,-0.20217593,0.32518265,-0.27038828,0.2277586,-0.038031023,0.28114384,0.03884677,0.14429927,-0.2812848,0.058005515,-0.15808071,0.025877682,-0.011274398,0.06991533,-0.29961312,-0.076232016,-0.24574034,0.22596054,0.15885957,-0.08150233,0.23525457,-0.083136134,-0.15252584,-0.016779039,-0.07890025,0.042193096,-0.1690425,0.33979866,-0.14949922,-0.10122295,0.07894409,-0.107619934,-0.14178032,-0.24727435,0.24997772,0.31896794,0.2648342,-0.06409901,-0.23690175,-0.17782052,0.0039057871,0.26709923,-0.11406858,0.12816599,-0.082886375,0.24888994,-0.31176,0.26492262,-0.4811884,-0.27291143,0.11348185,0.1857783,0.13825768,0.07593917,0.17593238,-0.066319555,-0.011535992,0.15981285,0.23311688,0.11775594,0.043711305,0.38630924,-0.2751454,-0.087818645,0.17343713,-0.066311926,0.029350797,0.08674009,-0.20638086,-0.042885114,-0.3144682,-0.3093088,-0.21338367,-0.097845666,0.31717294,0.14966804,0.28489563,0.05201658,-0.1331137,-0.282265,-0.016568013,-0.045903675,0.16112432,-0.08553502,0.14466026,0.3013633,-0.19144194,0.3564331,-0.23493078,0.32711828,0.09604957,-0.04012015,-0.4061704,-0.076191664,-0.22892554,-0.03531335,0.2567756,0.2434237,-0.07479092,-0.19924718,-0.14206052,-0.14170691,0.3245424,-0.21388672,0.17586616,0.0074306116,-0.012259606,0.25608614,0.23238975,-0.3671826,