0.13547263,0.15361327,0.0042112153,-0.05548108,0.22498682,0.31136706,-0.12937947,-0.064058185,-0.23407912,-0.27156293,0.25325304,0.06466152,-0.20381905,-0.30196315,0.16572978,-0.04857826,0.21789919,0.26377434,-0.11538312,-0.05660159,0.021017732,0.20125167,-0.31494996,-0.24324158,0.1059507,0.2239754,-0.26940918,-0.13618036,0.0856912,0.07459173,0.04030271,-0.092643596,0.26241755,0.39877558,-0.055835713,0.008074134,-0.12693125,-0.15785219,0.31585187,0.19200802,0.15337156,0.23397742,-0.046144716,-0.050427526,-0.1150617,-0.0329733,0.15764657,0.12469321,0.19133286,0.2793407,-0.19437294,-0.11609877,0.02989959,0.08012736,-0.23890075,-0.19729199,0.15024391,0.24453874,-0.1872663,-0.09582377,-0.2524986,-0.3580053,0.18507731,-0.00920811,0.09368808,0.04491821,0.030448087,-0.115362905,-0.21495667,-0.2702281,0.2625464,0.12165135,-0.13445781,-0.15282133,0.38385513,0.26842523,-0.105087675,-7.6526526E-4,0.076407194,0.12073575,-0.035107866,-0.059119992,0.3414548,0.36686212,-0.28205064,-0.35997996,0.20936307,-0.0027695447,0.16251098,0.2846328,-0.17697188,-0.12453122,-0.086914845,0.017967012,0.021629442,0.10612925,0.11032361,0.15345432,-0.010128921,-0.060780764,0.18640716,0.26479292,-0.12577522,-0.07790807,-0.25457644,-0.27096114,0.23223643,0.054486774,-0.20934522,-0.31719494,0.16843583,-0.05716122,0.1898696,0.23196931,-0.14431524,-0.09257854,0.02646733,0.19641614,-0.2978155,-0.23255236,0.09923876,0.20047721,-0.26606587,-0.14403261,0.13976926,0.11955049,0.09464505,-0.034765057,0.21826217,0.3523215,-0.10127929,-0.03616414,-0.13454346,-0.17245385,0.30559248,0.17415553,0.114752695,0.224132,-0.03425817,-0.048369512,-0.082420714,-0.017405817,0.15389654,0.13942848,0.18171537,0.26350608,-0.19239512,-0.13172147,0.06667854,0.1342111,-0.21473663,-0.14857182,0.126405,0.21995045,-0.19151865,-0.10533745,-0.24722499,-0.30733347,0.23473296,0.04985163,0.11272708,0.06642837,0.039905556,-0.093588665,-0.21419382,-0.24406886,0.27329573,0.1220496,-0.16594723,-0.19789477,0.34754604,0.22214828,-0.02842982,0.04421017,0.103077784,0.14377086,-0.053993512,-0.11135956,0.28296095,0.30793655,-0.26229265,-0.3273032,0.21364428,0.042369,0.11735287,0.22769262,-0.19321412,-0.151124,-0.013311803,0.06606558,0.041219965,0.12966064,0.08542027,0.15560393,-0.015889911,-0.076664135,0.18367893,0.2522716,-0.12521431,-0.079759866,-0.2335731,-0.25216967,0.23410393,0.07146456,-0.20976026,-0.32342374,0.17353827,-0.05510016,0.18986878,0.23916332,-0.14188386,-0.09534086,0.05072959,0.20813286,-0.28296646,-0.2280548,0.12310617,0.20264383,-0.25301775,-0.13160144,0.10001163,0.08860434,0.06808968,-0.07615703,0.2129423,0.35836455,-0.10008936,-0.034860022,-0.120200545,-0.16754447,0.32027993,0.20780423,0.09178985,0.20266977,-0.057448983,-0.054290734,-0.08526579,-0.019504298,0.1596236,0.15400364,0.16207701,0.23688841,-0.19821423,-0.12625171,0.05704271,0.14574322,-0.21868533,-0.16933076,0.1304929,0.21460424,-0.18628298,-0.1062273,-0.23198004,-0.29464173,0.22934893,0.05554612,0.09189428,0.056737423,0.013451051,-0.13873987,-0.19226623,-0.23787679,0.26691318,0.12860748,-0.13105687,-0.17286207,0.365503,0.2509417,-0.019133182,0.04443538,0.100042306,0.1388329,-0.056824803,-0.10068524,0.3160543,0.33849907,-0.25355577,-0.30175778,0.21320187,0.024938151,0.12839082,0.22824742,-0.19041944,-0.14663735,-0.040439,0.060700838,0.03993378,0.12889025,0.08780946,0.15757042,-0.0291784,-0.07638364,0.17190392,0.2596105,-0.11149748,-0.061366655,-0.21434346,-0.25038323,0.25021496,0.07911649,-0.21655257,-0.30147147,0.16657591,-0.052193906,0.17142229,0.23113197,-0.12036444,-0.077511124,0.03844616,0.19381818,-0.29463056,-0.23239222,0.09344055,0.19862887,-0.2471036,-0.14598392,0.11117603,0.11082639,0.054085683,-0.085351735,0.22478855,0.3618841,-0.07361886,-0.011469165,-0.11618482,-0.17349936,0.34348586,0.21465506,0.08971222,0.21254484,-0.05255154,-0.07808478,-0.09538435,-0.05258753,0.15357009,0.1468488,0.15517081,0.24646014,-0.21068406,-0.15033655,0.0464553,0.1305217,-0.27126122,-0.22390385,0.117842354,0.21355413,-0.19649237,-0.117382996,-0.23314562,-0.31109902,0.22758625,0.047213893,0.096923225,0.07386087,0.025961885,-0.108940646,-0.18561138,-0.24124105,0.2623224,0.13172354,-0.12748228,-0.1767103,0.39048982,0.28506207,-0.019760843,0.040431872,0.07542342,0.12297705,-0.041868165,-0.09269048,0.34877276,0.36316738,-0.2335796,-0.31718194,0.22208185,0.04796314,0.11881881,0.22797748,-0.18774043,-0.14375691,-0.021359028,0.0686584,0.003736668,0.10474442,0.073770754,0.15737583,-0.028196245,-0.09114533,0.17504245,0.25281903,-0.106604904,-0.05907036,-0.21530975,-0.24632175,0.25826246,0.08959944,-0.21250391,-0.30511215,0.15738578,-0.07940496,0.17885345,0.24068013,-0.13809669,-0.0923643,0.051745493,0.21482576,-0.31519055,-0.24547423,0.116393335,0.21126847,-0.25387314,-0.13474725,0.10120016,0.11227843,0.064377815,-0.08895876,0.21285662,0.35936803,-0.08897488,-0.025542421,-0.109246776,-0.16296168,0.3424759,0.21750277,0.07135131,0.20765397,-0.045323573,-0.06062486,-0.08924596,-0.06912019,0.16949208,0.18419202,0.14369395,0.2447213,-0.18398347,-0.13161948,0.020999448,0.105342634,-0.2384729,-0.2190923,0.11623611,0.207907,-0.19506341,-0.12843731,-0.19933495,-0.27337843,0.22409981,0.049762633,0.08657119,0.07404467,0.022913799,-0.12877522,-0.1870893,-0.23070747,0.27218512,0.15624388,-0.13041732,-0.18344355,0.39185596,0.28034312,-0.00452699,0.05742519,0.049209367,0.11516677,-0.053510945,-0.13873567,0.3487697,0.364262,-0.20373061,-0.2889828,0.21678793,0.04376882,0.11183824,0.22459714,-0.18426064,-0.14617202,-0.03870154,0.06475216,0.013268189,0.12002361,0.07341239,0.17785314,-0.026738891,-0.084858425,0.16436164,0.25256327,-0.09936284,-0.042401884,-0.18959387,-0.22092763,0.24903296,0.10020126,-0.19327168,-0.2839215,0.18245271,-0.044628903,0.17985556,0.21720088,-0.10707248,-0.0729622,0.04279132,0.20421311,-0.31836647,-0.25009158,0.121845655,0.2053445,-0.241089,-0.1393241,0.057240155,0.06814016,0.011296737,-0.15432444,0.22680822,0.37389994,-0.06126339,0.0025187975,-0.08979975,-0.15985642,0.3719261,0.24740806,0.06530614,0.20501225,-0.042482637,-0.08106975,-0.094949126,-0.06253036,0.15489878,0.18827568,0.12143095,0.22002372,-0.21014073,-0.14259198,-0.0041069146,0.10393433,-0.2870751,-0.2631991,0.10674926,0.21156283,-0.20114893,-0.1320374,-0.1994417,-0.29785198,0.23052344,0.04121087,0.058245838,0.05547553,-0.0071321516,-0.15241319,-0.16869271,-0.21545374,0.26106116,0.14584713,-0.08719752,-0.13332765,0.4191871,0.32227695,-0.0024285612,0.03716511,0.038949862,0.09247683,-0.024532892,-0.10885772,0.40665177,0.4186934,-0.20637545,-0.29220232,0.21406564,0.037666447,0.1248382,0.22636685,-0.17059836,-0.13312797,-0.060830466,0.050044384,-0.029083388,0.08582084,0.07156531,0.15661198,-0.030772775,-0.077450246,0.17018561,0.2488199,-0.089770205,-0.044621125,-0.19814572,-0.23170018,0.25248432,0.09173115,-0.1989168,-0.28261966,0.18034618,-0.05918113,0.16477613,0.21671858,-0.12855798,-0.07603565,0.04338903,0.21232866,-0.3062712,-0.23402524,0.12169649,0.2040744,-0.24458922,-0.14257225,0.10090064,0.11107703,0.035376474,-0.10563426,0.20551734,0.35538527,-0.07197374,-0.006070263,-0.10011037,-0.16933127,0.35729843,0.21824975,0.07053791,0.20438759,-0.043720383,-0.08163982,-0.104812846,-0.07736111,0.15129709,0.17995434,0.13416496,0.22775452,-0.20563062,-0.14557952,0.010052539,0.10962306,-0.27182093,-0.22687301,0.10656916,0.20943995,-0.19359432,-0.1183769,-0.18768309,-0.27750358,0.22562458,0.029947752,0.07347326,0.069705315,0.007140332,-0.122566156,-0.16889162,-0.21880153,0.27162865,0.1417252,-0.11541442,-0.16337563,0.41346058,0.29788244,0.0036400799,0.047985084,0.032973114,0.082359545,-0.040887095,-0.13473092,0.39809,0.39844924,-0.20874684,-0.27986544,0.20446488,0.041773222,0.10545069,0.2107052,-0.17459947,-0.1345124,-0.041815717,0.056421984,-0.025892993,0.0867872,0.10098671,0.16525316,-0.017830346,-0.06180153,0.18421404,0.27522922,-0.1339685,-0.07743529,-0.21527904,-0.25266296,0.24614254,0.07536332,-0.21234836,-0.315151,0.18482998,-0.05291251,0.17202216,0.22239089,-0.12939844,-0.09288038,0.034370426,0.20683232,-0.28767624,-0.22443594,0.09812525,0.19954693,-0.26336667,-0.1510634,0.08536926,0.08285452,0.03996451,-0.0971312,0.23139983,0.37268353,-0.070234336,-0.006816852,-0.12185282,-0.17789719,0.33904138,0.21025668,0.10067918,0.20984952,-0.06072713,-0.08509306,-0.09916565,-0.029152755,0.1465931,0.140935,0.15563552,0.23855332,-0.22499846,-0.16125427,0.062044058,0.1320864,-0.23642638,-0.17066287,0.13673167,0.23575665,-0.18424223,-0.09826339,-0.24903528,-0.33843532,0.231341,0.04170581,0.08015782,0.0633876,0.0036764857,-0.121626705,-0.19557063,-0.25132924,0.2629563,0.114284605,-0.11588229,-0.15034933,0.38829687,0.28122804,-0.02362352,0.04205344,0.12264413,0.14908928,-0.022663763,-0.07339704,0.33825764,0.35604995,-0.2666266,-0.33979926,0.20749712,0.031875696,0.13424389,0.24981223,-0.18893728,-0.14539377,-0.032146025,0.052328944,0.016040945,0.11535304,0.079482906,0.16460386,-0.025882024,-0.09434722,0.1700906,0.2473714,-0.09583103,-0.059604287,-0.21339631,-0.24702346,0.24386868,0.08682891,-0.19902043,-0.29489896,0.1806774,-0.06238883,0.18859908,0.24128202,-0.12366883,-0.081669055,0.045238428,0.20314701,-0.31361416,-0.25338912,0.11371163,0.19604209,-0.24429873,-0.134974,0.09531147,0.110079296,0.064514115,-0.084847495,0.20890117,0.35910803,-0.09294529,-0.021269517,-0.10611075,-0.17081991,0.3433312,0.22939107,0.08198353,0.2276882,-0.026234383,-0.0454627,-0.07992943,-0.05900461,0.16837132,0.19867465,0.14219542,0.23776579,-0.17819573,-0.124251775,0.023105467,0.11725302,-0.2518846,-0.23143223,0.110593885,0.20733194,-0.20173368,-0.13353088,-0.20253682,-0.28002775,0.22312368,0.050695907,0.081585936,0.07346022,0.023929117,-0.13132253,-0.18093789,-0.22733068,0.26509356,0.14396563,-0.1220016,-0.1775384,0.38623533,0.27563632,-0.010854326,0.04815807,0.029545669,0.100754686,-0.04604793,-0.13488002,0.35747924,0.37125468,-0.20688267,-0.28706956,0.210362,0.042343933,0.113395005,0.22460668,-0.18968856,-0.1528764,-0.055160828,0.050636075,7.7926856E-4,0.10433866,0.13068505,0.17229304,-0.0069122696,-0.061609816,0.18603966,0.28583798,-0.14835282,-0.08836146,-0.22445141,-0.25493783,0.23772071,0.078393996,-0.20264126,-0.30401525,0.18805216,-0.040339496,0.19628252,0.24902456,-0.10891242,-0.081491165,0.013442563,0.18343109,-0.2990511,-0.23394182,0.099836156,0.20571832,-0.2621688,-0.14812003,0.078148976,0.050972197,0.023492161,-0.12473565,0.26921177,0.39978758,-0.06066725,0.013050855,-0.13200893,-0.15285137,0.32755646,0.20314057,0.10487199,0.20968269,-0.0799216,-0.09068039,-0.09558373,-0.01986086,0.14347894,0.13479275,0.1701701,0.26744202,-0.22412486,-0.14967872,0.07190857,0.12644531,-0.22159874,-0.16186668,0.12652875,0.23601119,-0.19757779,-0.10538962,-0.27805254,-0.3504991,0.2415309,0.041541193,0.075296305,0.027399506,-0.015096019,-0.14692293,-0.20130756,-0.24664532,0.26301587,0.12581679,-0.12406956,-0.15011668,0.37524778,0.27303013,-0.047154404,0.026935618,0.14108177,0.15556854,-0.014520885,-0.05765484,0.32677335,0.35242304,-0.2886631,-0.375766,0.22516583,0.033210732,0.15586998,0.27276102,-0.18966548,-0.14828673,-0.04158282,0.04477534,0.046048086,0.13945417,0.10677259,0.17240189,-0.023396563,-0.061220583,0.18044469,0.27321807,-0.13139272,-0.067307204,-0.21129076,-0.24150051,0.25171524,0.07433586,-0.2198038,-0.32265884,0.18270275,-0.060492206,0.18675776,0.21458408,-0.108864106,-0.0831328,0.028006254,0.19706638,-0.303945,-0.23178074,0.09497272,0.18430512,-0.2696361,-0.1535587,0.09155497,0.09476345,0.058734372,-0.06989979,0.23293062,0.36626837,-0.080556154,-0.0055329585,-0.12159078,-0.1739474,0.3381896,0.19418745,0.10321911,0.20644508,-0.057730213,-0.07294957,-0.09959578,-0.03542177,0.15533854,0.13949373,0.16280034,0.24475725,-0.20309749,-0.15179335,0.038073156,0.120588236,-0.25325176,-0.20472357,0.13509868,0.23084986,-0.18818568,-0.10909684,-0.23085766,-0.3180771,0.24201588,0.033077642,0.08839076,0.06784564,0.024166735,-0.09731886,-0.18931171,-0.24817611,0.2561854,0.12061555,-0.12619309,-0.15712006,0.36783826,0.2847219,-0.03955995,0.028906332,0.08074036,0.13006409,-0.041937403,-0.08530478,0.339236,0.35354468,-0.24854895,-0.31770658,0.22579135,0.03891861,0.14328414,0.25101477,-0.17990597,-0.144358,-0.035341166,0.06426419,0.010931735,0.11706154,0.12909019,0.16525689,-0.012837345,-0.07699167,0.18604715,0.27901492,-0.15006196,-0.09483731,-0.23267506,-0.26070085,0.24070817,0.081649564,-0.20287545,-0.3114584,0.17182823,-0.04987158,0.18359397,0.23070242,-0.11838814,-0.079731494,0.035556354,0.20414743,-0.2866444,-0.23043609,0.09426841,0.19011444,-0.2688371,-0.15122278,0.09413571,0.0922936,0.058079645,-0.081987984,0.23510173,0.36857602,-0.08389397,-0.014408704,-0.1279905,-0.1731197,0.3299558,0.1991147,0.098781236,0.20862274,-0.0693864,-0.07782324,-0.10044461,-0.04103522,0.16223758,0.13700816,0.15634093,0.25186816,-0.22488895,-0.1427314,0.053189475,0.13933052,-0.22396228,-0.16532165,0.13788547,0.2306525,-0.20226295,-0.11785261,-0.2453781,-0.31836987,0.23118433,0.040387563,0.09204209,0.052997384,0.02045818,-0.12405834,-0.2005837,-0.2525937,0.26742154,0.12614411,-0.12826867,-0.16866556,0.38109052,0.26463422,-0.026361685,0.038600516,0.12064062,0.15142585,-0.04493269,-0.08412833,0.3150498,0.34407943,-0.25949007,-0.32730696,0.23351157,0.050499916,0.13155137,0.24313186,-0.20962462,-0.15884283,-0.0282021,0.063808575,0.045155022,0.13706343,0.084514976,0.14284764,0.001974426,-0.05921856,0.1960251,0.2542009,-0.095249206,-0.030964388,-0.22862904,-0.24959749,0.25800717,0.05017871,-0.2008474,-0.31110924,0.13549383,-0.087816164,0.21175723,0.25451607,-0.14684242,-0.07909031,0.027171647,0.19243413,-0.31588817,-0.23429719,0.12532042,0.19331226,-0.26075757,-0.1383985,0.13292292,0.13748796,0.09793247,-0.011735469,0.21185206,0.35325396,-0.093085326,-0.034232195,-0.11082903,-0.16456638,0.28891605,0.1691463,0.13565816,0.21690048,0.00634111,-0.018120253,-0.09943955,-0.031859387,0.16795531,0.17678589,0.17769937,0.24784443,-0.1502119,-0.11494819,0.0022862246,0.09182948,-0.23801267,-0.2284914,0.114323385,0.20143174,-0.17392127,-0.09811963,-0.19678715,-0.29058972,0.16529992,0.0033013942,0.11726159,0.08849606,0.07238747,-0.07357421,-0.19438125,-0.24765529,0.26726955,0.12854378,-0.1510095,-0.19283581,0.36361697,0.24910764,-0.07058539,0.025081668,-0.013331129,0.093118116,-0.055601835,-0.11435748,0.33793452,0.35616386,-0.22463186,-0.26757494,0.19547352,0.008701906,0.11298547,0.22552973,-0.1529792,-0.119289055,-0.06916842,0.05313643,0.011555476,0.09056721,0.11127319,0.1588958,-0.0034544638,-0.071103215,0.19366936,0.26723698,-0.111121796,-0.054250713,-0.23460054,-0.25269368,0.24195123,0.06823466,-0.22014901,-0.31464377,0.14226519,-0.08137909,0.20539151,0.25944746,-0.11802215,-0.08154317,0.028700255,0.18216392,-0.3278901,-0.25736353,0.104101785,0.19959608,-0.25819233,-0.1400763,0.1176287,0.117170766,0.083726645,-0.059432242,0.23611778,0.37382266,-0.08440776,-0.013782579,-0.122317284,-0.15560678,0.32186195,0.19641426,0.124169275,0.24579343,-0.025864279,-0.041406192,-0.09234091,-0.051726017,0.1653971,0.16340905,0.17095828,0.2733201,-0.16998063,-0.11072852,0.021634027,0.10086307,-0.23811065,-0.20147692,0.12227396,0.2135,-0.20640884,-0.11950822,-0.23614769,-0.3140851,0.19883153,0.020843327,0.10535842,0.06564743,0.045811765,-0.109144256,-0.19782034,-0.24263111,0.25686136,0.14141116,-0.12994733,-0.17367418,0.37865835,0.26446432,-0.054366887,0.023285676,0.05041018,0.115897484,-0.044307895,-0.10654506,0.3273068,0.35865286,-0.23996599,-0.3217345,0.21501617,0.022379674,0.11755269,0.23482066,-0.19534664,-0.15618917,-0.053729706,0.051060516,0.040257297,0.12738425,0.087774165,0.1664982,-0.02112526,-0.07183428,0.17971577,0.2682326,-0.10707645,-0.04653801,-0.1914235,-0.22590612,0.2585215,0.0860895,-0.20682564,-0.29720962,0.1841635,-0.035611413,0.19554876,0.24201255,-0.1030592,-0.059037786,0.03635675,0.19949569,-0.30792242,-0.24745637,0.10727501,0.20527914,-0.25811368,-0.15734378,0.06974532,0.07018259,0.013159069,-0.13129759,0.23861317,0.37779492,-0.059578344,-0.004227944,-0.107561015,-0.15786685,0.36224204,0.23235402,0.085279584,0.202921,-0.03596267,-0.07051399,-0.10182298,-0.042375095,0.16404654,0.17754433,0.1470377,0.23737189,-0.21227738,-0.14266838,0.01854195,0.10439963,-0.29845586,-0.27066135,0.11700951,0.21297173,-0.19528721,-0.11891307,-0.23329999,-0.32868975,0.22102123,0.034519453,0.0869423,0.06603967,0.005127007,-0.1330631,-0.18908517,-0.24385086,0.25910118,0.13185363,-0.10364035,-0.14072214,0.4195729,0.3100822,-0.049904544,0.010742385,0.027272409,0.086742915,-0.009886591,-0.066456325,0.40657067,0.41673335,-0.2334037,-0.31748214,0.21753457,0.039065916,0.14386737,0.2467231,-0.16353318,-0.119301364,-0.06361863,0.04604423,-0.03471848,0.07684319,0.07112225,0.16267018,-0.026751434,-0.08706024,0.16939847,0.25043446,-0.09721281,-0.0510618,-0.19361216,-0.2169577,0.24766153,0.09426291,-0.1930507,-0.2781734,0.18522471,-0.04900568,0.17499422,0.21062644,-0.10798555,-0.07857472,0.04933315,0.21179648,-0.30551916,-0.24246295,0.11798653,0.19608527,-0.24225499,-0.13733172,0.07941512,0.08008172,0.019427901,-0.1314164,0.20221707,0.34501642,-0.07106175,-0.001990775,-0.097633824,-0.1617134,0.3552805,0.22998688,0.07470167,0.20234293,-0.052350186,-0.08174959,-0.10407454,-0.06597112,0.15659167,0.17894168,0.13120373,0.22124222,-0.19989347,-0.14247902,-0.0012687957,0.09726844,-0.2681595,-0.23247369,0.10412483,0.20354974,-0.19448863,-0.113856606,-0.18393914,-0.2626074,0.2333714,0.04299898,0.06556733,0.05925999,-0.0035825414,-0.13931723,-0.16638073,-0.2147483,0.25651407,0.13660441,-0.1008219,-0.14359632,0.39956215,0.302833,0.0046322793,0.045385655,0.039557956,0.09586549,-0.050477583,-0.12514547,0.38442326,0.4008015,-0.20601009,-0.2740039,0.21082577,0.04070213,0.1250489,0.22136861,-0.16174407,-0.12827797,-0.05532031,0.0533973,-0.029489093,0.085119724,0.09165677,0.14756976,-1.2734212E-4,-0.059890397,0.1962199,0.2545377,-0.0950099,-0.036120627,-0.23475666,-0.26444766,0.24858075,0.049209923,-0.20848271,-0.31423593,0.13843997,-0.08934281,0.19731599,0.26065403,-0.147945,-0.08262995,0.0340239,0.19202916,-0.31857195,-0.24844761,0.11996679,0.20350248,-0.27083874,-0.14656417,0.13531561,0.1376087,0.113836326,-0.011727296,0.21474667,0.35818928,-0.10326834,-0.043143976,-0.121851295,-0.16909765,0.29688132,0.18082383,0.12745795,0.22272286,-0.0048454115,-0.008963436,-0.092924245,-0.038943477,0.17155427,0.16617173,0.17689441,0.25245515,-0.15657492,-0.108895026,0.026167996,0.10417597,-0.25162435,-0.22896013,0.120175645,0.20792378,-0.18547295,-0.10553495,-0.21147563,-0.29438716,0.18142387,0.029158084,0.11481024,0.08619706,0.071792416,-0.07882774,-0.20688903,-0.25103566,0.26787585,0.13470852,-0.15526766,-0.20143172,0.36140832,0.24164549,-0.057637233,0.04095939,0.02207497,0.10149511,-0.058117297,-0.10927029,0.33396366,0.3425745,-0.22564043,-0.28962174,0.20262602,0.01667506,0.112011686,0.22477153,-0.17900994,-0.13997366,-0.051796332,0.058827985,0.03337659,0.11397493,0.10690059,0.15657586,-0.033849858,-0.09849284,0.17131726,0.26172024,-0.1442669,-0.09714238,-0.23560809,-0.25225073,0.2494742,0.08957189,-0.19022976,-0.28561372,0.19681309,-0.04704841,0.1711766,0.23300624,-0.12270905,-0.08611792,0.040278863,0.20971224,-0.28861538,-0.22987334,0.1004937,0.19308543,-0.2642924,-0.14635997,0.095656306,0.08835487,0.048035596,-0.09618287,0.23657796,0.37208194,-0.09305285,-0.016835611,-0.119482726,-0.16494903,0.34440297,0.20972274,0.07325368,0.19358206,-0.081817955,-0.0961204,-0.09787461,-0.053805433,0.15472493,0.13921313,0.14421764,0.25151536,-0.22294009,-0.15475887,0.060427703,0.14599241,-0.22754788,-0.16366298,0.11919459,0.22287072,-0.21232086,-0.12335631,-0.24324769,-0.29828292,0.26703733,0.07341018,0.08132291,0.04622135,0.0033184332,-0.13496749,-0.18827571,-0.23962046,0.28109267,0.13491711,-0.12879261,-0.18168946,0.38144207,0.27020454,0.008226362,0.06536413,0.13256462,0.16521116,-0.033048186,-0.0951797,0.31079265,0.34054947,-0.24776317,-0.32478428,0.23859544,0.0701787,0.11304539,0.2389183,-0.21613504,-0.16899031,-0.017025284,0.060061824,0.040640548,0.14192595,0.14977764,0.15932024,0.01004408,-0.046103954,0.21348366,0.3055371,-0.13684936,-0.059012655,-0.24362464,-0.28545,0.25689733,0.04323314,-0.19973832,-0.31370324,0.17604934,-0.046130072,0.2347125,0.29253018,-0.10885125,-0.055863995,0.008820937,0.1896594,-0.2978604,-0.2343381,0.10638425,0.21740554,-0.27235,-0.14941734,0.09580768,0.06926493,0.049060676,-0.07115627,0.27435613,0.4115944,-0.0711706,-0.006131815,-0.13665713,-0.1612224,0.31201378,0.18027017,0.15338023,0.22513944,-0.042233754,-0.04205069,-0.11717281,-0.017377319,0.15404482,0.11950253,0.20462273,0.2833026,-0.19864641,-0.12281338,0.05692331,0.12227593,-0.25451937,-0.19810669,0.13984326,0.2417287,-0.19104306,-0.086331196,-0.2778764,-0.36560756,0.19900401,0.0074922075,0.11369197,0.046297107,0.025963169,-0.1119563,-0.22952476,-0.2924421,0.2629666,0.0975307,-0.14787531,-0.180235,0.3771336,0.2599539,-0.10445294,0.0132086435,0.09007019,0.14079404,-0.03639423,-0.058319535,0.32509208,0.34786066,-0.29986778,-0.3720535,0.22011183,0.012632573,0.16261357,0.2889667,-0.18275766,-0.13381988,-0.06831813,0.03467803,0.031075973,0.11992818,0.13294126,0.15051699,0.0063566607,-0.06359723,0.21899375,0.2969474,-0.112407595,-0.044771582,-0.25253758,-0.27793637,0.24858938,0.04717781,-0.19922759,-0.30385318,0.1590484,-0.059935622,0.22045048,0.27440432,-0.12377124,-0.07435839,0.0024242795,0.18036526,-0.3220899,-0.24283314,0.11362351,0.220717,-0.27521637,-0.15022352,0.121223755,0.10189634,0.06807886,-0.05649536,0.25756797,0.3951851,-0.073633686,-0.014372023,-0.12012202,-0.14656243,0.31181666,0.18573101,0.1561912,0.246298,-0.025230343,-0.03396712,-0.114185154,-0.038729288,0.17441568,0.16263165,0.1915487,0.29124644,-0.18181242,-0.119971134,0.009294904,0.081766136,-0.2511992,-0.21904713,0.1285972,0.23197754,-0.1908526,-0.09468077,-0.25471115,-0.3463807,0.1734633,-0.00559098,0.11926127,0.053696908,0.04973496,-0.10236393,-0.2171617,-0.26690745,0.2578084,0.12386169,-0.14071633,-0.17555635,0.38333702,0.26791167,-0.08549976,0.014340911,0.056877833,0.12045636,-0.030741304,-0.076555654,0.35377142,0.381619,-0.27356467,-0.35706747,0.20555358,0.0053368737,0.13184187,0.26593336,-0.18007664,-0.14144684,-0.0700029,0.033742007,0.02951732,0.10771573,0.14145152,0.14381093,0.028784286,-0.038267884,0.22686556,0.30615458,-0.11690957,-0.047773402,-0.2555348,-0.28289154,0.24278985,0.039039675,-0.20201458,-0.30618876,0.15247191,-0.06125978,0.21719146,0.2716525,-0.12797329,-0.07926701,0.0056207944,0.19163395,-0.31695208,-0.23701677,0.11897301,0.23706675,-0.28493223,-0.15536171,0.12199012,0.09386845,0.08384347,-0.036935758,0.26124468,0.39240688,-0.06581523,-0.012710553,-0.123773284,-0.14823146,0.29499012,0.17014483,0.16398656,0.24784039,-0.009945605,-0.027397735,-0.12347152,-0.034173135,0.16076252,0.1453974,0.1949536,0.29686978,-0.18531652,-0.119445026,0.021303805,0.09189761,-0.23443173,-0.1936708,0.1274741,0.23362054,-0.18353403,-0.089842595,-0.25714394,-0.3507522,0.16985571,-0.012989496,0.12143442,0.0458749,0.061379947,-0.083637744,-0.21796677,-0.26581675,0.25660467,0.103245005,-0.1430942,-0.18013708,0.37266102,0.25182858,-0.09245452,0.0058952705,0.05996114,0.122162595,-0.04369913,-0.0867777,0.32987285,0.36279038,-0.28601518,-0.3623367,0.19754477,0.0011709406,0.13653098,0.2753208,-0.17880727,-0.13954328,-0.07065116,0.024641966,0.02741105,0.11538393,0.099344365,0.16443297,-0.028437424,-0.08687276,0.16899574,0.25664493,-0.14837591,-0.09346002,-0.20546302,-0.24076945,0.25130084,0.10141128,-0.20076445,-0.30537137,0.19977055,-0.038053725,0.18284073,0.23998548,-0.112445034,-0.084432036,0.054376822,0.22318009,-0.28407672,-0.2346904,0.10514046,0.20685497,-0.24186887,-0.1377306,0.056866545,0.050486956,0.01618055,-0.13826916,0.22713268,0.36366218,-0.08974011,-0.017554283,-0.12057824,-0.16700986,0.3550885,0.22926004,0.077780284,0.18960193,-0.08015267,-0.09219106,-0.092048325,-0.020894155,0.15095188,0.15144873,0.14889649,0.23081873,-0.22524634,-0.14086977,0.059605923,0.14027059,-0.24578491,-0.19585429,0.12635288,0.22011828,-0.20475778,-0.12188885,-0.2388044,-0.31462082,0.2572577,0.06608732,0.066603824,0.04098042,-0.014804965,-0.15646163,-0.2014709,-0.26004487,0.25750458,0.12496784,-0.11231548,-0.15250292,0.39531854,0.29095808,-0.020174721,0.04933137,0.11632655,0.14066622,-0.015721949,-0.067904375,0.34059992,0.3630643,-0.2534121,-0.32604322,0.23492505,0.053651966,0.14860408,0.25629523,-0.19209027,-0.13862003,-0.040671296,0.055415817,0.022503998,0.12099791,0.10090633,0.15783188,-0.01567204,-0.064418755,0.1871907,0.27490014,-0.1339229,-0.0957234,-0.22703832,-0.2468895,0.24341395,0.09164841,-0.20319125,-0.29477197,0.19691767,-0.036428202,0.17897168,0.22778885,-0.119462736,-0.08237424,0.042523913,0.21125172,-0.2930316,-0.22999026,0.10915972,0.20554091,-0.25320926,-0.14038835,0.09001965,0.06707813,0.029926438,-0.12358335,0.23614356,0.372213,-0.07309411,-0.004779973,-0.12485982,-0.16834986,0.34561107,0.21286218,0.08963692,0.20516783,-0.07291698,-0.091463566,-0.10720475,-0.04295848,0.14611422,0.13875237,0.15816814,0.24867378,-0.22386214,-0.14638518,0.05640189,0.13313405,-0.23935539,-0.16471311,0.1323888,0.23369084,-0.1976245,-0.1080762,-0.23848881,-0.31427523,0.24586229,0.033429604,0.081417,0.049820617,-0.0064921607,-0.13744818,-0.19625859,-0.2414296,0.26300392,0.12111845,-0.12688236,-0.15025465,0.3869139,0.27487284,-0.011359691,0.036696043,0.11710765,0.13588846,-0.04424551,-0.09537814,0.3446567,0.37070045,-0.26559797,-0.33160767,0.22194935,0.035666894,0.1368058,0.24598321,-0.19542138,-0.14042316,-0.039470144,0.049475536,0.01217657,0.12232964,0.11750886,0.1916269,-0.019282566,-0.09266826,0.17051552,0.25455377,-0.12027075,-0.06503201,-0.22783728,-0.25225112,0.21534064,0.070744395,-0.20984402,-0.31571475,0.16247374,-0.06404343,0.19052003,0.2403397,-0.11148281,-0.088125005,0.04107513,0.1768799,-0.29474077,-0.22550867,0.09324,0.18327232,-0.22860503,-0.11718172,0.10081573,0.08831564,0.055530578,-0.09716027,0.2442218,0.37416455,-0.10457922,-0.01543214,-0.12705477,-0.16486055,0.32057673,0.20452146,0.10948024,0.24861853,-0.061584193,-0.07032341,-0.06571633,-0.034308784,0.13716769,0.14948769,0.15891138,0.2627683,-0.19244975,-0.13668692,0.06493583,0.15091842,-0.22332726,-0.1695287,0.12015097,0.22181743,-0.19425441,-0.11209869,-0.26388413,-0.32039613,0.2426921,0.067188226,0.083703585,0.05397224,0.0041918145,-0.14204559,-0.20572023,-0.24330874,0.24385847,0.12506509,-0.13302635,-0.18100208,0.36412677,0.25907847,-0.03145308,0.033231486,0.11756941,0.144556,-0.04069107,-0.11032221,0.30674234,0.33299544,-0.26380777,-0.34657872,0.22650278,0.04756896,0.12126815,0.23781958,-0.18323214,-0.15757504,-0.023886796,0.07973378,0.051441602,0.12498124,0.09412473,0.18259063,-0.034290534,-0.08910004,0.16585968,0.25623193,-0.12605396,-0.073389456,-0.19946232,-0.22345302,0.24146232,0.10572948,-0.20516363,-0.29966944,0.177883,-0.050142907,0.17849042,0.21136636,-0.10079686,-0.08630863,0.03605235,0.18741712,-0.30929473,-0.24428746,0.103638895,0.19441105,-0.23510301,-0.14153753,0.061729457,0.05402636,0.018113181,-0.14056869,0.25047392,0.38192928,-0.06348495,0.014080135,-0.1077781,-0.15496704,0.36469486,0.23990732,0.06600968,0.19644098,-0.08180778,-0.09295805,-0.08810758,-0.04579872,0.15264109,0.16616301,0.12957306,0.2232506,-0.21964186,-0.14677928,0.03002882,0.11924269,-0.26591536,-0.21062048,0.121500336,0.21685429,-0.21053392,-0.12997809,-0.24323776,-0.31630653,0.25259775,0.05041569,0.07174891,0.052355174,-0.012883288,-0.15679765,-0.17868829,-0.21618606,0.2630863,0.14867494,-0.08620597,-0.12373433,0.40510508,0.3049823,-0.009306601,0.03619372,0.09913068,0.12355101,-0.019347562,-0.073535964,0.36470264,0.3744013,-0.23905319,-0.32311893,0.23635992,0.046936706,0.1337807,0.2335233,-0.19419198,-0.15470017,-0.039747275,0.059929155,0.013165084,0.12305628,0.09912609,0.17421675,-0.035377413,-0.085934386,0.1670304,0.25919485,-0.1414194,-0.0879682,-0.21383145,-0.24366182,0.26725593,0.10132716,-0.19829428,-0.2901239,0.21199724,-0.031826258,0.1799272,0.23932956,-0.115370125,-0.077360146,0.064165294,0.22639595,-0.28555143,-0.2359999,0.109874435,0.2025224,-0.2602236,-0.14743513,0.07094857,0.06197313,0.007076305,-0.143366,0.21899524,0.36578378,-0.08947852,-0.017730758,-0.121863425,-0.17150691,0.36179206,0.23141213,0.07271016,0.20542713,-0.072803125,-0.08710122,-0.086607195,-0.044957455,0.17138001,0.17505203,0.14160766,0.23422067,-0.22773787,-0.15396264,0.042999316,0.13388042,-0.25519472,-0.21499994,0.112306915,0.21130767,-0.20606989,-0.13061179,-0.22697595,-0.28922918,0.2581545,0.06517644,0.074076936,0.046429675,-0.0166929,-0.15743995,-0.189724,-0.24509612,0.26454473,0.11662182,-0.11390861,-0.16733818,0.41228542,0.30582634,-0.0036443977,0.05612984,0.09257304,0.13415122,-0.031104987,-0.10087477,0.3700865,0.3846053,-0.23239104,-0.3083456,0.23713669,0.06214879,0.1321033,0.23957227,-0.18895847,-0.1418738,-0.04756566,0.05469044,-0.0061115585,0.110380314,0.082517706,0.18159448,-0.031358518,-0.09184241,0.16906977,0.2695486,-0.12036136,-0.07600347,-0.18749768,-0.22973539,0.25490206,0.10926684,-0.19346033,-0.28853983,0.21238446,-0.036297105,0.18658483,0.23231776,-0.10364195,-0.077475324,0.05564209,0.22191325,-0.29737994,-0.2368727,0.11775975,0.2123849,-0.23780897,-0.13752764,0.031056767,0.03462977,-0.0067254333,-0.16750684,0.23715076,0.3754297,-0.07505021,-0.0021037636,-0.10011585,-0.16633241,0.36982784,0.2467671,0.05704277,0.19963017,-0.07646504,-0.10279558,-0.09455499,-0.045733843,0.15437043,0.18472819,0.13522384,0.23572046,-0.21993397,-0.15173969,0.019930672,0.10688519,-0.2647354,-0.22496851,0.116081834,0.22663014,-0.2053281,-0.1280484,-0.23692335,-0.32107508,0.2545538,0.053270657,0.050321743,0.04558919,-0.03128019,-0.16807316,-0.18418151,-0.23315096,0.2609016,0.13273835,-0.08661565,-0.1363589,0.4125804,0.31601632,-0.012561008,0.029069092,0.08253038,0.114444464,0.0016253163,-0.07422567,0.38858056,0.40424243,-0.23925768,-0.325875,0.21702766,0.051803134,0.15093046,0.26227543,-0.17313083,-0.1329318,-0.062153105,0.03925846,-0.022899363,0.09229157,0.08740372,0.18036531,-0.021589817,-0.080989026,0.17340024,0.27394697,-0.10957071,-0.058527224,-0.1960863,-0.2303329,0.2482266,0.09830879,-0.19729172,-0.2879421,0.2077891,-0.02970232,0.19252278,0.23328574,-0.100059934,-0.06039036,0.04534352,0.20523544,-0.30774972,-0.24168138,0.10723376,0.20078442,-0.2549529,-0.15306802,0.045886215,0.041719884,-8.0271554E-4,-0.16511306,0.24895698,0.38647646,-0.055171594,0.011157442,-0.103376694,-0.16195351,0.37042326,0.24452409,0.064626455,0.21361098,-0.053266965,-0.09292891,-0.09230757,-0.049725622,0.15536089,0.1769568,0.1310956,0.23746346,-0.22588442,-0.14632674,0.019581309,0.11035098,-0.28135124,-0.2354228,0.112448655,0.22524706,-0.20021233,-0.12684323,-0.2413813,-0.3208815,0.2390709,0.044706956,0.061790057,0.04511908,-0.017825725,-0.15975961,-0.18361536,-0.23363122,0.25580916,0.11836412,-0.08298482,-0.132705,0.42460296,0.3197237,-0.016236136,0.022535361,0.06662213,0.10277908,-0.001983231,-0.0823018,0.3998669,0.41563463,-0.23985255,-0.3270556,0.21450035,0.042357463,0.14565708,0.25821587,-0.17885602,-0.13253683,-0.06435508,0.03805858,-0.02847403,0.086777724,0.11760815,0.14715256,0.010966519,-0.0488206,0.20382607,0.2754068,-0.10974278,-0.05368546,-0.24101071,-0.2687203,0.23934686,0.055008803,-0.211418,-0.32726178,0.14696954,-0.07091168,0.19553417,0.2544345,-0.14069328,-0.085005105,0.002577956,0.18438828,-0.3072437,-0.24253812,0.09518351,0.20971148,-0.27682233,-0.15077429,0.13949248,0.11754263,0.09277038,-0.022077188,0.23263787,0.36757565,-0.07694718,-0.019571936,-0.13228105,-0.16774394,0.29317078,0.1736388,0.13486783,0.23027824,-0.017631747,-0.035508893,-0.09125,-0.022406321,0.15044682,0.13084203,0.19642268,0.28441945,-0.17976664,-0.11391732,0.05347768,0.11636518,-0.22552343,-0.17398936,0.12554085,0.22113371,-0.18458436,-0.096744195,-0.24887311,-0.33228996,0.1981763,0.022056997,0.1246195,0.07217023,0.05559101,-0.08641981,-0.20522395,-0.248151,0.2737772,0.11600747,-0.15149455,-0.18364637,0.36313418,0.237732,-0.07645124,0.013474492,0.05714702,0.1129811,-0.047495056,-0.09829428,0.30446303,0.33387354,-0.25912136,-0.34075293,0.19869022,0.017039029,0.122643605,0.2439281,-0.18284725,-0.13664824,-0.03755777,0.051646758,0.036959607,0.121564046,0.10565018,0.15197332,-0.020338647,-0.082215205,0.20188344,0.27081767,-0.11644874,-0.057825994,-0.22711818,-0.25821853,0.25913456,0.061111268,-0.20722696,-0.32540473,0.16803077,-0.05653057,0.18721919,0.25367513,-0.13395932,-0.073961854,0.023839379,0.19302477,-0.3066886,-0.23356259,0.105917715,0.19816564,-0.26498872,-0.14051764,0.101188205,0.10796788,0.06329414,-0.07330332,0.23322386,0.37689826,-0.09555916,-0.025828328,-0.109089196,-0.15713307,0.32292238,0.20404579,0.12745963,0.2250772,-0.04230795,-0.046566974,-0.091188215,-0.020137237,0.17174493,0.16164947,0.1804614,0.26334167,-0.19308369,-0.1356962,0.03265728,0.11899312,-0.24704541,-0.22775611,0.1292796,0.22241636,-0.19700707,-0.11261028,-0.2321775,-0.32424542,0.20667532,0.042081613,0.10438266,0.06282467,0.03405338,-0.12116278,-0.20249066,-0.25472665,0.26661566,0.12731312,-0.1319838,-0.17752576,0.39020118,0.26932204,-0.06547629,0.03184214,0.054462053,0.13059585,-0.028155344,-0.07719815,0.3571213,0.37539715,-0.26307288,-0.33161515,0.2211288,0.030452238,0.1198981,0.24335611,-0.19002703,-0.14047427,-0.0562799,0.051509157,0.027679637,0.10267913,