-0.10336241,-0.0033935013,0.032034226,0.07446003,-0.0071064085,0.0039898944,0.09265687,0.0013603147,0.03043074,-0.1062812,0.10099625,-0.05321861,-0.0058450857,-0.027587626,-0.04975872,-0.0037086878,-0.1072168,-0.06071933,0.028950842,0.08300962,0.047581837,-0.03904207,-0.025046919,-0.05476347,0.08909805,-0.04594017,-0.08517418,-0.046017017,0.041795682,-0.047255512,-0.07709283,-0.017185448,-0.06806616,0.13913052,-0.015361348,-0.071403034,0.025664663,0.025235664,-0.07661871,-0.070965685,-0.06002825,-0.036711495,-0.07487097,-0.13502991,0.08412868,0.059548523,-0.06148878,0.05603239,-0.062126543,0.08402774,0.0024088258,0.084919095,0.06722303,-0.039518733,0.042399622,0.014671994,0.0071766134,0.05361225,0.037269544,-0.10683162,0.042450137,0.07189567,0.15823989,-0.08843139,-0.0666979,-0.025118541,-0.0086924285,0.06405417,0.084733084,-0.06526737,-0.025760703,-0.02464965,-0.13995862,-0.061840706,-0.04550938,-0.06964352,-0.15646964,-0.027381327,0.06093616,-0.03692109,0.043006517,-0.0327382,-0.104834415,-0.17609733,0.033229817,0.011583784,5.9489644E-4,-0.06450522,-0.063971855,-0.0799321,-0.10773456,0.061779007,0.02805191,-0.014386968,0.06025742,-8.7992765E-4,-0.018908132,0.01235855,-0.06882436,-0.0931798,0.07979562,-0.021368667,-0.08432864,-0.072900586,-0.008823301,0.0105722,0.037010945,-0.1330054,0.11344894,0.015208567,0.029702388,-0.11637853,-0.01011174,0.007281637,-0.030503722,0.07523159,0.07946916,-0.035241187,0.05154577,0.05970966,-0.10244144,-0.022554915,0.039257485,-0.0025349085,0.118381,-0.0806706,-0.10054407,0.02436347,-0.1172592,0.08355123,0.010497615,0.1003819,-0.0429574,-4.4970118E-4,-0.031989176,-0.12696789,0.07679085,-0.023834461,-0.07708926,-0.010746992,-0.010612755,-0.070321456,0.018962694,0.0924122,0.022157881,0.025682885,-0.028593251,-0.050769582,-0.07847402,-0.1336091,-0.15591797,-0.04221282,-0.068742864,0.040101577,-0.10972108,-0.0253005,-0.045857217,0.028716858,0.06360553,-0.026939861,0.0753602,-0.07362425,-0.048327792,-0.112481765,-0.054745894,0.08104966,0.049147863,-0.09735467,-0.01512226,-0.07477605,-0.049934573,-0.053261947,0.03069678,0.0067582307,0.014586475,0.042230226,-0.0070736813,-0.07450476,0.065762475,0.06892754,0.15443411,0.05167446,0.02356246,0.047648016,-0.1087092,0.040144064,-0.0058731223,-0.06010852,0.059384294,0.09848364,0.100926965,0.0025875235,-0.086689964,0.093730085,-0.116219886,-0.070715256,0.0018969034,-0.076519705,-0.09077712,-0.045702912,-0.044640146,-0.09442374,-0.017414665,0.058908936,-0.04583359,-0.105215594,-0.07326089,0.022898523,-0.108275875,0.12391925,0.042141512,-0.046401333,0.051315922,-0.066024624,0.061389513,-0.13621564,-0.050259613,-0.03551695,-0.012975437,-0.02417565,-0.07318144,0.15146835,-0.10315287,-0.0707115,-0.07465732,-0.0477032,-0.033779543,-0.10440067,-0.0021416044,-0.15073358,-0.19229192,-0.09525774,-0.063977845,0.020422788,-0.0733628,-0.11773883,-0.020864477,-0.0058653457,0.06454808,-0.11124587,-0.058901742,0.06843737,0.051752646,-0.0187303,-0.025761744,-0.03825451,0.006958519,-0.04585217,0.06827599,0.04528963,-0.11800583,-0.07971849,0.021492178,-0.01756337,-0.010926575,-0.13521953,-0.004734609,0.046382416,-0.006043281,0.07416361,0.001326407,-0.08152606,5.659192E-4,-0.10775124,-0.09408159,-0.017657755,-0.036957253,0.027130464,0.1521854,-0.060025264,0.05607984,0.030286778,0.056392707,-0.02055374,-0.0018221653,0.06552733,-0.08141568,-0.031135036,-0.04705392,-0.028260874,-0.036733147,4.849779E-4,0.050405405,0.03789912,0.0404972,0.06435134,-0.10439383,0.030853083,0.072862834,-0.060779106,0.035651352,0.016728645,-0.030171536,-0.06281652,-0.02836455,-0.03743406,0.06328181,0.06649231,-0.05884466,0.03681783,-0.0074365167,-0.07562543,0.035781246,-0.076595224,-0.06652942,-0.035012625,0.106598355,-0.027050445,-0.07915808,-0.068825625,0.08580933,0.014339166,0.14610298,-0.060443483,0.02722862,0.04183985,-0.05687447,-0.04797559,-0.039278507,-0.049218494,-0.06901151,-0.021450052,0.022772051,-0.02470269,-0.09556396,0.025781304,0.0018159576,0.007928336,0.082109176,-0.03206844,0.022710117,-0.015497144,0.032606624,0.020419996,-0.1140284,-0.18436685,0.042516977,0.0049907947,-0.03411219,-0.10740733,0.005224818,-0.0063344324,-0.066577,-0.030685335,0.022377871,0.18584171,-0.014243492,-0.10378754,0.050551597,-0.099306315,-0.0037236935,-0.10729349,0.057177402,-0.059341203,-0.053468496,0.068082936,0.11015884,-0.017615013,0.16490237,0.025773503,-0.084656,0.020339204,0.09616673,-0.073018305,-0.017317902,-0.05120625,0.026077796,-0.10513726,-0.12770692,-0.21295089,0.07439716,-0.046604164,-0.1112921,-0.0023995554,0.020646479,-0.054726038,-0.1185644,-0.041023187,0.036022775,0.1429905,-0.085947216,0.0030948704,0.027039958,-0.032325037,0.07011674,0.0603006,0.0323427,0.07932546,-0.031869974,-0.08356965,0.08205401,-0.13238916,-0.045669693,-0.040606774,-0.14350101,-0.036911763,0.090913795,0.10463498,-0.07629597,-0.04257968,0.10765889,-0.08584553,0.04229602,-0.00938633,-0.17202526,-0.0066445787,0.027833242,0.057930753,-0.054042704,0.021812633,0.061888546,-0.0844365,-0.007841975,0.02230757,-0.029921165,0.15049216,-0.16254161,0.038896825,-0.037758924,0.07141787,-0.024425184,0.1584797,-0.022957215,0.073376104,0.049062196,0.016204288,-0.088594094,-0.10732826,-0.11220156,0.038037334,0.005468516,-0.1347962,-0.093716845,-0.16739492,-0.08157389,0.012509031,-0.08942545,-0.018824302,-0.07524445,0.046123415,-0.01868832,0.04587242,0.07716625,-0.056173023,-0.041766934,-1.7054098E-4,-0.09393141,-0.072804555,0.0090415245,0.04683346,-0.013264225,0.042888645,-0.0209807,0.05284716,-0.018178303,0.06684889,-0.089847684,0.080962054,-0.052083805,-0.035731252,-0.043125555,-0.0045790845,-0.007874152,-0.15940759,-0.14588623,-0.099941224,0.058444176,-0.013187851,-0.010219223,-0.07505836,0.0029629571,-0.07088848,-0.19399966,0.096838385,-0.084009156,-0.059450652,-0.09020409,0.051514816,-0.084327124,0.0107262265,-0.010059532,0.045915138,0.007881239,0.15131274,0.023518331,0.021668704,0.059046686,-0.04327595,0.12296922,-0.04283395,6.753703E-4,0.0144840805,-0.018352766,-0.102901414,-0.15482098,0.09715413,-0.04775177,-0.06571201,-0.003594327,0.1369982,0.03262587,0.0044258526,-0.14981033,-0.09202409,-0.04708823,-0.039420243,0.17979336,0.06053906,-0.13686183,-0.07178063,-0.07790729,0.029868392,-0.075671725,-0.056157425,0.1271684,-0.111571305,-6.0018344E-4,-0.05719595,0.01811408,-0.004302846,-0.015260127,-0.07842705,-0.07449027,-0.09119845,-0.005303157,-0.14755881,0.069154605,-0.099105634,0.04594799,-0.19370504,0.049517572,-0.04374703,0.054893572,-0.01140005,0.07460328,0.083471015,-0.013809708,-0.1285687,-0.11424139,-0.12887284,-0.15258776,0.057456307,0.114017844,0.008158128,0.13136035,-0.10120024,0.027771862,0.029349096,0.10987555,-0.0229813,-0.027381236,-0.061553765,0.011234716,0.0030887446,-0.008304371,-0.09818183,-0.13604182,-0.12606166,0.011689067,-0.031925652,0.06661398,-0.0661904,0.125526,0.10673076,0.035303257,0.0045556067,0.03517823,0.18808064,-0.07662051,-0.08593844,6.057282E-4,-0.015407144,-0.03235259,0.03388892,-0.16870159,0.14857046,-0.0343239,-0.049391616,-0.06365872,-0.12511112,-0.0017693463,0.14474075,-0.08452505,-0.08549046,0.043624368,-0.05232749,0.032150242,0.10920481,-0.104232945,-0.14152825,-0.04435273,0.14632691,-0.026905287,0.027471663,-0.035622217,-0.16527714,-0.2778284,-0.08198499,-0.025330005,0.0208439,0.13253967,-0.10850094,0.0027023444,-0.047099095,-0.07322358,-0.22175057,-0.017427785,-0.12419625,0.09623368,0.02317345,-0.05492308,-0.16000219,0.022442674,0.0045567364,0.013697195,-0.043514907,0.033828117,0.038505726,-0.046837267,-0.060577333,-0.15859267,-0.08741089,-0.040221255,-0.09639398,0.059228286,0.11321965,0.08079565,0.028144756,0.049741827,-0.08543523,0.08736608,0.051750958,-0.06254078,-0.16403258,0.10238414,-0.104003556,-0.051775232,-0.0735012,-0.045595568,-0.014948621,0.05468149,-0.1194626,0.12666804,-0.0060612657,-0.08133961,0.097123034,-0.061358135,0.030567624,-0.119904116,0.10747227,-0.13517903,0.031041162,-0.011036523,-0.0925056,0.015902722,0.011511352,0.014309932,-0.0034020804,0.06627938,-0.059008546,-0.15618534,-0.06511536,0.108497724,0.19476523,-0.1332652,-0.055773947,0.032061998,0.08924804,0.06948175,-0.06300973,0.059753522,-0.06896653,0.033132996,0.06096756,-0.040625177,0.078264065,0.060340688,-0.051459756,0.02949601,-0.071284935,-0.0075935377,0.00435658,0.001233387,-0.029279035,0.19510166,-0.15453185,-0.009668677,-0.061689097,-0.02065282,0.12647706,0.042370558,-0.025064202,-0.05691274,-0.045582972,0.05910752,-0.115728796,-0.04256479,0.03615881,0.07959931,-0.01619175,-0.04965094,0.043624125,0.026641473,-0.014092928,0.038900178,0.071975045,0.10099279,-0.045395695,0.008041603,-0.033427715,-0.023982927,0.09444173,0.040597085,-0.06306142,-0.07316302,-0.0032043385,-0.13459691,-0.055280916,-0.09167242,0.07856193,0.048656188,0.08780262,-0.028390335,-0.12854196,-0.07216624,-0.036821984,0.05839533,-0.130765,-0.09730024,0.03204376,-0.0048856,-0.01293471,-0.09712845,0.10505139,0.01865932,-0.068452194,0.107970946,-0.014861162,-0.025445962,-0.0068925987,0.04054648,-0.036268316,0.047423776,-0.022696102,-0.12066427,-0.06853724,-0.01672552,-0.06958816,-0.0053578983,-0.005429869,-0.010283506,0.015382668,-0.17790748,0.059841994,0.022023426,-0.010464906,-0.08283248,0.015785135,-0.09891859,0.10768437,0.017269515,0.062483948,-0.0785543,0.10076613,-0.10081645,0.0032738345,0.08586907,-0.022707183,0.09896304,-0.03280167,0.045369,-0.116011515,0.022203336,0.028676774,0.08302757,0.05693959,0.04311214,0.088876575,0.024647508,-0.07177879,0.039061196,0.06292235,-0.102970675,0.111476086,-0.04616916,0.076746814,-0.06692304,0.022015624,0.0321452,0.024958523,-0.06390716,-0.07171978,0.053850006,-0.011071391,0.056907643,0.057012107,-0.05532126,0.0036954975,0.015679482,-0.051495586,-0.073982686,-0.016336655,-0.005629153,-0.02179902,0.015792213,-0.056946106,0.031432234,-0.017352378,-0.13448438,-0.17131521,-0.1166438,0.04457868,-0.05706007,0.00335501,-0.18901919,-0.07862554,0.07467369,-0.094555765,0.037520852,-0.07485906,0.05312924,0.012500967,-0.010525993,0.07083731,-0.068734035,-0.0783587,0.05950175,-0.017761456,-0.088287786,0.0116542885,-0.07092465,-0.045389906,-0.08605531,-0.12569198,-0.122252144,-0.112623304,-0.02176318,-0.044927467,0.011050076,-0.032456074,-0.0753159,-0.092713706,-0.03607914,-0.057108644,-0.010182238,0.025384283,-0.105311126,0.02072871,-0.065719455,0.04347857,0.027507579,-0.0035540322,-0.093174525,0.061174706,-0.029747864,-5.020819E-5,-0.033889655,0.051281694,-0.07981608,-0.011432035,-0.043701425,0.030926574,-0.00541133,0.0064571877,0.041568145,-0.058696266,-0.094572924,0.06166609,0.07414997,-0.041520704,0.044540193,0.034958977,0.071181305,-0.037561703,0.006320217,0.020092757,0.0042313957,0.001390355,0.06711356,-0.03034624,-0.010248579,0.011099527,0.02801791,-0.0531458,0.0060006683,-0.07187023,-0.108991005,-0.050069485,-0.08359902,0.0017905037,-0.031760804,0.009680351,0.010372619,0.024519395,-0.029529238,-0.054621704,0.05709843,-0.106777444,-0.017173069,-0.09003811,0.009132613,0.0015645041,-0.12732595,-0.09212023,-0.13314275,-0.04776867,-0.010814872,-0.034861725,0.049614165,-0.06823179,-0.16735138,0.04486724,-0.06554969,0.04281971,-0.15305641,-0.03934016,-0.03237269,0.020187337,-0.098389156,-0.0035938395,0.053912148,0.09442173,0.09702872,-0.057803575,-0.035903808,0.05583345,0.13305803,-0.07721921,0.10096076,0.11755399,0.045281973,0.031177348,-0.059087384,0.026018986,0.05271418,-0.050673947,-0.05133271,-0.15523276,0.062195964,-0.053764034,-0.11946915,0.051553454,-0.017304827,-0.065551594,-0.1386311,-0.012480143,0.04098694,0.036560986,0.11061619,-0.046899654,-0.10472837,0.009700603,0.13319159,-0.0947753,-0.025029004,0.006451743,-0.03322271,-0.04011279,-0.011907597,-0.1240803,-0.07937394,-0.07920837,0.1424407,-0.015481893,0.030384779,0.039030842,-0.0024564702,-0.09700146,-0.05444072,0.07221049,0.02311462,0.028109979,-2.4033457E-4,0.030170677,0.06004609,0.1475342,0.047006764,-0.07881363,0.082442194,0.037007574,-0.03273298,-0.027342884,0.060490638,-0.105701394,-0.060153276,-0.064016216,-0.07021005,-0.09994144,-0.07099167,0.087879226,-0.032688845,-0.11235976,-0.053228263,-0.042747695,-0.036704645,-0.07532511,0.079422615,0.11337983,0.03531525,-0.10893692,0.031958748,-0.036633946,0.07805059,0.032272283,-0.10144744,-0.026095891,-0.018828709,0.032593735,-0.042748462,0.028503023,0.05918622,0.08364748,0.009909073,-0.023306316,-0.059336364,-0.08855359,0.05087241,-0.061857652,0.119384654,-0.07718874,0.074102595,-0.12312984,0.01100244,-0.067083664,-0.04204379,0.07973564,0.005280653,-0.05200611,-0.067022435,0.04598437,0.06617488,-0.081475906,0.022500621,-0.03393169,0.08687586,-0.03184345,-0.12776372,0.01049028,-0.06454935,0.06587367,-0.04096226,0.0055003213,0.07958318,-0.03721646,0.056494616,0.021715982,-0.03090167,0.036150027,0.013202711,-0.0714008,-0.032385852,0.15113345,-0.027398456,-0.018272683,-0.058817454,0.07407325,-0.010564437,0.05403528,0.0010493356,-3.1682395E-4,-0.108432375,-0.04591018,0.0787751,-0.09878964,-0.123471,0.020280877,-0.04995014,-0.07475989,0.06560077,0.07438769,0.014319416,-0.054355953,0.035310324,-0.0027590562,-0.033993896,-0.008356238,0.022727937,0.028621973,0.021829799,-6.6514284E-4,-0.0437606,-0.037599206,-0.022146413,-0.049840353,-0.104490854,0.056870677,-0.07443144,0.029396238,-0.22259323,0.048822373,0.005634986,0.06378189,-0.09204341,0.07427473,-0.08163117,0.14911747,0.01824712,0.057849076,-0.03118804,-0.0027629896,-0.102210656,0.060169846,0.07509455,-0.009509515,0.027162781,0.03900933,0.02892137,-0.16789357,-0.05026146,0.038678028,0.12587902,0.06700711,0.1006094,0.059395626,-0.018257163,-0.06318471,-0.042078502,-0.0703974,-0.116112225,0.057587802,0.058972184,0.061186545,0.023842487,-0.011209797,0.01228505,0.07871532,-0.063916326,-0.08982797,0.017739499,0.04291235,-0.0410746,0.041772317,-0.044536065,0.010219406,0.02209859,-0.11749979,-0.09542539,-0.0610066,0.0032315648,0.013579168,0.0118834125,-0.041533735,0.103610866,0.029137699,-0.1351804,-0.06466462,-0.017591758,0.020759746,-0.051201914,-0.041730173,-0.14967033,-0.13011172,0.06447545,-0.075396225,0.030671299,-0.07311557,0.10597986,-0.03934176,0.10081589,-0.07713837,-0.008722144,-0.05489762,0.045089282,0.02482068,-0.010030736,-0.070435815,-0.053478397,-0.028794462,-0.061928287,-0.057850163,-0.10741689,-0.032431588,-0.011503665,0.02102399,-0.03600954,-0.06779647,-0.0075548585,-0.11009307,-0.024718406,0.003875141,-0.023763241,0.007474327,-0.074550375,-0.006108145,-0.13796902,0.0125987325,0.068394214,0.061528303,-0.11038898,-0.06353024,-0.022852996,-0.03383902,5.5909448E-5,0.026905652,-0.025574211,-0.033471122,-0.055697434,-0.024434485,-0.028158441,0.024708027,0.006793429,-0.08116137,-0.11035309,0.062424053,0.060084775,-0.040494855,0.04828891,0.040633444,0.013974319,0.02989333,0.009124065,0.023747085,-0.040080547,0.076635614,0.06815033,-0.006318162,0.07363048,0.003924736,-0.04525002,5.066037E-4,-0.057426326,0.0021474953,-0.083213486,0.04015152,-0.15573622,-0.022364477,0.044962637,0.06329691,-0.06261907,-0.046605248,-0.11502691,0.036762375,-0.056698963,-0.09534715,0.013896878,-0.08601954,0.07994499,0.045656722,-0.08541165,-0.056746963,-0.1587646,-0.070181206,-0.029172413,-0.060210556,-0.021703685,-0.057864998,-0.11551433,0.08486023,0.073879264,0.08968223,-0.11250523,0.062917486,0.097626224,0.07075049,-0.07402098,0.0499887,0.018473346,0.0668491,0.009854974,0.0013833173,-0.06763677,0.07192382,-0.0375384,0.0089362245,0.117863566,0.07130206,0.05104786,-0.08146144,-0.030160243,0.057258617,-0.08155397,-0.06787432,0.009672239,-0.14505517,0.006071022,-0.004868344,-0.08979185,0.0777782,0.051646147,-0.09286726,0.056461867,-0.016747313,-0.09835251,0.046517376,0.06650116,-0.103730515,-0.06077214,-0.060545657,0.08602367,-0.06521911,-0.07575848,-0.07101898,0.10268718,0.053902928,0.04565,-0.09471315,-0.018213892,-0.07078188,0.057526592,-0.030340984,-0.04223088,0.036859103,-0.0408196,-0.012540303,0.057578515,-0.043733936,-0.045383755,-0.05115866,-0.11150988,-0.05615012,-0.06637755,-0.059770443,0.11611729,-0.0299472,0.07302206,0.017940057,0.050884403,-0.082167596,0.090759374,-0.027028598,-0.018986944,-0.04588194,-0.033717204,-0.01171168,-0.047498785,0.037892275,0.0017259112,-0.047702517,0.004457107,-0.077253535,0.067758255,-0.061023787,0.008021776,0.02029896,0.0040028985,-0.06406611,-0.017902708,-0.020406432,-0.008707236,-0.02705416,-0.062481944,-0.016618943,0.010154701,-0.0444903,-0.10869853,-0.05295384,-0.012756005,-0.11395359,-0.015814804,-0.021539299,-0.011247942,-0.01500303,-0.10431294,-0.06852872,0.053813264,0.05316146,-0.13983344,0.06632134,0.04031445,0.011012309,0.062558405,-0.0219317,-0.021754589,-0.0066078836,-0.03152769,0.06300595,-0.01381625,0.05145644,-0.06318506,0.0061543975,-0.05304,0.0064705755,-0.046070423,-0.005921132,-0.08890804,0.061473124,0.053506147,-0.01734922,-0.021888828,-0.046328593,-0.06496453,0.045789033,0.03845804,-0.069051005,-0.1794405,0.030264309,0.03476262,-0.1637578,-0.015745398,0.039849173,0.08616637,-0.039387874,-6.186285E-4,-0.06470514,-0.061166763,-0.05349779,0.0078170635,-0.009768794,-0.016851878,0.05981755,0.019959671,0.04388997,0.077681705,0.062265567,0.1266428,0.098695464,-0.005772772,-0.011632431,-0.00791865,-0.046270814,-0.007889594,0.010720741,-0.04836636,-0.014221894,0.02298945,-0.047595724,-0.0019180195,0.124778956,-0.023543214,-0.053959914,-0.15546775,-0.033302803,0.08202769,0.07669748,0.07948347,0.084212564,-0.0705856,0.022192705,0.07643136,-0.03382593,-0.06708137,-0.032176707,-0.052155938,-0.042220775,-0.045546565,-0.0400932,0.032764316,0.0163663,-0.11611157,0.031738047,-0.115353994,0.011192704,-0.069030665,0.065849945,-0.036725424,0.0749551,-0.108990535,0.010568019,0.0423243,0.054900732,-0.086067684,0.092270814,0.032265212,-0.051864848,0.0060016625,-0.12869018,0.02939116,-0.06259283,0.01794208,-0.038441237,-0.048464045,0.054504886,0.022372855,0.12190392,-0.03994609,-0.03561068,-0.028949328,-0.13233523,0.08232378,-0.066923656,-0.06801013,-0.109382525,0.08007885,-0.05101942,-0.05828851,-0.053184398,0.04677245,-0.044330087,-0.08895004,0.03964909,0.054463945,0.040027272,-0.06702611,-0.12999953,-0.046490245,-0.08084309,-0.01932404,-0.040942248,0.029395644,0.023293814,0.036416415,0.0720398,8.91118E-4,0.011037737,-0.010929826,0.028577616,0.104270704,-0.05228814,-0.06709581,-0.09999375,0.074994676,0.14057875,0.026209513,-0.10264406,0.008743285,0.06688264,0.05630625,0.106500655,0.004093024,-0.037210718,-0.043530412,-0.0960757,0.015968319,0.023010192,0.014014308,-0.177822,0.0041453275,0.061422795,-0.16079228,0.037548862,0.04499795,-0.008649264,-0.12894829,-0.020508902,0.092369795,0.024130557,-0.039244823,-0.060656056,0.026817184,-0.09796099,-0.08418969,-0.028171206,-0.0011628647,-0.04301058,-0.0020857805,-0.11311901,-0.12125753,-0.0061220923,0.0692252,-0.028612478,-0.11069915,0.0774449,-0.09548295,-0.07335316,-0.038705528,0.05579483,-0.07372906,-0.036553197,0.001997883,0.032104447,-0.10739731,-0.074511684,0.0048532267,-0.12051264,-0.063425474,0.093762055,-0.035103828,-9.782495E-4,-0.03460101,0.0073107113,-0.0077400054,0.019594844,-0.031353645,0.030879075,0.15334328,-0.18032688,-0.068125606,0.020176709,0.06484359,0.009528783,0.027009178,0.035217922,-0.056835867,0.09624003,0.08484289,0.07075579,-0.04099333,-0.03385946,-0.07006923,-0.057323717,0.05479424,-0.027168019,0.027954949,-0.052484173,-0.060043912,-0.0693535,0.05181808,0.019630376,0.043842375,-0.11637215,0.03436713,0.07085004,0.002349268,0.03273854,-0.05791255,0.032881286,-0.05559872,-0.08229326,-0.06238067,0.11575302,-0.15513921,-0.015843967,-0.014982696,0.044964384,0.07026147,-0.05031028,0.0013393075,0.093173034,0.022913864,0.052123778,-0.0590857,0.04076721,0.074813865,-0.013230292,-0.04750933,-0.12547632,-0.09214814,0.031787045,-0.053202856,0.08416492,0.008300471,-0.03166945,0.04937062,0.03031379,0.016265878,-0.039166883,0.07730806,-0.028392917,0.09545845,0.065999396,-0.032891635,-0.093907036,0.076035,0.049388137,-0.043915857,0.09510985,0.025538303,-0.24342842,0.03270903,0.027255608,-0.010404044,0.096103266,-0.14985871,-0.02648963,-0.046431903,0.024491776,-0.20268303,-0.07662265,-0.08829487,0.0034970415,-0.08984619,-0.10168141,-0.024448449,-0.035729356,-0.14272773,-0.08226303,-0.061018553,-0.038320746,0.0014772343,0.09869384,0.013944014,0.010473883,0.037122387,0.096752964,-0.07536976,-0.06625468,-8.0868625E-4,-0.07084128,0.015316749,-0.12582614,7.1534916E-4,0.020369576,-0.11119277,-0.011696605,-0.12407125,-0.0328932,0.07079214,0.07031172,0.04699345,-0.098152846,-0.11384281,0.0069427113,0.097980745,-0.11277833,-0.0637655,-0.11931931,-0.0373832,0.11457399,-0.056038126,0.11888426,-0.0011665468,-0.17314972,-0.07991217,0.007914746,0.056117997,0.06008288,0.09276462,-0.09800082,-0.01752087,-0.016708182,-0.03404287,0.11330694,-0.14178596,-0.054429054,0.06034905,-0.033641048,-0.179189,-0.06717283,-0.060632113,-0.11164281,-0.10296076,-0.08607775,0.036065705,0.08575519,-0.023364909,-0.038047608,-0.040866043,-0.039220285,-0.05154094,0.11900556,-0.06278187,-0.03090091,0.066970974,-0.06071196,-0.12956212,0.04845968,-0.021230688,0.043089837,-0.0987383,-0.010203293,0.035431392,-0.05530341,-0.035042163,0.036820557,0.01759529,0.024864627,0.0016378001,0.07606765,-0.030264616,-0.016145598,-0.08831024,-0.117024556,-0.030187583,-0.09621108,0.03426359,-0.10904243,-0.07426552,-0.022516314,0.028012695,0.070409395,0.017924214,0.045531407,-0.041574642,-0.019840917,-0.048548605,0.05825076,0.040892694,-0.15224092,-0.110556655,0.082363054,-0.071419224,-0.08188988,-0.057501655,-0.17367329,-0.018765649,0.13198806,-0.078764066,0.04714668,-0.09458607,-0.058250733,0.148226,0.08778448,-0.007371541,-0.09736357,-0.035974614,0.061164714,0.034118142,0.009075745,-0.001935174,-0.064381786,-0.088621646,0.03254328,-0.07103706,0.036576495,0.10426019,0.007433006,-0.028707923,0.085207276,0.104151495,0.026489148,0.06705769,-0.017174061,-0.053468194,-0.010121067,0.084716104,-0.04990216,0.015980018,-0.0092832735,-0.03371145,-0.023068596,-0.14283021,0.047584284,-0.07762181,-0.009061133,-0.022231957,-0.008184469,0.03897806,0.09165158,-0.010147425,-0.057213522,0.06559176,-0.006687331,-0.013153964,-0.080187485,0.027623268,-0.09599326,-0.0023410914,0.08953302,0.10321814,-0.16038533,0.09395294,-0.048887607,0.0735123,0.0520134,-0.06605828,0.00894417,-0.031860676,-0.09521772,-0.063475534,-0.08010986,0.009375229,-0.07714434,0.055719342,-0.05496111,-0.012025791,-0.08808851,0.15678696,0.08524427,-0.06802748,0.006731887,0.034293387,0.02585103,0.07646963,-0.060488015,-0.03328177,-0.040268205,-0.15991376,0.07397717,-0.087238364,0.033026867,0.093031265,0.03572729,-0.026907751,-0.036132496,-0.11476486,-0.013846689,-0.0502922,0.03261952,0.13898621,-0.020842375,-0.043799546,-0.08096071,-0.068808645,-0.046961896,0.08036305,0.058354434,-0.046391755,0.06572554,-0.08117239,-0.12609212,-0.065130316,0.03274075,-0.026719619,0.05485028,-0.0017913969,-0.024818046,-0.06031456,0.043396413,0.060878105,-0.15826675,0.05495163,0.004476078,0.114175275,-0.021712288,-0.087224916,0.038818166,-0.07998994,0.0064892387,-0.012059443,0.06076207,-0.0074096117,-0.06014015,-0.07224622,-0.065217935,0.0513635,-0.016879467,-0.018001184,0.03470938,0.019675355,-0.010573022,-0.0760502,-0.030217303,-0.059465654,-0.024050152,-0.060966436,-0.08153886,-0.049737327,-0.09888943,0.05919986,-0.052585,-0.00579461,-0.056053948,0.10442296,-0.03253573,-0.02400334,-0.04872228,0.09717694,0.11457855,-0.0015474815,-0.088031955,-0.021276621,-0.05474249,0.022935485,0.059998702,0.05916271,0.038708888,0.0067249537,0.057252597,0.059947427,0.024148384,-0.13082354,0.07964357,0.09405549,-0.021277135,-0.1285566,-0.016664287,-0.04936575,-0.07049274,0.023792693,-0.15650326,-0.018120313,-0.016232066,-0.04539398,-0.027352305,0.08502309,0.009657686,-0.06788152,0.036430053,0.33306336,0.089400515,0.12440236,0.051966935,0.11572839,-0.14286652,-0.009443131,-0.083795235,-0.0038337018,-0.07155818,0.0116209565,-0.066468604,0.0062341485,-0.046336547,-0.005606238,-0.06916693,0.077179454,0.14428613,0.06007444,-0.014615434,0.061743654,-0.011977046,0.03874122,-0.034763712,-0.021747421,-0.0479313,0.054668948,0.15058997,0.06509837,0.0142176,-0.06236091,-0.03177177,-0.036468673,0.065696314,-0.077431254,-0.11637404,0.04078129,0.051088937,-0.02462132,-0.060321916,-0.11834298,-0.038761813,-0.02428089,0.012215623,-0.059402194,-0.11443275,-0.037526593,0.14651918,0.03738124,-0.048397977,-0.034438714,0.06673754,-0.04129412,-0.0018687352,-0.029257273,-0.0065445746,-0.06515563,-0.11779904,-0.0016020285,-0.11302281,-0.015383099,0.041547813,-0.049226996,0.081865914,0.012251623,-0.11987249,-0.10743411,0.04699455,0.026320469,-0.12369319,0.18348728,-0.102864146,-0.06373583,-0.067991465,0.022941424,0.02969557,0.09810925,0.13598654,0.0876507,-0.09476124,-0.0077811163,-0.23010297,0.01924869,0.018121133,0.09181298,0.088034555,-0.054740578,-0.14593303,-0.023445357,0.08051332,0.064356856,-0.15589106,-0.00282257,-0.052069165,-0.08448097,0.09258244,-0.0332238,-0.10585165,-0.003584151,-0.010599314,-0.12785886,-0.052795086,-0.10403484,0.0012785047,-0.007881175,0.07731621,0.044257965,-0.033760067,0.03556419,-0.016365424,0.06752857,-0.010328432,-0.072271354,-0.057042472,0.09370526,-0.15502356,0.08472453,-0.14768693,-0.05095362,-0.1629529,0.043939915,-0.1177172,-0.036509328,0.03298418,-0.12517628,0.12563205,0.09229362,-0.112697,0.08124378,-0.07351295,-0.09982143,0.0045215343,-0.14620121,-0.08236091,-0.015728345,-8.114358E-4,-0.12493472,-0.13940892,0.096601985,0.095911965,0.14141855,-0.07329592,0.16162756,0.011313553,0.10132953,-0.1204722,0.0017131876,0.104306564,-0.10209941,-0.086633764,0.0703975,-0.12030413,0.05966048,0.111151695,-0.18694697,-0.08812263,-0.15645166,-0.04651904,0.019131852,0.141384,-0.13776046,-0.07412639,-0.01721993,-0.10355424,0.07904299,-0.070201255,0.09902598,0.031077912,-0.041729435,-0.10295757,0.045806598,-0.024649683,-0.035566848,0.07475209,0.097160585,0.0796055,0.10428058,-0.011086908,0.04873789,0.10473321,-0.09106275,-0.09048196,0.047525078,-0.047118597,-0.07826071,-0.15478033,0.095227584,-0.12205114,0.021870784,-0.013007357,-0.061494492,-0.09887867,0.0924226,-0.029343378,0.09408072,0.13728775,0.061262935,0.031846605,0.023788178,-0.10981369,-0.030226316,0.04392784,0.06690109,-0.0011631572,-0.06730281,-0.10008423,-0.12358672,-0.12176771,0.108101726,-0.039092027,-0.18485396,0.036145188,-0.14575246,0.06564357,-0.07132388,-0.12486853,0.07227478,0.042142894,9.837585E-4,0.017351298,0.001486443,-0.043069344,0.11377835,-0.17510146,0.026588935,-0.041973233,-0.08945718,-0.050566237,-0.06536239,-0.071025625,0.0667542,0.008049808,-0.1060321,-0.1131602,-0.013390479,0.1102293,0.06070273,-0.058282923,-0.021865562,0.12678106,0.01405017,0.05717398,-0.16897203,0.020754613,-0.010625462,-0.06871603,-0.16729194,-0.08277875,0.085642636,-0.039789587,-0.024135496,-0.11330771,-0.06107462,0.088899076,-0.02844436,0.11561266,-0.1700068,-0.083375625,0.032549232,-0.08726354,-0.0415908,-0.10101666,-0.07896258,0.017940631,0.06102053,0.09033941,0.11284623,0.010120988,-0.16880369,-0.117774755,0.062431604,0.10813025,0.034766614,-0.04022274,-0.06230845,-0.11573308,-0.045113888,-0.12711534,-0.087990105,0.0392433,0.10103082,0.02484968,0.036281828,0.07151686,-0.120312616,0.14251195,-0.048056155,0.0068897596,-0.16303724,-0.11518199,0.023556478,-0.05109642,0.09392987,0.034637906,0.010481936,0.06633725,0.13837604,0.08072979,0.0015666358,0.08531107,-0.01930119,-0.098155916,0.029906237,-0.050738025,0.04939915,0.061631862,0.105418555,-0.075611785,-0.09418293,-0.100737005,-0.025553938,0.02814724,0.068506,-0.2799184,-0.06603633,-0.026442083,-0.06129817,-0.10996585,-0.008747833,-0.06640602,0.18670732,0.011185593,0.025835322,-0.11095325,-0.08237082,-0.056801163,0.14404301,-0.08687501,0.1929888,0.0011998155,-0.029591842,0.13849068,0.12538724,-0.19147226,-0.052324425,0.10293238,-0.003264077,0.1743108,0.06840444,-0.010120723,-0.07821469,-0.03106159,-0.07975598,0.035457388,-0.04835115,0.050580103,-0.08066799,-0.01539482,0.068841465,-0.07806822,-0.010886037,0.0035417,-0.00586421,-0.08168582,0.049125675,-0.21534802,-0.11230257,0.039607536,-0.11941442,-0.01083484,-0.04503518,0.13313091,-0.13709922,0.14839865,0.0015340279,-0.03384961,0.082351364,0.06966737,-0.025737515,-0.08761242,0.07183294,-0.042240422,0.10893466,-0.07313959,-0.12515034,0.040876817,-0.08397337,0.0034607253,-0.15560642,0.062345717,0.016525345,0.14673987,-0.20827286,0.11408705,-0.1717815,0.056022737,-0.05398676,-0.018467728,0.056388874,-0.13632977,-0.063200176,-0.051761676,0.11124232,0.0060497494,0.037335895,0.14129102,-0.12086769,-0.057667006,0.030924601,0.061786726,-0.07233839,-0.1262993,0.06554249,0.0031056774,0.081418686,0.078954175,-0.1337371,0.11409759,-0.14124544,0.070488654,-0.07887546,-0.042516448,-0.06726957,-0.04987749,0.013317227,0.12554482,-0.177454,0.024859581,-0.06069107,-0.047172546,0.05206876,0.0065776976,0.026476637,-0.102846496,-0.029295351,-0.07092672,-0.1481449,-0.008011264,-0.045148365,0.060913216,-0.122496486,-0.082959615,0.0805831,-0.032036856,-0.027709095,0.04663452,-0.061654914,-0.017787809,0.04873464,-0.043907374,-0.10306235,-0.02063382,-0.019901294,-0.05759832,-0.06517808,-0.015208789,-0.031184625,-0.13674888,0.01139396,0.013315081,-0.16135287,0.032350004,-0.037711993,-0.17649616,-0.15035391,0.10092741,0.016402273,0.112889156,-0.13768214,-0.04142635,0.106797755,-0.1226631,-0.051043984,0.109922506,-0.07734282,-0.033154976,-0.011093604,0.05560055,-0.079564996,0.07905562,-0.006929638,-0.016953206,-0.07868691,-0.046665333,-0.06494376,0.0032335636,0.06521285,0.010112871,-0.113335215,0.04263596,-0.0860301,0.15871376,0.014439896,-0.111038886,0.0789622,-0.0036339408,-0.016356852,-0.0024126233,-0.03313052,-0.12807213,0.08431194,0.097023115,-0.13038513,0.009578533,-0.05146985,0.08415277,-0.06734157,-0.08801207,-0.0071510365,0.1527553,0.038544014,-0.09709176,-0.0059333597,0.07323746,-0.018712949,0.015146092,0.020890323,0.034763798,-0.1316398,-0.15529703,0.06825607,-0.087174915,-0.13429068,0.022184888,0.021102566,-0.12289048,0.01923633,-0.11037563,-0.0054474864,0.08751198,0.09059275,-0.062062472,-0.06616698,0.043658048,-0.05232054,-0.08235958,0.029567435,0.15775143,-0.102954336,-0.05810506,-0.12350598,-0.18512097,0.083800346,-0.025586443,-0.090061806,-0.13422412,0.052154552,0.1575236,-0.17353505,0.15238205,0.029528711,0.04105605,-0.04115986,0.074907854,0.045902528,0.09586139,0.06859002,0.019459866,-0.006610555,-0.10022077,-0.062657245,0.09184176,-0.12558508,0.037864547,-0.08095161,-0.05944571,-0.02129817,0.13725993,-0.13985875,-0.008371544,-0.03940683,0.07049218,0.09369235,0.018667933,-0.054953642,0.08309451,-0.033522323,-0.014511436,0.060631637,0.11300947,-0.13488808,-0.17565863,0.04372673,0.12637004,-0.058208354,-0.0685826,0.09432575,-0.07019738,0.046690363,-0.041305047,0.12379827,-0.053237688,-4.8384795E-4,0.083916664,-0.017400216,-0.0416634,-0.07076845,-0.024834208,0.05130938,-0.10907001,0.027481392,-0.08168843,-0.001231832,-0.11065438,-0.121443525,-0.06500884,0.03104462,0.10123494,0.041000936,0.07435891,-0.1066069,-0.055226203,-0.063710846,-0.022189016,-0.021215515,0.050607275,0.08919867,-0.11931812,0.07526807,0.025958734,-0.14085923,-0.09124174,0.083002575,-0.0012142838,0.04542605,-0.051718254,-0.13578723,0.05237303,-0.014730083,0.015728006,0.04734001,-0.07845977,0.046230108,0.012810914,-0.048931926,-0.0076890844,-0.10917216,-0.0032540995,-0.15307555,0.060876686,0.019544879,-0.08070247,-0.08152151,-0.1201922,-0.16955185,-0.09557797,0.120510966,0.007995131,0.062890105,0.045940943,-0.026079193,-0.04925099,-0.11498991,-0.11929229,-0.053733576,0.039660785,-0.11586037,0.012075474,-0.094551764,-0.124243245,0.0372054,0.15368326,0.02813309,0.092711,-0.047514606,0.05126901,-0.12875141,0.08609406,0.0024657466,-0.03713629,-0.1494449,-0.055760622,-0.05120398,0.09188629,0.005759182,-0.1184666,0.042645343,0.053712454,-0.076574706,-0.059114896,-0.050415024,-1.8095975E-6,-0.122095436,-0.22511905,0.07031535,0.02373503,-0.053800832,0.006585083,-0.114752755,-0.06939649,0.14756326,-0.017082613,-0.07402908,0.17439035,0.030451868,0.026482882,-0.01007681,-0.05307286,0.09706325,0.053856503,0.106957264,-0.038171288,-0.053866312,-0.050329715,-0.079333,0.09169954,-0.015081209,-0.1057316,-0.043323733,-0.02735279,-0.020753391,0.04228997,-0.025741188,-0.045110416,0.06510668,-0.061563533,-0.07361537,0.02274625,-0.0066068284,0.09851802,0.043492436,-0.060182024,0.056416836,-0.01973159,0.03662253,0.0706181,-0.07889406,-0.041422844,0.033849742,-0.06450214,0.050637953,-0.06506449,-0.12174041,0.045231942,-0.034849048,0.053435512,-0.049211517,0.07142182,-0.008169877,-0.012292759,-0.0061789076,-0.17687829,-0.011601192,-0.008344769,-0.20370762,-0.041391097,0.030065134,0.041631762,-0.049548127,0.052362986,0.0135833295,-0.050647758,0.0968901,0.065082245,-0.051369913,-0.040434282,0.038751706,0.08503671,-0.10810455,0.0068559693,0.00663379,0.013189333,-0.051304493,-0.08821546,0.041434508,0.023741469,0.03561606,0.004014171,-0.025468279,0.038250238,-0.03809858,0.0023211266,-0.032365423,-0.07837652,-0.0720476,0.053528033,0.011169466,-0.05692844,-0.054632787,-0.023848621,-0.05185662,0.06439321,0.023848984,-0.009998698,-0.009064814,-0.07024785,0.0117379585,0.11117686,-0.0032977075,0.0038879467,0.020386865,-0.046025436,-0.061970353,-0.0493549,0.038385034,0.04810795,-0.034580417,0.025374606,-0.07366467,0.033206396,-0.04501096,0.031034185,-0.07811607,-0.012310679,0.08019901,-0.06276983,-0.09487463,-0.011861475,0.03819033,-0.02052573,-0.027504368,0.09531961,0.05608839,-0.10085881,0.03204776,-0.03212648,-0.049832933,0.01297597,3.4876663E-4,-0.016216254,0.020833252,0.013794666,8.858367E-5,-5.839678E-4,0.072951816,-0.047182634,-0.12030599,-0.08610024,0.060213853,7.5834244E-4,-0.053513378,0.047222923,-0.03241294,-0.03964783,-0.07167444,0.06830642,0.03400127,-0.0270442,0.04203436,-0.07226284,-0.007528102,0.10705447,-0.042336985,0.042642903,0.009537199,-0.03150121,-0.0576794,-0.035188332,0.019160043,-0.03167417,0.04751999,0.10138806,0.015652237,0.03453319,0.03114674,0.0014225892,0.034995902,0.031049564,-0.031036263,-0.04957784,-0.02191599,-0.10713428,-0.057458248,0.09096462,-0.07044556,-0.018435834,0.0025152797,0.049667403,-0.04939633,-0.06143063,-0.102808855,0.040824763,-0.08173324,-0.027637705,0.02010525,-0.031340234,-0.07296105,-0.03428781,-0.030593982,-0.021076111,0.040650904,0.059010055,0.06158781,-0.06975102,-0.06456554,-0.017448327,-0.079496905,0.148186,-0.014868367,-0.029086959,-0.053340986,0.023738962,-0.044963423,-0.09193747,0.08882359,0.019745655,0.055659007,-0.032448176,-0.047063783,-0.066079944,-0.0791514,-0.026316976,0.031207103,0.024662523,-0.0014979596,0.009972821,0.040530823,0.024416937,-0.01482878,-0.034859087,-0.009479829,0.02150079,-0.0073620323,0.057133123,-0.021708818,0.029652078,0.08246597,-0.035791352,0.005983999,0.017930638,0.10574309,-0.047892533,0.023995694,-0.021456417,-0.09533358,-0.05194667,-0.088752896,-0.024944885,0.07242671,0.055933286,-0.11305426,-0.029055335,-0.080508225,-0.073007666,-0.056960903,0.0282754,-0.017773233,0.0031606583,-0.11458124,0.020928381,-0.008369634,0.00922435,-0.033678185,-0.004454357,-0.011513408,-0.0036215966,0.026417483,-0.0127466405,-0.010209327,0.03134407,-0.015914988,0.049156778,0.023841584,-0.014344922,-0.044117272,0.008240194,-0.009840165,0.017391616,-0.036969338,0.08481075,0.057208687,-0.036818426,-0.0076729027,0.0515778,-0.04026387,-0.09166811,-0.0029841536,-0.011567591,-0.092121124,0.07691459,0.018706786,-0.08848323,-0.067428395,0.010501979,-0.042698592,-0.11882275,-0.03345718,-0.03550443,0.014114625,-0.057690747,0.080273144,-0.05031049,-0.016628968,0.0043215123,-0.116824016,-0.07564838,0.027568318,-0.05352042,-0.07592906,0.07116517,0.039269526,0.01691662,-0.087606095,0.035875138,0.0381009,0.08312703,-0.064417996,-0.003666741,0.05019457,0.036797553,0.03265141,-0.025483906,-0.045873687,-0.046577364,0.055335652,-0.006824911,0.048961684,0.055383183,0.031165749,-0.023499269,-0.057024356,-0.10873642,-0.048028518,-0.10278631,-0.076761365,0.030514233,-0.042969994,-0.016618002,0.095807165,0.0059831417,0.012613279,-0.02324829,0.037005022,-0.046471972,-0.08338473,0.018057857,0.09086691,-0.08054474,0.052348115,-0.051253796,-0.020065803,-0.04291657,0.00839835,-0.064151354,0.10670172,0.0071932375,-0.05511213,-0.08553828,0.03735556,-0.11290872,0.034286544,-0.009312758,0.043503366,-0.058686227,0.079231516,-0.06624927,0.044951595,-0.039892927,-0.12113511,0.0454677,0.0296572,0.02619064,-0.07249275,-0.0625821,0.07406352,0.04061548,0.03954669,-0.06757358,-0.02006979,-0.08074197,0.016632538,-0.0555415,-0.004832052,0.059622806,0.02121502,0.12511604,0.037253425,-0.03670653,0.024708193,0.0019683994,-0.11348379,-0.026123015,-0.02159219,0.022965789,-0.03132081,-0.053729728,-0.025174776,-0.11810859,0.03633194,-0.06756963,0.011998682,-0.011980952,0.042138584,0.10234721,-0.045980208,-0.0413872,0.04567457,-0.022615882,-0.07849977,-0.04858537,-0.10312917,0.024039239,0.073701344,0.10725202,-0.044218563,-0.0752757,0.027495312,0.045333426,-0.28794196,-0.06987166,-0.023285512,0.0020158507,0.092663266,-0.07315923,-0.010264069,0.11793656,-0.019242134,0.0630091,-0.0515607,0.0043807793,-0.030691551,-0.020387063,-0.10138263,-0.08199739,0.04115094,0.0023533748,0.021569109,-0.037943173,0.046841897,-0.107649244,-0.019736223,-0.07213998,-0.09992902,0.07800657,0.028055174,-0.032788858,-0.06689106,0.11283849,0.0626062,-0.159497,0.12847097,0.061445706,-0.11399535,-0.0888469,-0.010365766,-0.14598475,-0.014034026,0.036938954,0.02142866,0.051038194,-0.0786352,-0.06531241,0.027307179,-0.030133719,0.10028431,0.11294554,0.07714459,-0.026513213,0.09401197,0.06712628,-0.058807522,0.0141001735,-0.077619866,-0.012231585,-0.123317175,0.08072625,-0.074588254,0.013260406,0.080786414,0.102130845,-0.08782385,0.036610834,-0.081618674,0.021562716,0.08015685,-0.17528456,0.13448794,0.079093285,-0.1466576,-0.04531928,-0.053153124,-0.022521349,0.06966592,-0.038084123,-0.12317946,-0.02129757,-0.06500111,-0.030492283,-0.044804834,-0.05523685,-0.03697517,-0.06564359,-0.018290037,0.025785642,-0.028723333,-0.06274287,0.03278728,0.05107593,-0.037015807,-0.050390564,-0.043777134,-0.08886405,0.008375618,0.13363808,0.001095475,0.07227071,0.056099348,-0.1142876,0.02728766,-0.07679416,-0.115046345,0.07400412,0.085195735,-0.049590547,-0.1152298,-0.018998645,-0.20012476,0.022279438,0.017607432,-0.028507624,-0.049852207,-0.12035001,-0.039179195,0.0113233095,0.06671255,-0.03782465,-0.009661859,0.047744043,0.072017685,0.13808309,-0.14384457,-0.06405603,0.1208851,0.07962473,0.07665584,0.03513542,-0.024915906,-0.09325693,0.13499188,0.0052831676,0.15134683,-0.03203427,-0.012042062,0.068518296,-0.05310588,-0.028789226,-0.18860823,0.059059713,0.002036095,0.08645582,-0.076643206,-0.1197433,0.17911488,0.0040829577,0.03846453,-0.062446747,0.10488807,0.093199715,0.04469817,0.03502714,0.06750472,-0.0017768223,-0.018145692,-0.09780775,0.005957905,0.1496095,-0.03923557,0.014912313,0.028755719,-0.022935316,0.03759582,-0.03474669,-0.105678394,-0.1401907,0.049274277,0.10765563,0.053090326,-0.06492046,0.013825606,0.026969222,-0.1506384,-0.022021437,-0.039000623,-0.06438493,0.054113645,0.1092575,-0.026232643,-0.14605491,-0.017925415,0.06012453,-0.009675604,-0.057037164,-0.053263478,0.069194466,-0.12370825,0.08928678,-0.012416125,-0.012588679,-0.069079444,-0.03921153,0.05537451,-0.043436836,-0.119564116,-0.063900925,-0.0698215,-0.048056394,0.028554417,0.06200463,-0.04989982,0.058349732,0.07413596,-0.008201699,-0.021815615,-0.029008871,-0.045580942,-0.067325756,0.091903456,-0.10440498,-0.03967415,0.06341533,-0.055061996,-0.09600192,-0.12789278,-0.11353306,-0.15991716,0.028926827,-0.046164233,-0.008973531,0.119024254,0.01194088,-0.023167437,0.07237026,-0.0014759091,-0.064331606,0.04610101,-0.041624572,0.08368339,-0.09128294,0.06229479,0.048083268,-0.13236265,-0.045082074,-0.0124047585,0.017848654,-0.0108462265,-0.01972318,-0.041579634,-0.016506895,-0.15400466,-0.09612317,-0.15465008,0.05909004,-0.1735095,-0.07838252,-0.026381023,0.014064265,0.08238654,-0.10801714,0.056235313,-0.02228362,-0.103937455,0.09455007,-0.1696354,0.0427562,0.04730649,-0.07233886,-0.0059383255,0.008787065,0.03312161,-0.043291073,-0.06710259,-0.05443421,0.066468894,-0.07945162,-0.067405686,0.105886385,-0.042309947,0.047062196,0.06256542,-0.067058,0.051700298,0.058524854,0.09922502,-0.103255264,0.036302783,-0.093984954,-0.18867607,0.082068905,0.031109402,-0.11084844,-0.032636434,-0.04123412,5.4887874E-4,-0.08636372,-0.10620417,-0.06646079,0.096942596,0.059746273,-0.10338476,-0.06261909,0.07822157,0.043987174,0.0065896953,-0.06911187,0.026288986,-0.042413436,-0.0055499286,0.022168381,0.06821185,-0.012422443,0.02336416,0.0051166653,0.11802086,0.015988065,-0.026293263,0.16733307,-0.124692455,-0.028048776,0.01959847,0.22014944,-0.11278179,-0.0025175365,-0.050990414,-0.099852875,-0.067339934,0.1012164,-0.14530632,0.063203484,-0.038670033,0.03212656,2.5867714E-4,-0.074476466,