0.068011135,-0.017698906,-0.17039071,-0.45597494,0.334624,-0.15171175,0.24436532,-0.055630557,0.2293389,-0.365259,-0.019350803,0.1994056,0.229811,-0.26113218,-0.032412797,0.13197555,-0.031391215,0.22503774,0.22096108,-0.30524975,0.1801292,-0.077808484,-0.082990214,-0.042915463,0.023574248,0.31872287,-0.12927416,-0.26299563,-0.18795542,0.10342091,0.01992521,-0.012151038,0.13656902,-0.0012688665,-0.1985122,-0.13735119,-0.2791853,-0.03642418,0.37478188,-0.05713659,0.04781744,4.447943E-4,0.027237307,0.30078444,-0.20775966,-0.18305856,0.25444108,-0.16008405,0.35419506,-0.14669803,0.3565941,-0.3218263,0.047191337,0.069282554,-0.039210435,0.14951521,0.3777302,-0.066283,0.038692497,-0.30124444,-0.10660596,0.01728755,-0.3510212,0.17456022,-0.019240307,-0.057433736,0.061882887,-0.1325381,-0.265186,-0.024288801,0.020919655,0.08315918,0.29872423,-0.19129619,0.23801509,-0.311637,-0.20089914,0.055657633,0.09576929,0.16628881,-0.339017,-0.31152514,0.22121331,0.008698302,-0.20201391,-0.028431822,0.20339486,0.29539147,-0.32845068,0.1972101,0.16052192,-0.0026616293,0.111348875,-0.18869093,-0.10917701,0.08161564,0.102392465,0.06784156,0.09100112,0.09241514,-0.20507465,-0.15716858,0.3515392,-0.42558616,-0.2580444,0.34177157,-0.06713375,-0.2785514,0.17467146,-0.18662028,-0.07051821,-0.2811731,0.1388765,0.083331026,-0.11629963,0.041166548,0.32549387,-0.21837263,0.18458481,0.14860362,0.16530299,0.1827516,0.13054955,0.2441959,-0.42768124,-0.07647198,0.11926478,-0.12592763,0.27078193,0.02363575,-0.013314841,0.023912326,0.12919235,-0.41802412,0.0983674,0.038370166,-0.31393203,-0.33303127,0.011762597,0.20989048,-0.13742873,0.10334647,0.0966179,-0.12343781,0.3042231,0.052761797,-0.08169971,0.010627424,0.05358188,0.10030819,0.35483646,-0.2705489,-0.06411052,0.17093907,0.3198207,0.2722377,0.18543988,-0.09664626,-0.20641574,0.13774939,-0.17613669,0.3844678,-0.37559736,-0.1345673,-0.23116414,-0.16802758,-0.16819252,0.27871802,-0.30676708,0.08207074,-0.2674822,0.21251923,-0.059226785,0.14452326,0.16518585,-0.31902733,-0.18959233,0.108519696,-0.012372462,-0.25656995,-0.14018463,0.3724713,-0.109965086,0.14581713,-0.27503207,0.18720877,0.108434565,-0.089003734,0.28777468,0.10321997,0.19833216,0.3453051,-0.13539144,0.061351206,0.13786574,-0.2206396,-0.16060865,0.1258282,-0.32921702,0.06195581,-0.33231118,-0.11921387,0.273043,0.2289832,0.049874883,-0.28294984,0.3173291,-0.24504586,-0.28152722,0.07632886,0.21823463,-0.25942707,-0.21580583,0.28727946,-0.35128427,-0.41051874,0.20188417,-0.11394734,0.38009208,0.3084975,-0.00156557,0.06669978,0.25562835,-0.29360664,0.060765583,-0.034017775,-0.15526746,-0.325446,0.024782924,0.3068318,-0.09656653,-0.18899183,0.22764908,0.43368128,-0.31706664,-0.1949703,-0.2780485,0.30850497,-0.039283827,0.07362288,0.30942446,-0.11255153,0.08666363,0.1428762,-0.07146024,0.0019152476,0.31587544,-0.19433215,-0.19422059,-0.025462233,-0.30700594,-0.21144335,-0.15006578,0.18579172,-0.15731415,-0.036244147,0.15357211,0.16029151,0.25655854,-0.110967435,-0.13011622,0.1820104,0.44539386,-0.17032872,-0.28970733,0.17039198,0.2074049,0.07224849,-0.18635143,-0.1408482,-0.15486567,0.08451885,-0.26264295,0.16740483,0.10033419,-0.25121436,-0.11090049,0.21838696,-0.3204016,0.40546337,-0.12897469,-0.11914539,0.36132598,-0.11402504,-0.011156476,0.3203895,-0.10388297,0.061589077,0.1442928,0.16098085,-0.31800508,-0.20974822,-0.08127026,-0.16271442,0.3974104,-0.018513655,0.08028687,0.056279503,-0.09284162,-0.17537858,-0.010841903,-0.15461342,-0.073686495,0.1823466,-0.32395792,-0.31800184,-0.08582242,0.091514386,0.16279684,0.31569153,-0.11675332,-0.3165042,0.122858845,-0.12648256,0.28319436,0.13288769,0.034645822,0.066736415,0.2676438,0.096291825,-0.37783238,-0.049761802,-0.009190505,-0.14465094,0.23180006,-0.22652803,-0.05554396,0.057758015,0.09535929,-0.27043647,0.24345195,-0.20902452,0.38558304,0.013978129,-0.047477458,-0.1252205,-0.07174212,0.3206122,-0.06763452,0.13505857,-0.2325424,-0.096915126,0.30282715,0.08189185,-0.23241116,-0.023343949,0.07422142,-0.2250846,0.27810612,0.029439911,-0.19489783,0.13962194,0.22369926,0.3222537,0.10939307,-0.12879185,-0.33674556,-0.19786759,-0.3242292,0.39800543,-0.3376276,0.25752938,0.121675625,-0.08936091,0.06669211,-0.17826521,0.05573733,-0.19659084,-0.0768722,-0.09284558,0.1280295,0.32075083,0.11706091,-0.2848675,0.2072898,0.1008791,0.012437888,-0.081366055,0.009272647,-0.02743229,-0.2623868,0.049219694,0.10240952,0.057755474,0.21652536,0.3068831,-0.24443693,-0.026555665,0.24118276,-0.2729984,0.25509825,0.12320592,0.05075817,0.26902002,-0.20454516,0.21964823,-0.1351547,0.10566172,-0.3238997,-0.37872362,-0.11153624,-0.15636964,-0.1262872,0.23032723,0.29593945,0.19403823,-0.22250949,0.1928239,0.12329027,-0.16309425,-0.18538183,0.21329108,-0.16403955,-0.17861839,0.118183605,-0.11766955,-0.31884763,0.059076406,-0.14626518,0.24095467,0.06788365,-0.027292738,0.085172996,0.022824142,0.10191594,0.25414145,0.21260388,-0.4463991,0.23698188,-0.32091975,-0.054533686,-0.21621433,-0.12936376,0.18811528,0.14492646,0.31124383,0.007920662,0.17199989,-0.31616542,-0.2998562,-0.09427486,0.13883057,0.17151347,0.2913438,0.17095348,-0.24240527,-0.09746456,0.024402155,-0.10425012,0.048391372,0.29753438,0.18671837,0.28961346,-0.49940342,-0.30049297,0.19946897,-0.15681289,0.19618307,-0.055603772,-0.17708348,0.3800832,0.23742321,-0.4019409,-0.28210017,-0.23292877,0.22485752,-0.25846776,0.16601989,-0.076551944,-0.051250033,0.16622622,0.031171013,0.015432396,0.00505414,0.050331153,-0.03907842,-0.23145482,-0.36381498,0.25172693,0.08089693,-0.307409,-0.14992039,-0.3107683,-0.0048075635,0.16521524,0.025723737,-0.2837612,-0.23362507,0.18368837,0.20894751,0.19832204,0.17852391,-0.036675796,0.08872118,0.08654591,-0.20829776,0.18778887,0.09049852,0.24250339,0.08756722,-0.17064542,0.27399927,-0.27111015,-0.12306693,0.114607014,0.17730443,0.2849253,-0.23891672,-0.26196283,-0.2584909,0.3295282,-0.079644695,0.21499985,0.05609478,0.25232857,0.16023916,0.1649674,-0.1477824,0.002481443,0.3219455,-0.09755677,-0.4343284,-0.35600108,0.088254444,-0.061161213,0.026667284,-0.11612049,0.41563848,-0.21890314,-0.06283442,-0.29495692,0.38137048,0.14457318,-0.09810834,-0.27181342,0.18644433,-0.09691851,0.03578966,-0.31286356,0.28846067,0.052270014,0.18747398,-0.26530716,0.06124656,-0.2681545,0.15108334,-0.008631806,0.18225075,-0.19195086,0.1395138,-0.13501239,0.34457633,0.28939676,0.22691628,0.23279262,-0.30008897,0.018288728,-0.05757596,0.13231038,0.39274928,0.027755562,-0.36427245,-0.09331597,-0.010230321,0.25665113,-0.2322684,-0.35650155,0.24295603,0.22138654,-0.1394958,0.25981084,0.019810151,-0.11354525,-0.23712613,-0.35584947,-0.32395035,0.2890069,0.1439645,0.013572708,0.13624755,0.31701425,0.05767365,-0.06683178,-0.1186334,0.14813639,0.22492614,0.18892281,-0.28543746,-0.22835496,-0.07037439,-0.20512469,-0.36883202,0.3233821,0.007676322,0.020627316,-0.30653447,-0.21236585,0.23989545,-0.03074658,0.15235057,-0.025747506,0.20873334,-0.13643326,0.14054431,-0.27341303,0.28682578,-0.011347381,-0.29821754,-0.07139091,-0.10186728,0.03505118,0.12431866,-0.29215485,0.0018120144,0.14617589,-0.38006482,0.111938335,-0.09714855,-0.23033862,0.05912958,0.31763634,0.24083829,-0.022073338,0.07166593,0.03227952,0.08628881,0.34018043,0.234523,-0.47617975,0.13526924,0.105966434,0.21171759,-0.4501562,0.16738442,-0.25252756,-0.062203165,-0.28585315,0.26239738,-0.31328905,0.02017434,-0.075352,0.2006897,0.056423336,-0.24462704,0.17281038,0.09935583,-0.07547964,-0.32309458,0.28973925,0.13177356,0.18456736,-0.06573658,-0.22637054,0.20788075,-0.1469949,0.0712751,0.01483073,0.37314042,-0.06531076,-0.3025521,0.3918089,-0.2284323,0.14196317,-0.10015648,-0.007601034,-0.07232628,-0.0689968,0.22693801,0.16516586,-0.15261726,0.089669555,-0.15176353,0.08107217,-0.081869945,-0.23403633,0.0893319,0.38462618,0.07663822,0.3149122,-0.24718195,-0.27162135,0.035237573,0.27444157,-0.14662296,-0.016294282,-0.24222668,0.3013608,-0.03353798,0.23617236,-0.32317612,-0.28065726,0.27780125,-0.10574597,0.034023274,-0.14331727,0.09268141,-0.050776277,-0.004787096,-0.12299475,-0.0061237365,-0.2848913,0.34473798,-0.26091442,-0.079641216,0.19638683,0.112694494,-0.07116328,-0.066948935,-0.02806431,-0.22172987,0.3142428,0.4024156,0.009042649,-0.10598943,-0.018396165,0.048239253,0.0768282,-0.35197634,-0.039249923,0.15831731,0.059457637,-0.049705688,0.014149102,0.1764976,-0.2916022,0.046776604,0.4100504,-0.29122075,-0.4471081,-0.065097414,0.13049532,0.2631912,0.23059602,-0.09564998,0.11007269,-0.2526652,-0.23906867,-0.29432097,-0.01082814,0.17166035,0.20131166,0.21355297,0.07056855,-0.12677114,0.03451353,-0.16469711,-0.19284835,0.1274096,0.31958812,-0.16409995,0.1518643,-0.11069248,0.20433931,0.0035182459,0.07046223,-0.058986768,-0.18214938,0.3824207,0.15083905,-0.15466475,-0.25784853,0.34810293,-0.19493318,-0.13458765,-0.26412436,-0.18907785,0.18577184,-0.024390316,-0.29641578,0.40575418,0.019183071,-0.063956626,0.067469776,-0.2147406,0.25805974,0.23582573,-0.2235162,-0.29261258,-0.28015366,-0.25607583,0.15200974,-0.1164532,-0.1850222,0.36648014,0.0070547163,-0.16051862,0.2208061,0.057416815,0.3369293,0.28698206,0.1698968,-0.36793324,-0.03783333,-0.07601811,-0.20373371,-0.08535483,0.32275605,0.13309145,-0.108549535,-0.014513082,-0.094429485,-0.13498092,0.37128133,-0.07703063,-0.15972301,0.29486766,0.18238519,-0.37081832,-0.12618051,0.23208989,0.08881802,-0.38363105,0.3845777,0.15383783,0.13898566,0.19056918,-0.30229348,0.12782024,-0.03873274,-0.11007985,-0.1907809,-0.07785574,0.027752114,0.17965211,-0.21984205,0.13911714,-0.035221923,0.27061185,0.3278628,-0.33635253,0.10042057,-0.07169599,-0.32164076,0.3481772,0.1464027,-0.1194463,0.17079712,-0.1641143,0.19720905,0.20773955,-0.035242427,0.034664832,-0.22881983,-0.016635241,-0.18128024,-0.17263551,0.0036952468,0.01966232,-0.27103925,0.15517598,0.10722259,-0.12995568,0.063705824,0.0964063,0.22446004,-0.35379198,-0.25273728,0.14004835,0.008701483,0.27461898,-0.31982026,0.13702413,-0.1531978,0.26235932,-0.20511936,0.26325256,-0.25649098,0.22293471,-0.010790342,-0.2503953,-0.13137911,0.1488761,-0.020256754,0.16501182,0.009473816,-0.14789337,-0.2929756,0.018201612,0.3406752,-0.15230949,-0.027932191,-0.1258054,0.12326958,0.30966863,-0.2172644,-0.15247717,0.053190727,0.32817993,-0.13202241,-0.12044162,0.28741163,-0.13852292,0.21579011,0.04078758,-0.26277745,0.28173274,-0.18297435,-0.32276952,0.09453961,0.1103031,-0.0176452,0.070710815,-0.24462461,0.043933403,0.13772683,-0.046511922,0.085082375,-0.20472546,-0.05532744,0.30082938,-0.35450298,0.15814438,0.34797,0.39585602,-0.14659831,-0.018516991,0.20632985,-0.21906814,-0.2100206,0.008153706,0.24441285,0.37203923,-0.36165145,-0.10398595,-0.2799251,0.07503929,-0.10379068,-0.15327263,0.011485071,-0.14819731,0.31521386,-0.310091,-0.05604864,-0.25906911,0.076970436,0.10502427,0.13070017,-0.23063318,-0.2307966,0.25500032,0.05738931,0.17060581,0.275894,-0.09843867,0.16776757,0.27398342,-0.105061896,0.022459583,-0.23677401,-0.016358826,0.46258143,0.08563464,-0.041337397,-0.19072539,-0.426638,0.43484426,-0.0055156797,0.16887015,0.0917059,0.01358781,-0.07664909,-0.09668674,-0.1985864,0.34330902,-0.042332876,-0.09969752,-0.28057364,-0.085968316,0.09898153,-0.16911301,0.20995227,-0.30330944,0.27139312,-0.09335804,-0.005032967,0.32525727,0.019413315,0.2615357,0.0868854,-0.114824496,-0.15005909,-0.05204077,0.2788516,-0.21862872,0.27473047,-0.26027274,0.20941034,0.1825154,-0.31461692,-0.012440608,-0.3338812,0.20051867,-0.22668196,-0.030598134,0.10818424,-0.19894466,-0.14116675,-0.181036,0.079189226,0.2752927,-0.33791396,-0.018552367,0.36714685,0.112593375,0.044882942,-0.32777387,-0.14986482,-0.27660212,-0.0953579,-0.071986854,0.39008415,-0.22123018,0.056522544,-0.18040606,0.039255843,0.09213255,0.16614376,-0.37242252,0.007787592,0.08272432,0.13293472,-0.15713611,0.054631077,0.25704473,0.20039017,0.27179223,-0.010282717,0.29053748,-0.15394449,0.3025997,-0.012607846,0.22655033,-0.4371599,0.050531596,0.3845775,-0.34569424,0.42027155,0.11904481,0.22978301,-0.3064477,0.19057916,-0.2639159,-0.30317596,-0.19993626,0.14081095,-0.28360686,0.19492395,-0.2921251,0.04211236,0.035310436,-0.14137103,-0.08465127,-0.32742333,-0.31923673,-0.086802535,-0.07039459,0.2648205,0.17908093,-0.2526157,0.11779401,-0.074313916,-0.058180153,-0.1806354,0.19024709,-0.13275722,-0.231628,0.33900568,0.111995295,-0.07935268,-0.22733805,0.2200285,0.21031184,0.2624021,0.094621465,0.18082263,0.42078117,0.11689414,-0.050718345,-0.13284399,-0.27578652,0.07414628,-0.31609917,0.19789083,0.31711364,-0.30637407,-0.06831591,0.24433693,0.2591057,-0.23122863,0.16436206,0.09031947,-0.01605373,-0.13068052,-0.1589682,-0.0602993,-0.07599052,-0.20560752,0.14049439,0.37747404,-0.2083301,-0.07430286,0.12715729,0.35955548,-0.032478843,-0.015762748,0.12569436,-0.2758631,0.17272761,0.14287278,-0.10942518,-0.20146808,0.19095813,-0.16108076,-0.22773112,0.033997808,0.055289842,0.19181871,-0.3005841,-0.21588077,0.27181345,0.09881434,-0.078995384,0.14966063,0.21422994,-0.43834832,-0.207116,-0.16201572,0.40484795,-0.009907059,0.29712683,-0.04026965,0.19982536,-0.08641986,0.0012322493,0.3002795,0.3936785,-0.29667723,0.27270198,0.19389072,-0.32351932,-0.18936615,-0.16417225,0.18463063,0.26631746,-0.27112836,-0.08984698,-0.3685605,0.19279005,-0.10321285,-0.13438773,-0.12846653,0.27037728,-0.3399049,0.3597174,0.3023965,-0.14767739,0.13632427,0.05993782,-0.02316557,-0.021562772,-0.15103188,-0.23129962,0.30892712,-0.13506265,0.20277287,-0.09357203,-0.1757839,0.14225277,-0.14859612,-0.07480385,-0.17410669,-0.17732255,0.24371803,-0.20362604,0.2906879,0.28910676,-0.23046221,0.3709483,0.38871697,-0.35199338,0.12995888,0.17830397,-0.049356665,-0.26627105,0.31929314,-0.09767492,-0.074847445,-0.073972456,0.12063143,0.1497504,0.19483534,-0.22331129,-0.2079565,-0.25729492,0.023120752,-0.12084677,0.20496228,-0.18460476,0.12372285,-0.17169224,0.35376453,-0.0032183644,0.35197005,0.023758728,-0.30954638,0.026063982,0.14400275,-0.21509735,-0.031808004,0.28753012,-0.25094953,0.03668672,-0.13623121,-0.22548258,0.2714786,0.110145845,0.22409135,-0.115539625,-0.09875869,-0.20929754,0.1022035,-0.20795695,-0.010117764,0.0024697983,0.05706724,0.07959906,0.031554732,-0.15476875,0.10489906,0.012613555,-0.0040667816,0.12120225,-0.19478051,0.17172465,-0.3263046,-0.34586915,0.2648419,0.1651431,0.0897931,0.26596758,0.07746154,0.115993366,-0.19986044,-0.06338143,0.022956897,0.064816,-0.024829429,0.21629058,-0.15874934,-0.27837864,0.05670177,0.30157247,-0.27806324,-0.16981182,-0.20273508,-0.31958395,0.26722667,0.09491157,-0.28028154,0.521065,-0.20957163,-0.32832378,0.18558183,0.07930751,-0.09737789,0.25605237,0.070237905,-0.29983795,0.12631999,0.1746023,-0.07097514,0.1469407,-0.2373074,0.0341051,0.114868626,0.07511844,-0.12777357,0.24738671,-0.3220589,0.14522375,0.021326104,-0.29159346,0.16003622,-0.08874407,-0.124948524,0.2543739,0.23887144,-0.12177646,-0.14113209,-0.016125644,0.14973475,0.070945516,-0.0066761305,0.20350192,-0.23840193,-0.20793149,0.28222603,-0.154303,-0.09503313,0.1570386,0.044846892,-0.092474625,-0.13376439,-0.09970017,-0.21186113,0.063252576,0.2012558,0.3091758,0.14573257,0.114076786,-0.08287087,-0.12605523,-0.33090597,0.21524324,-0.18544833,-0.36190006,0.0037886312,-0.13634023,-0.16670386,0.13327742,0.112930246,0.24648137,0.06373974,0.13156922,-0.03691808,0.2409172,0.020421635,-0.011425598,0.32742894,0.03569167,0.36422873,-0.3403937,-0.11401675,0.053985,-0.3473361,0.25008243,-0.23607217,0.20298582,-0.38596892,-0.017214095,-0.08438544,0.14376085,-0.0071403976,0.109474815,-0.1769763,-0.40575102,0.10322766,0.30101818,-0.2820692,0.22893482,0.18702927,0.09194033,0.09904923,-0.020017622,0.10735081,0.25548849,0.03802867,-0.19541427,0.0045226873,-0.33696207,-0.3872959,0.24587826,-0.15923162,0.19345067,0.28835708,-0.10371116,-0.31070662,0.06349744,-0.109685674,0.109078705,-0.38351667,0.18620403,0.082152314,-0.12647118,0.26499954,-0.37789628,-0.18489696,0.42211866,0.09553317,-0.19280258,0.14235625,0.19855587,0.18312985,0.21132831,0.1364074,-0.029067256,0.116315044,-0.031146422,-0.018182207,0.19362736,-0.37660018,-0.19905403,0.2836431,0.015793974,-0.2938253,0.25262773,0.22826889,-0.19128902,-0.2092128,-0.19438472,-0.067026414,0.0757791,-0.19812115,0.12154313,-0.15086356,0.020678991,-0.10792568,-0.23428488,-0.19443816,0.43792793,0.031237943,-0.08559781,-0.29611954,0.03291943,0.08679616,-0.14599575,0.2119292,-0.26530954,0.17549652,0.21750185,0.11419438,0.15039502,-0.38195822,-0.21570657,0.47178033,-0.28888118,-0.217586,0.42699707,-0.41325542,-0.1553539,0.14198923,-0.105313055,-0.16029072,0.26311082,-0.40690458,0.014543143,-0.25671002,0.27102044,0.07541816,0.1622609,-0.0976476,0.20467754,0.0017753806,0.12981203,-0.07239216,0.13466968,-0.16143294,0.19444783,0.037933517,0.059262395,0.060755525,0.41421688,-0.26766798,-0.38966867,0.2137337,0.008205994,0.24764739,0.32414106,-0.25201052,0.30503815,-0.28002453,0.06364873,-0.033806197,-0.17884833,-0.16728717,0.06372422,0.4097772,-0.13321526,-0.24885665,0.04274751,0.0340246,-0.21821953,0.17860854,-0.30047846,0.24958393,-0.06706801,0.122282155,-0.18087274,-0.25157285,0.32121992,-0.22985232,-0.13392021,-0.21092547,0.1807942,-0.071484864,0.09595391,-0.016117385,-0.06416671,-0.10760733,-0.16724904,-0.003021826,-0.08288706,0.008179932,0.17368716,0.1816198,0.37078604,-0.077348,-0.24922992,0.42206022,-0.14768337,0.0081501985,-0.10414849,0.015114274,0.03140432,0.120743684,0.1845283,-0.35486603,0.052093744,0.36127892,-0.0730641,0.22281945,-0.0077289217,0.08999039,-0.13836968,0.13839737,-0.017895905,-0.25606406,0.1007125,-0.1848209,-0.058719,0.15627138,-0.056889717,-0.17567974,-0.012562942,0.20796743,0.031645622,-0.108209826,-0.38706118,0.16568244,0.1514915,-0.3786068,-0.15532777,0.27153543,0.11177202,-0.08205886,0.0011686153,0.22790074,0.12631974,0.23920391,0.066811755,0.06303451,0.08438684,0.11228493,-0.23344225,0.40095863,-0.027942548,-0.21832047,-0.22794017,0.25120693,-0.29369503,0.4250125,-0.39404383,-0.13012172,-0.15583447,0.107888825,-0.13133202,-0.09202114,-0.11027944,-0.13857523,0.30092463,0.3837792,0.32103994,0.03488557,-0.42281136,-0.3138528,0.1587313,0.21592736,0.28754765,0.18841642,-0.18889995,-0.13823803,0.0110759465,-0.23378032,0.083986744,-0.18366683,-0.086409196,-0.18038222,-0.32589403,0.33524317,0.21089743,-0.19042043,-0.13826635,-0.21611549,-0.018814148,0.03290867,-0.16182047,0.34596112,0.1992495,-0.2890099,0.40550706,0.15329976,0.008613787,0.2583278,0.2014799,-0.20594145,0.08170687,-0.24162072,-0.19443798,0.08750846,-5.144499E-4,-0.030740406,0.2222369,0.17880346,0.29957417,0.21752807,0.069835134,0.09675934,-0.19049141,0.072305545,0.3552784,0.10058072,-0.21437664,-0.122591674,0.14835386,-0.26025894,-0.00759719,-0.049190447,0.12597129,-0.25741276,-0.17910044,0.028510066,-0.18538839,-0.029499315,-0.01738963,-0.050087646,-0.054472364,0.109757856,-0.16611566,0.24277896,-0.007065708,0.120502725,0.024656072,-0.20174156,-0.08859895,0.06337196,0.12685798,-0.08393365,0.22813901,-0.34648657,0.09540799,-0.018047614,-0.120586514,-0.033757243,0.06920824,0.14130272,0.19077581,0.022370944,-0.36859477,-0.2637355,0.29565862,-0.25933698,-0.014931555,-0.23555073,-0.007159716,0.07339414,-0.38486084,0.2179696,-0.08542517,-0.08267998,0.28726655,0.11926,0.096372634,-0.41224405,0.18251048,0.26721,-0.19020793,0.3288164,-0.11060759,0.31635812,-0.1274601,-0.088349886,-0.15883297,-0.29112935,0.14726979,0.2286046,0.21803038,-0.47032636,0.25992352,0.1321936,0.29642293,-0.023549251,0.054039393,-0.052701432,0.10924678,-0.23827024,0.09063823,0.15873614,-0.33876175,0.32168162,-0.2550963,-0.37602764,-0.15220988,0.015557023,0.21067846,0.06928263,0.23984674,0.013393853,-0.21916264,0.0112438435,-0.025875703,0.19437484,0.1708797,0.265957,-0.1565141,-0.19462076,-0.19931547,0.23228692,-0.20306328,-0.1973415,0.27918097,-0.08703607,0.0049619116,0.1334469,0.20760226,-0.18751833,-0.30959582,0.30155295,-0.065802954,-0.23356393,0.17703733,-0.17189673,-0.14840272,0.11705656,-0.064320326,0.23381878,-0.2524844,0.29043004,-0.046993867,-0.18109338,0.2678789,0.35147184,-0.13067971,-0.1495277,0.37444592,-0.35309276,0.019362811,0.060362108,0.051774092,-0.34974948,-0.03183274,0.13016623,-0.09417953,0.2533608,0.07395509,0.14505464,-0.16888197,0.31725353,-0.28750947,-0.008266756,-0.1709834,-0.051051512,0.15925303,-0.36596382,0.2078856,-0.42293218,0.13312635,-0.28283677,-0.0035268327,0.21698686,-0.35599083,0.22682324,0.06367347,0.012972168,-0.0874809,0.08679654,0.016460843,0.14460258,0.026053892,0.271783,-0.134332,-0.047476646,0.04834542,0.11086045,-0.1507071,0.0846605,-0.20922603,-0.1946642,-0.09972746,0.23415273,-0.0831909,0.14967237,0.008146293,-0.3127145,-0.32824373,-0.158,-0.057404082,0.20328511,0.06768553,0.020432085,-0.09709704,0.33389908,-0.2533045,0.33098084,0.2592148,-0.082079,-0.15720956,-0.032566566,0.31785667,0.20342936,-0.2883992,0.09058625,-0.1518263,0.24076445,0.18289192,-0.036944088,-0.1917669,-0.3492202,0.16862181,-0.08795184,-0.2247925,-0.09435804,-0.123112544,0.039519493,0.15613794,-0.027972005,0.14065845,0.020867143,-0.24089469,0.15768619,0.26212573,-0.13089444,-0.11373009,-0.106246695,0.20416133,0.11083554,0.06365154,-0.32580057,-0.111715205,-0.24776372,-0.079336785,0.014129696,-0.024136104,0.39367813,-0.2465501,-0.12628925,0.28062677,0.105933435,-0.18043692,0.30962363,0.116994955,-0.02734423,0.094095156,0.25139272,-0.38727653,0.12381436,0.03479058,0.1460923,-0.18730375,-0.15183164,0.12570766,-0.041178226,0.10652484,-0.05022647,0.2634891,-0.43735942,0.13498169,0.1625486,0.2677592,-0.21196824,-0.24270496,0.07510281,0.15138154,0.18208155,-0.009438712,-0.15627839,-0.16933393,-0.07199375,-0.13798496,-0.01576386,0.08135835,0.20965546,0.18150203,0.23916279,-0.23718426,-0.27945027,0.41525644,-0.30287418,-0.019009355,-0.35848442,0.25264552,0.33885705,0.13650854,-0.16041368,0.10842632,0.15645024,-0.34071898,-0.20518188,0.054980442,0.102548905,0.21705417,0.3104918,-0.047552824,-0.18668516,-0.111069664,0.13079046,-0.102087975,0.028825773,0.022362582,0.057313018,-0.3548961,-0.20204088,0.33778605,-0.287466,-0.3833416,0.21492401,-0.096707635,0.015314748,-0.19060536,-0.1512929,0.1587442,0.044556297,-0.20598373,0.06488625,0.15442534,0.2356491,0.13089125,-0.2639597,0.017371995,-0.11007757,-0.011435375,0.24388087,0.14254402,0.090112366,0.3272469,-0.3654838,-0.13123521,0.015283877,0.20846052,0.0027405648,-0.043396905,-0.11446808,-0.107150964,0.29515758,0.109002516,-0.11841238,-0.0029846171,-0.23746556,0.05701952,-0.3633161,-0.1239392,-0.02697214,-0.085464224,-0.021899067,0.39853013,-0.097204894,-0.16015564,0.34837607,-0.18906555,0.26248232,-0.10779666,0.19328645,0.34584555,-0.26354998,0.15790135,0.13070564,-0.1393121,0.40225527,-0.06019793,0.08104915,-0.23359096,0.12421171,0.028265683,-0.2348823,0.22969362,-0.2300603,-0.06340727,-0.2861499,-0.07024946,-0.19284624,0.112336,0.24926987,-0.08353642,-0.13112843,-0.18752174,0.25503203,0.1353684,0.3040328,-0.056588296,0.2472976,-0.29849184,-0.069253325,-0.2585984,-0.07595632,-0.17208162,-0.13663056,-0.24426842,-0.21205162,0.19429448,-0.029672518,0.34233323,0.25379455,0.2856319,0.29090956,0.18916368,0.054608557,-0.36688825,-0.04772424,0.1756738,-0.16394325,-0.26187095,-0.37821218,0.15824157,0.23703125,-0.25627682,0.121157736,0.12081036,0.03688102,0.24145302,0.0143721355,0.13796091,-0.020542683,-0.21552195,-0.27784076,0.08802777,0.00839256,-0.012739818,-0.09581217,-0.123718776,0.0052089794,-0.1920996,0.17926973,0.17612967,0.25382036,-0.1625051,0.054632246,-0.27928492,-0.23724179,0.0943177,-0.038190305,0.116852164,-0.25693196,0.075353846,-0.03814212,-0.0020575335,-0.012286301,0.08141338,0.2785399,-0.2635195,-0.21517335,-0.17968401,0.053244613,-0.20656762,0.006512861,0.16406259,0.15826598,-0.010744615,0.13163173,-0.01989236,0.30116695,0.06050996,0.33252385,0.05051344,-0.14766419,0.19565311,-0.2582462,0.2378956,-0.036687423,0.37801138,-0.15522875,0.015346579,0.11999274,-0.41772294,0.16771774,0.20728256,0.022508679,0.0999412,-0.33920524,-0.15226215,-0.2562719,-0.04749267,0.0384042,0.15037678,0.20033436,-0.0095751695,-0.17171517,-0.32664058,-0.30118677,0.12147771,0.10344017,-0.059555467,-0.147472,-0.2727641,-0.26959902,0.33446044,0.11104375,0.19081756,-0.06949349,0.199589,0.11250827,-0.30714554,0.094470255,-0.14796345,0.21384856,-0.08800947,0.11776366,0.04693528,-0.27902773,0.10113839,-0.01135635,0.3031124,0.11418415,-0.3254348,0.09167042,-0.45569605,-0.34343833,-0.3042959,0.34127316,0.13661766,0.18237704,-0.26148757,-0.06884453,-0.116894655,0.08806071,0.1133654,0.16577728,0.16858187,0.3009108,-0.08498184,0.119413696,0.16400895,-0.031014647,-0.06934822,0.21612372,-0.23131694,-0.10551394,0.36119187,0.039118797,-0.22580574,0.09114537,0.34699532,-0.26375788,0.30960616,-0.19067895,0.3173275,0.19508982,0.16667373,-0.20986858,-0.08371113,-0.19668642,0.12870544,-0.039477844,0.009823639,-0.31302577,0.078820944,-0.09413092,0.19479884,-0.2858148,0.18683922,-0.06399291,-0.23916925,-0.013579399,-0.26471063,0.062317535,-0.35450083,0.29246622,0.2450507,-0.039479703,0.26167312,-0.056625847,0.15472709,0.28417003,0.1511728,-0.21466447,-0.05756985,-0.33833113,-0.093887076,-0.26601294,0.116156854,0.1616267,0.2899221,-0.15590546,-0.2474226,0.20653647,0.24023771,-0.30607995,-0.25094494,0.28962708,0.21544324,0.026412081,0.18695953,0.43038845,0.016894378,0.2366275,-0.074035875,-0.14169325,-0.3175789,0.16023092,-0.035586502,-0.25152326,0.008209592,0.19153939,0.2666496,-0.40135035,0.2365106,-0.07004485,-0.15361658,-0.30265567,-0.122650266,-0.27778274,0.29496795,0.25899896,0.06702066,-0.37246174,0.008878461,0.1404754,-0.1806845,0.18532583,0.25408927,0.11971752,0.047827117,-0.28991553,-0.039833035,-0.37957603,0.27459326,0.22143772,0.16629118,-0.25088546,0.1644426,-0.08152054,0.107219204,-0.10103011,-0.22374628,0.088190824,-0.22964174,0.16935846,-0.15581979,-0.1055004,-0.05484317,-0.33828473,-0.32190004,0.39700207,0.2500883,-0.2985275,0.036517635,0.33798254,-0.395773,0.34013775,0.023923028,0.14379929,0.23206756,0.091393076,-0.38643816,0.1487306,-0.33299476,0.018477049,0.18102492,0.10791614,-0.0656803,0.2272356,-0.017340785,-0.050452497,0.118605755,0.23112364,0.08400272,0.22450925,-0.16200234,-0.20090315,0.05094646,-0.22277805,0.08510025,-0.1573068,0.014852549,-0.3430844,0.33232945,-0.3354965,0.047183238,0.41870415,0.28457472,-0.25914514,-0.23847637,-0.2680227,0.39163128,-0.20539379,0.025035815,0.23061414,-0.27072912,-0.07663681,-0.13213895,-0.11045464,-0.17717572,0.19791868,-0.15861522,0.4103119,0.016759483,-0.17193463,-0.13453329,0.32175687,-0.12606356,0.20680301,0.25439498,-0.20377837,0.18773483,0.056436904,0.08124573,-0.10670876,0.38416916,-0.10034349,-0.30852318,0.07801707,-0.26644835,-0.36982325,0.05087906,0.31294635,0.14001815,0.21313238,0.18877497,-0.12767993,0.15380819,0.2871127,0.19740924,0.28494594,-0.17130485,0.16003564,0.039755043,0.09819589,0.038083684,0.0828951,-0.06429769,-0.33406156,0.19381694,-0.1910458,-0.32589975,-0.22112638,-0.20572188,-0.047788918,0.3207261,0.34388486,-0.33735827,-0.28604075,0.23137674,-0.12403662,-0.4114586,-0.13537237,0.12245955,0.028628882,0.2930887,-0.18198691,0.13329467,-0.02186726,0.036692407,-0.06377074,-0.21628956,0.028321901,-0.037843145,-0.020061895,-0.13769159,0.13316983,0.17861652,-0.30507123,0.43277472,0.20391892,-0.02503552,0.14299521,-0.37946755,-0.18018465,-0.13041785,0.24313527,-0.02271108,0.046719268,0.06522439,-0.04350931,0.17891043,0.069443665,-0.14978953,0.19016755,0.17270736,0.11256381,-0.220548,0.026954204,0.21510848,-0.13974492,-0.31806606,-0.040980995,0.19770002,-0.15884843,0.16238168,-0.13759623,0.3510605,0.1826914,-0.20378655,-0.25881666,0.15167226,-0.1223834,0.071616195,0.12012549,0.2442122,0.11768147,-0.109260544,-0.063528895,0.08817516,0.06343268,-0.15985696,0.26011005,-0.3688837,-0.026193343,-0.028651873,0.037938446,-0.10643646,-0.008416613,-0.057313427,-0.13111968,-0.12614089,0.40400976,-0.03688321,0.22602008,-0.4321583,0.2497733,0.17092246,0.21965115,0.03864663,-0.16064058,0.07442838,-0.25178006,0.13662155,-0.059000526,-0.2861938,-0.006347921,-0.15192086,0.19351922,0.22534211,0.088791825,0.030050447,-0.27681333,0.08654198,-0.13088267,0.020355703,-0.02923611,0.097682044,0.18184872,0.14468269,-0.24224663,-0.12521009,0.2433835,-0.26789528,-0.29906127,-0.032739285,0.034379292,0.2804845,-0.35736367,-0.11590502,0.20227756,0.32819954,-0.23477511,-0.036201134,-0.20014001,0.2864385,0.33713454,-0.35453212,-0.046724584,0.1977186,0.18752979,0.021354701,-0.26541907,-0.2750545,0.08325262,-0.15523152,0.075190574,-0.024969185,0.46563435,-0.23391126,0.1870829,0.22230966,0.136454,0.16169749,-0.14793223,-0.18585144,0.12952662,0.14494593,0.36466816,-0.12618566,-0.26620427,0.11077206,-0.30696717,-0.12307912,-0.17061847,-0.1885417,0.20239127,-0.40239882,0.17043768,0.24301022,0.19135495,0.29924917,-0.084648065,0.01379366,0.12121749,0.28091192,0.15277356,-0.4325863,-0.10308057,-0.318171,0.15536445,-0.25010505,-0.074420825,0.040844675,0.16832018,-0.32741204,0.24030487,-0.061689336,-0.15456799,0.20462592,-0.06803827,-0.3366794,-0.06633974,-0.11024715,-0.011023965,-0.15969999,0.11565715,0.1044183,-0.37562084,0.29652977,-0.2151581,0.24503306,0.14079389,-0.2601054,0.37706575,-0.28886092,0.01646465,0.19564068,0.15176097,-0.25286382,-0.1912304,-0.19909234,0.31393653,0.1518905,0.14430869,-0.3008984,0.34659308,-0.091748245,0.13532038,-0.22950459,-0.09491287,-0.14069068,-0.050545204,-0.22073376,0.27765465,0.22177787,-0.2689505,0.33415943,0.035811465,0.06638685,-0.33970934,0.45317364,-0.18808074,0.34443584,-0.24675971,-0.10333929,-0.07109082,-0.0558051,0.25163782,-0.14230447,-0.31508332,-0.13928473,-0.118179,-0.22204597,0.03730592,-0.18377465,0.36138213,-0.13661444,-0.13408667,0.32777852,0.08329855,-0.13130778,0.17215411,0.25991827,0.09410198,0.020192115,-0.14945763,0.18376869,0.14166628,0.06906135,-0.1979869,-0.18982574,0.36003634,-0.05310204,-0.24228138,0.33105016,0.004886578,-0.14399004,-0.05243328,-0.18924153,-0.10029945,0.030418988,-0.31592748,0.32120195,0.13328739,-0.19622554,-0.16923663,-0.029135447,-0.1441577,-0.07467739,0.13612385,0.03234205,-0.026738698,0.19722082,0.04918436,0.042780362,0.2764655,0.1677294,-0.22634318,-0.0028880402,-0.09500337,0.15094507,0.16736822,-0.08677274,-0.013072725,-0.08580565,-0.26414996,-0.101847574,0.44344896,-0.12987469,-0.047921166,-0.30926788,0.21718095,-0.21964693,-0.045783553,-0.10858746,0.3235922,-0.13352425,-0.14238395,0.24950382,0.2625681,-0.32395485,0.09200143,0.1106319,-0.044715427,0.07046196,0.22373633,0.24809264,-0.20853071,-0.22556728,-0.29158428,-0.19974002,0.062325057,-0.1766947,0.22913964,0.16540234,-0.25982735,-0.08684984,0.0025575887,0.1516277,-0.27519745,0.35260808,0.1265232,-0.31433254,0.09582364,0.2631035,-0.0049705748,-0.12826817,-0.02936551,0.25366658,-0.13128193,-0.2642823,-0.04620563,-0.022874424,0.040175185,0.19434735,0.14561102,0.047258575,-0.32394537,0.14472742,0.2645405,-0.3273682,0.21848324,-0.263743,0.2846909,0.25914627,-0.35570043,0.14677368,-0.10346869,0.070757195,0.12591805,0.042658962,-0.040149722,-0.33424506,0.13048774,-0.22815526,-0.029389454,0.060771406,0.27758908,-0.28182068,-0.11021854,-0.12337106,0.40034547,-0.41541576,0.2691872,0.20641622,0.15509981,-0.20814407,0.0887892,-0.09454398,0.079759136,0.03187821,-0.13240647,0.03050604,-0.10988241,0.16432683,-0.27464235,0.043056425,0.3160863,-0.1093793,0.26144862,0.035592932,0.04783,0.22139132,0.111785725,0.06817658,-0.059871837,0.055916518,-0.38082093,0.13914052,-0.029376881,0.222383,-0.07516568,0.20942648,-0.20846978,0.16945213,-0.26270413,-0.06325754,0.09509162,-0.29756987,-0.2291449,0.042961206,0.12125071,0.033410516,-0.04992268,0.119984664,0.29376662,-0.1260574,-0.2882112,-0.23066063,0.22500195,-0.11478561,-0.044381823,0.047719155,0.23851621,-0.23796907,-0.22342846,0.0016680789,0.109618895,-0.083433874,-0.21448997,0.12971397,0.10608611,0.020827908,0.26502082,0.083877265,0.06749663,0.14007768,-0.029778548,-0.26997983,-0.07060426,-0.26605844,-0.2388444,0.19554247,0.1980055,-0.1404494,0.07132205,-0.3291195,-0.18089658,-0.19028601,-0.28484872,0.46879902,-0.018963246,0.13391703,0.21146807,-0.079904646,-0.2069992,0.1415684,0.030370573,-0.23322709,0.25415158,0.14276734,0.098606795,0.20173024,-0.14538504,-0.15903962,-7.988394E-4,0.16543092,0.30319512,-0.2985173,-0.015043141,-0.0123249525,0.061960183,0.42336252,-0.24683103,-0.19177775,-0.17524882,-0.25069752,0.3064296,0.188654,-0.080154695,0.3120343,-0.28210205,-0.20948258,-0.25434044,0.4198959,-0.22295949,0.30693507,0.25175196,-0.22797087,-0.016409187,-0.12759857,-0.13307413,0.23418446,-0.008172671,0.052931514,-0.027571192,-0.13465701,-0.22437932,0.061332624,-0.01271442,-0.24983194,0.19825414,-0.3483379,0.07222977,-0.022053227,0.18908189,0.22739027,-0.1535691,-0.009585055,0.20287168,-0.119339615,0.164454,-0.1108098,0.17081623,0.37361202,-0.33701152,0.0032749723,-0.2470697,0.42218938,0.0437989,-0.065471135,-0.333099,0.37085062,0.002324409,-0.048468247,-0.26728156,0.36025968,-0.13438185,-0.2345712,-0.008356184,-0.13339642,-0.055843994,0.15783472,-0.17499648,0.008525548,0.01385079,-0.21619147,0.23184484,0.2558959,-0.057880204,0.09391585,-0.050012797,0.29171628,-0.3058944,-0.048260935,-0.0372089,-0.19456965,0.07336243,-0.14091255,-0.32135993,-0.0155987935,0.19237913,0.16606045,-0.3054178,-0.181568,0.17307049,0.04500031,0.055139985,-0.09961735,0.28957447,0.095448546,0.038359173,0.099272035,-0.02363906,0.18205449,-0.12872684,-0.14657687,0.061616473,0.16003975,0.12246956,-0.16863729,0.18602973,-0.27036396,-0.26056442,-0.025592515,0.003943847,0.16287723,0.05176558,-0.18507235,0.022768438,-0.2730305,0.22364706,0.105471894,-0.06670048,-0.086984605,-0.29421422,0.23943983,0.1726351,0.05981532,-0.015840247,-0.097362414,0.42199314,0.15818995,-0.33635327,0.32477605,0.1325416,0.08215264,-0.063047536,-0.15119332,-0.27358308,-0.010319294,0.22333753,0.10639373,-0.26932493,0.25926518,-0.07022276,-0.23498324,0.31522655,-0.17259741,-0.32670444,0.10265919,0.18158469,-0.044383038,-0.104947455,0.034120187,-0.1880493,0.32581317,0.20165741,-0.14784941,0.3910882,-0.1393104,-0.38322598,0.21473473,-0.06361868,0.2630434,-0.3698265,-0.06448155,0.17276272,-0.18301404,0.10348369,-0.22880891,0.19759473,0.15690948,0.057010993,-0.34599468,0.2672851,-0.1149653,0.09046001,-0.24681583,-0.14805226,0.17337953,-0.17807886,0.20934387,0.2574215,0.09057475,-0.18569021,-0.34618708,0.18602332,0.18314262,0.017589465,0.05790336,0.016706469,-0.24131064,-0.21066093,-0.14175135,-0.028221382,-0.10061312,0.20532389,0.041923903,0.28846076,-0.20564745,0.19779196,-0.035056684,-0.12527035,-0.056242783,0.010744917,0.110045284,0.20716478,-0.05533431,0.08380674,0.08766159,0.17669298,-0.31625786,-0.29944813,0.27851,0.020949846,0.19029394,-0.36289215,0.25582486,-0.25068623,-0.29442027,0.16075936,0.07187887,0.02274466,0.11370124,0.11459575,0.060721785,-0.34946215,0.07354203,0.09662506,-0.41796604,0.36752507,-0.30213717,0.26959234,0.25936693,-0.014582309,0.27234003,-0.3777731,-0.12690301,-0.1132718,0.31738335,-0.35563213,0.2931092,0.08684049,0.27467299,-0.06540597,0.1585908,-0.10081076,0.010641287,-0.075383,0.03151168,-0.15700646,-0.23913309,0.06850917,0.088924356,0.021748072,-0.25469676,0.33983907,-0.38933045,0.17067172,0.107856974,0.09879925,0.17867948,-0.38922018,0.108488314,0.03622061,-0.13444719,-0.11640868,0.1722282,0.41049942,-0.2285329,-0.16116397,-0.018192247,-0.16435449,2.974406E-4,0.32220942,-0.12647055,0.13130902,-0.07707875,0.35850057,0.258966,-0.1329075,-0.4354549,-0.09466949,0.013048405,0.05653689,-0.4138257,0.09653681,-0.20043045,0.19644347,0.05081684,-0.21015514,-0.2832526,0.15516019,0.2044308,-0.20373978,0.08108597,-0.2874607,0.2164615,0.038845528,0.35989866,-0.2907276,0.32070494,0.12716801,-0.20192412,0.17673829,0.20386536,0.389326,-0.045333438,-0.26792344,-0.2041915,-0.047641627,-0.123694144,-0.24150155,-0.1684982,0.01449721,0.014077421,-0.23689592,0.17697173,0.2826968,-0.1216569,0.19106895,-0.3406846,0.25286505,-0.25467995,0.13461792,0.11029069,0.2797009,-0.062235147,-0.03260163,0.045339126,-0.42311957,0.25085154,-0.29981026,0.29860452,-0.29239726,0.1958383,0.14047912,0.14440121,-0.11570515,0.058372412,0.15947853,0.083053514,0.22777681,-0.046619505,-0.27719888,-0.19258086,-0.25151974,0.23373736,0.29044408,-0.11297467,0.069921665,-0.034093667,-0.036088444,-0.08331928,0.17023619,-0.026964009,0.2747095,0.069950975,-0.23461235,-0.293382,-0.30732235,-0.0514002,-0.11122953,0.09195564,-0.07494503,0.4057052,0.049663298,-0.22337915,-0.21506284,0.33679923,0.2032637,-0.31368533,0.17141205,0.23524812,0.01402878,-0.27100807,-0.291744,0.3812414,0.13138625,0.4253154,-0.3521645,-0.2806491,0.0034632816,-0.21963806,0.051232357,0.10413897,-0.24409525,-0.25192806,0.14217284,-0.24573039,0.009203721,-0.011742011,0.33815306,0.0071822437,0.27692127,-0.21316206,0.0055072536,-0.15923327,-0.06646191,0.14313261,-0.1313504,0.32979915,0.10878811,0.28493297,-0.13744698,-0.17446944,-0.28678066,0.0667417,0.074227795,-0.012187327,0.21554446,0.2666358,-0.1310998,0.14310284,-0.0258972,-0.16738908,0.34400418,-0.23957989,0.17702535,0.22915049,-0.1366822,-0.2061794,-0.2541031,0.18520072,0.120211825,-0.2834772,0.2170791,-0.20328185,0.27044284,0.25509316,-0.13887128,0.062505186,0.27661178,0.026910556,-0.27996325,0.26082358,-0.22229354,0.23066208,0.26655394,-0.18490401,0.14102316,-0.2562702,-0.3519048,-0.012461587,0.409546,-0.3762449,0.01610492,-0.080368645,0.06637757,-0.13887465,-0.035461962,0.03519066,-0.025080565,0.31521016,0.0048980513,0.14026602,0.103518814,0.37817708,-0.1074489,-0.29494467,-0.13421981,0.29246715,-0.37317923,0.007464218,-0.034582883,0.35469684,0.025312526,0.16295458,-0.13554724,0.19328615,-0.051362146,-0.36122012,-0.17848001,-0.12666206,0.2616322,-0.40912074,0.31650358,-0.06467454,0.091522954,-0.23566705,0.18088354,-0.09807753,0.21219864,-0.17626715,-0.34608477,-0.042104658,-0.0022194607,-0.22341329,0.10625366,0.02740231,0.12545303,0.029544925,0.23345938,-0.3333224,0.37568614,-0.10838262,-0.16956788,0.2821192,-0.03985947,0.19237463,0.2226286,-0.29042092,-0.02341731,0.2701557,-0.21596177,0.08018788,-0.20798932,-0.043672603,-0.2351691,-0.13489333,-0.21652359,0.22771749,-0.2225706,0.15872891,-0.0017713963,-0.0112348655,0.08488627,0.08545711,0.17912582,0.0560059,0.017052742,0.32371864,-0.0015574873,-0.11510775,-0.03815857,0.017006665,-0.16896114,-0.00928103,-0.25311896,-0.19415179,-0.25458142,-0.1381546,0.27362996,0.23183829,-0.21020553,0.051074766,-0.20009784,0.074436665,0.0489554,0.003664528,-0.09015446,0.24493904,0.15041192,0.13952224,-0.16495718,-0.018731656,0.26662487,0.1389901,0.14329359,-0.031277284,-0.29973772,-2.3636791E-4,0.020603538,-0.14792447,0.10785655,0.152434,0.14746456,-0.21517392,0.22481981,-0.109228685,0.037423998,0.12450585,0.2629846,-0.096843116,0.10187692,-0.23065121,-0.105343424,-0.16059549,0.3578041,-0.10666932,0.100832835,-0.1990495,0.11785502,-0.27513063,0.05354798,0.15850194,-0.11096915,-0.040553216,-0.07843969,-0.07695505,0.029741036,0.27846238,0.20634049,0.4516906,0.14674242,0.010230681,-0.0820939,0.18773554,0.13217856,-0.2405441,-0.2527214,-0.18631138,0.29253927,-0.06490945,-0.24890183,-0.16812529,-0.21930791,-0.042293947,0.041338783,-0.15599303,0.10639523,-0.24807256,0.3579294,-0.103516705,0.19075808,0.030956889,0.17591037,0.017165221,-0.17833929,-9.9907E-4,-0.11032116,-0.02818757,-0.38421986,-0.042880535,0.074599445,0.14976166,0.17566882,-0.051307898,0.12426872,0.11779795,-0.15208085,0.19379811,-0.14062631,0.06853453,-0.3389036,0.34529683,0.18805137,-0.2382738,0.1877367,0.092629924,0.0012119246,-0.041530475,-0.18444796,0.037214532,-0.19280687,0.36478877,0.069075465,0.32964435,-0.12783994,0.34156418,-0.25537956,0.2701297,-0.2559068,-0.14800446,-0.2553308,-0.038623814,-0.25882226,0.2907188,-0.17155403,-0.16422479,-0.07153807,0.38385886,-0.07060475,0.059416607,-0.43731114,-0.27936482,-0.04600178,-0.2926911,0.24827816,0.06696617,0.06506949,-0.3046335,0.31029737,-0.30345425,-0.0070084087,-0.25860864,0.022767356,0.33592507,0.214872,-0.25067875,0.008026612,0.19876921,0.09030283,-0.15992363,-0.25192857,0.11099714,0.24397253,0.33284986,-0.09621003,-0.2573988,0.41475388,-0.38959956,-0.1777174,-0.18479963,-0.009197814,-0.0354997,0.34602287,0.31017354,-0.19760726,0.11814244,-0.2767152,0.09200117,0.16177927,-0.02676152,-0.047601588,0.117026895,0.011236702,-0.16886291,0.32815903,-0.24170063,0.22997755,-0.26166034,0.16032481,-0.20184654,-0.14816578,0.053519614,-0.22719513,0.21835515,-0.27161336,0.19306038,0.30581173,-0.36194324,-0.005590287,-0.314746,0.2843226,0.032563325,-0.2692994,-0.00784162,-0.09537059,-0.15963069,-0.16326053,-0.042811252,0.36390206,0.22729778,-0.3151186,0.2713042,0.26628765,0.17105159,-0.08104969,-0.12333252,-0.23581222,0.2391178,0.31876707,-0.28688455,-0.35237625,0.14256474,-0.2744882,0.2537977,-0.081000954,0.37053618,-0.037819352,0.2502442,-0.26190567,0.15196875,-0.18722264,0.24349558,-0.1174387,-0.13368277,-0.1809082,0.12574579,0.22114117,0.040529765,-0.01757131,-0.13503133,0.2745717,-0.29745096,-0.11728709,0.17623779,0.1872403,0.05200949,-0.10497113,-0.025993649,0.2973291,0.29459092,-0.08857636,-0.06802312,0.11695048,-0.31640756,-0.22357914,0.17522638,0.26403156,0.3368565,-0.24608822,-0.15816768,0.07159725,0.0022622645,-0.13826658,-0.26259887,-0.2095275,-0.4106766,0.25164253,-0.31214562,-0.06818116,0.3840499,0.15648781,-0.14841773,0.07459684,-0.12140785,-0.3400743,0.034744393,-0.1831489,-0.060656566,-0.25308567,0.27721187,-0.11919688,0.37419033,-0.11746993,0.27194118,0.18619993,-0.011335319,-0.080887996,0.27272156,-0.06303175,-0.03928611,-0.312532,0.08455232,0.21047126,0.26742932,0.17299253,0.07035872,-0.31621924,-0.16480686,-0.13745733,-0.46844748,0.23685952,0.26686338,-0.36244914,-0.040973112,0.066653095,0.017131533,0.18865286,-0.32094526,0.23545446,-0.20709184,0.17107299,-0.03800229,0.037228502,0.24385625,0.23024422,0.24177024,-0.12117337,0.34176964,-0.20764796,-0.32215446,0.33549127,0.10417197,-0.19683482,0.046595894,-0.08126722,-0.36847216,0.064414695,-0.026178945,0.10852284,-0.044958115,0.24964294,0.22196645,-0.11824615,-0.12022481,0.163499,-0.055742312,-0.043404374,-0.10411577,-0.20801905,-0.32418025,0.036717992,-0.28272688,0.06604207,-0.1282265,0.06703556,0.3720687,-0.08729984,0.28193796,-0.37456414,0.09808155,0.18751486,0.043120008,-0.063063405,-0.21845709,0.18853018,0.07909192,-0.15472972,0.19562368,-0.29692024,0.05233983,0.31292915,-0.18393232,0.07544861,0.027844368,-0.29539812,0.25782603,0.108347215,0.10282727,0.13643955,-0.11459046,0.05567488,0.22011316,0.19567046,0.31111294,-0.21300852,-0.27856883,0.19255868,-0.28177124,-0.18645617,0.14117496,-0.2831223,0.2174279,0.18026993,0.14727306,-0.043736752,-0.20106879,0.094059974,-0.26119056,-0.089812726,-0.36863902,0.1800939,0.33515245,-0.16470091,-0.2119709,-0.14859995,0.003989507,-0.25607076,0.41770568,-0.035920963,0.042812843,-0.03190162,0.0049504195,0.1540185,0.13348995,0.08267185,-0.25030646,0.07310132,0.022497136,0.06845142,-0.0033712,-0.08770924,0.008358493,0.16805243,-0.1482197,0.06636114,0.23774031,0.1302922,0.37530187,0.08635407,-0.36413887,-0.2814343,0.050278254,-0.34881473,-0.25231385,0.025457123,0.3222161,-0.11097952,0.27180907,-0.2854331,-0.22732678,0.07820757,0.11144,-0.28095922,-0.043812197,0.31775883,0.30214676,-0.16614307,-0.17892402,0.1790137,0.43410942,-0.21838687,0.032020923,0.17458281,-0.24414998,-0.26284656,-0.010182321,0.41732162,-0.22684811,-0.08255756,0.012245092,0.14901926,0.10495331,-0.27503926,-0.10640702,-0.14633371,-0.12637593,0.213651,0.17877783,0.0730337,0.32042325,-0.16726013,-0.07225756,0.044012457,-0.20970169,-0.10680977,-0.22441441,0.10468129,-0.07745461,-0.31951705,0.26041067,0.32928583,-0.2991013,-0.39390606,0.20530067,0.14266142,-0.11875479,0.20683111,0.073644854,0.2421376,-0.1385235,0.22889207,-0.25218484,0.13593352,-0.16405585,-0.19509117,0.26498395,0.24707691,-0.39997637,0.18662094,0.025089614,-0.24416281,-0.122367084,0.18257573,-0.16412443,-0.28978628,0.067819506,-0.20817257,-0.1389569,-0.2227413,0.10835257,0.2364789,0.008126926,0.18441579,0.11626471,0.14592579,-0.2023198,-0.2817377,0.25251052,0.21023117,-0.083694205,0.23527387,0.06399429,-0.10920556,0.117663704,-0.2103241,-0.08099498,-0.16990359,-0.28149825,-0.037116192,0.16254458,0.109492496,0.27222782,0.34877646,0.25685945,-0.2736536,-0.3227465,0.22982873,-0.051948983,-0.042011723,-0.25517872,0.27308604,0.078717865,-0.06044642,0.063263364,-0.19947067,-0.12701236,0.23610388,-0.1547562,0.06095892,0.1836537,-0.2428786,-0.24645022,0.2909609,-0.11389074,-0.21236445,-0.1506298,-0.088452816,-0.46537328,0.2980304,-0.09443709,0.24761623,0.076178886,-0.13922712,-0.050486803,-0.24661796,-0.17182301,0.20418824,0.26941982,0.2708172,0.12779565,0.26731968,-0.4190124,0.28517827,-0.010339245,-0.3353397,-0.1927863,-0.19116594,0.16403624,0.09933801,-0.17668602,-0.10605334,-0.20508635,-0.1300605,-0.102784,-0.18973136,-0.25267273,0.23026901,-0.19806078,0.40118688,0.36418688,-0.011936322,-0.16479497,-0.044077747,0.29052222,-0.12697239,0.17616947,-0.008494643,0.14410979,0.25353694,0.31450456,0.15317485,0.1046435,-0.37503976,0.031713508,0.15620495,-0.118787445,-0.058899596,-0.15179786,0.04506879,0.16114712,-0.19001395,-0.3616403,0.23863831,-0.18227318,0.24877122,-0.10045031,-0.30429184,0.088171005,-0.018062485,0.0768823,-0.18569025,0.20523773,0.2034705,-0.07803479,-0.3409214,0.3922888,-0.09389093,0.27016443,-0.07600964,-0.11959584,0.17159505,-0.030331468,0.32869762,-0.16230534,0.07787898,-0.21368033,-0.27360165,0.30183098,0.3711713,0.090670586,-0.03240678,-0.27558485,0.34950545,-0.061692253,-0.14313465,-0.04626429,0.10463738,-0.18781611,-0.20448533,-0.108347036,0.11457094,-0.3325768,0.2602155,-0.21457444,0.020417893,0.34599027,-0.19168073,0.11101768,-0.3951737,-0.0038423233,-0.054581963,0.21781123,0.05916974,0.03887538,-0.16140398,0.14671543,0.18763098,-0.06468453,-0.28333014,-0.26953563,0.20349932,0.1435752,-0.067516975,0.23545754,-0.37393486,-0.12608579,0.25668472,0.23766236,0.22353981,0.3428274,-0.06408985,0.12080421,-0.12210068,-0.22583069,0.2390216,0.09594446,0.31105703,-0.37663722,-0.1960063,0.2895821,-0.07267399,0.19793667,0.33088478,-0.18208297,-0.010964578,-0.25756007,-0.2727091,-0.13679066,-0.11065983,0.34858233,0.09874746,0.2552443,-0.3660618,-0.1579909,-0.22172761,-0.01904776,-0.21803893,0.047078107,0.16206776,0.12963964,0.15180114,0.10750804,-0.20136446,-0.12834936,0.27089402,-0.06788269,-0.03789979,-0.03569141,-0.10578,-0.020573797,0.25407895,0.08573778,-0.01613866,-0.34630126,0.19453377,-0.22887911,0.22852509,0.2014233,0.12497965,-0.30042288,0.26591164,0.15707406,0.19095422,0.32041088,0.16822577,0.035805758,-0.20375791,-0.29710987,-0.16730288,-0.25224298,0.21611494,0.18190478,0.18464404,-0.02489239,-0.12499558,-0.11853131,0.016211867,-0.0907057,-0.3889569,-0.2414071,0.07614862,0.36686075,-0.14898527,-0.2823517,0.27959263,-0.19792177,-0.21163496,0.3521965,0.001863959,0.29832682,0.07373107,-0.26948977,0.24801165,0.05024888,-0.22749862,0.24848151,-0.25164932,-0.29641578,-0.21698138,-0.033259142,0.042209323,0.0034629337,0.09330483,0.26547578,0.20876862,0.19392906,0.1855421,0.09159559,-0.21814257,0.31149477,0.179301,-0.14244772,0.39494738,-0.11345734,-0.44007435,-0.13292116,0.033623062,-0.13872789,0.2095957,-0.11927294,-0.0043335366,-0.17663047,-0.021941558,0.33448532,0.16490401,-0.14414933,-0.23381887,-0.25273454,-0.0037911069,0.28301433,0.15235801,-0.3122633,-0.16698626,0.23467784,-0.41228026,-0.15569241,-0.32543302,0.19219047,0.05816102,0.16752368,-0.13041596,0.13314891,-0.08699884,0.34428906,0.19299619,0.11413524,-0.053009704,0.17429729,-0.26111156,0.27629006,-0.033729475,-0.14054637,0.071225904,-0.22397058,0.19415933,0.16386057,0.023865608,0.036393635,-0.23612349,0.29619172,0.17092842,-0.016618293,0.20881014,-0.17912032,-0.0832169,-0.07887228,0.21237794,0.07997941,-0.25994244,-0.13009015,-0.3154235,0.31657067,-0.44157082,0.2618704,0.19291387,0.0022786714,-0.12148304,-0.11351077,0.099751316,-0.32470408,0.36664042,-0.341959,0.07303351,0.24986857,0.013425206,0.12546809,8.0445944E-4,0.2965058,0.06556376,0.12997949,-0.32000703,-0.19347998,0.18507116,0.14758,-0.26505595,0.11282211,-0.26009718,-0.07877554,-0.18352892,-0.17001949,0.12939012,0.09673454,-0.13824822,0.31927115,-0.11187689,-0.025592491,0.28424755,-0.086251214,0.37695011,0.3298315,-0.2904971,0.020734737,-0.40210676,0.25433326,0.20248023,0.04045737,-0.22872177,0.0024591119,-0.042636406,-0.13066722,-0.1387465,0.029476937,0.09032987,-0.28591806,0.16841562,-0.1366111,-0.06905274,0.19467273,0.019017503,0.18068759,0.1841678,0.12919368,-0.29452693,-0.28386495,0.073878534,-0.15309353,0.38891515,-0.116205454,-0.17627995,-0.08444227,0.2877812,0.16378598,0.19246617,-0.27382064,-0.06972248,-0.07936947,0.1784858,-0.23416351,0.2981208,-0.07336864,-0.18511586,-0.025812136,0.08776953,-7.5159274E-4,-0.19872221,0.12334016,0.27950472,-0.019875607,-0.051830538,0.26885888,-0.23000501,-0.28012648,-0.3744524,0.04160189,0.3475384,-0.28510982,0.2003803,0.36120617,-0.16967016,0.04105635,-0.1073632,-0.23810121,0.16950648,0.3376398,0.35269338,-0.30539888,-0.10802788,-0.28833959,0.21252996,0.02555124,0.07150949,-0.03188448,0.25418696,-0.19821909,-0.056294773,0.07431917,-0.024104636,0.24304122,0.121382006,0.21127105,-0.30218294,-0.12469397,0.058181252,-0.19269866,-0.2491254,-0.014462634,0.19456232,0.34323913,0.006460679,-0.004525144,-0.19633174,-0.21256372,0.3062692,-0.21919306,0.269549,-0.23583245,-0.0050064274,-0.17725909,0.023189304,0.19543022,-0.24607651,-0.23369364,0.13771209,0.0365566,-0.08725109,0.30324864,-0.16274977,-0.16453859,-0.24476144,0.09773938,0.08684944,0.057009645,0.40184832,-0.25705236,0.24199717,-0.13069487,-0.17253594,-0.016083809,0.17289245,0.005694123,0.31949255,-0.021388289,0.18398236,-0.18023442,-8.471367E-4,0.13697249,0.110572755,0.03902887,0.13439932,-0.19950691,-0.21660714,0.22204135,0.03882584,-0.29607746,0.14590438,-0.01952182,-0.3810034,-0.111667424,0.028676748,0.20027675,0.17501009,0.09616161,-0.20620543,-0.062180366,-0.14231974,-0.19771352,0.43382135,0.17612754,0.14646956,-0.31581336,-0.17483407,-0.1837793,0.33425942,0.108478285,-0.1862031,0.09662458,-0.18303831,-0.1491088,0.39013058,0.120497406,0.22629917,-0.15948859,-0.29339465,0.30656412,0.0107900165,-0.22816844,0.21486409,-0.2427451,-0.04048956,0.26875538,-0.3834715,0.17246826,-0.19493762,-0.23218691,-0.23591036,0.02581776,0.24148604,0.096762344,-0.3020876,-0.1215707,0.25126028,-0.3414548,0.08229917,0.22660583,-0.30329838,0.20220037,-0.18043746,0.24223493,0.053922772,0.06052972,0.096188754,-0.16640592,0.21871269,0.123720795,0.18878497,0.20185764,-0.06736383,0.03591427,0.13896929,0.35382873,-0.26630414,-0.29842982,0.15505739,-0.23846276,-0.18452644,0.09215984,0.03716811,0.11217093,0.14703679,0.10411298,-0.29489917,-0.09560244,-0.05837449,0.15764102,0.015095092,0.28517324,0.05375349,-0.24240726,-0.24474792,-0.081544206,-0.2500556,-0.069265,0.10401773,0.09847104,0.16201496,-0.2408005,-0.3679296,0.16026391,0.3149572,-0.1823491,0.24341421,-0.14217636,-0.34583756,0.16078228,0.23844244,-0.15126863,0.24029852,-0.015197342,-0.10948538,-0.08656174,0.12126772,0.06267935,0.059066843,-0.02233607,0.05305197,0.14690717,-0.24762511,-0.06506144,0.28326672,-0.13655652,-0.35641816,-0.15293778,0.17157455,-0.23831937,-0.3673997,0.25974223,0.07264513,-0.22623931,0.054468635,-0.23907296,0.14084293,0.22327857,0.11137159,0.21982086,0.24493198,-0.12979981,0.2649616,-0.10498777,-0.041891135,-0.13121916,0.44316435,-0.2257141,0.03051081,0.2683047,-0.016639113,0.13074186,0.04671621,-0.31259996,0.0054218504,0.15868555,-0.3213818,0.16801025,0.26179442,-0.32990387,0.117195606,-1.753006E-4,-0.070029296,-0.04814477,-0.09244053,-0.23125055,-0.10192934,0.36953133,0.1811745,-0.16569619,-0.15093428,0.15853922,-0.2052159,-0.17369616,-0.001086593,0.16126372,-0.21005501,0.14095393,0.22531946,-0.101100415,-0.16046153,-0.009745177,0.38065717,-0.06299006,-0.2798922,0.20620245,-0.013697534,0.05956814,-0.19569395,0.062222835,0.077541515,-0.0054891934,0.08294257,-0.12251104,0.14759997,0.14781055,-0.18832076,-0.09314192,0.2216002,0.053719513,0.07342654,-0.087293305,-0.07644198,-0.15189093,0.028003614,0.29102695,0.0851229,-0.17750093,-0.32709226,0.3076449,-0.041012917,0.16293627,0.10965792,-0.27070493,-0.052436423,-0.24266411,0.02784744,0.182407,-0.08405712,0.09119986,0.24078134,-0.35917982,-0.16942497,0.27010053,0.07797734,0.19228669,0.035756405,-0.071077675,-0.05746388,-0.042478845,0.2123769,0.0023898208,-0.15710482,-0.1361668,0.1045252,0.21302451,-0.32780278,0.23593949,0.07995511,-0.21672513,-0.16841552,-0.16445394,-0.08867566,0.26624802,0.049968548,-0.21321705,-0.16398644,0.057825398,0.27978143,-0.31863487,0.2755881,0.014142267,0.16076948,-0.13948718,0.06962813,0.022542424,-0.16060759,-0.106364444,0.088644795,-0.3377189,0.09453236,0.022715209,0.15381566,0.038183756,-0.19756798,0.104899615,0.08806847,0.37314498,0.01741654,-0.30794674,-0.23536955,0.21208541,-0.1722711,-0.25276977,0.4033763,-0.34129223,-0.17867847,0.4437756,-0.21779718,-0.054722685,-0.07279304,0.19675133,-0.17239869,0.16913512,-0.014731717,-0.29227751,0.35959515,-0.17368887,0.024898412,0.44763845,0.16180936,-0.29639173,0.12974817,0.19325858,-0.3163725,0.024881257,-0.30116484,0.118846595,0.17039391,0.26866964,0.07135519,0.37967035,-0.22750369,-0.38267347,0.18244997,0.21418656,0.05493833,0.22844821,0.14891598,-0.20172606,-0.10163643,-0.18655781,0.0386677,-0.37929925,0.24268542,-0.08071894,-0.13654232,0.047170937,-0.18001153,0.124840744,-0.17091013,-0.060173694,-0.21598525,-0.00172679,0.03589853,-0.02480445,0.17360772,0.19980831,-0.3366865,-0.04579256,-0.13883032,0.14752887,0.040815026,0.056759138,-0.010744206,-0.33439308,0.22981465,0.0645823,-0.22400953,0.28438634,-0.04556186,-0.07625344,0.15007222,0.13747421,-0.0062514916,0.12662828,0.19316597,-0.24473971,0.14302213,0.081464484,-0.46479067,0.3601475,0.37300918,-0.12760508,-0.14231166,0.21386905,-0.16964787,0.010483634,0.25143164,-0.00271064,-0.28131652,0.034131624,-0.19762649,0.21024379,0.21433692,-0.035910003,-0.13861412,0.09168741,-0.073011495,-0.2849606,0.12527387,0.092796504,-0.24893464,0.20236224,-0.048061743,0.065233,0.1825979,-0.40622544,0.19301572,0.34047097,0.21728231,-0.036708146,-0.112532005,-0.26960456,-0.06891485,0.21481617,-0.42040765,0.07714765,-0.10654121,-0.03421923,0.015589709,-0.3615984,0.20388888,0.2262976,-0.0027569637,0.34974006,-0.11282568,-0.34062725,0.13892989,-0.1816427,-0.32439506,0.25932586,-0.23368461,0.30599174,-0.14412838,-0.12261809,-0.17837021,0.108205765,0.03621571,0.16524819,0.17259136,-0.16556664,0.3156449,0.23748893,-0.14133728,0.107252866,0.3223855,-0.239392,-0.27537698,0.17422773,0.057675164,0.41300732,0.20740415,-0.1821394,-0.20913495,-0.30834714,0.08258608,-0.2501057,0.35087338,0.4166226,-0.2278428,-0.2580193,-0.1162783,0.104015104,-0.17132738,0.098466426,0.1353249,0.18201846,-0.10115246,0.03609547,-0.118308924,-0.3306076,0.0042598923,0.10732263,0.011560032,1.3647076E-4,0.16693084,-0.28955093,-0.17712261,-0.20349567,0.34354824,-0.24220544,-0.026489511,-0.1568338,0.0022590929,0.393068,-0.11356165,-0.17952952,-0.11573159,-0.1020426,0.37855107,-0.18501008,0.3871613,-0.096881434,0.10267641,0.077756576,-0.21419685,-0.032080468,0.15710661,0.027131155,0.34474584,-0.34981057,0.2769345,-0.121667616,-0.22607818,0.2524204,0.026688924,0.101162925,-0.3604559,0.203494,-0.13320515,0.2339345,0.048355926,-0.3077376,0.19055639,0.17586385,0.22496362,-0.22256167,0.18251629,-0.36126587,-0.22429678,0.27856722,0.12482568,-0.2904323,-0.014220704,0.07967488,0.31158212,0.07284029,0.038841665,0.22217876,-0.14759795,-0.18381426,-0.2965312,0.18289562,0.42494303,-0.12264194,-0.08721906,-0.26471168,0.28243423,0.03831555,0.26922733,-0.20266686,-0.21970062,-0.27340114,-0.28633043,0.2897083,0.0845485,-0.011220852,0.19734922,-0.2802054,-0.1712507,-0.08591696,-0.09203264,-0.24640232,-0.23990628,-0.097379245,0.03703855,-0.30187035,0.33917293,0.19538724,-0.21432857,-0.090690225,-0.20427147,0.20363794,-0.1389995,0.067165144,0.040448368,0.041664686,-0.14439234,-0.02271048,0.20993336,-0.12111199,0.025559513,0.332881,0.22768828,0.18639074,-0.096998885,0.013891123,-0.090432204,0.23742908,0.22423895,0.048686396,-0.2383638,0.32252938,-0.20186049,-0.006201653,-0.34146222,-0.09180845,0.04881951,-0.092653304,0.17034452,0.23395926,-0.23811644,0.24437605,-0.12663841,-0.3878161,0.23488836,-0.32869762,0.1760163,0.13640805,0.20059693,0.09350953,-0.38989574,-0.074936114,-0.055659704,0.026562674,0.10171006,0.213634,0.23743482,0.038213972,-0.12211869,-0.11397168,-0.08107634,-0.02039682,0.3462289,0.029049583,-0.29192054,-0.061668526,-0.26511374,0.3017785,-0.015490404,0.054810874,-0.25864193,0.2953863,-0.08044657,-0.022773039,-0.31209043,0.31433243,-0.30495933,0.31227502,-0.17199983,0.20682587,0.30275303,-0.1832696,0.12919116,0.100449845,0.28544518,-0.09275617,0.07772615,0.21041884,0.12723644,0.07025978,-0.033181537,-0.076804645,-0.19762966,-0.14126259,-0.051890038,0.06126916,-0.16972898,-0.26461834,-0.11590446,-0.062102035,0.031298395,0.06439722,0.06366488,0.17049746,-0.30960387,-0.20434254,0.40686306,-0.0709229,-0.095585674,0.042686746,-0.010803169,-0.08468706,0.057354543,0.25161606,-0.21436548,-0.23207183,-0.063298754,0.045867782,0.29973218,0.34018773,-0.28824145,0.059319027,-0.123110764,-0.12682524,0.18919758,0.28019705,-0.03893929,0.3270411,-0.29205367,0.13532104,-0.03139808,-0.25461414,-0.30096942,0.27402917,0.12474874,0.06258469,-0.16716762,0.14904556,-0.36870715,-0.06427491,-0.29154432,-0.14930971,0.042736866,-0.0638234,0.051667415,0.310113,-0.07500598,0.37982884,0.24686594,-0.10046943,0.03572451,-0.02163025,2.302781E-4,-0.03126533,0.3195406,-0.41451484,0.16706917,-0.29560572,-0.14353645,0.3276293,-0.25153133,0.26179895,0.10515911,0.0067708325,-0.0037154886,0.087983474,0.21317594,-0.13411158,-0.2973444,0.20131384,-0.024226034,-0.25227842,0.10115308,-0.22012874,-0.19547588,0.39318928,-0.065662086,-0.33568963,-0.1429508,0.0039681713,0.12094633,0.19892085,-0.26608342,-0.21460207,-0.12004062,0.28543207,0.053680986,0.31002975,-0.09825294,0.015854008,-0.29041922,-0.19577147,0.44213858,0.26363724,-0.34267485,0.20454411,0.05141687,0.040629033,-0.05501162,-0.2171241,0.0681017,0.27949822,0.11042803,-0.096345484,-0.005060672,0.11991847,-0.08008441,-0.007982522,-0.073314734,0.4696555,0.121760726,-0.26484522,-0.2313852,0.11120629,0.011473658,-0.23941651,0.26955846,-0.21527682,0.23580006,0.08297801,-0.22931662,0.07129499,-0.14124653,-0.2939011,-0.19677849,0.428831,0.13018122,0.030368948,-0.014623715,-0.089245796,0.3174718,-0.22453924,-0.17246915,0.108405106,-0.24844746,0.23013997,0.25390935,0.26032588,-0.100983255,0.08727851,-0.13766587,-0.07625448,0.20798336,-0.07901802,-0.23451664,-0.26223037,-0.1729879,0.30294567,-0.07313406,-0.09723009,0.140659,0.21826126,-0.37622935,-0.13963033,0.30081925,0.3441964,-0.12900838,-0.35997292,-0.38927466,-0.37109238,0.18166529,0.19788119,-0.014940032,0.046129104,0.072335966,-0.019958988,0.010517155,0.17157629,-0.17703739,0.18695685,0.10534414,0.019218735,-0.021841062,-0.20955646,-0.0379872,-0.33024734,-0.20862782,-0.0020804105,0.31358966,0.20788617,0.2924409,-0.049047507,-0.3256176,-0.29014438,0.23718922,-0.3070151,0.13472049,-0.09716414,0.15993291,-0.2984717,0.3321223,0.26952347,-0.33363736,-0.042956915,0.25703424,0.089057826,-0.07026968,0.10105693,-0.22167586,0.3087148,0.30315685,-0.22734143,0.068999276,0.26318693,-0.053563986,0.31323138,-0.28119725,-0.23031968,0.2546024,-0.114148684,-0.04959995,-0.19971687,-0.23494036,0.12585042,0.091670364,0.23314308,-0.04654363,-0.08437231,-0.14726803,-0.073686026,-0.2506584,0.23238043,0.029011326,0.050074913,-0.09743629,-0.2622911,0.049528908,0.36223835,0.2437012,-0.2699388,-0.080281354,0.22585353,-0.13275152,0.22291651,0.12281968,-0.12606171,0.2640161,0.28106785,-0.20962839,-0.14678365,0.194985,-0.12479847,-0.25705585,0.17376503,0.024852766,-0.23080353,-0.2265,0.18861055,0.3085623,-0.20773527,0.13607383,0.29745823,-0.29562944,-0.3594122,-0.30472836,0.07417591,0.012490975,0.33018237,0.32211965,-0.012464033,0.30519903,-0.15629067,0.16426139,-0.36588565,0.02553051,0.17972085,0.26350662,-0.25585368,0.061138432,0.23015945,-0.22273044,-0.22349899,-0.11561013,0.09529344,0.28779548,0.06797361,-0.28629595,-0.18071872,-0.2780556,0.07625092,0.115488514,0.3012792,0.29342008,-0.28413984,-0.13288493,0.20259467,-0.095533654,-0.34893343,-0.16463144,-0.2625682,0.18745139,-0.035380144,0.06479066,0.21644838,-0.20154944,0.22591364,0.15091047,-0.023054468,-0.3748482,0.1380887,0.07431569,-0.1840495,-0.04392157,0.20139033,-0.17550234,0.047473192,-0.24025583,-0.17924598,0.22883248,0.25918844,-0.14732344,-0.0048654657,0.045920793,-0.40057635,0.19313924,0.10987123,0.2528328,0.023467084,-0.27236977,-0.07161348,-0.08574508,0.27207682,0.19974466,-0.20283157,0.19875318,0.16268504,-0.31148678,-0.2195136,-0.24149643,0.12893204,0.18203592,-0.27067003,0.38797638,0.25013807,-0.09135952,0.43025506,-0.18426558,0.028868373,0.085643336,0.23144782,0.14588991,-0.20128846,-0.25215527,-0.16657604,0.20533498,-0.001659951,-0.38061988,0.114930734,-0.27246976,0.15278307,-0.15909491,0.24704148,0.06627979,0.05333122,-0.11575423,0.2669472,-0.11140828,-0.17239352,0.12807356,0.3745276,-0.02191918,-0.2727171,0.18856853,-0.15400997,-0.010460034,-0.08846625,-0.22241578,0.25599286,-0.13204895,-0.18429837,0.25871018,0.13553226,-0.050836,-0.09866956,-0.20348775,-0.2948977,0.2900017,-0.26466128,0.18067051,0.06659924,0.3054275,-0.26093435,0.20017052,-0.17266935,0.05209181,-0.31632778,0.2584027,0.09171449,-0.025105063,0.29304427,-0.34381676,-0.1986151,0.20795019,-0.3640993,0.19814828,0.22732325,0.04549846,0.08949679,0.28600627,0.14604536,-0.03453274,0.040438,-0.37833905,0.2649161,-0.049980685,-0.29386348,-0.21178026,-0.18863861,0.3541486,0.30099994,-0.07162436,-0.19657262,-0.16214588,-0.11159821,-0.36349487,0.2312185,0.18529491,-0.38625976,0.26357907,0.21699597,0.24347927,0.18420811,-0.3019998,0.08964279,-0.07682677,0.23052242,-0.14927322,0.32912046,0.34670237,-0.0801698,-0.14927097,0.15041491,-0.17287003,0.114049,-0.111979514,-0.33392748,-0.03151743,0.028801093,0.050973453,-0.016264157,0.06310181,-0.0034452092,-0.13025759,-0.11433508,0.03875086,0.16764762,0.009668701,-0.059144467,0.0640568,-0.08407289,0.2092607,0.18974039,-0.1969568,-0.28079125,-0.032727968,-0.3491254,-0.17386368,-0.0969495,0.2072398,-0.067919515,0.27707162,-0.32525638,0.2924188,-0.12444321,-0.123992465,0.13945046,0.023133615,-0.18192917,0.26527774,-0.15176706,0.19594376,-0.031750694,0.2597157,-0.29581857,-0.20245105,0.23799409,-0.4749429,0.05094751,0.2157471,0.3316657,0.24351923,0.13578762,0.31643367,-0.16867495,-0.08754003,-0.18338646,0.030764464,0.006903945,-0.035759717,-0.08424327,0.25105348,-0.2725857,0.1843367,0.11729954,-0.26586917,-0.113698035,-0.02946939,0.09130954,0.15726678,0.04787078,-0.2077177,0.25263837,0.0849928,-0.38409665,0.24032788,0.09621002,-0.19641326,-0.19468872,0.0071252612,-0.084926054,-0.068032764,-0.18214016,0.30358732,0.010274199,-0.11288699,0.15231638,-0.2107567,0.32116494,-0.28994015,-0.11438155,0.030588986,0.3243571,0.0612035,-0.058912784,0.18442881,-0.036488947,0.06379924,0.32186192,-0.41727355,0.3875278,-0.19386134,0.15187576,-0.17571719,-0.2059737,-0.13028926,-0.1845549,0.153298,-0.28714234,0.05547193,0.19821107,0.14122386,-0.10963074,-0.1508473,0.034745704,0.18561813,0.070302464,0.34256095,-0.35250285,0.24941412,-0.117797494,-0.33615068,0.025458263,0.07951231,-0.23161747,0.31254333,-0.21785416,-0.13817362,0.40602276,-0.29018,0.23871875,-0.086771175,0.20381549,-0.32528457,0.2260207,0.12202315,0.09064382,-0.08876266,0.19930153,-0.19714215,-0.23391216,0.039448682,-6.2056E-4,0.096844085,-0.045417257,0.32255402,-0.18878388,-0.38383028,0.2602911,0.11137811,-0.25929895,0.32041118,-0.1677022,5.8587437E-4,-0.11398045,0.18486091,0.20704697,-0.38866723,0.13707405,-0.08747027,0.19465932,-0.25114757,0.076525636,0.08258974,0.24260415,-0.089376055,-0.31155866,0.012082088,0.15510309,0.34760842,-0.18676251,-0.21067798,-0.0017305494,0.2185872,-0.09571742,0.24961087,0.10552665,-0.24553089,0.40737092,0.1855857,-0.07227234,-0.20268969,0.20926607,-0.25527772,0.13338979,-0.2387256,-0.1273119,0.25116074,0.27012327,-0.09191976,-0.23735496,0.21066852,-0.2946186,-0.18703891,-0.19836393,0.22173496,0.21410377,0.02342889,-0.17453271,0.21666178,-0.21847425,0.33127722,0.04434836,-0.014738583,0.025606876,0.020949403,-0.09434284,0.048846565,0.28613478,0.3094034,-0.25405678,-0.26223546,-0.022606641,-0.21254522,0.01673838,-0.004738294,-0.28474376,0.045364227,-0.009858712,-0.2518585,0.06791016,0.12311081,0.18171816,0.24189721,-0.14534546,0.039466172,-0.23000194,-0.34675166,0.18543352,0.21584255,0.22387007,0.13436121,-0.17194548,-0.21801212,-0.0651617,0.20542565,-0.25983706,-0.30365753,-0.059531316,0.26857206,-0.001599025,0.12543447,3.3045866E-4,0.12542969,-0.40559092,0.10636587,-0.3032515,0.16368812,0.27287748,-0.27723283,0.08184204,0.29107758,0.02732327,0.31263912,0.2239011,-0.30780944,-0.12505811,-0.00806638,0.008076204,-0.05857176,0.062894635,0.056954205,0.06013343,0.096290514,-0.05987251,-0.077749066,0.26999345,-0.27075616,-0.08040378,0.2575934,0.05421615,-0.23591748,-0.128387,-0.23182867,0.27735773,-0.33637232,-0.025105564,0.30425233,-0.3392205,-0.08974833,-0.08071382,0.27095738,0.22372009,-0.26572207,0.0450735,0.054032303,0.17908028,0.16250572,-0.023560196,-0.25150198,-0.09195574,-0.07175015,-0.014494456,0.24400163,0.24902345,0.14202328,0.05140219,-0.17361851,-0.19988589,0.2709517,-0.3223564,-0.30092475,0.21266063,-0.29121277,0.13980502,-0.26664704,0.360974,0.20466778,-0.033080872,-0.21111122,-0.157998,0.2012101,-0.18876778,-0.20602134,-0.21925737,0.26719162,0.1404272,0.08433533,0.2665955,0.11677659,0.28204876,-0.19102801,0.21422568,-0.13310319,-0.036542248,0.14464423,0.09287466,-0.14985615,-0.23655999,-0.09017081,-0.24688357,-0.0529855,0.13034832,0.189116,0.24961366,-0.104591385,-0.052569028,-0.13061059,-0.029534051,-0.01636264,-0.08316241,0.043381024,-0.16996899,0.33651602,-0.13870728,-0.028811935,-0.17477159,-0.24874502,0.18084909,0.39465886,-0.15955324,0.10895899,-0.0634267,-0.048519522,-0.030487457,-0.14517434,0.048911057,0.083676875,-0.2674337,-0.029873552,0.0702295,-0.087368354,0.1923301,-0.19798163,0.27848205,-0.13162129,0.16261274,0.12393908,-0.04466596,0.060799766,0.16900799,-0.030013043,-0.083767235,-0.283047,-0.107831776,-0.2354672,0.11060414,0.06208948,0.056387793,0.23546667,-0.3659324,0.17880061,0.07376962,0.2289337,0.1174202,0.009417214,0.28776437,0.0717093,-0.30191964,-0.295347,-0.34814453,0.03217858,0.10484334,0.2681064,-0.21567102,0.21320447,-0.31642058,0.05935377,0.049649138,0.26674008,-0.21113834,-0.26291597,0.21342805,0.017746693,0.17302905,-0.12876594,-0.07564483,-0.27060246,0.22137374,-0.013749278,0.15392263,0.15260388,0.20788942,-0.037715174,-0.098663956,0.026453868,-0.30800155,0.17378402,0.08228009,-0.09695105,-0.18319952,-0.02697935,-0.10357281,-0.32125136,0.35163447,-0.007130523,0.023255873,-0.23111245,0.32310477,-0.32887304,-0.2012959,0.30646732,0.27802888,-0.092901416,0.108021125,0.25861484,-0.15836044,-0.19710054,0.09127427,0.3204451,0.062454786,0.22590977,-0.34455344,-0.236303,-0.12475754,-0.2817391,-0.24618487,0.38352892,-0.32084236,0.21409994,-0.24996857,0.08292038,-0.24221209,0.04937042,0.42413893,0.1999176,0.11548069,-0.02422999,-0.04616615,0.1679696,-0.35674858,0.27594405,0.39895165,0.16281565,-0.31069586,-0.0071001914,-0.31719112,0.1511272,-0.0340025,0.02976016,0.36936966,-0.03243467,-0.253495,-0.096585646,-0.19685052,-0.17798042,0.23263472,-0.15357329,0.14287357,-0.12731501,0.029150853,0.1771463,-0.047118578,0.37556124,-0.10122731,0.07923314,0.047959868,-0.12949799,0.10026606,0.097503245,-0.20668882,-0.14163478,-0.044288356,0.07209918,0.18418078,0.17681998,0.046105456,-0.3887783,-0.2764875,-0.048802618,-0.13961533,-0.22823137,0.29975992,0.2209462,0.13118723,-0.40020382,0.005425032,0.10361128,-0.27072164,-0.18365943,-0.08210029,0.22509012,0.21580808,-0.032312363,-0.19467713,0.08018768,0.31086272,0.29744753,-0.1797195,-0.07298005,-0.36604676,-0.21563347,-0.2360231,0.37333298,0.12450628,-0.06558537,0.057135414,0.20938072,-0.19514471,0.0032060568,0.20326127,-0.008198405,0.007322483,0.27530697,-0.03688859,0.15356767,0.11353833,-0.02068053,0.12982051,-0.26822823,-0.023831887,0.12434885,0.1621791,-0.36830905,-0.08289719,0.26485094,0.14231929,0.3723181,-0.25949374,-0.08300706,-0.26737157,-0.29844496,0.28095508,-0.05690707,0.07450044,0.030461371,-0.01753537,-0.07947214,0.29864702,0.04276844,0.01142736,0.09550945,-0.08476104,-0.22469729,-0.16682301,-0.09252172,0.26711532,-0.29341328,0.28718284,0.0959012,-0.03262551,0.12987033,0.20996435,-0.33465612,-0.07269504,0.06481705,-0.06115158,-0.14076793,-0.16782136,-0.25556886,-0.08280914,-0.31838527,0.047326963,0.117148586,-0.30923718,-0.091364995,0.025127877,0.19436155,0.16503823,0.25700757,0.09506683,-0.15994911,0.24620421,0.19971485,0.023775825,0.21173099,0.33457682,0.06159677,-0.2654765,-0.13123387,-0.2844132,0.002136183,0.13997766,-0.26355323,0.03744491,0.26671797,0.05256463,-0.3131831,0.27725634,-0.081583306,0.08787903,-0.33731303,0.20473091,-0.057144105,0.26535058,-0.070720516,-0.117571704,-0.22137153,0.25570673,-0.15492049,0.052988697,0.28033215,-0.42850268,0.35899284,-0.0968436,0.3472025,0.3778281,0.08820107,0.011897105,-0.39458197,0.18729168,0.05709379,0.24879968,-0.250092,0.15300785,0.18295398,-0.29571626,-0.040622074,-0.10387202,0.112283275,0.19581084,-0.043882694,-0.23426723,-0.33063784,-0.025154168,-0.3152687,-0.20716774,0.078805216,-0.22628576,0.0039493907,-0.3334708,-0.21577552,0.35407737,0.013574105,-0.21179223,0.078034334,0.23133695,-9.862623E-4,0.04065465,0.35605058,0.13246432,-0.13395223,-0.13107319,0.26776317,0.3921038,-0.3743419,0.17823775,-0.1743013,-0.06810648,0.030735498,0.29841807,0.020545922,0.17433216,0.20276627,-0.39793283,-0.08476624,-0.03527539,0.31698945,-0.01970602,0.28451097,-0.24663891,0.039011676,0.14536689,-0.14093067,-0.05453808,-0.11724754,-0.04206888,-0.3197281,-0.16828014,-0.14090377,0.30087805,0.045018937,0.27523905,-0.22536187,-0.24498041,0.2444114,-0.23329374,-0.27110907,-0.08420949,0.37063953,0.1895975,0.08298207,0.385916,-0.3272673,0.068144485,-0.17773224,0.18702433,-0.33155435,-0.11078314,-0.21934232,-0.009536705,-0.16030113,0.083190225,0.34948412,-0.13558878,-1.742695E-4,-0.20375834,0.3251907,0.095616676,0.29527357,0.30385467,0.20847186,0.17580655,8.013124E-4,0.017467085,-0.3825864,0.07717176,0.13725291,-0.14156273,0.19219266,-0.24154493,-0.24317802,0.09294814,-0.11978278,0.23503308,-0.2964354,0.26482302,0.0068006436,-0.373418,0.37002784,-0.14244367,-0.053850833,-0.030388484,-0.1930395,0.3416666,-0.38106272,-0.035990145,0.18164714,0.19503823,-0.45950192,0.20764647,-0.03355421,-0.33176506,0.4254894,-0.23865318,0.2832966,0.18568105,0.017685492,0.19116369,0.091342,-0.29047188,0.24730253,0.12810558,-0.26293853,0.12194981,-0.029786484,0.036651775,-0.18020429,-0.28049034,0.27058288,-0.38759837,0.38847393,0.11222606,0.26171416,0.111325935,0.25493705,0.2930302,-0.1330017,0.3386699,0.22662611,0.17071408,-0.021341285,0.042817257,-0.3184062,-0.23760575,0.17582472,-0.14456931,0.1480765,-0.09805463,-0.092879236,-0.16601133,-0.24746947,-0.41026837,-0.05735017,-0.26191947,0.24823818,0.18638462,-0.09307628,-0.1961578,0.059173074,0.3347988,0.10682403,-0.3725549,0.4016642,-0.16296646,-0.08588205,-0.21768296,-0.23822851,0.2653552,0.07280786,-0.10032998,0.111165956,0.048101027,0.039171375,-0.26339403,-0.11572924,0.15897006,-0.18617775,0.22004496,0.15820873,-0.08862017,0.33172667,0.12926342,0.29752243,-0.18716238,0.42373464,-0.13493437,0.27729207,-0.10743885,-0.35785198,0.30414635,-0.19150147,-0.3817408,-0.26979488,-0.21355589,0.045530528,0.31392622,-0.27042046,0.23735115,-0.3615417,0.32289413,-0.31039867,-0.04718148,0.15670303,0.16447614,-0.21952988,0.01782082,0.0029166744,-0.0590396,-0.0667181,0.30829224,-0.3264403,0.17531684,-0.13366969,-0.037471075,0.11447067,0.019893466,0.2787103,-0.2702803,0.23701078,0.15499306,-0.3205553,0.13779734,0.15195565,0.0045337034,0.05837592,-0.26418647,-0.17487034,0.1317752,-0.40439442,-0.066975735,0.21906614,0.31227568,0.16313882,-0.21102376,0.11615846,-0.263019,-0.060235787,0.09807973,-0.377772,-0.035629187,-0.12061752,-0.039054736,0.27242678,-0.05455584,-0.018339653,-0.17030914,-0.2345886,0.19327892,0.37246156,0.31714675,-0.16355163,-0.030159581,0.043484725,0.08941417,0.0021382018,-0.09320161,0.054535247,0.10710863,-0.26419297,-0.10106345,-0.12354318,-0.16061912,0.04345948,0.117400765,-0.14007865,0.029895669,0.2143627,-0.23716824,-0.17534319,-0.18418196,0.20142008,-0.076509155,0.059735242,0.2907335,0.40135935,-0.1956527,-0.079601094,0.04156815,-0.16427019,-0.24421713,-0.31666034,-0.02577785,0.25775573,0.07236078,0.24239784,-0.19170657,0.3431655,-0.31019098,-0.2495441,-0.052841924,0.06944701,0.011940478,0.13405034,0.1820292,0.13670865,-0.16728978,-0.051055133,0.049848005,0.32889292,0.08300669,-0.045407802,-0.067360185,-0.1761735,-0.20017634,-0.25975704,-0.14554453,0.11155511,-0.07189798,-0.20933014,-0.18968828,0.34675416,-0.13671434,-0.3541245,0.31730157,0.2575725,0.32798132,0.017020265,-0.13845722,0.017478744,0.033592556,-0.12828569,0.092326015,0.10142499,-0.33805096,0.3638109,-0.10267163,0.091647334,-0.05089245,-0.15493713,0.0648006,-0.06706362,-0.17152214,-0.12378597,-0.09521847,0.38584533,-0.27673787,0.15594281,-0.23136368,-0.12730779,-0.023802824,0.16181797,0.1332498,-0.43286553,0.24897641,0.21555942,0.022376815,0.10527781,0.043197438,0.048815064,0.054915685,-0.148307,-0.091223866,0.2058005,-0.29518113,-0.013596037,0.004169326,0.028327264,-0.047202684,-0.29677573,0.10531613,-0.006761346,0.14270155,-0.2728756,0.090257995,-0.24850984,0.20470533,0.008032142,0.1792715,0.24284929,-0.3323553,0.28813222,0.10448528,-0.114185624,0.34284678,0.009273497,0.0038961992,-0.31871873,0.01976763,-0.22476809,3.8330146E-4,-0.024934812,0.19664998,0.13082011,0.33228907,-0.07194146,0.053906117,0.08976216,-0.093127094,0.22966817,0.0024449336,0.19595143,0.03337528,-0.1907458,-0.17232406,-0.09290351,0.09607176,-0.03522469,-0.13684873,-0.15918571,-0.115726344,0.20746285,0.2969337,-0.36111265,0.33137634,-0.22362266,0.3155136,-0.27496395,-0.3325908,-0.26561758,-0.25595108,-0.14180554,-0.14965805,0.2691065,0.15465909,0.26542294,0.25941965,-0.21865782,-0.18923287,0.30673122,-0.124761626,0.17158288,-0.21704803,-0.14032918,0.17486833,0.0016958631,0.13287696,0.33157033,-0.27823836,-0.076319076,0.081779875,-0.084502496,-0.5023368,0.24594028,-0.11413173,-0.15739761,0.12943833,0.23127475,0.06015401,0.08205286,-0.21192685,0.32132912,0.18175276,-0.19076051,0.27068594,0.009600422,0.2427986,-0.020151105,-0.2266208,0.18813965,-0.10962402,0.06546626,0.068316005,-0.45398358,0.089590885,0.21965525,-0.14395201,-0.22396155,0.31921735,-0.14909284,-0.0665861,-0.04695311,0.32486606,-0.33171958,0.37227938,-0.40797484,0.097260006,0.25691208,-0.24822983,0.05413362,0.030273499,1.0198561E-4,0.08369116,-0.3275488,0.21283607,0.02404984,-0.3265351,-0.023576003,0.2622154,0.23822185,-0.21871428,-0.06652468,0.23993039,0.26886073,0.016556134,-0.29969785,0.05933604,-0.06198064,-0.14568222,-0.07146718,0.20343141,0.086620666,-0.21943015,-0.12001701,0.2922332,0.2121987,-0.09121893,-0.2863876,0.22591765,0.27284405,-0.23578206,-0.22204171,0.11127754,-0.11679642,0.21406646,-0.32872677,-0.22729953,0.31055653,-0.18316638,-0.32156828,-0.19389118,0.31971496,0.20448723,-0.010419794,0.08630579,0.25206518,-0.14442034,-0.29061383,-0.052724745,0.124676384,0.06330782,-0.054945122,0.19465917,-0.07289995,-0.04604184,0.14495046,0.18487707,-0.28813437,0.07120241,0.028277928,0.124961436,-0.24716294,0.1909881,-0.07096681,-0.23705612,0.20191106,-0.12123201,0.17628752,0.430876,0.07754857,-0.3741728,0.102382146,-0.3129581,0.291822,0.053022422,-0.018834973,-0.020281427,0.21154821,0.21648337,0.08199701,-0.2815111,-0.2222173,0.24763088,-0.34682605,0.38780302,-0.17643556,0.18040103,0.409483,-0.095940314,0.14958616,0.13016583,-0.25432998,0.15233642,-0.25853482,-0.34195593,0.29376838,-0.07721624,0.38087422,-0.36920804,-0.17497134,-0.11393298,0.1353897,0.011568893,-0.20889373,-0.059363917,-0.1644112,-0.1454626,0.33062786,0.056527324,0.4679514,-0.3064665,0.14626716,-0.013900201,-0.0677916,-0.23489067,-0.094434775,-0.26079524,0.24350502,-0.015840035,-0.27140886,0.41082525,0.053288825,-0.24879616,0.434083,-0.28399283,0.008892208,-0.2080184,0.27202353,-0.2504742,0.24560624,-0.31160387,0.29412812,0.065039426,-0.076313384,0.09242133,-0.33085716,0.010817739,0.3980314,-0.37200966,0.027296014,0.3390732,-0.04702832,0.045420725,0.09413642,0.087476246,-0.10038774,-0.21384034,0.20736858,0.109197564,0.31902295,0.15098025,0.06558888,-0.21523434,0.15089285,0.13671234,0.13816728,-0.4579613,-0.12587894,-0.3099767,-0.36395338,-0.14217494,-0.094036445,0.3538701,0.05537238,0.14213684,-0.19345331,-0.014534146,0.14253455,-0.15798743,-0.022199715,0.38245463,-0.33452034,-0.19417745,0.31355312,-0.14287296,-0.37954813,0.0649935,0.20553295,-0.009844496,-0.086328566,0.014010274,-0.027624039,0.191232,0.23363122,-0.0441142,0.06317295,0.1665054,-0.06180497,-0.0062217643,0.055243935,0.19261895,-0.11533834,0.06532432,-0.12943277,0.28261364,-0.20656823,0.098720804,-0.36485198,0.1016173,-0.3713069,0.10274236,0.29651293,-0.110936396,-0.013820715,-0.2302481,0.0548858,0.017675444,0.1958798,0.075546116,0.26517302,0.17947488,-0.18998733,-0.05281473,-0.14610596,-0.0800054,0.105970345,-0.27810296,-0.23488368,0.27656418,0.19755869,-0.118805155,-0.16227092,-0.23760758,-0.18352273,-0.26114967,0.29134578,0.12201658,0.30826008,0.3652268,-0.34704423,0.25305885,-0.11819551,-0.31001753,0.33654112,-0.12197306,-0.031669483,-0.12359697,0.09086611,-0.17061085,0.508008,-0.16151363,-0.15466174,0.09404253,0.20044303,-0.21592179,0.37855798,-0.20024955,-0.031918954,-0.08527615,0.14196868,-0.13733937,-0.22551037,-0.15835433,0.35082263,-0.25497,0.20404309,0.033668775,0.15079594,-0.15287074,-0.029440328,-0.30988878,0.29257527,-0.29123375,-0.014676421,0.22993511,-0.22693522,0.16555323,0.11870982,0.24062619,-0.32489622,-0.10746216,0.23142366,0.29283747,0.008852523,-0.1065952,0.17668791,-0.41989982,0.07359789,0.19281055,-0.29997155,-0.16152956,0.12999101,-0.018314017,0.1803767,0.30232853,-0.027108075,-0.019730568,-0.18886578,-0.41648757,0.045703568,0.14906812,-0.11889957,0.014689326,0.08195697,-0.29631048,0.006804246,-0.1497739,0.06714155,0.047039904,0.06512173,-0.0495416,0.30742368,-0.23127247,-0.13399935,-0.019488947,-0.23759098,0.31840175,0.29231513,0.09558242,-0.11119645,-0.11816247,0.09547731,-0.19813411,0.29316452,-0.06245569,-0.071346804,0.22002141,0.12643677,-0.012018483,-0.22315481,0.33526394,-0.21627866,0.038691077,-0.089953765,0.07670115,-0.23373257,-0.21637192,0.2383507,-0.07411648,0.27769274,0.29383898,-0.20526323,-0.06474965,-0.13139997,-0.24136119,-0.013667394,0.22908914,-0.20842601,-0.18306932,0.043285184,0.2209578,-0.2777175,0.034913212,0.02788533,-0.20905368,0.12641874,0.074655384,0.15686633,0.31417906,0.20900275,0.03339676,-0.059402198,-0.06668703,0.21727477,-0.13459411,-0.18358178,0.33892635,-0.32956225,-0.088044174,0.21629448,-0.23902383,0.32789704,0.15021697,-0.16095303,-0.104211226,0.011380426,-0.10456492,0.16218966,-0.04659821,0.09443939,0.3900176,-0.2657656,-0.039136983,0.23443486,-0.2653909,-0.2536742,-0.26501518,0.21348539,-0.20662183,0.15566246,0.0073825163,-0.0954671,0.042210184,0.094873644,-0.36961895,-0.04549464,0.35587552,0.12266691,0.23641266,0.12490444,0.15854599,-0.330953,-0.23806714,0.071203,-0.05875702,0.1937413,0.10762576,-0.19373113,-0.030833457,-0.19194058,0.07860078,-0.11790365,-0.025325751,0.12866646,0.01548858,-0.035653267,-0.21373914,-0.059303943,0.33069685,0.19839147,-0.15146723,0.32998857,-0.07943466,-0.030407188,-0.09105962,-0.029766014,0.3585984,-0.30388048,-0.1718103,0.34779996,-0.17508471,0.015528818,-0.025801394,0.2165044,-0.36961475,0.2650176,0.006588528,-0.151887,-0.0010842753,0.30722106,-0.12764893,-0.09836737,0.01877849,-0.16241962,0.2790727,0.021571688,0.17976914,-0.18905291,-0.30443236,-0.21824762,-0.2744692,0.3600114,0.044066582,-0.03082742,-0.023973629,0.17160848,-0.1517359,0.35651004,-0.30117232,-0.11977705,-0.20023698,0.18598893,-0.1589843,0.1969261,-0.06780372,0.13683383,-0.23902176,0.2650423,0.06765199,-0.1811427,0.26020667,-0.40094754,0.35625926,0.06511366,-0.047201637,0.15418386,0.09638133,-0.32668477,0.033712436,0.38593057,-0.20464619,-0.0599889,-0.11261557,0.06076473,0.016943282,0.3314588,-0.027383408,0.028005922,-0.17828088,-0.40321797,-0.23441239,0.31164145,0.33252805,-0.1951803,0.13219248,0.3402202,-0.084938414,-0.26670337,0.06476187,-0.060758576,-0.0160014,0.1305917,-0.21418762,0.31291717,0.008378482,-0.14848185,-0.33864212,0.029076137,0.24458563,0.15736969,0.28804362,-0.29199275,-0.20516549,0.23684424,-0.060982812,0.34056264,-0.09742292,-0.3111223,-0.13021812,-0.17547742,0.10479627,0.19538936,-0.16499034,0.3303608,-0.12234176,-0.27049997,-0.24958713,-0.12064777,0.20551689,0.19217485,-0.021743586,0.24682026,0.31313637,-0.16683418,-0.30122313,-0.08974899,0.13380785,0.004833102,0.16388232,-0.085345246,0.01378439,-0.18230993,0.3983168,-0.254603,0.138353,-0.30415195,-0.38888118,0.0741659,0.26126713,0.2325244,-0.356813,0.28801987,-0.05981165,-0.1710797,0.33145508,0.37751994,-0.3274805,-0.2630127,0.16117296,0.27606246,-0.29014233,0.15824132,0.28242642,-0.047933023,-0.40130925,0.43375936,-0.29000747,-0.324043,0.20940952,0.34107396,0.040554754,0.0025226166,0.018739007,-0.4120747,-0.22789976,0.3164448,0.17485273,-0.066374,0.21483138,-0.32870814,-0.3511701,-0.2679429,-0.1521853,0.13306679,-0.026527282,-0.24128923,-0.089660116,0.32252055,-0.095176116,0.12937012,0.067246735,0.1282499,-0.030795984,0.2299675,-0.14042778,0.33420917,-0.024501074,-0.0628057,-0.1376229,0.13690592,0.19703199,0.13199377,-0.065326825,-0.3320894,0.1307471,0.019635668,0.15225701,0.1275647,-0.17983733,0.07758665,-0.15606542,-0.1608866,-0.35514653,0.1284471,-0.18802531,-0.05643455,0.14252737,0.14992917,0.1840452,0.06877678,-0.2503478,0.33745775,0.23487295,0.10346045,-0.36627436,-0.23030543,0.28296122,0.15028651,-0.3508061,-0.03834671,-0.39830884,-0.15720049,0.1555346,0.12153684,0.124207795,0.14314446,0.22510871,0.25449365,-0.23683609,-0.21008103,0.28945082,0.28086203,-0.33908373,-0.06705577,-0.4087905,-0.002250936,0.024402605,0.088905156,0.12530227,-0.0083681885,0.17142324,0.11702969,-0.46000877,0.2675502,0.07891141,-0.27621514,-0.008342448,0.08121388,-0.3528435,-0.3473682,0.27508923,-0.35340074,0.27150518,0.12962945,0.19731101,0.20437449,-0.13542469,0.0565198,0.16842166,-0.07652808,-0.13185152,0.14528571,-0.04392503,-0.0102734715,-0.111851655,-0.2854454,-0.1597513,-0.12016303,-0.08786302,-0.059230294,0.11777841,-0.04594235,0.14382027,0.14303868,-0.32828757,0.22493066,0.2928849,-0.3413234,0.15254752,0.21329279,0.041160446,0.11464686,0.22067057,-0.21122603,-0.19556871,0.088227846,-0.2431135,0.34762844,-0.008810049,0.015871735,-0.018603748,0.3130048,-0.03396829,0.026352445,-0.1629178,-0.29974258,-0.06142767,0.016126143,0.0708497,0.25954345,0.251813,-0.30212235,-0.13137653,-0.059222165,0.05006093,-0.28415978,-0.06424807,0.14689629,0.21620041,0.08864737,0.14250466,0.24173759,9.450626E-4,0.072423,0.10219373,-0.088614896,-0.1438105,0.16158761,0.22017059,-0.1469847,0.13238515,-0.06880402,-0.06499112,-0.06670016,-0.15944089,0.29664287,-0.022966227,-0.10163807,-0.27960223,0.0061932695,-0.036643766,0.05393076,-0.12578015,-0.076766305,-0.020124963,-0.2160561,0.22918673,0.019475628,0.040444314,0.07353528,0.2505377,-0.09300719,0.2089012,0.05214849,0.21678114,-0.1406917,0.29664323,-0.23792705,-0.21514,0.17172848,-0.22874767,0.08494427,0.036935918,0.13390736,-0.10180085,-0.20981346,0.17135619,-0.34289753,-0.029057158,0.07534352,0.43245152,-0.17998023,-0.23526402,0.3589833,0.33857682,-0.3246472,0.17534478,-0.33748555,-0.1811646,-0.09945869,-0.3170153,-0.2073222,0.18440543,0.2566832,0.36025032,-0.1473577,-0.089078516,0.19979535,-0.2814587,0.028268235,-0.17609262,0.050381176,-0.1897158,0.27576834,-0.312843,-0.2279729,-0.32945475,0.06253876,-0.07756284,0.25811076,0.0063084285,-0.35185823,0.28728524,0.15016524,-0.3288667,-0.07991769,-0.107339896,-0.15276176,0.096717626,-0.033033457,0.32602695,0.15026075,-0.23817426,0.36671716,0.12847926,0.23693907,0.06418668,0.045782175,-0.15924335,0.11066639,0.108315274,-0.19701977,0.16574158,0.22457886,0.24444786,-0.30439082,0.18080461,-0.3039754,-0.3614781,-0.20215988,0.16576287,0.30815494,-0.32259905,0.28679925,-0.20841938,-0.2053935,0.30135712,-0.19248803,-0.019964414,0.15896122,-0.22157419,0.38182184,-0.30969098,0.28141758,0.057874575,0.3226783,0.024846606,-0.009230637,-0.17980152,-0.18269493,0.3331549,-0.062432475,0.095962346,0.19491366,-0.21649373,-0.09790252,0.06573823,0.2664902,0.07499826,-0.25981143,-0.296536,-0.3330093,0.1811696,-0.24089757,0.15889904,0.04068445,0.3039652,-0.20788528,0.07914408,-0.05315908,0.52680117,-0.2488688,-0.27737507,0.09261805,0.16117188,0.20826538,0.1945138,0.28039607,-0.27885547,-0.12249147,-0.009873059,0.14790863,-0.17865424,0.10842728,0.16000544,0.085922524,-0.1654254,-0.30336916,-0.012446811,-0.108366095,-0.22605753,-0.22687678,0.10021063,0.26647967,-0.15428603,-0.1707062,-0.39208993,-0.16139169,0.32941738,-0.036338944,-0.0014992063,-0.17054255,-0.41069224,0.18604009,0.39175472,0.025780166,0.30654874,0.25149828,-0.23692104,0.22663853,-0.3391816,0.17967454,0.11998801,0.20265315,-0.006160215,0.16374162,-0.33242714,-0.18968478,0.07032429,0.13855588,-0.0521558,0.008550303,-0.23662508,0.40128607,0.019884123,0.21236077,-0.44363242,0.1919685,-0.22335863,0.18648265,-0.27829835,0.007416678,0.023624092,-0.017819306,0.2216321,0.36370346,-0.22961189,0.14958209,-0.23385094,-0.33351249,0.23533814,-0.020122098,0.08476622,-0.21365365,0.04472057,-0.39851233,-0.0056763105,-0.17488447,0.15381394,-0.16517518,-0.2219064,-0.05368613,-0.043095745,-0.036183134,0.31572503,-0.17157914,0.3218207,0.22048017,-0.25976533,0.2534376,0.088465266,0.048220687,-0.08665641,0.3006943,-0.1054055,-0.17166975,0.20439182,-0.06688283,-0.16657807,0.052425753,0.070063695,-0.13925216,-0.16979897,0.13744318,0.03096537,-0.21187839,0.26782644,0.107618086,0.0503132,0.2045862,-0.16553566,-0.3481179,0.10695903,0.1741763,0.29845035,-0.17662527,0.19373637,0.042445067,0.25347996,-0.14082524,-0.29515716,-0.2858026,-0.048893306,0.09999701,-0.0066268537,0.13489547,0.07064857,-0.1420317,0.294021,0.15956497,0.37996265,-0.20722994,-0.15284401,-0.089452714,0.25210124,0.26546708,-0.21726607,-0.14987607,-2.5247553E-4,-0.31618607,-0.17666607,-0.16046183,0.15923706,-0.293518,0.09631341,0.16669092,0.152111,-0.34043851,0.20298359,-0.052923486,-0.19183482,0.27055863,-0.15539974,0.16063105,-0.37210438,-0.07675271,-0.03474325,0.33831316,0.3192366,0.1138761,-0.3328359,0.262316,-0.07178601,0.1699337,-0.09527504,-0.23476444,-0.37280256,0.25659126,0.07557605,0.1317379,0.0013642957,0.0055316677,-0.010911736,-0.08911064,0.27115712,0.23945062,0.028463572,0.12928951,-0.26805595,0.13340838,0.11291215,0.0068682055,-0.3816202,0.38497,-0.32854766,7.942732E-4,-0.097875886,-0.21753572,-0.24761677,-0.35771993,-0.05984417,0.11672004,0.22949584,0.22907047,0.22308579,-0.22488776,-0.06566422,-0.028524095,0.27389967,-0.33279902,0.043794073,0.42325598,-0.0070436453,-0.14052118,-0.21109931,0.38663992,0.16358113,-0.14844994,-0.31490082,0.24032737,-0.03974863,0.058441583,-0.37426662,-0.012485655,0.25714996,-0.14655663,0.19947396,-0.1728708,-0.11675415,0.24637625,0.05342694,0.072825424,-0.06446184,-0.017944816,0.008185199,-0.35190576,-0.18827344,-0.2009812,-0.26639783,0.29540658,-0.0036738964,0.18887226,-0.32132724,0.12647837,0.19344313,0.034868833,0.12828745,-0.2289749,-0.18627053,0.3298845,0.3337642,-0.1073769,-0.14666957,0.036686957,-0.19766039,-0.08181897,0.15016998,0.26647767,-0.03031813,-0.12633052,0.037286445,0.36331922,0.14200194,-0.33854288,0.31319842,0.06629094,-0.25381666,-0.23708615,0.018471334,0.2518334,0.26954693,0.052575417,-0.49344987,0.08498733,0.05424039,-0.16671468,0.16001485,0.06675921,-0.23726939,0.25628436,0.22166665,-0.33178213,0.27619037,-0.24198079,0.13663074,0.32586658,-0.0061400575,0.14858182,0.05119546,-0.16484362,0.0502689,-0.25342083,0.095300935,-0.36530158,0.102105014,0.10202331,-0.2827125,-0.051046997,0.01988628,-0.21299164,0.25906286,-0.02830275,-0.17993304,-0.18438326,-0.20422119,0.22973946,0.2461266,0.25527856,-0.103727296,-0.17423849,-0.049777452,-0.20620187,-0.14915068,-0.19493568,0.17368434,-0.20189172,0.3832278,-0.33540887,0.39643255,0.26129007,0.09118976,-0.10847241,-0.06274461,0.31005427,-0.18302988,-0.015974605,-0.21224236,-0.15528639,0.24728353,0.33029187,-0.015498853,-0.20859222,0.2845818,-0.2947418,0.3484769,0.06544236,0.4304162,-0.2193839,0.24919121,-0.3804714,-0.18858153,0.16147828,-0.056375146,-0.012674033,0.056326617,0.10906497,0.32404798,-0.328271,0.38947964,-0.36258343,-0.13844506,-0.3002345,0.313457,0.074844055,0.14519516,-0.17119165,-0.25119412,-0.37665114,0.24337088,0.17293197,-0.33646226,-0.13134654,-0.3127836,0.100632586,0.26187348,0.055076454,-0.11390031,-0.054328524,-0.32189867,-0.13172229,0.0743461,0.21573687,0.0051218364,-0.2090929,-0.24860978,0.040091008,0.1259821,0.05369487,0.13624223,0.2681653,-0.27879193,0.28105357,0.14688398,-0.030934792,0.20368004,-0.21187182,-0.2258717,-0.1742471,0.18735369,-0.24317993,-0.21419448,0.15460177,0.14003174,0.075369306,0.244927,0.05895802,-0.41064167,0.22341399,0.034144096,-0.29933232,-0.20776303,0.2524997,-0.14350495,0.13696374,0.03910359,0.22047146,0.2446867,-0.1896382,0.0355646,-0.2821129,0.2079017,-0.22379209,0.32416478,-0.2580769,-0.06595643,-0.119656816,-0.2576724,0.17961958,0.22861432,0.012930977,0.34736285,-0.26059046,-0.27246866,0.31419402,0.26040897,-0.17194776,-0.17514972,0.26490757,-0.0013802663,-0.32648668,0.047916066,-0.031178001,0.10486605,0.13925257,0.16146979,0.2164218,-0.440453,-0.42673588,0.39982176,-0.375614,0.024646828,-0.2727511,0.3176385,-0.08967249,0.0349577,-0.16897699,-0.1333443,0.038673826,0.06405107,0.01207703,0.3082349,-0.25847802,0.15296164,-0.014038042,0.4028293,-0.13721171,0.24202278,0.1184181,-0.2410675,-0.13246155,0.124895416,0.30746797,-0.3233153,0.3005881,-0.026763596,-0.20132348,0.2685533,-0.25191477,0.28481373,-0.17668635,-0.28030255,0.0020162899,0.09932582,0.044294175,-0.107496835,-0.31469357,0.17543744,0.06920559,-0.035219654,0.112898976,0.029880598,-0.119091555,-0.16048867,0.35038117,0.015593729,0.061966076,0.33475375,-0.23399009,-0.35262063,0.18100204,0.13468109,-0.16167194,0.1146783,0.079809114,-0.31369466,0.051038623,-0.25912705,0.1564173,0.062824436,0.12172603,0.01827647,0.24053721,0.084376305,-0.18276846,-0.14476882,0.061653305,0.33705175,-0.25370747,-0.111301675,0.23462574,0.022693794,-0.08775551,0.33510402,-0.058104873,-0.42697418,0.065208204,0.19593088,0.2588487,0.04904068,0.017221909,0.1331739,-0.3633601,0.31256813,0.15028153,0.07509058,-0.04267195,0.13866432,-0.30679268,-0.103645876,-0.06626805,-0.0025410107,-0.22886753,0.29607287,-0.37041146,-0.025118392,-0.17812361,0.091382414,-0.058096,-0.08806158,-0.09283857,-0.10491315,-0.278714,0.16454308,-0.16599976,-0.10471853,-0.18961483,0.36159816,0.29718235,-0.24042138,0.18409812,0.27448997,0.31133842,-0.26257205,-0.07127623,-0.12408442,0.09811159,0.10693429,-0.016196763,0.1122394,-0.015192451,0.2768101,-0.07425712,-0.21742159,-0.4199537,0.18610477,-0.23769887,-0.109379046,9.2822255E-4,0.18626244,0.013318892,-0.34803692,0.080923855,0.123467326,0.008327107,0.21057819,0.17899014,0.16573079,-0.0011714384,0.121820614,-0.1844152,-0.13017066,-0.07040493,0.17019215,-0.010950761,0.26665452,-0.14541839,-0.28780407,-0.28322574,0.32019788,-0.19014466,0.29201937,0.08134803,-0.035660837,-0.10001641,0.0013091242,0.30374333,-0.19882734,-0.10904639,-0.030150943,0.013186977,0.11904364,-0.121821694,-0.022854798,0.19186042,-0.2677147,0.37672773,0.03766658,-0.2418213,-0.005174424,-0.23906642,-0.21891434,0.2377795,0.19703777,-0.03201606,0.13206704,0.42087975,0.06409644,-0.19244614,-0.16146125,0.0011779662,-0.20724723,-0.18467046,0.043372106,0.27588767,0.38074225,-0.20263925,-0.036775336,-0.18878338,-0.082322225,-0.008686026,0.012210618,-0.13735715,-0.003539784,0.06705603,-0.22002093,-0.020018455,-0.083392754,-0.1652623,-0.096745186,0.32454628,0.22644101,-0.09839953,-0.043909557,0.19865231,0.18111454,0.13098714,0.06582377,0.10182719,-0.21881446,0.03179511,0.0063714846,0.04820127,-0.033903625,0.1080909,-0.20824602,-0.17558235,-0.41828898,0.27397507,0.12077551,-0.18701802,0.26030385,-0.061439976,0.205354,0.13369174,0.057580765,-0.21425478,0.2697825,0.20125392,-0.09236383,-0.27694833,-0.25097796,0.04610629,0.14397076,-0.09757212,0.16283065,0.00677322,0.16608112,-0.2805839,-0.032520987,0.23164763,-0.33661124,-0.19840571,0.11138935,0.11174569,-0.12086437,0.13039055,0.092675075,-0.17298953,-0.16423723,-0.08390107,0.053098988,0.2694363,-0.33885488,0.162525,0.27358493,-0.1562011,-0.2618357,-0.19796038,-0.049225852,-0.21103837,0.01596469,0.25930756,0.21563703,-0.08196979,0.013633235,0.2753082,0.10908584,-0.39763752,0.21681231,-0.05636613,-0.07228884,0.29281133,0.047012508,-0.23949242,0.18498233,0.086748704,0.30075836,-0.11630388,-0.05321707,-0.37685668,0.29995123,-0.14796793,0.27203667,-0.14877231,-0.06170806,-0.15071274,-0.05432808,0.27987823,-0.21313371,0.16722852,-0.097762644,-0.25413305,0.17985633,0.058113247,-0.17291325,-0.08236807,0.15344466,0.28482738,0.07268169,0.04359384,-0.024266655,0.006235907,0.15462449,-0.25494078,-0.22581431,-0.052384563,0.22640522,0.31921992,-0.20485874,-0.4493288,0.3070571,-0.29642767,0.079809435,0.28050247,-0.15724179,-0.0088481335,0.23044318,-0.060894325,-0.13649641,0.21902977,-0.20209782,-0.1883099,0.30156276,-0.33523896,-0.22113858,-0.13456321,-0.010221895,0.034010477,0.23420805,0.19562702,-0.032530338,-0.19315471,-0.16812909,-0.13383505,0.09800149,0.339197,-0.30670765,0.26254228,-0.11732864,0.25415313,-0.029954437,0.27304628,-0.10593462,-0.18968597,0.26359943,-0.079817556,0.013741757,0.1851153,-0.25908715,-0.27252284,-0.14852035,0.09646514,-0.15796988,-0.29396528,-0.041591138,0.1400064,0.14168149,0.046175208,0.21117067,0.05698805,-0.003238342,0.040476415,0.014947598,-0.09009808,-0.11865106,0.18111035,0.20493588,0.121521056,-0.24887325,-0.034941945,0.025432447,-0.31545758,0.29957888,-0.026172508,0.4061255,0.011314382,-0.14090589,0.04215579,-0.16075799,-0.25926307,-0.21923044,-0.19191603,0.09338265,0.2829369,0.18496688,-0.056874536,0.05761365,-0.24882169,-0.19821784,0.0036505596,0.21066648,-0.22694246,0.38123035,0.06865205,-0.121335246,0.01608121,0.11205806,0.07419986,0.07260743,-0.1921703,0.1711186,-0.28549123,-0.13391402,0.11239204,-0.20444909,-0.17426471,0.22803347,-0.0862186,0.19401748,-0.047582213,0.107913524,-0.041520014,-0.09343176,0.08630263,0.24161729,-0.14583302,0.17586438,-0.12305137,-0.025620852,-0.3362274,0.1471443,0.09004826,0.13746856,0.10088983,-0.22390641,-0.03136117,-0.18675405,-0.18169877,0.2504159,0.20933655,0.28473753,0.072097264,-0.1626441,0.14809696,-0.04100278,-0.2533567,0.22792822,0.11881044,0.040314175,-0.21315089,0.22738625,-0.3477297,-0.24456175,0.19795026,0.34127012,-0.16979533,-0.21883,-0.09638988,-0.26063406,0.11513454,-0.1474164,0.12496793,0.16949809,0.13927184,-0.28580675,0.27328378,0.31483594,0.04542438,-0.31307122,0.108117945,0.0032176292,-0.19240537,-0.18812247,-0.008511789,0.07585266,-0.075380914,0.23621364,0.14801826,-0.15189949,0.22379592,0.20141171,0.27287507,0.29009858,0.13417326,-0.20445089,-0.15042447,0.19605471,0.1831015,-0.14921018,-0.15078796,-0.10994651,0.31070128,-0.21634066,0.13182335,-0.09264505,-0.20486759,0.24002141,-0.404519,0.1118209,-0.10282973,-0.1314024,0.22059251,-0.058339808,-0.2327396,-0.52103233,-0.021937903,-0.27410677,0.091290295,0.002957493,0.18968654,0.1655753,0.09643238,0.105487734,0.066966295,-0.18506333,0.13132429,-0.0056031263,0.22944002,0.021326492,-0.15437455,-0.041744474,0.20289722,-0.34755397,0.16063844,-0.4787967,0.2708747,0.08286335,0.15978451,0.061284315,-0.14544725,0.4498195,0.269281,-0.015363019,0.121745534,0.30916944,-0.13969496,0.012006188,-0.033780314,0.12092901,-0.40152246,0.068084195,-0.19160822,-0.29544362,0.16236302,-0.24378984,0.2603395,-0.33005717,0.34874964,-0.026866706,-0.20318687,-0.13340084,-0.12036367,0.18194747,0.06240361,-0.034708545,-0.14770325,-0.36594957,0.23250295,0.29436135,-0.082951345,0.09354374,-0.40625292,0.08411658,0.30784836,-0.30721658,0.020866692,0.017045053,0.30456436,-0.18524331,0.31510594,-0.08071754,-0.105333276,-0.04512362,0.25008082,0.22613746,0.07944069,-0.32715234,0.057311676,-0.14521722,-0.13870847,0.17201965,-0.2991643,0.0816039,-0.011118908,0.017362092,0.20217639,-0.03174584,0.17120886,-0.1834135,-0.296284,0.11290742,0.2051034,-0.10929749,0.04883457,0.13307165,-0.23743856,0.24207036,0.21341161,-0.1291856,-0.28114715,0.14013657,4.7275727E-4,-0.17782737,0.22955677,0.3311611,-0.3731932,-0.21036349,-0.19076633,0.26055342,-0.104201466,-0.009275317,0.3010112,-0.14587569,-0.16319671,0.10518603,0.030595113,0.20859674,0.060119957,0.114410736,-0.09740858,0.05520335,0.07538276,0.014797188,-0.41614327,-0.072592236,0.26595306,-0.10195356,-0.24809584,0.2934587,0.16950049,-0.22238457,0.25215235,0.03609107,0.054930605,-0.12779309,-0.08084358,0.25274548,-0.08686182,0.08672459,0.1260058,-0.014805752,0.30257478,0.09731891,-0.1991055,-0.046229478,0.04036495,-0.40959105,0.031919636,-0.011845089,0.17240487,-0.36800358,0.20909777,-0.26798958,0.22145496,0.16343918,0.042132165,0.14892505,0.31327003,-0.1884255,0.15825072,-0.3572959,-0.17976402,0.05397498,-0.04367147,0.33512875,-0.25441042,-0.008198079,0.12010888,-0.27683857,-0.03739709,0.030082298,0.20231394,-0.20872106,0.26093525,0.24324282,-0.33532238,0.18459225,-0.16116995,-0.16990367,0.43654943,0.1489678,-0.18029913,-0.21364649,-0.06592209,0.22680172,-0.39687613,-0.30144393,0.10471798,0.16471499,0.09243417,0.065981776,0.19017766,-0.40684822,-0.024579745,0.058210753,0.20976646,0.1967261,0.12987515,-0.21209744,0.049686834,0.32465732,-0.4012445,-0.21388797,0.03799968,0.22823867,-0.01411218,-0.24760805,0.26292926,-0.2065587,0.24368761,0.2362764,0.0071666515,-0.18767485,-0.26799485,-0.35097376,0.34276977,-0.12855253,-0.07956227,-0.2283778,-0.0974532,0.3238479,-0.2611809,-0.2705994,0.029902382,0.227675,0.13314348,0.009129634,0.081007324,0.14211541,-0.08655094,-0.3324507,0.14034173,0.38871738,-0.14873476,-0.32476526,-0.16394849,0.3287965,-0.11421697,-0.33665696,0.09758923,0.328137,0.23434041,-0.38137954,0.19578893,0.24946007,-0.17782961,0.17182785,-0.08779998,0.15448736,-0.27253455,0.25801525,-0.47211102,0.37551564,-0.12764475,0.07840467,-0.0063872533,0.14532301,0.31985897,0.20076784,0.22257294,0.19465806,-0.0961841,-0.09641088,0.2227658,0.09168617,-0.27018195,0.20076069,-0.38899162,0.3577216,-0.3152214,-0.06807497,-0.06783724,-0.20422244,0.14546971,0.020530067,-0.0052852547,-0.31706017,0.11900599,-0.1587091,-0.121750735,-0.31529132,-0.20193712,0.0932057,0.46118605,-0.27714273,0.2584226,0.15312254,0.30355352,0.1553041,-0.0219913,-0.067070626,-0.05649471,0.3482635,-0.14815108,0.06130558,-0.19012058,0.030680127,-0.006372988,0.4006876,0.052716225,-0.27851307,-0.025498068,-0.23186772,-0.28390604,-0.19321017,-0.12753707,-0.099556245,0.33601156,-0.4133801,0.121688314,-0.26893637,0.15851526,-0.35326466,0.23090625,-0.051297907,0.2659374,-0.12297417,0.32305354,-0.18434186,0.11540304,-0.06667588,0.035335377,-0.07703946,0.11673388,-0.3120943,0.1417017,0.10617044,0.32201627,-0.15174444,0.17518796,0.162361,0.24429758,-0.23181057,-0.14923473,-0.0639608,-0.33463338,-0.25965774,0.31873316,0.25315553,-0.086761184,0.03417505,-0.33064693,0.20797434,0.28988183,-0.22861786,0.03772569,-0.2547044,0.23683223,-0.123101145,0.34853578,-0.05638469,-0.053031955,-0.09109705,0.016879663,0.0044533852,-0.11783101,0.02592678,-0.23751953,0.3411549,0.31326443,-0.21865219,-0.2321801,0.19298504,-0.252503,-0.09923596,-0.2679457,-0.31711408,0.24533112,0.10758471,0.4364006,-0.20523769,0.225546,-0.060634714,-0.045879308,-0.07457876,-0.24360311,0.24128453,0.17845924,-0.008012099,0.13927051,-0.32420778,-0.11322859,0.25609592,-0.38506836,0.01807001,-0.054735713,-0.16536468,-0.16271307,0.008747787,0.27549148,0.16306521,-0.067411415,0.097384326,0.27013534,0.18075049,-0.3788623,0.22251128,0.23560278,-0.07610408,-0.19390151,0.1975369,-0.08300659,0.26410425,-0.4008734,-0.44796652,0.25307822,0.11695254,0.2943753,0.174459,-0.11931593,-0.34573036,0.27138212,-0.32103893,0.3169165,-0.39421657,0.26524585,0.12954274,0.005104979,-0.19098286,-0.30091503,0.017842362,-0.034380145,0.23937987,0.25040287,0.19968292,-0.06766843,-0.17110676,-0.14433838,0.040805526,0.21720648,-0.31682667,-0.14855623,0.23287238,-0.084398076,0.120513625,0.28303254,-0.36971042,0.26502228,0.31166482,-0.07312201,0.28751493,-0.21052842,0.040576912,-0.19577774,-0.046234954,-0.024869818,-0.16254127,-0.117597125,-0.16477446,0.008308695,0.42145926,-0.22681963,-0.011922672,0.07040949,