-0.106798016,0.34732038,-0.14318953,0.050487816,-0.29114765,-0.26826277,0.049586955,-0.26200208,-0.094829746,-0.21987173,-0.1753703,0.25537407,-0.40364823,-0.08660542,0.18714693,-0.13279219,0.031356387,-0.37466088,-0.085200004,0.0179251,0.0866281,0.07263028,0.12129865,0.07539841,-0.45830426,0.15474607,-0.44243303,-0.1323246,-0.4445902,-0.048066813,-0.032714084,0.04919694,0.22559969,-0.18734235,-0.13452543,-0.18459645,0.10868661,-0.026257968,0.27733085,0.2534154,-0.024112476,-0.35777503,-0.25565267,-0.5104177,0.0044780388,-0.47791258,0.20356186,-0.44157165,-0.07072083,0.088896535,-0.38756377,-0.18971603,-0.27238396,-0.10050631,0.30904293,-0.20814624,0.20018601,0.105692364,0.39478,-0.0674007,-0.101209894,-0.4277417,-0.38723224,-0.052953534,0.4222732,-0.06551474,0.2574175,-0.32346708,-0.31432033,0.11211879,-0.27529502,-0.07366212,-0.21695402,0.26822475,-0.11230855,0.011266754,0.27902055,0.08896681,-0.09369347,-0.09834713,-0.079460874,-0.15672022,-0.011710039,-0.11779314,0.22960593,-0.13842894,0.1984768,0.20574273,-0.12242165,0.126236,0.115773395,-0.0489729,0.17826264,-0.27778926,-0.421046,0.22960341,0.114746,0.22962983,0.06625838,-0.2601662,-0.4780652,-0.06468523,0.207212,0.15703632,-0.20479995,0.08504376,0.02974207,0.3051428,0.22870155,-0.3202458,0.23062773,0.24121645,-0.338688,-0.039168384,0.27353528,0.11694914,-0.36485502,0.31576648,-0.372634,0.17138025,-0.114445336,-0.45309225,0.058066458,-0.4285074,0.3473775,0.083290584,-0.31063688,-0.38142845,-0.1471639,0.20577891,-0.16852333,-0.28355306,-0.3003273,0.1940932,-0.1788727,0.051388476,-0.0853955,-0.02080459,0.11543335,0.19491823,0.25427473,0.27392483,-0.3235086,0.30926573,-0.20243183,-0.2718143,-0.34595448,0.24210876,-0.20342755,-0.14575519,-0.3396786,0.17227875,0.24362637,0.22383751,-0.0042959345,-0.023143254,0.22505167,0.13908163,0.13335773,0.11357786,-0.17126079,-0.3758839,-0.0627304,-0.30399975,0.1560015,-0.3246477,0.055566948,0.28980932,-0.33874193,-0.14201987,-0.17472564,-0.26203135,0.075652786,-0.14969352,-0.09933928,0.056420054,-0.36562344,0.0834306,-0.096545905,0.25191543,0.21899454,0.2558447,0.096852474,0.2542623,0.029774675,0.35327035,0.43895984,0.3213638,-0.43565848,0.17312443,0.21610184,0.30849603,-0.43905184,-0.14918599,0.15871394,0.280211,-0.45814857,0.0970222,0.021593755,-0.41182542,0.27176738,0.08960882,0.16418345,0.0957444,0.3385869,0.0052165054,0.042983986,0.23006955,-0.20712094,-0.008358036,0.3714775,0.13839166,-0.2553747,0.25898156,-0.020162683,-0.3765765,-0.46186504,0.21530616,0.21916948,-0.12540607,-0.23846416,-0.15285411,0.24628757,0.064539805,0.28739154,-0.3036211,0.31181479,-0.03469052,0.0019061078,0.0036972074,-0.062363546,-0.13550633,0.17519058,-0.34203616,-0.23058377,0.1327605,0.08413009,0.19874917,0.29275158,0.17455032,0.18072133,0.3245788,-0.035346117,-0.33460662,-0.06842077,-0.34414646,0.32249957,0.31845024,-0.2855773,-0.43267596,0.09287857,-0.32335898,0.22256793,0.1331047,2.1669986E-4,0.30994964,-0.4042217,-0.49890265,-0.09357254,0.22685122,-0.4409862,0.08385101,0.3515754,0.020906333,0.41357282,0.20731355,0.30057713,-0.37705317,-0.4942295,-0.19304918,-0.39557463,0.3322501,0.077063195,0.010075705,-0.028387226,0.12894017,0.1459275,-0.37545016,0.16245759,0.09923282,0.4055574,0.4180838,-0.35859698,-0.14531074,0.1925171,0.061828583,0.11085015,-0.02885031,-0.4156352,-0.41023308,-0.22969277,-0.18122596,-0.3678627,-0.27649713,0.33267215,0.30177402,0.39229944,0.30001563,0.09210367,-0.412033,-0.26227733,-0.16038044,-0.34304217,0.07470968,0.08143533,0.16660225,0.25129402,-0.066143736,0.20105368,-0.1453349,0.35236865,-0.35799846,0.25842565,-0.26793742,0.15594955,0.08404727,0.06396143,-0.4282819,-0.2943311,-0.15663667,-0.04279305,-0.22948772,-0.03895789,0.18277562,-0.03087422,0.26901355,0.306378,0.07374888,0.1142878,-0.1997044,0.3630455,-0.2883643,0.1054406,-0.25258318,-0.3685424,0.35911912,0.07280684,-0.11281455,0.4008878,-0.36644742,0.2779755,0.14277184,0.09626339,-0.35160643,0.2797699,0.30901733,-0.17057905,-0.28268182,-0.23271033,-0.38648367,0.3247208,0.42072868,0.08360981,0.4264017,0.35703716,0.4244998,0.4318998,-0.14810385,-0.07689283,-0.038550623,-0.19037874,-0.2883768,-0.18433997,-0.52014256,0.0109283,0.36896408,-0.041958574,0.35457692,-0.3414219,-0.08913204,0.12855455,0.14885303,-0.20319277,-0.40694112,0.016518624,-0.40425307,-0.2432199,0.15711357,-0.061296403,0.1979973,-0.35876754,-0.3367659,-0.053044885,0.073550016,-0.42606378,0.17254871,0.14164072,0.15660672,0.06286104,-0.34155557,0.15793908,0.42599297,0.028971238,-0.2461824,0.35780483,-0.36390632,-0.19980022,0.032881547,0.16419023,0.14579754,0.23958059,-0.08819074,-0.2343988,-0.12365034,0.33208334,0.31750274,0.018797101,-0.25915962,0.12628466,0.15852557,-0.14334373,0.03273499,0.3424267,0.3636844,-0.2832829,-0.3525562,-0.14646232,0.33484927,-0.21280143,-0.24637733,-0.049842242,-0.3423671,-0.47578833,-0.2036704,-0.04948044,0.21874553,-0.34945375,-0.43051425,-0.29493815,-0.2639575,-0.40430132,0.3955234,0.411141,-0.19481526,-0.14345288,0.120159015,0.36834332,0.23301743,0.04776893,0.21156627,0.22901039,0.23503427,-0.120195396,-0.5197739,-0.16752838,-0.5004595,0.13517307,-0.1171165,0.21005042,0.42507422,0.29062024,-0.3810904,0.41351378,0.3462267,-0.3737222,0.19417545,-0.0072097764,0.08941476,0.27858722,0.39657694,-0.24346031,0.11075617,0.17077033,0.059173904,0.09572133,0.0885915,-0.006589217,-0.3194252,-0.4756068,0.28188443,-0.2994883,-0.05899667,-0.061241258,-0.25124976,-0.4518389,-0.05677181,-0.35663545,-0.31435287,-0.18640013,-0.21967083,-0.29300064,0.3229112,0.16137025,-0.45324343,0.114037156,0.26891446,0.36816716,0.025876071,0.21676812,0.01169419,-0.0471409,-0.2727016,-0.450466,-0.40364903,0.28232518,0.1853607,-0.36298758,0.27836734,0.2813139,0.2247009,0.088083275,0.1856024,0.05357999,0.13692829,-0.423782,-0.069783956,0.3423716,-0.04371494,-0.10200659,0.10178468,-0.19782415,-0.37930578,-0.256383,0.3760105,-0.081540234,0.027989376,-0.21493626,0.35216084,0.30937606,0.107464746,-0.20153697,0.14866726,0.26288745,0.11303537,0.3036846,-0.34150106,0.09240811,0.22114438,0.15411082,-0.4448829,-0.30901936,-0.33352274,-0.118388176,0.252306,0.35221073,0.032428514,0.22786123,-0.33243367,-0.08974834,-0.023973621,0.22893949,-0.23165047,-0.24359678,-0.09929733,-0.45595682,0.07497703,-0.19072369,-0.4149609,0.179795,-0.47421482,-0.17706098,-0.2587665,0.29621223,-0.37763202,0.047978085,0.32177445,-0.19216569,-0.009511808,-0.052013885,-0.37771627,-0.10452541,0.25163037,-0.06335678,-0.13888715,-0.4796294,-0.33028045,-0.2353131,0.03970933,0.33278808,-0.28270122,-0.34552917,0.119402535,-0.086533904,-0.24676897,0.32987458,-0.026846753,0.2604394,0.2807999,0.21786448,0.24358416,0.19848236,-0.36625132,0.05342047,-0.05703004,0.23052567,-0.044659283,0.18965693,-0.45048875,-0.40155193,-0.093429886,-0.3603582,-0.5209602,0.006528954,-0.019554725,-0.32257125,-0.22556187,-0.2981276,0.08916768,-0.49158642,-0.31070912,-0.2238903,-0.08306274,0.29936367,0.1478018,-0.45869723,0.07432807,-0.31597236,-0.16814762,-0.13767223,-0.28388536,-0.31646186,-0.28391713,-0.124927625,-0.06980543,-0.2586632,0.20345686,0.22765179,-0.18790855,0.3221529,-0.22517759,0.14720376,-0.05845038,0.056426335,-0.3784897,-0.3633736,-0.09222729,0.3816897,0.35749584,-0.3610944,-0.33703497,0.22295555,0.23384261,0.02592691,0.17348205,0.21166442,0.10099437,0.42136332,-0.34423238,-0.44763833,-0.08905807,-0.21030994,-0.23093961,-0.06052478,0.4507336,-0.084514245,0.04126676,0.23476681,0.33075264,-0.07349437,-0.27431184,0.19499277,-0.09957249,-0.3883515,0.21464278,-0.17704907,-0.19463123,-0.23425202,0.14941886,0.06746932,0.35663489,-0.06367479,-0.0075434363,0.06551169,0.29295173,-0.34495807,-0.38695592,0.007850494,-0.052489143,0.1005873,-0.16744104,0.42096207,0.011256325,0.27402833,-0.21480946,0.057015166,0.27686933,-0.043289386,0.43481645,-0.33233574,-0.2568725,-0.31421363,-0.25503084,0.19994125,0.25819877,-0.30701604,0.33217096,0.36610064,0.21684784,-0.36602738,0.43168283,0.38801944,0.2857759,-0.38475245,0.18748057,0.28029472,-0.14496179,-0.4312956,0.33528072,-0.16960265,-0.4251755,0.17073946,-0.23105982,0.40991706,-0.2398889,-0.12716934,0.22295286,-0.18601708,-0.32303226,0.373547,0.14426789,0.31223607,-0.15280874,-0.107330196,0.10083648,0.20278749,0.3514594,-0.10254425,-0.049458947,0.06880144,0.32768717,0.24086016,0.37090337,-0.17534198,-0.24864705,0.17340156,-0.007673098,0.09724818,-0.20054902,0.06712463,-0.3971544,-0.22786519,-0.17556989,0.25190425,-0.37041348,0.33410758,0.111592636,-0.071978725,-0.10911436,0.36787632,0.39510572,-0.27826646,0.18006812,0.35226026,0.31626967,-0.03183728,0.056532346,0.1891087,0.24772848,-0.19547838,-0.1451195,-0.07324543,0.13582225,-0.010138078,0.12750581,-0.39902204,0.06967981,-0.11886649,-0.031479735,-0.44863802,-0.28231567,0.13955025,0.08814062,0.2234983,-0.248723,-0.04390175,-0.052191425,0.14785837,-0.362177,0.35709757,-0.003206193,-0.21154365,0.23044258,0.1011479,0.112848386,-0.11547048,0.29729474,-0.05464085,-0.23246618,0.1603496,0.101403445,-0.19538994,-0.05597291,-0.18649,0.20085949,-0.22617926,-0.13414367,-0.2588084,-0.15372117,0.15180875,-0.35928246,-0.38529766,0.01926384,-0.2135781,-0.19101886,-0.28319797,0.19223872,0.1911412,-0.41419026,-0.2231429,-0.2128651,0.22178563,0.23637286,0.2151282,0.26496735,-0.08718264,-0.28116158,0.16656032,0.16456573,-0.0059896684,0.27629635,0.35114732,0.24611811,-0.40625718,-0.048209198,-0.32447898,0.26329777,0.24418749,0.27810332,0.23011763,-0.14115149,-0.105852604,-0.12505269,0.34617132,-0.35239068,0.2509368,-0.08203482,0.13021837,0.01649706,0.31944337,0.27307364,-0.1462429,0.25640425,-0.023581536,-0.015936898,-0.35792783,-0.21078557,0.38235024,-0.2547193,-0.31341213,-0.18330398,-0.39833555,0.22842371,-0.1787991,-0.013728316,-0.36085156,-0.21085764,0.37408477,-0.229337,-0.18616524,0.15900952,-0.30837598,-0.047494505,-0.36363992,-0.31614283,0.34311187,0.13027295,0.16388811,-0.037778106,-0.27508494,0.28269354,0.15457019,-0.40413383,-0.31983694,0.17480333,-0.08468719,0.19680452,-0.17950149,-0.012301978,-0.16032973,0.18260436,-0.43807507,-0.26112053,-0.13975273,0.22571099,0.14509392,0.100341216,0.14818583,0.07584846,-0.24860007,0.15825701,-0.32532728,0.27290717,0.27685383,0.31804994,0.34311718,-0.14300518,0.2329659,0.25081703,0.01090934,-0.1527061,0.19377846,0.25375435,-0.13677685,0.18623924,-0.3136801,0.32079345,0.14960909,0.020531062,0.33298773,0.1246915,-0.28651312,-0.018446214,0.1535638,-0.35226366,0.27946615,-0.49896473,0.22512636,-0.38550347,0.23712713,-0.47791085,-0.114704,0.3188042,0.1288862,-0.29455206,0.30131027,-0.2550456,-0.34899345,-0.15625282,-0.14063461,-0.002030563,0.09524813,-0.1438409,-0.45965424,-0.4700223,-0.105149135,0.3680409,-0.4060664,-0.15390427,-0.40184975,-0.19999655,0.29676303,-0.21685943,-0.17085525,-0.1486954,0.084330514,0.17916049,-0.2191928,0.19064817,-0.16871542,0.10516296,0.3424495,-0.39032218,0.013775765,-0.27313176,0.10041725,-0.060931187,0.10196282,-0.24007805,-0.35877156,-0.22839989,0.2144467,-0.18599537,0.35247484,-0.37447947,0.27576712,-0.11540643,-0.28231758,0.13964368,0.28680795,0.22440934,-0.08709742,0.10003783,0.15276493,-0.37568793,0.14921427,-0.19983932,-0.21056092,-0.33950004,0.1919284,-0.18043888,-0.13333134,0.26607224,0.20197922,-0.29094067,-0.06281431,-0.080136254,-0.20890227,0.31381598,-0.22937505,0.1654074,-0.17609575,0.26832715,0.21093345,-0.36156204,0.030677713,-0.28819248,-0.24574979,0.35182726,0.2906164,-0.3445096,-0.36014557,0.04941444,0.020563286,0.26776943,0.021727508,0.048730284,-0.27343884,0.39802527,0.31271556,0.29873356,-0.033128824,-0.3775026,0.40309536,-0.433202,-0.08195667,-0.10037293,-0.1402517,0.07260188,-0.03344602,0.11883641,0.04311576,-0.42231017,0.16083789,0.08381389,-0.40264148,-0.42826736,0.14165972,-0.17462857,0.09224994,0.15938188,-0.27768755,0.3396175,-0.26759663,0.021015476,0.20467548,0.13651772,0.35825464,-0.3158426,0.22814882,0.071622156,-0.39526305,0.05205608,-0.18641746,-0.33223346,-0.15654273,0.28965506,0.20916046,-0.4854104,-0.17189017,0.3316245,-0.2787017,0.2751851,-0.41239005,-0.11996043,-0.14163859,0.36328444,-0.1911994,-0.38510737,-0.32604933,-0.058226645,-0.07075175,0.29723898,0.24607244,0.3798449,0.3632262,-0.30661383,-0.1279085,0.11154938,-0.07526904,-0.14238058,0.40252274,-0.28842196,-0.15897478,0.028205603,-0.27667475,0.28303283,0.3569486,-0.19064195,0.10225825,0.008409324,0.11339231,0.0665337,-0.2675729,-0.23410518,0.038778108,-0.014685835,0.018292971,0.2297235,0.040722918,0.12027035,-0.29169348,0.11887457,0.092420466,-0.031174256,-0.34751552,-0.13885342,-0.07818584,-0.109642,-0.17134723,-0.20810598,-0.42183626,-0.24400295,0.2948269,-0.16107538,0.2436117,-0.07018681,-0.3330787,0.36290818,0.13631955,0.32581186,0.34078467,0.31034383,-0.15213832,0.38262692,-0.1799104,0.12453245,-0.3338847,0.25476286,0.17776588,-0.36341906,-0.08104374,-0.1566549,0.082656264,-0.26454282,-0.2738756,-0.013401756,0.23915924,-0.00903216,-0.20662922,-0.13448696,-0.26019585,-0.3512061,-0.018686512,0.14255115,-0.21161458,-0.29787847,-0.26082784,0.2678803,0.057887767,-0.2700128,0.16460815,-0.14167848,-0.14315598,-0.08428528,-0.06337898,-0.3199761,0.046887066,0.16265689,-0.28931132,0.1496318,-0.054827474,0.3612404,-0.06575501,0.033177912,0.29522645,-0.41177273,0.0198491,-0.38470444,-0.08663256,0.2189803,-0.12863924,0.3760745,-0.14257945,0.3738412,0.37824285,0.08814798,0.05309872,-0.1803201,-0.16189407,0.12603977,-0.010422599,0.2700589,-0.10389089,0.18885492,-0.16288228,0.33215487,0.321365,0.3835807,0.23642115,0.17746256,0.18441881,0.039079353,0.37866545,0.16990456,-0.3574225,-0.10508296,-0.08354383,0.023366617,0.10689301,0.36897337,0.2829472,0.1648217,-0.3493783,0.18414426,0.25283846,0.22830339,0.22686063,0.29752418,0.16099286,0.06662873,0.32843113,-0.047786307,-0.4041558,-0.290721,-0.059439443,0.080942914,-0.3392464,0.2731269,-0.4272935,-0.012983266,0.15038918,0.14627497,0.29278308,0.21296257,0.091090485,0.42289495,-0.31743106,-0.26710716,-0.029442888,-0.25553685,-0.2919046,-0.3122814,0.12748753,0.052116223,0.29840547,-0.3824649,0.29673475,0.15734825,0.12006694,-0.39620182,-0.2613885,-0.118646644,-0.012849533,-0.051865894,0.39136928,-0.04082284,-0.08211489,-0.25358644,0.10585725,-0.4201718,0.21632822,-0.18241136,0.12776177,-0.18296033,0.24273403,-0.17862602,0.19846125,-0.32846394,0.044479106,-0.15119757,0.19223537,0.20930913,0.09792441,0.37137476,-0.1359892,-0.22297929,0.20005904,-0.20651172,-0.35740972,-0.24967442,-0.4154659,0.29466105,0.33343172,0.051348433,-0.06982916,0.054544188,-0.09746089,0.112343594,0.059250865,-0.23499759,-0.19737493,-0.32119575,0.22633947,-0.42942512,0.20334806,0.12053248,-0.28637367,0.03385479,-0.072860666,-0.0331527,-0.06442094,-0.38050795,0.20650895,0.12750728,0.10960174,-0.19806151,0.08350678,-0.15011238,0.23376505,-0.21097879,-0.15999357,-0.37660465,-0.4024521,-0.1853774,-0.2817912,0.3381394,0.24269521,-0.33848748,-0.30836082,-0.31314582,0.24283157,-0.26473963,-0.2741095,-0.059643522,0.2264881,-0.32064128,0.15459055,0.25510737,-0.23777203,0.13490957,0.12512311,0.015659615,-0.16921663,-0.22603856,0.2110835,0.32647666,0.26674893,0.20001724,-0.1315973,0.25378203,-0.24956588,0.27419588,0.019335454,0.271649,-0.11977293,0.17648064,-0.24571815,0.028290035,0.27204794,0.2791656,0.07775978,-0.2165027,-0.4367535,-0.11660279,0.35202336,-0.09232961,0.15612252,0.1230075,-0.0028999732,0.13907075,0.28804132,0.17698006,0.15963507,-0.3487374,0.10449016,0.45201978,0.17304142,0.1323038,0.094045214,-0.10505847,-0.021605367,-0.27670696,-0.4769845,-0.13633637,0.1067968,0.056367222,-0.2465243,0.005462213,0.25000364,-0.21311693,-0.11561682,-0.3162367,-0.3608096,0.20555444,0.04043534,0.13186029,-0.13501589,-0.25071383,-0.22967412,-0.2696506,-0.40464488,-0.33745742,0.14540267,-0.18158244,-0.08277909,-0.37929899,0.4257331,-0.36163494,0.19912226,0.27550137,0.21107878,-0.24525787,-0.22952324,-0.35383463,0.11199835,-0.10012,0.3084575,0.26479077,0.3740338,0.17171086,-0.30703107,0.14817257,0.13770595,-0.4428082,-0.22157061,-0.41540486,0.05696701,-0.16444682,-0.29937026,-0.011964636,-0.3026229,-0.12881851,0.40508556,-0.043221556,0.21175832,-0.42109498,0.057388276,0.06340077,0.067075945,-0.24735774,-0.030838205,-0.36168665,-0.45849493,-0.013329405,-0.15812434,-0.15876152,0.2934399,0.23389447,0.22309323,0.20808421,0.07941256,0.18421012,0.071933426,-0.0264714,0.24281088,-0.10071635,0.39411175,-0.017237706,0.28352904,-0.29722375,0.04417544,-0.28604522,-0.21900153,-0.033171,0.111617856,0.30794033,-0.08943454,-0.26238626,0.32707685,0.0402415,0.27133644,0.33944657,0.30346003,0.1731167,-0.01672841,0.16274084,0.16484313,-0.1763082,-0.37067977,-0.36351895,0.15301527,0.28597617,-0.28482693,0.2560303,0.30798715,0.20741457,0.18342993,-0.09414174,0.33667418,-0.2496775,-0.24070853,0.21530463,0.09990163,0.15287283,0.31163463,0.24177344,-0.04847042,0.07196909,0.05912466,0.11868873,-0.15195437,-0.17864092,0.13600881,0.35346878,0.36139676,-0.26011398,0.30314606,-0.037421547,-0.39106336,-0.04561249,0.275164,-0.09486082,0.03721803,0.15559681,0.4309142,-0.3402408,-0.085598394,0.25460288,0.017786149,0.07959827,0.45854473,-0.255984,0.22523688,-0.08999787,-0.114328235,-0.38993585,0.10740178,0.20409629,-0.1637433,0.24448815,-0.12307052,-0.11456135,-0.09191497,-0.06876939,0.33600324,0.03646483,-0.1799114,-0.33771047,-0.3956491,0.25960115,-0.35897252,-0.43588632,-0.34997427,0.22253655,-0.07390717,0.23750566,0.20261052,0.0511633,-0.42458242,-0.35517216,0.0543924,0.2365563,0.07789977,-0.44115233,0.27634558,-0.25489178,-0.1377211,-0.015264981,-0.23444052,0.17407165,-0.010870786,0.35470706,0.42399567,0.18821475,-0.43318158,-0.08970553,0.105726786,0.398806,0.27987817,0.0036291562,-0.12760054,-0.11425226,-0.28737685,0.29787472,-0.1304975,-0.16183157,-0.3046984,0.34873652,-0.04482,-0.21542004,0.09486306,-0.12628697,0.121459186,0.01694354,-0.25719535,-0.20142514,0.1323395,0.067633055,-0.27203083,0.26747218,0.35247362,-0.30466834,0.03067028,0.06603219,0.42934364,0.003033732,0.21796088,-0.04628545,0.04099793,0.2536563,-0.41280296,0.046858575,-0.415312,0.20119363,0.30156735,-0.01075646,0.28022194,-0.39285904,-0.18477713,-0.08805094,-0.1536384,-0.29288626,0.10779938,-0.39453676,0.23398167,-0.34827718,0.32332715,-0.41215226,0.112166904,0.2768502,0.16765308,0.29708734,-0.20656855,0.26689646,0.17047974,0.25225517,-0.098557845,0.26490626,0.23069654,0.22539102,0.35622028,0.30341157,0.17822072,-0.44639996,-0.25615376,-0.011117165,-0.2041615,-0.22177213,-0.06922749,0.24390596,0.19535296,-0.20178239,-0.09993143,-0.13120735,0.16325116,-0.46793258,-0.1968844,0.1380888,0.056195796,-0.34339795,-0.15815262,0.15901665,-0.12465763,-0.17995618,-0.18655165,0.03901286,-0.0873684,0.2251903,-0.34580782,0.1977059,-0.367929,-0.39417115,-0.13910893,0.3286662,0.14797883,-0.41931197,-0.36598456,0.3338811,-0.080165066,-0.34941655,-0.014045697,-0.34781408,-0.17881207,0.075865924,-0.2717839,0.031369906,-0.16107738,-0.3183093,-0.16119355,0.071840234,-0.32525712,0.058207754,0.2732448,-0.43413854,-0.3700647,-0.16994168,-0.2773905,0.23815855,-0.34391207,0.41430324,-0.079710245,0.3341019,0.29620543,0.2397623,0.27607006,0.22886251,0.1585976,0.38845375,0.11121729,0.29925907,-0.25883603,-0.12276518,-0.06489067,0.2648527,0.20107423,-0.17489421,-0.37626335,-0.15323639,-0.34550124,-0.14555171,0.14326108,-0.1735045,0.07546589,0.39967346,-0.21731138,-0.2780224,0.192655,0.2891204,0.3357619,0.18407534,0.42555845,0.15006196,0.26157147,-0.13769755,0.16128786,0.10611391,0.3211231,0.23683132,-0.41794422,0.031442717,-0.37895316,0.2851346,0.35832223,0.3226039,0.21158628,-0.39743832,-0.10337885,-0.074696645,0.4292504,0.31875688,-0.21877633,-0.20767523,0.35732642,0.3822987,-0.08611013,-0.24338326,-0.3247057,-0.38169342,0.17611149,-0.22477822,0.06385291,0.15850869,-0.19946474,-0.43511897,0.36973628,-0.36171123,-0.24882363,0.19183631,-0.20553604,-0.38715976,-0.27575508,-0.044488307,0.25720048,0.31873128,-0.2732679,0.31784034,-0.27102485,-0.09009498,-0.09916139,-0.07818964,0.13394016,0.07669554,0.010112392,-0.29976383,-0.17848925,0.22638504,-0.24534176,0.2793123,-0.026142335,-0.10712532,-0.18683256,-0.1058785,0.18655993,-0.24448882,-0.42528623,-0.34795117,-0.43660063,0.04463034,-0.15782832,0.24466233,-0.03600351,0.05059102,0.25572017,-0.3631786,0.33399785,-0.020919269,0.122354984,0.20249717,0.21100375,0.3182788,0.04153103,-0.09464615,0.29157528,0.13890345,-0.24157506,-0.21319912,0.025984442,-0.25011486,0.3367111,-0.26054323,0.09511854,-0.20244545,-0.2582151,-0.19457643,-0.075847365,-0.2589253,-0.2322822,-0.2021076,-0.118278034,-0.14306515,0.30531085,-0.077309236,-0.16730988,-0.32218817,0.34039336,0.030258358,0.066414945,-0.36196652,-0.26312298,0.20736569,-0.040008705,-0.03691277,0.049525745,0.075380154,-0.223878,0.29461503,-0.4141807,-0.13297954,-0.3367537,0.119782306,-0.28856203,0.33096147,-0.29292253,0.22921054,-0.2637736,-0.3004551,0.27332217,0.18013157,-0.015659353,-0.075064346,0.20344064,0.07279519,-0.3802401,-0.23981568,0.24473104,-0.1430918,0.27486205,-0.31410965,-0.123223506,0.386715,0.39484212,-0.11348225,0.11541145,0.30621096,0.1452509,0.33172452,-0.2954618,-0.043544807,-0.13426742,-0.18282185,0.25467888,0.36781412,-0.29330176,0.019922556,-0.034498673,0.43190736,-0.16433625,-0.28565955,-0.19772139,0.3357847,0.11458453,0.14310654,-0.08578639,-0.2284254,0.10247293,-0.15168619,0.015881155,-0.20349415,-0.06602605,0.4219839,0.32307208,-0.34625643,-0.3246046,0.14968726,0.14008953,-0.30509704,-0.17879382,0.30657646,-0.15136772,0.07583566,-0.32922214,-0.29555422,-0.019564852,-0.26701912,-0.05660694,-0.20853789,0.38511723,-0.26700103,0.12385537,0.30301514,-0.4040657,0.14253783,0.31347075,0.40980053,0.34243944,0.12402642,-0.13640496,-0.01648351,0.12257902,0.30278704,-0.27924365,-0.028039245,0.39861757,-0.19793352,-0.17077503,0.33506632,-0.17484532,-0.061851326,0.30927032,0.11522883,-0.29053423,-0.26111537,0.18944915,0.29123184,0.13128643,-0.35542434,0.13892817,0.3626625,0.38621834,-0.17727958,-0.15324414,0.1076086,-0.10726714,0.2598605,-0.14209938,-0.079883605,0.22519585,-0.003413905,0.14886099,0.15002978,0.25953797,0.27436143,0.12434139,-0.2498675,0.2042675,0.39423218,0.21372499,0.22498004,0.2750324,0.35567886,-0.20823494,-0.06002452,-0.24433482,0.39417288,-2.2052189E-4,-0.25273067,-0.055823166,0.102801114,-0.10342473,0.2736651,0.22260042,0.2638303,-0.42834252,0.3828013,0.4406336,-0.4589339,-0.16419967,0.31647682,0.37139922,-0.10669849,-0.23324746,-0.050129846,-0.09302665,-0.2120598,0.18582177,-0.17496258,-0.092780836,0.42354244,0.2723722,-0.31421322,-0.028234985,-0.11076854,-0.3979309,-0.34896058,-0.21791133,0.22693962,0.026455134,0.093326695,-0.07286674,-0.04083363,0.32023236,-0.4005121,-0.119553775,-0.08637177,0.30374822,-0.2992283,-0.31792912,-0.2644105,-0.16014609,-0.42309955,0.18599918,0.12625328,0.46839285,0.0109899845,-0.2370501,-0.3359655,-0.46519607,-0.0891997,0.39848503,0.26699257,-0.1416651,-0.15300395,-0.091925226,-0.04167977,0.029986948,-0.21707766,-0.06809138,-0.41136566,0.11970952,-0.42931548,0.28382617,-0.3763032,-0.17553696,-0.058393225,0.048503276,-0.1653967,-0.116157025,-0.0016103005,0.25135627,-0.01770289,-0.15720539,0.028151667,-0.22651984,0.0027740297,-0.05099288,0.38786405,-0.21290308,-0.3356506,0.38034183,-0.45146886,-0.2732301,0.2992681,0.108384565,-0.13641554,-0.043810938,-0.38672167,0.035675254,-0.29579765,0.2890108,0.34042677,0.0077589112,-0.28366637,-0.24465908,-0.19570918,0.057392735,-0.15922663,0.2803444,0.28919,-0.16186818,-0.3226574,-0.02818588,-0.09234643,0.01449789,0.22781815,0.317004,0.25346124,-0.3253721,0.25426862,0.36971334,0.34819284,0.13511424,-0.057576556,0.23227422,-0.30562255,-0.16755702,0.15353687,0.14087449,-0.17853323,0.14055477,0.054838,-0.44591486,-0.36715445,0.4119918,-0.16579789,-0.3722841,0.061236177,-0.2081449,0.15596391,-0.20576198,-0.20042235,-0.21115543,0.27626526,0.28051907,0.34851825,-0.15965527,-0.30259338,0.01697511,0.10949359,0.001818418,-0.21698822,-0.19274437,0.34311578,-0.045721024,0.2798476,0.34479854,0.16309413,0.3343133,-0.09405548,0.10975283,0.28167424,0.041068893,0.2077366,0.293581,0.2875559,0.1876614,-0.23507573,-0.41133082,0.36280176,0.3184326,0.21963283,0.11782116,-0.120374925,-0.42385942,0.17446683,0.28319448,0.22985572,-0.3611084,-0.03569701,0.03379768,1.9064893E-4,0.10797483,-0.21983975,-0.27287695,0.18104777,0.33733773,0.31273255,0.15363918,-0.1697249,-0.2384805,0.25151733,0.07323791,-0.21616559,-0.018682096,0.08396403,0.16245332,-0.47377867,-0.12531132,-0.24052541,-0.2918417,-0.38294804,0.32530814,0.14066862,0.3185304,0.22017522,-0.32384467,0.0033031846,-0.430919,-0.019789029,0.06945839,0.23523512,-0.4784987,-0.1918994,-0.057172097,-0.09430085,0.3622493,0.013163583,0.01941554,0.10562105,-0.11504557,-0.39273766,-0.3883082,-0.2429736,0.22224152,0.30856255,-0.32861257,0.094658054,0.11781706,-0.5028993,-0.046199184,-0.012641176,-0.19475313,0.33024514,0.25476456,0.19305784,-0.12182834,0.055461895,-0.33915946,-0.13660774,-0.4326562,-0.028620327,-0.44946668,0.22642325,-0.3586852,-0.39604825,-0.32005194,-0.47970316,-0.21963267,0.34545937,0.33922008,0.33300593,0.22674075,0.17184237,0.3285667,-0.4145849,-0.08951767,-0.13715635,0.25929612,0.24005099,-0.33680063,-0.42211857,-0.0062957313,-0.085843384,-0.17852913,-0.13738814,0.20723063,0.3818611,-0.42333776,-0.37821043,0.1557491,-0.09432421,0.2871233,-0.23792703,-0.29506454,-0.20750254,-0.14914407,-0.040294632,-0.33308613,-0.11496531,0.25702992,0.42208368,-0.39013025,-0.5252257,0.2725694,-1.6619565E-4,0.28976503,0.21393077,-0.3928457,-0.3178188,0.118376,0.01925587,0.11352327,-0.120572805,-0.32239923,-0.11493729,-0.33891267,-0.428157,-0.26422343,0.161446,-0.08242213,-0.016673923,0.2779424,0.38109857,0.15644623,-0.16578262,-0.3820887,-0.04981761,-0.20611896,0.21429393,-0.055374067,0.2262981,0.094506204,0.2715805,0.3480128,-0.01139026,-0.32634977,-0.13847539,-0.4947529,-0.13104747,-0.12352581,0.12952058,-0.20472424,0.36412358,0.14469722,0.3431334,-0.11801361,-0.48065037,-0.013102167,0.074534245,-0.0260989,0.29861182,1.11434696E-4,-0.20976543,-0.013787038,-0.007639626,-0.3375462,-0.21463414,-0.05457147,-0.01865232,-0.18113655,-0.0859606,-0.26383674,0.087154835,0.33982238,-0.39195395,-0.43538517,0.2558741,0.19173366,-0.18595153,0.3211843,-0.16618966,-0.34800455,-0.28498095,0.28155008,-0.23513901,-0.19811726,0.32840928,-0.14301197,-0.16893518,0.039991006,0.24257529,0.008067722,-0.114804424,0.20899746,0.1859282,-0.045656443,-0.18893945,-0.043177,0.24708349,-0.069097966,-0.23719878,0.0336761,-0.21694267,0.21886156,-0.45079097,0.34264082,0.331332,-0.10485689,-0.17730589,-0.35210317,0.06535049,-0.25790697,-0.055698223,0.09533371,-0.31926328,0.0508774,-0.24537894,-0.047830924,0.15327786,-0.2840221,0.22010039,-0.19280496,-0.3809205,-0.10755553,-0.19179392,0.28105676,-0.2637091,0.18153957,-0.3902778,0.28120515,-0.4694431,0.41134778,-0.20659733,0.17457,0.25324032,-0.24237114,0.050515454,-0.033160143,-0.09150461,-0.21529299,-0.40011954,-0.2335108,0.21150173,0.1202129,-0.3821574,0.23041421,-0.008699167,0.27850205,0.07976877,0.36977848,-0.039584324,0.26173115,0.36188343,-0.18110321,-0.23710556,0.32845205,-0.30795184,0.31535813,0.42673528,-0.2664298,-0.2986517,-0.08206058,-0.18984044,-0.20366012,0.08180966,-0.47557533,0.2839013,0.3403621,0.21187884,0.083066046,-0.17648953,0.38057196,0.26089767,0.40417185,0.24859232,-0.39975953,-0.38806233,-0.074332245,0.44001448,-0.17150325,0.12547721,0.34223005,0.08787348,-0.34209543,-0.23077877,0.40564775,-0.22663638,0.21567866,0.24259986,-0.020775631,-0.13110204,0.4104779,0.36189756,0.13039972,-0.41334918,0.18493052,-0.095251456,-0.13514072,0.3528121,-0.07705631,-0.04614944,-0.3770231,0.29422632,-0.25701115,0.19370493,0.13889769,-0.29007882,-0.12007549,0.34494495,-0.15099351,0.023633877,-0.41404915,-0.30854845,0.34047508,-0.27517077,-0.28433424,-0.19036093,-0.042399038,-0.16230088,-0.27009276,0.23055382,-0.17515965,0.18246257,0.22807156,0.21117057,0.26546067,0.34945062,-0.21960469,-0.14396483,0.2061289,-0.0929016,-0.07699059,-0.20944041,-0.18597196,-0.25789413,0.24989088,0.25366363,0.15408957,-0.36136803,0.117071725,0.40244257,0.015682064,-0.1997592,-0.16387796,0.2940569,-0.41247818,0.24874863,-0.15802221,-0.11695472,0.25282258,0.14873512,-0.45728356,0.24342602,-0.4046453,-0.0632906,0.20262183,0.310358,0.28714195,0.013406535,-0.10884794,-0.40260264,0.17820124,-0.3729017,-0.1407938,0.036581356,-0.11710108,0.24171358,-0.12326725,0.20154914,-0.19898953,0.17945305,0.23149793,-0.07431055,0.31398126,0.2516345,-0.01141107,-0.29692894,-0.18717627,0.31204802,-0.33927572,-0.30814412,0.0012211202,-0.26858744,-0.24085599,-0.025452241,-0.20128493,-0.1855214,0.20046608,0.19490585,0.24543054,-0.188094,0.369177,0.022581754,0.08191875,-0.18517469,0.3138999,0.3219077,-0.29880783,0.36637288,-0.17944801,0.26101422,-0.42226475,0.06089499,-0.1423537,0.36991382,0.28171977,-0.1421057,0.37817678,-0.27043262,-0.37080407,-0.4806079,-0.37655094,-0.34475368,-0.067569,-0.19447593,-0.36341223,0.25623974,-0.037545342,0.34188524,0.30546,0.24171694,0.3408402,0.22147548,-0.1857722,-0.4175884,-0.35923535,0.26395887,0.13612033,-0.25979412,-0.33844802,0.03515187,-0.1997936,0.1396956,-0.29253986,-0.4470659,0.3875429,-0.35705718,-0.029259825,-0.0075372458,0.22651212,-0.16774589,-0.13913837,-0.12861371,-0.41394994,0.05678657,-0.1670752,-0.27294645,-0.29300293,-0.23635806,0.28659073,-0.32072407,-0.27085775,-0.07142752,-0.36759505,-0.01973546,-0.14361453,0.11693543,-0.21693283,-0.05032483,-0.08274593,-0.4489761,-0.003706464,-0.24618632,-0.25087947,-0.2674803,0.32703567,0.2950715,-0.01734469,0.19979036,0.22313435,0.08861961,-0.34583345,0.029101307,-0.2885376,-0.41096616,0.3420914,-0.35651907,0.051603615,0.26769695,0.16262895,-0.44425914,-0.3531576,-0.16783291,-0.16061886,-0.09993889,-0.013588432,-0.2955735,0.10709542,0.07955591,0.20341909,-0.24809091,-0.12078966,-0.33568814,-0.17601272,-0.10192068,0.2999085,0.017682597,-0.15035291,-0.31883186,0.25463545,0.3251583,-0.23496392,0.10283452,-0.037180386,0.094430655,-0.13313918,-0.17370157,-0.18960191,-0.16897474,-0.16550581,0.31730196,-0.24873161,0.3089114,-0.16422758,0.28139162,-0.32423553,0.08345586,-0.3293883,-0.048912246,-0.39039215,0.42732275,0.2409829,-0.12386123,-0.08086334,-0.24578997,0.23283485,0.01357969,-0.26953697,-0.48514786,0.28016397,0.25938416,-0.2976705,0.0742933,0.24694508,-0.25204328,-0.2939146,0.008268796,0.008164389,-0.15526061,0.2530527,-0.396562,-0.29625317,0.3358694,0.41294315,-0.10283492,0.07231387,-0.052509233,-0.46471617,-0.025692528,-0.32687634,0.32945684,0.29931605,0.2791823,-0.3394638,-0.14807795,0.32086036,0.12690884,0.28752267,0.11387594,0.22816266,-0.29589477,-0.23062839,0.14821514,0.27465087,-0.47699866,-0.17737769,0.18223543,0.10749128,-0.2247891,-0.3361128,-0.38465235,0.14901131,-0.05194641,0.1721912,0.32957363,0.15083003,0.12857176,0.39380953,-0.44695684,0.07892652,0.16790026,0.22325066,0.044591453,0.024327442,0.05654114,0.15968229,-0.2811863,-0.304543,-0.0781998,0.12780899,-0.008171792,-0.32358164,0.400719,-0.1530795,0.17529617,-0.26419386,0.21937636,-0.24165963,-0.051815532,-0.39624554,0.23175524,0.3500125,-0.25779486,-0.08243272,-0.18230146,-0.197657,0.2494489,0.2530906,0.3584498,-0.23027204,-0.28922266,-0.026857808,0.04037561,-0.25671083,0.35989416,-0.27585298,0.10324309,0.09405925,0.039709914,-0.23320764,0.3400185,-0.097120054,0.34703436,-0.07400992,-0.25999966,-0.41216055,-0.34888318,-0.119635746,-0.3496424,0.2807752,-0.32623243,-0.27988082,0.11358606,-0.25419042,0.3120698,0.07699081,0.21324651,-0.24936187,-0.00455474,0.065011345,0.08731873,0.22823483,-0.07640001,0.257606,-0.03561353,-0.122992724,-0.32965288,-0.410826,0.097445965,-0.33894116,-0.120387614,-0.31686187,0.18255037,-0.11800203,0.36506742,-0.0805618,0.1069371,-0.22207493,0.10506345,0.10013621,0.29105064,-0.38267046,0.08309479,-0.36850026,0.17123407,-0.11155718,-0.095265135,-0.08439466,0.2796535,0.28236443,0.11722649,-0.24362405,-0.26071674,-0.3340651,-0.3709522,-0.30349436,-0.34866765,0.20747204,-0.2973009,0.13872008,0.43496403,-0.31919605,-0.42025542,-0.3523698,-0.12614101,-0.14717545,0.120902814,0.069338694,0.26718837,0.16503538,0.18237202,0.13308667,0.21982865,-0.28513643,0.41178358,-0.1360375,-0.015637858,0.2945549,-0.3811339,-0.06463288,-0.28719383,0.1318323,0.20093004,-0.21715878,0.3047136,0.09717859,-0.43355778,-0.1793671,0.13585751,0.22956258,0.05176064,0.2000423,0.11647464,0.30763865,-0.077267654,0.31208587,-0.33043468,0.24836655,0.1755693,-0.17058481,-0.21278761,0.12186963,0.3054119,0.254119,0.19607812,0.121900834,-0.2190056,-0.2666695,0.17830302,-0.2013914,-0.034561407,0.17383175,0.24204056,-0.12432456,-0.37799877,0.27402222,-0.117040165,-0.24796623,0.2644621,0.008914438,-0.031492725,0.12416193,-0.13694955,-0.34677944,0.13676883,0.34594616,0.1236495,0.21097136,0.20872277,-0.37063676,-0.31625962,0.27825648,0.3024242,-0.085454315,0.1162722,0.28341627,-0.05626485,-0.36520308,0.034155216,-0.16305259,-0.14243466,0.20403276,0.031385932,0.41126156,0.24173757,0.10897314,-0.23171942,-0.3857935,-0.07420385,0.17527503,0.31571293,0.3060218,0.36819273,0.13801517,-0.02127717,0.085332364,-0.28907767,0.25132936,0.045368973,0.24401174,-0.1009148,0.029149137,0.3505101,-0.24046305,-0.36810598,0.3968761,0.42521873,0.3527282,-0.27092186,0.2950155,0.21640669,-0.0052841883,-0.10796703,-0.35567972,0.1959994,0.16548009,0.31101984,0.16692774,-0.13843179,-0.36718124,-0.11336377,-0.048112154,0.1699123,-0.058621004,-0.09858142,-0.39116892,-0.25578806,-0.27337036,0.04537895,-0.10950899,-0.14584683,-0.1737921,0.31295002,-0.09076945,-0.3046334,0.015751917,0.16650693,0.1849955,-0.23735122,0.18712617,0.31093544,0.053448778,0.018142814,-0.3356038,0.1159254,-0.28519267,-0.18860593,0.28969535,0.22002676,0.10769592,0.11175037,0.33153245,0.029753044,0.061414335,0.10251713,0.37891027,-0.2964362,0.070707746,-0.011058088,0.19015437,0.39373946,-0.19060081,0.24617954,-0.34260207,0.0632381,-0.26769462,0.049157858,-0.28002658,-0.04246154,-0.07700251,-0.06927479,0.1957134,-0.14609522,-0.19273135,-0.30719924,0.026611626,0.2741989,0.116492614,0.09040423,0.11187314,-0.120692395,0.21033178,-0.34271175,0.1547376,-0.33963442,-0.20051451,-0.012440571,-0.20750935,-0.27719867,-0.085176095,-0.03240856,0.30744967,0.15072547,-0.0052516526,-0.1948868,-0.030767784,-0.3355887,-0.044801034,-0.22379437,0.3110332,0.015855853,0.090489164,0.17428413,0.4257405,0.19371557,0.11545472,0.14677295,-0.3535805,-0.31851795,0.2181084,-0.12589131,0.081290804,-0.42849508,-0.4035517,0.08501427,-0.15660124,-0.25768283,0.010275192,0.35380238,0.34578958,0.32663015,0.01526394,-0.3300188,-0.27814412,-0.10657382,0.053359162,0.14228919,-0.099698044,-0.042819005,0.3215152,-0.008617812,-0.10594764,0.040369537,0.10941905,0.067034036,0.009942111,0.23457609,-0.2405903,-0.2666301,0.35183704,-0.12320547,-0.17059736,-0.41105685,-0.21034451,-0.22835651,-0.29170084,-0.11771262,0.33118713,-0.29703584,0.23923592,-0.4265308,0.25417674,0.008619085,-0.13456309,-0.25246516,-0.20952906,-0.19354732,-0.03388708,-0.16569568,0.09022403,0.08048348,0.35293627,0.23751277,0.3521915,-0.3726753,0.16170351,-0.2837819,-0.3354752,-0.4552438,0.018166652,0.28734177,-0.14929421,-0.39444652,-0.15531372,0.34114325,0.073231466,0.12349545,-0.16062926,0.3294527,-0.16349804,-0.36535344,-0.11483062,-0.028907655,-0.23229,0.078534655,-0.049399886,-0.43109354,0.073039,-0.29573065,0.1895158,0.22246225,0.012296694,0.25327855,-0.41507217,-0.34082007,0.34741312,0.28518683,-0.17005916,0.069527775,-0.0972291,0.036062796,0.024050435,0.33557662,-0.22489542,-0.32129684,0.21691895,-0.1347575,-0.020077178,-0.28185624,0.07711363,0.26429433,-0.27733815,0.24658595,-0.37605053,-0.04285666,-0.17419504,-0.34979576,0.06633017,0.30250648,0.2790694,0.2758881,0.22866586,-0.08023937,-0.13513163,0.09567075,-0.40865248,0.09828188,0.015206304,-0.1397088,-0.13442412,0.008610845,0.21895881,-0.33467546,-0.14529066,0.13408187,-0.4454842,-0.003983172,0.12189036,-0.06021572,-0.12310068,0.04263327,-0.17586659,0.12592307,-0.37340304,-0.5145346,-0.4327291,-0.41589716,0.07214039,0.14890099,0.04827304,-0.16506422,-0.37955624,-0.2331451,-0.045308072,0.3699911,-0.25670445,0.33346972,0.124309205,0.13691728,-0.10475063,-0.395032,-0.14233842,0.27561796,-0.104723774,0.377295,0.38422358,0.36769453,0.10872443,0.15448408,-0.07805717,0.3558051,-0.26192462,0.14822255,0.29244223,-0.2544162,0.28363857,0.33801216,-0.33304164,-0.12022827,0.07540007,-0.34606183,-0.09386006,0.35726947,0.22246833,-0.18232867,0.18385117,-0.15400702,-0.057789363,-0.35184243,-0.2780442,-0.005901614,0.120703295,-0.30239293,0.2474796,0.06304264,0.021909771,0.3634559,-0.1486389,0.07744681,0.29530793,0.28542864,0.18969853,-0.10962326,-0.22563091,-0.18856585,0.07179715,0.33887306,0.18228808,0.059542257,-0.36386475,0.25143108,0.43578562,-0.20244797,0.15271087,-0.38584206,-0.30208704,-0.44394556,-0.13343497,-0.011124587,0.037350535,0.23666048,0.04385817,0.16777894,-0.40788066,-0.03359116,-0.11397378,-0.20896888,0.23535475,-0.38906792,-0.3884481,0.045075677,-0.05696484,-0.026988097,0.21883138,0.09086409,-0.039129082,-0.3990833,0.25379884,0.2158317,0.290578,0.010450895,-0.12549582,-0.12866268,0.16906989,-0.2295968,0.09922178,0.33941692,0.36023256,0.20248222,-0.022639308,0.3424071,-0.116120085,0.16803016,0.30886108,-0.057148818,0.1769497,0.37207228,-0.10374412,-0.4195337,0.019306231,0.10621309,-0.18837081,-0.24002613,0.259785,0.33513793,-0.4760705,-0.044406764,-0.009028517,-0.42371863,-0.2550496,-0.018347321,0.10420493,0.2524637,-0.118012875,-0.40754107,0.061985217,0.00583293,0.003095507,0.08836291,0.22774012,-0.08158313,0.016958263,0.16944318,0.17848575,0.25373316,-0.47814628,-0.23406403,0.3257222,0.3884284,-0.389647,0.197591,0.31841284,0.27847344,-0.46108797,-0.37440655,0.16245872,0.1464425,0.17863886,0.116861254,-0.06388485,-0.2485398,-0.057327602,-0.12540646,-0.47197828,-0.2724904,0.18421188,0.12360203,0.30859682,0.1489163,-0.19986612,-0.13969986,0.16673386,-0.09833256,-0.152476,0.3836852,0.28294635,0.009577411,0.013839144,-0.18447627,-0.13934048,0.15823388,-0.18382971,-0.19772728,-0.031419914,-0.082852446,0.18325973,-0.08108826,-0.23963664,-0.046297897,-0.2970296,-0.3905862,0.33492008,0.27888364,-0.27844274,-0.39486694,-0.21239853,0.23597685,-0.5004763,-0.1852945,-0.36203298,-0.08905202,-0.331979,0.10623722,0.3253014,-0.45823213,-0.42610103,-0.0017384801,0.11921346,0.36090374,-0.20083642,0.2407327,0.08725395,-0.15743326,-0.33760914,0.008054141,-0.46677554,-0.14591466,0.3526441,-0.067950845,-0.38521883,0.035843242,0.12527476,0.047347527,0.25216532,0.09405336,0.21195126,0.12565817,0.41286355,-0.01623682,0.3220734,-0.4669592,0.123905644,-0.33018473,0.16592288,0.14062694,-0.36523288,0.14570192,-0.28575864,-0.06632763,0.34007686,-0.22152936,0.21184997,-0.17937408,0.29040596,-0.044505622,-0.2641151,-0.28591785,-0.14011553,-0.12366165,0.11102098,0.23853736,