0.32678342,0.001004986,-0.08401234,0.42118484,-0.10636132,-0.20546234,0.2054511,-0.17162482,-0.2796169,0.08088931,0.11606612,-0.45657155,0.072216064,0.25667846,0.02801966,0.36746803,0.1566479,-0.17483276,-0.13645993,0.42801937,-0.33260366,0.4514363,-0.20627533,-0.33320397,-0.24357533,-0.28511322,-0.025679087,0.19518782,-0.36716267,-0.1449578,0.10209043,0.28307536,0.26409873,-0.3909137,-0.42315036,0.32511675,-0.43519306,0.26720795,0.36566296,-0.17717764,0.1286209,0.27138284,-0.03618604,-0.04092416,0.015383012,0.08854973,-0.36077064,0.22013438,0.34512997,-0.04128822,0.2637538,-0.4997782,0.2390956,-0.016135372,-0.17384414,-0.077879034,0.30628625,3.1562467E-4,0.19668658,-0.2173085,0.024818838,0.06926869,-0.42869294,0.08335125,-0.36254767,-0.37748927,-0.21850094,0.33107746,-0.2063969,0.30679035,-0.30943474,0.08945336,-0.41975692,0.18892127,0.30991673,0.49691266,-0.4364465,0.17439897,-0.12355736,0.20863178,-0.3328188,0.06485296,-0.21773772,-0.25775543,-0.11062947,0.008730837,0.02898819,0.1903308,0.42889452,0.21468276,-0.2753774,-0.30796844,0.14198902,-0.17965141,-0.11952917,0.27893832,-0.14695123,0.3457065,0.047523513,0.20065859,-0.107966125,-0.110154904,-0.06392894,-0.30616337,0.25764298,0.013653986,-0.013924464,0.44296634,-0.4202978,-0.29646713,0.07585804,-0.3439109,0.43083456,-0.27290997,0.06525391,0.43627787,-0.42331147,-0.3974562,-0.29606014,0.33518544,-0.3263915,0.070245765,-0.21887831,0.24358556,-0.008640512,-0.21134192,-0.26592097,0.21532951,-0.0442219,-0.2681811,-0.073547445,-0.3925954,0.34592414,0.14028,-0.3351678,0.27253798,-0.024823109,0.03420525,-0.31428686,0.1411534,-0.2166709,0.11111934,0.16152121,0.3328745,0.087535605,0.38515514,-0.21029195,-0.34194082,-0.057783935,-0.07918884,-0.3579515,-0.16495824,-0.062174432,-0.30593455,-0.14469555,0.2560353,-0.4200751,0.073521905,0.38632852,0.3560109,0.2572584,-0.38107872,0.1846437,0.1475779,0.16948082,-0.12466159,0.18296824,0.12822841,0.14651583,0.06086164,0.11711472,-0.020372026,0.107419275,0.27416942,0.16413191,-0.35833284,0.17175314,-0.30332622,-0.312744,0.30481052,-0.3894012,0.34092176,0.22560939,0.42870829,-0.20950276,-0.20589167,0.28318745,-0.00554068,-0.08678903,0.3010714,0.04218624,0.056951277,0.34015465,0.13721837,0.11563898,-0.081617214,0.18632703,-0.14765482,-0.039888807,-0.14089377,0.39693415,-0.3755924,-0.028609043,0.20420809,-0.25723794,0.20126513,-0.41318735,0.04347894,-0.4172983,-0.18142457,-0.3757965,-0.2787363,0.44891948,-0.3947776,0.2578943,0.13576916,0.27926925,0.17544107,0.23167257,-0.31857646,0.4166695,-0.36178237,-0.36315453,0.16073371,0.25252238,-0.3716184,-0.23550758,-0.11770969,0.45645627,-0.30650362,0.18475358,-0.3800929,-0.08425619,0.19620658,0.41889286,0.46965927,-0.22152814,0.12068625,0.049494192,-0.1511786,0.35742804,-0.27539197,0.4468436,-0.002341501,-0.1433777,0.23922914,-0.20530623,0.19584875,-0.2337542,0.071723506,-0.24939206,0.41482708,-0.37732014,-0.29338232,-0.27610317,0.13830829,-0.19549944,0.29156956,0.20204279,0.2556836,0.08625257,0.28046247,0.38125655,-0.4887339,0.04649537,-0.22381364,-0.114126995,-0.03629003,0.27528304,0.20590219,0.21060829,-0.18852837,0.4079132,-0.29136658,0.027104588,-0.28150132,-0.13424236,-1.2495424E-4,0.07731838,0.13340892,-0.0014885842,-0.37255612,-0.30738437,-0.3408254,0.29073748,-0.1899075,0.27135426,-0.40529746,0.32884252,-0.02346303,-0.10280378,0.046664704,-0.45212877,0.3279397,0.32737905,-0.15317158,-0.13467668,0.26195857,-0.22228065,0.38144642,0.04860532,-0.28814268,0.21732949,0.07838919,-0.15034127,-0.18518949,-0.304486,0.019844938,-0.09090113,-0.044607244,0.3516182,0.46141776,-0.07315149,0.07087607,-0.3570733,0.087703295,-0.26229224,-0.10008915,0.4671723,-0.37604788,0.39148664,-0.18961644,-0.014703782,0.35805342,0.12226788,0.15188135,0.10641653,-0.43947905,0.0067851096,0.24352853,-0.09863172,0.17531094,-0.41399372,0.019832171,0.2517595,-0.12920144,-0.37012717,0.25071055,0.17653114,-0.09550798,0.20549858,-0.31156635,0.285889,-0.107439615,0.14150143,-0.2652346,-0.048620444,0.41498443,0.017962774,0.38830942,-0.09257975,-0.18171497,-0.27548987,-1.3174815E-4,0.015914401,-0.34183368,-0.32962254,0.28711358,0.24923582,0.1703203,0.15783864,-0.2945778,-0.10680605,-0.30877438,-0.2892619,-0.35838982,0.35082603,0.248618,0.26130316,-0.024910621,0.31316465,0.29722324,0.24473651,0.20527114,-0.070926,0.19945775,0.06628303,-0.47472683,0.27771935,-0.52747935,0.20583068,0.25236717,0.3190574,-0.3062631,0.1987187,-0.28572524,-0.25008342,0.23300633,-0.055900242,0.028628552,0.11582797,0.077441,-0.0048359563,-0.33524317,0.2002693,0.34904844,0.14892334,0.28643015,-0.42837492,0.011588852,0.09442339,0.07839289,0.31704435,0.39352652,-0.074902445,-0.27787134,0.14958711,-0.39611584,-0.2091134,-0.062306426,-0.025806313,0.33761078,-0.40898448,0.37428275,0.16357446,0.17466225,0.28310886,0.23970224,0.083849855,0.35391456,-0.027202176,0.20915534,0.021472568,0.24393933,-0.38934782,-0.28507838,0.25901064,-0.30114278,-0.1683646,-0.2192571,-0.10444563,-0.27642253,0.25571033,0.08135576,0.121249534,-0.050597902,-0.008353709,-0.35345978,-0.18591222,-0.17148165,-0.32466057,-0.29237303,0.40509862,-0.12648948,0.14390163,-0.13900483,0.07999996,-0.14809622,-0.38521183,-0.3562219,-0.029891085,-0.04502483,0.31874672,0.13648482,0.064242296,-0.21609129,-0.0399368,-0.31019115,0.2166018,0.401991,-0.01876378,0.0055265347,-0.06084231,0.17222685,0.13888171,0.23593874,-0.05493846,-0.2236162,0.038692087,0.05818893,0.21080644,0.15565106,0.070837945,0.189861,0.14432026,0.23734476,-0.19098257,-0.3290142,-0.062103815,0.33842355,-0.3357183,0.16413343,-0.20596577,0.23889594,-0.37977707,-0.14503811,-0.33376428,0.35049543,0.21662244,0.04638939,-0.022240525,-0.14783514,-0.3026019,0.022231879,0.19359791,0.2087764,-0.20232382,0.03675217,0.13230707,0.20704627,-0.1573261,-0.2851742,0.06750968,0.086913355,-0.24947934,0.11037442,-0.0029162094,-0.19095598,0.07805314,-0.22697687,0.44982344,0.14705999,-0.39635718,0.07415741,0.16692525,-0.24070768,-0.029379582,-0.36004594,-0.011660738,-0.39284796,0.3183037,-0.33715865,0.22467275,0.07764996,-0.3167009,-0.30283996,0.21389979,0.13577528,0.16852774,0.21873738,0.115087256,0.096373096,-0.41030774,-0.36140844,0.28618577,0.18617518,-0.36660114,-0.16269173,0.09084234,0.38607523,-0.3113781,-0.27268788,0.17756891,0.03367759,0.01660599,-0.2747475,-0.2836432,0.20065622,0.35474536,0.045917314,-0.36348435,0.3217338,0.24740215,0.030336509,-0.12868996,-0.37789816,-0.19013368,0.0014309067,-0.12524259,0.34302932,0.04715131,0.22896689,-0.031709604,0.026944824,-0.33334824,0.10682276,-0.19516802,0.053092346,-0.2521459,-0.12789148,-0.0064604604,0.37893116,0.18260853,0.17423923,-0.11724881,-0.23594587,-0.07217271,-0.46223608,0.06210132,-0.37785816,-0.092322186,-0.15067707,0.23617023,0.13266498,0.09153663,-0.36908454,0.3837079,-0.31027034,-0.19618434,-0.41553345,-0.118546866,0.42936367,0.31547543,-0.020474182,-0.39854947,-0.28074065,0.01678657,0.3372576,0.3769531,0.18990207,0.19795564,-0.3328593,-0.40806586,0.4983275,-0.18381977,0.061929952,-0.4308481,0.13557936,0.34456897,-0.004989476,0.3654805,-0.068553776,-0.23608401,0.03277357,0.4198217,0.06559152,-0.035639167,-0.126921,-0.31263316,0.39727303,-0.09803461,0.17287318,-0.28088585,-0.2657532,0.2929021,0.19103089,-0.18488017,-0.34714067,0.065253265,0.064429775,0.26212743,-0.04580555,0.32515255,-0.12217019,-0.08777552,0.31983387,0.20618877,0.27854016,-0.021200646,-0.08193675,-0.042342618,0.30461925,-0.07160367,-0.5050603,0.40154117,0.35079843,0.034502298,-0.099607304,-0.11387302,-0.0054651983,-0.06379552,0.5089071,-0.15242203,-0.43965617,-0.11282411,0.2640976,-0.14395177,0.19984843,0.16543481,-0.11539302,0.2014685,0.17769895,-0.13288467,0.26178238,-0.270686,-0.23114698,-0.4052215,0.2952895,0.2828873,0.3722094,0.24209012,-0.14160173,0.0158565,-0.27371833,-0.074126124,0.12833332,-0.27321306,-0.22682612,-0.2860031,-0.05958972,0.1760959,0.1528602,-0.1502924,-0.44054326,0.1345459,0.42813173,0.27252486,0.2641343,0.10010217,-0.34630972,-0.4002115,0.21764554,-0.028741539,0.41727665,0.13566299,-0.106620006,0.0030214721,-0.12715301,0.18557511,-0.2180121,0.11977152,0.08132548,-0.37035623,0.22924463,0.26544553,0.009286923,0.21169405,0.35293835,-0.2172237,0.12083944,-0.00765751,-0.3602888,-0.1882625,-0.34244356,0.328032,-0.14808814,-0.014434077,0.34964776,-0.30562344,-0.23883338,0.021735832,0.2809456,-0.100967,0.17067368,0.42896223,0.10104874,0.20788471,-0.13534436,-0.3613643,-0.11055811,-0.33610058,-0.33107343,0.21992002,0.105297804,-0.16535848,-0.2364494,-0.1454396,-0.10634608,0.27535263,-0.11624799,0.050550297,0.183316,0.045258652,0.17046061,-0.16202852,0.097987495,0.34745592,-0.4022337,0.33166066,0.11819013,0.18379103,0.026008584,0.27464452,-0.42276642,0.26229244,0.0065533435,-0.092039816,-0.15518257,-0.15376297,-0.015198995,0.23324212,-0.06784057,-0.15432797,-0.3564633,0.30202073,0.4321143,0.0813216,-0.1300621,-0.023944601,-0.05270331,-0.2261785,0.15229772,0.14337482,0.3588016,-0.17525995,-0.24374644,-0.34841186,0.2989281,-0.14819038,-0.13972597,0.4550071,-0.28502285,0.061611187,-0.3506516,0.31949767,0.35527778,0.20962337,-0.30606985,0.08384015,-0.41355327,0.16675596,0.18592516,-0.42624098,-0.034962825,0.35517576,-0.29846364,0.18916897,0.018546991,-0.082857214,0.04764476,-0.009379611,0.26510578,0.13955125,0.51989406,-0.4487743,-0.20161757,0.16983023,-0.3396363,0.049812067,0.22434784,-0.17992263,0.15736017,0.15007687,-0.1182156,-0.28974262,-0.37914228,-0.4234215,0.28135294,0.047634665,-0.12659103,0.40138397,0.20007308,0.27036852,0.21547627,0.19438982,0.19202603,-0.13443848,0.2275147,0.12740807,-0.43377337,0.3608379,-0.41881096,0.16785963,-0.38779047,0.2679472,-0.21917051,0.034165908,-0.05008224,0.3261168,-0.15491758,0.059463523,0.42385003,-0.33308798,0.014456622,-0.30560544,0.061344028,-0.30576354,-0.2519458,-0.1090492,0.3039184,-0.035071842,-0.1524342,-0.115350686,-0.27348956,0.37337804,-0.060135126,-0.34507415,0.042919006,-0.39149424,0.27993658,0.16844252,0.026178148,0.34046918,-0.18035021,0.2205708,0.15921317,-0.06235924,-0.31416306,0.39640036,-0.03209763,0.45288014,-0.4179895,-0.17345273,0.23988515,-0.07753538,-0.10587191,0.055378105,0.2591034,-0.051027596,0.17851736,0.047345024,0.24776632,-0.046520337,0.2866344,0.02243214,-0.24693187,-0.3660993,-0.2528376,0.027198525,-0.30383888,-0.30039936,-0.29992586,0.23540552,0.46557644,-0.16651885,0.46125677,-0.13810521,0.1898044,0.3840976,-0.1806984,-0.02804627,0.011335115,0.0985654,-0.30065534,0.25181463,-0.16813289,0.13732749,0.24440852,0.07525838,0.17962413,-0.40666103,0.29807305,0.06640922,-0.08164788,-0.016392488,0.2507846,0.3292651,0.0010457769,-0.11681361,-0.29504707,0.24602513,-0.16972424,0.3780735,-0.009641157,-0.1824776,-0.2547513,-0.25274995,0.030698191,0.2289378,-0.4149295,0.40730003,0.20505452,0.19958729,0.3838647,0.34645492,-0.27044636,-0.36324906,-0.27383855,0.3894688,0.31772485,0.28595367,-0.24464351,-0.061557088,-0.2467142,0.32034084,-0.16935787,0.30950505,-0.08535242,-0.03158932,-0.04540251,0.26190093,-0.05317892,-0.20136437,0.07314399,0.36150327,0.2567367,-0.41191512,0.06455123,0.23146105,-0.2507489,-0.34859973,-0.13906853,0.08143059,0.19140708,-0.16440612,0.3876674,0.047141533,0.46172237,-0.15717219,-0.14119798,0.19716094,0.12556724,-0.28083888,-0.457846,0.10589302,0.39151916,0.35398656,-0.23686425,0.05956227,-0.2453006,0.19688235,-0.16112821,-0.3705429,0.37681255,-0.15915643,-0.03391269,0.3767039,-0.23004417,0.50070727,-0.007910853,-0.34207118,0.3454955,-0.0823107,-0.08693632,0.17994907,-0.05846264,0.13168845,0.18315679,-0.3475111,-0.0861388,-0.019244917,0.32333696,0.03435798,0.12444939,0.306946,0.16747351,0.096864864,0.024284704,-0.4981176,-0.33373794,0.29407755,0.20891732,-0.35786387,-0.03464969,0.27940917,-0.021299751,0.02770354,0.071391575,-0.33467972,0.4021585,-0.37937534,-0.11083745,0.12794732,-0.0981122,-0.13472937,-0.40425485,-0.3312982,-0.11638151,0.33194128,0.08372731,-0.3270756,-0.36911312,0.5344104,0.04713199,-0.34369776,-0.13630052,0.103688024,-0.1646561,0.36273462,0.11269774,0.21907099,-0.38331476,0.46725628,-0.27549547,0.32628727,0.1645348,-0.17410061,0.017034627,0.345503,-0.39139962,-0.10632054,0.25195116,0.0031329952,0.014128028,-0.31904036,-0.09138334,0.19602644,-0.29139745,0.25242257,0.44229364,-0.18986166,-0.09384825,-0.09860004,0.04092506,-0.34740603,0.37423703,0.14746374,6.259492E-4,-0.26524183,0.12168064,-0.41202962,0.21673873,0.32328764,-0.5358413,0.22198048,0.31020886,-0.4457459,0.007277026,-0.32572815,-0.37981617,0.4346825,-0.17674325,0.050020307,0.07037638,0.23305686,0.3282184,-0.29715255,0.054654427,-0.017652344,-0.06664301,0.20234664,0.066152595,-0.13698387,-0.2598766,-0.14708395,0.059036408,-0.20247932,-0.3917051,-0.20626643,-0.09350802,0.29521373,0.12875935,-0.1948238,-0.044725236,-0.19614992,-0.26221538,0.1178702,-0.060573943,0.011951885,0.3525552,0.24831286,0.25045204,-0.09041318,0.124141954,-0.4608803,0.12755495,0.26365405,-0.37760645,0.31989428,0.10971818,-0.031694137,0.05910405,0.16500567,-0.2893604,0.3178631,-0.24592017,0.3871074,-0.17351851,-0.36182797,0.17836583,-0.025706531,-0.1667424,-0.33112818,0.0039279433,0.11091381,-0.26663363,0.28687957,0.16239263,0.2958063,0.26057094,-0.4686194,-0.3412934,0.078664765,-0.5035247,0.10949832,0.038107265,0.3586613,0.518639,-0.44514096,0.17960896,-0.3219995,0.2977415,0.02949108,-0.4079445,0.12028362,-0.033320118,0.14555532,0.10253061,-0.32685247,-0.3604589,0.24306594,0.05740564,-0.26395553,0.26756757,-0.1061353,0.034570336,0.18959126,-0.077897914,0.09908913,0.4547673,0.086225346,-0.2479988,-0.3406514,-0.28930825,-0.15826693,-0.27569884,-0.18149333,-0.19120577,-0.1340339,0.46095663,0.061109122,0.057449613,0.067214645,0.4231042,-0.23889953,-0.3702653,0.3589523,0.017360799,0.26085272,0.08083369,0.39313564,0.1221659,-0.37475303,0.1969729,-0.40189457,-0.14280337,-0.03998725,-0.21977784,-0.07239521,0.2520676,0.09524821,-0.37290373,0.4223972,-0.2026512,0.506142,-0.29400286,-0.34237015,-0.28052872,0.08438198,-0.13039954,0.13298547,0.115404315,-0.39587507,0.15681708,-0.021132365,0.09849034,0.21104755,-0.10457155,0.32161137,-0.23597845,-0.14875537,-0.1909933,0.17809728,-0.3254505,-0.32645574,0.07157547,-0.37197635,0.56131536,-0.3104982,0.1296514,-0.112089016,-0.044439398,-0.07116235,-0.005238959,0.16683212,-0.28755358,-0.09458496,0.37823534,-0.28496748,0.15725157,-0.023489611,-0.32330933,0.1051605,0.34894946,0.04481893,0.13240562,-0.16374636,0.004141207,-0.34079802,0.054779414,0.19978827,-0.1316871,-0.01828814,0.24492742,-0.19876872,0.21505308,-0.51383555,0.27077743,0.29188284,-0.26045066,0.4156102,-0.2968418,0.09814854,0.29031235,-0.09432418,0.12607111,0.27115536,0.12980679,0.29009742,-0.18482344,0.17748675,-0.3871697,-0.007916592,-0.17611632,0.13900958,0.23897578,0.05746612,-0.24940763,-0.3170218,-0.4017872,0.367706,-0.1194148,-0.42445603,0.2995169,0.06361681,0.14597262,0.40722924,-0.4797257,0.41154155,-0.09184206,0.06107107,-0.20794314,0.07195456,-0.07359259,0.3355224,-0.17580086,-0.3897475,0.0013935276,0.40478674,-0.2663221,0.2796093,-0.36614075,-0.053437114,0.17090519,0.17151718,-0.010014635,0.41027284,-0.10192616,0.08303219,0.27408203,-0.3258233,-0.22763647,0.25218028,-0.319544,0.17830633,-0.120713346,-0.3193654,0.3991126,-0.055968944,0.18731795,-0.17855091,-0.111259274,-0.313811,-0.2214483,0.1199257,0.2599323,0.18283132,-0.30885318,-0.06569656,0.23669243,0.14940906,-0.014893818,-0.38462535,-0.1601803,0.013805829,-0.3412987,-0.053373184,0.2862774,-0.37391227,0.3335051,0.17694305,0.29538298,0.22968318,-0.004196962,-0.2085503,-0.08786536,0.1640798,0.012521788,-0.039889626,-0.18000083,0.38400114,-0.25562352,0.14087936,0.11479582,-0.31457582,-0.31906393,-0.02082403,0.4491694,-0.18672085,-0.35386136,0.20521082,0.32048002,-0.33917668,-0.36867827,0.24029124,-0.19327022,-0.07708873,-0.2896233,-0.07060793,-0.32289413,-0.107751206,0.011251766,0.4205454,-0.071871735,0.44023955,-0.38976482,0.18829219,-0.15004657,0.13388133,0.20850126,0.09404686,0.1850094,-0.20521882,-0.02499046,0.20205492,-0.06291368,0.28551447,0.13228855,-0.21620205,0.25433674,-0.23991776,0.19959915,-0.43005893,0.34154817,-0.004664433,0.35114095,-0.12599145,-0.27140486,-0.2961011,-0.432103,0.5467697,0.18363176,0.2691372,-0.16246617,-0.39034483,0.29176167,-0.16957071,-0.17896697,-0.2819114,0.3498474,-0.3515379,0.01680355,-0.36568877,-0.30074465,0.004731602,-0.0053592436,0.4589201,-0.26256508,-0.25362733,-0.40515906,0.4469577,0.14276765,-0.028127255,0.36639944,-0.28798935,-0.044881634,-0.042495307,-0.39099893,0.15566537,-0.39742115,0.027955223,0.07654122,-0.020252896,0.15442151,0.31090692,-0.40849647,0.25350377,0.24294272,0.31603655,-0.27318895,0.060093015,-0.1509327,0.43642744,-0.3813215,-0.1973057,0.4363809,-0.18962803,-0.0718138,-0.08684557,0.21433385,-0.37218213,0.180309,0.22720861,0.3430102,-0.123110704,-0.12035019,-0.0742476,0.13962223,0.056648053,-0.01092166,-0.37356403,-0.28797296,-0.014164461,0.2560877,-0.21367283,-0.30598027,-0.23895817,-0.052412238,0.022623044,-0.36382553,-0.32934374,-0.038266927,-0.30119678,0.2067869,0.25078827,-0.40145952,0.34019184,-0.18348901,-0.08679517,-0.24271679,0.3183378,0.2779267,-0.45662335,0.2691917,-0.046918612,0.36335027,0.3387495,-0.4327652,0.36099896,0.18167055,0.15447885,-0.2966725,0.24523394,-0.4453981,-0.3645278,0.30449724,0.068018675,0.08227383,0.1155227,-0.32665893,0.2319223,0.26847112,-0.3979951,-0.053194344,-0.3946019,-0.37847692,0.40074882,-0.0554296,-0.054733396,-0.28490525,0.22706845,0.4142632,-0.25906426,0.06766865,0.40585676,0.035050705,0.012051576,-0.20648056,0.07303437,-0.41417947,0.34441182,0.07362115,0.1708252,0.037464894,0.20169999,0.3514618,-0.22007602,-0.23981112,-0.09685392,0.42304134,-0.3538623,-0.09923129,0.25627682,0.20482077,0.12714289,-0.34074265,-0.053223003,0.38481984,-0.20871907,-0.16074717,-0.13905281,0.28777042,-0.15358622,-0.16868688,0.18520026,0.113755174,-0.27196443,-0.25996155,-0.029680965,0.11792609,0.3384589,0.12376094,0.02078515,-0.41108942,-0.09197604,0.048063017,0.33987486,-0.17480955,0.3587083,-0.20908685,0.01644463,-0.17761941,0.14271872,0.3061571,-0.28580105,0.18732947,-0.021647131,0.063281566,0.16770612,-0.45758706,-0.23614433,0.42771867,-0.20065026,0.28406075,0.25308186,0.43267855,-0.22897701,-0.26655537,0.4082474,-0.18085465,-0.15967944,-0.30142376,0.30642933,-0.39812264,0.27521178,0.023968494,0.061383784,0.24884565,-0.06984739,-0.2020999,0.31026205,-0.06276881,0.012646763,0.11521085,0.18898316,0.09184962,0.31276596,-0.24990925,0.27446654,-0.27101347,0.17845517,-0.21879648,-0.36531734,-0.026305545,-0.3868498,-0.012237827,-0.15204285,0.39272007,-0.21335052,0.2342638,-0.31431624,0.073153086,0.31674153,0.013049817,0.28185576,0.12891316,0.17889,-0.25732315,0.33025357,0.11613746,-0.37999275,-0.11454751,-0.18900383,0.13120385,-0.0052248416,-0.08452181,0.19307692,0.1306226,-0.2854628,0.07797942,-0.03400356,0.31789663,0.071297556,-0.12075416,-0.09731052,-0.19656909,0.114409156,0.3705369,0.21417594,-0.13671921,-0.1796896,0.047105327,-0.34822097,0.016515173,0.026441716,-0.046301033,0.29503465,-0.079804115,-0.15024617,0.16501132,-0.18098979,-0.2998678,-0.15014023,0.04041934,0.35452542,-0.18013553,0.3962615,-0.031596266,-0.3451283,-0.2523676,-0.09860548,0.16347966,-0.23466153,0.40317956,-0.2545189,0.38656604,0.1200986,0.21123976,0.21424422,-0.07248536,0.01326009,0.2602099,0.060277108,-1.8498376E-5,0.30946463,-0.08406271,0.3287164,-0.08608237,-0.41561285,-0.12114018,-0.06547532,0.077690735,-0.4335649,0.2159223,-0.39207864,0.26559207,0.11695554,-0.3784796,0.455831,0.25686687,-0.20943421,0.024847316,-0.0797411,-0.4102416,0.29635966,0.4018401,-0.34521532,-0.16245636,-0.06781652,-0.10854061,-0.051432665,-0.19791049,-0.10904205,0.42417276,-0.42142087,0.085434765,-0.20141545,0.10481322,0.2507032,-0.12841478,0.12363041,0.34604457,-0.06804987,0.3477901,-0.04283035,0.17175023,0.08194221,-0.22371317,-0.060674474,-0.15181878,-0.3328632,-0.015813947,0.41648215,0.22981904,-0.38747594,-0.3424059,0.2809563,-0.04878712,0.192163,-0.13407345,-0.13143866,-0.4079651,0.08455957,0.23642465,-0.37043887,0.3109169,0.25349033,0.26583764,0.028730161,-0.24113102,-0.25663614,-0.4335579,-0.23956768,-0.22047372,0.32588828,-0.26911792,-0.18833461,0.15180382,0.32453287,-0.017422788,0.018248687,-0.26115775,0.04933734,-0.29900572,0.10711317,-0.2807772,-0.32233092,0.11797356,-0.30812585,0.2982512,-0.18150546,-0.0673712,0.14703071,-0.4647508,-0.14608982,0.16537955,0.12768656,0.12673864,0.24688056,0.10773858,-0.37930378,0.47171992,-0.40325993,-0.4088489,0.04232563,0.02498687,0.27552956,-0.27549422,0.34350783,0.27796838,-0.042982996,0.34558833,0.021737259,-0.12241144,-0.28861237,-0.2717226,-0.040618338,-0.349051,0.40468794,0.34114048,-0.25594515,0.010804083,0.17105307,-0.2089033,0.313495,0.02705269,0.23380655,0.10163072,0.14212823,-0.0043409797,0.122255564,-0.08122215,0.33140096,0.23869638,-0.37709254,-0.13341455,0.279192,-0.3294037,0.3043369,0.20857686,0.17511755,0.019421134,-0.41946274,0.15996833,-0.034049097,0.20279738,0.11715136,0.17446284,0.24681517,0.24792281,-0.18524405,-0.21177302,-0.061617497,-0.11446589,0.1258344,-0.053306915,-0.3453754,0.10131888,-0.37778774,0.2266407,0.30076954,0.2454317,-0.30877665,-0.3422904,0.27813852,-0.017777126,0.2397986,-0.40969074,0.09880659,-0.02357842,-0.060366098,0.1811067,-0.42638054,-0.0034399075,-0.4592355,-0.18103622,0.3649179,-0.11848997,0.32463956,0.43212605,0.23964968,-0.32872966,0.2724897,-0.27168813,-0.1696608,0.3253694,-0.056018785,0.3247297,-0.027430607,-0.46255472,0.2461249,-0.2659181,0.09883753,-0.063072555,0.21272276,0.101504885,-0.27530655,-0.35939348,0.47789,0.3663178,0.2965437,-0.32078454,0.14167213,0.06839796,-0.11029203,-0.42005256,-0.15298279,0.29233766,-0.06170543,0.47649524,-0.37217972,-0.023560023,0.2514175,0.11164771,0.17491129,-0.016368687,-0.3162848,0.26773775,-0.44175428,0.15265372,0.4183373,-0.2360945,-0.18480572,0.015649447,0.0014649512,-0.3594283,-0.05131814,-0.045160186,0.11859395,0.2747934,-0.13585414,0.3124544,0.41743654,-0.05864256,-0.03463422,0.06566448,0.10229868,-0.2565905,-0.29510134,9.064956E-4,-0.2827897,0.12738621,0.3214279,0.032795154,-0.34064475,0.14325184,-0.23773256,-0.1962982,0.36530226,0.31006458,-0.1356452,-0.33605033,-0.054897647,0.22272763,-0.0050972896,-0.2742504,-0.3225865,-0.23640998,0.37955254,0.22797495,-0.16151012,0.079994135,0.07011574,0.27937376,-0.072148904,0.13972953,0.08576154,0.31099507,0.07807026,0.13044521,-0.37826616,0.38061956,0.3199837,-0.41269407,0.4308928,-0.03023297,-0.42646986,-0.28827733,0.42221838,-0.0034494633,-0.10579705,0.14629471,0.09624507,0.13772473,0.29486892,0.23748294,-0.25636983,0.41353303,-0.16420174,0.09972333,-0.24756502,-0.2004666,-0.41257474,0.08706484,0.10961679,-0.050048176,0.25904837,0.04213013,-0.32015172,0.28473982,0.2729593,0.1800357,-0.06943093,0.20772745,-0.1404328,-0.091281705,0.20086439,-0.2368226,-0.07012902,0.21824174,-0.050247975,-0.16460176,0.12126935,-0.10808015,-0.3619434,0.20210733,0.19161227,0.35426664,-0.5183773,0.1809858,-0.05114868,0.30852178,-0.33288363,-0.26205653,0.13976477,-0.100958556,0.4302438,-0.0757571,-0.080834776,-0.0038158726,0.12887293,-0.2105358,0.15587337,-0.20284535,0.21850507,-0.20183796,0.19266132,-0.2177186,0.3459508,-0.033006333,0.41195112,0.009811372,0.07220285,0.039730925,-0.3774706,0.057150885,0.1753877,-0.20056812,-0.3370727,0.35643175,0.29279903,0.10919016,-0.3395201,0.26204506,-0.3601031,0.27238002,-0.028996529,0.13123047,-0.43154314,0.15714769,0.12764446,0.28511137,-0.26628435,0.06883058,0.36005402,0.20365956,0.29459268,0.31121472,0.03725726,-0.39518568,0.14010212,-0.501036,0.020826919,-0.084503315,-0.11970439,0.12147511,0.3464571,-0.24382944,0.2114714,-0.10751154,-0.43081954,-0.031499565,0.1757879,0.051812727,0.2659681,0.17911099,-0.43643254,0.21367629,-0.3102359,-0.052233644,-0.23999353,0.05964798,-0.0039833174,0.13113235,0.11615028,-0.3312462,-0.078685306,0.35033262,0.078236625,-0.24621163,-0.2385942,-0.010869237,0.05718242,-0.36243016,0.13804092,0.2854846,-0.37942177,-0.26337123,-0.17611988,-0.28077996,0.07665647,-0.28815126,-0.21830258,-0.34860492,-0.2549429,-0.21083738,0.05753838,-0.32834068,0.18940832,0.2275002,0.37240046,-0.43608996,0.37590542,0.3382882,0.15307604,0.25396943,-0.1266236,-0.032220867,-0.18118523,-0.08786391,0.4304854,-0.15056436,-0.0042946595,-0.33232307,-0.085297085,-0.096442156,0.4253449,0.33632573,-0.34591416,-0.12072464,-0.19085264,0.07135157,-0.12615252,-0.32881013,-0.050723314,-0.19739006,-0.30342472,-0.08805572,0.28104025,-0.12428624,-0.1970847,-0.3447714,0.20478496,0.36616516,-0.16469727,-0.14858218,-0.110480994,0.41632995,0.1979842,0.08286027,0.39666107,-0.27073935,-0.20998456,0.060301103,-0.29111996,-0.33886757,0.3918883,-0.1437199,0.043018833,0.10879477,-0.11326968,-0.44989246,0.23579976,0.14657816,0.10629387,-0.39158502,0.22381876,0.3315753,0.008200271,0.084195316,0.3211608,0.15104038,-0.42250815,-0.22648586,-0.43204546,0.23728876,-0.41729012,0.35272107,-0.050055493,0.21029836,-0.27398857,-0.10123915,0.31119427,0.027835296,-0.051493008,-0.35955647,0.31421667,-0.285989,-0.07578078,0.056663986,0.2055946,0.27391508,-0.09299033,0.3422831,0.24501267,-0.19538891,-0.31729457,0.40089715,-0.058364082,-0.08784764,0.17633347,-0.39754847,0.29167548,0.09083321,0.3478328,-0.044442683,-0.24104644,-0.23258352,-0.1892814,0.15144743,-0.30172297,0.37639913,0.18155119,0.33906326,0.30627954,-0.19441943,0.35029322,0.4273256,-0.3811786,-0.048701614,-0.071784854,0.17682475,0.18748154,-0.2681813,-0.2234751,0.05229515,-0.24366412,-0.31364778,-0.3113048,0.3460525,-0.2276175,-0.11203764,0.4647951,0.20068894,0.09065761,0.078861445,0.03994977,0.07420676,-0.02623331,0.24583769,-0.17722419,-0.28033173,0.068301775,-0.3718094,0.34853426,-0.30987567,0.07307912,-0.33414963,0.19975185,0.18899804,0.36198106,0.25502217,-0.14429644,-0.37678215,0.24206065,-0.09121619,0.3772686,-0.09430324,-0.24485517,-0.06409643,-0.4182029,0.10858894,-0.4180588,0.059255622,0.39502123,0.3713744,-0.26103413,-0.33361647,0.030448567,-0.18174982,0.038313802,0.26661515,-0.13086192,0.42166814,0.10283809,0.09578579,0.38246638,-0.18026866,0.3221625,-0.2579487,0.018207766,0.32321984,-0.19146657,0.29220143,0.008634117,-0.36190453,0.20789479,0.10124864,-0.33399564,-0.38760027,-0.009246909,-0.3105265,0.25895286,-0.3497913,-0.3460438,-0.25579062,-0.13081026,0.2686617,0.32277805,0.3562864,0.022143386,0.28788704,-0.36120743,0.20994063,-0.28207412,-0.34824634,0.41123983,0.031049823,0.3773263,-0.2204986,-0.038386013,0.27293143,0.21149619,-0.3827899,-0.31187737,0.19823755,0.11898249,0.15385772,0.3321463,0.12581794,0.09342888,-0.25107726,0.13233638,-0.14549343,0.1573632,-0.1442963,-0.32181412,-0.33887005,0.47478384,-0.14027971,0.23545049,0.14990284,-0.20776786,0.19405693,-0.18296772,-0.04984732,0.3123234,-0.3205901,-0.20058443,0.072831064,0.27175394,-0.032010365,-0.3127078,-0.37083688,0.44783935,-0.39089546,0.0065033617,0.23463647,0.012091924,-0.103312485,0.37429821,0.08249395,-0.0035647647,-0.011095085,0.39862457,-0.0031489658,0.24681278,-0.3512384,-0.39439845,-0.22723088,0.109569885,0.06592856,-0.30209002,-0.116640426,-0.16130349,0.037039235,0.13976671,0.30600846,0.02918343,0.3402613,-0.06735364,-0.07380562,0.18769492,0.15323281,-0.03933708,0.21512109,0.27058223,-0.1277147,-0.107099876,0.14842482,0.08127794,0.3714772,-0.13303253,-0.19679122,-0.46546897,-0.1216821,0.33539924,0.12246554,0.32287377,0.18116105,-0.28548172,0.25050697,0.086585715,-0.4389254,-0.26669988,-0.15940316,0.41351163,0.35221267,0.10896861,0.4411761,-0.2524884,-0.23571481,-0.06621332,0.13756463,0.010811289,0.033346657,-0.30644348,0.26915655,-0.031460624,-0.13746771,0.27032596,-0.24175678,0.09834037,-0.2888897,0.14177658,0.40261307,-0.41157022,0.3239461,0.1325276,-0.11469871,-0.019104078,-0.14820026,-0.28521046,-0.10921331,0.050219037,-0.16410154,-0.114171885,-0.0473852,0.25078,0.18811336,-0.41758156,-0.11676039,0.3945691,0.14548384,-0.048889317,0.16578077,0.06287517,0.28188097,0.22674298,-0.36709437,-0.22508477,-0.039502453,-0.4035229,0.05314752,-0.3536292,0.24716006,0.39571545,0.14471237,-0.1665871,0.18039303,0.024741482,0.2898639,0.2909082,-0.26324508,-0.23363538,0.24012509,-0.039335333,0.21955559,0.28157982,-0.15433072,0.25356728,-0.3475937,-0.3605293,-0.15616207,-0.34734645,0.11007685,-0.31959316,-0.0046348907,0.07974656,0.04484778,0.11542031,0.049457557,-0.045549035,-0.11901248,-0.33966383,-0.28096372,0.08905831,0.36515346,-0.109629616,0.037253138,0.40003827,-0.054945298,-0.21674703,-0.10410882,-0.14930487,0.11400477,0.387898,0.022313278,-0.260374,0.124517865,-0.15879041,-0.31536365,0.08523853,0.4417809,0.09099123,-0.1178125,-0.13135426,-0.21812178,-0.1359156,0.37970188,0.34161693,0.11646342,0.2011252,-0.17757416,-0.3893335,0.050944604,0.064853445,-0.22453648,-0.23930633,-0.38359398,-0.026267974,0.0351349,0.00328173,0.21094932,0.26718277,-0.1022787,0.37141335,0.048954714,-0.11908288,0.030910924,-0.25920886,0.05662284,0.15093875,0.26490507,0.11863576,0.19510913,-0.09969803,-0.3734456,-0.11921159,0.12202284,0.04630161,-0.3512987,0.30961692,-0.0882966,0.3798701,-0.44229135,-0.064457595,-0.08403179,0.2144261,0.1634429,0.21538277,-0.3100976,0.037288066,0.14606531,-0.16687699,-0.18466754,-0.18973249,0.36079955,0.27610695,-0.41007257,0.38963243,-0.3871828,0.17099108,0.17564218,0.2892926,-0.23966353,0.15058146,0.2517067,-0.058566865,-0.11251883,0.09656896,0.1969983,-0.32625115,-0.42033362,0.16944212,0.14373174,-0.15072335,0.233662,0.1465789,0.3013005,-0.38839993,-0.40251082,-0.14920847,0.4237804,0.06288968,-0.29716262,0.47130063,0.02076217,-0.22382127,-0.24660042,-0.18362728,0.41991866,0.19011636,0.3210615,0.039565872,-0.08585944,-0.3311292,0.2867128,0.041665502,-0.12536646,-0.2168696,-0.42450833,0.23469785,0.16468988,0.25846773,-0.25054878,0.3705165,0.24436967,-0.19341256,0.15234086,-0.33550587,-0.3271475,-0.11821807,0.4426599,-0.33413368,0.40000004,-0.008334526,0.26494443,0.2967322,-0.1527773,-0.41832322,0.34049457,0.011805968,0.1291307,-0.46457604,-0.4266265,0.4729122,0.1255002,0.40784344,-0.42415768,-0.42464238,-0.15293469,-0.28454265,0.35596853,-0.3367821,-0.1451816,0.25035024,-0.061564896,0.25264707,0.0813723,-0.3697272,0.08116849,-0.1592489,0.31729546,0.28810242,0.19415441,-0.26955938,-0.09816127,0.2144634,-0.0020146216,0.22802481,-0.032481868,0.38122535,0.11777232,-0.18897793,0.041264795,0.3123787,-0.32592136,-0.24755543,-0.3877477,-0.051598266,-0.3723648,0.4053205,0.4173175,0.31589234,0.40442857,-0.30218932,-0.2031624,0.16669075,0.0021600178,-0.14514686,0.3620785,-0.100065276,0.11652547,-0.23362012,0.013920211,0.41100925,0.20061901,0.008170623,-0.24250555,0.031632874,-0.31207487,-0.039801653,-0.0113766175,0.29014415,-0.43943748,0.011704145,0.3703264,0.35630774,-0.06393593,-0.18937595,-0.119099304,-0.39246023,0.2847317,0.033915084,0.356395,0.26768664,0.18910281,-0.21346046,-0.13282168,0.0999298,-0.20063566,-0.22116087,-0.17118308,-0.058107838,-0.018859524,-0.12617238,-0.30129495,-0.101509884,0.03133035,-0.06754172,-0.00377414,-0.31629807,-0.054105118,0.25160623,0.39027786,-0.15334839,0.10269273,0.08104022,-0.08531539,-0.077174194,0.4264267,-0.28844887,-0.012740121,0.18158841,0.21221332,0.30558857,-0.14415854,-0.14017071,-0.19224784,0.10822447,-0.36744183,0.1716759,-0.014504827,0.36988193,0.18721345,-0.4590119,-0.15034358,0.42657727,0.0026407754,0.22382371,-0.14855076,0.10000625,-0.27795032,-0.1523477,0.1959779,-0.14713857,0.35812885,-0.09616166,-0.32128292,0.39872062,0.33000314,0.37909448,0.06529626,-0.15687904,-0.43775696,-0.26694873,0.40841204,-0.45944452,0.32834494,0.02182432,0.23665325,-0.057423767,0.15755674,-0.20996821,0.095348716,-0.025633775,0.23751429,0.354716,-0.16120991,0.032548998,0.0090144295,-0.27867576,0.0027160905,0.27910072,0.16951519,0.21207556,-0.005366787,-0.3731741,-0.18917464,-0.33595228,-0.06614237,0.20035712,0.21157253,-0.37758815,0.20130503,-0.05448646,0.27430624,0.1323082,-0.27965143,-0.21741505,0.11941332,-0.12607539,-0.1414227,0.17812924,-0.15565966,-0.003374654,-0.021470835,0.11219376,-0.32632074,-0.34390187,0.26004446,0.27945,0.29590726,0.3388795,-0.2761077,-0.33284202,-0.007422618,0.19029093,0.009325924,0.18761514,-0.030959366,-0.06575768,0.013499903,-0.01380016,-0.046022598,0.26500806,-0.23525125,0.076738015,-0.21308962,-0.22818823,0.11770804,-0.085413575,0.35458824,-0.15810867,-0.34966236,0.34001935,0.11620843,0.13651302,0.3728137,0.038557686,0.09779799,0.3204107,-0.0957956,-0.2385008,-0.1584853,0.29547945,0.31761804,-0.2963269,0.08275955,0.20131624,0.17267129,-0.4263531,0.04675552,-0.15610129,0.16062576,-0.20052508,0.057771333,0.40304345,-0.15990901,0.35695535,-0.27239656,-0.38227507,0.13971107,0.056618262,-0.1558335,-0.3213704,0.49933597,-0.39477882,0.31478596,-0.017490722,-0.085452884,0.31494868,-0.21492529,-0.010436214,-0.052002765,0.08739393,0.3108846,-0.0509632,-0.44834387,0.22747105,0.2002136,-0.14322351,0.30235216,0.24681985,-0.3147167,0.06746211,-0.32333168,-0.22938113,-0.12763475,0.10151095,-0.08755496,-0.25398785,-0.042712983,-0.20614484,0.41646945,0.14755131,0.25722188,-0.07434239,0.0145828035,0.17220607,-0.35441706,0.2282348,-0.14872286,0.33101925,-0.1136364,-0.014830591,0.3559636,-0.2569291,-0.16454141,-0.28088593,-0.22712667,0.45567864,-0.1890493,-0.005522484,0.48205394,-0.28864127,-0.2891952,0.28802863,-0.30787483,0.34134233,0.13949054,-0.10404445,-0.1973063,-0.13090011,-0.1669845,0.28222948,-0.09892872,0.3470775,0.066944815,-0.22581781,-0.36651555,-0.214338,-0.40188026,0.13091442,0.36473092,-0.27872232,-0.25047037,0.055629335,3.7881368E-4,0.031708334,0.10206275,0.13420571,0.09419818,0.14519021,-0.06165158,-0.26118323,0.40787864,-0.042215608,0.17077677,-0.14727324,-0.04499475,-0.07604704,-0.086804226,0.1921636,0.09897629,-0.3019055,-0.37766927,0.4089282,-0.05043529,0.3948278,0.0036688065,-0.31275576,0.37664804,-0.23175038,-0.16780107,0.14109063,0.19567853,-0.06299962,0.0947088,0.21098259,0.13026081,-0.27752522,-0.40357327,-0.015405851,0.01480353,0.2967049,-0.19000271,-0.05967887,0.22468956,0.2561809,0.054416727,0.018270938,0.16336423,-0.21455072,-0.13876253,-0.39553085,-0.033298805,-0.029166931,-0.28220403,0.26876742,-0.40617433,0.27171806,0.4226477,-0.3283669,0.47844023,-0.2119359,-0.12004492,0.24102676,0.17240512,-0.034711085,-0.21003547,0.35845444,-0.2956945,-0.07778811,0.35362324,0.42021662,-0.08102917,-0.15316713,0.36505106,0.079409294,0.40721893,-0.14629349,0.19517824,-0.07576941,0.16696858,0.24263197,-0.09557884,-0.06114596,0.22507444,0.23628888,0.09301402,-0.025851943,-0.34654984,-0.1901154,-0.009334071,0.06497298,-0.24800697,0.2193909,-0.34652108,-0.39720416,-0.23464862,-0.40894368,-0.121912,-0.1724835,-0.14799581,0.4349891,-0.029120468,0.022925004,-0.3786617,0.51592857,-0.27875128,0.38806087,-0.102551416,-0.21262373,0.34995964,0.20251437,0.076486066,-0.3607706,0.0025569247,-0.19917719,-0.47200474,0.36340556,0.23654215,0.17148566,0.33005148,-0.105908506,-0.35939008,0.23439997,-0.10237561,0.30666253,-0.456405,0.07372223,0.31837955,-0.47604665,0.40769944,-0.43742475,-0.0061407937,0.14006169,-0.25777748,-0.3316871,-0.40274546,0.45054534,0.3155113,-0.20479916,0.25289994,-0.43232268,0.3310633,0.14659503,-0.44250578,-0.11545344,0.35307556,-0.17509592,-0.031252213,-0.16654857,0.3652951,-0.09778427,-0.11309756,-0.14170153,-0.13082543,-0.39568958,0.21771148,-0.40614375,0.40007824,-0.41708702,0.37677267,0.29500636,-0.4287106,-0.1744119,-0.19579674,-0.4284128,-0.005402159,0.38809294,0.24643612,0.008284627,0.37217912,0.3227415,-0.2079955,-0.28185228,0.092689656,-0.09342421,0.28906333,0.3490873,0.34562463,0.36896402,-0.13536608,-0.4292447,-0.024922537,0.111275285,-0.4247407,0.23784776,0.26722538,-0.09623918,-0.23900601,-0.3569937,0.20575742,0.1855254,-0.023812838,-0.09054184,-0.1753543,-0.07441005,-0.27474946,0.40921563,0.33234277,-0.036283568,-0.3931632,0.10247312,0.33665317,0.22017857,0.20555754,-0.3593022,-0.29024816,0.38136315,-0.016176233,-0.26527372,0.33896098,-0.43084106,-0.26371858,0.32894352,0.027895736,-0.13063742,0.22432116,0.29503646,0.18831357,0.24649364,-0.3681098,-0.22301497,0.15813883,0.26786938,-0.33595374,0.29398552,-0.09187554,-0.011377259,0.1300142,-0.023146175,0.2999778,-0.077175744,0.2868324,-0.12539,-0.31394026,-0.36797804,0.40221918,-0.42577177,0.2655745,-0.35446998,-0.01119102,-0.24642679,0.33799767,0.12064613,0.14754649,0.2957376,-0.27210018,-0.15056725,0.14545214,-0.03217671,-0.17915387,0.047072213,0.36897928,-0.24918476,-0.30731532,-0.28059417,0.42245057,0.07991618,-0.25704557,-0.011012145,-0.33603746,0.27936417,-0.10517097,0.46632218,-0.3455186,-0.26723492,-0.14189671,-0.35930234,-0.057669982,9.838209E-4,0.053531595,0.28195986,0.29900953,-0.22822429,0.2045605,0.0066887005,-0.14480425,0.3678276,-0.0066606943,0.21979666,0.026077252,-0.08183848,0.111640476,0.27250302,-0.13665819,-0.17783177,-0.21471576,0.3038642,-0.2129681,-0.31135988,-0.22314273,-0.29386777,0.10999823,-0.077623226,0.09195563,0.32473028,0.21650751,-0.3101529,-0.08590917,0.3557161,-0.110587925,0.3300321,-0.25718713,-0.22898957,-0.35044277,0.11929551,-0.044177543,-0.12035916,-0.01878849,-0.19268683,-0.009160779,-0.11710732,0.37075707,0.23661654,0.27972504,0.03686762,-0.22463314,0.17996092,0.14964092,0.08210447,0.09719412,-0.0053211045,0.05172326,-0.34605086,-0.1516802,-0.014172782,0.33416528,0.029040087,-0.057681303,-0.24446973,-0.3664627,-0.41601345,0.34863618,0.12696311,0.32614323,-0.25888622,-0.062391914,-0.37586397,-0.25965828,0.40220052,-0.039806634,0.032741226,-0.24197419,0.24146247,0.43588722,-0.25011453,-0.33082816,-0.34657627,0.046496507,0.32686234,-0.12708777,0.11315418,1.02785154E-4,0.09136225,-0.21059202,-0.13938269,-0.03325185,-0.092317946,0.18524699,0.17450932,-0.37974042,0.4703259,-0.05104198,-0.047761496,-0.13744672,0.06020365,-0.12201293,0.36373556,-0.06329794,0.2506301,-0.45048732,-0.3362085,0.32036015,-0.39676908,0.17608505,-0.32284936,-0.37298208,-0.09957817,0.34797186,-0.4090998,0.37075293,0.2812984,0.30115134,0.25747538,0.33212233,0.2991381,-0.33214784,0.24704444,0.31363338,-0.33036846,-0.03830996,0.039984155,-0.35656577,-0.021804433,-0.25524846,-0.11099389,0.06062901,-0.039195634,0.34695733,-0.23920901,-0.07643901,0.2403924,-0.021729758,0.286756,0.21112117,0.30809152,1.2896807E-4,-0.25915825,0.040633265,-0.12005616,0.11113341,0.24621774,0.260819,0.23314452,-0.37979415,-0.05459536,-0.096175425,-0.22703485,0.3767294,-0.17888837,0.093628675,-0.115191504,-0.32845274,0.11752257,0.31784192,-0.26880983,-0.016932832,0.3424997,0.22273228,-0.34500274,0.057374112,-0.33025163,0.39885488,0.19280851,-0.39374837,-0.051597778,-0.079994835,-0.3939777,0.29572275,0.3988992,-0.42528865,0.44104066,0.11034928,0.3135133,-0.31993932,-0.37507463,0.3642115,-0.339002,0.46060836,0.17706653,0.2408134,0.11211429,0.18468963,-0.033713933,0.13797061,-0.23274364,-0.13584222,-0.0029803815,-0.17641474,-0.061073147,-0.021603635,-0.20737387,-0.25917304,-0.22861034,0.05313136,0.078224,0.15331925,0.07731507,0.11108942,0.144227,-0.022108354,0.06759975,-0.3403457,0.43849984,-0.12280736,-0.42242554,0.42008922,-0.16212991,0.28075814,-0.1232014,-0.4372322,0.42552134,0.12976106,-0.040219758,0.41188088,-0.38834468,-0.2967055,-0.39232728,0.09273778,0.14899112,-0.047679365,0.20038112,0.35643607,-0.11531652,-0.12273416,0.26082665,0.039568305,0.23081094,-0.08940903,-0.15963414,-0.24147776,0.33252713,0.31748545,0.30496943,0.17474829,-0.3344286,-0.1536022,-0.36288851,0.501677,-0.23937997,0.07552342,-0.06222341,-0.39391893,0.05286555,-0.30671763,0.18581077,-0.385761,0.4401504,0.0038338618,-0.26503947,-0.09806073,-0.11100976,0.38780448,0.07288827,0.23280315,-0.40131825,-0.086552195,0.018663341,-0.12041949,-0.29756102,-0.05301375,-0.012491338,0.35621238,-0.44684708,0.26593563,-0.31488365,-0.20434983,0.2306227,0.32024843,0.28642207,0.18315932,-0.17516395,0.36593252,0.19509779,-0.24337889,-0.20882587,0.14480133,-0.3300895,-0.050224513,0.22714074,-0.36115107,0.26022497,0.37801537,0.18109791,-0.3635911,-0.24237238,0.1727161,0.30785513,0.018894987,-0.04831767,-0.10186532,-0.25695074,-0.09096427,0.34347516,-0.029451596,-0.42755228,0.23849249,-0.008872264,0.45692357,0.15830913,-0.224218,-0.16908279,0.13196829,0.06339387,-0.45504498,-0.38164508,-0.09886619,0.11441691,0.21605533,0.2850527,-0.08239835,0.21525452,0.28871688,-0.21151629,0.16704443,-0.43315178,0.23047405,-0.15057275,-0.2290754,-0.0024454999,-0.32073486,0.29105577,0.22074185,0.10917116,-0.051496137,0.023449583,-0.2842194,-0.26495406,-0.33699033,-0.054513592,-0.13817629,0.14711201,0.2812215,-0.14628778,-0.3096459,0.12201841,0.3215351,0.24040267,-0.3852991,0.19921227,-0.16225058,-0.35413322,-0.24503765,0.15972784,-0.22216015,0.13639775,-0.25940162,0.4834873,0.025243737,-0.037526634,-0.29930323,-0.26000375,0.40871513,-0.17360607,0.3184639,0.28634346,-0.0094042355,-0.3360606,-0.3367511,-0.04898801,-0.086435996,0.33855104,0.27702132,-0.27845904,-0.048799116,0.009465013,0.1571003,0.14637662,-0.1631509,0.09216448,-0.05358727,-0.12663698,-0.18912925,-0.32484594,9.3483606E-5,-0.101126865,-0.24384625,0.42302465,0.13502195,0.16520199,0.09174674,0.057448946,-0.27678677,-0.011345867,-0.40550157,-0.06308941,-0.30837744,0.06701921,0.25034037,0.13572188,-0.39216968,-0.10027709,-0.38910627,0.2311914,0.44711137,-0.38684452,0.19788454,-0.22827317,0.38792083,-0.1527561,0.10541847,0.37770036,-0.33326787,-0.1249154,-0.042569965,0.061927143,-0.33582893,-0.10679375,0.3126677,0.38494307,-0.21425903,-0.25109816,-0.3326748,-0.00925831,-0.2221323,-0.18710154,0.22178899,0.12765157,-0.29428607,0.0021583212,0.14762393,0.41632196,-0.45330933,0.3052707,0.0854142,-0.3676014,0.35007834,0.092260584,-0.098660626,0.037288483,-0.2764308,-0.24747139,0.41298434,0.26676077,-0.18989104,0.40357503,-0.06579716,-0.16557522,0.19746564,-0.082105435,0.19066748,-0.31597003,0.16193987,0.2894517,0.049084418,-0.241746,-0.13992533,-0.22026291,0.14921741,0.25768813,0.045475706,-0.22677073,0.14739196,-0.2323574,0.2839508,-0.302512,0.07683383,0.009837317,-0.3056973,0.15017596,0.23444557,-0.20663111,0.39097422,-0.20783566,0.3049937,0.032560196,-0.17092106,-0.10713892,0.14728282,0.03170152,0.1434418,-0.19712299,0.45182973,-0.050382588,0.23815165,-0.27848318,-0.27913177,-0.28248245,-0.121415295,-0.32588562,0.37091747,0.17427692,0.32032353,0.3038346,-0.24333781,-0.44297072,0.11686545,-0.38663602,0.02368741,0.13571976,0.3232044,-0.30123222,0.36086768,0.026859408,-0.45476675,0.3826421,0.36954772,-0.120177485,0.122902066,0.42065173,0.35045874,-0.09418249,-0.39320523,0.3459012,-0.08906895,0.28142795,-0.21484748,-0.2500813,-0.3081557,-0.2023524,0.37424684,-0.059487104,0.009405669,0.37143382,0.31847024,0.008012883,-0.3026374,0.20936237,-0.2779769,0.35825828,-0.09235878,-0.08544581,-0.31588516,-0.056520343,-0.09853564,0.03158297,0.179655,0.23958345,-0.0065051913,-0.37550804,0.16202265,-0.29923028,0.03835914,0.14309672,-0.1368255,-0.2730936,0.34774053,-0.14048304,-0.30746982,-0.11887439,0.30174774,0.3835963,-0.015709462,-0.27137303,-0.10128464,-0.3005362,-0.24017903,-0.28253502,-0.08055158,-0.018746782,-0.260824,-0.17601965,0.3965339,-0.13698675,-0.14926419,0.41928467,-0.3014368,-0.37926105,0.16253747,0.17580797,-0.36733535,-0.3280043,0.252692,0.1423693,0.35321796,0.18722913,0.2286479,-0.45853296,-0.20388138,0.2395306,-0.17337508,0.099116564,0.12800682,-0.37620068,0.17639548,0.0692755,0.14229608,0.4018776,0.18882495,0.2047885,-0.34856078,0.07956885,-0.27862728,0.032515537,0.18881115,-0.31884634,-0.1630173,0.42756724,-0.093791686,0.25006813,0.258564,-0.2560628,-0.07802559,0.3018104,-0.08630112,-0.2217259,-0.1302842,0.39250264,-0.13579793,0.12839632,0.2042632,0.053668376,-0.41582215,0.34718776,0.024137098,-0.11374547,-0.24997868,-0.32399875,0.3305954,-0.11875042,0.16298237,0.39430466,-0.34772032,-0.34357753,0.10579282,0.05984081,0.20027031,-0.106718525,0.39882976,0.07017155,0.2288343,0.073187515,-0.31646362,0.27135375,-0.29130068,0.34000182,0.15383703,0.014365733,0.15177074,-0.14339586,-0.054260567,-0.37724897,0.43982053,0.2747029,0.40440303,0.0764947,0.08993635,-0.3526853,0.37194502,-0.35917336,0.05296251,-0.38112584,0.09292942,-0.21179326,-0.24197476,-0.32623488,0.060539026,0.1952402,-0.14571086,-0.086191416,0.36579347,-0.07738137,-0.21767117,0.33084553,0.48548818,-0.41884428,-0.25496584,-0.12076518,0.20377503,-0.22473943,-0.413012,-0.32479507,-0.33905977,0.1945762,-0.18078402,0.18518405,0.17350829,-0.2028091,0.30683315,0.34982875,-0.10279757,-0.22544377,0.4052487,-0.20417799,-0.31113097,-0.3143001,-0.3929514,0.2490158,0.1808849,0.30909255,0.22101429,0.3296757,-0.196533,-0.35246366,-0.329578,0.37596363,0.09153813,-0.2622587,-0.3358873,-0.2962063,0.43052912,0.3725217,0.2054776,0.16214673,-0.10549916,0.33547822,0.050624333,-0.3876732,0.14078003,0.25025186,0.2917347,0.3076726,-0.30785364,-0.1913938,0.19942024,0.38374713,-0.26727855,-0.14545839,0.02802215,-0.3280894,-0.105740316,0.289142,0.16639738,-0.04348934,-0.272934,0.26899782,-0.087776,-0.27832973,0.05016049,-0.15174884,-0.17986886,0.3412678,0.06494591,-0.33656886,0.39539215,0.22176297,-0.16031393,0.4312442,-0.40880907,-0.106521964,0.1926331,0.046576425,0.39303103,0.09142113,-0.32248387,0.17626332,-0.3770463,-0.3967595,0.025497619,-0.24963662,0.2052744,-0.09313305,0.11893737,0.08958469,0.28119698,0.25265494,-0.44000027,0.3004655,0.4755414,-0.14115444,0.084832124,0.03332396,-0.053065885,0.15733905,-0.3792184,-0.3595284,0.25558886,-0.0046520852,0.20899098,0.2925537,-0.19013883,0.23257212,0.27496272,-0.43616205,0.13219512,0.19366848,-0.4174651,-0.135717,0.2181591,0.07247274,0.21983455,0.09211335,0.024850354,-0.009188558,0.40874588,-0.37420762,-0.2177302,0.09172682,-0.1643982,0.22589189,0.14403462,-0.31507692,-0.040375926,0.07033904,-0.38191238,0.3186775,-0.38759458,-0.23839171,0.03590934,-0.1668626,0.0992889,-0.3003722,0.3678645,0.08960572,-0.19484754,-0.057666447,0.1869839,-0.47078383,0.3511196,0.27603683,-0.14151165,0.37592828,0.18814695,0.22486712,-0.13130058,-0.34165484,0.37473533,0.30508032,0.0098638795,0.1644497,-0.2635102,-0.072294295,0.27308047,-0.34795666,0.04971407,-0.39957306,-0.039540146,0.020508664,0.3070036,0.41302133,0.30102104,0.29757336,-0.2660382,0.18344212,0.12517829,-0.23046654,-0.18329316,-0.07711248,-0.3130619,-0.41384915,-0.10626131,0.29962116,-0.32803133,0.19513114,0.19689849,0.0584939,0.052564085,0.38402945,-0.4470754,0.36317554,0.3342829,-0.15000193,0.18073417,-0.22930144,-0.27402225,-0.15752995,-0.11103154,0.17195742,-0.046153117,0.16771397,0.19781761,0.32210186,0.2696224,0.38429293,-0.12768057,-0.16659386,-0.203026,0.07937503,0.05386346,-0.25593665,0.16946566,-0.106801964,0.25027528,-0.35349697,0.40465087,-0.37101617,-0.31395915,-0.17448612,0.22517315,0.4045307,0.46511346,-0.24698722,0.20533152,-0.38240302,0.09586448,-0.016380254,-0.37697265,0.31886375,0.1261975,-0.44769233,-0.34456444,0.3471639,-0.07020799,0.14815183,0.46860296,-0.029206034,-0.35598978,-0.11055859,0.2292198,0.03787436,-0.3776952,-0.29506248,-0.041982524,0.29066867,-0.11457389,0.18165101,-0.20053065,0.39699164,0.012471083,0.29110163,0.40072408,0.17509754,0.12618808,-0.16060202,-0.42485464,-0.006521459,0.326868,-0.21646702,0.29352337,-5.9195305E-4,-0.16292857,0.25411078,0.1242746,-0.28871277,0.08761444,-0.314666,0.46685553,-0.37391195,0.35414872,-0.33583644,0.20062768,0.40943205,-0.009397526,0.18772526,-0.15030646,0.193302,-0.016853321,0.11280047,0.09524598,-0.44738021,0.10075333,-0.20683594,0.075225815,-0.26829365,0.2669546,0.16860338,0.10924124,-0.4063302,0.116424285,0.1823278,0.05328784,0.0032179875,-0.1954299,-0.109592184,0.054844894,-0.14757654,-0.40318477,0.35982814,-0.2489349,0.28300303,0.060724217,-0.403199,0.22935618,0.06233633,0.07548195,-0.12602627,0.20998493,-0.40861517,-0.23660141,0.060626198,-0.34554395,0.37774584,-0.16830903,0.31934685,-0.045792494,-0.36850566,-0.3485307,-0.30812544,0.26631498,0.37915882,-0.20758556,0.109506965,-0.23292983,0.28733587,-0.22826715,0.36037058,0.059132215,-0.38529336,0.38350075,-0.042539347,-0.28119949,-0.31326738,0.36333865,-0.12235668,-0.21090399,-0.051514056,-0.33946723,0.40321606,0.20244135,0.07881317,0.4869192,-0.32308558,-0.19088164,-0.3934404,-0.090618625,-0.1586862,0.002400123,-0.36304918,-0.013759909,-0.059962016,-0.43382058,0.28254667,0.05173938,0.24102528,0.041352395,-0.024249727,-0.075875156,0.1248505,0.22876008,0.1439145,0.086607926,-0.3762742,0.377797,-0.36853877,0.35897234,-0.4008508,0.3879311,-0.4228373,-0.15592866,0.17050155,0.10969302,0.28181496,0.2861605,-0.05212939,-0.3181728,-0.00613898,-0.14447524,-0.08641218,-1.0022883E-4,0.11312976,0.15896715,-0.11276218,0.3509323,0.034348648,0.16283499,-0.14436008,-0.37241316,-0.28401342,0.26139608,0.22999787,-0.43587446,0.239263,-0.13627896,-0.07016772,0.28407398,0.13785622,0.06281299,-0.26881686,-0.2516788,-0.075395904,0.29827842,0.04427693,0.2701137,0.08499976,0.38959107,-0.24953084,-0.18949299,0.060250677,0.001283774,0.24216413,-0.19101739,-0.24119754,-0.028014157,-0.33157474,0.3500531,0.17277944,-0.38762435,0.24540612,0.15193526,0.17662513,-0.26228476,-0.0405961,0.064903,-0.26652685,0.32669204,-0.19434959,-0.22371705,-0.101646125,-0.28357512,0.3431797,0.40452442,0.4093281,0.042135913,-0.2924566,0.05478371,-0.17599286,-0.23379079,-0.31189895,0.022474898,0.17390786,0.2965285,0.16736543,-0.3260852,0.21519402,-0.14271252,-0.36159328,0.22415814,0.29617554,0.29120564,-0.22541188,0.2896337,-0.036017034,0.20488228,0.14827628,0.105820864,0.117400154,0.28322402,-0.101199,-0.05199076,-0.08305265,0.01873756,0.108532496,0.29008463,-0.17032635,0.08423744,-0.021641284,-0.28198957,0.31685045,0.17474185,0.19061051,0.38959348,-0.36060488,-0.37880155,0.16989492,-0.3444957,-0.0070348796,0.41889957,-0.38332072,0.37511286,0.09236796,0.029114308,0.3965255,-0.17633046,0.33242908,-0.010254165,-0.00899685,-0.14057593,-0.41114232,0.11794866,-0.09212228,0.2646756,-0.40916404,0.12861064,-0.06030292,0.20160747,-0.34201613,0.5003133,-0.32570454,-0.15155765,-0.00804988,0.41256684,-0.32693088,-0.07236013,-0.027317543,-0.41193086,0.15393977,-0.027181981,-0.13507107,-0.0715533,0.4458645,-0.016105788,-0.030045629,0.37936103,-0.47005486,0.035579436,-0.08257781,-0.42225784,-0.18549687,0.102542594,-0.23547237,0.24761292,0.14012514,-0.20038709,-0.30215925,0.006988265,0.32256827,0.08164516,-0.12219808,-0.13495049,-0.059344903,-0.1269422,0.08537824,-0.15101233,-0.16140893,0.2874472,0.413443,-0.33110067,-0.1325258,-0.09470943,0.30102932,0.028025761,0.11602542,0.15402772,-0.028239982,-0.46503034,0.17610687,0.4302813,-0.05273056,-0.29515362,0.11929885,-0.35697272,0.018584985,-0.16446453,-0.40276584,0.16727044,-0.10241725,-0.29135936,-0.04050702,0.04561169,-0.23075348,0.047122728,0.051203046,0.33543357,0.28832847,0.23572864,0.117541075,-0.28545755,-0.401685,0.16662776,-0.11955034,0.5146734,0.26750225,0.020159384,-0.1640439,-0.16373901,0.012475992,-0.22886841,-0.32763553,-0.30767584,0.057541423,0.038510185,0.068927504,0.33543116,0.031266212,0.008346299,-0.30260828,-0.058728352,0.21239674,-0.3390258,-0.24091159,0.14652263,-0.050702833,0.32098716,-0.36488205,-0.2820676,-0.13236652,-0.06715573,0.38169864,-0.01279377,0.3866905,-0.21305119,0.35488522,-0.06659519,0.35185352,-0.102733925,0.20288044,0.17927392,-0.09789393,-0.050594755,-0.38496387,-0.10588418,-0.17526345,0.051298816,0.031336926,-0.0707282,6.7869335E-4,0.020740544,-0.27986494,-0.002002561,-0.11180042,0.32710674,-0.4305729,-0.43671215,0.29723006,0.079739444,-0.3856893,-0.353605,0.10422202,-0.3387877,0.044074386,0.06693542,0.40227604,0.03901891,0.057182074,-0.28976297,-0.03244863,0.23641352,-0.40250382,-0.025113845,-0.33038336,0.13707368,0.0087718535,0.42126405,0.016116336,0.051425923,0.13675866,-0.2986499,-0.0037904398,-0.15323299,-0.0333689,-0.14290382,0.4577755,0.345694,-0.2529245,0.21334633,0.15059042,-0.33710855,0.36498582,-0.3686634,-0.11746414,-0.3793414,0.38423458,-0.32533497,0.22751686,-0.090558484,-0.47421256,0.2972449,0.01055863,0.16091533,0.0043259803,-0.4807892,0.21073864,0.08965217,0.38733527,-0.15317257,0.3977381,0.060127847,-0.45843187,0.16554697,0.2862855,-0.08211373,-0.06484859,-0.23728465,0.34854278,-0.13259876,0.283339,0.21410166,0.34367964,0.14376584,-0.051513206,0.3986858,-0.41706768,-0.13866454,-0.014279639,0.09437837,-0.2525885,-0.25524265,-0.38612992,-0.21231484,0.21957405,0.04156208,-0.06793515,0.2329515,-0.13289031,-0.03999679,0.27062875,-0.44579822,0.43257636,-0.15047853,-0.2877534,-0.14286524,-0.33104828,0.25283465,-0.22954552,-0.15266523,-0.19620012,-0.41206595,-0.015167699,0.1843882,0.47870302,0.009597376,0.3437967,-0.15422103,-0.40295437,-0.35000858,0.028099896,-0.2240589,0.22853683,0.309855,-0.20742701,-0.25808197,0.0041821557,-0.0895514,0.40501752,-0.3083607,0.22837152,-0.46547222,0.25824755,-0.21594965,-0.112321496,-0.29762727,0.29036534,0.10888767,0.13126309,0.34968054,0.34792334,0.05887643,-0.34558472,-0.18252395,0.05089943,0.41795117,-0.28045166,-0.23190835,-0.28386953,0.092870235,0.14466862,0.33546486,-0.06251103,0.2002632,0.32292944,-0.38218406,0.22882287,-0.062215123,0.106888816,-0.05730581,0.38241398,-0.19806033,-0.36573973,0.09123025,-0.14563566,0.18448937,-0.034626234,0.021981753,-0.33272105,0.27927193,0.12616609,0.2557804,-0.1911702,-0.15269458,0.12930247,0.18342936,-0.3565332,0.25593323,-0.12442612,-0.26940948,-0.02839209,0.34143162,-0.059218496,-0.4109398,0.27128154,0.1422297,0.3917439,-0.41449362,-0.1699414,0.16799717,-0.103795946,-0.4601466,0.13848184,0.10583243,0.14027897,0.15807906,0.30158344,-0.1936527,0.38733178,0.3420371,-0.18200056,0.2666413,0.35993448,-0.41342998,-0.011113066,-0.31648636,-0.30152217,0.11103085,-0.40607163,0.05958436,0.10608563,-0.3002411,0.3254487,0.33089694,0.40917417,-0.10224163,-0.28481695,0.24892753,0.06721294,-0.25951082,0.40156865,0.24877222,-0.4181255,-0.31755394,0.27139884,0.21378852,0.19043481,0.3435376,-0.40243074,-0.04023027,-0.19057661,-0.3859256,0.2722677,0.3086937,-0.3753973,0.26279292,-0.06529742,0.42345232,-0.08211004,0.09517448,0.26096836,-0.26529163,-0.30977356,-0.06164929,0.2610266,0.008717777,-0.002122563,0.18623707,0.06838571,0.39450324,-0.14542194,-0.07249763,0.06664255,-0.055968255,0.013705957,0.24693024,0.035075955,0.20625433,-0.27080548,0.21496248,-0.33210355,-0.3926011,0.37392268,0.16546589,-0.38481954,-0.38348088,0.40702564,0.201109,0.4032469,0.02640489,0.12053768,-0.43942788,0.3358893,0.30855635,0.026477847,-0.27368084,0.18635815,0.11508171,0.3302061,-0.3333162,0.31590837,-0.067892395,-0.27123526,0.361076,-0.21183695,0.43345958,0.37333402,-0.38926783,0.31978706,-0.09235729,0.10450833,-0.38702357,0.08463589,0.14905739,0.41172552,-0.33286023,-0.1427366,-0.2653319,-0.36650962,0.3709335,0.10880185,-0.1629226,0.17399913,0.32492313,-0.38980553,0.25182194,0.108162835,-0.28350794,-0.0012070256,0.25521487,0.17401497,0.27955633,0.15129018,-0.1351991,0.19720937,-0.15486063,0.34430444,-0.09961819,0.29059592,-0.24613784,0.48767853,6.335363E-5,-0.25964326,-0.31478855,-0.3862948,-0.092565104,0.14870353,0.0065432386,-0.4308781,-0.49595395,-0.083681285,0.417921,0.30781403,0.4134275,-0.11580315,-0.059009396,-0.018254535,-0.23632863,0.053080563,-0.22961156,0.23882358,0.34279984,0.10490451,-0.24422532,-0.019965589,-0.45562887,0.30509984,0.41546363,0.30995172,-0.031755645,0.33202818,-0.24090882,-0.033353098,-0.059794333,-0.011102987,0.3405588,0.29191336,0.28925273,-0.31306228,-0.43213314,0.2823497,-0.46032816,-0.28247976,0.17684889,-0.1834661,-0.39048856,0.22074349,0.24695553,0.028412689,0.34509486,-0.15832533,0.28626338,-0.1539581,0.011534735,-0.24719977,-0.3219397,-0.218389,0.4002461,-0.38173828,0.062213104,-0.38247234,-0.05998339,0.3325396,0.15438916,0.04580199,0.22206885,0.18424904,0.12718943,0.03752217,0.15324235,0.24556875,-0.022625968,0.2155964,-0.15324828,0.18640323,-0.3056051,-0.37034282,0.41879725,-0.07948281,-0.3000646,-0.2758135,-0.15572192,-0.12261174,-0.2582097,0.23846008,0.3066584,0.18275918,-0.07728937,0.21127318,-0.14838947,-0.3254483,-0.20308927,0.341207,0.30716726,0.27228725,0.3504833,0.12534751,0.2704375,-0.25619873,-0.33021063,-0.07110305,-0.092442445,-0.17861883,-0.22731596,-0.21680498,-0.12383084,0.15351756,-0.057610456,-0.26704255,-0.085880056,0.051565196,0.21360843,0.019053694,-0.1284511,-0.17420858,0.00792705,0.273076,-0.12530033,-0.18628156,-0.20603958,0.2538545,-0.32991794,0.18835258,-0.04069587,0.20394571,-0.40738222,-0.043289382,-0.072114214,0.17540734,-0.078312024,-0.230952,-0.15512677,0.3309894,-0.089364216,0.1440984,-0.36486277,0.5268214,-0.30794644,-0.009362347,-0.066731565,-0.3262706,-0.3011389,0.08030878,0.113402165,-0.10460328,-0.38245505,-0.14611079,0.31151223,-0.035875987,-0.03428783,-0.2185271,-0.39325252,0.18533118,0.37870783,0.31256536,-0.17438456,-0.33707026,0.08567131,-0.07655503,-0.31749645,0.3127894,-0.045127947,-0.21009639,0.47387257,-0.351087,0.22305782,0.02479656,0.48141822,-0.23436734,0.113908954,-0.08778092,0.009940884,-0.10564947,-0.31156114,-0.29213867,-0.2397742,0.4527416,-0.2732244,0.2420468,-0.0037484597,0.108781934,-0.04647942,-0.21461026,0.5076146,-0.36823407,-0.22008342,0.42946666,-0.3342016,-0.17541695,0.34340733,0.23324057,-0.11500351,-0.049268767,0.1586722,-0.26268348,-0.1491931,0.025307126,-0.2609456,0.35260564,0.24181512,-0.20784938,-0.07622605,-0.17506552,-0.22287285,0.3217485,0.05196805,-0.24488322,-0.14934471,0.02803208,0.05999414,-0.3565102,0.21681665,-0.043493383,-0.11244493,0.30829886,0.12843814,0.3206131,0.19710162,-0.26368397,0.30649272,0.052108962,-0.32618007,-0.33788142,0.39292994,0.16106382,-0.07607771,0.14393105,-0.44601405,0.4311477,0.10774022,0.19517386,-0.2827487,0.006813957,-0.21578926,-0.3412976,0.21399641,0.17005478,-0.04962353,-0.37436435,0.1804757,0.13876854,-0.116829924,-0.22876672,-0.28786457,0.06545198,0.40413365,0.42821294,-0.31507447,0.13631597,-0.30815944,-0.36481926,-0.25178248,0.20196794,-0.29207578,-0.20712811,0.41675508,0.049354255,0.09984997,-0.37626436,-0.16518934,0.44350317,0.093981974,-0.08791651,-0.3142128,0.16076948,-0.18098871,-0.25334835,-0.18968837,-0.051080987,0.008148576,-0.1467418,0.22612391,-0.3966781,0.26229206,0.29356137,-0.4022939,0.28844813,-0.20635426,0.269959,-0.16221203,-0.20249964,0.18614154,0.31040755,-0.29943857,-0.31808963,0.017941527,0.119851895,-0.20980419,-0.0059674648,0.4456937,-0.36971688,-0.0639312,0.06106997,-0.035948545,0.11872017,-0.33198303,0.11762398,0.38831958,-0.07253668,-0.3299374,-0.27878135,0.2022632,0.2168963,0.38724104,-0.31803945,-0.2676561,0.28525153,0.34765434,0.057637855,0.41025206,0.12512948,-0.19009106,-0.35014296,-0.213592,0.03934222,0.17899795,-0.11806345,-0.39931428,0.082703054,0.23617609,0.24005698,-0.016726544,-0.17318012,0.010097356,0.23026602,-0.24418154,-0.4140715,0.22182532,0.0030678767,-0.34824756,0.33457217,0.023889245,-0.03184136,0.037313413,-0.24956392,-0.014971002,0.3326876,-0.04708668,0.1191209,0.002142181,0.003595669,0.38415682,-0.16042861,-0.024404751,-0.20927402,-0.18470982,0.30267525,0.31614953,0.10524088,-0.16315773,0.36464766,0.10307361,0.32297766,-0.48852852,-0.19225971,-0.035997566,0.40681204,-0.36169273,-0.24689804,0.33428407,0.31186557,0.020050775,-0.39703107,-0.23572776,-0.20927438,-0.21414106,0.22792254,-0.23776239,0.32844546,-0.30542862,-0.021277998,-0.26569167,0.043990817,0.01354655,0.270078,0.10191903,-0.2957015,0.34527594,0.34238088,-0.08133529,0.33052698,-0.21211469,0.36432493,0.0685182,-0.180863,0.21094102,0.07947681,-0.0038290326,-0.081609555,-0.28027213,-0.027147314,0.16575123,0.22594903,-0.006097787,-0.3529338,0.30757618,0.09482866,-0.32818407,0.2996501,-0.039113995,0.31126037,0.066109695,0.1385908,0.34252653,-0.49365082,0.2264667,0.072146855,0.1328868,0.30006722,0.043584917,-0.36397356,0.30443037,-0.048915736,0.37756175,-0.24519093,0.28146297,-0.10610578,-0.38520315,0.12697363,-0.42956525,-0.1258876,0.13550143,0.3531904,0.14874662,0.14667262,-0.26180354,-0.13459495,0.22301444,0.27550396,0.19509797,0.23898283,-0.29889607,-0.4931222,0.46358207,-0.3434226,0.33544117,-0.046704493,-0.11967674,-0.3740713,0.15594362,-0.007714507,0.31775603,-0.14685556,-0.15597442,0.050789602,-0.30744028,-0.12716499,0.13649139,-0.15842444,-0.27217218,0.031282213,0.113624506,-0.092935316,-0.3696477,-0.07762115,0.26635265,0.26619864,-0.23122083,0.314931,0.40926588,0.14119802,0.11112872,0.17866673,-0.35913867,0.07960429,0.4283125,-0.17801824,0.1438207,0.24377632,0.16744351,-0.42179728,-0.3501528,-0.079704866,0.21090128,0.33644468,0.089475706,0.42317843,-0.011186304,-0.45178425,0.25014192,0.18668929,0.15341026,0.30125812,-0.1284277,0.18429019,-0.47344118,0.30009824,0.02230225,-0.3102962,-0.07331068,-0.39364007,0.1556571,0.35831243,0.333678,0.21701588,0.017421564,0.22843346,-0.1462243,-0.32807052,0.34949705,-0.2788286,-0.18690142,0.24531512,-0.31515056,-0.01919941,0.3475414,0.07845332,-0.28965914,-0.028413892,-0.038298428,0.0012277069,-0.23398769,0.47307158,-0.1569091,-0.10146143,-0.3218832,0.4395427,0.40076074,0.1105814,-0.17248175,-0.16642696,-0.122177236,-0.2630701,-0.33623952,-0.33825096,-0.03831641,-0.35218582,-0.20392832,-0.25025037,0.1861153,-0.30682075,0.07225257,-0.3320723,-0.22066078,0.027618356,-0.3700805,0.22619133,0.04919089,0.2402897,0.26418778,0.12119892,0.221626,0.027244642,0.26540565,0.018475305,-0.117284216,0.23929727,0.3804229,-0.2286428,-0.16657358,-0.038459964,-0.46156168,-0.1653793,-0.06837479,-0.29212743,0.23586571,0.059775654,0.022904612,-0.03250728,0.4004329,-0.45910004,0.1490944,-0.070724234,0.15977101,-0.3264034,-0.13000828,0.04130429,-0.14338806,0.11927901,0.19556223,-0.13466378,-0.10485498,-0.16049634,-0.31171113,0.17034072,0.29017368,-0.3599542,0.25593334,-0.24414028,0.28188407,-0.4316635,-0.111973725,0.33627504,0.2058093,0.029431798,0.24562337,0.1312966,0.28475037,-0.22501485,-0.34340027,0.022316778,-0.06492996,-0.044818923,0.15507743,-0.18777554,0.37822476,0.11210088,0.17815425,-0.43964452,0.4069669,-0.38891926,0.25171372,0.11540167,0.39629012,0.18380868,-0.06292924,-0.067263395,-0.1942714,-0.31996188,-0.35608295,0.18392639,-0.4764205,0.4822385,0.22349727,-0.11681132,-0.09939521,0.36964676,0.24921697,0.28532624,-0.2655157,-0.09928735,0.21129851,0.3627952,-0.39722493,-0.28809378,0.25416476,0.26628667,0.13215013,0.25812587,-0.018993957,0.10650245,-0.22427812,0.19241384,0.14484878,-0.45845935,0.3032656,0.33438888,0.35650232,-0.28793335,0.19354057,-0.080046885,-0.24272995,-0.1850778,-0.29142803,-0.24661043,0.14474645,0.070279256,-0.22378837,-0.06633464,-0.26843542,-0.3487425,0.29979494,0.24015614,-0.057105355,0.021143956,0.5451365,-0.41216156,-0.008080067,0.018739581,-0.35767534,-0.029281123,0.0055467747,-0.054451775,-0.1554142,-0.0429228,0.17050242,0.27717134,-0.20681101,0.1452195,-0.26968366,-0.21472026,0.030778965,-0.35888943,0.41699037,0.20580056,-0.10840382,0.010752898,-0.21017262,0.12324069,-0.19611119,-0.029824095,0.41238514,0.114604555,0.18148929,-0.26476473,-0.37066546,0.006588501,0.3350244,0.12042742,0.29296744,0.17620853,0.0451913,0.40763152,-0.26783252,-0.061324302,0.15447593,-0.1378257,0.3529827,0.012677817,0.092451714,0.0042696097,-0.41864315,-0.10970788,0.38009176,-0.44460478,0.2140122,0.061191767,-0.17422816,0.43845776,-0.30053857,-0.36171848,-0.40295854,-0.10936926,0.028499415,-0.041758075,0.08209603,-0.3995714,-0.21107744,0.11281191,0.3912453,-0.40676266,0.0396171,-0.14737421,0.40803492,-0.23456585,0.36002457,0.04911749,-0.033029564,-0.36297143,0.2512217,-0.111037575,0.104379565,0.33280364,0.37233075,0.43247548,-0.26859352,-0.25373444,0.38453034,0.051915403,-0.051036183,-0.20866953,-0.009070532,-0.20214258,0.19856146,0.08351347,-0.2114227,-0.059273824,-0.34791052,-0.1854254,0.08277881,-0.39912912,0.19536091,0.1817679,-0.23814636,0.32713884,-0.10259043,0.28113702,-0.3928,0.39938188,0.12769313,0.3537737,0.19600943,0.15685743,-0.44074342,-0.127504,0.15769419,0.42548767,0.179011,0.20587511,-0.16744064,-0.28093472,0.42672598,-0.42366385,-0.22998515,-0.033230364,0.056317527,-0.22332,0.12499214,-0.077537246,-0.058879953,-0.15867127,-0.29385003,0.22615767,0.019329207,-0.029726354,0.47309917,-0.28990066,-0.14207038,0.25496385,0.07707417,-0.20954277,-0.15740919,-0.23048422,0.13290448,0.38067162,0.19590689,0.10623104,-0.0061108647,-0.18965518,-0.35075828,-0.21924789,0.051271502,0.051856745,0.0507603,0.1990436,-0.106830865,-0.3109507,-0.021706542,-0.26183757,0.3572062,-0.24601527,0.23054665,-0.3282157,0.13446291,0.17784262,0.13154468,-0.19395134,-0.022809267,-0.3540977,-0.29146987,-0.0012767427,-0.05726986,-0.07978123,-0.16760303,-0.0933894,0.31964028,-0.0910556,0.1743367,-0.39319828,-0.2516425,0.25751814,0.015535856,0.36506686,0.099357575,0.007939309,0.28627062,0.36823833,-0.2976744,-0.31540617,-0.32472384,0.42464113,-0.41984022,0.33703724,0.36304107,0.31904286,-0.29477593,-0.056913756,0.30970097,-0.17987782,0.29749686,0.0021269007,-0.12535647,-0.07006638,-0.15451938,0.33032346,0.08485956,0.090131186,0.17140044,0.17898114,-0.1335363,-0.13043167,0.03338201,0.2610943,-0.06797502,0.17184982,-0.43431944,0.13480867,0.32804242,-0.38130096,-0.38983738,-0.14036459,-0.35354662,0.33128226,0.2374369,-0.061620075,0.44151473,0.34144014,0.14247061,-0.4189263,0.24409248,0.19737478,0.36857086,0.110662274,0.19882019,0.25419912,-0.069052525,0.06633277,-0.39954507,-0.16229604,-0.43739298,0.11905785,-0.07259996,0.0144953765,0.22573818,0.016954636,-0.24632898,0.4493534,0.30744818,-0.028075637,-0.08514962,-0.2983915,-0.30852512,0.10836524,-0.15546992,-0.018717155,-0.07161807,0.42712703,-0.32413042,-0.2700985,0.45689094,-0.104166105,0.33341628,-0.30095983,-0.32288736,-0.36513472,0.465212,-0.12975897,0.39449722,-0.30185556,0.1898773,-0.33909714,-0.3240834,-0.20449501,-0.045799457,-0.39727393,0.25135097,-0.04552585,0.016224911,0.11764608,-0.17353186,-0.35486567,-0.020125486,-0.07949472,0.2710199,-0.15235014,-0.3405435,0.09297154,0.4068978,0.106622845,-0.34159803,-0.32226327,0.14484328,0.17467687,-0.031576864,0.031997196,0.070071764,0.19789639,0.2978709,-0.2419198,-0.257531,0.14819045,0.43162483,-0.11397746,0.10941158,-0.024615863,-0.1904299,0.23367026,-0.11389957,-0.22237234,0.26256347,0.1102133,0.24607366,-0.0967313,0.096250035,0.3713988,-0.15137951,-0.28475067,0.062051687,-0.23378094,-0.28778565,0.034050245,0.11956193,0.3593054,-0.060753178,-0.17163227,0.27713624,0.039276935,-0.009587639,-0.03160263,-0.12150254,0.29653746,0.08675408,-0.4159446,0.23995475,-0.05550573,-0.22910862,-0.2502489,0.0672923,-0.1780146,-0.40163845,-0.0219176,-0.14785324,0.05821216,0.3029287,-0.32424682,-0.10523639,0.26495466,-0.28315163,-0.31050733,0.3004736,0.08123558,-0.09496326,-0.18360984,0.044350334,-0.3040227,-0.007579836,0.11878134,-0.34228966,0.037397236,-0.3496882,-0.19348933,0.06302424,0.08880803,0.43796405,0.27127585,-0.12197975,-0.032013696,-0.056900863,-0.27039292,0.17913042,0.22815317,0.29793742,0.30331776,0.14789414,-0.28814507,0.41156167,-0.27666217,0.18854342,0.06456476,0.25398326,-0.36845487,-0.15551414,-0.19566993,0.11353756,0.36136517,-0.04656172,0.31154627,0.38634416,0.057709962,-0.077163436,0.124815755,-0.32443556,0.04157719,-0.13362685,0.26499718,0.14430124,0.40559426,0.3453505,-0.3828193,-0.10831347,-0.34610698,-0.3427888,0.051519386,-0.32974568,-0.37439588,-0.029087346,-0.011433592,-0.3635632,-0.09785578,-0.3684061,0.26766482,0.08760724,0.30111352,0.24245241,-0.13400567,-0.08751681,0.4161044,-0.031178802,-0.0477506,0.27362686,-0.13778894,0.42665008,-0.16792434,0.06661873,0.12244091,-0.2777855,-0.3301126,-0.2071563,-0.3826145,0.0205795,0.0250824,0.31849742,-0.37149668,-0.0129433395,0.3986026,0.123441435,-0.23251133,-0.2605481,0.065010056,0.01129947,-0.2861754,-0.44752234,0.47199965,-0.25772202,0.26400065,-0.41975144,0.3000321,0.22119714,-0.09047248,-0.06407729,0.21246167,0.0963539,-0.12115389,0.2955963,0.23532744,0.15812382,0.37886328,0.14062582,-0.44251037,-0.27509388,0.008199391,-0.34149992,-0.04580465,0.17143068,0.4076379,-0.13073103,-0.05619542,0.2345849,-0.09616297,-0.23142347,-0.010884577,-0.18161263,-0.3389734,0.10475859,-0.13238777,0.06142622,-0.15085007,0.2561247,0.3582631,-0.19921713,-0.15905367,0.026946405,0.25951794,-0.42140803,-0.23563969,0.26216137,0.03229436,0.41601598,-0.07186555,0.028112892,0.057184957,-0.39454216,0.15519677,-0.29294598,0.13285697,0.29821086,0.24046008,0.08900671,0.107431926,0.40813714,0.28264958,-0.37632686,-0.2946657,-0.25196755,-0.16499661,0.23725684,-0.3419386,0.30776355,-0.32798296,0.17656782,-0.094619565,0.29244393,0.22285526,-0.050999004,-0.3586458,-0.072220884,-0.19662449,0.1535382,-0.3678893,0.2450801,0.36085218,-0.32712874,0.41525128,-0.2757408,-0.18275003,0.021965234,-0.15130898,0.22537912,0.16798155,-0.012758039,-0.42484295,-0.2930562,-0.34137022,-0.4377057,0.52760375,0.011855803,0.16416419,-0.27684426,-0.3498783,0.24356316,0.40399516,-0.31675854,0.4043919,-0.18896686,0.41066968,0.10507833,0.20499092,-0.011095618,-0.19772431,0.15088084,0.37572205,0.062893555,-0.017400794,0.0044314614,-0.3809549,0.04228766,0.37933812,0.22623552,0.046321403,-0.031170478,-0.104562625,0.31940764,-0.018988056,-0.29992586,-0.30580914,0.21135674,0.20730819,0.009988459,0.37658688,-0.003567486,-0.24008314,0.25632358,-0.04253142,-0.020470152,0.26111466,-0.3418651,-0.12093429,0.32108882,-0.22434384,0.3001197,0.22849287,0.1820357,0.24850951,0.3054769,-0.04773135,0.041062213,0.31925717,0.05893041,0.30788487,-0.31242192,-0.09788108,-0.37248927,-0.29317075,-0.11124442,0.11195184,-0.1584044,0.3142448,-0.34138125,-0.22596835,-0.006129714,-0.44085276,-0.23516339,0.40499485,-0.025681773,0.08859182,-0.2293122,0.24136333,-0.06527592,-0.25219026,0.18909937,0.21684684,-0.13290071,0.2641719,0.26701874,-0.09444078,0.25417137,-0.19373532,-0.4255099,0.09835205,0.33811754,0.10797589,0.37603328,0.13902344,0.32353544,-0.3600832,-0.054292034,-0.2125756,-0.13133869,-0.034087636,-0.046119723,0.14654087,-0.44739872,-0.0043935585,0.30878988,-0.30792108,0.3508607,-0.015118478,-0.37960124,0.46428865,0.023637734,0.27570197,0.027880387,-0.31608075,0.40359607,-0.17675176,0.37255642,-0.43518546,-0.19581378,0.42501405,-0.031190114,-0.03728645,0.41158462,0.2127032,0.12830956,-0.3930484,0.34636942,-0.03964539,0.083072975,-0.2446107,0.3158028,-0.4180509,0.35255966,-0.15503435,-0.2483251,0.2529408,0.31147793,0.24460937,0.39467546,0.058812812,0.059927095,0.0073157623,-0.3621737,-0.3473519,-0.2301712,0.39135054,0.23963739,-0.25290516,0.10384815,0.09763802,-0.11323032,0.39697886,-0.36036,-0.37546918,0.22015484,-0.46900776,-0.0910204,-0.28024197,0.300162,0.0469834,0.39078218,-0.11209655,0.110401645,0.21337223,0.18125854,-0.31598073,0.16747999,0.23166655,0.4401305,-0.10817777,-0.22464159,0.16628055,-0.43727142,0.23621644,0.31187,0.15285094,-0.3617525,0.38032147,-0.39969686,0.28290477,0.20557672,0.2871066,-0.4332338,0.14741349,0.44367567,-0.19682258,0.25277,-0.10201385,-0.33603397,0.34375712,0.30356464,-0.1882322,-0.23661731,-7.2009285E-4,-0.4259999,-0.30704007,0.40166366,-0.4754061,0.35297728,0.048933577,0.14780785,-0.31319007,-0.35515258,0.044525754,0.13803679,-0.3864352,-0.015011914,0.1254498,-0.18673547,-0.36308876,-0.16723523,-0.34729022,0.20714259,-0.40945813,0.3069414,0.2814402,0.059806228,-0.37220773,-0.181669,0.07916055,-0.27782488,0.093634054,0.1011976,0.2530337,0.11768673,0.22505683,0.2319851,-0.3479621,0.52052975,-0.2696635,-0.30788758,-0.34042743,0.30430585,-0.13623649,-0.14458297,0.041171536,-0.38395104,0.057566565,0.114563115,-0.050503813,-0.29655328,0.05112217,-0.23452176,0.24401203,0.36669514,-0.4402083,0.29880515,-0.043269023,-0.053992033,-0.27506313,0.09633467,0.02200852,-0.13869534,0.15219264,-0.07453162,-0.012041538,-0.23442362,0.42609423,-0.25113592,-0.25366512,0.27977285,-0.23597534,0.24371485,-0.29338238,-0.011491937,0.06546119,-0.4729652,-0.24084148,0.086833715,0.31493545,0.19794288,0.31090376,-0.25100052,-0.43203795,-0.30833218,-0.42398873,0.024206858,0.030302573,0.05603169,0.04532081,0.07545382,0.19467914,0.17715105,0.30342,0.23192741,-0.19243528,-0.3342311,0.0850404,0.32851624,-0.056586903,0.31531549,0.21493658,-0.34309632,0.45321852,-0.10618192,0.32771137,-0.3161563,0.0839487,-0.15423526,-0.033283256,-0.16442281,-0.31129345,0.14376247,-0.37711775,0.008216637,-0.22601616,0.18567754,0.18912995,0.3091759,0.02392993,-0.056505762,-0.38626152,-0.0055969236,0.018061504,0.33684006,-0.31368998,-0.16201432,0.40615046,-0.029260663,-0.27850562,-0.17295663,-0.09890269,-0.34954157,0.30611134,0.0786818,-0.17081067,0.4220261,-0.026539816,-0.38721243,-0.15122426,0.09439527,-0.19431919,0.3560696,-0.295912,0.10645346,-0.040628813,0.29582444,0.18092158,0.02374772,0.19349675,0.22336195,0.38616902,-0.36304256,-0.12195554,0.13537693,-0.17076701,-0.33735046,-0.3414818,0.1690244,0.3169055,0.09331656,0.27424207,0.31180474,-0.26130107,-0.26165393,-0.18896501,-0.32445058,0.36524996,-0.19948836,-0.11163214,-0.08495858,0.368908,0.27877617,0.42761582,0.06145204,0.33056417,-0.19332755,0.104462415,0.3760593,0.0048887106,0.29052553,0.25917125,0.18583877,0.24533495,0.017972842,0.16084042,-0.30670866,0.3596035,0.028006265,-0.41595688,0.26322728,0.18550932,-0.3761206,0.030612612,-0.2995453,-0.16328543,0.29469365,0.16311593,-0.3166296,-0.27769035,-0.021468852,-0.16991614,-0.28374273,-0.32551152,-0.06638879,0.27714068,-0.06547346,0.0035623137,-0.22911096,0.10345668,-0.08013521,-0.003172392,0.073061325,-0.06384581,0.0073300684,0.26001665,-0.025344064,0.09390987,-0.120301545,0.3698636,0.16093199,-0.060064144,0.373277,-0.34901685,-0.002036591,0.034841683,0.10498623,0.18673,0.340271,0.03152453,-0.35755306,-0.34915847,-0.40345922,0.08623031,0.1981185,-0.13098015,-0.018046826,0.3576463,-0.25853726,0.068048984,0.07654539,-0.3726389,-0.06906646,0.29405344,-0.08763277,-0.36102533,-0.19002743,0.17164247,0.18773045,-0.05020755,0.35744637,-0.12833828,0.19454299,-0.23230097,0.4574402,-0.25321627,-0.12924577,-0.32732362,0.2099984,-0.3546126,0.14718051,-0.37663817,-0.34814116,0.3076032,-0.03600977,0.15256226,0.24193655,-0.13525544,-0.037060704,0.117430285,0.12209905,-0.040963672,-0.09087013,0.09613993,-0.100075886,-0.16807245,-0.049885843,0.24768323,0.01756804,-0.21315585,0.28660178,-0.18737946,0.22466779,0.0076964507,-0.16279954,0.1633531,0.26795822,-0.24139826,0.042657405,0.09142179,0.29616937,-0.4324436,0.33356935,0.06057724,-0.2768953,0.031073779,-0.24391279,0.26921874,-0.043227963,0.11181205,0.3554659,-0.4366684,0.20136729,-0.23832986,0.20674446,-0.1477981,0.3470836,-0.36212438,0.36720496,0.11561158,0.28729287,0.26040128,0.009381953,-0.41181445,-0.15790364,-0.114899576,-0.10397367,-0.37397212,-0.2807575,0.22134013,0.28861874,-0.4029696,0.3537737,0.33162576,-0.08376699,0.32100117,0.38144177,-0.27622086,-0.20905884,-0.055185657,-0.14096119,0.08830411,-0.06992944,0.32574815,-0.13105127,0.29960716,0.078436375,-0.07144436,0.08579374,0.21476057,-0.38122535,0.011252175,0.23930411,-0.46414706,-0.014907675,0.017251361,0.023698347,-0.11903423,0.2673514,0.16679004,0.13523962,-0.3454004,0.3176644,0.058227137,-0.25853056,-0.40945402,0.4277234,-0.26060835,0.055790756,0.38293839,-0.040669214,-0.25024584,-0.24499269,-0.3975383,0.13953073,0.28678426,-0.3149934,-0.29142782,0.2328934,0.33485267,0.35755897,0.33780733,0.043573365,-0.32349905,0.025064357,-0.016068507,0.12649742,-0.13803935,0.3554871,0.18576361,0.0556803,-0.04112126,-0.23487107,0.4260157,-0.27208146,0.05396072,0.07302735,0.006426106,0.06321704,0.018436663,-0.3740925,0.14727053,0.35004354,0.018979613,-0.39456078,0.18662852,-0.36968285,0.16761053,0.054318357,0.13764258,-0.32318255,-0.1265532,0.28433964,-0.47490183,-0.13840145,-0.016950127,0.26331142,-0.2317828,0.3667701,-0.095977925,0.27879608,0.22036953,-0.37377498,-0.3575353,0.14183207,0.3166368,-0.38500908,0.03386525,-0.29000753,-0.04438733,0.17198381,-0.32384318,-0.25451097,0.47951683,-0.42710996,-0.3004282,-0.1517793,0.058310155,-0.33285215,-0.10841924,-0.105376646,-0.1957824,0.3356785,0.18998453,-0.0073063932,0.31700337,-0.38462,-0.06815077,0.37627566,-0.029901449,-0.27991158,0.10377672,0.31247792,0.3015541,0.3746787,0.3503074,0.23348601,-0.26149625,-0.17739382,-0.44141215,0.1067427,-0.052724395,-0.36599365,0.121548764,0.34809586,-0.109081976,-0.028136048,-0.06927059,0.20861493,-0.32152602,-0.10566222,-0.30553773,-0.21656202,0.38679883,0.10613695,-0.36051708,0.030721243,-0.028285015,0.11915954,0.03143559,0.08007896,0.22760591,-0.2825539,0.05367197,0.44057855,-0.41763392,0.2384763,0.09485328,0.36997405,-0.41285452,0.0024116368,0.00696246,-0.11723023,-0.26284704,0.31491107,-0.04346474,-0.022347536,-0.15027325,0.18466657,-0.19416033,0.31372204,0.223146,-0.13693188,-0.094929844,-0.024613598,0.14770645,0.17834684,-0.261981,0.17526178,0.13580239,-0.24672502,0.28344834,0.012002971,-0.12962918,0.29977903,0.34258497,-0.29321864,0.30839023,-0.48635843,0.2163387,0.3413748,0.124831006,-0.38088953,0.25137222,0.0055019977,0.21068978,0.031031406,0.22239184,0.009087625,-0.06071237,0.35492298,0.1680175,0.06819954,-0.0740344,-0.31703588,-0.3750926,-0.26362887,0.23197666,0.21101768,-0.26218992,0.1359698,0.3705749,-0.10301613,0.28074017,0.117551446,0.17378898,-0.3468916,-0.15557449,-0.40206462,-0.027282253,0.33312872,-0.3711841,-0.14047804,0.08665472,0.20677786,-0.12817049,-0.2534828,0.23584625,0.09540302,-0.32861125,-0.08631101,0.41997135,0.18916114,-0.100839555,-0.43352076,0.06637645,0.21909633,0.13570084,0.4708206,-0.38141513,-0.1200655,-0.027560228,-0.20947403,-0.16103792,-0.018777765,-0.4169596,-0.11038742,-0.17555426,-0.09306461,-0.19325835,0.44924393,-0.39802215,0.028662696,-0.03225684,0.36818528,-0.00551721,0.28222784,0.30259216,-0.37006137,-0.19237591,0.39120704,-0.4845981,-0.29667014,0.32979476,0.013851956,-0.033585794,0.12739263,0.18967898,-0.19885477,-0.040045347,0.2526341,0.33500373,0.13066605,-0.14310391,0.023995427,-0.3001483,-0.42925146,0.11617946,-0.012667909,0.12499909,-0.15383714,-0.24175271,-0.085492276,0.21642119,0.06620006,0.18759182,-0.13271914,0.34417495,0.309069,0.20786116,-0.1299622,0.38997442,-0.18325344,-0.2147614,0.23650625,-0.1943002,0.25273338,0.22844695,0.40275076,-0.489584,0.10576635,-0.23587212,0.03813711,0.21296841,0.3561048,0.07858318,-0.060142186,0.33959576,0.14559434,0.3238373,-0.27147177,0.43176076,0.22212504,0.22475702,-0.09823853,-0.13464186,-0.34742597,-0.3707416,-0.02188432,-0.10635157,-0.20037638,-0.45610663,0.21357931,0.2035209,0.2665485,0.3366849,-0.047732677,0.19253391,-0.3394505,-0.39038312,-0.26417914,-0.32496718,-0.26389098,-0.2871806,0.113743864,-0.26169965,-0.014049686,0.15709259,0.4074543,0.11591695,-0.17940544,-0.18961245,0.021873007,0.39129922,-0.13856629,-0.038203895,-0.057078503,0.20546417,0.3295501,0.31205207,-0.20549162,-0.4043207,0.16830102,-0.2814071,-0.022513896,-0.17407988,0.2810569,-0.24296343,-0.12079304,-0.21375357,-0.20804769,0.15413257,-0.0068134586,0.10725431,-0.06703897,0.09021177,-0.10311614,0.11347735,0.42547366,-0.22180943,0.123208605,0.07449777,-0.11592593,-0.43290925,0.3417045,-0.4206648,-0.05463462,0.36471266,-0.282746,0.34253523,-0.41095665,0.13882047,0.097596884,-0.24590348,0.08137728,-0.21088131,0.17618556,0.3307356,0.32641682,-0.25809994,-0.20269407,0.08925652,-0.13418512,0.015382549,0.4672784,-0.466355,0.34379417,0.124269836,0.4057929,-0.15152173,0.12528549,0.097979486,0.06109171,0.03659782,0.12916537,0.02896912,-0.40646437,0.38953784,-0.11395075,0.080713525,-0.14243157,0.06529937,0.35749763,0.19833517,0.33022675,-0.20129706,-0.4020076,-0.083043136,-0.21337509,0.18948458,-0.31865144,0.41041425,0.07223184,0.0980142,0.10032533,0.16340779,0.1349749,-0.025671696,-0.46716753,-0.04179259,-0.3054227,0.17600644,0.051205724,0.1191218,-0.29152542,-0.34568816,0.15143517,0.09257324,-0.12909275,0.17301479,-0.27824762,-0.13645072,-0.2852472,0.1470005,0.083139956,-0.3799795,-0.2749507,0.073654756,0.44557178,-0.13202074,0.2866216,0.17673858,-0.087418474,-0.027024698,0.26596892,-0.2742777,-0.24196328,0.3286957,-0.031492524,-0.104305886,-0.28693715,0.29689598,-0.22975688,-0.19157721,-0.28706965,0.40980464,-0.3996849,-0.36594728,0.124500215,0.09246313,0.09853371,-0.37638286,-0.24090953,-0.34660935,0.35534534,-0.010765035,0.21419579,0.22956063,-0.15716204,-0.10506523,0.13451484,0.10373423,0.082352586,0.16509628,0.18381356,-0.28855106,0.30590308,0.14326628,0.17032205,0.1461561,0.15644589,0.38249856,-0.36917523,-0.34755927,0.07104351,0.11503462,0.34630293,-0.2265916,-0.13399005,-0.34293893,0.13683212,-0.1464474,0.3419125,0.18883304,-0.16628036,-0.21541044,0.38719276,0.20331547,-0.4448016,-0.14092514,0.014816863,0.37158254,-0.12738912,-0.33083436,0.36269918,0.39684427,-0.10107798,-0.21585593,0.33001244,0.15567063,-0.18225566,-0.33444098,0.1717055,0.2660665,-0.36986777,0.01027407,-0.14973862,0.0644605,0.21845059,-0.10131645,-0.028825851,-0.37197354,-0.26003364,0.35283646,0.08276782,-0.19369885,-0.32764205,-0.10149271,0.37981927,-0.1040088,-0.25858912,-0.092441715,-0.06714208,0.23401591,0.14203651,0.36699226,-0.1621801,0.092553206,0.16677728,0.38070682,-0.08546334,0.32013983,-0.035746593,-0.32445526,-0.3359129,0.18688062,-0.012370795,0.22356704,-0.27124226,0.19503382,-0.1843506,0.327104,-0.37911868,-0.23307906,0.05427335,0.41151524,0.40444162,-0.091030926,-0.03231093,0.13564222,-0.05828975,-0.27913615,0.38976857,0.089502335,-0.17863451,0.103529885,-0.3367538,-0.40413067,0.22583032,-0.14049646,0.06688395,0.32275808,0.035625875,0.15750821,-0.21011911,0.10227915,-0.42820764,-0.014864318,-0.06632368,-0.23017405,-0.30481854,-0.10786972,-0.21903712,-0.21845934,0.3257516,0.33373964,0.3109908,0.20294279,-0.31015533,0.30321872,-0.28868157,-0.3569102,0.3605476,-0.39716357,-0.1370173,0.009963462,-0.24992853,-0.23809904,0.10967172,0.011611653,-0.15533091,0.43744218,0.07455186,0.23432009,0.11087477,-0.19674128,0.021220211,0.20975131,0.129955,0.09781697,-0.08744295,0.40503737,0.18741046,-0.39371344,0.32315886,-0.060172245,-0.13997664,-0.32059687,0.0154353315,-0.16329129,-0.27957162,-0.19380924,-0.20506339,-0.114002325,-0.12580884,0.20204413,-0.23773319,0.37541744,0.41002807,-0.25632444,0.2941457,0.16221283,-0.32947412,-0.14605333,0.18519543,-0.32416883,-0.29927474,-0.32268614,-0.010794721,-0.013599118,-0.2947401,-0.10869996,-0.14260279,-0.121370025,-0.002469874,-0.24585688,0.40976158,-0.28070822,0.30473375,-0.3273348,0.2839671,0.21875103,-0.38654396,0.08164619,-0.11770271,0.24646571,0.16583799,-0.28816923,0.3393176,0.35569203,-0.32750118,-0.4292127,-0.28557423,0.2738586,-0.31402862,0.009649688,-0.139292,0.1955874,0.26944208,-0.42677456,-0.011904437,0.32886803,0.20968264,-0.3176485,0.15569018,-0.27801132,-0.35043696,-0.048507772,-0.05412873,0.14081681,-0.19767103,-0.030804444,-0.21583563,-0.2927253,0.19931051,0.27507254,-0.40905026,0.11220222,-0.3071018,-0.4005497,0.32529256,0.34708244,0.3311293,0.029706836,0.17250687,-0.029689247,0.17165625,0.07222404,0.06541389,-0.10917474,0.2090517,0.3692514,-0.33166,0.17529444,0.20575015,-0.4399345,0.37915793,0.22945268,0.3871222,-0.2843042,-0.08290728,-0.11054227,-0.1936986,-0.17798309,0.39975432,0.24860545,-0.24517405,0.36379534,0.2857398,-0.021519614,0.3440336,-0.2153634,-0.36656615,-0.41414547,-0.17860062,0.28534818,0.029796075,-0.19652267,0.09641525,0.19962293,-0.25278074,-0.0702427,-0.34606192,-0.11003979,0.07657265,0.09775749,-0.14799432,0.15740694,-0.03569492,-0.30378762,0.19762108,0.06392072,-0.29979688,0.025648477,-0.1667237,-0.24015322,-0.06716751,-0.053386323,-0.361978,-0.23162474,0.44359237,0.11608333,-0.0041340785,-0.17306726,0.42877334,-0.33455324,-0.14872995,-0.23455954,0.30528596,-0.05989255,-0.34434283,-0.4284578,-0.4163078,-0.11727123,0.26826748,0.09961716,0.25888893,-0.12658888,-0.4089152,0.2747136,0.024402505,-0.21094458,0.5416246,-0.32391614,0.13896765,-0.212122,0.25998008,-0.2765337,0.25016308,0.18256326,0.21355477,-0.38622838,0.39212462,0.27291965,-0.028116161,0.12468803,-0.043999083,-0.39587936,-0.21396944,-0.34149012,0.38878366,0.36419865,0.36375487,0.34613818,-0.03822022,-0.18160073,0.20123398,-0.176974,0.01325041,0.026381114,0.33797196,0.11271863,0.1469626,0.22297409,-0.11870884,-0.28406605,-0.10241325,0.09628462,0.18107401,0.22876741,0.15500586,0.1796873,-0.24066754,0.331175,0.13751064,0.19162676,-0.514285,0.20793132,0.2575279,0.2645788,-0.18945765,0.048807368,-0.0016758371,0.33886656,-0.3178872,-0.26866278,0.03249243,0.43508244,-0.07528253,-0.29207894,-0.22719535,0.01544893,0.12386487,0.07057694,0.18825214,-0.07602264,-0.08487429,0.21827511,-0.33350462,-0.04234959,0.22707269,0.009754299,-0.41658178,-0.047063347,0.39612943,-0.3577808,-0.24098317,-0.34861776,-0.083788194,-0.0277312,-0.31445685,0.4020701,0.3190284,0.13787168,0.06469213,0.09941393,0.28646967,-0.29271525,-0.35250717,0.043284245,0.31225657,-0.21159248,-0.20098396,0.08273705,0.20923072,0.12249726,-0.3636551,-0.11339246,-0.09370083,0.42874938,-0.19855654,0.19199345,0.13892548,0.036417432,0.008526774,0.24251945,-0.4310035,0.45422256,0.3371304,-0.3703521,-0.22745827,-0.2879054,-0.22824514,0.04984433,-0.07093734,-0.0501467,0.33256418,-0.4410113,0.025761794,0.30161598,0.2135773,-0.34284332,-0.28871965,0.4005741,-0.21174632,-0.013752457,-0.20006244,-0.09312432,0.40853098,0.15175486,0.19090503,0.1829783,0.07390465,0.12272646,-0.07217437,-0.404119,0.3573729,-0.09536611,-0.1474285,0.43914175,0.019885808,-0.39089778,0.448471,0.052694455,0.20784773,0.049148284,0.25009218,-0.34935322,0.24612598,-0.36010942,-0.43781143,-0.37607035,-0.22970904,-0.329319,0.34974915,-0.20762235,-0.26247138,0.1842456,0.20608707,0.3672526,0.3578971,0.28597492,0.24171,-0.2991099,0.05023239,-0.19639403,0.25467318,0.23556659,0.41962633,-0.23760602,0.05610946,0.2706879,-0.027415408,-0.04009965,0.11052486,0.1252328,0.3846085,0.0418056,0.11812696,0.1926739,-0.4448459,0.15423106,0.111470625,0.22769584,0.32694963,0.17655909,0.04031314,0.39004698,0.11859987,-0.3572096,0.43573046,-0.062131774,-0.12717602,-0.30425546,0.13703872,-0.35485405,-0.075632624,0.29498532,-0.10182045,-0.1071763,-0.07173715,0.039617047,0.05461011,-0.051956713,0.034833934,-0.013770887,-0.052242585,0.21296553,-0.14714868,0.041509412,0.21139619,0.19992569,-0.012540546,0.27042058,0.16743533,-0.42337054,0.33292034,0.18934809,0.33319864,-0.12731788,0.30999222,0.18849741,0.014694327,0.064470105,-0.10331319,-0.46032405,0.17678654,0.18623835,-0.1658671,-0.07732647,-0.25788143,-0.33385402,0.28704193,-0.1836579,0.18655553,0.04496129,-0.21145593,0.041394457,-0.1430276,-0.057815164,-0.3171496,-0.14995977,-0.009560519,0.036893453,-0.3403539,0.3625773,-0.025508903,-0.18607387,0.13362558,0.40366945,-0.15516572,-0.21782334,-0.27951962,-0.2026899,-0.32686776,-0.29874313,0.21717143,0.12143108,-0.05840018,0.37031525,-0.21700701,-0.22577246,0.4681555,0.14423528,-0.3201078,0.32975087,0.006191341,-0.32741594,-0.32399154,0.16443905,-0.11896647,0.33557323,0.18822719,0.33304724,0.06779793,0.16631414,-0.40638983,0.11709771,-0.2451275,-0.0066751665,-0.39021987,-0.16926765,0.35302493,0.2586243,0.08180515,0.20893098,-0.22284682,-0.33763006,0.051104307,0.11869544,0.23722728,0.23117353,0.02965442,-0.27534553,0.16502723,0.35569078,0.25750488,-0.28736797,0.011916627,-0.2215676,0.04639116,-0.3158395,-0.11608353,0.21191445,0.14339148,0.12977894,0.11292094,-0.09839474,0.29672047,0.20278142,0.11349546,-0.2687323,-0.19204666,0.11572181,0.12720172,0.3708176,0.26499766,-0.34566388,-0.33674967,-0.014517037,0.23206833,0.31037188,0.09363137,-0.18322651,-0.12053667,0.26376432,0.0432681,-0.44621003,0.069196425,-0.06489494,-0.09926503,0.32998082,0.30191442,0.036409225,-0.23450018,0.23450883,0.24303529,0.16385417,-0.104177736,0.15760371,0.097544916,0.18832825,-0.24786161,-0.35197535,-0.0896759,-0.06066117,0.40147114,-0.05184725,-0.072426245,0.0958203,0.37727407,-0.19075018,-0.1825046,-0.18910743,0.4346908,-0.25461912,0.37323353,0.18135934,0.15410267,-0.34827724,-0.35304734,0.31857327,0.23152567,0.26722106,-0.28522775,0.3047889,0.4652096,-0.14176504,-0.10585529,-0.250362,0.183197,-0.08720704,-0.25439525,0.06764558,0.05249885,0.26522306,0.17077729,0.25621602,0.20196009,0.12696725,0.34258848,0.1506584,-0.32823318,-0.38127786,0.23767161,0.29016304,-0.124661274,-0.2512786,-0.07191669,-0.2295992,-0.057734758,-0.104490995,0.21365789,0.12976788,-0.25643176,0.4694093,-0.14396459,0.23900367,0.22867854,-0.35124218,-0.07651365,0.21248884,0.030079288,-0.07332487,-0.15008122,-0.3389093,-0.17853032,-0.19625449,-0.19210595,-0.26641247,0.17291188,0.25431198,-0.030160358,0.18103518,0.37947625,-0.02402127,-0.3989394,0.2603009,-0.2557196,0.3001932,-0.11212756,-0.42561373,0.4093706,0.17099069,0.27966338,0.41671783,0.34261516,-0.25136438,0.095942564,0.11546582,-0.254029,-0.41722217,0.371427,-0.06599503,0.3488893,-0.40615225,-0.07554639,0.048820283,-0.06532864,0.16755943,-0.32503575,0.32212135,-0.28348106,0.46539724,-0.33897382,0.07944696,-0.27042764,0.3031016,-0.34470633,-0.018675694,-0.052565947,-0.05719515,0.2666991,0.15470907,-0.17332047,0.06531159,-0.13492472,0.26318717,0.42693475,-0.45676997,0.2641175,0.40049237,-0.23306344,-0.06534764,0.11518406,-0.018508824,-0.023241159,0.15578192,-0.3782346,0.26531935,-0.09562835,-0.24731465,0.16942674,-0.31515586,0.17750993,-0.33515987,-0.2018147,0.2156476,-0.0012225871,0.10948245,-0.069239,0.4005552,-0.227561,0.41787562,-0.020384325,0.2097734,-0.15616994,-0.27983642,-0.17035964,-0.021826254,0.03866161,-0.20464674,-6.658872E-4,-0.29389015,-0.109651595,0.44644168,-0.13558705,0.28502008,-0.09200138,-0.06299016,0.42976642,-0.31901127,0.08097199,0.15269221,0.20332243,-0.042716842,-0.22726004,-0.3876764,-0.07343484,0.23844579,0.11326363,0.2788992,0.1302454,-0.17471886,0.105537966,0.06553222,-0.3998526,0.36310333,0.16103509,-0.14784406,-0.12919046,0.24924752,-0.12729248,0.04574128,-0.32839602,-0.42748758,-0.053227514,0.20066844,0.37287852,-0.14312746,0.22951914,0.14374359,-0.2672273,-0.11791039,-0.16596794,-0.35603485,0.42011517,-0.38453496,-0.10945032,-0.26229703,0.12479981,-0.19594654,0.43535268,-0.34885603,-0.2581299,0.39387906,-0.14914341,0.28647652,0.04438403,0.24432738,-0.13564114,0.19370557,-0.291623,0.35917136,0.16575888,-0.2319566,0.020093009,-0.36426717,-0.1524317,0.06897986,0.047253586,0.3245507,-0.064318135,0.40125334,0.05514429,-0.19007754,-0.28978765,0.09198794,-0.17430718,-0.018951945,-0.19858699,-0.2738653,-0.26184985,-0.27725896,0.121118896,0.2838429,0.21990567,0.023012388,-0.24772674,0.26646048,-0.34268716,0.042735342,0.15502922,0.045376424,0.12772432,0.27972773,0.070514284,-0.4525876,0.35762268,-0.2035942,-0.4222634,0.4138238,0.3821493,-0.22648714,-0.36097464,0.0464436,0.1964224,0.32814735,-0.23608512,0.34583244,-0.19012025,0.11346167,-0.12471345,-0.029933302,0.14152388,0.4026732,-0.11574815,0.2297893,-0.11693608,-0.05090819,-0.36372122,-0.019421095,-0.25074756,-0.22389606,0.4049356,0.043241616,0.05071525,0.18983063,0.43021163,0.019071594,0.03130439,0.21290407,0.21960962,-0.06969185,-0.22912993,-0.15464084,0.15519126,0.1542433,-0.36449444,-0.38911077,0.2497207,0.021421455,-0.21236391,0.42231992,0.1711861,-0.24779989,-0.050985318,-0.10439829,0.073187634,-0.2629345,0.14558223,-0.29058117,-0.34486392,0.057331964,-0.27658516,-0.157219,0.101136446,-0.43483257,0.35874933,0.008964585,0.39081156,0.0039454927,-0.28571332,-0.35818818,-0.013720862,-0.39273196,0.36704805,-0.016160453,0.432517,-0.23240806,-0.1977777,-0.100517794,0.3609471,0.0745333,-0.09487905,-0.18350501,0.035833385,-0.20278712,0.32335645,-0.17364453,0.32727483,0.13744013,-0.11453021,-0.22753564,-0.18341634,-0.21122631,-0.068506464,-0.043829247,-0.04037094,0.0029991632,0.27350378,-0.34033033,-0.11936031,-0.12926994,0.3614738,-0.22936426,0.20343456,-0.25380844,-0.1934036,0.259881,0.24712184,-0.24720389,-0.10575123,0.3649546,0.18599255,0.3463915,-0.017813921,0.22325929,0.33050638,-0.18900557,-0.31290126,-0.28800675,-0.45947015,0.15175822,0.20408118,-0.35729277,0.11283344,-0.40076762,0.09989695,0.05498884,0.3067095,0.33251265,0.18382475,-0.22083966,-0.3593331,-0.19157492,0.2640362,-0.098173484,0.0060547832,-0.19585283,0.21245003,-0.022888089,0.22110459,-0.16300341,0.06057191,0.08252889,0.23067883,-0.2943901,-0.09000873,0.031810984,-0.22733921,0.49407345,0.12663975,-0.24154758,0.16812302,-0.35215363,0.12881963,-0.33349463,0.06408001,-0.21217085,-0.36865276,0.37551296,0.03473998,0.17134148,0.10484468,0.18861182,-0.2892136,-0.08601781,0.3180988,-0.40158337,0.44657132,-0.24229039,-0.17583072,-0.44974893,0.31327137,-0.022285067,0.13901143,0.016679663,-0.11356204,0.36732614,-0.0070499256,-0.1729145,0.43250793,0.06918597,-0.12532435,-0.25378218,-0.1571373,-0.18329197,-0.36056978,-0.29425976,-0.4357124,0.4328079,0.37642345,-0.3283523,-0.29865533,0.4032427,-0.19127047,0.38131914,-0.010481674,-0.28714105,-0.18759167,-0.26659533,-0.30772248,-0.33451185,0.03621951,0.093458526,0.32526597,-0.3926716,0.41796777,-0.38026488,-0.24414617,0.0018196694,-0.354555,0.004372248,-0.08045825,-0.14153466,-0.33282962,-0.23756997,0.3900986,-0.14203246,-0.036180496,0.32509503,-0.004116326,0.42424184,0.28420937,-0.35897827,0.19691582,0.28209668,0.048864603,-0.40237388,-0.3585917,-0.11339516,-0.3488616,0.32131344,-0.09999986,0.017344827,0.23184143,0.14112863,0.38441435,-0.28717253,0.23094139,-0.2511888,0.10239934,-0.1340435,0.017304862,-0.34644708,-0.44384575,0.20678483,0.4888558,0.11824994,-0.114643164,-0.18383713,0.41066557,0.19258945,-0.06358194,-0.052580956,0.14335382,0.038695633,0.14614733,0.19828683,0.11376643,-0.34925544,-0.18327302,-0.32796803,-0.1711762,-0.42706376,0.2671568,0.36930642,-0.08127062,0.12235934,0.3220151,-0.32800573,0.20903547,-0.37730795,0.2446825,-0.14335236,0.26101753,0.041901246,0.34580913,-0.44072136,-0.2677832,0.19130585,0.15641806,-0.028278064,-0.31949463,0.32106775,0.14538577,0.10680198,0.07044966,0.07394675,0.107736506,-0.39942178,-0.055961303,0.2720634,-0.25336692,-0.004499272,0.36593193,0.06674148,0.2515102,0.25636703,-0.47952324,-0.029655596,0.04159487,-0.06288877,-0.46070147,0.23232174,0.1977538,0.1643421,0.27513063,0.17200875,-0.53123283,0.42568383,-0.2035931,0.0508926,0.17937052,0.23466784,0.042920027,-0.22531736,-0.44520575,0.41227448,0.050924275,0.22178118,-0.18347941,-0.20689555,-0.36907566,-0.2232805,-0.0039871866,0.12389206,0.41566956,-4.995686E-4,0.31272024,-0.26304597,0.04810435,-0.16115429,0.03931764,-0.26866952,0.23323002,-0.24145803,0.08267935,0.32505137,0.101728134,-0.14088301,-0.21653204,-0.29034498,0.24939853,-0.27038074,-0.20592932,-0.032466672,0.059163038,0.12603173,0.13569976,0.0011224736,0.4220165,-0.21021907,-0.2325751,0.054309387,0.11009397,0.3472555,0.24713609,0.20614725,0.07482174,0.24963957,0.39925724,-0.20839947,-0.40935242,-0.40317166,-0.43007594,0.24977323,-0.42058462,0.17660329,0.18729304,-0.32973653,-0.018917779,-0.2250426,-0.17185256,-0.1020704,-0.1729576,-0.30165362,0.16063921,-0.34147415,-0.33521304,0.33088538,0.20062095,0.15508944,0.3438915,0.30906862,-0.07561525,-0.36705723,-0.23638786,-0.26270738,0.2504859,0.34085497,0.059889827,-0.14421102,-0.19795738,0.19801278,-0.24286042,-0.31077075,-0.26966158,-0.36265722,-0.2427703,-0.10725692,0.39277956,0.3543549,0.12035078,-0.47228712,0.051325675,-0.16262923,0.25846538,-0.11630746,-0.2417997,0.24622716,-0.017243726,-0.41175368,0.0054751514,-0.023481632,-0.040927183,-0.4160768,0.3256979,0.28079867,0.30689996,-0.25550452,0.36937162,-0.40231386,0.13233905,-0.15964943,-0.37962455,0.12785314,0.28369418,0.07350662,-0.13081211,0.15202335,-0.2636274,-0.05174964,-0.1846073,0.13647,-0.13198118,0.14332362,0.03095539,-0.13965431,-0.20031805,-0.08832992,-0.09114748,0.07916531,0.058599282,0.24030308,-0.15831651,0.41382733,-0.10197742,-0.26576665,-0.12076128,-0.046377216,0.36950138,0.079364754,0.4145826,-0.31240618,-0.22882986,-0.19721523,-0.13396451,0.49068096,0.0987644,-0.30689868,-0.14789732,0.04357326,-0.19412172,-0.13748224,-0.07385997,0.11686012,-0.081870385,0.17757605,0.26017648,-0.16398956,0.27124473,0.07684979,-0.25938398,0.42330343,-0.16969793,-0.1286568,-0.1535653,-0.13531204,-0.24566047,0.20084065,-0.2932385,-0.03675569,-0.073296994,-0.2040525,0.38919038,-0.097090565,-0.42263967,-0.2754091,0.30744222,0.12790528,0.10702871,-0.38957092,0.096026264,0.06010547,0.12042,0.1725978,0.06292523,-0.20346282,-0.1859518,0.093044564,-0.15854108,-0.51079386,-0.091990225,0.1815797,0.16157208,0.09059935,0.23424612,0.3588606,-0.098205,-0.27269185,0.2854012,0.24964133,-0.27252367,0.06579185,0.1992889,0.13952121,-0.18476285,-0.0014584814,-0.037803724,-0.3660421,0.20772588,0.00954312,-0.2232925,0.13652533,-0.3729397,-0.16198058,0.29457682,0.42113787,-0.22357866,-0.34788224,0.24440005,-0.36622024,0.2594642,0.15764168,-0.32676697,0.35144833,0.32165578,-0.3358411,-0.003992979,-0.38740236,-0.05349983,0.22389269,0.40510795,-0.29355502,-0.0064578555,0.3600057,0.11040666,0.1604213,0.16733596,-0.4604239,-0.06947403,-0.107813165,0.1870014,-0.33532134,-0.26901248,0.25869942,-0.11477335,-0.10214034,0.14903179,0.21309663,-0.32336846,0.2753342,0.042783845,0.13282399,0.30860326,0.06326307,0.09962496,0.22043848,0.2335969,-0.007721915,-0.026976565,0.28890455,-0.20655786,-0.41097027,0.08411619,-0.15454137,0.33014536,0.0809663,0.02686187,0.08585653,0.2946615,-0.4033834,-0.24237853,0.018195044,0.21458185,-0.14845774,-0.12810874,-0.28583163,-0.19928057,-0.22848798,0.12111959,-0.20882572,-0.117699124,0.34293538,-0.12908794,0.23092529,-0.03574267,-0.113851525,0.1831511,0.16827513,0.3610086,-0.24137037,0.27957132,-0.09255683,-0.14091693,0.029409915,0.27354908,-0.1770187,0.059705846,0.27575675,0.03570333,-0.16888638,-0.5732227,0.38410205,0.33230618,-0.048715964,0.23294705,-0.031896353,-0.090228364,0.40776873,-0.26945367,-0.15139762,0.31054488,-0.031171756,0.23355073,-0.2766814,0.28292733,0.049658902,-0.32680908,0.117481664,-0.18351376,-0.35184684,0.22196794,0.17773286,0.31899935,0.045285225,0.05454494,-0.2951914,-0.36680332,0.053967215,-0.007804463,0.19255055,-0.22379181,0.20102368,-0.3492454,-0.27025065,-0.3586592,0.29860723,-0.4243689,0.36669096,0.16179457,0.28791437,-0.35372335,0.3337903,-0.10490349,-0.13570668,0.06305401,0.3784618,-0.108870015,-0.33861908,0.01852685,0.14630431,-0.1439281,0.31993312,0.009927355,-0.1831797,0.051170196,0.12725465,-0.11552412,-0.22408365,0.15576889,0.06839133,0.1925338,-0.052807666,-0.19948587,-0.1300823,0.07719683,-0.4081268,0.2777922,-0.30471087,0.39278784,-0.21491933,0.0989268,0.11750875,0.41577598,0.15726475,-0.41952324,-0.09404787,-0.23360245,0.045254312,0.02658526,0.26532173,-0.25676262,0.06401948,0.15034708,0.06206688,-0.4485291,-0.1361122,-0.37994182,0.18485914,-0.4108384,0.35485515,0.33860743,0.3708053,0.3292255,0.13343677,0.42381948,-0.08646511,0.12373548,0.05369656,0.06729051,0.3364335,-0.15390864,-0.34358013,0.09835473,-0.4200455,-0.16902478,0.49064276,-0.29829702,-0.008734641,0.41643178,0.022091448,-0.19769453,0.3921121,-0.14554523,-0.09062861,-0.31670928,0.05993362,0.10194882,0.34336698,-0.061693612,0.1604652,-0.019478919,0.009242253,-0.1427156,0.13780771,-0.32074556,-0.08013416,0.0931182,-0.34485433,-0.111974,-0.23340224,0.095099546,0.42544833,-0.1347248,0.09060576,-0.33220357,0.15070775,0.17274895,-0.34047574,-0.16914088,-0.29936945,-0.10128814,0.05417229,-0.1563371,-0.4887394,-0.38324127,0.1613746,0.009348128,-0.1046162,-0.2128931,0.086768344,0.015978044,0.18110768,0.14043568,-0.01244157,-0.11615066,0.28787068,0.40890953,-0.4017434,0.10348875,0.013740512,-0.39097035,-0.15908496,-0.33575675,-0.2896491,0.1297923,0.18939173,-0.20813505,0.3458915,0.1164681,0.255626,0.1456694,-0.07789658,0.48618394,0.20743044,-0.2691354,-0.32927528,0.23658386,0.28324908,-0.2844105,0.242502,0.3102623,0.07845122,0.060459636,0.07014645,0.3188024,-0.49612334,0.062375315,-0.011066858,-0.378,0.31385458,0.27897534,-0.15214303,-0.18280973,-0.21496166,0.27439758,0.18789212,-0.23715244,0.18397053,0.20597908,-0.08523553,-0.24081632,0.23065299,0.27770546,-0.38138834,-0.31167915,0.078774795,-0.32938507,0.4339202,-0.081237264,-0.0026450094,-0.26100203,-0.25650394,0.020951431,0.2721507,0.16000845,-0.35477695,-0.04533613,0.0048330994,0.12881255,-0.24801901,0.04766603,-0.05503058,0.2641173,0.29211342,-0.074145295,0.24523067,0.38371378,0.077361956,-0.42178312,0.23427832,0.0752287,-0.22709374,0.10186402,0.3039285,-0.08201906,-0.4282084,0.35154045,-0.14142562,-0.47444898,0.17497124,0.161096,0.15788323,-0.20245086,0.05406472,0.26487362,-0.20152043,0.32293645,-0.2238547,0.30371207,-0.0972458,0.3126696,-0.26594335,0.12168232,-0.36407232,0.016729247,-0.42015323,0.47553328,-0.24246824,0.18455245,-0.060658365,0.16075289,0.17138022,0.28842807,-0.2672564,0.1663133,-0.1355655,0.022900699,0.040289145,-0.28357974,-0.26069087,0.28684357,0.17656158,0.1185311,0.052433368,0.022791212,0.09333949,0.30578384,-0.14700907,0.1255939,-0.13514341,0.17069513,0.2725191,0.030988488,-0.033097684,-0.13365729,0.31001198,0.21680798,-0.12033771,0.27985147,-0.2392501,-0.23938376,-0.034433994,0.36695844,-0.23030734,-0.09001672,0.10480934,0.019425174,-0.36063167,0.007695559,-0.05015953,-0.110064134,-0.3952027,-0.19873804,0.35580334,0.47077793,-0.43367505,-0.13751009,0.22998276,-0.1526636,0.29448274,0.08191697,-0.24057434,0.13300024,-0.10063326,0.4454417,0.24601583,0.27317497,-0.04741629,-0.10513483,-0.3806669,0.3040291,-0.2986707,0.23122723,0.39633337,0.24170707,-0.4558802,0.4680222,-0.028456187,-0.14665103,0.27845532,-0.09123735,0.11983279,