0.011134609,-0.26503626,-0.08135513,0.24318345,0.28302693,0.014217941,-0.042258978,0.06507667,-0.262875,-0.35940704,0.25409755,-6.014674E-4,-0.054968394,0.14712998,0.087470286,-0.25502685,-0.42105848,0.14536485,-0.120599605,0.24097015,0.40990242,0.3246452,-0.08859697,-0.20611826,-0.12775072,-0.023133766,0.23581438,-0.06478454,0.13278979,-0.3388552,0.084345594,-0.08346213,0.4548037,0.27857292,0.2977801,-0.21984264,0.18875076,0.36407945,-0.14121337,0.34557605,-0.15768506,0.094777405,0.19476607,-0.061320405,-0.2230063,-0.102127716,0.050511163,0.0144555215,-0.34557524,-0.25184295,-0.3235821,0.1269071,0.30977935,0.17786305,-0.31926098,-0.3057082,0.09057176,0.03817541,-0.06286266,0.058555644,-0.1862142,0.25171807,-0.26565388,-0.022822829,-0.056258805,0.052804418,0.22583911,-0.0948655,0.07232569,-0.088358924,0.29094332,0.02366325,-0.1402571,-0.15400267,0.2205681,-0.47901326,-0.1383475,0.060548216,-0.15889974,-0.18070832,0.20966952,-0.077342436,-0.1549362,0.097093515,0.081184626,0.2176467,-0.28899887,-0.1652587,0.3500995,0.14475732,0.03450366,-0.22127968,0.23750626,-0.17358942,0.141543,0.102857865,0.30629027,-0.087998345,-0.06402928,0.08483341,0.22978324,0.044830978,-0.15400442,-0.05158444,-0.10345649,-0.05284894,-0.26858407,-0.042452816,0.31697652,-0.16950083,0.17561814,-0.15344271,0.28745577,-0.23055287,-0.043270726,-0.053619806,0.12262057,0.2766678,-0.1486684,-0.04175653,-0.097929895,0.024679642,-0.20321958,0.14082292,0.14075485,-0.11785869,-0.2195916,0.06361231,-0.20260344,-0.389554,0.23376875,0.010309182,-0.1564745,0.08537792,0.29602876,0.21272126,-0.2528558,-0.28871566,0.049402647,-0.09443118,-0.048497353,-0.07096889,0.19157176,-0.2844766,0.1846601,0.35569474,-0.27005908,0.13470656,0.16958888,0.16970031,0.13454726,0.11209382,-0.07562482,-0.33453628,0.03244428,-0.36281964,-0.01843542,-0.099578254,0.15189938,-0.21886747,0.3817108,-0.08658192,0.18172242,-0.11201121,-0.19486503,-0.079973154,-0.018829195,-0.07155945,-0.088911265,0.12065649,0.21183057,-0.16858132,0.04647179,0.18732011,0.22788371,0.41823292,0.041853208,-0.051463086,0.19451234,0.41482833,0.095154405,-0.17925304,-0.15570056,0.04678542,-0.43003124,-0.17025685,-0.3097908,0.28588718,0.28904358,0.25632778,-0.23513357,0.10494256,0.17131224,0.32140636,-0.18933815,-0.26612175,0.20224702,-0.11846843,-0.1764631,-0.114201576,-0.25990626,0.1785774,0.030803816,-0.1109433,0.04546813,-0.06813506,-0.18570238,0.16496739,-0.29211795,0.11864243,0.43452904,-0.15250531,-0.21184061,-0.3290537,0.1498051,-0.13595591,-0.13509111,0.10823033,0.1927804,0.26090387,-0.11905925,-0.2949943,0.15106285,0.31125957,-0.016279686,-0.36862326,-0.1867592,-0.049872715,-0.32284218,0.12847693,0.16095093,-0.23506477,-0.13628785,-0.12938133,0.11173975,-0.007839097,0.04598877,-0.19906734,-0.057607003,0.11731154,0.11122171,0.2787902,-0.018822582,0.29647678,0.13166372,0.07013087,-0.1340526,0.29349795,0.24513434,-0.18819799,0.063528016,0.3394926,0.1963035,0.18188469,-0.36842972,-0.29285553,0.18881862,0.046697296,0.17977433,0.14505441,-0.07255415,0.12873413,-0.3987591,0.11136938,0.22515754,-0.088034414,0.05804584,-0.39023414,-0.3141176,-0.1732506,-0.18067811,0.09914203,0.1014308,-0.06787461,0.2297187,0.17618278,0.0913532,0.053504962,0.30300927,0.06947046,-0.2238026,0.061311297,0.31670678,-0.04223302,-0.0039452324,-0.22969374,-0.042122208,0.15315315,0.29158098,-0.3454594,-0.34012058,0.23747358,-0.50827986,-0.14840874,0.081342265,0.26144046,0.085882254,-0.20140691,0.10027852,-0.09597319,0.1943197,0.2676511,-0.4224845,-0.42798492,0.18644486,-0.14150916,0.26831207,0.16216457,0.27247384,-0.015531178,0.0074163694,0.046710376,-0.21810474,-0.3141923,-0.09922418,0.0992571,-0.097202584,-0.20772162,0.07492228,0.17572224,-0.13403583,0.11891322,0.11456109,-0.29352644,0.19988845,-0.06307561,-0.2600652,-0.25206313,0.10883514,0.03994263,0.024188679,-0.23082688,0.053810656,-0.26077875,-0.18309987,-0.17248282,0.20908566,0.009972825,-0.11738329,-0.24527016,0.2704455,0.074564494,0.20338906,0.31856313,-0.0011948294,0.20866953,0.20604281,-0.3400806,0.022016285,0.19100685,-0.07069589,-0.08580472,0.09815772,-0.4304851,0.1715027,0.027826084,0.016071636,0.013141525,0.046940528,-0.3230752,0.24631518,0.32325035,0.028997878,-0.29554766,-0.27584594,0.39334553,-0.20101143,-0.19435911,0.31379905,-0.06964216,-0.30953446,0.15943745,0.2312493,0.24107179,-0.19265315,0.37582266,-0.02100435,-0.051842734,0.111579806,0.027441384,0.15031524,0.35649064,-0.38115147,-0.27507433,-0.052877024,-0.29672474,-0.29756567,0.10875028,-0.31884587,-0.063815534,0.30520618,-0.14606887,-0.3243837,0.40311864,-0.23861927,0.37061712,-0.22093816,0.23624891,-0.3231724,0.28101313,0.39248532,0.21524245,0.549326,0.13073961,0.059580766,0.084637016,-0.27997538,0.041257076,0.14835395,0.21663105,0.13661468,0.11770597,0.1513053,-0.27900794,0.11329524,-0.16565995,0.036695484,-0.1053798,0.024816267,0.1564066,-0.24115035,-0.15500522,-0.117162354,0.008163441,-0.17962562,-0.203421,-0.17715402,-0.26809856,0.14349629,0.04834442,0.36927408,0.26056543,-0.29693016,-0.16678143,-0.16375239,0.09722096,0.27011403,-0.32498604,0.32615763,-0.25739458,0.027651891,-0.05324245,-0.13789243,0.24714139,-0.094371445,-0.3149666,-0.23384011,0.29756358,0.16837056,0.1783382,-0.4401675,0.4443458,-0.124073975,0.23021126,0.016031655,-0.12686023,-0.35588086,-0.18151174,0.2835768,0.28745562,0.34734836,-0.22038934,0.08375457,-0.0010419346,-0.008459483,-0.018268792,0.22410661,-0.2953134,0.13312341,-0.22949271,0.055972595,0.25805104,-0.004019199,0.0042077973,-0.20679663,0.27789444,-0.17500569,-0.16397613,0.25003737,0.1654936,-0.3412265,0.12349995,0.10210334,0.0946148,-0.13113979,-0.29896387,-0.2073694,0.17679848,0.003731271,-0.21176593,0.021968989,-0.342704,0.17943883,-0.047142144,0.07648083,0.316154,0.21966152,0.17048588,-0.09247612,-0.14942767,0.050843112,-0.01201142,0.36975443,-0.24301822,0.27085322,-0.10397316,0.011048025,0.19617169,-0.13200562,0.12523401,-0.31651253,-0.21696737,-0.052240595,0.40206215,-0.19771948,0.12028152,0.31787187,0.14871334,-0.05122355,-0.25844267,0.13158622,0.10253748,0.10895788,-0.40166688,-0.15881924,0.49423414,0.42816728,0.045072652,0.20883527,0.43935618,-0.11275887,-0.44801828,0.047194563,0.15966667,-0.0831427,-0.16720952,0.21459307,0.016765665,-0.1559445,-0.3794484,0.26821804,-0.26515868,-0.21252431,-0.15921032,-0.19596604,-0.079241514,-0.26595944,-0.24755584,0.35003415,0.15272309,0.27578688,-0.23338784,-0.39450747,0.09510661,-0.26114094,-0.058262095,-0.023625545,0.2014499,-0.28293997,-0.352055,-0.35260102,0.19719218,0.35593227,0.060583867,0.08040639,-0.17097473,0.2643758,-0.059304867,0.22341558,-0.022863163,-0.14915113,0.29237682,-0.08658869,0.09885614,0.089627974,-0.41007152,-0.16522846,-0.32845283,0.3385192,0.14879672,0.07897214,0.32821757,0.10441911,0.15528989,0.13838843,-0.11770501,0.08401686,0.073004335,0.0057311095,0.23793112,0.11813982,-0.087199844,0.078992344,0.032525245,0.21853493,-0.14584123,-0.10199023,-0.27486852,-0.021901336,-0.09283315,-0.027555518,-0.3285408,0.121198095,-0.24732277,0.11736799,-0.040413126,0.18903098,-0.04197168,-0.23468599,-0.12940037,-0.12816134,-0.06001161,-0.29346448,-0.29060543,0.32268298,0.11090554,0.1594717,0.1260953,0.11736958,0.025143843,0.35025683,0.04655689,0.2932177,-0.22340742,-0.0730426,-0.31529146,-0.15147145,0.27096328,-0.12681256,0.46794197,0.24805331,0.30568072,-0.25991583,-0.10052704,-0.08488982,-0.009729553,0.23284672,0.19534087,0.13972335,0.2934345,0.09699325,-0.32914576,0.23867668,-0.10760015,-0.2961107,-0.03577514,-0.08808115,-0.13347729,-0.04419589,-0.2389516,-0.034924775,0.06879207,0.45393646,-0.05442256,-0.22377329,-0.39052737,-0.11212389,-0.5270769,-0.1405809,0.30584025,0.099634305,-0.0071857036,0.040984537,-0.1071336,0.3385542,0.30734882,0.16123636,0.25958744,-0.1682093,0.099188074,-0.28071108,0.06391927,-0.289789,-0.09879154,0.2893598,0.19595733,0.14469217,0.21012352,0.118706495,-0.11050477,0.31578428,-0.24737027,0.20494795,0.008341892,0.3093891,-0.34265018,0.011380136,-0.13297498,0.30324525,-0.34350526,-0.3363182,0.013233565,-0.14971532,-0.24576594,0.14952826,0.13425234,-0.07249978,0.073888145,0.04077019,-0.28955713,0.010157755,0.12772308,-0.46788582,0.16966325,-0.44517016,0.35378075,0.16579333,-0.1319665,0.18204883,0.2984565,0.23125625,-0.251715,0.08306825,0.12009083,0.13622291,-0.08200139,-0.15874821,0.23111372,-0.35918397,0.25435916,-0.44197243,-0.28912905,0.17463276,0.13500857,0.06710225,0.4013,-0.2163666,0.34917748,-0.36801752,-0.20278731,0.24357302,0.3488716,0.39102003,-0.1718275,-0.19909944,0.09497283,0.096994676,-0.075610854,-0.035284646,-0.087897085,-0.14135623,0.19332717,0.06502881,-0.11258717,0.0146809695,-0.19316404,-0.26507562,-0.109449364,0.21596768,-0.14365047,-0.084085874,0.24049324,-0.18630248,0.19037278,0.34189606,-0.2835406,0.19407387,-0.107145526,-0.45664838,-0.029047623,-0.09919812,0.018931499,0.21789011,-0.3294348,0.1505138,-0.1633046,0.20263009,0.34297326,-0.13855764,0.20212898,0.095270395,-0.025150089,0.018789107,-0.20510833,-0.10873473,-0.18865299,0.079195976,-0.2090742,0.18345743,-0.6011053,0.1989131,0.27242854,-0.26219824,-0.2825559,0.12869374,0.18862024,-0.06083336,0.0031782396,-0.2225804,0.09121978,0.29290128,-0.3750349,0.1645793,-0.21560898,0.3400462,-0.19992994,0.22168033,0.08102052,0.10785652,0.05990318,0.004950488,0.18305328,-0.081123166,-0.0057452554,0.07920392,0.30955446,-0.19091608,-0.10175997,0.060370665,0.04922827,-0.23582673,-0.076816164,-0.17957646,0.33318394,0.0132890325,0.07831141,0.29641125,-0.15090969,0.035134684,-0.26324314,-0.11564756,0.22925593,0.16620131,-0.074578844,-0.23763753,-0.075442426,0.15007687,0.3903383,-0.23629344,-0.04309209,-0.12447253,0.20058209,0.2569012,0.13260543,0.11709102,-0.01696311,-0.3280713,0.30932474,-0.16249275,0.14689133,0.15852085,0.07647419,-0.16701484,0.0135485595,-0.12989278,0.12017676,-0.38576117,-0.17148317,-0.12400356,0.17486283,0.08188329,0.12861153,0.31387967,-0.1163228,-0.40022692,-0.15909661,0.06189595,-0.2506893,-0.038231045,0.19199355,-0.0999981,-0.13253209,0.22051193,0.29449958,-0.25366917,0.043216087,-6.2705367E-4,-0.061025094,0.2289761,-0.1824426,0.40769267,-0.18669538,-0.25183955,0.14900504,0.04006752,0.09807136,-0.33882383,0.0854893,-0.2329499,-0.13756472,0.024314947,0.17709161,-0.0055653453,0.09139237,0.17826079,-0.31821144,-0.06282546,0.024095386,0.01486215,0.10341983,0.04589565,-0.08866915,-0.2150707,0.18358022,-0.07132655,0.27164274,-0.17518428,-0.0022878463,0.10632397,0.047605515,0.09238303,0.34270066,0.034446966,-0.18962024,0.15746675,-0.28765947,-0.02029221,0.13059907,0.27252463,-0.27579877,0.22763635,0.24907544,0.024343286,-0.11466282,0.16485235,-0.055759817,0.19534034,-0.2448867,0.20178272,-0.19835792,-0.23479037,0.25276238,-0.16998893,0.073081896,-0.35919878,0.43965572,0.08382527,0.36503452,-0.077636234,0.16476977,0.09921165,-0.20329988,-0.29721895,0.011337518,-0.2915336,-0.24127647,-0.12592356,-0.2326303,0.36016086,-0.29517838,-0.21222259,-0.052784983,-0.26111385,0.009185676,0.12328283,0.21899575,0.2005153,-0.0815446,0.039141364,0.12062758,0.25541294,-0.45336407,-0.07079814,0.04071595,-0.1312117,-0.1906482,0.12970112,0.046129476,-0.24545416,-0.04392991,0.06141474,0.18184781,0.16537128,-0.18743056,0.3342678,-0.30985788,-0.16868874,0.37269953,0.048242513,-0.066783555,-0.2684756,0.21143532,0.04826751,0.40119585,-0.30261138,-0.1648797,-0.25940418,0.2993678,-0.346352,-0.06798416,0.17319639,0.017294174,0.31749225,-0.3326586,-0.24871881,0.044082783,0.21620305,0.081152,-0.26449388,0.17433879,-0.12308975,0.10218853,0.006952881,0.33803648,0.034282427,0.20017561,-0.04567764,-0.033537716,0.09937652,-0.14875235,0.25675607,0.058922425,0.22893567,0.14435591,-0.43374586,-0.05963874,-0.050568525,-0.30906594,-0.091576874,0.080888025,-0.3367902,0.14772661,-0.13369243,-0.18374069,-0.041537285,0.013647656,-0.2449537,0.12141182,0.1375208,-0.13708219,0.10675523,0.10958745,0.18292989,0.27881432,0.023047313,-0.15739343,0.049414776,-0.27148187,0.28135097,0.010087881,-0.06520048,0.0029459896,-0.28961056,-0.04249853,-0.33382556,-0.0064528496,-0.07881565,-0.18855587,0.12998644,0.29079527,-0.11120868,-0.0517588,0.100132026,0.27182952,0.20814799,0.19488154,0.28482398,0.0179092,-0.303895,-0.028473113,0.15616405,-0.019599162,-0.5495164,0.118231274,0.027657421,0.07869793,0.10967097,0.07270563,0.08909411,0.23655362,-0.26889154,0.037794992,-0.08213269,-0.30718425,-0.23940119,0.1646251,-0.08177255,0.21972872,0.024347626,-0.09227889,-0.24324754,0.30186558,0.2885969,-0.10951708,-0.027194334,0.053297,-0.20997286,0.066280946,-0.32968247,0.3302677,0.22120515,-0.13003527,-0.08995236,0.17174108,0.07506642,-0.29245177,-0.18882737,0.118149586,0.11930751,-0.25728333,0.2451723,-0.13006969,0.07189967,0.29976064,0.12263654,0.24914655,-0.04467656,-0.14667933,-0.3629083,0.20773607,-0.1181,0.087853044,-0.31100652,-0.06695257,-0.22958028,-0.12390421,-0.004328593,0.053127773,-0.2708528,0.23682733,0.30130395,0.20092715,-0.24911748,-0.3390234,0.26375788,0.011232488,-0.05973026,-0.32905358,-0.017595235,-0.25125286,0.42255428,-0.025997268,0.28793052,-0.021525359,0.019250687,-0.024826732,0.23441783,-0.2829877,0.38301522,-0.259724,-0.084803015,-0.14880478,0.19547962,-0.13931157,0.03807319,0.22614974,-0.28689462,-0.22934861,0.20249106,0.08936898,-0.09882708,0.08216161,-0.21437375,-0.24693678,0.012640239,0.22550951,0.07223079,-0.25276294,0.28541493,0.11115141,0.15490064,0.034819905,0.23630098,0.16166227,-0.06290588,-0.48190114,0.23486693,-0.1616801,-0.19597924,0.2095017,0.27596405,0.039452694,0.2889818,-0.1883526,0.0015112375,0.2318191,-0.013040664,-0.22057964,0.048477087,-0.31569043,-0.09504451,-0.124136284,0.18908371,0.029414741,0.06657318,-0.48880312,0.17194286,3.820339E-5,-0.27042007,0.28943366,-0.25293308,0.05560866,0.20105086,0.32187697,-0.075671665,0.140758,0.046902455,0.0943567,-0.22987354,-0.12005176,-0.26263502,0.14742693,0.27684906,-0.16989453,0.29840365,0.015435388,-0.43699136,-0.11221316,0.3474848,0.066373795,0.2582856,-0.29568136,0.16957588,0.3214698,-0.14913836,-0.12333194,-0.11287844,-0.13747275,0.34401482,-0.32918018,0.16092856,-0.11899261,-0.14234282,0.075708166,0.2452272,-0.052503206,-0.117995,0.0767216,-0.37416753,0.2598791,0.042698156,0.21309713,0.11465776,-0.27369305,-0.012942586,0.46525028,0.2861846,0.23098695,-0.078705035,0.19768605,0.003909364,-0.29955843,-0.15100211,-0.22185688,-0.10694184,0.12258542,-0.022781402,0.24573645,-0.40056983,-0.165946,0.15662393,-0.028182955,0.4034949,-0.252309,-0.071080714,0.28875238,-0.39412707,-0.1196542,0.19494434,-0.14990897,-0.21036139,-0.40813187,-0.3059104,0.1951799,0.23521926,0.51333797,0.091044046,0.24503486,-0.26110858,0.1572764,-0.047820836,0.38087866,-0.106494434,-0.05763342,-0.19639982,-0.14142758,0.16934456,0.2443947,-0.25030527,0.22449827,-0.41260767,0.02313795,0.106764235,-0.16971143,0.13869801,0.4186809,0.18559611,-0.10496281,0.013446945,0.3225854,-0.10825657,0.12101823,0.2365841,-0.02736544,0.082319774,-0.40586987,0.19213258,-0.16925897,-0.019923955,-0.46005294,0.036447212,-0.3893736,-0.45671996,0.16075654,-0.25875825,0.12244481,0.16231787,-0.16306826,0.1826841,0.20512432,0.18080612,0.3433018,0.043846466,-0.14815643,-0.24979644,-0.07464837,-0.42901745,-0.14646465,0.2715035,0.17544347,0.3855665,0.2905219,0.33819497,-0.21220946,-0.20807838,0.2416061,0.3017062,-0.17313652,0.17369622,-0.23535562,-0.09608105,-0.25661653,-0.003956062,-0.2635893,0.085260086,-0.071501724,0.17288202,0.19044672,-0.45258486,-0.26861843,-0.18449101,-0.026250085,0.43575633,0.5121372,-0.1494291,-0.04301308,-0.15263972,0.40056443,0.25210592,0.21928886,-0.10521856,0.30313578,-0.20099579,0.073844336,-0.2723187,-0.21460141,0.059049018,-0.2729634,0.17392983,-0.051657293,-0.38258004,-5.0557294E-4,0.107126035,-0.20596275,0.25609127,0.3928534,0.26059288,0.20444141,-0.14257567,-0.14591318,0.07422198,-0.054807853,-0.16168426,0.16017784,-0.03946576,-0.22054718,-0.2994588,0.26398396,-0.08122526,0.48431644,-0.17613237,-0.067209564,0.23734148,-0.31367528,-0.10711041,0.0039347964,-0.3649654,-0.08291362,0.21309492,0.40476024,0.32932588,-0.29918748,-0.2992474,0.08777993,-0.10749218,0.21470155,0.1512629,-0.03547811,0.14514293,-0.015511787,0.16669807,0.07283269,-0.11288254,-0.048952308,0.023224086,-0.31501392,-0.097977236,0.1983137,0.037520904,-0.13917428,0.24847214,-0.090514265,0.32004273,0.21911643,0.36909252,-0.22061081,-0.18365267,0.060922645,0.13563046,-0.2497078,0.11880659,-0.35510373,-0.13325933,-0.07213565,-0.1712595,0.022155104,0.10433609,-0.103787236,0.062139098,0.014687834,-0.16160297,-0.1820707,0.13816553,0.012879992,0.16551551,-0.45065612,0.10502935,-0.067638926,0.17925884,0.07257805,0.03209608,0.15568782,-0.15856132,0.38759884,-0.20699179,0.10691444,-0.084446475,-0.3775957,0.29392323,0.20168208,0.26880273,-0.16757987,0.23501574,-0.18055743,0.29652148,0.0013257205,0.0031459555,-0.06599652,-0.3322918,-0.07650085,-0.10089688,-0.18533476,-0.13542789,0.2669555,0.03355249,0.024892822,0.2842655,0.27377906,-0.068916135,0.21608627,-0.2792758,-0.095663585,0.0491147,0.3400343,-0.21229273,-0.3075645,0.095285885,0.34734198,-0.37140512,0.33150733,-0.21266416,-0.034214865,-0.14990683,0.02608989,0.054484013,-0.12970504,-0.076459974,-0.19284032,-0.07859181,-0.036591068,0.45759675,-0.29218522,0.019298498,-0.12199086,0.34416544,-0.17801245,-0.05957364,-0.24706039,0.40286306,0.20438753,0.06204128,0.15126544,-0.2232389,0.19435436,-0.26702073,-0.1466159,0.20281012,-0.06476717,-0.095556684,0.10700637,-0.31972042,-0.2962947,0.105893694,-0.062181264,0.47717512,0.0113790035,-0.039809465,-0.017600007,0.14699326,0.052351046,0.16071652,0.16521454,-0.24732028,0.09207749,-0.2959474,-0.28120512,0.22390646,-0.23278245,-0.049180996,-0.012094314,0.11246933,-0.21193308,0.27631873,-0.016014872,0.12036344,-0.09575915,-0.26364216,0.0056253243,-0.1635433,0.29024008,0.40782017,0.25236052,0.405299,-0.23916116,-0.2585834,-0.06420607,-0.1136725,-0.04364325,-0.2185252,-0.05637754,0.30623588,-0.27840194,-0.078923255,0.06835265,0.14804846,-0.08867272,0.07899572,0.15011506,-0.1066009,-4.734678E-5,-0.13164769,-0.2770773,0.3559134,0.29105842,-0.2838052,0.04392545,-0.25763866,0.22284633,0.110837035,0.24517599,0.17167069,0.09239907,-0.24580964,0.51117414,0.09321935,0.19335851,-0.22423111,-0.16485187,-0.017137159,0.14912193,0.24154794,-0.2498986,-0.01013361,-0.31067112,-0.20996955,-0.04864893,-0.2855199,0.19367272,0.12780489,0.29579327,0.18383864,0.18373196,0.14573936,0.24954262,0.2415314,-0.21312945,0.013975701,0.08489763,0.045132823,-0.015605125,-0.18996264,0.15098757,-0.061104584,-0.42004216,-0.020211719,0.12347011,-0.210196,-0.18912272,0.012775648,-0.11041298,0.221997,-0.42388457,0.21029267,-0.10313209,0.25823772,-0.055004302,0.12582871,0.047385015,-0.30340996,0.060770985,-0.23191714,0.05553426,-0.21631676,-0.011944038,0.072978616,0.21577688,-0.011876416,-0.12793215,0.11304607,0.06755505,-0.120923184,-0.25312698,0.1242316,0.27146652,-0.012920821,0.120978005,0.02168712,-0.34938344,-0.31223336,-0.026774798,0.46277285,-0.08334326,-0.12930906,-0.06552474,0.21252903,-0.14615166,0.30450884,-0.07334646,0.11312215,-0.26052502,-0.31256035,-0.05420047,0.10621685,0.07766526,0.0946784,-0.31779563,-0.14575185,0.24113843,0.14564575,0.2844914,0.20672575,-0.07142738,-0.26644027,-0.030555088,0.06294019,-0.2223119,0.15680513,-0.16345188,-0.078848295,-0.17863855,0.04671139,-0.048118167,-0.15929617,0.23280948,-0.045705684,-0.32189646,0.02133131,-0.24042448,0.13762555,0.3943497,0.15926692,0.18409933,-0.24840344,0.12961295,0.13670453,0.35735837,0.121143155,0.08211687,0.35090065,0.2849715,-0.20415133,-0.049939174,0.13360363,0.019313911,-0.34870628,0.15095566,-0.15745576,-0.16125344,0.14014533,-0.13373841,-0.02028474,-0.21972777,0.048691735,0.11934244,-0.18846096,0.012304183,0.24237351,-0.037493918,-0.11137358,-0.1897358,0.2765595,0.23756309,-0.12894103,-0.1657411,-0.28386346,-0.2244508,-0.092937626,-0.052035354,-0.10448029,-0.038709085,-0.1858779,-0.13250656,0.053904552,-0.10547377,-0.15918772,0.034505717,-0.24586615,0.005997874,-0.24402949,0.22685547,0.22896546,0.31245342,-0.11875224,0.075461976,0.42274314,-0.14415558,-0.308871,0.15127468,-0.24165717,-0.045023732,0.15542613,-0.20563231,0.2813113,-0.16350198,0.2626208,0.081430905,-0.10561079,0.32704064,0.17330116,-0.20477754,-0.121791534,0.32380784,0.27860686,-0.12414053,-0.01158962,-0.25752938,-0.19202064,0.119213596,-0.112781756,0.22812812,0.23590258,0.14330289,0.2293355,-0.18159106,0.26104575,-0.12117836,0.32985035,-0.30404335,0.052873947,0.06466318,-0.17459294,-0.10233397,0.213396,-0.20475,-0.14901406,0.081699565,-0.08981586,-0.008336367,0.101383515,-0.15344162,0.080291726,-0.17468034,0.26989716,-0.21561024,-0.1389968,0.20695548,0.18944974,0.11920118,0.13319565,-0.15087971,0.19783857,0.024730982,-0.41380456,-0.14187571,0.120221816,-0.22446018,-0.028201336,-0.17591417,0.2759755,0.31757724,-0.34534246,0.0772383,0.03974581,0.28754213,0.04550901,-0.06126494,0.057140104,0.043469496,-0.101270154,-0.29970124,0.2210951,0.0059827706,0.18248335,-0.0069684624,-0.47805545,-0.053873695,0.22811502,0.17664525,0.092246786,0.06755261,-0.2696599,-0.18035498,0.059180804,-0.1540972,0.34509104,-0.17380644,-0.2476521,0.17611223,-0.04168898,0.07933439,0.1783458,-0.07098346,-0.2088331,0.11695739,0.06550484,0.5043346,-0.2740764,-0.07187619,0.065163486,-0.18135089,-0.30137488,0.10421771,-0.35997802,-0.15096621,0.13801402,-0.0392098,0.13008802,-0.37479094,-0.2509258,0.1191649,-0.19505873,0.07844733,-0.18499397,0.20089762,0.13989112,0.116075,0.07937615,0.05604836,0.16519217,0.18223265,-0.2996611,0.32582304,-0.4017753,-0.376599,-0.55730444,-0.17781834,-0.26504982,0.4160492,-0.40475273,0.2961765,0.07446434,0.13852067,0.0563321,-0.0070194076,-0.2540878,0.33065912,0.26669496,-0.0899291,0.28697175,-0.3748321,-0.25629434,0.18977867,0.23287007,-0.11038496,0.34529057,-0.24451967,-0.29103863,-0.042284217,0.2647406,-0.12991452,-0.13053559,-0.25314018,0.05073106,0.19600499,-0.120838925,-0.14662255,0.28206775,0.05816998,0.3566015,0.26403484,0.10892505,0.36677024,-0.18773623,-0.045304477,-0.12103816,-0.09456858,0.20896977,-0.041722637,0.15871187,-0.29316783,0.11336106,0.22257362,0.19821751,0.45971668,0.14034459,0.23231624,-0.099807344,0.058514304,-0.33430406,-0.37957215,-0.14110823,0.10328897,-0.3594032,0.03067187,0.1891686,0.024610195,0.12349682,-0.09352349,0.26877698,0.26312506,-0.13717876,-0.01576797,-0.18811482,0.0122535955,-0.105240725,0.15320079,-0.16688286,-0.07347316,-0.040548414,-0.14948736,-0.30488306,0.25893065,0.15358427,0.2651526,-0.14721851,0.2009808,0.049653225,0.19867317,-0.2770984,-0.09880733,-0.108268425,0.06964361,-0.16638201,-0.1140611,0.068261854,0.21052417,0.16409604,-0.2819183,0.1611751,-0.035359234,0.037337206,0.1977979,0.09384079,0.36597806,-0.03312936,-0.05286521,-0.19472103,-0.36641574,-0.22713782,0.23524518,-0.12823941,0.06122438,0.2660178,0.24351674,-0.21273609,-0.20274366,0.27479503,-0.033975374,0.12723356,-0.05853639,0.06464791,-0.27388412,-0.2667036,-0.30069947,0.43846458,0.13069509,0.061047863,0.032602344,0.017572952,0.40683088,0.09885926,0.07718586,-0.110433266,0.21156421,-0.09074953,0.12502787,0.13845403,0.090789825,-0.0037682282,0.14301729,-0.006009952,-0.1901057,0.22847739,-0.18306129,-0.2940881,-0.1399116,-0.33543736,0.17359671,0.0792762,-0.33492976,-0.25793365,0.20239182,-0.13758254,-0.104868904,0.29494542,-0.11502329,0.35938665,-0.08184232,0.24624178,0.038667493,-0.3061959,0.046867862,-0.27007538,-0.25289768,0.21860641,-0.069262385,-0.13932166,0.1080682,-0.21801412,0.120651335,-0.18345682,0.1652309,0.05562243,0.1921334,-0.008727485,0.4411421,0.36646464,-0.15944777,0.24052712,-0.17251167,-0.20139337,-0.10387514,-0.056656215,0.106711715,-0.25167185,0.053265892,0.1691154,0.2046127,-0.2600451,-0.32076073,0.029888239,-0.14772241,0.20810631,0.0012499436,-0.10817847,-0.07651589,-0.00649994,-0.1809351,-0.020816218,0.2193299,-0.2070429,0.3527574,-0.4105869,-0.34831992,0.23005232,-0.032828964,0.3039382,0.04280104,0.13138042,-0.43623528,0.23534098,0.1473083,0.31478238,-0.36065707,-0.024884654,0.10821978,0.22772013,-0.08899271,-0.135321,-0.092621975,0.31589112,0.047430113,0.142458,8.7633904E-4,-0.36976373,-0.19391614,-0.40728837,-0.043458723,-0.076433174,-0.4132585,-0.13648419,0.06640669,-0.12223258,0.18747737,0.010225007,0.22031465,-0.048357952,0.1507751,0.11220285,0.18639061,0.5277644,-0.13324545,0.23780283,-0.11781944,0.19048724,0.26747346,-0.2796286,-0.053498983,0.10965154,-0.10806755,0.023969589,-0.2640132,0.07922856,0.06448442,0.21992493,0.4151505,-0.060578436,-0.095264874,0.29306236,-0.1418215,-0.24368481,-0.1101454,-0.18308371,-0.23953108,0.26830283,0.17803627,0.11728302,-0.05434599,-0.11175939,0.027886743,0.24652071,0.28370696,-0.3666179,-0.009014887,-0.27886212,0.16009456,0.36327812,-0.036556363,-0.017021757,-0.19248746,-0.044893075,-0.281401,-0.0018539872,0.109880045,0.09915967,0.021576263,-0.0126365945,-0.07482922,-0.13496928,0.33692035,0.2237338,-0.064343214,-0.07356842,0.13238187,-0.00850995,-0.2859003,-0.063234985,0.06551312,-0.27864254,0.087330215,-0.16043794,0.2824844,0.20638375,-0.17168853,0.42972788,0.060215116,-0.16754258,-0.12026272,-0.24563807,0.08931668,0.26355872,-0.4795954,0.22982258,0.38696045,-0.19356915,0.03292211,-0.14022443,0.105170295,0.09858003,0.17444327,-0.13797598,-0.032689873,0.12484427,-0.17255728,-0.26589894,-0.14425819,0.11054671,0.29333475,0.15045509,-0.29697937,0.13037206,-0.23630653,0.337812,-0.15470907,-0.3642257,0.13402194,-0.19154851,0.2441138,-0.24354504,-0.15751159,0.14005053,0.05899215,0.08799334,0.06305679,-0.24128062,-0.051198777,0.30206275,0.06703207,0.13842683,-0.21189092,-0.37391275,0.066764005,-0.35842443,-0.06428034,0.268991,0.0036655776,0.030194553,-0.009713493,0.34267393,0.1569006,0.20890144,-2.1258133E-4,0.24369644,-0.08941639,0.03854929,-0.002861084,-0.27830392,0.2141786,0.046338845,-0.19160739,-0.22152472,-0.11710329,0.11267197,0.118042424,0.018242598,-0.29675275,0.30649135,0.18833442,0.06633956,-0.35838166,0.06758514,-0.1193018,-0.093759246,-0.14145268,0.23361824,0.17757174,-0.25606576,-0.32011166,-0.054975208,-0.07237453,-0.11000686,0.13154596,0.12573084,-0.13489258,-0.14203611,0.15682332,0.313598,-0.10706079,-0.12589385,0.36096457,-0.12645493,0.27227464,0.38554028,-0.23900107,0.21922222,-0.15815899,-0.22485813,0.09477345,0.20269607,-0.080964014,0.24198194,-0.18401346,0.18376836,-0.16980517,-0.27305934,-0.20089479,0.36976892,-0.21703738,-0.120259434,0.08192964,0.15759978,-0.31605172,0.17495142,-0.31694224,0.22433892,0.022589356,0.10321968,-0.07734825,-0.3342186,-0.37175012,0.21561687,0.34591606,0.26262918,0.20428592,-0.042828552,-0.018194856,-0.28641334,-0.16551091,0.2879054,0.019274643,-0.045152072,-0.20170453,0.1563738,-0.14951861,-0.2830158,0.197495,0.19096005,0.072675414,0.13125019,-0.32857928,-0.14510407,-0.29888442,-0.2937271,-0.16093065,0.0023167762,0.13912648,-0.17924829,0.3458869,-0.3438083,0.26083115,-0.08789008,0.13880722,0.05370278,0.14980833,-0.045802757,-0.19272406,0.2493365,0.30504617,-0.19732848,-0.21222846,-0.07860362,0.28281596,0.16146798,0.29300228,-0.27778858,-0.1539758,-0.25246358,-0.06046972,0.021559676,0.3102989,-0.09868037,-0.058932554,0.08280133,0.065733634,-0.18480773,-0.117757894,0.19389836,0.24989387,-0.24056141,-0.035202924,0.17979239,0.20411785,-0.28148934,0.047092292,0.16820306,-0.14636701,0.33449945,-0.4686382,-0.04135437,0.283012,0.039585177,-0.3436434,-0.15153429,0.0808567,0.2768972,-0.39092618,0.15362069,-0.4267981,0.14756079,-0.19761388,0.043181267,-0.0028258178,-0.1514212,0.13997681,-0.06654604,0.27428046,-0.027242778,-0.16380796,0.2504723,0.2965018,-0.16279311,0.46487978,-0.2944372,0.20467895,-0.011849923,0.107389726,-0.22862181,-0.23512325,0.08095001,-0.24259324,-0.032851785,0.39842597,-0.062123876,-0.032187473,0.2273926,0.22825705,-0.08362214,-0.2011486,-0.27527887,-0.27237743,0.19992827,-0.19965489,-0.21961571,0.3089519,0.20619997,-0.15532072,-0.11939582,-0.009648115,0.040279586,0.37763944,0.25259167,0.016193956,-0.28624406,0.1051488,0.19168214,-0.22546317,0.18782397,-0.47428778,0.13416232,0.09893413,-0.051526085,0.27644536,-0.08966012,0.2656536,0.3102249,0.041476637,-0.19818558,0.08667412,0.13537996,-0.17648159,0.33605933,-0.33316654,-0.13094959,-0.24218811,-0.07217932,0.40680003,0.15901005,0.20313603,0.1864722,0.47678497,0.11632391,-0.14579885,-0.15180129,0.08225134,-0.38717434,0.31710175,-0.009163681,-0.13762523,-0.19401164,-0.2032421,-0.2384701,-0.21874817,0.108631924,0.030880822,-0.007581386,0.2127356,-0.14659119,0.1836229,-0.08415447,-0.15689906,-0.13035142,0.3365467,-0.0044562686,-0.39718154,0.16484113,0.039024092,-0.029532002,-0.36818928,0.1734124,0.037421692,-0.33654013,0.26662245,-0.43471828,0.1287807,0.014639941,-0.070655406,-0.46588233,0.2744116,-0.049621876,-0.116846405,0.18740685,0.31280732,-0.15816642,0.1517271,0.21308127,-0.14550856,-0.012390519,0.12752283,0.09075105,0.2107372,-0.03967201,-0.07775413,0.22453904,-0.18641572,0.26639006,-0.36995813,0.058278013,0.41501433,-0.29137403,0.20474175,-0.00692932,0.06607884,-0.08518062,-0.07180004,0.04582392,0.039630733,-0.085630685,0.14416865,-0.14708483,-0.2631517,0.07566214,0.3920437,0.12811156,-0.17760445,-0.41113344,0.09517009,0.15241084,-0.21650128,0.22957176,-0.12715872,0.09788495,0.08598145,0.20644885,-0.1806777,0.15588744,0.1330757,-0.026265267,0.073099814,0.10339934,-0.30135894,-0.16612585,-0.18726234,-0.12539531,-0.034882486,0.07935877,0.023081463,0.39621207,0.024683096,-0.062386546,0.018552292,-0.23901345,0.14877027,0.14134848,-0.17482229,0.17303175,0.06307921,-0.27548295,-0.04313124,0.51872855,0.30337548,-0.2745208,0.08888284,0.09333452,-0.23042649,-0.021798033,-0.07946742,-0.18144406,0.14482927,-0.19546355,-0.06464669,-0.07889274,0.11531799,-0.2108176,-0.07427893,-0.4386804,0.06403119,0.33615598,0.08386892,0.45105165,0.0104043875,0.269904,-0.15658686,0.21042842,0.019222667,-0.1301771,-0.0035792193,-0.23668431,-0.0695811,0.1849857,-0.12244146,-0.036727812,-0.27311453,0.2330131,0.05652283,-0.057695895,-0.13031267,0.3070859,0.022842625,0.39225522,0.06727664,0.23234464,-0.019822046,-0.42230657,0.040816154,0.20158179,0.03254655,-0.04113946,0.061879665,-0.031313527,-0.3439657,0.16759664,-0.17883249,0.084911846,-0.0829179,0.13162383,0.106157534,-0.22239193,-0.32892957,-0.023298213,0.20056425,0.1572466,-0.02332749,0.17775685,0.08779839,-0.35575134,0.1508438,-0.18762934,0.18582393,-0.1812899,0.1351313,-0.25887507,0.16865067,0.3464954,-0.09452053,0.06293552,0.035076037,0.0198069,0.05716456,0.07677097,-0.27956748,0.01944227,-0.28714478,0.24282081,0.015792787,-0.19351897,-0.09646764,0.22211893,0.28787404,-0.11382821,0.17661709,-0.24043225,0.34586555,0.24603562,-0.20917675,-0.10121119,0.25232777,-0.17929465,-0.13626006,0.11130068,-0.30012107,0.035014767,0.092753716,-0.36061212,0.33300605,-0.0656788,-0.03593938,-0.09234123,0.17282653,0.154714,-0.3525315,0.2070723,-0.10302951,0.33408993,0.53866625,-0.025185456,-0.13730726,-0.0012198124,-0.39769292,-0.18491481,0.29036874,-0.34838334,-0.3560297,-0.26777586,0.16131996,0.055397563,-0.32205284,0.3660129,-0.004829453,-0.021239705,0.08678688,0.26399556,0.28119886,-0.34256318,0.29620627,-0.24036819,-0.21627422,0.00787505,0.085649595,0.27849853,-0.07747604,0.23916301,-0.10757635,-0.25240457,-0.0032441053,-0.06860342,-0.0026378904,0.24714924,-0.18491492,-0.19439091,-0.06945734,0.21347356,0.17518412,-0.11873409,0.1406223,-0.0064398046,-0.14661083,0.2472118,-0.36618742,-0.028830487,0.20282787,0.123718664,-0.23135476,-0.3282676,0.098876044,0.21432449,0.18262358,0.1389456,0.30599302,0.09153573,-0.2645111,-0.2798095,0.35650605,0.24753952,0.19680637,0.19750315,0.18533665,-0.39057547,0.1645239,-0.12543003,-0.14503397,-0.059642,-0.34576863,-0.30056313,0.018691283,0.09972862,0.098613195,-0.09834951,0.43206203,-0.08702949,-0.0024900506,-0.11256747,-0.04709046,0.22963989,0.13592736,-0.31264216,0.30755964,0.15923704,-0.1747217,-0.28869307,-0.084768705,-0.19154905,0.018912707,-0.23044027,0.28289396,-0.041038044,0.33290035,-0.23373969,0.40406826,-0.24930055,-0.12975438,-0.03499527,-0.3207928,0.16043946,-0.050442163,0.19978967,0.27821225,0.2693583,0.119441845,0.0052923476,-0.20823213,0.16822158,-0.021306057,0.22055201,-8.484958E-4,0.010730561,0.19316095,-0.16335809,-0.2651692,0.075546265,0.17954922,-0.17461108,-0.2550263,0.23730968,-0.3178281,-0.026285712,0.63769406,0.1007567,-0.03125336,0.030430274,-0.023132313,0.054341044,-0.2431184,0.18790284,0.0265176,-0.55678546,-0.35277462,-0.19223504,-0.1618686,0.13421287,-0.3254132,0.20846699,-0.36678353,0.08732318,-0.14802006,0.13183756,-0.37913108,0.35060462,0.21148682,0.27647763,0.10279373,-0.10987336,-0.35701725,-0.055227544,0.044368472,-0.40341982,-0.09300044,-0.2756533,-0.4153855,-0.26776564,0.2038044,0.3260749,-0.10696444,0.2324516,-0.050479833,0.15450703,0.094193526,0.33667758,0.2535009,-0.16078897,0.2144052,0.085218504,0.21828416,0.24405229,0.003459048,-0.21037903,0.080518804,-0.39359975,-0.03209891,0.23416428,0.0071975524,-0.08878777,-0.23369175,0.33035147,0.33314654,0.3923458,0.18241087,0.09684119,-0.38030532,0.31950524,-0.16398178,-0.08203899,0.17395441,-0.21499628,-0.35506168,-0.08126524,-0.321225,0.26127842,-0.32554665,0.044718575,0.29244953,0.08500175,0.056521557,-0.20270875,-0.3555947,0.020642333,-0.18060628,0.10582954,-0.22722968,-0.08473823,-0.31758255,-0.13487028,-0.19715306,0.19270031,-0.19260933,0.14899804,0.01280254,-0.045028955,0.010046462,0.29528883,0.34973645,0.18530077,0.11278084,-0.07489621,0.098957695,0.17429054,0.035824433,0.083354734,0.066991426,0.24607101,-0.21027578,-0.29820728,-0.18586716,0.28484222,-0.08177913,0.1649728,0.035552006,0.24442056,-0.0775766,-0.14030524,-0.03034866,-0.26312867,0.21970092,0.0070839147,0.02025061,0.11311066,-0.24609281,-0.31853405,0.35450283,-0.2294082,0.20558754,-0.047715675,0.1837581,-0.01933986,-0.06372949,0.21514761,0.3375964,-0.31143314,-0.3528403,-0.45913044,0.049768776,-0.011339491,-0.23680316,0.3102222,-0.055915274,0.2739036,0.13757282,0.22908933,-0.047242865,0.099475496,0.20739472,0.33405194,0.02124305,-0.3931906,0.03341122,-0.31529456,-0.31303528,0.33033338,-0.27573398,0.28126797,-0.32111186,0.07262192,-0.1839303,0.17346059,0.13535406,0.17920937,-0.31914163,0.13673931,-0.2086929,-0.1609517,0.049303114,0.054755814,0.038918618,0.0061296807,-0.14374825,-0.21714178,-0.032761104,0.19982535,0.3268007,-0.14869596,0.24035795,-0.27402958,0.12418548,0.009501797,-0.50036997,0.19236955,0.36008024,0.06973861,0.14704014,0.0062341867,-0.023602417,-0.14544836,0.036105804,-0.30824694,-0.15926243,0.20633395,-0.03175772,-0.21753779,0.32201517,-0.072787225,0.1013955,0.045583185,-0.0125032505,0.2239749,-0.055677544,-0.06198987,0.11390831,-0.30169818,0.0958714,-0.15807253,0.08974839,-0.15257366,-0.12503491,0.33120513,-0.23215486,0.057445653,0.13737108,-0.2703231,0.09592265,0.18875891,0.049756408,-0.23041561,0.3416531,0.27824813,-0.27711806,-0.07080154,-0.19919148,0.10838693,-0.20597444,0.27100918,0.028022002,0.34565392,0.38809496,-0.25488892,-0.08160925,-0.27054805,0.4800522,-0.24365768,0.20357665,0.25747943,-0.0045599765,0.3111232,-0.19043234,0.14450358,-0.21375044,-0.17318356,0.26227194,-0.2653701,-0.32969964,-0.22873598,0.16682717,-0.20665279,0.33731893,-0.07261877,0.07220191,-0.29558474,-0.014154529,0.06117511,-0.3471894,-0.31614834,-0.23264764,-0.17602783,0.15410884,-0.091403544,-0.06612578,0.17526414,-0.013574666,0.12794438,0.46479443,0.26668656,-0.26444975,0.42094585,-0.1059985,-0.19661413,0.023463026,0.19705983,-0.32082906,-0.039151218,0.18732442,0.1632802,-0.13232659,-0.4743614,-0.1433036,-0.21590105,-0.31638074,0.027520228,0.34080848,0.30481756,0.18087393,0.27977479,0.10513911,0.18018956,0.18848802,-0.13739829,0.066691324,-0.10194815,-0.3576838,0.20961055,0.0011943362,-0.53187144,0.065549195,-0.488008,0.078745835,0.26639485,0.30641657,0.08882935,-0.0149735985,-0.25984746,0.094062015,0.2115779,-0.402196,0.32139,-0.33881244,-0.10650774,0.21589439,-0.03348795,-0.17598446,-0.047851514,-0.086912364,-0.36302143,0.075814605,0.12381922,0.032036737,-0.058225535,-0.030034062,-0.29879504,0.056988295,0.33760077,0.07038334,0.08557757,0.23212823,-0.41294512,0.30466226,0.020875745,0.04471598,-0.3674224,-0.12905431,0.18447274,0.02020537,0.13493925,0.18887602,-0.24422508,-0.093031496,0.03245818,0.32719615,-0.08097693,0.031732608,-0.3377115,0.061113805,0.11720535,0.26400095,-0.07803671,-0.14875415,0.22149906,0.3219124,-0.3683496,-0.17937617,0.004163315,0.11915793,0.15136388,-0.24690585,0.30656284,0.09755404,0.28019765,-0.015003512,-0.33510125,-0.15712346,-0.21398415,-0.23452201,0.2455657,-0.24036145,-0.05317371,-0.1485618,0.08025262,0.23867163,-0.043642823,0.26546952,-0.25516945,-0.079052836,0.20147371,0.038060322,-0.16200328,0.06912916,-0.027896395,0.329928,0.20764664,0.029609757,0.3243311,0.1836791,0.23744114,0.053949933,-0.14046945,-0.1956657,-0.20943737,0.10415319,-0.053775713,0.2073154,-0.2221414,-0.26724654,-0.13176835,0.026309384,-0.1384431,-0.27331984,0.2967705,0.005302154,-0.1038946,-0.14585869,0.5264992,0.10612129,-0.034281246,0.34556133,-0.51820385,0.09915851,-0.24654125,0.1155438,0.098484874,-0.10064021,0.14323024,-0.0035651869,-0.17214668,0.07646201,-0.30677056,0.12531494,0.09599512,-0.33940098,-0.04118294,0.11449416,0.039922453,0.03902617,0.1628072,-0.10650365,0.11516062,0.078470446,-0.082646914,0.34267303,0.22288315,0.108331524,-0.19821648,-0.18042919,-0.22293699,-0.23577997,0.16901542,-0.3852359,-0.381916,-0.10385177,-0.27474236,-0.27985492,0.19238192,-0.101548165,0.3303876,0.05086156,0.41453353,0.24264194,-0.050981976,-0.08818082,0.12763642,-0.24505341,0.12535606,0.16061318,0.3818983,0.14798513,-0.035732985,-0.06416597,-0.11213924,-0.22793323,-0.09425753,0.21718608,-0.28352097,-0.28044602,0.20493844,-0.14998986,0.18656823,0.1745724,0.27122992,0.22013216,-0.2608238,0.12895729,-0.17763792,0.11693964,-0.2100219,0.07757204,0.17147206,-0.3242556,0.068505056,0.15892614,0.09238043,-0.19685379,-0.1393869,-0.01862257,0.040201265,0.061314173,0.095549844,0.21885113,0.18975143,0.37363505,0.18342789,0.3483678,-0.15158303,-0.074290946,-0.067617744,-0.16491596,-0.37891757,-0.28522864,0.35146582,-0.31356686,-0.09181536,0.277972,-0.17750977,0.29540485,0.2567652,0.24686259,-0.16049248,-0.1360025,0.07187526,-0.049310356,-0.34092885,0.33628705,0.14194827,0.19547887,0.07446974,0.047447972,0.009465651,-0.20659319,0.38719386,-0.0060684294,-0.2541678,-0.024912482,-0.19237895,-0.1926643,-0.12817428,-0.11380658,0.31861287,-0.15914351,0.07556587,-0.3211383,-0.116675526,0.18782438,0.04690593,0.5033662,-0.26646698,0.12829843,-0.08574832,-0.0065073706,-0.24368316,0.35580805,0.33120608,-0.18512541,0.1257393,0.1823898,-0.16142793,0.037144896,-0.26300117,-0.22188352,-0.21394436,0.211867,0.090404935,0.045204073,-0.30635905,-0.12016728,0.22205979,0.2790335,0.07386902,-0.085404485,-0.3973904,-0.055356123,-0.20594384,-0.07563714,0.105304055,-0.08793009,0.17266339,-0.19823617,-0.31929624,0.06898651,0.028051317,0.15325771,-0.26320988,0.25109494,0.23140329,0.24023764,-0.19129814,0.2798703,-0.3987583,-0.27947992,-0.10517037,-0.04766236,0.08651583,-0.11904971,-0.082053624,-0.26877588,0.18333106,0.056809753,-0.15685691,0.026834996,0.4340581,-0.32468292,-0.130201,0.13797183,0.37746313,0.11652591,0.2470785,-0.08749298,-0.15784076,0.02684867,0.10948846,0.13304003,-0.06392669,0.20939578,0.22565879,0.0076661967,-0.1011779,-0.28853142,0.16405223,0.12908734,0.30811083,-0.3132858,-0.07530773,0.0021619776,-0.12780641,0.19860478,0.32551673,-0.31624916,-0.030950107,0.08494479,-0.09900675,-0.083315276,-0.07199573,0.03588231,0.009977397,-0.114936136,0.34282628,-0.2760063,-0.049038425,0.113502845,0.3469715,0.060603023,-0.16825539,0.16320233,0.029277854,0.19181332,-0.35684258,-0.18508904,0.03551627,-0.14100267,-0.17847788,-0.028108189,0.02974654,-0.20269494,-0.019430507,0.07047555,0.3725589,0.2374962,0.26701933,-0.043430008,-0.09150232,-0.1902353,-0.010582045,0.26202372,0.028770091,-0.34167126,-0.16707902,0.04162751,-0.20732449,-0.11259201,0.0042609833,0.16102046,0.3843397,-0.41625887,0.13248585,0.46591607,0.16689749,0.112602465,0.09885367,-0.27092436,0.16184045,0.07986294,0.13246584,0.004429984,-0.33420816,-0.23820439,0.14204982,-0.0472314,-0.24003714,-0.037896585,-0.06622368,0.12588745,0.37609643,-0.14249487,0.3236521,0.02769639,0.10719198,0.08826122,-0.14901555,0.38084185,0.13474743,-0.14860119,0.08190581,0.026634092,-0.22978611,0.025531892,-0.09652682,-0.12267924,5.92043E-5,-0.009406157,-0.064190745,-0.19683133,-0.16177297,0.4907153,-0.11072658,0.14573339,-0.26232553,0.2635681,-0.08318955,0.18596244,-0.32596105,-0.12183535,-0.007312904,0.27680692,-0.09393687,-0.121783905,0.023921948,0.11421271,-0.38134438,0.108329624,0.10074243,0.014112335,0.07649235,-0.09439838,0.07119547,0.1980053,-0.12129694,-0.19876398,-0.08458945,0.21606247,0.27236766,-0.22732824,0.22513817,-0.04037555,0.17003694,0.019487405,-0.46500367,0.05500848,0.15014608,0.11941781,-0.111441426,-0.090857856,0.24504073,-0.13776793,-0.095747046,0.1150349,0.20542668,-0.15449016,0.16723815,0.20608754,-0.2666729,-0.34444577,-0.024860067,0.3214664,0.25784394,0.12416941,-0.12518668,0.114689134,-0.39756104,-0.30836117,-0.19147722,0.23626433,0.05619276,-0.38309905,0.35616264,0.008929172,-0.32364318,0.12379545,0.2606175,-0.05974226,0.062535815,-0.21643335,0.32284257,-0.058080424,-0.13706644,0.106656455,0.13491547,-0.20873286,-0.20334399,0.29979405,0.1507008,-0.05315286,-0.1396266,-0.32338893,-0.26249847,-0.010967704,-0.27254304,0.0018710839,-0.0067823073,-0.12258555,0.33036566,-0.18892135,0.46092233,0.27371287,-0.1745936,0.07656035,0.13577995,0.00674903,0.024003943,0.1734007,-0.2572792,-0.096966445,0.20641762,-0.18164223,-0.009303353,0.048735034,-0.17994018,-0.39073327,-0.05535294,-0.10493234,4.6316168E-4,0.3016793,0.27349406,-0.16531259,0.11493333,0.22640823,-0.13865906,-0.07534389,0.4460398,0.24442701,-0.2615112,-0.24430276,-0.02728523,0.15789168,0.15277727,-0.0452805,-0.32547662,0.23636249,0.02162748,0.2105138,0.12913284,-0.22866623,-0.26158544,0.2638449,-0.18819995,0.3528974,-0.19933137,0.39890054,-0.15840176,-0.11278506,-0.25107822,-0.40978983,0.38527703,-0.06292757,-0.270828,-0.20027635,0.19129722,-0.19262998,0.085434504,0.0015071927,0.1707308,-0.06729163,0.31403947,3.3051372E-4,-0.3469733,-0.14858003,-0.058884185,0.34529427,0.096402206,0.03470951,-0.08538888,0.07121531,-0.015409362,0.28508225,-0.17503053,-0.27404714,0.30931893,-0.27684304,-0.2862192,0.21024871,-0.36009985,-0.0619222,0.27479213,-0.16187097,0.35261634,-0.22363412,0.2043109,0.12908137,0.31081355,-0.13730825,-0.3138216,0.2141096,0.30091032,-0.14592347,-0.13779382,0.014510579,0.05103714,-0.090308554,0.19659404,-0.14011274,0.3063166,-0.27939913,-0.17494531,-0.221569,0.32870036,0.06526054,-0.09132111,0.08466728,-0.30576667,0.0067251865,-0.069398366,0.013156534,0.18991286,-0.07916431,-0.027529577,0.33497941,0.08367549,-0.21575099,0.11138734,-0.17787275,0.23822917,-0.045819163,-0.34819946,0.093201175,-0.05962348,-0.2072256,-0.40712306,-0.07922524,-0.3110907,0.16800381,0.04289045,0.014844207,0.19557266,0.25195175,0.1884778,0.08014054,0.31297156,-0.19427311,0.2243788,-0.10349776,-0.15792677,-0.1927241,-0.11838879,0.09081224,0.2992097,-0.36423126,0.08525346,-0.0976626,0.27557933,0.13365075,-0.33063573,0.010112339,0.4914537,0.06147582,0.02752323,0.15954608,0.21470515,-0.22086209,0.18629663,-0.2388297,-0.2732961,-0.24918954,0.15555945,0.2536394,-0.31959426,-0.071567394,0.17202912,0.061945267,0.18156737,0.1635531,-0.09697625,0.17664367,-0.14187953,-0.3412294,0.094217055,-0.03038442,-0.0066334046,-0.20775004,0.23940863,0.105462424,-0.07943039,-0.13712883,0.27262408,0.30216265,-0.09013502,-0.2339078,-0.31599492,0.16636723,0.34284183,-0.18150221,-0.07094196,-0.36608702,0.18140937,-0.16914563,0.18644467,-0.10210345,0.11769088,-0.415771,0.14159961,0.15028273,-0.3058128,0.30083862,-0.18594173,-0.35171586,-0.1799835,0.12492682,0.111832775,-0.088110484,-0.09419555,0.12427867,0.07223221,0.20105988,0.22068134,0.050299402,0.07667245,-0.009747424,0.057665672,-0.49644554,0.013929919,0.01516593,0.36352605,0.013010809,0.037440643,0.3600158,0.18454966,0.39011997,-0.31554893,0.24396046,0.06463886,0.06394791,-0.21064262,-0.08246184,0.096151985,-0.3119824,-0.2225007,0.111878686,0.038966518,-0.15311933,-0.15669279,0.1591972,-0.36889288,-0.117878266,-0.15178232,0.33588162,0.14222503,-0.20112175,-0.11892314,-0.2585909,0.037833553,0.053819027,-0.030738076,0.0781781,0.119891874,-0.1042273,-0.026452083,-0.23045067,0.30093375,0.25054786,0.24303077,-0.110208474,-0.41106054,0.23458841,0.17224516,0.20485656,-0.2439719,0.17116943,0.22032894,-0.017245973,-0.06883689,0.32725987,-0.3496939,0.28872445,-0.16382048,-0.13535815,-0.33054966,-0.16455425,-0.058685943,-0.020918326,-0.18116337,-0.1965419,0.19438075,-0.08223972,0.044887476,-2.617447E-4,0.03076968,0.14803934,-0.067785405,0.276853,-0.41002187,-0.1828703,0.16781862,0.1586954,-0.13397302,0.3483852,0.06976568,-0.28697726,0.3418067,0.11020344,-0.18255053,0.19265546,0.16192394,-0.2580419,0.038711414,-0.22804116,0.021207003,-0.26317364,0.13804983,0.3660851,0.32722867,-0.4052164,-0.3116534,0.19168836,0.012990209,-0.5842709,-0.07377925,-0.29499218,0.26303935,0.11467771,0.23715784,-0.16067713,0.33650744,0.3549037,-0.037637528,-0.34746668,-0.24757469,-0.307945,-0.30070472,-0.311364,0.014537068,-0.03854968,0.23074949,-0.1837302,0.2820009,0.25137526,-0.02696334,0.030448688,0.1835033,0.23996583,-0.1295085,0.43204752,0.023486657,0.22061402,0.10464233,0.07979327,-0.22662984,0.32668003,-0.21540248,-0.25470918,-0.039611235,-0.040297233,0.0020460458,-0.15065306,0.17470065,-0.036183916,0.12682201,0.3562315,-0.044923924,-0.07579171,-0.2938195,0.20860593,0.046307985,-0.24623314,-0.22042103,0.34252396,0.34337747,0.11544375,-0.0732016,-0.14371821,-0.26449946,0.016330337,0.11260247,-0.085301176,0.023667205,-0.089674905,0.13691857,-0.14147685,-0.029904712,0.16957802,0.12930249,0.08154273,-0.10141821,-0.14546955,-0.17646329,-0.020735674,0.2077012,0.13388439,-0.08549631,-0.28064096,0.19126439,0.07563494,-0.18076915,0.22596453,0.117428616,-0.09542215,-0.21661355,-0.054331735,-0.26046368,-0.091634326,-0.15474598,-0.08802546,-0.2586648,-0.094373554,-0.20224577,-0.1405019,0.104269385,0.0643736,0.17601104,-0.30205557,0.42003188,0.0767789,0.07462847,0.26897314,0.070387244,-8.9587073E-4,-0.48052427,0.09172149,-0.28830564,0.21031508,0.18378976,-0.31717482,-0.012678246,0.2846884,-0.11876664,0.24500126,-0.059815045,-0.38666478,-0.095951855,-0.33634406,0.2582296,-0.105294906,0.15721259,0.23220693,0.0033995118,0.2590582,0.2546863,0.24644454,-0.15110292,-0.0980801,-0.110935375,0.14059803,0.020123228,-0.008708224,-0.034646146,0.32179442,0.09389661,-0.25492865,0.32055104,0.010522864,-0.32008913,0.363073,0.024287011,-0.14543812,-0.07736754,-0.373311,-0.17583734,-0.35502434,0.014561683,0.056588233,0.108541,0.34826776,0.25642982,0.10059855,-0.34103632,-0.27938205,-0.015614792,0.28013918,0.09266609,0.022608522,0.120332085,-0.29823092,0.1906762,-0.07367536,0.18175288,0.23248926,-0.12020138,0.047589492,0.02243324,0.018766453,0.3706433,-0.072621725,-0.32713643,-0.27627242,0.06399629,0.07479142,-0.15357085,-0.3958361,0.21186759,0.16130245,0.12023743,0.19128723,0.18003392,-0.17245704,-0.13802373,-0.123857446,0.20590326,-0.08302039,-0.23989548,0.26537848,-0.37660778,0.20824352,0.05579729,0.27048528,-0.15429582,0.040329054,0.22550987,0.13700809,0.17697789,-0.29774967,-0.34118387,0.12959221,-0.14036658,0.08680205,-0.023561938,0.127379,0.19750991,0.12710449,0.24147995,-0.077418,0.2502397,0.2072905,-0.004093968,-0.3075459,-0.11714989,-0.26970947,0.24969077,0.17220366,0.0068152435,-0.05285221,-0.040155414,-0.3686589,0.37586525,-0.23676169,0.28410894,-0.10624579,-0.24738032,-0.4574523,0.24107254,0.0144104315,-0.18943557,-0.059958145,-0.24136929,-0.5525534,0.10422948,-0.11847563,0.17520937,-0.02857026,0.1711807,-0.010646819,0.38438544,0.26805606,-0.37588823,-0.015264564,-0.17139235,0.06780713,0.13591392,-0.11827892,-0.16077487,0.067984074,0.054184467,0.35144624,0.043858506,-0.42202675,0.22227694,-0.2858636,0.11358936,-0.118911594,-0.033903383,0.16486175,0.20815009,0.021884026,-0.30804518,0.28634423,-0.038534556,-0.021470703,0.047797225,-0.33260733,0.004963141,-0.16895041,0.045614537,0.058632158,-0.12909748,0.1725008,-0.16309382,-0.22752811,0.22115265,0.015485939,0.21385366,0.11880096,0.30484185,-0.15815714,0.40589607,0.19839719,0.3046192,-0.35154262,-0.30044672,-0.0075609693,0.15103868,-0.014477226,0.066572025,0.17869501,-0.18570198,-0.03246853,-0.03108582,-0.23100385,-0.29189268,0.30694628,0.07865635,0.06327604,0.08392847,-0.35431227,0.26679552,-0.20400408,0.14534825,0.052931137,-0.09879622,0.08219911,0.13484012,0.13959214,-0.39552537,-0.15720582,-0.2735283,0.3385497,0.38411883,0.03837162,-0.2269372,-0.34027627,0.10608387,0.058189265,0.30985904,-0.30100563,0.4123346,-0.24989258,-0.29124942,-0.052861307,-0.018002197,0.20350017,0.1374476,-0.014393045,-0.07209854,0.19741042,0.17154276,-0.06429907,0.05940451,-0.0991506,0.0954752,0.2793367,-0.04565406,0.16183683,0.03135361,-0.13065349,-0.0939265,0.20116836,0.04723637,0.14252913,-0.39148372,-0.056705322,-0.24879268,0.29197064,-0.17144726,0.24369682,0.11217162,-0.27642414,-0.29372343,0.45579046,7.766489E-4,-0.19832449,0.25739768,0.08509016,-0.24798977,-0.21845892,0.22458087,-0.008229348,-0.44381118,0.09821359,0.20488574,0.1443496,-0.4028815,0.06700895,0.12465075,0.14007255,-0.17487893,-0.03833258,-0.0024361387,0.06611702,-0.09043177,0.2338351,-0.23622894,-0.043329187,0.2526206,-0.07174083,0.1097319,-0.14692357,-0.53595424,0.22533268,0.28661352,0.052435614,-0.37704083,-0.1811127,-0.22864182,0.07914583,0.35493714,0.11132577,0.3567554,-0.014735476,0.28823525,0.22479051,0.12844566,-0.16806677,-0.12246197,-0.2369093,-0.004005973,-0.099029645,-0.10225886,0.33875206,0.013001787,0.17085835,0.11359695,0.29780784,0.10202933,0.15456834,-0.22733803,-0.029152317,0.18619654,-0.02404465,-0.42166626,0.18034543,0.023372373,-0.2503643,-0.14211488,-0.30890477,-0.2717909,0.19950701,0.15805727,0.24461997,0.1210053,-0.29881686,0.011943134,-0.21002291,-0.21579503,-0.06439189,0.06682884,-0.40458313,-0.16813095,-0.28969887,-0.01435781,0.19537,-0.053368486,0.30518237,0.34057227,-0.08692071,0.45863026,0.32339814,0.15135826,0.50152975,-0.12523554,-0.22974563,-0.007658616,-0.06615605,-0.22890179,-0.2706653,0.02861913,-0.17432366,0.2674133,0.06949071,-0.044552468,-0.1273065,-0.3437737,0.2667002,0.22959368,0.109972134,-0.16010971,-0.08757843,0.088868976,0.2716627,0.101399586,0.16809757,0.008408055,0.25574136,-0.038508587,-0.0056524826,0.35812378,0.013856398,0.011450206,-0.27986634,-0.34458765,0.26461786,-0.044970874,-0.26555035,0.10942412,-0.099509485,-0.32457298,0.011476316,-0.23946206,-0.11721665,0.25937515,0.1976255,-0.14671914,-0.2262132,0.053662367,-0.081357755,0.12104449,-0.16563557,-0.013619437,0.046091106,0.08599103,0.18315746,0.115725435,0.1408173,0.25529674,0.17282064,-0.30079022,-0.10030476,0.11813883,0.004952282,0.3245518,-0.35685796,0.23901959,-0.013713404,-0.009279467,-0.040185098,0.24866335,-0.17522608,0.088490985,-0.21940297,-0.018419066,-0.09131614,0.2065773,-0.087806664,-0.28180778,-0.066372946,0.33829162,0.19259608,-0.11669469,-0.19058229,0.215289,0.17131385,-0.2116901,-0.13979924,0.16892096,0.037754476,0.044987846,0.31996682,0.3221516,-0.3077772,-0.3197514,0.18874948,0.22128356,-0.32440937,0.20708854,-0.27058065,-0.028614616,0.23665375,0.23382899,-0.31232387,0.4159531,-0.29062346,-0.32749158,0.21667312,-0.097002074,0.3539308,-0.2073751,-0.18896501,-0.124584995,0.08585289,-0.25586873,0.35623363,-0.16951278,0.0904027,0.15206827,-0.03981453,-0.27072805,-0.014750225,0.2601475,-0.068425365,-0.3651354,0.19453923,-0.06601306,-0.32461426,-0.09305898,0.16997157,-0.11824248,0.11453257,-0.009173317,-0.037003633,-0.32363376,-0.05292097,0.309201,0.3432277,-0.20438677,-0.40217707,-0.15327731,0.19119501,-0.26477286,-0.21458457,-0.18473384,0.0638873,-0.2921978,0.46850008,-0.093464956,0.12239991,0.2486262,0.009695584,-0.030679129,0.40593,0.36425412,-0.34188503,0.111676514,-0.2704557,0.039769877,0.06994124,9.0663705E-4,0.32969856,-0.09177917,-0.12921433,0.4015226,0.060759034,-0.13526018,0.032307584,0.14927803,0.20285977,-0.14562273,-0.3308509,0.012176878,-0.14843787,-0.11319534,0.2453164,0.106943905,0.387242,-0.009880102,0.39811373,-0.18014796,-0.019647842,-0.19413872,0.23636422,-0.35143527,0.022499228,-0.2979758,-0.024957893,0.46618623,0.076320425,0.12511094,-0.32221636,0.18965769,0.11752586,-0.043122273,-0.19662374,0.052794952,0.35252216,0.12627462,-0.041619986,-0.3393279,0.25612777,-0.0996264,-0.22002454,-0.46578512,0.10574842,-0.1095764,-0.1816857,-0.1771496,-0.18700702,0.38085598,-0.16283314,0.22672245,-0.3735559,-0.31502694,-0.22384264,0.112679966,-0.4776228,0.040511988,-0.06496956,0.051357817,0.2289738,0.09881875,0.12015514,-0.16689886,0.25322202,0.21227658,0.11620217,0.20232847,0.021459883,-0.0051278407,0.22220172,-0.25572935,-0.16699898,0.28893545,0.014573205,-0.017296731,-0.049941104,-0.23386914,0.07249035,0.07945803,-0.24644116,0.17431521,-0.027856061,0.16053505,0.4747267,0.027087905,-0.28845075,0.20477979,0.17636283,-0.25931954,0.09040227,0.1936535,0.2524716,-0.13312128,-0.22503948,-0.27519923,-0.2318276,0.08083578,-0.100240044,-0.43110198,0.36040133,0.1693796,-0.2664082,0.15014383,0.2381619,0.320298,-0.13395955,-0.2125912,-0.16954774,-0.22828716,-0.172568,0.072327115,0.12840372,0.010127496,0.33551368,-0.28980508,-0.18551825,0.04831119,-0.1823845,-0.07112056,0.3451328,0.1938889,-0.10198458,-0.30038196,0.17485297,-0.11303098,0.34433144,-0.21728696,-0.13550451,0.11945971,0.39631745,-0.042200454,0.24628837,0.30766097,-0.37007487,0.077012315,-0.12518454,-0.19134398,-0.24388246,0.245092,0.2102928,0.37904966,-0.35401648,-0.38278002,0.008776745,0.005522331,0.1950906,-0.17945376,0.12700747,-0.16371173,0.03322549,0.110410616,-0.21662857,-0.3617969,-0.15514153,0.17813732,-0.08836025,0.045452856,5.223231E-4,0.11379202,0.14209808,0.31788695,-0.3084414,0.18754466,0.21673545,-0.08469384,0.17765866,0.015809413,-0.21079063,0.3211806,-0.2740406,0.0014468301,0.016101718,0.0059818905,0.13934688,-0.18249367,-0.08234502,0.44305843,0.19436818,0.041480154,0.2684636,0.38373637,0.233773,-0.3034435,-0.12490344,-0.24575397,-0.37315953,-0.33147308,0.27581298,0.13733287,0.13087584,0.26677102,0.27897996,0.24670856,0.24309726,-0.20109794,-0.29651597,-0.14089634,-0.05508219,-0.050228436,-0.3816499,-0.33121556,0.0026943749,-5.0966616E-4,0.22524214,0.28251925,-0.019841487,-0.080646336,0.058969114,0.040577184,-0.05738679,-0.26916397,-0.13868372,-0.09906711,-0.008682015,-0.03290871,-0.09208801,-0.426396,0.09412457,-0.048732862,-0.30416277,0.12698205,0.21496166,0.05741016,0.16642073,-0.035444014,0.16393134,-0.28639507,-0.18505095,-0.05700165,0.08328877,0.048795067,-0.24058647,0.30054218,-0.30485168,-0.027866434,0.4419701,-0.010657614,0.18786561,-0.061794546,-0.35666722,0.31259254,0.1896235,0.117133915,0.032898854,0.37889695,-0.12885495,-0.24089216,0.21309301,-0.04884454,-0.004011906,-0.25435022,0.0073860856,-0.01689908,-0.20496212,-0.081832014,-0.14658773,0.29540977,-0.14774135,-0.006157164,0.22325346,0.23990403,-0.06505012,0.1111267,-0.20565616,0.074851476,0.29000455,0.49354318,0.11487538,-0.32979062,-0.18636292,2.0956266E-4,0.27306846,-0.22481729,-0.29319894,0.23672234,-0.2674173,-0.11598388,0.07052619,-0.07975234,-0.397957,0.06925407,0.0064339037,0.23784842,0.107689925,-0.22828043,0.04275245,-0.31296375,-0.029676696,-0.08533056,-0.04235189,0.39100856,0.14804292,0.25142235,-0.07494417,-0.06997712,0.079121694,0.3633514,0.027850356,0.24832402,-0.1318633,-0.39945135,0.41370496,0.20917185,-0.07247058,-0.06710468,0.01964376,0.020344239,-0.33369532,-0.21953508,-0.11939683,0.013326326,0.18963043,0.15043257,-0.29894435,0.26839995,0.19664344,0.09928985,0.31109086,0.063808195,-0.16362892,0.16146193,-0.33198634,-0.1441268,-0.26639682,0.17738432,-0.011398087,-0.096358955,-0.2010182,0.12352633,-0.18028857,0.19437858,-0.12792672,0.014141693,0.33346796,0.25047177,-0.048285652,-0.07881405,0.08418525,0.13056718,0.13100728,-0.25935134,-0.08580556,0.32506666,0.047159437,-0.35885924,0.09717119,0.018651655,-0.14156193,0.17010863,0.3004884,-0.4380487,0.4799723,0.18280153,0.001098892,0.44943678,-0.027294185,-0.43485132,0.06657427,0.24422942,0.2579766,-0.41789997,0.04239965,-0.21721858,0.34073937,-0.2798179,0.11534585,-0.15083227,0.07241963,-0.016877785,-0.017584456,-0.10903174,0.018965881,-0.10672076,-0.10238612,-0.26078618,0.20997834,0.20069285,0.14811698,-0.13139874,-0.2059172,-0.17994827,0.25325745,0.08500693,-0.012183069,-0.14221148,-0.12558773,-0.32683116,0.09902262,-0.26239252,0.22491698,-0.12947148,-0.0136886295,0.42064905,-0.043667123,-0.31097904,-0.13813497,0.33872616,-0.30672985,-0.06741561,0.055255465,0.19666764,-0.2462267,-0.19347453,0.07589484,-0.10245185,0.101999134,-0.18383852,0.19430354,0.2684434,-0.2455675,0.21992894,-0.14089021,-0.20036301,0.2679302,0.22217548,-0.04874074,-0.36349466,-0.32183042,0.18893391,-0.06390952,-0.16102758,0.37641755,-0.0059348503,-0.029674072,0.29419878,0.0071691074,-0.009716282,0.077146016,0.44583625,0.34210664,0.35528523,-0.19164893,-0.1722281,0.09172259,0.32204655,-0.11794618,-0.104355946,-0.2128214,-0.16033976,-0.22000478,-0.12397016,0.008239116,0.018454025,-0.16178323,0.20840636,-0.10683203,0.22642504,0.043309685,-0.13922228,0.18048264,-0.19310269,0.010700505,0.311064,-0.34468937,-0.2699812,-0.20502837,0.02246799,-0.08382929,0.12713738,0.13254671,-0.13345455,-0.38088506,0.26110667,0.22369446,-0.20072973,-0.11807729,0.31262657,-0.2109708,0.23833348,0.30542713,0.02788311,0.30997312,0.14717421,-0.007479029,-0.15379004,-0.20501888,0.30371144,0.08652993,-0.25449553,-0.32098174,-0.37452403,-0.27417096,0.24760462,0.3850066,0.17557083,-0.20470284,0.26535144,-0.03256382,0.07248724,0.08961412,0.060488682,-0.154003,0.28694534,-0.24943954,0.089075886,-0.06308578,-0.15671998,0.0057545877,0.020006035,0.13468117,-0.118905045,0.2848854,-0.13071892,0.25708562,-0.15060975,0.19489732,-0.123354636,0.10741997,-0.30440935,-0.0074488693,0.061508164,0.15931226,-0.106722586,0.29553312,-0.08252022,-0.0806348,-0.14515893,-0.011564073,-0.16463745,-0.12217807,0.30144772,0.030035174,-0.306578,0.24541056,0.030937264,-0.106475726,-0.223003,-0.29082388,-0.05412046,-0.14191128,-0.27981356,0.3189176,-0.20898005,-0.09087006,0.030244594,0.1503815,0.33625007,0.05423562,-0.29524478,-0.034055393,-0.3639943,0.11323998,0.014468845,0.08096134,0.3327417,0.21782325,-0.2770978,0.40105242,0.16631517,-0.2467838,0.11552699,0.4628922,0.07756585,-0.01277275,-0.31928572,0.158726,0.06762238,-0.17295478,0.073334,-0.43926626,-0.1028634,-0.09213614,-0.26957843,0.010713107,-0.3897316,0.122679934,-0.043111477,-0.0111046005,-0.07196266,0.24195841,0.18191655,0.29774722,0.21986328,0.13769819,0.2443093,-0.4321309,0.08284785,-0.0920366,-0.1151703,-0.1301221,0.08263328,0.34953296,-0.43204537,-0.33474785,-0.14905035,0.09563804,0.28957987,0.033267215,0.1426562,0.17962947,-0.1948569,-0.12450466,0.3437434,0.2215504,0.34558123,-0.0460083,-0.37695384,0.011389729,0.08434374,-0.44455662,0.37596428,0.07714384,-0.25919843,0.26891813,0.17801355,0.1001403,-0.17052718,0.10599703,-0.10710586,0.23165631,-0.16120927,0.39457154,-0.38141647,0.38164628,0.07396674,-0.07873933,0.13970728,0.21183464,-0.08280552,0.0848793,-0.18834081,-0.29196465,-0.20740566,-0.17024189,-0.080118716,0.21582557,0.16148925,0.28516963,-0.17151254,-0.05476259,0.23636639,0.25631696,-0.17249495,0.023229651,-0.17741106,-0.3936214,0.057120916,-0.27785924,-0.29203027,-0.21287681,0.05099714,0.18879668,-0.40010184,0.055559218,0.314612,0.23122534,0.02655923,0.16774234,-0.101224296,0.060556643,0.041574087,-0.35009724,0.13090679,0.21585502,0.11410068,0.37135985,-0.21603799,0.37905627,-0.10708932,-0.19804862,-0.06750953,0.3233545,0.039274216,-0.22153898,0.2893968,-0.32893834,-0.24942812,0.17482148,-0.19841067,0.09342584,-0.11039992,0.3464246,-0.23578781,-0.12474045,0.17550321,-0.20382771,-0.16029376,0.07734092,0.25921252,0.1932025,-0.05044223,-0.5626981,-0.3275725,0.33972332,-0.029109905,-0.03892968,0.056760754,-0.029240426,-0.11180169,-0.09159798,-0.2923731,0.31958306,0.12327941,0.091305114,-0.32319555,0.2199156,0.21529135,-0.0945679,-0.0042095794,-0.060973722,0.2075873,0.3085774,0.14167073,-0.23718664,-0.24355042,-0.33827138,-0.07577149,0.361883,-0.07167506,0.18419026,0.2313384,-0.14537565,0.18531235,-0.20939375,0.0829728,-0.3237235,-0.31466627,-0.21051788,-0.014235001,0.11161071,-0.0311009,-0.20446897,0.45059946,-0.070155345,0.034764096,0.27329507,-0.2247882,-0.31075618,-0.1898687,-0.098748185,0.09638698,0.28403148,-0.08139591,-0.108450234,-0.20020528,0.6162544,0.011173303,0.30127752,-0.29038584,-0.46358064,0.25831717,0.080302544,-0.22212613,0.0044742236,-0.14884764,0.3825412,-0.34007776,0.042948022,0.34847483,0.17010625,-0.04929276,-0.22384779,0.3653948,0.111985445,0.40181226,-0.16774625,0.39455095,0.1368749,-0.014866946,0.07038768,-0.17942993,-0.23093377,0.051861852,0.021618648,0.065924056,-0.24331121,-0.24950992,-0.37517464,0.17674907,0.028622594,-0.24456194,-0.096504256,0.21564174,-0.22734603,-0.2696569,0.4044778,0.41058013,0.18330261,0.34245992,-0.24231349,-0.16280055,-0.25508103,-0.0865626,-0.30126047,-0.303229,0.1422858,0.042869356,-0.17351536,-0.018354923,-0.11547568,0.30487546,-0.20033371,-0.01994497,0.38534358,0.02172281,-0.104001425,0.054003976,-0.024409456,-0.23466781,0.23796627,-0.014479641,0.25085855,-0.12649614,-0.14324163,0.17707075,-0.38543898,0.15147053,-0.4100442,0.3463347,-0.070746765,0.15650485,0.21455537,-0.3142468,0.14150546,-0.2087047,-0.2253611,0.10104379,-0.01940122,0.05612824,-0.14416154,-0.061035074,0.16847311,-0.33587795,0.06750223,0.30592647,0.059669454,0.31426048,-0.024818502,-0.322178,-0.07998077,0.29095027,0.20765318,0.3731415,-0.082814306,-0.18195947,-0.17105305,-0.06615685,-0.07606408,0.07737445,-0.17995158,-0.2560916,0.28371614,-0.18455215,-0.07182819,-0.041172136,0.20140868,-0.15142994,-0.1387638,0.26331994,0.023339458,-0.015192315,-0.17823845,0.29772666,0.006815551,0.2617086,-0.16958505,0.2584016,0.08206933,0.3109127,0.31960297,0.2666815,0.011983118,-0.09470225,0.12867981,0.20296039,0.2764255,-0.35916132,-0.3103656,-0.3176618,-0.24596784,-0.23005092,0.080667876,0.0038003942,0.2099015,-0.24122414,-0.2716851,0.24804562,0.21192475,-0.14703196,0.27469584,-0.041652117,0.27437866,-0.0513673,-0.20705205,-0.14232603,0.29220363,-0.41044596,-0.22525685,-0.08801605,-0.13333066,0.23228084,-0.31675723,0.17794657,-0.19583152,0.019727727,0.34908515,-0.19382627,0.23451236,-0.057948265,-0.20161808,0.07825263,-0.38809925,0.025301127,-0.49142838,-0.101934314,-0.25073224,0.13212995,0.2766063,0.14886533,-0.14236592,-0.14983216,-0.22812323,0.37201184,-0.13808256,0.25000057,-0.26996782,0.15890095,-0.09903135,0.3358217,-0.19432884,0.16621272,-0.36446282,0.45309877,0.084082365,-0.038809586,0.22277933,0.29075292,0.04837939,-0.10401592,-0.24866892,0.23052129,-0.009073709,-0.33811957,-0.057366714,-0.31645343,0.16517378,-0.3240329,0.13912025,-0.16614515,0.07321335,0.26021996,0.10831877,0.26509938,-0.35442942,0.15896997,-0.08975391,0.16810983,0.1463729,-0.2854438,0.028703582,0.12871759,0.5571269,0.033490125,-0.17658553,-0.15938811,0.28765967,0.21899746,-0.35555768,-0.3063582,-0.28505674,0.025150295,-0.2184465,0.09777238,-0.226016,-0.17509556,0.16766399,0.08022578,0.1977853,-0.36317217,-0.099838264,0.15805015,-0.051968526,0.14991596,-0.075759694,0.33201006,0.038989503,-0.25533208,-0.039417464,0.1558057,-0.006321096,0.2747445,-0.068514995,-0.32857051,0.42670092,-0.16076261,-0.027448421,0.10454293,-0.047148515,-0.20071378,-0.14870727,0.19562297,-0.013531556,-0.13540299,-0.057112463,0.2519518,-0.3687782,0.5076381,-0.062535934,0.069829226,-0.17611034,0.09416904,-0.36159253,-0.2987913,0.11191148,-0.21571872,-0.0664155,-0.18673684,-0.084840186,0.036020845,0.15448304,-0.096238986,0.25062814,0.011957574,0.11298657,0.16726667,-0.15989102,0.27484316,0.036311004,0.20606361,0.20377563,-0.21881674,0.040370163,0.19325083,0.1438575,-0.29796755,0.07238337,0.035858527,-0.041686285,0.14429702,-0.32076058,-0.06279618,0.007924346,-1.4232953E-4,0.14893293,-0.25510952,-0.30720833,0.03074366,-0.13301967,0.052852295,-0.11884278,0.025424227,-0.07724918,0.13187687,-0.21907844,-0.22640008,0.31621453,-0.31837782,0.41121563,0.045896582,0.31592563,0.29617873,0.49184838,-0.1881224,-0.14667507,0.08418638,0.54263955,0.049710404,0.17595619,-0.21804497,0.20272288,0.11335541,0.30163297,-0.13883753,-0.2560321,0.21721463,-0.24453795,-0.26379135,0.07193681,-0.12053803,-0.1663209,0.30369055,0.24396917,-0.28855136,0.12226588,-0.22292154,-0.21509413,-0.33559462,-0.28090256,0.0023746032,0.13122982,-0.32214853,-0.24757679,0.32997695,-0.057311952,-0.15986162,0.46189943,-0.037866,-0.14287777,0.0037601762,0.13548312,-0.20885092,0.31210336,0.09818751,0.14116706,0.30634,-0.2748732,-0.1546561,-0.10686426,-0.111267895,0.39910164,0.014812812,0.43737984,-0.16947632,0.088666804,-0.023458408,-0.09873434,0.32214597,-0.060968306,-0.27909923,0.073389955,-0.12816022,-0.17926319,-0.09885612,-0.14719787,-0.35919014,0.10277723,-0.019651672,-0.088732235,-0.18837838,0.26953033,0.19105215,-0.08708771,0.37137896,0.1163478,-0.08408198,0.009674987,-0.34817708,-0.3872392,0.0861391,-0.27800956,0.024773233,0.10976642,-0.058571965,-0.23202495,0.5380778,-0.27340722,0.1006709,0.4197819,0.3348969,-0.026813032,-0.1750703,0.14427803,-0.13419126,0.23028012,0.1596406,0.061860956,0.01990495,-0.24400094,-0.15684223,0.004296486,0.066714644,-0.2552262,-0.14817238,0.15515248,0.03140124,0.31671542,0.2004298,0.20646532,-0.051980823,0.09531879,0.33370578,-0.09365389,-0.27479085,-0.05508825,0.42238736,-0.2948095,-0.3458559,-0.14094293,0.17223126,-0.092226386,0.19731295,0.017490977,-0.15319808,-0.27367443,0.1711138,-0.07759984,-0.14407559,0.15349127,0.30942082,-0.021157606,-0.027059352,-0.013209863,-0.0059617558,0.10011498,-0.33708566,0.17048636,-0.07323697,0.0032908646,0.34965882,0.25730932,0.0010283645,-0.30089137,-0.056735024,0.20881738,-0.33771586,0.22050083,-0.066563964,-0.2091148,0.008216059,0.050527856,0.15591487,-0.2977305,-0.29732627,0.11243975,-0.09584563,0.015245,-0.14898181,-0.32286918,0.16000168,0.18649396,0.06393676,0.12798567,0.37985912,-0.298256,-0.0115802195,-0.17567165,0.29890934,0.18234691,-0.13504158,0.073084675,0.13640507,0.14602934,0.071692005,0.05667919,-0.20451657,-0.01295617,-0.23467508,-0.29714692,0.44398028,-0.040918846,0.15754299,0.30713385,0.049223542,0.04034149,0.3507415,-0.26654926,0.24805933,0.032197077,0.35123503,-0.14228626,0.25282025,0.054473266,-0.08775896,-0.2599419,0.12618126,-0.09047409,-0.19038665,-0.07950126,-0.38670474,-0.08156013,0.036812343,0.60723454,-0.10482152,0.36758852,0.10801769,0.012267502,-0.065264165,-0.21702415,-0.06718963,-0.12177691,-0.16368924,0.15942234,-0.07430176,0.26268578,-0.30747417,0.0043937047,-0.030167632,-0.13518307,7.581025E-4,0.20411502,-0.087481916,-0.1738044,-0.22653314,0.26500943,-0.22674865,0.1664631,0.15178786,0.30471006,-0.050047033,0.34282076,-0.3226656,-0.21481882,-0.005371836,0.17057009,0.0075347205,-0.1089492,-0.0036287573,-0.2056979,0.35661295,0.17046557,0.17016771,0.14743592,0.17550473,-0.17104892,-0.3113194,-0.08600961,-0.29816085,-0.19197516,0.018554535,-0.007963049,0.14169809,-0.055256844,-0.067992605,-0.11129363,0.37551874,0.45026428,-0.30247793,-0.14697425,0.1699422,0.09534393,0.15833692,-0.1747728,0.074904986,0.36569247,-0.02612409,-0.36716136,0.18233083,-0.32211477,0.2206764,0.078173995,-0.18628445,0.15111807,0.21840596,-0.30634066,-0.15070866,-0.14357482,0.32632,0.3860668,-0.27649817,0.07535889,-0.523253,-0.26032403,0.22922786,-0.1454579,0.36089197,-0.36587584,-0.0036876616,0.053300273,-0.14157352,0.08706077,0.27914992,-0.40001622,0.050625958,-0.103559375,-0.13138844,0.15307797,0.16401611,0.2613766,0.117044315,-0.41862473,0.087356046,-0.38585502,0.034492042,0.049989976,-0.11908136,-0.3717681,-0.083547235,0.25129116,0.1594199,0.059836272,0.44545826,-0.106397934,0.31090528,0.046148524,0.22211553,0.40865532,-0.10476317,-0.25024718,0.13664116,0.14604735,-0.13246204,-0.41678107,0.092364036,-0.2577837,-0.23662631,0.31157386,-0.12977561,0.45036057,0.08898597,-0.060561057,-0.10933346,0.0070191943,0.07364512,0.1665216,-0.13617535,0.10919416,-0.22687083,-0.20963664,-0.25115386,0.17307436,0.042140346,-0.27614346,-0.017839592,0.030082677,0.2231175,0.09609608,0.3061895,-0.062119573,0.11532316,-0.12362929,-0.27985188,-0.24943249,-0.057444584,-0.108450525,0.08763744,0.19263028,-0.23193307,0.1661587,-0.31023315,0.12559487,-0.34429792,-0.2344072,0.1090436,0.07369141,0.18081065,0.2433825,0.26433888,-0.24263261,0.24955107,-0.092327245,0.107753575,4.762149E-4,0.09681633,0.12112578,0.3458798,-0.4115792,-0.093968555,0.546058,-0.027955713,0.32428545,-0.005370062,-0.42084822,0.30460346,0.04452003,-0.07321979,-0.35360095,-0.17270102,0.2976166,-0.37332422,-0.1302227,-0.09615903,0.12374304,0.004674198,0.013773286,-0.0065148827,0.051933907,0.30635643,-0.21446097,-0.105895765,0.3296499,-0.26829895,0.13241418,0.029555816,0.23688199,-0.37531757,0.24632782,0.110242836,0.041540608,-0.29709765,0.11754615,0.009621856,0.22408119,-0.047037594,-0.09805653,0.08255427,-0.34389627,-0.032040622,0.29225442,1.7752589E-4,-0.050047994,-0.23762171,0.17585841,-0.14859787,0.29696026,-0.03301676,-0.29209206,0.10678822,-0.21899109,-0.2059808,-0.16803837,0.29024523,0.1694999,0.014064889,0.03246931,-0.06619995,0.03973134,0.35905412,-0.17136613,-0.036336154,-0.24960345,-0.12640618,0.30880174,0.36982793,0.19761974,-0.09165594,-0.122192,0.04695551,-0.037717473,-0.09836865,0.13483126,-0.26533836,-0.18915284,0.27975544,-0.08379119,0.2899573,-0.2329795,0.10736116,-0.067232355,0.21113876,-0.03336954,-0.30729634,0.20356406,-0.0053217136,-0.2291623,-0.4425853,-0.037491273,-0.09300551,0.1318061,0.10548705,0.16086818,-0.22417174,-0.02701336,-0.19527069,0.22358349,0.041736655,0.26415882,-0.009791881,0.19742252,0.3646211,-0.0725984,0.12802304,-0.26122743,-0.04079962,-0.09910658,0.341757,-0.29789236,-0.33913717,0.19095965,-0.14435612,-0.02226699,0.117879614,0.07255167,0.03048436,-0.112128645,-0.105841056,-0.25535023,-0.121026725,0.20289792,0.1402957,-0.30000845,0.27050963,-0.26723582,-0.09343929,0.0381219,-0.36571237,-0.11354862,-0.32679713,0.347117,0.23070604,0.06973884,0.22551866,-0.22663257,0.037657127,-0.15756327,0.054308902,0.35383543,-0.14381197,-0.20642225,0.31192878,-0.32892892,0.10188308,0.10219838,-0.17538536,0.339398,0.01028883,0.11836657,-0.3395846,-0.20235886,0.10255096,0.28195342,-0.3286037,-0.18925866,0.34150183,0.032002676,0.07828794,0.29154935,0.45339775,0.20707035,-0.16327725,-0.17609394,-0.2422646,-0.05471944,-0.25512743,0.22027604,-0.25343043,-0.05094481,-0.31584734,0.24057363,0.14922127,-0.008541937,0.2025977,-0.12695046,-0.15318398,0.32104522,-0.12906814,-0.31250992,0.31593904,-0.16315563,-0.3343533,0.3058025,-0.07780464,0.008365456,0.05333137,0.34816673,0.17193574,-0.014002832,0.0063664587,-0.17558141,-0.16094474,0.19356218,-0.0016184656,0.11408891,-0.011012851,-0.1022735,-0.19539472,0.15064788,0.05722266,-0.12590428,0.07848317,-0.20128585,0.12708896,0.09359256,-0.25044852,-0.08145931,0.10602135,-0.102835074,-0.19893849,-0.14996083,0.262353,-0.25341228,-0.17319563,0.06741539,0.26803857,0.24343066,0.06847035,-0.034473144,-0.0557148,-0.21587585,0.18840076,0.25445467,0.064862095,0.10492626,-0.17582196,-0.3665907,0.30292374,-0.03785852,0.49389488,0.29689154,-0.37887073,0.33097067,-0.18450007,0.24699111,-0.1461267,0.031492796,-0.28196362,-0.4472412,0.16219798,0.03379534,-0.40382063,0.3247946,-0.23220958,-0.10641184,0.013056239,0.16410357,0.23318161,0.060304854,0.49759954,-0.029504858,-0.16601552,0.20373666,0.21946502,-0.13300239,0.05548656,0.28058776,0.010017335,-0.0014984746,0.14838868,-0.15199749,0.10792165,0.3723939,-0.18206413,-0.0057309465,-0.123418614,0.20379229,-0.2662243,-0.34596568,-0.123126276,-0.2098174,0.055064652,-0.248767,0.045838576,0.106060274,-0.03698107,0.14754722,-0.12190827,0.46666333,-0.36502814,-0.22126856,0.19638944,-0.41299254,-0.17763416,0.19917722,-0.08637413,-0.27106205,-0.10125615,0.09649002,0.1719487,0.03952352,0.2791311,-0.20186655,-0.05867039,-0.1253314,0.061782785,0.33226088,-0.26199022,0.1890118,0.18734102,0.39628,-0.09616235,-0.023694545,-0.045211952,0.024390534,0.25408375,0.1739362,0.09286935,-0.1836501,-0.11531763,0.081168175,0.10940767,0.30009976,0.2402671,-0.31062865,-0.13599508,-0.05092055,-0.16495237,0.29838678,-0.00886326,-0.3205823,-0.15235728,-0.09541495,-0.21727164,-0.062199194,-0.30472288,0.06229377,-0.14796841,-0.33353475,0.35448733,-0.039347664,0.24719027,0.31379917,-0.13221893,0.12900005,0.06145653,-0.2798913,0.078576885,0.12337864,0.27873293,0.025907788,-0.13883412,-0.212244,0.15137537,0.1676743,0.24458727,-0.0714823,-0.34154874,-0.081697,-0.13584031,0.48035088,-0.13890511,0.0026469307,-0.2397468,-0.18059057,0.2942933,0.08747393,-0.007313176,0.18754855,-2.7627219E-4,0.16211832,0.09657797,0.09718347,-0.08327251,-0.15191694,0.11995784,-0.22358102,-0.08323812,-0.32028177,0.07586754,0.2598141,-0.10043151,0.091934346,-0.2026776,0.30287322,-0.15525895,-0.10963587,0.17836824,0.41445544,-0.33162683,0.23411931,-0.2364098,-0.120357566,-0.2369884,0.10080339,-0.0019474964,0.20651156,0.0071293274,-0.3646124,0.28202215,-0.30223396,-0.19408183,0.32227227,0.05252736,0.31116742,0.06601245,-0.23792735,-0.15933593,0.0017627965,-0.36348438,0.02093336,0.16882184,0.0056052427,-0.2779806,-0.088343866,0.099214114,-0.047659732,-0.40086597,0.10390005,0.29737857,0.038508236,-0.08696518,-0.14615881,0.37536278,0.25430608,0.011338871,0.11604943,0.11045592,0.28032055,-0.17275472,-0.2590453,-0.059658602,0.20236154,-0.05355419,-0.059747968,0.00501687,0.47525498,0.12504828,0.05589423,-0.26165476,-0.08551281,0.18646917,-0.18647268,-0.021091647,-0.055220347,-0.21128988,-0.27665964,0.12269675,0.12631263,0.2012668,-0.023632923,-0.019057108,-0.085638694,0.08212665,0.1136548,0.06769734,0.2795492,-0.30860195,-0.13137925,-0.4827034,-0.034484595,0.07564553,-0.4397673,-0.250659,0.0399658,0.103406295,0.2781274,-0.148178,0.3450485,0.051728144,-0.072717816,-0.30424485,-0.25718197,-0.23032513,-0.28629437,0.3290549,0.09508007,0.26910388,-0.4408909,0.058033578,0.34131306,-0.01065432,0.24666451,0.12428675,-0.13658422,0.5215018,-0.21965319,0.26215014,-0.37103364,-0.009761746,0.113940656,-0.5105236,0.068736166,-0.111624934,-0.17568362,-0.13696119,-0.052664503,-0.17939591,-0.061454084,-0.05009304,0.123170994,-0.121756576,0.14823808,0.4040233,-0.08403639,0.09671189,-0.013431328,0.23686859,0.1278181,0.09930956,-0.028763305,0.21458161,-0.26158473,0.17774425,-0.06456549,-0.33779207,0.14836992,-0.062162556,0.07840761,0.0926484,-0.12091032,0.07100205,0.32284084,0.27788258,-0.13824533,0.012163246,-0.019947456,-0.009336472,0.022506572,-0.15501791,0.125279,0.07490558,-0.08717836,-0.11896544,0.074429885,0.2516297,-0.06597301,0.24507636,-0.03716741,0.23731595,-0.23849511,0.041818205,-0.33731174,0.39721808,-0.22293843,0.07282639,0.15493597,0.120640285,0.39062527,0.05213568,0.28487402,-0.20701407,0.030647628,0.033327438,-0.19367954,-0.024421843,-0.39521167,-0.13252985,-0.19630493,-0.030869491,0.31017682,-0.0457806,-0.04147301,-0.28536582,0.33153993,-0.29101044,0.27218285,7.4564083E-4,-0.048794217,-0.06819463,-0.0125173535,0.1822145,-0.017741257,-0.009055926,0.10654865,-0.11792526,0.20546551,0.30315116,-0.33747727,0.21834095,-0.037427936,-0.055695742,-0.14565213,-0.2716035,0.23124024,-0.094600126,0.38302803,0.18488337,-0.0038588583,0.085960746,-0.11888048,-0.23954259,-0.31076908,-0.04131007,-0.07772948,-0.04583536,0.11881804,-0.17175828,0.20397344,-0.27589038,0.048655916,0.17781982,0.22974661,0.1409175,0.16824573,0.112858325,-0.33005896,-0.04854101,-0.16492796,0.17712101,-0.25000128,-0.38807198,0.08886727,-0.0023405878,-0.15999182,0.2707,0.05781252,-0.3043642,-0.20068206,-0.31180936,-0.118020065,-0.069810696,-0.12684682,0.01864931,0.041197564,0.17400761,-0.010193666,-0.28510752,0.38472134,0.1794797,0.012982693,0.018882869,0.27825812,0.22041239,-0.12502722,0.3230719,-0.19881557,0.3443836,0.36191645,0.124089785,0.06617956,-0.004496165,0.046211045,-0.029357262,-0.022079235,0.01952855,-0.09294411,-0.4687324,-0.33381546,-0.07446787,-0.29177487,0.08156112,0.14365594,-0.0642792,0.18412982,-0.036932115,-0.15142985,0.39827392,-0.20484488,-0.16164616,0.23093952,0.06742109,-0.11615122,-0.060606748,-0.2515619,-0.30928773,0.1741369,-0.1807766,0.16334832,-0.16006954,0.21704479,-0.20029251,0.16136621,0.016346116,0.15579757,-0.15038021,0.3796575,-0.17155366,-0.12138912,0.45628932,-0.122644365,-0.25351065,-0.04170842,0.19689521,0.06450046,-0.20035751,-0.27753422,-0.29025552,0.27968717,0.11028177,0.078475215,0.06958767,0.20263605,0.037513953,-0.20776083,0.122669645,0.032994196,-0.0012147161,0.07935189,0.32489556,-0.28822154,0.18769021,0.22632822,-0.062338248,-0.1747016,-0.17374928,0.15584654,-0.24858034,0.13635826,-0.14722669,-0.12027179,-0.11887189,-0.40639135,0.09652266,0.26089945,-0.058920275,0.020852683,0.39077652,-0.23668776,-0.21417964,0.17321481,0.06263744,-0.12932105,0.3495463,-0.31130382,0.2927933,0.26582563,-0.3406061,0.29142588,0.090473,0.1890237,0.10122765,-0.14959821,-0.21360883,0.18589023,0.198121,-0.05355275,0.13568887,-0.21385069,0.20988992,0.15320759,-0.10699862,-0.257615,-0.0711114,-0.17333265,0.12971649,-0.09452556,0.0598829,-0.22181556,-0.14386643,0.15038697,0.019539852,0.21867278,-0.2602148,-0.16023737,0.24310967,-0.017263653,0.2992604,-0.2518196,0.16244139,-0.019486334,0.025496325,-0.12174282,0.3918689,-0.32351303,0.24540202,-0.5179177,0.23815005,0.21738729,0.28879803,0.16868724,0.074658334,0.1996312,0.18484887,-0.29702747,-0.2493614,-0.2312184,0.1110278,0.12729286,-0.10413596,-0.14703755,-0.23254517,-0.13819697,0.2106297,0.05177909,-0.04749566,0.2489753,0.23148207,0.06911417,0.13598087,-0.27145424,-0.19513722,-0.027897127,-0.0768813,-0.10876043,-0.40341127,-0.05660888,-0.11154457,-0.18434574,0.30016237,0.08577934,-0.026802849,-0.2210274,0.052761078,-0.00835258,-0.03816147,0.23325677,0.16298191,0.0744843,0.19189703,-0.22206005,-0.37687874,0.28194118,0.15913267,0.2789124,-0.29018375,0.017613137,0.26602387,-0.14018244,0.18655302,0.19732518,0.3088909,0.13242887,-6.4199674E-5,0.05459141,0.10163483,-0.44530213,0.23804155,0.26838565,-0.3348161,-0.11327811,-0.106832035,-0.009342849,-0.2509829,0.3482202,-0.3585214,0.10600695,-0.033941418,0.1736766,-0.12348698,-0.18629517,0.25010142,-0.07839832,0.18950745,0.31905553,-0.35861665,0.035804432,0.08420994,-0.39364514,-0.29951313,0.22097614,-0.3010922,-0.03746058,0.06514579,0.051303916,-0.40018603,0.047336817,0.469788,0.09128165,0.3298948,0.1188954,0.21289983,0.3271242,0.19754557,-0.21454255,0.20023242,-0.07415266,0.24153008,-0.44070908,0.2856006,0.039454147,-0.2969009,-0.32742158,-0.22637372,-0.40520158,0.14898646,0.1003984,0.255893,-0.12209947,-0.3232378,-0.047803313,0.0076387655,0.07195933,-0.1199648,-0.13363725,-0.29540366,-0.22925217,-0.050099764,-0.41057843,0.35162622,-0.008984808,0.16859122,0.23912595,-0.13248247,-0.13869554,0.5379969,0.26360378,0.46382216,-0.114825025,0.0023253935,0.059065185,0.06072739,-0.07618162,-0.1840649,-0.17911282,0.24956065,-0.10558966,-0.06686134,-0.056773685,0.21021919,-0.26201102,-0.1635851,-0.072077185,-0.23636986,0.007605355,0.44640177,-0.0049751117,0.39720854,-0.14764537,0.12220063,0.019877272,-0.052327886,0.07353223,0.33987138,-0.13427615,-0.14948687,0.16179074,0.016611451,0.30369663,0.2348602,-0.2677059,-0.22162691,0.007489777,-0.29934022,0.33071756,-0.15812352,-0.0019200607,0.27733442,0.15524347,-0.07264027,0.19133005,0.011965045,-0.11972206,-0.2106764,0.22318709,-0.27509478,-0.27274325,-0.060463183,0.08205035,0.037496593,0.26920798,-0.2308076,0.19110954,0.0046856613,-0.10840654,0.02757552,-0.21282817,-0.043129474,0.12670216,-0.40921867,-0.22653162,0.37059057,0.3893711,-0.032739833,0.089907385,-0.28090057,0.21522027,0.07555865,-0.13422295,-0.36595157,0.022696404,0.1302879,0.14035839,0.010450244,0.024493428,0.19402656,-0.13947861,0.17051701,0.09515957,0.06644406,-0.30769905,-0.3241597,0.17760894,0.1719088,-0.2679052,0.105298884,0.14363384,-0.2931403,-0.23052675,0.31892797,-0.15331104,-0.11977811,0.043503176,0.1576772,-0.3211372,-0.32153523,0.040829808,-0.2481144,-0.030338015,-0.0036742121,0.18062894,0.17928219,0.33866152,-0.10501178,0.0370331,0.113541394,0.1246396,0.046424046,0.039875004,-0.029278774,0.23330298,0.28729987,-0.008898209,0.011633366,-0.1952146,0.20309447,0.22604412,0.26411462,-0.05720294,-0.24218877,0.31109568,0.22227116,-0.25576946,0.4028557,-0.0817376,0.07398253,-0.01853604,0.03219284,-0.14172798,-0.30441397,-0.3451864,0.21583155,-0.22700594,-0.17640905,0.2226476,0.42546883,0.44975597,-0.14098598,0.3836597,-0.41702455,-0.41549033,0.15185526,-0.25493065,-0.33498394,-0.32935974,0.17304178,-0.38686725,0.29136428,-0.15926506,-0.014527173,0.1585964,0.32831106,-0.28057203,-0.06587076,0.19998106,-0.005408733,-0.03627358,0.030447038,0.049681015,-0.017767318,0.11263565,0.073384106,-0.14921042,-0.1017322,-0.23392387,0.21056505,-0.08479225,-0.2756894,0.27913827,-0.25036234,-0.1168259,-0.17629592,-0.2578298,0.24372782,-0.14595293,-0.15330249,0.29014844,-0.34087372,0.025709279,0.17938021,0.36849388,0.2033904,-0.023876237,0.09702415,-0.05244563,-0.48611546,0.010425889,-0.10236019,0.015208104,-0.08834234,0.41403478,-0.12092703,-0.23734885,0.11604505,-0.047844432,0.13139647,-0.19383876,-0.3341274,0.048452046,0.30094248,0.3070472,0.35590544,-0.3510002,-0.12931591,0.16101024,0.14692032,0.17241773,0.022842925,-0.0044225454,-0.062746786,-0.19400838,-0.30230018,0.26097053,-0.2131067,0.34348467,0.29787976,0.09941711,-0.3488432,-0.20578022,0.11787528,0.08823864,0.261275,-0.1464208,0.24495445,0.048727643,-0.23684405,0.30565795,-0.31156698,0.0762131,-0.17567009,0.26213434,0.16648494,-0.36787796,0.07998424,0.4148101,-0.36722142,0.017230751,0.28334042,-0.029543942,-0.106312156,-0.0070526083,-0.41650766,0.19324973,-0.24839972,-0.32923064,-0.34977826,0.2859918,-0.11358443,-0.009791508,-0.11627723,-0.08551304,-0.3098069,0.12414318,0.22336657,0.31239378,0.12485794,0.23947549,0.13451597,-0.06416529,-0.5248471,0.057643782,0.05151076,-0.17709726,0.09189852,0.30982283,-0.17992796,-0.031567793,0.052648254,0.5653902,0.18967266,0.026767338,0.004724473,-0.24464786,0.12813169,0.23646995,-0.19417639,0.1870172,-0.3177195,-0.074231185,-0.13833368,0.043225084,0.20073967,0.11124063,-0.22350031,-0.059367858,0.36168838,0.19880077,-0.0043973653,0.28828436,-0.1194437,-0.13366696,-0.26850933,-0.004203493,0.21062765,0.098128006,-0.2977309,0.09221924,0.2189783,-0.22998244,0.2329288,0.027044956,-0.23023683,0.046642657,-0.14995965,0.07037085,-0.32160228,0.047680583,0.20266461,-0.1303632,-0.4833607,-0.26686954,0.023337586,-0.113875985,-0.4768717,0.17136803,-0.085586764,0.17657861,0.37139925,0.2966293,0.033318445,-0.2096954,0.043393146,0.034252193,-0.022752868,-0.10759404,0.15794131,-0.17502321,-0.17730008,-0.3671646,0.1426502,0.19913408,-0.13737966,0.26878837,0.18964283,0.22210294,0.15968032,-0.27468222,-0.27576533,-0.28703684,-0.037418883,0.19290678,-0.033820044,-0.18433017,0.17951563,0.21953481,0.23705564,-0.08766285,-0.023245268,-0.030163372,-0.12100989,-0.062639974,0.24219929,-0.32863945,0.22643554,-0.033997234,-0.04813473,0.14489308,0.32501456,-0.29701015,-0.34911445,0.06659483,0.31593987,0.28172907,-0.21887805,0.13115346,-0.045330193,0.06549032,0.053164247,0.114619225,0.19313337,-0.2603742,0.18029806,0.118071,-0.39564654,-0.11890382,-0.3558114,0.005911958,0.40451533,-0.08702822,-0.090581656,0.22104529,-0.014355405,-0.15549427,0.20752347,-0.21274509,0.3474399,-0.3566832,0.06307085,0.12037253,-0.21470374,0.15992479,0.07239316,0.22761126,-0.07939452,0.36729306,0.17800182,-0.07514216,-0.08801912,-0.060557205,0.05283651,-0.0123077985,-0.202401,-0.23700584,0.08677132,0.10671809,-0.38054958,-0.3220818,0.16387872,0.28819522,0.10926036,0.13950947,-0.15423028,-0.3241257,0.15790878,0.026432553,-0.08040031,-0.17143814,-0.1672214,-0.029631607,-0.01284433,-0.0063962783,0.1379715,0.07385959,0.23349102,-0.039012842,0.13928959,0.08111793,0.30487332,-0.14674063,-0.1393723,0.181855,0.2317651,-0.26192632,-0.16339362,0.14259736,0.11367948,0.03457205,-0.08907056,0.063166805,0.28390482,-0.30064744,0.15985423,0.04150204,-0.037623204,0.075405784,0.13236886,0.14914714,-0.35510057,-0.06990235,0.18623693,-0.20790812,-0.13980655,-0.024143629,-0.20450284,0.3247379,0.2517189,-0.4227714,0.05056194,-0.07331593,0.11725032,-0.0041210027,-0.05493299,0.25192392,-0.28166336,0.0762482,0.106398776,0.034756277,-0.32480174,0.1500422,-0.19063744,0.08750758,-0.09251228,0.2826058,-0.23597746,-0.2224863,0.2218797,-0.060643464,0.2982901,-0.016895996,0.04899816,0.1989056,-0.052123398,-0.25194615,0.027924603,-0.11650091,0.41149864,-0.09839428,0.020532252,0.4519124,0.17553245,-0.2022131,-0.17026912,-0.21728314,0.019969828,0.050215185,-0.40142658,0.16257823,0.2998956,-0.027897555,-0.081155255,0.26586795,-0.22659019,-0.08108675,-0.013572174,0.09124879,0.1280047,-0.15882143,-0.25645748,0.05444722,-0.12961525,-0.4048987,-0.2685157,0.2858261,0.21762232,0.0018398912,-0.3139179,-0.3247283,-0.053836305,0.36350894,0.17979594,0.21155834,-0.30118197,-0.0030999952,-0.03452087,0.25702718,0.090705775,-0.42292437,-0.25356397,0.041063935,-0.21648207,0.16796461,0.02031646,0.21872315,0.35700807,-0.4365683,0.04892915,-0.09862045,-0.13279048,0.28671998,-0.19011348,-0.11495293,0.18758439,-0.10609778,-0.18490514,-0.15262766,0.30872744,-0.037718758,-0.08038679,-0.24170145,0.36445642,-0.10539051,0.35070434,0.0825349,0.3987971,0.05708123,-0.30382428,0.16878419,-0.07311876,0.045193423,0.27227637,0.009660981,0.03329932,-0.0326187,-0.042383347,-0.28634638,0.24366497,-0.24473038,0.32557502,-0.20233722,0.10446311,-0.078669116,0.23273873,-0.14668205,-0.31137905,0.19053438,0.07055082,-0.1326604,0.1576496,-0.040505145,-0.048315436,-0.04089874,-0.20872904,-0.13689034,0.30028534,0.3182462,0.107229374,-0.21997239,0.08086181,0.12309564,-0.007368499,-0.28528124,-0.096529245,-0.05930251,0.22614203,0.20004979,-0.2751727,0.21567029,0.0724734,0.41926348,0.33400628,0.20070738,0.20893435,-0.05146033,0.06734101,-0.23279418,-0.26457503,-0.28690332,-0.27590254,-0.2941902,0.34122384,-0.39656112,0.117852464,0.22537309,-0.03572418,-0.12672614,-0.08064387,0.16111103,0.104433686,-0.24381956,0.0965806,0.21855162,-0.09428602,-0.31514677,0.1311853,-0.34102878,-0.13238344,0.032569814,0.11058445,0.28236616,0.2775463,-0.15837534,0.20670071,0.07750039,-0.34720272,0.38882065,0.082495786,0.15603295,-0.49367785,0.057101246,0.12363929,-0.003115284,0.28338924,-0.24539497,0.09553024,0.08351998,-0.35962924,0.27887195,0.21102357,-0.10157263,-0.021332538,-0.24491563,0.07202981,-0.043872666,0.18666752,-0.20167339,-0.035666417,0.0054905717,-0.15992981,-0.024965856,0.11762351,0.19148582,0.19477919,-0.31284,0.07278671,0.020856988,-0.054105375,0.036658354,-0.02943896,-0.006843726,-0.0030755661,0.008806045,-0.3786107,0.24304406,0.11658018,-0.089464426,-0.19686353,-0.16092841,0.27370372,-0.16735406,0.133729,0.011402277,0.17461692,0.069104604,-0.15386283,0.17533468,0.22662978,-0.24477641,0.093685836,0.08320326,-0.007082403,0.06825333,0.08997457,-0.015187922,-0.1421184,-0.37090895,0.041787837,-0.27797619,0.29731816,-0.10942409,-0.25885648,-0.4235085,-0.37604186,0.26214236,0.20744984,-0.21740322,-0.10288352,0.19109349,0.24898146,0.32568124,0.18215023,-0.07425252,0.08903992,-0.27673924,-0.26417089,0.0634054,-0.41050947,0.19424038,0.16152665,-0.07141814,0.17711614,-0.3785089,0.24056913,0.12135747,0.20271747,0.12337998,0.17359291,-0.03270778,-0.34486064,-0.17098579,0.34580395,-0.0051472816,0.1722037,-0.05102966,-0.19131096,0.1350345,0.04494324,0.20639884,-0.24829714,0.0056159035,-0.07448136,0.11402571,-0.1985804,-0.16382807,0.08118689,-0.20687947,-0.079876006,0.14143853,-0.14866711,-0.038889848,0.042901274,0.15374148,0.32340288,0.042162422,0.22812156,-0.18341999,-0.11023377,0.09989511,0.007496944,-0.11003604,-0.5267529,0.1133269,-0.008505093,0.11300266,-0.13301574,-0.10585578,-0.22171088,-0.022452563,0.06653746,-0.078358784,0.13899755,-0.10659854,-0.33332714,0.1568859,0.23704512,-0.28887466,-0.02748909,-0.4374125,0.27748832,0.34015068,0.07260974,-0.19059859,-0.003030137,0.34932238,0.32494208,-0.1544709,0.2580078,0.09426014,0.20778745,-0.11469948,0.25046834,0.055178557,0.23368916,-0.18319906,-0.17942315,0.20362948,-0.043574646,-0.05046031,-0.002089323,-0.16587698,-0.31330115,-0.30698445,0.31909648,-0.25961646,0.25311887,-0.08006483,0.27816045,-0.05950284,0.0341602,-0.21467842,-0.047870286,0.24757029,-0.12997493,0.3574399,-0.09238514,0.19251527,-0.14871421,0.06070689,-0.21686438,-0.09038156,0.06019886,0.34636933,0.17401983,0.08746252,-0.19570982,-0.22396411,0.15992612,0.10151539,-0.3843086,0.2069991,-0.060201503,0.050104573,-0.09599317,-0.12880996,-0.14699243,-0.4703186,0.17673111,-0.33405283,-0.38512057,-0.12922856,-0.11198852,0.32379875,-0.07118593,0.42565662,0.26903743,0.2046512,0.29209334,-0.23969996,-0.28053328,0.2253746,0.012751037,0.10362835,-0.24655204,-0.13153636,-0.007688715,0.31160188,-0.26593685,0.2623127,-0.16281693,0.08775863,0.31248856,0.032671303,-0.06815366,0.26155758,0.004741824,-0.231789,-0.06737094,0.0951405,0.08280593,-0.25836,0.03056643,0.24656133,0.22658058,0.048666947,0.0703317,-0.152902,0.26857013,-0.06031772,-0.07865971,-0.11655697,-0.12766841,-0.27520537,-0.061200645,0.05953439,-0.05211271,0.09928186,0.053937506,0.24902451,-0.010787319,0.27298978,-0.2618106,-0.37795725,-0.1773226,-0.17030556,0.07983879,-0.18929589,-0.2860809,-0.15751116,0.038077064,0.258658,0.085802265,0.20235185,-0.08777414,-0.037485704,0.3337017,-0.13462311,-0.07162141,-0.21864405,0.010988184,0.3291634,0.3176936,-0.051872805,-0.21565118,-0.2512756,0.16091512,0.009790886,0.16919714,-0.24827188,-0.027428703,-0.067730725,0.16769853,0.13444771,0.18401353,-0.19339906,-0.29873884,0.00950915,-0.122897565,0.10589467,0.2269886,-0.18393508,-0.06155345,0.33757487,0.022724865,0.22315392,-0.33709574,-0.53831875,0.1428001,0.010541727,-0.085309654,-0.25554022,-0.36346194,0.08624253,0.22270943,0.061269574,0.05600085,-0.04225365,0.2504279,0.22891144,0.19201428,0.21760245,-0.27745488,-0.032274954,0.12473046,0.070850834,0.09320061,-0.08155873,-0.22544138,0.09836996,0.29702264,-0.20251854,0.04797385,0.26805672,-0.012533185,0.06005756,-0.06710302,0.22920522,0.14170681,-0.4611633,0.1744488,0.124763526,-0.21701053,-0.022888696,-0.031624082,0.2091316,-0.48918965,-0.16888401,0.060956247,0.039728347,0.012406884,-0.015287847,0.3911239,-0.21690057,-0.13839804,0.1578017,-0.10592976,0.35936272,-0.19866294,-0.08625162,0.24690817,0.18364006,0.21342607,0.18805622,0.1122707,-0.20163594,-0.16626777,0.24462946,-0.07773568,-0.27104828,0.1568242,-0.047344923,0.1205361,-0.27967533,-0.267243,-0.12802754,0.043315828,0.14254972,0.020815156,-0.10206502,-0.34631658,0.32543567,0.049320757,-0.31926587,-0.05966847,-0.058443174,-0.10416691,0.11369684,-0.27798373,0.06804882,-0.15053712,-0.08706433,-0.37476987,0.27704224,0.3064355,-0.31338605,0.122420646,0.41578472,-0.044309173,0.0065265205,0.22226386,-0.14692178,-0.1040654,-0.31118485,0.021058174,0.19828145,0.32675135,-0.13169897,-0.17760356,0.12588355,0.032108612,-0.15645286,0.33968577,0.008845216,-0.26145,0.04885344,-0.33462825,-0.0974705,-0.05808466,-0.3606356,-0.12603788,0.32544187,0.25032592,0.123291686,0.16451281,0.03439171,0.19069518,0.24617913,-0.28202638,-0.3013006,0.1071721,0.2664471,0.19599414,-0.28005984,-0.2790877,0.12609237,0.13754256,-0.114222586,0.04456019,-0.14330798,0.51557,-0.18886039,0.27791506,-0.027824275,-0.087671876,0.12482384,-0.15929952,0.21753275,0.004341459,-0.17966811,-0.10253409,-0.12632783,-0.20416017,0.17568943,-0.08353828,0.09254095,-4.7237278E-4,-0.15752839,0.31864116,-0.010556529,-0.23236327,0.16913262,-0.18374029,-0.19761159,0.16613214,-0.201222,0.03888234,-0.03270684,-0.15639897,0.27290145,-0.21721527,0.18012793,0.3081148,-0.2897199,-0.30677438,0.12253911,-0.14670706,-0.19211903,0.19329868,0.22903502,0.045173954,0.15128884,0.6212537,-0.01947969,-0.07028775,0.19885424,0.1679483,-0.32193607,0.16676167,0.03898805,-0.18370382,0.18197541,0.08442836,0.11058688,0.3763512,-0.15592414,-0.3429503,-0.2817755,0.13485861,0.105008215,0.25256827,-0.20806187,-0.06834428,0.011040213,0.32919127,-0.24632794,-0.22964662,0.16329361,-0.024331931,0.359402,-0.14628911,0.31567642,-0.096845195,0.15594038,0.25136912,0.122185744,0.30502683,-0.2509896,-0.32030362,-0.23773447,0.27183107,-0.2288046,0.34691715,-0.059070297,-0.2103386,0.31458285,-0.3739316,-0.32202965,-0.29512247,-0.14467624,0.32814628,-0.07499724,0.27886477,-0.36145633,-0.2116746,0.14269133,0.03280027,-0.047411025,-0.2075564,0.082366034,0.17396224,-0.13454005,-0.013489647,-0.092536844,0.055413194,-0.15178381,0.24413972,0.10929378,0.20997079,0.00942102,0.04223003,-0.12755202,0.25688282,0.3510307,-0.28892395,-0.39100206,0.047979806,0.69468874,0.33748618,0.010226498,0.3335984,-0.015049146,-0.22114477,-0.2320706,-0.16434583,-0.29521587,0.22946073,-0.36535215,0.16044056,0.17535022,0.1316678,-0.32978678,-0.21667492,0.14930373,0.17995024,0.14785704,0.12508294,-0.07158522,0.036164764,-0.23222987,0.032031,-0.29599035,-0.2830617,-0.4098708,0.2593461,0.29377228,0.029047893,0.4394606,0.15539329,-0.25637227,-0.23130986,0.34293085,-0.30825594,-0.07877552,-0.28075287,0.37354648,-0.1187073,0.19676356,-0.14417163,0.12120634,-0.35618517,0.3171684,0.2852852,-0.16104734,-0.117960736,-0.036601078,-7.672104E-4,-0.078267016,0.27242723,0.39542308,-0.0373107,0.22111349,0.17416401,-0.056609336,-0.15767771,0.29033068,-0.10827383,-0.088814855,-0.27669105,-0.010495771,-0.2836289,-0.12627083,-0.25628164,-0.15200928,-0.4277822,-0.21317017,0.065242834,0.35377586,0.21399091,-0.009738485,-0.30163595,0.4074002,0.036751,0.35064638,0.099047855,0.3501668,0.19996527,0.09219901,-0.110459305,0.04893324,0.0039325226,-0.18589588,0.08019389,-0.25102437,-0.26065063,-0.07237208,-0.35438597,0.12924737,0.26674,0.037618488,0.0583276,0.17971879,-0.22444065,0.36781615,0.016660282,-0.34382173,-0.2537831,0.026757838,0.34378603,-0.15048756,-0.415575,-0.33031568,0.117748395,0.3754555,0.48222527,-0.17412674,0.41223818,-0.17891939,-0.12710814,0.3512082,-0.096348524,-0.08783949,-0.13576004,0.073308535,-0.27877358,0.17217793,-0.13915868,-0.022106038,0.10983828,-0.20153537,-0.3367,0.34219143,-0.3836951,-0.42853343,-0.1798553,0.09446194,0.18609425,0.012036578,0.2170618,0.15413518,-0.3476158,-0.27929124,-0.2731453,0.23790167,-0.32440975,-0.0025019003,-0.11722969,0.2727564,-0.2975819,0.20213357,0.070288055,0.32315776,-0.21933773,0.42184302,0.35201165,-0.019887423,0.12135113,0.2834988,-0.13119948,-0.14437948,-0.111189246,-0.1461792,0.058974534,-0.3519637,-0.32996523,-0.13266154,-0.16761215,-0.3120605,0.22801003,0.09555159,-0.1097999,0.068337396,0.26079103,0.05990266,0.11900829,0.3565043,-0.17409691,0.33152562,0.042584796,-0.11584249,0.3466904,-0.08575571,-0.256594,-0.36147955,0.2991355,0.33543068,0.14183621,0.061791383,-0.33177578,0.061768472,-0.016766999,-0.048956394,0.41523197,0.17232889,-0.28821996,-0.06500433,0.3660471,-0.12906802,-0.1419317,0.2802033,0.15686977,-0.22951743,-0.26201326,0.0017618818,-0.17210615,0.2937872,-0.18034813,-0.3573148,0.23025365,0.32356685,-0.4144544,-0.23406109,-0.2227515,0.3979611,0.36588284,-0.059621543,-0.0115012,0.14453971,-0.3432487,-0.12317754,0.100881614,0.32511708,-0.23011336,-0.31355917,0.1704217,-0.077114254,-0.20441784,0.3862316,-0.07183286,0.08137458,0.250749,-0.22754711,-0.1600408,-0.17972542,-0.28737226,-0.3035747,-0.053753987,0.11330496,0.35305497,-0.30099615,0.37946028,0.26928732,0.16506633,0.0069791097,0.45751804,-0.036182366,0.2778028,-0.17464973,0.06657593,0.1751217,-0.09625757,-0.034467775,-0.2898011,0.10353828,0.16913906,-0.35386166,0.03284764,0.27558792,0.02479999,-0.06462355,-0.12931986,0.0773483,-0.019653374,0.012749537,0.1407421,0.24833871,-0.08474944,0.4196215,0.10464904,-0.30102676,0.07499845,-0.10122473,0.04338001,0.06881293,0.009421404,-0.1846569,-0.15188725,-0.28438962,-0.22437437,0.48285472,-0.25685233,-0.09315954,0.4690839,-0.35725358,0.01793979,-0.106745824,-0.1374915,0.18742178,-0.2840642,-0.14986086,-0.022131382,0.056327663,0.16072318,-0.36653113,-0.0056580473,0.14122348,-0.52400887,-0.25973466,-0.2118267,0.0056487755,0.042947207,0.08853865,0.43815154,-0.111755274,0.46558276,-0.119823195,0.3176905,-0.12044791,-0.35214353,0.2697771,-0.33961698,-0.24223916,0.16567516,-0.09569887,-0.2171867,-0.009438356,-0.07448552,-0.46571445,0.08226013,0.30630767,-0.34174368,0.04219007,0.10928309,0.183567,-0.048826315,0.11859799,-0.24873547,0.006754861,0.20108521,-0.06352735,0.328468,0.17292836,0.084286116,-0.25116327,0.24632904,-0.1428344,-0.13291487,0.0230692,0.0013501439,0.15359285,0.11621818,-0.170224,0.24869394,-0.43812254,0.32790795,0.22962983,0.31680998,0.19498383,0.049755614,-0.14247532,-0.16777062,-0.18816616,-0.2734236,-0.4134771,0.10892903,0.15724368,0.24776018,0.27427557,0.34981227,5.8472785E-4,-0.19871935,0.11592825,-0.00306755,0.11501033,0.10395311,-0.07202112,0.2664402,0.30133194,0.08216783,-0.030916018,0.18977828,-0.39734808,0.3121958,-0.4717473,-0.16121367,-0.30231538,-0.23964837,5.754647E-4,-0.019006621,0.33985195,-0.2818781,-0.1002235,-0.075000145,0.31490496,0.086360775,0.038015604,0.31589252,-0.058243018,-0.21488868,0.15450756,0.37176847,-0.021129638,0.05415621,0.25629726,0.18743125,-0.17249735,-0.021414502,-0.13220459,-0.3476742,-0.22571516,0.043845095,0.29993013,-0.2619564,-0.497652,0.0317808,-0.2045853,0.1966626,-0.47134426,-0.25291634,0.04970451,-0.1920555,-0.29417148,0.06865425,0.43599045,0.5039478,-0.08761736,-0.061292324,0.11498647,-0.029483207,0.30300748,-0.08120928,0.18471292,0.2970775,-0.35512826,-0.13317423,0.39461112,0.16251133,-0.011981939,-0.3346867,0.54412574,-0.37384614,-0.2108935,0.15756495,0.21820326,0.018059647,0.098149024,-0.2647624,-0.46832645,-0.04709383,0.2595453,-0.11352573,0.22633937,0.18628317,0.017066214,-0.29396155,0.09614832,0.06150865,-0.012887831,0.26332903,0.011878753,-0.21617655,-0.16851549,0.14845213,0.13568576,-0.26936883,0.20809214,-0.09996213,0.044896316,0.11962811,0.11561661,-0.089314654,-0.14735126,-0.22286637,0.33212802,-0.41611424,-0.24152151,0.08554373,0.2973447,0.3428578,0.22324611,0.2443301,-0.057238415,0.11425183,0.029787526,-0.05954113,-0.19476773,0.14451714,-0.21261038,0.1777794,-0.29502973,0.13411124,-0.13680592,0.16174544,0.031003356,0.14900291,0.19644696,0.22460636,-0.3385906,-0.09385509,-0.10549307,-0.28074473,0.29971722,-0.49272704,0.28912908,-0.16250508,-0.37592214,0.12972455,0.019718805,0.16238898,0.2462761,-0.026389064,0.04188954,0.04352877,0.12905572,-0.19877028,-0.3408428,0.2848438,0.22526956,-0.4661677,-0.4864965,0.24831548,-0.022594847,0.30983654,0.27930653,0.33137423,-0.20180531,0.22349295,-0.44256723,0.14260654,0.026710965,-0.19801444,0.06277537,-0.24871449,0.26800072,0.064014435,-0.048963804,-0.03651996,0.18450911,-0.02403814,-0.31306952,-0.01159967,0.15906979,0.22187431,-0.29786825,0.12926178,0.17988063,-0.39490804,0.31364176,0.059971858,-0.015975822,-0.17835169,0.0865629,-0.4276878,-0.31194568,-0.18093787,-0.22375192,0.11256087,-0.14384077,0.10324959,-0.17256717,-0.31542623,0.20263244,0.34302765,0.32186958,0.09788781,0.43287686,-0.10837728,-0.05879782,0.21432021,-0.05348185,-0.104846016,0.38888934,0.17909056,-0.48924717,-0.2711274,0.11432418,-0.036691736,0.17026603,-0.29977527,-0.19286284,-0.13665693,0.1393441,0.13996835,0.23942539,-0.1883913,0.17700595,0.40379524,-0.32978103,-0.25505438,-0.07334259,0.13111497,0.24485642,0.047627095,-0.42443848,0.15000518,-0.11010605,-0.31123137,0.011495396,-0.19532578,-0.0673896,-0.20746401,-0.23376569,0.010908737,0.16135775,-0.33817473,0.3347822,0.35468122,-0.1373587,0.37650883,0.4197836,0.2479416,0.11225151,-0.09388114,-0.046216127,-0.118269466,0.2859022,-0.2418023,-0.09288385,-0.039834548,0.32748705,-0.1950364,0.08718981,-0.024412839,0.23694178,-0.46428978,0.05825513,-0.39875892,0.28030598,-0.36961448,-0.086636364,0.09711077,0.17524903,-0.33206448,0.045079444,0.033567518,0.11255987,0.14821975,0.08513326,0.16894935,0.0058945827,-0.024352085,0.04943494,0.15503672,-0.05198977,-0.3491475,0.07481346,0.09644542,0.16612561,0.07792948,0.4422176,0.11074068,0.2722656,-0.22751395,-0.07268181,-0.018914152,-0.037289627,-0.08015217,-0.29821205,0.15286043,0.116052486,-0.12677392,-0.24666622,-0.052541506,-0.040081345,-0.21102303,0.030868916,0.2346602,-0.2970701,0.061588272,-0.13833421,0.029850049,0.1509903,0.20569628,-0.13155057,-0.013681198,-0.38243994,0.2892695,0.2254756,0.26465666,-0.08536413,-0.22319454,0.07869619,-0.40943164,-0.04430491,0.23633234,-0.15214294,0.0644981,0.09257219,-0.05130375,0.43963987,-0.29876804,0.009958548,0.15609665,0.47953135,0.43452218,-0.18168458,0.33854797,-0.3700147,-0.08979679,0.2957958,0.10803087,-0.18877701,-0.25268883,-0.24797656,0.02480612,0.16292614,-0.13297595,0.11623587,0.07459859,-0.15217568,-0.12540069,-0.23750606,0.23808649,-0.026176177,