-0.110517964,-0.07013518,-0.48867244,-0.38058326,-0.122635834,-0.09412773,0.8797712,0.3061978,-0.14747386,-0.15480156,-0.19792184,0.06190909,-0.17504546,0.37233135,0.5272452,-0.0016520804,-0.09144589,0.12934689,-0.35302636,-0.39833847,0.85079646,-0.22943112,-0.48925266,0.41997772,-0.13929273,0.022868544,0.37002409,-0.118321426,0.5718315,-0.078393035,0.41521603,0.011669457,-0.2471387,0.15623564,-0.004019695,-0.5368355,0.5029266,-0.4791164,-0.39224836,-0.25968742,-0.03975379,-0.36281705,0.2628093,-0.09459662,-0.16672279,0.24938884,0.56805336,0.5929424,0.64665145,0.30473238,-0.101325855,-0.6531382,-0.031009793,0.42387652,0.106694624,-0.11285235,-0.1716212,0.13060215,-0.23622002,0.09724289,0.9498389,0.28689277,0.07216926,-0.010509494,-0.45237595,0.13893992,0.20717525,0.2578002,0.025896672,-0.1214966,-0.05127925,0.10637454,-0.4205112,-0.014201147,0.7082905,-0.60779876,0.090601906,0.001365408,-0.40582407,0.19592884,0.15615666,0.22502583,0.25090814,0.27440318,0.3051005,0.11570782,-0.1832417,-0.06404862,-0.06989628,-0.22193578,0.38328508,-0.24942616,-0.78653604,-0.20804922,-0.1438388,-0.26712394,0.53307074,-0.106634185,-0.28503257,-0.23904908,0.5838174,0.38168022,0.15342255,-0.0029445528,0.44619328,-0.45718658,-0.16085094,0.27601764,0.4223,-0.22636588,-0.0082452595,-0.2772792,0.18309784,0.41604248,0.6670412,0.75957835,0.19872205,0.14348605,-0.16587108,0.1787317,0.019606046,0.12162589,0.23587419,-0.113182314,-0.2258625,0.12575595,-0.74766785,-0.014429718,0.61758405,-0.55723023,0.019398019,-0.020885766,-0.30178556,-0.032486513,0.4612929,0.24053529,0.4141812,-0.027162883,0.14171715,-0.14053954,-0.0066869403,0.00721564,-0.0433023,-0.38339233,0.12490913,-0.21433331,-0.3887321,0.29926458,-0.14060241,-0.2928219,0.64571637,-0.15252316,-0.5985296,-0.2241402,0.27000716,0.16457237,0.37340432,0.013907567,-0.2022511,-0.3515326,-0.24316774,0.2153036,0.6513909,0.019029,0.22372223,0.26379842,0.6311027,0.7026092,0.760306,0.9335979,0.25930664,-0.051987696,-0.23398034,0.15811878,0.15237191,-0.075710386,0.15313506,-0.11983423,-0.42432815,0.16614869,-0.038166165,0.13165195,0.93769854,-0.001732723,-0.29823434,-0.05886187,-0.3728437,0.11336371,-0.04051489,-0.39319268,0.27152744,-0.11421204,-0.23257902,-0.14042026,-0.50648344,0.3739003,-0.7549933,-0.3031455,0.3067486,-0.04764384,-0.5886264,0.1520742,-0.12796602,-0.05245901,0.3958027,0.20417838,-0.48580936,-0.4608551,-0.0013841806,-0.12947474,-0.30592752,0.043253466,-0.18473023,-0.5011293,-0.055536866,0.29654312,0.0012436019,0.05070696,-0.48948324,-0.22574355,-0.30006078,-0.024341978,0.6156534,0.31883475,-0.11574365,-0.1982134,-0.10229737,0.24681568,-0.057549715,0.31027704,0.17438048,-0.24934123,0.18095975,-0.07844058,-0.34408402,-0.091115355,0.71850383,-0.23292106,0.006790592,0.1900621,-0.010975509,-0.09942739,0.56573766,0.18342265,0.22025923,0.1308765,-0.19043349,-0.22860974,-0.112796366,-0.17856753,-0.14485766,-0.19946413,0.25014606,-0.30412546,-0.6554339,0.23953842,-0.18289435,-0.20328882,0.5534708,0.00166473,-0.5465892,0.13861886,0.23079191,0.58381754,0.47517887,0.43342847,0.108640075,-0.20660014,-0.16260262,0.4387981,0.47470033,0.24732576,-0.06689621,0.14885974,0.16938062,0.9302786,0.7531679,0.5490887,0.68028194,-0.296356,-0.19466811,0.30871612,-0.20425247,0.37396908,0.3737912,-0.007652517,-0.2546525,-0.043578245,-0.59140515,0.15283015,0.93884134,-0.19996338,-0.3472789,0.2721333,-0.51722014,0.041846626,0.059568714,-0.041902453,0.08380875,-0.13309056,-0.39328468,-0.15314211,-0.73195165,-0.011559256,-0.3405073,-0.40447614,0.4718242,-0.085577175,-0.49614558,0.32264823,0.15725255,-0.28946537,0.7701166,-0.07977855,-0.3725052,-0.04976265,-0.11106156,0.062429506,0.26919264,-0.14303188,-0.45875326,-0.52692485,0.10184624,0.06042397,0.55762106,-0.04744254,-0.22787672,-0.13381884,0.16238977,0.22911814,0.6341047,0.312343,0.35366452,-0.07194612,-0.20079549,0.5635074,0.21648726,0.106389664,0.43473858,-0.19979428,0.06425519,0.04812453,-0.2732054,-0.08845784,0.67998284,-0.6266158,-0.2016165,0.055420615,-0.39396158,0.4182348,0.20418729,-0.0916388,0.45913833,0.32709172,0.19322728,0.10520307,-0.3544177,-0.039979763,-0.11480073,-0.4126548,0.26671752,-0.20859845,-0.85528797,0.02301235,-0.26099142,-0.105538495,0.684592,-0.06546679,-0.46166897,-0.36300346,0.1306086,0.08854003,0.26392207,0.0948399,-0.08102352,-0.19718169,-0.4759729,0.26981515,-0.09446948,-0.23723716,-0.545299,-0.42823216,-0.17879476,-0.057846636,0.71185565,0.4117628,0.028476564,0.19548318,0.07294972,0.15684293,0.28853473,0.50747883,0.4217002,-0.09350053,-0.05031597,-0.073565476,-0.6731732,-0.3269607,0.8628105,-0.65409046,-0.17643496,0.06773328,-0.48039427,0.09513644,0.60174125,0.24741708,0.44668922,-0.18275313,0.6044718,0.077289425,-0.23540778,0.11206183,0.11254756,-0.72804874,0.18730272,-0.10038692,-0.53947616,-0.109986566,-0.22361809,-0.19144852,0.6490979,-0.31464377,-0.19533075,0.22226813,0.18905978,0.73740953,0.33870274,0.06064432,0.08520924,-0.3735108,-0.17394012,0.4354679,0.21183072,-0.053336512,-0.24771588,0.08379644,-0.22109652,0.34912476,0.7212165,0.60591143,0.32061306,-0.28713483,-0.30467057,0.09954756,0.3084376,0.30239224,0.53403527,-0.505262,0.07241926,0.4031021,-0.33672515,-0.22519632,0.8575744,-0.34830585,-0.28544515,0.25343728,-0.3287008,-0.022624534,0.31847322,0.40366232,-0.07930276,0.40585187,0.138035,-0.1863745,-0.21114896,-0.13328049,-0.026109165,-0.4838427,0.23429048,-0.015503014,-0.8128484,-0.13222834,0.18209355,-0.4708196,0.7487152,-0.20393564,-0.42996848,-0.18599908,0.6844874,0.25829613,-0.049415074,0.25446948,-0.30529404,-0.059487864,-0.36512685,-0.056424942,0.2719257,-0.4820355,-0.119534396,-0.0924985,0.06843302,-0.12600821,0.63168687,0.848008,-0.11523766,0.14615853,-0.07718961,0.116424754,0.12458736,0.45650238,0.53533304,-0.23847435,-0.43593076,0.39560077,-0.52020466,-0.3642466,0.86293304,-0.5435731,-0.2353722,0.23529936,-0.3187556,0.1635312,0.50050503,0.12950054,0.43982813,0.03459646,-0.09318783,0.2003149,-0.26072302,0.018022802,-0.19493668,-0.5659879,0.16379355,-0.030687131,-0.688371,0.20188719,-0.31206152,-0.08587111,0.6785834,-0.15365504,-0.3936392,-0.16385077,0.5327818,0.27906314,0.39274833,-0.1445107,-0.0995543,-0.21985428,-0.18025409,0.2578962,0.102827184,0.045456473,-0.6306479,-0.3285577,-0.013248566,-0.30078855,0.63942736,0.49661908,-0.07652652,-0.10285534,-0.039127793,0.54941213,0.36242414,-0.16071421,0.29979604,-0.060944345,-0.39725766,-0.1232858,-0.31930292,-0.09098078,0.7058288,-0.30812928,-0.4343085,0.19681607,-0.348405,0.16201213,0.5083567,-0.046687577,0.36144426,0.09363999,0.40721455,0.117970236,-0.33836058,0.39047417,-0.1719488,-0.54393655,0.3675676,-0.35182616,-0.57678485,-0.24618058,-0.14189315,-0.114946544,0.4199438,-0.13572179,-0.13598989,0.05170475,0.087812014,0.41067475,0.16311748,0.6049182,0.39434084,-0.53444254,0.12096603,0.46442106,-0.043174986,-0.2358493,-0.30777493,-0.24485235,-0.26192153,0.08166432,0.8296612,0.43694088,-0.09478211,0.047064234,-0.3974244,0.18377677,0.15183048,0.4909442,0.06581324,-0.0755368,-0.38058543,0.097524345,-0.85530823,0.03258759,0.5033721,-0.6082139,0.015199143,0.24165934,-0.23453578,0.25535238,0.32901514,0.090099566,0.40914857,0.28695333,0.18272701,-0.254954,-0.2595713,0.33288798,-0.36501265,-0.46219015,0.33186343,-0.13293323,-0.5610994,-0.044300083,0.097788505,-0.21879771,0.31856322,0.061498757,-0.27881992,0.41400358,0.35172078,0.4075179,0.5433329,0.0019655337,0.21709909,-0.61740375,0.09917062,0.46860838,-0.010999894,0.11873974,-0.19124411,-0.32330307,0.27427715,-0.069091946,0.5857273,0.6176196,-0.10902901,-0.34768507,-0.49233967,0.12873231,-0.20256788,0.24328803,0.3456355,-0.1465402,-0.11060929,0.11511107,-0.44907096,0.12335863,0.74485505,-0.18511091,0.038667943,-0.27730876,-0.09834466,-0.08319468,0.30281186,0.3219468,0.15801775,0.23391508,0.2432908,0.08962352,-0.08817908,0.29977143,-0.36386618,-0.056388974,0.25937396,-0.19189505,-0.73744136,0.08406122,-0.46904963,-0.17796259,0.32753053,0.044409905,-0.60273236,0.23674294,0.32285333,0.36632204,0.42414913,-0.12549295,0.35403484,-0.42207748,-0.06025908,0.38724238,0.4803693,0.47674558,-0.22703256,0.44577911,0.22073558,0.68760127,0.9033651,0.7095444,0.56447834,-0.091873094,-0.23715271,0.47350818,-0.16186234,0.6273278,0.039358675,-0.1550192,-0.08904991,0.12465759,-0.23534134,0.03465863,0.7350187,-0.06449216,-0.24270527,0.04918344,-0.3934517,-0.083691746,0.14631397,-0.19248867,0.657637,-0.069803566,-0.3980991,-0.64818054,-0.46767896,-0.14813764,-0.5187959,-0.7727981,0.49446452,-0.5528362,-0.37890714,0.18630666,0.40311557,-0.20508768,0.6095676,0.16540782,-0.36009794,-0.42531443,-0.30464488,0.08117724,-0.036079023,-0.29078534,-0.030589288,-0.3822435,-0.20513703,0.24670103,0.47514576,-0.036511406,-0.15615296,0.1776597,0.28285196,0.14811888,0.8521861,0.5995104,0.30891204,-0.0850288,-0.25022045,0.124503456,0.20327616,0.2191158,0.70861006,-0.5331938,-0.6822725,0.37746087,-0.4072482,0.20537843,0.6817495,-0.32500318,-0.10210397,-0.20925073,-0.4084968,0.11177831,0.11347474,-0.06476922,0.31413504,0.43448234,-0.040098384,-0.3346045,-0.0151591115,0.035209373,-0.4659504,-0.48245478,0.2742835,-0.10601937,-0.8544643,0.013386755,-0.07468661,-0.23859423,0.5969263,0.1346643,-0.2709131,-0.17284419,-0.041046508,0.32562748,-0.043362625,0.015167356,-0.23791666,-0.116099775,0.31059572,0.012174304,0.073596604,0.017402051,-0.10180015,-0.09029333,-0.1836881,0.17615259,0.8240516,0.6432225,-0.18766245,-0.10170405,0.12846,0.3207602,0.037939142,0.191122,0.31329536,-0.075855784,-0.49090505,0.36164212,-0.38404304,-0.13817246,0.7060023,-0.27442786,-0.4417956,0.19996825,-0.27923304,0.0481621,0.4248011,-0.14355966,0.4410858,0.00656289,-0.108959086,0.16410647,-0.45593387,-0.10435355,0.113814056,-0.18820757,0.50417006,-0.41089454,-0.5652887,0.16656345,-0.14767583,-0.18970546,0.6059544,-0.22054204,-0.4616963,0.063913554,5.0285726E-4,0.13477165,0.2836501,0.42199916,0.06406151,-0.43323508,-0.031080885,0.17434216,0.124205045,-0.17623745,-0.43549442,-0.38184547,-0.10225834,-0.12560713,0.8492288,0.17132583,0.11486021,0.18730374,-0.011845695,0.49170318,0.214571,0.44728875,0.14368133,-0.13837902,-0.16754933,0.04562792,-0.80683804,-0.13630332,0.5024027,-0.5496135,-0.23251672,0.17334723,-0.38162756,-0.01654359,0.55108786,0.3781831,0.411001,0.28491372,0.421135,0.007993642,-0.33047044,0.3042227,-0.3724078,-0.4959056,0.1525149,-0.26252615,-0.6483746,-0.039914288,-0.30191365,0.062379416,0.4154507,0.15586923,-0.3309568,0.015313663,0.21682088,0.34836206,0.36319137,0.22738494,0.19211647,-0.5260827,0.3073395,0.18348007,0.3148539,-0.16437475,-0.34432068,-0.025936693,-0.027593678,-0.051338814,0.99143946,0.6901913,0.011556264,-0.12969351,0.07170706,0.3398071,0.17801455,0.2452863,0.11517989,-0.56082624,-0.35691905,0.20573397,-0.6490832,-0.04277105,0.5834053,-0.47682747,-0.2533932,0.27305493,-0.2146614,0.052821506,0.27879673,-0.03719329,0.39085886,-0.054353688,0.2360079,-0.16329634,-0.145983,-0.010496963,-0.40590397,-0.14891754,0.2577735,-0.26682603,-0.44872355,-0.028213162,0.043950282,-0.15140669,0.51718223,0.050960075,-0.5059125,0.22727646,0.04786516,0.4219607,0.1394022,0.19689947,0.12171344,-0.22872716,0.016460331,0.2355497,0.29016647,-0.2911294,-0.25033212,-0.004091499,0.02292259,0.15793672,0.99458534,0.5372567,0.2817157,-0.13361809,-0.22464705,0.6325379,-0.36287495,0.18389107,0.073815666,-0.22279352,-0.060292393,0.5332419,-0.46370316,-0.23766325,0.54883564,-0.64687896,-0.060853593,0.08266829,-0.50836515,0.15888105,0.18764131,-0.1473494,0.6300778,0.091742314,0.26424053,-0.051366255,0.22024482,0.13513404,0.047469184,-0.3482976,0.4217088,-0.30539703,-0.6053042,0.083941385,-0.064333625,-0.35080338,0.55598724,-0.17437957,-0.54891,0.035533857,0.4285632,0.10622608,0.6116012,0.03768961,0.01178433,-0.47312915,-0.4069941,-0.018722162,-0.27767077,0.16524854,-0.72567904,-0.14557582,-0.5726842,-0.01145403,1.1545159,0.26682475,-0.18347283,0.090422414,-0.055674974,0.45425734,0.3889244,0.2668291,0.74555486,-0.13787532,-0.029543065,0.45927355,-0.6706228,-0.35873505,0.67256945,-0.8977861,-0.25391826,0.19956942,-0.3472055,0.2003274,0.6056775,-0.040293943,0.53226984,0.045930192,0.14692774,-0.060669888,-0.30791506,-0.1637738,-0.14857845,-0.42239085,0.56011254,-0.5414029,-0.55263036,0.14788525,-0.13645574,-0.17943124,0.5357839,-0.09971437,-0.34996063,0.39567924,0.17649646,0.65455407,0.29187542,0.7514606,-0.23744296,-0.5844982,-0.067189336,0.11681408,0.19245172,-0.0298425,-0.3981802,0.054620106,-0.041711878,0.1570324,0.807105,0.64699876,-0.108198434,-0.16745329,-0.11484186,-0.20717907,-0.16247769,0.08741917,0.39956453,-0.54085785,-0.10668637,0.4966872,-0.6190104,-0.14060183,0.5755885,-0.36364764,-0.5129452,0.19819926,-0.14581983,0.037196018,0.49405336,0.26174578,0.40635085,0.30259177,-0.030811558,-0.020357188,-0.24347655,-0.16850613,-0.19546469,-0.30300424,0.17183034,-0.21487217,-0.51132363,0.087253086,-0.039463557,-0.14979477,0.62723625,0.029989952,-0.5891068,0.17504649,0.1325847,0.734472,0.37837422,0.51628804,-0.18593027,-0.05317648,-0.33557993,0.10180985,0.3107433,-0.09881623,-0.08105106,-0.31330624,-0.05289549,0.5382994,0.5721539,0.6842999,0.20911601,-0.21324898,0.12217979,0.5363948,0.1751039,0.24626657,-0.21964955,-0.29411495,-0.35294938,0.047735564,-0.29659265,-0.2575626,0.6364155,-0.28824934,-0.24561328,0.0711468,-0.38325256,0.4105416,0.10008643,-0.19582252,0.20665112,0.21130385,0.18393639,-0.2075115,-0.19225867,0.10572877,-0.08834369,-0.08497108,0.31219846,-0.065260366,-0.65803504,0.15893838,-0.08031341,-0.23679544,0.7174265,-0.21751793,-0.65520626,0.06428562,0.14539762,-0.11298738,0.0916879,0.37001917,0.12514567,-0.16138802,-0.31906596,0.38782683,0.1897338,-0.20483351,-0.112941615,-0.3424212,-0.2681191,0.14015085,0.57961947,0.51555586,-0.16495967,-0.48478332,0.13620469,-0.15405968,-0.112010404,-0.053519093,0.014386143,-0.29587716,-0.2182517,0.41392815,-0.41931403,-0.26597574,0.999919,-0.33212686,-0.15878971,0.36145428,-0.1503702,0.29322594,0.2814953,0.28424063,0.21349849,0.10797397,0.15806425,-0.18838474,-0.53712696,0.14219637,-0.42941743,-0.080290765,0.1534339,-0.11805496,-0.7202007,0.014311156,-0.03905866,-0.013118893,0.47469822,0.003417493,-0.47581738,0.24042481,0.2930289,0.42268845,0.5956452,0.7430728,0.16002695,-0.2168465,-0.07485189,0.097851835,-0.07534416,-0.033897486,-0.69943213,-0.14828952,-0.3242429,-0.24564844,0.8445554,0.4003056,-0.183767,0.09951599,-0.5339452,0.4415598,0.45086563,0.3927876,0.2474445,-0.037130497,-0.10397478,0.3679848,-0.74216175,-0.21643196,0.43086967,-0.6321829,-0.40308556,0.2645011,-0.44785827,0.30357707,0.41050658,0.06075431,0.5335597,0.16081119,0.40250924,0.28259486,-0.47770432,0.01899883,-0.3702451,-0.4373682,0.38701972,-0.384509,-0.45181042,-0.23424488,-0.19238226,0.054311875,0.50395364,0.0932815,-0.34557337,0.29620504,0.57009315,0.68001795,0.12034687,0.28279775,0.35091037,-0.3940478,-0.19504121,0.33111274,