-0.32758904,0.35645005,-0.14029072,0.2612226,0.3413332,-0.33424446,-0.18055725,0.11485535,-0.09803039,-0.2985864,-0.058482654,0.23323847,-0.20611264,0.036710676,0.19647744,0.17512241,0.12298376,-0.3839493,0.06015267,-0.44539803,0.19916774,0.26388744,0.06870509,-0.03051929,0.10883626,0.3406358,-0.44802722,0.12080887,0.30865595,0.22200161,-0.10085126,-0.33984762,0.07767205,-0.30348456,0.2670157,0.08687894,0.02027013,0.35750467,-0.020461451,-0.21173942,-0.1361162,0.3006599,-0.08626373,-0.08194598,-0.1320277,0.07540693,0.24426875,-0.24605611,0.21632667,-0.12200313,-0.106381945,0.0762798,0.17344798,-0.39439586,-0.4515478,0.39878976,-0.015822755,0.18735947,-0.18885186,0.23364155,-0.01876283,-0.48656666,0.2854425,0.2941722,0.42187315,0.14283288,-0.18280786,-0.2937747,-0.33098146,0.31889227,-0.13542375,0.15854809,0.03137985,0.18661633,-0.050582096,0.47113892,-0.36723295,-0.19841367,-0.06095984,-0.06617,0.4213374,-0.3915178,-0.26629427,-0.21284199,-0.18151951,0.022858294,-0.24577528,0.47234765,-0.25277385,-0.026898513,-0.013530257,0.2468063,0.2705463,-0.47506955,0.4205221,0.07341567,-0.3082748,0.33053857,-0.27077284,0.47248808,-0.2842628,-0.20138949,0.36995745,0.17241542,-0.04179707,0.13199848,-0.16630611,-0.16201408,-0.28994673,-0.15272358,0.21377994,0.18605079,0.14309354,-0.4125828,0.3204671,0.19889604,-0.3057598,-0.17613712,0.2409896,0.29634276,0.2201387,-0.30510733,-0.16565354,0.08356878,-0.14083427,-0.34846887,0.3181372,-0.082407415,-0.1955267,0.103833936,0.2711704,-0.07929971,-0.18554157,-0.07266759,0.18766595,0.23114552,-0.095487826,0.13197583,-0.045703683,-0.14982294,-0.13809557,0.12600353,-0.40029722,0.3300947,0.31190637,-0.08271324,0.113197505,0.012565208,-0.2602128,0.10677391,0.050664205,-0.4064758,-0.16851957,-0.14797783,0.24677496,0.074138284,0.15583216,0.009752555,0.10939239,0.1839736,-0.4294498,-0.20409903,0.087937295,-0.1460864,-3.8114635E-4,0.21889423,-0.16555484,-0.2573315,0.08004979,-0.17237063,0.36915734,0.31455427,-0.13745241,0.21556826,0.39671484,-0.19000691,0.14290653,0.26464978,-0.31773967,0.19422661,-0.27841133,0.31443304,-0.056275494,-0.48316535,0.30093476,0.016364466,0.24045262,-0.102650635,0.07512467,0.21481085,0.06117723,-0.44373477,0.05532756,0.26174843,0.34505638,0.27301976,-0.20667033,0.013999724,-0.23968312,0.119012035,0.19226614,0.2716705,-0.36715117,-0.15077873,-0.27298647,-0.20824254,-0.24521668,0.12211418,-0.089252815,0.102001585,0.26369566,-0.030279724,-0.28942102,-0.2908807,0.410457,-0.003513166,-0.28336683,0.17577127,0.21175528,0.03636502,-0.059783656,-0.20436355,0.28708556,-0.07812299,0.191142,-0.3426626,-0.046132505,0.06417227,0.17991638,-0.06783054,0.24924876,0.080898084,0.16116136,-0.46715567,-0.09523755,0.08863311,-0.0816076,-0.050673462,0.118362546,0.18652323,2.2652131E-4,-0.18982364,-0.08330394,0.14823997,-0.0023377247,0.3979696,-0.43365407,0.44790885,-0.16680332,0.030536804,0.08812549,-0.023250634,-0.26251733,0.36295134,-0.17447346,-0.17738481,0.11989173,-0.22699,-0.05523164,0.031296868,0.03490592,-0.07949303,0.18122613,-0.38560236,0.34506428,0.2421864,0.008930302,-0.2173343,0.05742306,0.26245567,-0.17210804,0.015560525,-0.44034436,0.21146417,0.2474532,-0.20302509,0.4689085,0.22261809,-0.2727318,0.06699166,-0.18470739,0.20954403,-0.21694511,-0.20397821,0.37210962,-0.09825494,0.046948824,-0.19935407,-0.14207362,0.16747198,-0.13980608,0.23574723,-0.029885296,-0.0643302,0.027332088,-0.08201281,-0.38344532,0.059875436,-0.19888704,-1.2248725E-4,0.3468115,0.13059506,0.34191296,-0.33933437,-0.3043012,-0.107952885,0.38361531,0.07939809,0.25495166,0.28865075,-0.42011812,0.2967664,0.013744262,0.013431191,-0.08013715,-0.02461542,-0.24523397,-0.07284141,-0.17579088,-0.04616388,-0.07318415,-0.4135142,-0.17994912,0.073848136,0.02648453,0.26026458,0.36453384,0.009739915,-0.041938573,0.17226309,-0.12205863,0.0055841594,0.27931026,-0.19496009,-0.32339796,0.09663702,-0.15242024,0.12933435,0.017523471,0.3136595,-0.29142016,0.31147137,-0.07324385,-0.07380613,0.23128109,-0.2441278,0.35917664,0.25781655,-0.45532274,-0.14625582,0.020584615,-0.2720325,0.34303242,0.26887852,-0.18829124,-0.30745056,-0.18566601,0.28023747,0.100199126,-0.28430194,0.2972905,-0.23257461,0.18921353,0.11065332,-0.07444855,-0.31534147,-0.06320377,0.01417639,-0.040668618,-0.31133696,-0.16163203,-0.21007161,0.2515157,0.16253425,0.3602598,0.025740968,-0.31388387,0.24646929,-0.2341818,-0.0026174434,-0.007397693,0.30446067,0.05730499,-0.049081996,0.2965116,-0.23019291,-0.29949805,0.26093102,-0.38161898,0.4000575,0.2782081,0.350324,-0.10493366,-0.29879117,-0.37787092,-0.22243491,0.08887186,-0.018449383,0.27166578,0.026514329,-0.07611776,0.29374278,-0.38741243,-0.37781048,0.36479026,-0.24028562,0.18128493,-0.113193505,-0.16254276,-0.29647723,0.41865888,0.2862227,0.17162861,0.036928337,-0.29427534,-0.042233948,0.05205555,0.14336894,-0.25061736,-0.09036007,0.28084242,-0.042288706,-0.13698679,-0.0028561444,0.1918387,-0.081682175,0.0570255,-0.13437355,0.20879462,-0.17784077,-0.14988911,0.12115656,0.040922914,-0.18453187,-0.12524599,-0.20808688,-0.119757965,-0.17974137,0.01530288,0.13184924,0.24166726,0.318797,0.1910674,0.24204509,-0.022973113,-0.3732272,-0.27964562,0.11393665,-0.21573062,-0.2874998,0.021203147,0.38430876,-0.09268126,0.38558328,-0.15218961,-0.37819013,0.3469155,-0.14595929,0.017506855,-0.22885458,-0.2314303,-0.31023464,0.36520928,0.25598767,-0.19174045,-0.12195799,0.3918082,-0.14813524,0.041678283,-0.3154505,-0.24535073,-0.14777106,0.29560888,0.051254235,-0.061114717,-0.18493593,0.25563693,0.11311693,0.05836226,0.27721655,0.19512007,-0.04924461,0.36908302,-0.13397937,-0.15122406,-0.19214952,-0.23008591,-0.13264295,0.3181826,0.20298873,-0.17312665,0.09932032,-0.156208,-0.039905388,0.2668404,-0.14414507,-0.120841265,0.32865003,-0.19136843,-0.2637179,-0.21830091,-0.03914662,-0.16899082,0.19654486,0.28969374,-0.26290607,-0.30142766,0.18098074,0.13033792,0.32119334,-0.051727653,0.2954328,-0.20302248,0.2463626,0.23074305,-0.25480145,-0.25233245,-0.0557338,-0.20399858,0.10989013,0.0626815,-0.031544056,-0.25672123,0.18515706,0.109699026,-0.08801149,0.1492138,0.1647642,0.23131576,-0.03850894,0.15519756,-0.4424646,0.09441589,0.3787785,0.4166856,0.2351972,-0.4035943,0.06265206,0.4026143,-0.12333925,-0.32371548,-0.35141563,-0.20885882,-0.049162038,-0.26035824,0.10768988,0.20690386,0.3376362,-0.36599472,-0.102389336,0.3443762,-0.11493441,-0.033549365,-0.47799242,0.3454985,0.22653489,0.0696025,0.087057196,-0.15163511,-0.12171334,0.07696643,0.20455934,-0.27282164,0.051220156,0.16595703,-0.058136523,-0.35604,0.13933977,0.032849703,0.092988566,-0.15381622,-0.06439743,0.20713283,0.1542494,0.25366873,-0.41445637,-0.022127096,0.10888007,-0.25984854,-0.3160132,0.21526459,0.10518936,-0.29855892,0.24023917,0.06021716,-0.08284806,0.34980717,-0.08145084,0.39436236,-0.16809072,-0.23199707,-0.028610697,-0.33673006,0.15438288,0.18020071,-0.4186285,0.17462356,0.014396352,0.035065092,-0.40425014,0.31829977,0.13887493,0.10465275,-0.26587087,-0.11946974,0.085900955,0.27819115,0.182023,-0.10803265,0.2612768,-0.23813458,0.3842758,0.31024528,-0.34061038,0.19963263,-0.09342909,-0.0862605,-0.06940715,-0.18869296,-0.29467845,0.48862863,0.07915812,-0.31460047,-0.11430083,-0.32980493,0.33809242,0.35817775,-0.20706472,-0.15278319,-0.17659555,-0.19794744,0.39037874,-0.4397448,0.08745279,0.25932315,0.48899153,-0.43523666,0.38971272,-0.1789529,-0.07177774,-0.19692793,0.1638079,0.26452556,0.18759932,0.1478116,0.20076764,-0.13573477,-0.016674055,-0.09772029,-0.3750451,0.002343228,-0.23545206,0.3986662,0.1968346,-0.3452264,-0.22344469,0.27329984,0.17919603,-0.21509916,0.21113871,0.07230287,-0.011419708,0.13951513,0.01827139,-0.37437657,-0.11456903,-0.27683443,-0.50426364,0.05584854,0.39040875,0.099988006,0.25029197,0.39086512,-0.39783737,0.23802665,-0.03360596,0.15920101,0.073593035,0.32863146,0.11325455,-0.17696223,0.080839254,-0.341111,-0.4180192,-0.07955744,-0.33640397,0.365112,0.10894623,-0.079170436,-0.2739622,0.014642236,-0.4771251,0.3042748,0.09514595,0.4394156,-0.1258058,-0.047244094,0.2292006,-0.10894717,-0.30908638,0.22687839,-0.1892522,0.35318458,-0.18596856,0.029869642,0.10621469,0.14699152,-0.014408326,0.17495033,0.2482068,-0.20260668,-0.29572177,0.41762412,0.09104821,-0.11488958,0.0077550053,-0.20211379,-0.3586031,-1.9113632E-4,0.016284566,-0.10072169,-0.08092299,0.008365511,-0.061602395,0.15752804,-0.32988265,-0.04495406,0.17810914,-0.04334167,-0.32690787,-0.10416968,-0.27003467,0.30380923,0.44556174,-0.20479013,0.32139698,-0.21259712,0.082100384,-0.1248496,-0.23317121,0.32596824,-0.1125015,0.07135286,0.2966192,-0.10078325,-0.079787664,-0.36832765,0.060081746,0.2789848,-0.13537021,-0.04871777,0.24304023,0.3062758,-0.1775624,0.21935871,-0.14450029,0.41216597,-0.007888905,0.017687937,-0.33429176,0.059831258,0.15791608,-0.20245236,0.09018616,-0.2256022,-0.18972126,0.06255198,0.049300987,0.4581504,-0.3511129,0.08887066,-0.20343997,-0.10184769,-0.21834841,-0.09602904,0.4079211,-0.18306862,0.26412317,0.09466015,-0.2811022,0.2702559,-0.10851509,-0.3247882,0.15322089,-0.09435542,0.06801063,0.014672066,-0.22030652,0.38533682,-0.2005218,-0.012401235,0.34768292,-0.34976932,-0.05236873,0.034149446,-0.40843248,0.32513708,0.22239602,0.23986942,-0.16198042,0.10533671,-0.14990567,-0.27153578,0.20447578,0.26627323,-0.46657622,0.072313815,-0.18018582,0.22141236,0.3713417,0.13253291,-0.08607028,0.2952773,-0.20025037,-0.3534889,0.1108868,0.16334242,0.054172434,0.09822577,-0.41219544,-0.24480984,0.24004558,-0.040456496,0.19824837,-0.17137252,-0.3744649,-0.007591443,-0.07631692,0.3932988,-0.028272586,-0.011477692,0.2266789,-0.05125979,-0.06832088,-0.21739256,-0.07186557,0.42411262,0.09114647,-0.31892645,0.28595296,0.11102731,0.054455902,0.20471685,-0.3281708,0.222324,-0.28387117,0.019916225,-0.3094905,-0.010589864,0.368866,0.11603484,-0.38111734,0.3215732,0.05941275,-0.11855543,0.36464006,-0.46441972,0.1302093,-0.1951881,0.07403945,0.2301797,-0.18587707,-0.061424684,-0.19128686,-0.13467287,-0.39698076,-0.2897603,-0.38240537,0.3633609,-0.3358027,0.110931404,0.35792932,-0.14502199,0.24375665,4.3361305E-4,-0.051975816,0.28476605,0.21600503,0.055389713,0.0749944,0.21282952,0.2826608,0.36179706,-0.2231179,-0.11202652,0.30495483,-0.05238006,0.32366598,-0.51458484,0.114115484,-0.41805157,0.2772142,0.09393452,-0.26183796,-0.11543356,-0.24680838,-0.12110333,-0.2062202,0.09711204,-0.0691949,-0.047322445,0.13178696,0.16597521,0.40377396,-0.33094835,-0.34538332,0.32343975,0.08948797,0.34347567,-0.107029125,-0.099318616,-0.18283805,-0.19885372,0.005770937,0.05257797,0.2600295,-0.120636635,-0.26840404,0.07925851,-0.15549673,-0.23431309,0.3237305,0.085410155,0.006663615,0.094891876,-0.101252675,-0.12081592,0.2451643,-0.08325281,-0.33400542,0.036242448,0.23778294,0.3354944,-0.27256176,0.23832059,-0.28856894,0.03539234,0.34708497,-0.36875018,-0.23967181,0.21968995,0.27217868,-0.08693783,-0.19192651,-0.15631121,0.04859731,0.24133468,0.2761239,0.055414785,-0.27831793,-0.26330438,-0.16338253,0.1808509,-0.14584547,0.2200412,0.23488893,-0.08123048,-0.07416875,0.028475028,-0.15779306,-0.029104086,0.3285143,0.20186512,-0.31611934,-0.2042621,0.23646563,-0.16484143,-0.30083767,0.088173084,0.18923496,-0.11394627,0.3563866,0.12742996,-0.33736548,0.094959214,-0.026097998,-0.1700461,-0.073362306,0.36992505,-0.36269855,0.21259713,0.13071124,-0.26395005,-0.0935332,0.16441019,0.06906665,-0.01356934,-0.19365595,0.27113637,-0.074840195,0.26394036,-0.058965303,-0.37769338,0.15711147,0.046345424,0.11387517,-0.40638635,0.27168977,-0.42965898,0.20889133,-0.05757376,0.20420404,0.0953046,-0.16918662,0.12584731,0.23204161,0.22964314,-0.12965666,-0.042119995,0.3001458,-0.058919642,-0.25971404,0.3811215,0.18510409,-0.46170577,0.40269983,0.039021775,-0.3490435,0.30213234,-0.37962672,-0.25736687,0.36627662,-0.21101852,0.05316126,-0.29339084,0.18301018,-0.1892692,-0.28572798,-0.37001413,0.31308356,0.1516495,-0.0031830529,0.07886481,-0.032766115,0.16887379,0.3233508,-0.015122918,0.35194036,-0.18965255,-0.032822024,0.38277695,-0.098733455,-0.10266501,0.20141819,-0.21388578,0.12515524,-0.28396735,-0.31507453,0.35889795,-0.06063204,-0.1915704,0.2855203,-0.24655981,0.090708904,0.2463409,-0.13605317,0.2823359,0.0945031,-0.4707503,0.040596295,-0.39650816,0.110901125,0.10143698,0.26335326,-0.37238392,0.27867454,0.13997555,0.18833609,0.05840262,-0.14493872,0.3614309,-0.24551155,-0.17291667,-0.38867363,0.26621976,-0.2675599,0.15848833,-0.119595,0.48626828,-0.32214752,0.39805356,0.34056234,0.062662505,0.35804582,-0.3076042,-0.38190264,-0.32158932,0.15261383,-0.29681426,0.05382241,-0.10819049,0.39732203,-0.36852005,0.2686392,-0.25357366,0.44410568,-0.22759412,-0.29207364,0.16164632,0.3033929,0.048493106,0.362746,-0.23218459,-0.13038096,0.0054970006,0.1984738,-0.2984437,-0.17143133,-0.03188152,0.22531936,-0.30549484,-0.21408387,-0.14273606,0.3386137,-0.09977497,-0.04612408,0.03874217,-0.2333427,0.16025399,0.36496812,-0.1062917,0.22738953,0.21320093,0.048352335,-0.19083808,-0.036615673,-0.32311636,-0.1416419,-0.12866418,-0.24377452,0.24665985,0.12398622,0.12363071,0.29324684,-0.19968903,0.36385456,-0.23408632,0.30349913,-0.049526148,-0.21650817,0.09297919,0.20558459,-0.034688424,0.28111017,-0.09568417,-0.034598302,-0.3692558,0.015244871,-0.2525452,0.047879588,0.18788975,0.16881225,-0.33322853,0.31690127,0.1078186,-0.12369658,0.3283637,0.15527175,-0.14814049,-0.3231071,-0.24292532,0.12952776,-0.47867343,0.20839712,0.11802884,-0.1389593,0.30579808,0.25056773,-0.3181698,-0.4061672,0.22691704,0.17005244,0.06330431,-0.34125704,0.28167135,0.28215134,-0.33532703,0.3046943,-0.08834264,0.33464625,0.0020464694,0.4397061,-0.34003142,-0.3351085,0.024410488,-0.33305374,0.1754095,-0.4022034,0.26087692,0.12689921,-0.27836424,0.21732916,0.22307412,-0.22161041,0.22192757,-0.36659542,0.22990826,-0.30999807,0.08877537,0.34472722,0.4035013,0.21506546,0.10828655,-0.0120854555,0.08217581,0.3455436,0.21898569,-0.23054743,-0.39234608,0.25240618,0.19370306,-0.3320163,-0.33535433,0.18114999,-0.28751385,-0.29487234,0.13468121,0.4246595,-0.0434196,0.3223409,-0.20522702,0.25529042,0.16211317,-0.25162715,-0.12128259,-0.2288618,-0.26552033,-0.15663087,-0.23675275,0.3620699,-0.25925854,0.03265779,0.3710675,0.10524183,0.28519642,-0.3536636,-0.009262532,0.35816726,0.0050558248,-0.28008643,-0.08860916,0.119115934,-0.4981921,-0.21715274,0.27246118,0.04719367,-0.2682966,0.32523036,-0.22308105,-0.1541176,-0.011995852,0.34338406,-0.18742928,0.07590472,0.15396611,0.16418646,-0.26658192,-0.30133846,0.1307729,-0.0966015,-0.11717731,0.22971283,0.3338418,-0.20810886,0.18979953,0.05934376,0.22890118,-0.024401039,0.37086093,-0.2869449,-0.36488873,-0.19966711,0.24576531,0.1176332,-0.19523741,-0.1411224,-0.0059462916,-0.4137992,0.27602884,0.23470606,0.39039913,-0.18864845,-0.2591587,0.077546656,-0.27307263,0.20383061,-0.08508196,0.11620054,0.09843472,0.28883055,0.30355906,-0.28662518,-0.060640994,0.08988565,-0.3501682,-0.08417502,-0.12642866,-0.32474086,-0.27659228,0.24344923,-0.2364779,0.01303912,0.26380956,-0.19125047,0.16335341,-0.23295997,0.10388337,0.11290942,0.4202499,0.38601866,-0.25048396,-0.28649905,0.23335752,-0.05228616,-0.15725668,0.37828514,-0.1998855,-0.41809246,0.07997511,-0.18261945,0.019186566,0.31096774,0.18073326,-0.026814798,0.15515225,-0.35519776,-0.20041093,0.22053869,-0.08261946,-0.10781392,0.3777725,0.08485734,-0.09212922,-0.46169627,0.1864864,-0.2029734,0.030051345,0.26363987,0.22069229,0.1779897,-0.2810313,0.04618751,-0.2585768,0.033465825,-0.23809722,-0.24485223,0.13190648,0.31022722,0.032950062,-0.40220115,0.06223108,0.27580327,-0.0024829637,-0.37846997,0.2493663,0.24656866,0.018470678,0.22944069,-0.35232836,-0.102796935,0.2815606,0.063890085,-0.27461794,0.080140084,-0.26005545,0.26837462,-0.13969804,0.234679,-0.14314093,0.27327058,0.15868707,-0.027173823,-0.111163646,-0.23571168,0.2010728,-0.13278417,-0.44441026,-0.3236694,0.28240618,-0.11377161,0.12687448,0.3175228,0.16993725,0.06738568,0.111614384,-0.20626462,-0.22849514,-0.31965455,-0.058616094,0.2800334,0.3407656,-0.072380416,0.15216501,-0.1799728,-0.25276953,0.17967023,0.34642494,0.022240765,-0.023466233,0.20424816,0.022619996,-0.28956246,-0.24427517,-0.25466475,-0.20300312,0.36820558,-0.016450593,0.033521313,-0.0069265147,-0.40532753,-0.011963816,-0.44959217,0.30080152,0.34018594,0.26981157,0.17668474,0.06421516,-0.08353393,-0.084954135,0.19612424,5.64669E-4,0.112532265,-0.261017,-0.27287415,0.13055135,0.4163272,-0.039389793,0.00510725,-0.095847696,-0.25012958,-6.8100763E-4,0.3669845,-0.3739254,-0.13035563,0.442153,-0.014064313,-0.30450875,-0.13891216,0.1745315,-0.03599314,-0.11166115,0.3543597,0.1665659,0.40648213,-0.037571114,-0.22308716,-0.31558815,-0.046436816,0.20488334,-0.26690218,0.33354563,-0.10664294,0.49845517,-0.2142202,-0.3259353,-0.26361668,-0.3708879,0.09307936,0.46785796,0.10833904,-0.31291842,-0.18559982,0.28736478,0.21419322,-0.016615735,0.08819882,-0.38859314,0.013120723,0.020352436,0.13453057,-0.078202225,-0.06597524,-0.04606201,-0.10231165,0.0046541705,-0.025286768,0.017787594,-0.2296671,-0.2536064,-0.27933317,0.06380329,0.1448891,0.06381844,0.32342985,0.00494016,0.27672803,-0.09556186,0.24245887,0.050948504,0.3276482,-0.1413829,0.13336785,0.08579275,-0.027979258,-0.23622766,0.3446662,0.010796854,-0.22066575,-0.3635508,0.002257437,0.2414777,-0.2552476,0.40919396,-0.31549487,-0.0541943,0.37543735,-0.27954757,-0.15455899,0.18722036,-0.4356436,0.093182266,0.48363218,-0.15364718,-0.039383218,-0.2504499,-0.262724,-0.018970456,-0.0324883,0.38285357,0.13874778,-0.2517204,-0.08768959,0.44435242,-0.0059963563,-0.24872859,0.15693483,-0.17545931,0.04923932,-0.2262267,0.030295288,-0.19227725,-0.027461406,0.28194135,-0.17254917,0.45020273,-0.21485375,0.36047882,-0.070405416,0.001056349,-0.28398356,-0.18680938,0.028029168,0.38398355,-0.30036166,-0.15328614,-0.028209826,-0.3726611,0.35434014,0.03504421,0.102374606,0.30623978,0.018731724,-0.1619362,-0.14781047,-0.055397887,-0.39431357,0.40346414,-0.07435609,-0.31438845,0.058172364,0.05904157,0.32423806,-0.18544084,0.3073522,0.07907385,-0.20680021,0.31953415,-0.21295133,0.017232265,-0.15967835,-0.18564022,0.44425926,-0.20543286,0.20198894,-0.3515581,0.23100035,-0.09515954,0.14927115,0.389808,0.31758973,-0.52753526,-0.34045038,0.056397006,0.09914986,-0.34952733,-0.21453498,-0.09913467,-0.30984095,-0.17923363,-0.14025915,0.2997502,0.37329704,-0.11053807,0.28634545,0.26523587,-0.15585981,0.32400212,-0.026973668,0.2018266,-0.21918957,0.037591554,0.16523771,-0.15338024,0.35856086,-0.11289633,-0.17037538,-0.20486331,0.35141525,-0.22397634,0.21195135,0.16787164,-0.48074636,0.32732573,-0.053558696,-0.02794073,-0.20969003,-0.23010702,0.07329026,-0.042642366,-0.31573263,0.04393143,0.31056365,0.21746372,-0.18576226,-0.3865876,0.39492714,-0.017850736,0.0063769585,-0.145652,-0.12139095,0.15942693,0.3558291,-0.29927903,-0.14913777,0.05892666,0.18652776,-0.26886398,-0.112724796,0.096481204,0.22051743,-0.17213535,-0.12917313,-0.07581782,-0.10997114,0.46477833,0.048222505,0.22324929,-0.11130119,-0.09764118,0.16817498,-0.14354515,0.19579583,0.236011,0.29514536,-0.15824714,-0.3504031,-0.06133191,0.32801038,-0.12540826,-0.18372032,-0.46505064,0.24755304,0.18630305,0.08319584,0.31616223,-0.21457918,-0.20819613,0.021572521,0.027684873,0.3358125,-0.13857406,-0.27071443,-0.032162536,0.27733764,-0.18389672,0.28193125,-0.11127262,-0.23650758,-0.2996147,0.17664981,0.008430805,0.22974274,0.28788355,-0.26820537,-0.0755276,0.17372863,0.36756855,0.24038824,-0.1635938,0.11425955,-0.32043424,0.1432608,-0.014624188,-0.23322165,-0.14271246,-0.1727057,0.26799706,0.22620384,0.012381711,0.29488865,-0.17208625,-0.28052783,0.08897555,-0.18280251,-0.098735005,0.1847831,0.079402804,0.14077158,-0.5537828,0.30641192,0.022960776,-0.13910422,-0.13247399,0.18001151,-0.0748811,0.07316816,-0.0019138133,-0.25999585,-0.28737566,0.027799278,-0.34913722,0.2877736,-0.16690755,0.28490263,0.2481333,0.03158676,0.10121914,0.034799222,-0.06147351,-0.061655015,-0.07099297,-0.16673088,0.018978594,-0.06489914,0.5221067,-0.22040373,0.23992038,0.29517043,-0.11863349,-0.18548928,-0.22022684,0.18426026,-0.13493536,-0.281792,0.16357079,0.24299492,-0.4058694,0.37053254,-0.4641457,-0.014804184,-0.09257434,-0.26708478,0.27920634,0.33797166,0.31623375,-0.2965774,0.22283551,-0.030379746,0.09590262,-0.36267045,-0.23554827,-0.044857386,0.0717889,0.25998893,0.26192686,0.0121990675,0.29009548,-0.09449459,-0.2005516,0.14674428,-0.143065,-0.26097465,-0.23669666,0.0028990947,0.35397342,-0.087983854,0.4236317,-0.13279605,-0.45710793,0.18922392,-0.30689457,-0.19988757,0.39659783,-0.008542841,-0.3545724,0.16149169,0.026901081,0.15223487,0.09879666,0.009728749,0.2426214,-0.21167958,-0.08004414,0.020648124,0.30754742,0.23745349,-0.11938051,0.29663095,-0.31704822,0.088117234,-0.27058935,-0.12285946,0.16382948,0.10864408,0.03502862,-0.341475,0.23294446,-0.02558328,-0.20044181,0.17365265,0.03539422,0.62219715,-0.2340255,-0.2846732,-0.2760033,-0.06817406,-0.021627216,-0.11247835,0.31309325,0.09474076,-0.31000328,6.5189914E-4,0.12362939,-0.008332614,0.06941804,0.20302019,0.13884322,0.0042178924,0.1543544,-0.24234793,-0.16112006,0.18513507,0.25250226,0.19800562,-0.06258685,-0.35996437,0.23158857,-0.29547173,-0.21298648,0.058330167,-0.16934231,0.2817861,0.23640038,-0.059566434,-0.09879908,0.06570203,0.21119258,-0.09053652,0.10370171,0.31123787,-0.25803924,-0.21271382,0.04342559,0.27421817,-0.05520518,-0.27259985,0.08470486,0.016676685,-0.14276618,0.23796588,0.046307907,-0.14465505,0.13291326,-0.47794873,0.40578413,-0.268796,-0.35116628,0.30542418,-0.19895364,-0.12515499,0.30471686,0.11793367,0.26156333,0.016520167,-0.28978407,0.064664334,-0.26079798,0.38496348,-0.32849184,0.29503036,-0.34940326,0.21654055,0.24467671,-0.23355554,0.06045127,-0.24484947,-0.0020201255,0.2151299,-0.3757156,0.097652934,0.28218815,-0.09601487,0.02598694,-0.0022926542,-0.21425615,-0.1317777,0.114416905,-0.069152154,0.16891046,0.3292566,-0.31084383,-0.08561373,0.20551175,0.26576096,-0.3485305,0.15580122,0.025694633,-0.3529155,-0.22610696,0.30045587,0.22210707,-0.08994642,-0.23576435,0.34062025,0.082839675,-0.01095324,0.38134357,-0.15978459,0.17915504,-0.24225181,0.14386377,-0.03405021,0.11173833,-0.19821213,-0.29979837,0.16917346,0.4174205,0.34494084,0.056679796,-0.2790903,-0.060508393,0.19099697,-0.35926294,-0.048872266,-0.24791922,0.11744825,0.27524158,-3.2298276E-4,-0.29744148,0.16690315,-0.16337965,0.2458911,-0.31081703,-0.28406158,-0.068306915,-0.35561752,0.19429569,0.14296143,0.049682308,0.34895623,-0.025231639,0.103609435,-0.26171175,0.061321698,0.10562341,-0.08288902,0.35811406,0.026448764,-0.16574144,-0.17792787,-0.12331191,0.38370237,0.063862726,-0.11671796,0.36590582,0.024818717,-0.09147156,-0.29607832,0.37980673,0.14260028,0.17928576,0.14346036,-0.1918988,-0.24265325,-0.072571374,-0.21399118,-0.0505585,-0.20295262,0.32421157,0.08016305,-0.09266336,0.3831082,-0.14509834,-0.3619645,-0.36065093,0.10778638,0.18315402,0.29670584,0.14862096,-0.03144086,-0.44375098,0.1370936,0.07953226,-0.09533166,-0.309008,-0.05763298,0.08805167,0.34818754,-0.31955475,0.2916128,-0.30430645,0.11307979,0.22499013,0.476123,-0.43509105,0.052426934,-0.30766857,0.28868008,-0.23739082,0.32146415,-0.23048937,0.28538784,-0.36389318,-0.0021377252,0.14610031,-0.18551779,-0.2428692,0.2503806,0.12905252,-0.14604932,0.29769006,-0.33216208,-0.26481456,-0.3577199,0.11296396,0.26058054,-0.030622974,0.347127,-0.43054596,0.020853011,0.19772151,0.19917662,-0.3764752,0.2589397,-0.1612363,0.05842674,0.31050435,-0.189555,-0.15170005,-0.32079306,0.37072572,0.16990343,-0.1763875,-0.13465282,-0.07198434,0.23244712,0.32327357,-0.1329965,0.017923212,0.11365457,0.06480791,-0.31718573,-0.05558101,-0.09025449,-0.08918611,0.37040648,-0.07219414,0.06983358,0.25623447,0.23311119,-0.43819335,0.08011803,-0.269651,0.091341,0.28562114,-0.09706225,-0.16127929,0.12570418,-0.25095412,0.1432871,0.23886406,0.3015319,0.0042908876,-0.064134255,0.22826418,-0.11150125,-0.3839241,0.17727083,-0.12216642,-0.2994494,0.35817373,0.18551852,-0.21020915,-0.01382074,-0.30082247,-0.075704776,-0.4002394,0.12150631,0.31843504,-0.24932016,0.41917002,-0.08676597,0.172391,-0.13063104,0.23666127,-0.26908743,0.28915378,0.27044997,-0.31345615,-0.31908154,0.44641197,0.22978337,-0.2891875,0.43321446,-0.3973883,0.36502805,-0.30371147,0.20301896,-0.107343,-0.29282248,-0.2748149,0.091153435,-0.0047885235,-0.24569383,-0.19769754,-0.27497897,0.03379457,0.065853074,0.28376597,0.19132783,-0.23546953,0.111082904,0.27093744,0.15517528,0.09641875,0.1840501,-0.3054633,-0.04786769,0.09545627,0.21006365,-0.27687663,-0.13350914,0.24691676,-0.14724718,0.08623921,0.21062179,0.03230979,-0.14554569,-0.31518394,0.14274463,0.024766354,-0.26586872,0.15955955,0.12519552,0.024989244,-0.0072814436,0.107720785,0.14712302,-0.34110865,-0.3364451,-0.28242362,-0.0720829,-0.040118698,-0.11569177,0.25830883,0.29041323,0.29036018,-0.29199842,0.43086594,-0.1290395,0.212697,0.09270806,-0.28487694,-0.14730588,0.31595853,-0.14890468,-0.31341752,0.12976134,-0.25998813,-0.16438088,0.1420646,-0.16680618,0.27937898,0.03656852,0.22187623,-0.016567081,0.1062906,-0.2937348,0.20318107,0.19435193,-0.10919261,0.27574334,-0.21758632,-0.07834809,-0.1654023,-0.22702058,0.25443897,0.13938634,0.070894495,-0.03917106,-0.2477171,0.16724662,-0.07396157,-0.25799242,0.030978417,0.1490874,-0.28501058,-0.32495105,-0.014429934,-0.32243878,0.39555484,0.072273806,-0.097937115,0.08457521,0.04479486,0.32673413,0.044524003,0.22507341,-0.32236186,-0.11096305,0.27062377,0.32420444,-0.4592036,-0.15755628,0.2749707,-0.058529444,0.18254836,-0.19417056,-0.094337694,0.18045701,0.06689195,-0.32291922,0.32409105,0.1652229,-0.01385935,0.0880936,0.40664926,-0.010390093,0.15938535,0.18399823,-0.20986713,-0.4382854,-0.0074944044,0.040966477,0.043379612,0.2918241,-0.43173814,-0.05071585,0.0141410455,-0.15993175,0.02043183,-0.12947838,0.09931114,-0.22920181,0.35393724,-0.27701163,0.14541334,-0.17187132,0.10523659,0.093101494,0.39771447,-0.045175124,0.016803065,0.07924694,-0.16684152,-0.28000143,-0.14189802,0.0154155865,-0.23440951,0.010957068,0.1792902,-0.12862264,-0.17277989,0.26722977,0.13520946,0.14382836,-0.35673597,0.033225484,0.0019206782,0.095293276,-0.2789785,0.3703662,-0.17584023,-0.16972262,0.08775051,0.10414959,-0.14462456,-0.070212334,0.25157288,0.083402626,0.011069867,0.055556208,0.29516503,-0.10924362,-0.40527728,-0.28672236,0.18045066,0.32828242,0.19446324,0.03970095,0.24386401,0.20131706,-0.3400461,-0.28479642,-0.11061383,-0.15030675,0.4217526,0.009108566,-0.093552545,0.41676548,-0.19434579,-0.1990754,0.078184836,-0.1989763,-0.22493087,0.3904763,0.009003136,-0.4251468,0.09123076,0.34769663,-0.23907727,0.49422812,-0.4910792,0.17005315,0.11872525,0.17089178,-0.11102907,-0.040882066,-0.043050557,-0.21449612,-0.19720452,-0.16398239,-0.25826767,0.3968497,0.03930155,-0.1345968,-0.41891652,0.2767974,0.2347181,-0.15633409,0.18897761,0.39536217,-0.27191064,-0.11476844,0.34275466,-0.082841784,0.38251254,-0.10455599,-0.19424014,0.3423274,0.36265358,-0.37907323,-0.28287187,-0.1860187,0.21815592,-0.045047473,0.1546244,-0.11836707,-0.22818021,0.4276135,-0.30246744,-0.21999767,0.20517151,-0.33627164,-0.47755727,0.29331434,0.12982161,0.061839465,0.23879652,0.19048142,-0.18854153,0.31119666,-0.23534116,0.3506541,-0.33415446,-0.053034857,-0.28718394,-0.0075384174,-0.0421002,0.03207852,-0.030973703,0.18239503,-0.4514253,0.3265472,-0.19296148,-0.09917581,-0.10480675,-0.06939681,0.28402707,-0.4241962,0.29247662,0.23545335,0.075666755,0.13043313,-0.14059424,-0.28518966,-0.15536553,-0.17021064,0.42234412,0.2990486,-0.041422084,0.19094495,-0.30371863,-0.38294908,-0.23015897,0.33293465,-0.2120316,0.0010131224,0.11551085,0.20933318,0.076500334,-0.17716916,-0.33310518,-0.25790992,0.08502351,-0.21800236,0.0018289529,-0.140633,0.42261243,0.4463971,-0.09541321,0.0428046,-0.11375848,0.3153572,-0.04387103,-0.17274159,0.15174249,-0.19328022,-0.07655743,-0.45777717,0.46872106,0.21559383,-0.24138607,0.06662056,-0.0024488906,0.1553786,-0.38958266,0.37263864,0.34139007,-0.22825941,-0.20168893,-0.067346506,0.14515106,0.2476051,-0.46286103,-0.033849906,0.22511569,-0.338375,0.20486972,-0.38809308,0.08748371,0.060170714,0.101081915,0.128715,0.24351759,0.2565194,-0.19014125,-0.21413317,0.027872752,-0.2568404,0.13825516,-0.23512398,0.22154056,0.06721767,0.20695451,-0.27587035,0.20415361,0.04341128,-0.037127018,-0.2483739,0.025875168,-0.11645485,0.2860012,0.22129238,-0.23633362,-0.18812129,0.28858712,-0.08271715,-0.1967584,0.13424565,0.11218428,0.3065888,-0.44456062,0.034570213,-0.3516828,-0.028087288,0.2034315,0.32236302,-0.056858055,0.3302444,-0.017911095,-0.07184958,0.34088734,-0.22115344,0.43086174,-0.41578683,-0.33860716,0.21503544,-0.041703608,0.29423958,-0.13901828,-0.37787375,0.32533267,-0.22286521,-0.050742194,0.23067048,0.1080555,0.07320741,-0.5751959,0.1686069,-0.3205518,0.26336113,-0.061867356,0.20104043,0.18048294,-0.11222053,-0.08200765,0.031436462,0.04962941,-0.2608722,0.32571334,0.1084599,0.27487606,-0.3670933,-0.067661405,0.048796955,0.23819627,0.3047297,-0.44945925,-0.1362705,-0.21126646,0.08927894,0.17519878,-0.4133973,0.4102404,3.2683165E-4,0.2085373,0.0073023583,0.12546498,-0.0933085,0.16503789,0.42405403,-0.47777027,0.23313382,-0.2793349,0.17636275,-0.19640607,0.16396259,-0.33674207,-0.020806927,0.27934694,0.0062122843,0.16652685,-0.35968244,0.094687544,-0.09513061,-0.5118466,-0.15387827,0.26627544,0.24959677,-0.45094305,0.4437319,-0.24815501,0.2069923,-0.07623677,-0.06382379,0.3072447,0.13068609,0.19371359,-0.06271033,0.2687495,-0.22729704,-0.057144053,0.36696014,-0.071687095,0.18705149,0.21674253,0.007166106,0.167347,0.20197763,-0.43771812,-0.0995859,0.29015797,0.035638567,-0.41470212,-0.35326412,-0.123221755,0.33099183,0.07315436,-0.38014856,0.56596804,-0.11946218,-0.034275234,0.23348075,-0.1886181,-0.37027165,-0.09468923,-0.28363824,0.5060569,-0.13151155,-0.02340245,-0.032560308,0.4118904,0.10459562,-0.1817409,0.08884108,0.23217304,0.16649932,-0.065357566,-0.43874624,0.11944595,0.15717956,0.18160293,-0.08109063,0.10065995,-0.2329017,-0.088009425,-0.3569298,-0.08643369,-0.2778644,0.41616517,0.4431722,-0.2514756,-0.068216875,-0.32779455,-0.037447304,-0.031762682,-0.1447734,0.19888607,-0.08191946,0.3005042,-0.08572222,-0.21159762,0.24953063,0.23767006,-0.31633797,-0.10929042,0.3927656,0.29970422,0.13810731,0.17474246,0.03686792,-0.2871858,-0.3374997,-0.25034308,-0.09918721,-0.24080096,0.19221956,-0.26968607,0.4280574,-0.050447915,0.4219677,-0.31998032,-0.39458567,0.37179494,0.29499963,-0.3632144,0.32240725,-0.18585311,0.21894477,0.17066179,-0.18597622,-0.11528684,0.2532827,-0.08535172,-0.30017233,0.34767187,0.0064842296,-0.1392207,0.4661546,-0.19974245,-0.29126233,0.23901717,-0.028103508,-0.06210943,0.36306807,-0.40155825,-0.10667461,0.09709732,-0.21424879,0.21674956,-0.20744368,0.0022314673,0.29048312,0.04147479,-0.17163578,0.061320458,-0.15027384,0.37190497,0.14839546,-0.3843717,0.21951526,0.11187856,-0.43330666,0.33003053,-0.16314808,-0.29136315,0.00381105,-0.20155242,0.38427737,-0.35456425,-0.008210068,0.026582433,0.216498,0.19884053,-0.120967925,-0.060921762,0.22701555,-0.44118363,0.47449538,0.0019920843,-0.082937956,-0.118054,-0.08373194,0.025233347,0.15360151,-0.3155395,-0.11601138,0.14120401,0.2497981,-0.1546917,-0.2996521,0.35656488,0.034934577,-0.2438147,0.34640682,-0.3184287,0.329749,-0.22207311,0.050703976,-0.16443923,-0.20412862,-0.085264675,0.17264685,-0.26199305,0.06389482,-0.02205611,0.1892566,0.3998984,-0.35846746,0.41903558,-0.15045942,0.047084868,0.07992929,-0.13482356,-0.019905303,-0.3133543,-0.044403605,-0.17921844,0.4523769,-0.38475597,0.27238584,0.025642756,0.13118184,-0.17260054,-0.4049709,0.11252739,0.16587332,0.38039282,0.004088349,0.052729513,-0.2684759,0.25325745,-0.23337975,0.21068254,-0.14164245,0.21451712,0.042668045,-0.17310438,0.08391911,-0.3242887,0.33438614,-0.07200914,0.105569206,-0.11116979,-0.09146062,-0.297878,0.0997294,0.099895574,0.19684502,0.15994474,-0.09063653,0.18658565,-0.32334575,0.15738797,-0.015022689,-0.39625975,0.07671081,-0.111532845,0.31194565,-0.10730121,0.25363156,-0.21733712,0.050160874,-0.5355036,0.13005623,0.19902962,0.26255125,0.010865345,0.012666159,-0.00862998,0.25093296,-0.2901297,0.06846063,0.10903803,-0.46826726,0.338403,-0.41395107,0.18281302,0.13716686,0.08376947,3.1643212E-4,0.08303628,0.45850104,-0.26836115,0.2487427,-0.12718195,-0.16513695,0.024199022,0.110074595,-0.31021613,-0.2090127,-0.03889293,-0.07773746,-0.15736428,0.2277578,-0.098348476,-0.037570428,0.23374057,-0.06963922,0.07048185,0.16846216,0.17257635,0.14500105,0.31311715,-0.51821053,-0.3663177,0.023116253,0.127021,-0.14036074,-0.075982764,0.20215529,0.4793342,-0.22346656,-0.17340459,0.19339247,-0.18676455,-0.083080776,0.36716002,-0.14104643,-0.035239093,0.30002493,-0.09839168,0.27638638,-0.031112017,-0.21028364,-0.13442788,-0.3418045,-0.0225359,0.3408751,-0.274642,0.46749133,-0.289307,0.35196885,-0.016248468,-0.15363339,-0.0982747,-0.049444623,-0.27721694,0.21023913,0.0060672546,-0.27936253,-0.04499705,0.20723769,0.14041543,-0.43948576,-0.31677312,0.08004011,0.22353055,0.28768036,-0.35088184,-0.005548751,0.052054264,0.11474833,0.18521212,0.2664263,0.1223227,-0.19608179,-0.33383524,0.17409748,-0.007846067,0.2574679,-0.13095005,0.27759728,-0.2753165,0.30941883,0.05600447,-0.061859213,0.1122558,-0.30591947,-0.3013339,-0.35494456,0.5127558,-0.34508577,-0.13015638,0.3461855,-0.11726303,0.21698382,-0.25462377,-0.4502833,0.24671017,0.27501532,9.0802385E-4,-0.30948338,0.33378413,-0.2672756,0.28382033,0.07180469,0.07344633,0.18914369,0.16659348,-0.22702377,0.17784797,0.112915255,0.35709935,-0.21571252,0.078240246,-0.13709858,0.046618115,-0.033878896,-0.14049277,0.079164766,-0.19395249,0.4253854,-0.21547168,-0.35452914,-0.284991,0.28078732,-0.042728078,0.033735886,0.27933267,-0.3183691,-0.37934375,0.35895407,0.08647891,0.4326864,-0.41968942,-0.2413379,-0.042259816,-0.11771742,0.23042907,0.2443884,0.29337585,-0.38771233,0.13324296,0.010578081,0.010890441,0.04445302,0.10688,-0.30198348,-0.28191042,-0.2857769,0.06863444,-0.021149557,0.23304501,0.15177536,0.31362367,-0.22746177,0.0814868,0.09978172,-0.2745746,0.04798408,-0.4215452,0.39092335,-0.3863236,-0.17508195,-0.111073844,0.023753995,0.2021704,0.4357597,-0.2591077,0.22096062,0.065331414,0.1031974,0.124791965,0.037247803,-0.022063777,0.15644912,0.10561456,0.15547524,-0.3836354,-0.2138516,0.3214916,-0.060750924,-0.274164,0.20957477,0.27208176,-0.13457847,0.2942105,-0.27201557,-0.27869442,0.059391588,0.3713499,0.3572401,0.032689568,-0.013097548,-0.4195046,0.25989825,-0.15219006,-0.2987701,-0.13628568,-0.1862833,0.11003268,0.18279228,-0.18483517,0.29567322,0.34059146,-0.3886856,-0.2908712,0.09512194,-0.3640188,-0.009144087,0.42091322,-0.11189598,-0.071955964,-0.4148706,0.26921698,0.24783261,0.06761572,0.20947927,-0.19959366,-0.3181072,0.2214105,0.13545187,0.09343343,-0.03484186,-0.144057,-0.00950837,-0.112632796,-0.16154803,0.19821262,0.08119852,-0.21824563,-0.08057495,-0.06754295,0.5055573,-0.37449557,0.3537679,-0.31617838,0.1952687,-0.36145842,0.21517964,0.18134648,-0.04087543,0.014116208,-0.17185055,0.22030874,0.14476916,-0.01550233,0.3093024,-0.24426544,-0.20891786,-0.22483808,0.1628529,0.08741932,0.044792097,0.14120832,0.071642525,-0.10541173,-0.25275564,-0.2588858,0.07241184,0.41323966,-0.3849546,0.39783219,-0.15102504,-0.02821276,0.13914354,-0.19936146,-0.32776725,0.036883287,0.3282176,0.35058844,-0.19441272,-0.2592175,-0.27127528,0.31494236,0.26159036,-0.2703587,-0.12833719,0.11182914,-0.12044954,-0.2204047,0.5548019,-0.35962754,0.23306523,0.3047058,-0.30233276,0.18788783,0.11697977,0.26374787,-0.0071592676,0.0812807,-0.016160369,-0.23510516,0.068801,-0.0690805,-0.12929858,0.21224682,-0.16781446,-0.3182502,0.3097677,-0.17477904,-0.16019145,-0.16268933,-0.4134087,0.058997843,0.29628247,-0.13280293,0.04247221,-0.021737088,0.1569479,-0.023564333,0.0027105582,0.25168237,-0.15642384,0.20276052,-0.4260781,0.015119457,0.31458956,-0.29247367,0.22172305,-0.4104018,-0.014427346,0.14777632,-0.23404643,0.050087556,-0.07391347,-0.2858281,0.28217092,0.3744164,0.14210355,-0.4431502,0.23018639,0.44377476,-0.07983063,-0.35161147,0.026171526,0.19198038,0.035581086,0.12813164,0.31722254,0.20142795,-0.32213378,-0.24991871,0.070980586,0.17130256,-0.40177414,0.3090988,0.21539028,0.2607356,-0.48110098,-0.28404927,-0.08709585,0.25446132,-0.3667733,0.15265305,0.18309161,0.117395066,-0.23152782,0.36829236,-0.41815272,0.23944166,0.14603607,-0.11867517,0.13977559,-0.104106136,0.025290942,0.09900333,0.06370981,0.16346121,-0.30863556,-0.1876963,-0.00933295,0.10435872,-0.18269542,0.34335962,-0.016473323,-0.20625834,0.12141575,-0.32617697,0.27581528,0.14405808,-0.25612143,-0.45728177,0.27894372,0.15775667,-0.10704789,0.33384126,-0.17165235,-0.08610205,-0.027088031,0.15068424,0.056603145,-0.2782212,-0.19041722,-0.23417361,0.29437926,0.0990226,0.26035684,0.22812666,0.16932127,-0.09807404,-0.22975554,-0.25944686,0.1263816,-0.099819556,-0.19922674,-0.1254558,0.39036918,0.15836051,0.26361698,-0.2608068,0.379627,-0.29695502,-0.015947236,0.25237283,0.11809094,0.09475638,-0.37317187,-0.42499745,0.3407716,0.052112322,0.27271855,0.028619107,0.21186477,-0.12701139,0.2775203,-0.0045342934,0.08198874,-0.4310222,-0.30898076,0.35329914,-0.13075674,0.19762722,0.36461115,0.23311636,-0.09722473,0.09509996,-0.35501507,-0.19078484,-0.12112709,0.01516742,-0.3081862,0.2265658,-0.07639356,-0.35953864,0.30946073,0.057732765,-0.06225114,-0.26608676,-0.40658814,0.26899308,0.3334862,-0.16485055,-0.2797454,0.012295404,0.2324388,-0.08886663,-0.27535543,0.21806419,0.24927057,0.07281773,0.13512382,-0.018161453,-0.19897197,-0.068429835,0.1893903,-0.17701486,-0.16933937,-0.13917997,0.1107807,-0.03595909,0.07968146,0.4332609,-0.28939736,-0.14955917,0.22914548,-0.11511799,0.20840505,0.12696896,-0.36234438,0.271622,0.17216043,0.02546162,-0.40493476,0.31374112,0.277625,-0.02357834,-0.1464381,3.0112712E-4,0.13031615,-0.33367008,-0.034663808,-0.38125908,0.36667675,0.05826545,-0.2865614,0.2891617,-0.26805618,0.19372089,-0.10668602,-0.19108407,0.2853262,-8.031719E-4,0.22577721,-0.08070102,0.26565695,-0.1764203,-0.15543054,0.1625539,-0.10845925,-0.26251057,0.3641497,0.3012077,0.23747683,-0.3640278,-0.04162183,-0.1390538,0.0912748,0.024218395,0.18103306,-0.04079329,0.26016226,-0.3041198,-0.019839058,0.13881493,-0.47137496,0.20071787,0.024623517,0.35698786,0.14911579,-0.027888307,-0.28635123,-0.22212543,0.35093513,-0.04386771,-0.116740115,-0.3132055,0.028374156,0.052703388,0.2717484,-0.13901782,-0.30514,-0.38171816,-0.3566228,-0.12536825,0.069713496,0.18658915,0.37707043,0.48040116,-0.09003916,-0.14534082,0.20796597,-0.16805509,-0.15449814,0.13026391,-0.17321146,-0.013386655,0.31192175,0.25973204,-0.1868323,-0.28497282,-0.28163084,0.18558453,0.29088312,-0.051166847,-0.02113556,0.28046694,0.23345125,-0.2789656,-0.2350272,0.22855195,0.19361807,-0.3163913,0.018253323,0.07767911,-0.2505501,-0.2784934,0.17460695,0.18723843,-0.21871947,-0.27839816,-0.041870676,0.44413015,-0.183914,-0.18153454,0.2534103,-0.29329446,0.07630366,0.16637076,0.37001836,0.012724283,-0.009685389,0.12691945,-0.2510762,0.28812763,-0.4908353,0.17964585,0.006881899,-0.012050455,-0.027408969,0.2016647,-0.46467134,0.3541822,0.10677737,-0.18573503,0.15886079,0.020151911,-0.33124867,-0.091795966,0.38055608,0.08906194,-0.36818522,0.21661168,0.15898465,-0.06241823,0.03875791,-0.31001404,0.18698059,0.16086118,-0.2398176,0.27613556,-0.38532016,0.088045254,0.17301069,0.01453834,-0.115363926,-0.3121732,-0.253238,0.14447014,0.1697123,-0.25827733,0.29961625,-0.0855388,0.14808483,0.13982941,0.2224111,0.10155527,-0.33534342,0.1947322,0.2872045,0.34243634,-0.11420668,-0.13938855,-0.49322665,0.15602875,-0.0910325,-0.05016935,0.24293663,-0.31101063,-0.29213005,0.24334125,0.13876338,0.18199745,-0.14286481,0.039668575,-0.34473857,0.090622194,0.016538458,-0.006727898,0.25255316,-0.18207219,0.28245243,0.24334668,-0.222594,0.060915064,-0.26632023,0.124410495,-0.37198713,0.3478948,-0.035527762,-7.484055E-4,0.4176381,0.033600874,-0.39974847,-0.031388424,-0.32787883,-0.19142327,0.13874207,0.013688512,0.12740642,-0.29792902,0.18969844,0.27643773,-0.11776194,0.05664691,0.11970199,0.114086136,0.0715627,0.43388808,-0.08871464,0.085005395,-0.22681996,-0.28295195,0.16937338,0.22747438,-0.27086172,0.100289404,-0.044600114,0.044627003,-0.30959594,-0.19561256,0.01431801,0.38529333,-0.30146977,-0.14597982,0.11958084,0.099295564,-0.031264756,-0.2326259,-0.18075885,0.33148474,-0.33091986,0.09542506,0.0052830474,0.054489836,-0.22731255,0.2636094,0.14948176,0.32872856,0.33877173,-0.3625068,-0.17935617,0.27792647,0.01747427,-0.2936791,0.17075464,-0.1054393,-0.44253096,0.21665312,0.38539857,-0.021233963,-0.17788136,0.09965164,-0.06393302,-0.20544443,0.24328491,0.18178189,0.113741435,0.40492064,-0.13441108,-0.34918994,0.030431861,-0.050377272,0.10474815,-0.2443524,-0.08081792,0.058046844,-0.3687196,0.38612956,-0.057128567,0.18475696,0.18044947,-0.30327457,-0.3673882,0.1343225,0.30801904,-0.1675443,-0.22258998,0.33025864,-0.030374883,-0.13723594,-0.011436601,0.20688029,0.030112142,-0.18204097,0.06200336,-0.028807174,0.03653116,0.21520066,0.2199396,0.36301947,0.023712551,-0.14545064,-0.10208999,-0.34058967,0.12588185,-0.018117834,0.16520591,-0.036699586,-0.39818382,0.09202816,-0.19351678,-0.28787693,0.15129678,-0.2442335,0.08314829,0.44667232,-0.18380018,0.20176755,0.2101227,-0.27050442,-0.046125654,-0.07937797,-0.1353656,-0.060288858,-0.30563995,0.44422573,-0.17145133,0.016335804,-0.21570137,0.36239907,-0.014561108,-0.2046572,-9.763907E-4,-0.1240072,-0.3336308,-0.104847565,0.017975738,0.2297748,0.37296075,-0.39071512,0.06326785,0.34072107,-0.011424035,0.22542226,-0.27043664,-0.21170661,0.34549373,-0.29170305,0.20913129,0.2993324,-0.40129846,0.07905113,0.10032451,0.3187531,0.21713741,-0.11739521,-0.2920306,0.33429655,-0.2761764,0.3137463,-0.088163845,0.19574018,0.12822337,0.31388426,-0.13344775,-0.3454423,-0.34277856,0.37463224,0.3272691,-0.18124644,-0.08585586,-0.005354149,-0.09620643,-0.063807115,-0.19925623,-0.21768188,-0.42087778,-0.094818175,0.09211908,0.16473392,0.22039337,-0.07710637,0.22908077,-0.23215744,0.41211933,0.072316065,0.41031,-0.50216013,-0.019982023,0.12216879,-0.110095516,-0.0461481,-0.15496844,0.028213624,0.28346804,0.36237308,0.0072199027,-0.09157204,-0.3424897,0.031560205,-0.014996081,-0.31284282,0.28554568,-0.07987104,0.34460908,0.24310325,-0.4252061,-0.16147317,-0.34737003,-0.14855352,-0.33576158,0.08332625,0.34834492,-0.22836554,0.13818525,0.40462083,-0.26251164,-0.29055467,0.17927423,0.028966255,-0.12833022,0.33503345,0.25742692,0.12202758,0.10036813,0.19572313,0.054426666,-0.3290269,-0.1332603,-0.14515735,-0.20593816,0.29128975,-0.26197907,-0.08234683,0.19440901,-0.057088755,0.3142674,0.09013585,0.069052756,-0.10757054,0.184505,-0.12519604,-0.35223258,0.5374832,0.13623095,0.20847757,0.19694474,-0.017374264,0.0024183223,0.08912952,-0.21046919,0.083924375,0.06990254,-0.16486631,-0.47650748,-0.33675534,-0.19855388,-0.092461124,0.21716873,-0.024959758,-0.005175273,-0.13954055,0.026649142,-0.1738176,0.37633175,0.2171373,0.44908947,-0.25409812,0.027740361,0.045718778,-0.28316444,0.26656947,0.009475585,-0.35978478,-0.17053176,-0.3182517,-0.14110467,0.25595203,0.339146,0.04966429,-0.19910604,0.047315933,-0.31225455,0.31907916,0.15184411,-0.32574236,0.3758831,-0.058479212,-0.22820179,-0.03056584,0.04992279,-0.033162843,0.25955978,-0.1788699,0.14411958,-0.32782885,-0.103103325,0.22204502,-0.07982881,0.18640481,0.3215757,0.07452919,-0.26764503,0.014759936,-0.13465828,0.39714023,-0.33784825,-0.3560359,0.17546275,-0.13663147,0.058690287,0.0062103085,0.36193815,-0.044843182,-0.18984535,0.38995737,0.23189107,-0.108639985,-0.29102176,-0.26454076,-0.29620495,-0.16401798,-0.35707098,0.33819956,0.20911475,-0.013914531,-0.21232556,0.23276879,0.08634187,0.01971378,0.28599408,-0.26113072,0.40849254,0.36289665,-0.3866735,0.06672621,0.26260993,-0.051634993,0.20507869,0.0029734184,0.1417114,-0.06692765,-0.14463982,0.21120629,-0.32672384,-0.23599595,0.26152396,-0.117810525,0.17012964,-0.44497606,-0.032331306,0.22910263,-0.26655364,0.018312106,-0.49014443,0.23334032,0.23861328,0.29033887,-0.3721816,0.29548806,0.1372109,0.042096213,-0.46831477,0.3003893,-0.18074578,0.23135835,-0.026788656,0.25310457,-0.11178794,-0.0199278,-0.024634423,0.28632385,0.12277291,-0.07746972,-0.24147543,0.025059434,-0.08636652,0.42026812,-0.1159604,-0.25879,-0.302619,-0.119043685,0.2122081,0.31486115,0.09976243,-0.348597,0.34788162,-0.03999626,0.36266354,-0.21884383,-0.2294362,0.13731895,-0.21711898,-0.34029827,-0.33033243,-0.17277874,0.068354085,0.4027088,0.1874259,-0.10948179,0.122856945,-0.18869321,0.26362535,0.04186839,0.07973587,-0.4082893,0.32317916,0.18447764,0.074458465,-0.273422,-0.28776753,0.19847353,-0.37692377,0.14672218,0.30607074,-0.26938805,0.46108955,-0.030859025,-0.14318602,-0.13097544,0.0045382045,-0.071755394,-0.031723533,0.29392093,-0.3876492,-0.28218734,-0.11139588,0.008794137,0.25051388,0.1860956,0.14720142,0.04491044,-0.22153193,-0.10803587,-0.06715571,0.50111306,0.16647944,-0.1952992,0.1854125,-0.40381464,-0.18212692,0.19374429,0.30821416,0.18585445,-0.16790748,0.023325998,-0.4045391,0.019372564,0.31974724,-0.40162647,0.08066146,-0.13412122,0.14150922,0.22647841,0.23309638,-0.4089036,0.22516143,0.36370048,-0.019212311,-0.1699923,-0.1757542,-0.21358962,0.05075943,0.037959054,-0.050967745,0.41300574,-0.062122576,0.07422018,-0.20782359,-0.15195589,-0.22393268,0.14810246,-0.31249127,-0.104077674,0.43839523,-0.29776976,0.35960585,-0.0973877,0.115607835,0.538583,-0.21191935,0.12730695,-0.23375693,0.04822079,0.21596427,-0.3672343,0.50988245,0.094700076,-0.26748887,0.22613697,-0.13012785,-0.1571928,-0.081095785,0.08705412,-0.3555252,0.00980746,-0.10075146,0.08058442,-0.01879073,0.088529006,0.38349423,-0.34047452,-0.13140087,0.21399991,-0.24214658,0.1364906,0.40674767,-0.5547301,0.36691454,-0.15781246,-0.094690986,0.20696568,-0.18388112,-0.20568156,-0.04352999,-0.31230813,0.09509507,-0.17303552,0.16493249,-0.26417947,0.3524814,-0.031654224,0.13366093,0.042362116,0.023039822,0.19785117,-0.03757101,0.095038734,0.20762911,-0.2158628,-0.25128803,0.21833144,0.014688717,0.10510481,-0.04749568,-0.15668088,-0.12852336,0.122427195,0.48088136,0.14571857,-0.18629573,-0.097292386,-0.33861327,-0.12496907,-0.3134059,-0.1482194,0.3204875,0.058440533,0.09807264,-0.123756446,-0.073914446,0.24758823,0.27702478,-0.21294732,-0.08644903,-0.2607214,0.3123134,0.32949674,-0.17537826,0.3217532,-0.2700005,0.15440245,0.17106476,0.048604406,-0.18894833,0.20172462,0.31320423,-0.48326135,0.27012423,-0.12025083,-0.048394408,0.14399758,-0.1655434,-0.070004344,-0.24914268,-0.47582057,0.04266423,0.28395647,0.007260273,-0.10280233,0.35399202,-0.03607683,0.035301965,0.17228737,-0.4055132,-0.14636742,-0.22739926,-0.009940408,0.11967763,0.32475328,0.14075422,-0.111417644,0.014918007,0.04120841,-0.13338824,-0.07015343,-0.12914003,0.14758435,0.17949755,-0.1714818,0.3061085,0.282053,0.24229696,-0.37297404,0.055147775,0.021212537,-0.20309624,0.1420745,0.09479923,0.1891689,0.47307754,-0.051620804,-0.37108734,-0.09279743,-0.21930988,0.108502544,0.30637914,-0.284813,-0.04591247,0.036666173,-0.15120988,0.19611152,-0.25042486,0.27057838,-0.3510737,0.37057072,-0.30308837,0.055086125,-0.14682093,-0.015146505,0.07040441,0.22790205,-0.23043616,-0.05297165,-0.21154508,0.24353784,-0.18150741,0.16304761,0.0020718577,0.27311295,0.09997289,-0.23051566,-0.13096148,0.17685077,-0.27373132,0.0927521,0.21204953,6.509407E-4,0.27848473,-0.16730992,0.30661285,0.023103822,-0.34694567,-0.33404353,0.096440345,0.07475291,-0.018986218,0.05184458,-0.23094301,0.09283285,-0.36135316,-0.07992924,-0.14556514,0.3321124,-0.20464754,0.08316414,-0.08157157,0.33045846,-0.08036604,0.2638215,0.02666942,-0.086357966,-0.26785758,0.1323129,-0.29108828,0.37175,-0.1108575,0.49554437,-0.44254735,-0.010864943,0.18201359,0.16724733,-0.13503157,-0.023957985,0.35273033,-0.24229145,-0.03165704,-0.19262867,-0.21223563,0.33189726,-0.29426014,0.19737934,-0.20042083,0.3081948,-0.020496296,0.26940066,0.20084578,-0.32979733,-0.09463969,-0.07995674,0.07213942,0.15038674,-0.16746715,-0.17281084,0.09707957,0.26710844,0.26313904,-0.4150454,0.30193263,-0.29397473,-0.18008247,0.29967478,0.24932505,-0.26851612,0.1833224,0.14806008,-0.47435188,-0.3675737,0.28533623,0.32842895,0.06453332,0.2949244,0.1493139,0.36221188,-0.3029509,-0.3527401,-0.25288877,-0.07414569,-0.12678583,0.087606125,-0.1066661,0.22994281,-0.16208652,0.08426374,-0.12500067,0.069447614,-0.19387381,0.27860886,0.26513335,-0.008245461,-0.4587155,0.1272666,0.33768374,-0.043813467,-0.35512587,0.023600468,-0.11814216,0.18304163,-0.42259267,0.2033648,0.052271392,-0.44382024,0.42978978,-0.048311256,-0.3429259,0.27431464,-0.091599576,-0.25233874,-0.29872087,0.16602899,0.31853375,0.24521017,-0.13974015,-0.19977622,0.074877374,0.13618031,0.291966,-0.048004214,-0.23283613,-0.1933973,-0.1231629,0.11972881,-0.10695816,0.19864343,-0.037293397,-0.029766956,-0.006669666,-0.04027931,0.2847092,-0.017357238,0.26582018,-0.17583618,0.12771267,-0.20135179,0.09525249,-0.0062433383,0.39745563,0.07844403,-0.014808871,-0.3638133,-0.023606984,-0.12769318,-0.051007126,-0.23144345,0.2141343,-0.1275717,0.08404946,0.17867866,0.005306927,0.13126922,0.37708655,-0.18962355,0.17263365,-0.29409558,0.31299323,0.10847377,-0.25420582,-0.102139205,0.018731691,-0.09360802,-0.13777053,-0.0138816,0.0834041,0.12504014,-0.17855553,0.060819574,0.19638202,-0.10764773,-0.096489295,0.30818218,-0.065359645,-0.28201067,0.021330059,0.21965015,-0.04026022,-0.29131794,0.1491194,0.13816342,-0.0020385445,-0.016822528,-0.25896093,-0.37165722,0.26466852,0.026079182,-0.29527473,-0.25576788,-0.15588495,0.3585756,-0.337145,0.29560676,-0.017045941,-0.221241,-0.09328745,0.29348445,-0.04798678,0.3116589,0.30597523,-0.15715425,-0.41189274,0.05124826,0.47918445,-0.42038357,-0.2986273,0.4107622,0.19508734,-0.31886107,-0.16608535,0.24387814,-0.10748888,-0.011967936,0.16076697,0.17756154,0.18365853,-0.032077122,0.20720717,0.28994906,-0.034275543,-0.46021676,0.2545106,-0.07025181,-0.4965304,0.19921677,0.04082595,-0.2097993,-0.012760814,0.17675847,0.26115984,-0.056164384,0.18475395,0.24900284,-0.2823226,-0.042821657,0.29811683,0.08587592,-0.35316995,0.24957421,0.10176262,-0.3675883,-0.23882465,-0.17325518,-0.31210354,0.105836414,0.33841506,-0.15504639,0.43689707,0.016248869,0.06189182,-0.092306,-0.019196052,0.0021805773,0.009354052,0.14010212,-0.45761734,0.24386138,0.28409496,0.050783113,0.1779617,-0.025980493,-0.07315903,-0.2123168,-0.026784588,0.09569512,0.13922073,-0.13810924,0.30475754,0.0044462956,-0.2953449,0.20642447,-0.12937784,-0.23936677,0.30633432,0.05693038,-0.090076566,-0.19605468,0.037061963,0.06959721,-0.15267533,0.2089359,-0.2558778,0.26698825,-0.1688567,-0.020773742,0.0820235,-0.028796686,-0.13323629,0.30018663,0.20196922,-0.059922338,-0.1874337,0.11923796,-0.1256939,0.11943584,-0.19549674,0.17505403,-0.42049366,0.08595233,0.08285167,-0.019448189,0.09392803,0.2983651,-0.010267955,-0.1139212,-0.068819135,-0.3602788,0.18162894,-0.029245958,0.21251066,0.21823151,-0.1568327,-0.35994932,0.2368384,-0.19404803,0.13368274,-0.3434293,0.33306983,0.1770707,0.3500928,-0.38404664,0.052367844,0.23018536,0.3143809,-0.14290227,-0.23099105,-0.08607214,-0.19089839,0.27322018,-0.21982177,0.02698259,-0.2006523,-0.20425469,-0.03351712,0.38488755,-0.05365641,0.45017654,0.23225065,-0.21956512,-9.083989E-4,0.13437517,-0.2852894,-0.2175887,-0.2992112,-0.18868656,-0.07140156,0.32019645,-0.33552885,0.21040273,-0.22068012,0.37355885,-0.11273908,0.07813669,0.2575056,0.009494641,0.05908898,-0.40042898,0.083058715,-0.01762097,0.18685997,0.067900896,-0.24011661,0.3082333,0.17971547,0.17685612,0.07264495,-0.1440287,0.057435114,0.0530905,-0.28855467,-0.14206676,0.04062102,-0.17915581,0.13662195,-0.091836914,0.0041709747,0.069366686,-0.1068834,0.16641477,-0.3482638,0.23866452,0.043195598,-0.42889035,0.28138626,-0.013293431,-0.18423854,-0.022047833,0.32608476,-0.019080572,0.12087582,-0.055228952,9.071514E-4,-0.24925895,-0.102326855,0.42364118,-0.19967875,0.03174999,-0.22288382,0.100353874,0.32014197,-0.1298968,-0.2774721,0.38917005,-0.11734676,-0.07214065,0.27406645,-0.20855808,-0.014949168,0.13063183,0.17330694,0.011567682,-0.26322883,-0.029737236,-0.31780276,-0.058095306,0.15312561,-0.29043323,0.25629258,0.023168195,0.36338663,-0.36504883,-0.057661217,-0.13851367,0.28062728,0.16026904,0.017401213,-0.19276832,0.15664595,-0.42993525,0.10180035,0.096974276,-0.31963003,0.34611475,-0.013268807,-0.21654354,-0.0012510648,-0.008674493,0.11896311,0.11288067,0.18340677,0.054577827,-0.13343464,0.2958533,-0.14356497,0.5045497,0.28153357,-0.45078135,-0.104946196,0.24264327,-0.14528592,-0.22688517,-0.21813099,-0.08811274,0.13083437,-0.24261974,0.159538,0.32445878,-0.07589137,-0.1886035,0.04088626,-0.15705007,0.01477803,-0.30511853,0.377317,-0.17470875,0.051022734,0.26772165,0.40487498,-0.29250318,-0.19974895,-0.15205662,0.029933875,0.27595264,-0.36157608,-0.091754854,-0.24861026,-0.21333985,0.33537862,0.0050842892,0.20470773,0.20727564,0.3518958,-0.33034906,-0.023908958,0.23029919,-0.2785412,0.121095344,-0.028648613,0.18387307,0.016038831,0.17620102,-0.3914426,0.08088916,0.48499766,-0.12212203,-0.11241509,-0.36076033,0.4248874,0.08414659,-0.42732623,0.3324074,-0.28568375,-0.20844164,0.1914563,-0.017556725,-0.22971155,-0.2558492,0.14019476,0.3570567,0.26774806,-0.24847543,0.20995858,0.2998922,-0.50581044,0.2862323,-0.41266468,0.08142755,0.119197525,0.14477368,-0.1366694,-0.15626934,0.009137039,-0.12005761,0.44708613,0.1430226,-0.024526648,-0.18012354,-0.33456358,-0.14846142,0.4811316,-0.06932143,0.33770978,-0.31428683,-0.106806085,-0.13640416,0.14295848,-0.2986503,0.14742407,-0.38570437,0.3301652,-0.35159564,0.34695283,-0.1630321,-0.065806784,-0.0592758,0.09721031,-0.10719171,0.3163104,-0.008288896,0.13077432,0.33516937,-0.35401484,0.08106429,-0.21726142,-0.13390593,0.30506545,-0.26336908,-0.1407161,-0.24977571,-0.20897828,-0.2314436,0.07669884,0.38916343,0.21092795,0.16709186,0.20238386,-0.13865456,0.05853767,0.18379815,-0.21826093,0.090267725,-0.23029403,0.33224872,-0.08237245,0.01227471,-0.099425435,-0.07931094,0.11522933,-0.07779817,-0.2130917,0.14652792,0.29370156,-0.15812634,0.043790795,-0.3787916,0.17893006,0.051259127,0.18635634,0.11067431,-0.009917987,-0.42812607,-0.3032523,0.3888429,0.13087864,-0.03697325,0.042127576,-0.26594034,0.027264541,0.23423953,0.15976395,0.042203482,0.012908643,0.22639978,-0.2262913,-0.05101745,-0.3964065,-0.005181525,0.05246933,0.22423436,-0.18094575,0.25653657,0.3822333,-0.40480182,0.26881686,-0.047397822,-0.11635011,0.24567509,-0.37889448,0.40736818,-0.2126558,0.20183541,0.3559311,0.3003097,-0.17419751,-0.35673556,0.36015534,-0.23074071,-0.025274321,-0.21947412,-0.116936974,-0.13782153,0.0013722251,-0.116139226,-0.049491934,-0.4402576,-0.1481993,0.24917616,0.38385454,0.04550761,0.19556412,0.23301664,0.26428315,0.021675792,-0.08392672,-0.099319115,-0.2774584,0.2552749,-0.37730822,0.01973895,-0.1496827,-0.23463786,0.23741232,0.19337828,-0.13691238,-0.032144938,-0.34202364,-0.13763785,0.11386253,0.3112782,-0.1646159,0.05929852,0.2937982,0.14981882,-0.08382593,-0.24794842,0.288037,0.2902471,0.16597837,-0.2253496,-0.24711558,-0.14188373,0.4252626,-0.22579482,-0.34141123,0.060033362,-0.023697615,0.07089835,-0.13835156,0.42552808,0.021513496,0.1155941,0.028403789,-0.25195262,0.38226718,-0.27409178,-0.15992755,-0.36003855,-0.082638875,0.28425086,0.15860045,0.078172,-0.53520775,0.15553162,0.04573978,0.26676014,0.30756885,0.18528898,-0.40195307,0.22008803,0.23379235,-0.20639761,-0.1448085,0.09586323,-0.23390996,0.24018562,-0.020653117,-0.23541391,0.26527524,0.096264854,0.1794667,-0.19043127,-0.13660708,0.26171467,0.07688061,0.27697858,-0.11653272,0.034046248,-0.2692799,-0.36380258,0.3038727,-0.053063136,-0.4069366,-0.015622203,-0.16506705,0.3554958,0.11951351,-0.12188949,0.2064208,0.12022319,-0.018981965,-0.067394055,-0.4266616,0.28735965,0.18986115,0.18587507,-0.044101987,-0.28732845,0.2584145,0.012956496,-0.119170405,0.037009597,0.038769253,0.07965218,-0.18768507,0.2857596,-0.07884788,0.046219155,0.21123677,0.08552181,-0.2951813,-0.04277524,-0.17687963,0.036651745,0.41998693,-0.10282652,-0.12657164,-0.16716935,0.1703468,0.13572888,-0.39412326,0.05159627,-0.28963336,-0.22062694,0.36959147,0.06789664,-0.21465716,-0.23214464,0.17436439,-0.10969634,-0.21831788,-0.31062987,0.07801613,0.20114575,0.4254723,0.37114516,-0.36882788,-0.089953296,-0.07728133,0.021280266,0.06566209,0.25806746,0.17686912,0.22601686,-0.2010159,-0.21994652,0.07720076,0.111848466,0.03179716,0.18649334,-0.29339492,-0.07074468,-0.21081182,-0.23066282,-0.16263863,0.060957532,-0.38808265,0.47544315,-0.019705469,-0.007146727,0.050154325,0.15385973,-0.14749277,0.32565123,-0.15097764,-0.25057808,-0.007604988,0.41807172,-0.08544637,0.004662931,0.3105319,-0.10484635,-0.36055645,-0.032454863,-0.2695698,0.16071075,0.27625608,-0.41540635,0.39296404,0.13165045,0.31181175,0.047776658,0.029854294,-0.0701803,-0.35513893,0.2536483,-0.364387,0.20900358,-0.09829143,-0.14360069,0.31188402,0.15538912,0.22034729,0.044171657,-0.4183991,0.18645461,-0.40081605,0.006022834,-0.19327815,0.27765706,0.21702978,0.08037189,-0.2113449,-0.16328843,-0.3885653,0.1354366,-0.13087226,0.18989064,-0.3825087,0.23293795,-0.35055736,0.1494667,0.06724531,0.070804305,0.34705406,0.12845413,0.18483147,-0.30235198,0.32855168,-0.31677592,-0.01800755,-0.12830071,-0.1438143,0.2962604,-0.3077638,0.40056416,0.37269768,0.061669976,0.08787813,-0.35665256,-0.21705766,0.08143898,0.07854246,0.14060359,0.30265492,-0.43120843,0.09068967,-0.2827179,-0.19175293,-0.1806382,0.06258366,-0.10050095,-0.04772696,0.05416218,-0.31199825,0.41599816,0.33278018,0.27420238,-0.028286302,0.17101052,0.20385195,-0.016858784,0.19822413,-0.15362823,-0.17825961,0.09252744,-0.33043653,-0.17585242,-0.25058773,-0.23893332,0.10281136,0.21012947,0.3113159,0.2673321,-0.054388203,0.025149744,0.24655627,-0.010905169,0.11554619,-0.105067916,-0.25274286,0.35883808,-0.027189331,-0.2891945,0.022676505,0.22100803,-0.177074,0.3804278,-0.20815313,-0.21481563,-0.01935739,-0.30853382,-0.117581375,0.0076735206,0.46804118,-0.26290447,0.2898031,0.0039502415,0.36355817,-0.015512114,-0.058294136,-0.225316,-0.22806317,-0.0943995,0.036232058,-0.23047048,0.15073198,0.02234566,0.36695236,0.15796451,-0.04552143,0.17958096,0.003707972,-0.41032305,-0.061098967,0.029282471,0.023728168,-0.041821633,0.00611284,0.041937407,0.08832212,0.0074829967,-0.3690284,0.21225685,0.14068334,0.02179925,0.1260868,0.08444887,-0.312527,0.101434015,-0.19695634,-0.21482906,-0.20959912,0.120328374,0.10022672,0.18864328,-0.24371724,-0.31594172,0.41573036,0.2724592,-0.21687248,-0.13267559,0.018043147,0.23623562,-0.0043591675,0.21505475,0.034633826,-0.25844625,-0.22010268,0.26757216,-0.072837465,0.15592404,0.10377735,0.0067099095,-0.30923977,0.07257356,0.13725017,-0.112151615,-0.1340276,0.1714291,-0.25965548,0.10464207,0.16484298,-0.09085108,-0.26701108,0.39325863,-0.26589483,0.22386037,-0.14128129,0.06344245,-0.13826615,0.17032403,-0.1530844,-0.05113101,-0.014798575,0.031065611,0.16407707,-0.32158223,0.42840374,-0.23503762,-0.25823146,0.15776339,-0.087998785,-0.12736107,0.25131646,0.057488594,-0.03507377,0.38478628,-0.35890374,-0.041270804,0.072098404,-0.318588,-0.08174755,0.27273008,0.0551994,0.17382954,0.14904456,-0.13367687,0.3255679,-0.46368504,0.33785525,-0.32951206,-0.1274836,0.22741221,0.15932861,0.0021505237,-0.02213336,0.13678183,0.15153831,-0.3391172,-0.2506745,0.16680445,-0.14193861,0.23052168,-0.2878397,0.3719052,-0.15738617,-0.06187022,0.0023668276,0.22032675,0.018919118,0.14910696,-0.20918761,0.104797095,0.08229917,0.048923165,0.098341055,0.05352559,-0.12112048,0.06310951,-0.17734419,0.20250408,-0.08199328,-0.43316394,-0.04558175,-0.29462218,0.16031171,-0.1741607,0.27346233,-0.31462213,0.08241467,0.39066178,0.19461255,-0.11446266,0.1318363,-0.37356606,0.30111426,0.11447042,-0.3630073,-0.20258564,0.06762612,-0.170661,-0.30419645,-0.1232534,0.26646513,-0.18043657,0.34879735,-0.14205158,0.36136863,-0.103077725,0.28245446,-0.17656377,-0.04038674,-0.14995319,-0.3265976,0.28943262,-0.05755257,-0.39406237,0.13161483,0.141567,0.45647386,-0.13090993,-0.041804038,-0.027254228,-0.27573338,0.3974773,0.17677459,0.15365885,0.027982764,0.059861753,-0.22059254,-0.21364734,-0.24356572,-0.28778145,0.043236785,-0.01827327,-0.47228348,0.33204597,0.17895927,0.22479576,-0.15467551,0.07035669,0.086670555,-0.023483314,0.2620647,-0.2180181,-0.052489836,0.05202084,0.010128033,0.19032432,-0.21397886,-0.29015878,-0.06617052,-0.08547697,0.31732967,0.35563806,-0.041644804,-0.05370605,-0.20823324,-0.20966506,-0.28216347,0.4407756,-0.22595026,0.19714643,0.117014565,0.24931428,-0.12304136,0.2461899,0.16822115,-0.17883849,0.10692389,0.20508127,-0.36391032,-0.3793823,0.26719135,0.08682164,0.010889939,-0.33127856,-0.21262088,0.30662206,-0.0030063782,-0.3614912,-0.28530958,0.032535356,-0.29579183,0.42053935,-0.21972598,0.33323124,-0.2565654,0.3005594,0.13355301,0.24780293,-0.42243895,-0.048325595,0.092840895,0.27832332,-0.086869225,-0.10203518,0.25609854,0.13457063,-0.34945986,0.3150684,0.10799101,0.0055596703,-0.43913278,0.30207697,0.06325558,-0.008055265,0.21033311,-0.14546692,-0.008593922,-0.24174932,-0.092038296,-0.32285923,-0.2738654,-0.05828351,-0.4794141,0.19810449,0.023917153,0.007916358,0.28702167,-0.06096284,0.2811427,0.012114177,-0.22759327,0.21781161,0.31851897,0.15271287,0.06644043,0.0034884345,-0.25787678,0.07985205,0.0062664784,0.37367103,0.2105224,-0.17465529,0.09873533,-0.28233075,-0.106002,-0.16268295,-0.35222724,0.36376062,-0.09469068,0.030539509,0.27754486,0.20027024,-0.12975487,-0.08746968,-0.3128453,-0.14574988,0.030851286,-0.2282479,0.06805077,-0.12918988,0.1603413,0.15241021,0.25995326,0.13135347,0.10218997,0.21813184,-0.24484691,0.057771325,0.2961071,0.17231418,-0.3726478,-0.028168976,0.40747577,-0.40609768,0.07181923,0.0999814,0.5011539,-0.13311549,-0.3227192,0.241418,-0.29970565,-0.22729982,0.07873859,0.2833319,-0.16399798,0.21363084,0.077347524,-0.29350606,0.14849477,0.15294725,0.19645645,-0.23512547,0.022355353,0.07870012,0.0072219158,0.17924397,-0.1871047,-0.44501662,0.069920346,-0.39374337,0.030727055,-0.09932779,0.42979363,-0.13644324,0.2927673,-0.20775995,0.23291767,-0.15240222,-0.09176395,-0.06322785,0.4946734,-0.006134071,-0.31220075,-0.06818919,-0.065473974,0.2741748,0.40351725,-0.08467521,0.04851064,-0.29654425,-0.1580051,0.2674598,0.31698462,-0.51786184,0.22398779,-0.034154277,0.3635475,-0.46292663,-0.047162306,0.29186803,-0.46129656,0.19450843,0.2823683,-0.3635567,0.1150364,0.1544619,-0.18430246,-0.25569838,-0.2367712,-0.1683563,-0.067703836,0.19956034,0.116884016,0.3434569,0.3100254,-0.08351981,-0.2930415,-0.10065243,0.2702985,-0.13023427,0.37288415,-0.5294456,0.24706051,0.10112455,0.09396955,0.048778825,-0.2638019,-0.1413508,0.35561267,-0.30625615,0.21950361,0.114907734,-0.15275268,0.11768418,-0.24008434,-0.1339719,0.2048928,-0.2438284,0.019810311,-0.09409478,0.0041325083,-0.20474051,0.14453459,-0.2705265,0.32964784,-0.43879187,0.3057149,0.2504441,0.37371752,0.17897727,-0.08660194,-0.21569036,-0.12266941,0.17449304,-0.047547337,-0.2316658,0.3685856,0.16074333,0.032950398,-0.2147948,-0.3182076,0.38534614,-0.040233504,-0.27291802,0.05014225,0.2628186,-0.19990286,0.093635835,-0.020659506,-0.14677283,0.04172188,0.39193255,-0.3959055,0.02781774,-0.23860236,0.11289393,0.2837913,0.056565795,-0.36760157,0.3268448,-0.20962812,-0.3367674,0.2785814,-0.37630618,0.51347387,-0.07274577,-0.22937508,-0.04383073,0.097024955,0.3289426,0.34784433,0.20753393,-0.30180928,0.12982358,-0.35796553,-0.2098273,0.035077687,0.44860986,0.049235247,0.08609536,-0.21547663,-0.15015697,-0.2140424,-0.26348802,-0.2581367,-0.025497489,0.30672073,0.102297716,0.29317772,-0.2208612,0.28934172,-0.16197291,0.0040299753,-0.26826122,0.11831566,-0.06312441,0.23030986,0.10162964,-0.090825565,0.18324551,0.012492024,-0.39230895,0.44441032,0.38502023,-0.33100507,-0.3646066,-0.3091373,0.18489864,0.11022615,-0.3373337,0.32491258,0.21072632,-0.2949859,-0.21007606,-0.32675508,-0.070214346,0.019159734,0.37519377,-0.24345067,0.4687605,0.3057747,-0.09762395,0.26068535,-0.11323021,-0.26210392,-0.42076814,-0.33825973,0.16483676,0.23738953,0.14763832,0.0048122765,0.07328946,0.2584278,0.15333317,0.36195,0.15735002,-0.053973787,-0.252384,-0.45179734,0.088256285,-0.27737293,0.2524357,0.27399653,-0.22375849,0.19011946,-0.15926524,-0.20325373,0.16957963,-0.018438488,-0.10923623,0.124505624,-0.07837647,-0.16624717,-0.42415896,0.2745946,0.075726606,0.25999853,0.2550657,-0.054105684,0.114060454,-0.26349068,-0.014370376,-0.07552216,0.0142816575,0.2679644,-0.1111918,0.34317034,-0.10740725,0.07991237,-0.062597685,-0.27520666,0.26873225,-0.34998754,-0.1113344,0.033402395,-0.017158419,-0.10969074,0.09606196,0.107189454,0.16141474,0.07387081,0.022813518,-0.111137494,0.024052858,-0.2556457,0.14771377,-0.0073697106,-0.23967312,0.26216894,0.110225834,-0.08246934,-0.017953902,-0.07505784,-0.21894589,-0.2811532,0.37391192,0.25603372,-0.35976332,-0.12297359,-0.1921614,-0.093401454,0.37353688,0.18288763,0.31622177,-0.24527362,-0.28377205,0.13387966,-0.07003811,0.08878277,0.08373292,-0.21814974,-0.20146754,-0.11512113,0.18283354,0.17740375,0.21958417,0.16647202,0.11200413,0.09043711,-0.22288868,-0.22157332,-0.13285331,0.14221126,0.19013213,-0.20534135,-0.37541166,0.23332156,0.12303664,-0.31156915,0.10979998,0.1447667,-0.4398355,0.31488946,0.28619924,-0.3341607,-0.07380237,0.18959118,0.03245163,0.12902208,0.2938072,-0.077117816,0.1724962,-0.42174587,0.2609163,0.34104612,-0.43068895,-0.22562997,0.09299356,0.005664433,0.27403253,-0.14297442,-0.063615985,-0.33723786,0.13881344,0.29333866,-0.2932824,0.30125335,-0.3090169,-0.18194456,-0.46630177,0.051884636,0.00877255,-0.243295,-0.0055163754,0.28748104,0.21247607,0.37703434,0.14627983,-0.42990023,0.22235642,-0.15463111,0.2929857,-0.16535759,0.3173756,-0.09567584,0.23135656,-0.08289766,-0.07893509,0.116876505,-0.43911088,-0.12797832,-0.061985943,-0.2403711,0.20420371,0.09437817,-0.11348777,0.012857175,-0.08020805,0.026278794,8.7630533E-4,-0.44353008,0.31810653,0.19164568,-0.38210613,0.13172337,-0.095481426,0.26967838,0.17974415,0.2637473,-0.06104833,-0.13879675,7.788946E-4,0.28105536,-0.22760308,-0.13169931,-0.23860879,0.35918233,0.2968163,-0.2527942,0.0307641,0.055580106,-0.27409166,-0.4396529,0.2559273,0.27714568,-0.11330789,0.2081112,0.24984896,-0.1570907,0.28031242,-0.036831275,0.41567862,-0.27547878,0.02196675,0.1587804,-0.28362998,0.0044469326,-0.12956767,0.04122131,0.0011032958,-0.29295498,0.3615405,-0.29894832,-0.16699503,-0.25471172,0.37927112,0.17076688,0.04945522,0.36434796,0.013050661,-0.15910985,0.2223097,-0.21459398,-0.22714685,0.041444883,-0.30245644,-0.09229763,0.2118378,-0.08016749,-0.23593104,-0.23001127,0.2510787,-0.30219787,0.13643992,0.20359014,-0.22945543,-0.017864563,0.2952308,0.1658354,-0.08107242,0.1833266,-0.22450173,-0.010299633,0.04607568,0.10771654,0.021570245,-0.28579402,-0.022255505,-0.40967587,0.25010857,0.3724365,0.28258115,-0.13137679,0.25755376,-0.2610923,-0.054443944,0.008372813,-0.31569144,0.32809928,-0.28795993,0.41592488,0.2218819,-0.2706508,0.12586525,-0.40624282,0.31640443,0.1692622,-0.1254411,0.08168955,-0.22864686,0.4269196,0.010644651,0.38558167,-0.1629317,-0.054211557,-0.1230608,-0.35448003,0.2631073,-0.1545259,-0.049507763,0.11304668,0.12427152,-0.11580761,-0.29203975,0.44390583,-0.4013127,-0.031719096,0.03453354,-0.2126512,0.1973716,-0.09407433,0.17608175,0.030927867,0.0391913,0.09586771,0.06582271,0.005196859,-0.18872131,0.042756986,-0.22407305,-0.12397268,0.25483623,0.039085776,0.25342327,-0.20010492,0.36084893,-0.03935312,-0.035572026,-0.34392452,-0.16471918,-0.074668005,-0.2767837,-0.03476948,0.0691981,-0.27379334,0.42379585,-0.01616278,0.10831323,0.08555739,-0.223765,0.26706448,0.013420098,0.30914164,-0.30103892,-0.084301926,-0.33680502,0.20453665,0.55683833,0.13089745,-0.32063478,-0.25700006,0.15451512,0.34720662,-0.3665279,0.01803794,-0.052256472,0.44251013,-0.37377185,-0.40022966,0.19497722,0.087667994,-0.18227765,0.13310508,-0.21856049,0.31398073,-0.22971766,-0.13746673,0.25602788,-0.2864208,-0.24664713,0.24997091,0.2668515,0.2932311,0.015118629,-0.3385322,0.07176146,0.02662664,0.20525818,0.044188246,-0.3811079,0.015523246,-0.06133616,0.009033398,-0.15404415,-0.0054089483,-0.09485821,0.025920622,0.27304205,-0.3290353,-0.035809737,0.24485151,0.17313807,0.22196436,-0.22734363,0.17811577,0.34746033,0.0069609773,0.0010569168,-0.12962718,-0.2315469,-0.26576522,0.23118205,0.008043459,0.18601175,-0.061574172,-0.013714566,-0.2221438,0.18484096,0.079807416,-0.13200851,0.23041509,0.118769735,0.0514199,-0.066278994,0.25379568,-0.10299691,0.3678737,-0.05073805,0.15033749,-0.36621177,-0.35132587,0.3020085,0.10712592,-0.21090116,-0.3521337,-0.22290176,-0.042779937,0.098209776,-0.18292978,0.037872132,0.07335059,-0.21207555,-0.024679607,0.33988392,0.20248847,0.038305413,0.41577587,-0.33977857,-0.22653422,0.022525914,0.028892715,0.25919297,0.008811814,-0.13674176,-0.21346323,0.118121505,-0.19207986,-0.31148228,0.3435398,-0.099519774,-0.029816782,0.09823999,0.01836595,-0.47393763,0.32847908,0.3604982,-0.05701037,0.23818989,-0.4521031,0.07095475,-0.18737277,0.30904654,0.4049799,-0.17064823,-0.07283391,-0.011754741,-0.0045387316,0.23151496,0.23927951,-0.3760755,-0.064772844,-0.48525888,0.34762722,0.27176186,-0.22511977,0.36326155,-0.38014507,-0.1662838,0.2053102,-0.14747275,-0.17027326,-0.18928577,-0.19867113,0.16669233,0.19867925,0.077079244,-0.007851138,0.3149547,-0.0614583,-0.36959222,-0.28617355,0.041516032,0.30371454,-0.2700077,0.10620363,0.3082109,-0.074118756,-0.38325286,0.23395066,0.18585058,0.08558874,-0.4666188,0.24054527,0.2220318,0.25658217,-0.14016457,0.09319939,-0.37622458,0.28588688,-0.011601172,0.20058545,-0.28213546,0.23613404,-0.0647394,-0.27734634,-0.21111363,0.43837819,-0.08765637,-0.31969815,0.28733966,0.28830707,0.07357637,-0.06890314,0.12741385,0.27248544,-0.36881065,-0.23300959,0.37850064,-0.11784295,-0.07706646,0.40267432,-0.26214442,0.4397617,-0.2778616,0.12786289,-0.069482505,-0.31763884,0.572678,-0.2999803,0.21445672,0.2668896,-0.22918473,0.0909119,-0.23191981,-0.12165219,-0.18743339,0.23251161,-0.2584376,-0.1916567,0.015240687,-0.06285493,0.29369408,-0.25326046,0.15712824,0.40993926,0.24363033,0.08944903,0.08193417,-0.08585967,0.24303077,-0.33699822,0.09798523,-0.036416966,-0.27533352,0.39232296,-0.42977345,-0.11917092,-0.3683912,0.042808495,0.3625299,-0.27130345,-0.20294948,-0.18177396,0.08793525,0.06198623,-0.18191466,0.053718578,-0.12444148,0.02450065,-0.113694824,-0.22971192,0.09087504,0.177227,0.069665655,0.17600058,-0.15034416,-0.10933465,0.082211845,0.048760228,0.14228928,0.008117847,0.15161689,-0.45271105,-0.002684534,-0.19815142,0.1536165,0.14640628,0.19319765,0.007962564,0.01757235,0.006348248,0.10279743,-0.12395319,0.15552972,0.11834805,0.23621152,-0.15300994,0.03597189,0.22521615,0.029546969,-0.44544828,-0.28077176,0.08386451,0.20922573,-0.2573926,0.17122346,-0.08428338,0.007540886,-0.24216029,0.1694949,-0.17716135,0.14376377,0.48061937,-0.36150926,-0.17803144,0.31066775,0.06798302,0.26300332,-0.27952707,-0.06449543,0.28090432,-0.33744895,-0.1267387,-0.12959576,0.31567374,0.03483206,-0.014884963,0.24871504,-0.28366417,0.09514047,0.10061492,-0.014707707,0.2511765,0.18995228,-0.4049793,-0.06077834,-0.22148898,0.17936002,-0.16120632,0.2755462,0.17272148,-0.22312818,-0.15007918,0.012190124,0.483116,-0.33646843,-0.27790517,-0.06394649,0.37297472,0.06589582,0.03528308,-0.14229254,-0.290152,0.1692781,-0.17747685,0.031044379,0.33969086,-0.014337369,-0.037362337,-0.27792394,-0.1222761,-0.07368701,0.26052526,3.4695008E-4,-0.0388881,-0.24995126,0.073955104,0.14144127,-0.27468482,-0.12765758,0.29317895,-0.46131164,-0.04424306,0.38977012,-0.010569808,-0.03203299,-0.10505656,-0.3327499,0.3172544,0.15825911,-0.47274488,0.1001304,0.30902636,0.14152999,0.46824497,-0.41592216,-0.14110766,-0.17237262,0.4075346,-0.14540172,0.35655394,-0.2987621,0.045340188,-0.08816293,-0.0649855,-0.37211972,0.31381756,0.29257646,-0.016793733,0.30083963,-0.2976716,-0.30514774,-0.13653314,0.08828395,-0.21889336,0.17995861,-0.23510455,-0.076767586,0.10296563,0.023358898,-0.03349648,0.25664553,-0.25057396,-0.05059832,-0.33522356,0.31591058,-0.30809885,0.4818282,0.071767166,-0.11534747,0.37041804,0.06409706,-0.2623656,0.14182572,-0.057310782,-0.24217145,-0.16134758,0.38409963,-0.09759732,0.018952388,0.004939938,0.22758418,-0.1012446,-0.303475,0.17689127,0.03753937,-0.13862997,-0.15181066,0.3042625,-0.31451997,0.094181225,-0.37710693,0.056022048,0.25430015,-0.01978341,-0.43853685,-0.073958576,0.28132766,0.29958817,0.111902736,0.08270675,0.08420143,0.06431701,-0.19528338,-0.19924198,-0.16239457,-0.3039413,-0.22376618,0.39485565,-0.3364648,0.15552516,0.29811278,0.12781823,-0.07311294,0.3870282,0.22599404,-0.19397451,-0.20235932,0.24564958,-0.18311138,0.22587968,0.21681051,-0.2824985,0.24110189,0.06564669,-0.14466901,-0.17093268,0.31303245,0.20304124,-0.26630488,-0.360262,0.033173367,0.23161913,-0.18718967,-0.38343397,-0.30870274,0.10028761,0.3332232,-0.1709246,0.16438167,0.13261431,-0.3136733,0.37138668,0.068270385,0.084846996,0.42939013,0.17538464,-0.29344416,-0.18279839,0.11285296,-0.13708825,0.022058778,-0.25069577,0.22675708,0.28763783,-0.16945826,0.4309007,0.037311636,-0.23735061,-0.28617734,0.09097177,-0.19033897,-0.06354619,0.08891231,-0.10194341,0.03502851,-0.15725175,0.08972494,-0.32836276,-0.16694528,0.19851704,-0.039496675,0.25842455,-0.519345,0.13879985,0.23731013,-0.36494035,0.07499371,0.09433276,0.33294952,0.25571683,-0.45581806,0.039569274,0.38652793,0.24227959,0.3110268,-0.2715514,-0.036514908,0.18866433,0.28663182,-0.33487147,0.18059099,0.11425168,-0.41248506,-0.0067657325,-0.0054749805,-0.21082222,0.11159118,-0.22320777,-0.16308796,0.30215436,-0.13204142,-0.33918202,0.28178477,0.457478,-0.047042962,0.16878642,-0.13011397,-0.11499782,0.44482574,-0.4639096,0.079569,-0.23076445,-0.18673094,0.24632764,-0.18067001,0.3735387,-0.19455801,-0.20631771,0.024990942,-0.11342809,-0.042638686,-0.115594186,-0.18093863,-0.14458552,-0.117953636,0.19932784,0.36635154,0.32864252,-0.20079076,-0.1516729,0.11968083,-0.24601388,0.02438455,0.45899913,-0.095548645,-0.12381177,-8.636336E-4,-0.18881436,0.43775108,-0.116387516,0.17760701,-0.03933855,0.29535982,-0.3959908,0.21819074,-0.24847333,-0.03196659,0.35383764,-0.16277742,0.25195494,0.4213358,-0.26723394,-0.2710742,0.07917488,-0.114521496,0.12884459,-0.30678242,-0.29271996,-0.2045845,0.47874174,-0.11575039,-0.20816211,-0.16650015,-0.29594773,0.49917293,0.07368212,-0.06118634,-0.27759355,0.09349349,-0.25609273,0.31815273,0.08788833,0.26447627,-0.1531726,0.23136686,0.096380964,0.3796188,-0.25667852,-0.37470475,0.301231,-0.3898224,0.2785986,0.17768781,0.107925236,0.28630108,0.1375475,0.0016141104,-0.3062897,-0.19577357,0.07776925,0.096956775,-0.29215387,-0.1171959,0.52608466,-0.17217828,-0.25254548,-0.1722284,0.48063186,-0.34388015,0.06486734,-0.064938985,0.3307294,-0.10672439,0.42789733,-0.44613183,-0.10773949,0.24233234,-0.20865217,-0.033965193,0.10922008,0.03567784,0.4413749,-0.36573386,-0.19640937,-0.29514235,0.07833965,-0.1396141,0.35146382,-0.31808373,-0.06775055,-0.046720512,0.22739477,0.32024372,-0.24754843,0.31509146,-0.013240487,-0.072233155,-0.19847217,0.12148826,0.21488716,0.4025442,-0.24685049,0.07501352,-0.09525661,-0.100533225,-0.1603145,0.3327323,-0.3837758,-0.20255902,0.20721242,0.27125713,0.30653584,-0.08843752,-0.19191888,-0.43553406,-0.1623681,-0.27379745,-0.39067698,0.32765895,0.14287782,0.1673077,0.21906967,0.3067615,0.27334464,-0.2623076,-0.034055226,0.049470507,-0.037293807,0.20165747,-0.51994824,0.38574606,0.07477251,-0.06300797,0.3389892,-0.5962842,-0.03197316,0.108971536,-0.019454064,-0.2997453,0.32216257,0.1305049,0.19901033,0.053106308,-0.14892656,0.19696349,0.011786477,0.21742679,-0.2560385,0.22166465,-0.19335143,0.19792463,-0.19508088,-0.11717553,-0.028798793,0.22175503,-0.23157845,0.20400773,-0.22825386,-0.13013479,0.35131535,0.13804592,-0.08757939,0.39111876,-0.10697086,-0.34674636,0.21710353,-0.28207853,0.31097776,-0.13570875,0.072060004,-0.32184938,0.29012614,-7.003303E-4,-0.23341092,-0.21022287,-0.29291946,-0.12856379,-0.38997087,0.29903254,0.25859845,0.18925832,-0.1359521,0.16703595,-0.1040031,-0.31643113,0.30876446,0.22902149,0.12730946,0.15479544,-0.19037347,0.093983285,-0.15600756,0.28034934,-0.14374037,-0.05122867,0.21865557,0.35783517,-0.2832546,0.09659425,-0.25884566,0.23533231,-0.28317183,-0.095763944,-0.0073486404,-0.4044753,0.40773967,-0.096134625,0.20311119,-0.12500519,0.3743416,0.1380827,-0.026063545,-0.16477287,0.24056955,-0.24107604,0.15173227,0.19481742,-0.01922138,-0.10994458,-0.026448878,-0.45735255,-0.05544144,-0.13881697,-0.13701913,-0.14872794,0.21542293,-0.30113092,-0.12309154,-0.19465151,0.13822816,0.08226244,0.3517333,0.23425244,0.021291995,0.24123818,-0.50856817,0.20330355,0.07466289,-0.14319521,-0.25875914,-0.15978529,0.1565552,0.1285665,-0.2763624,-0.05014296,0.14065084,0.12990496,-0.21014743,-0.28090778,0.21336542,0.18661706,0.24627109,-0.23183371,0.34678313,0.24484332,-0.23499368,0.21816748,-0.101410694,0.3507096,-0.18885575,0.05420356,-0.3051592,-0.37321728,-0.19588585,0.41684622,-0.33833113,-0.06095771,0.40888485,0.012441413,0.060245063,-0.27162483,0.2873502,0.18477686,-0.39626464,0.130235,-0.25239033,0.054965418,-0.32430884,0.4135259,0.33332604,-0.096399985,0.23244084,0.19332151,-0.25443986,0.041129127,-0.27831826,-0.2976843,0.1162585,-0.10229173,-0.20431083,0.14884466,-0.057782803,-0.112535246,-0.031154625,0.41022846,-0.09725069,-0.20706418,0.18355596,-0.36177498,0.14699604,0.30219844,0.2674747,0.12482339,0.24575925,-0.24428025,0.075930454,0.18076335,0.035720535,0.003546277,-0.19351311,-0.29398647,-0.014425572,0.34605074,-0.39711738,0.1766131,0.071136266,0.0776585,0.15946388,0.03997489,-0.2695416,0.2816147,0.29553112,-0.009750194,-0.38403663,-0.3806189,0.30352652,-0.0441625,-0.36354318,0.2957972,0.19803375,-0.118537515,-0.23404834,-0.020345736,0.26744077,0.14593908,0.21848078,0.052379888,-0.05215352,-0.29795784,0.25969136,0.14486088,0.21031068,-0.16442652,-0.13823356,0.1725571,-0.36686182,0.368304,-0.009192389,-0.619827,0.24436343,-0.1532851,0.40353024,0.20722131,0.21269938,0.060079165,-0.31627575,-0.2601997,0.45471618,-0.1371536,-0.3208662,-0.19312751,-0.30084857,0.35395083,0.20511149,-0.031942468,-0.18245634,-0.41948602,-0.07200048,-0.16698349,0.2539403,0.15860052,-0.39753637,0.10939036,0.07133874,-0.08574587,0.121066436,0.017639974,-0.43963772,0.12928443,0.29569077,0.16226633,0.28693804,-0.005330439,0.11151982,-0.21667129,-0.42513248,0.43741038,0.24968031,0.047346704,0.12311741,-0.21924317,-0.23026316,-0.22436777,-0.21069884,0.14239118,0.50722563,-0.022616291,-0.13990784,-0.3498051,-0.23421033,0.07438511,-0.32427058,0.1676472,-0.013402377,0.23808947,-0.043054435,-0.16462971,0.2552092,-0.16594267,0.12315817,0.10978939,0.2793789,0.14089033,0.012361896,0.16487107,-0.35737815,0.42599574,0.24575222,-0.35442254,0.13354516,-0.33166903,0.26000276,0.015408486,-0.4348497,0.12684065,0.039922293,0.23784615,-0.07989997,-0.21085848,0.19728558,0.28911623,-0.037331387,-0.23843512,0.06461363,0.25449267,0.092416696,0.038621906,-0.1850176,-0.24892165,0.28439593,-0.3767166,0.20096478,0.086120166,0.21268055,-0.12319942,-0.25897282,-0.043608386,0.15278715,-7.484691E-4,-0.076441474,-0.31230676,0.0961602,0.26885602,0.28173774,-0.0966163,0.19071032,-0.053606924,-0.36855632,0.42767704,-0.26640666,0.19165157,-0.26774886,0.26080322,0.09760478,0.2671128,-0.4724972,0.27991655,0.3348879,-0.2433217,0.2759717,-0.28564405,0.11972555,-0.0882227,0.004944334,-0.042063404,-0.106792614,0.05202808,-0.16351956,-0.022147609,-0.26206374,-0.19753133,-0.11190754,-0.0597983,0.31796834,-0.10403831,0.12058855,-0.117564656,-0.17325743,0.4568501,0.054091282,0.35738954,-0.23367,-0.11673988,-0.06829398,0.16466263,-0.37643528,-0.032228906,0.32786995,-0.20809326,0.2994851,-0.35862994,0.29412535,-0.48110607,0.24466446,-0.01927579,0.10064869,0.1868892,0.20709668,-0.3238261,5.332259E-4,0.4575398,-0.34203866,0.3328427,-0.10091061,0.3066362,-0.26705977,0.4425361,-0.19777796,-0.052194983,-0.30629465,0.048751745,-0.16715221,0.22650017,-0.23374535,-0.27881178,0.184307,0.07423701,-0.30715698,0.3392952,-0.39654177,0.30399013,-0.04616433,-0.14887534,-0.004417899,-0.3939235,0.006148262,0.24138498,-0.20289007,0.21095735,0.27276117,-0.07529018,0.043533035,-0.30908808,-0.016573634,0.07760069,0.3763813,-0.23657106,-0.2544429,0.010076376,0.16794062,0.1124122,-0.3120651,0.2121712,-0.43750438,0.40304855,0.053691015,0.1212595,0.033594914,-0.3727892,0.41012532,0.047422357,0.1513653,-0.24977463,-0.27226862,0.2633655,-0.051763862,0.2525578,0.12207911,-0.12582706,0.004971864,-0.06282687,-0.17032598,0.0696638,-0.22164352,0.20993496,-0.35149673,0.21006574,0.20122986,-0.36487618,0.012561871,0.091727324,0.076518275,0.2063795,-0.020060554,0.02278749,0.09053778,-0.20373726,-0.4213566,0.2784986,-0.08124637,0.31409702,-0.029356204,-0.23919806,0.2620451,0.098306686,-0.14544097,-0.39818007,0.12333272,0.3090189,-0.054700475,-0.28602585,0.21775714,-0.032997224,-0.012926499,0.029186832,0.017088132,0.21669245,-0.19755615,-0.36611,0.2893868,-0.24809797,0.282864,-0.25874543,0.14992724,0.07967121,0.086842746,-0.2484732,-0.21401116,-0.07607668,0.35678983,-0.0109814,0.017821398,-0.39618042,0.030756917,-0.036414806,-0.3174049,0.20115803,0.3414758,-0.057707187,0.27980778,0.2212033,-0.19091852,-0.38516733,0.15715586,0.094908774,-0.25329444,-0.14083618,0.40947783,-0.08876651,0.2678331,-0.13952106,0.29979944,-0.14905977,0.14327072,-0.28009966,0.19374105,0.33858824,0.13014916,-0.44075915,0.0070609585,-0.2119804,0.19674838,0.24906424,-0.3932377,0.32108203,0.24106224,-0.20883305,0.502678,-0.3188225,0.080144666,-0.35998946,0.3212773,-0.11730973,0.011310778,-0.33647186,0.1530311,0.15126,-0.35229358,-0.23778583,0.0539733,0.30717272,-0.10387244,0.4174368,-0.07661716,-0.33178416,0.17780879,-0.1587337,-0.033459302,0.29116955,-0.16224502,-0.09930218,-0.013101235,-0.22185005,-0.057376537,-0.12387326,0.38121766,0.2239311,-0.040856272,-0.22286382,-0.12382253,-0.24111664,-0.22033328,0.16754436,0.1617294,-0.14383,0.09153465,0.20672424,0.18773235,0.11868875,0.07292806,-0.32082474,0.08824095,0.20190254,0.0463857,-0.1795354,-0.043117095,-0.07566508,0.23627426,-0.14892934,0.19524768,-0.0026824223,0.22383414,-0.055787466,-0.045096766,0.41950622,-0.2170206,-0.30516562,-0.0960999,0.2008653,-0.3641313,0.030967785,-0.32131597,0.12737751,-0.20296381,0.09365658,0.18261921,0.04522052,-0.046532217,-0.21302977,0.17739736,0.09494977,0.008236857,0.21898544,-0.048583597,-0.0045249537,-0.2897512,0.12996568,0.026698286,0.06938619,-0.15496594,0.17657556,-0.36049953,0.2274823,0.0939897,0.066254765,-0.22041225,0.25202993,0.22151403,-0.08843462,-0.18542258,0.2838855,-0.11071557,-0.11285717,0.1423338,-0.08721291,-0.060779866,-0.28562477,0.08037276,-0.3843191,-0.14257815,0.15525424,0.13094361,-0.25722626,0.056115266,0.22523175,0.22756197,-0.29304293,-0.27791044,0.3016849,-0.12511334,-0.29999715,0.25015354,-0.1696015,0.18386373,0.30896565,0.11100406,-0.25906882,-0.33257863,0.37470284,0.24617784,0.27983698,-0.2746726,0.1977253,-0.34662214,-0.4723982,0.3603985,-0.38527086,-0.22230911,0.060353294,0.18892798,0.25204775,0.02189644,-0.578618,0.2066499,0.24677023,0.168191,0.18185046,0.2006448,0.030755738,0.10284382,-0.23054098,-0.24931373,0.1909829,0.35792056,0.024271676,0.23558487,0.13671754,-0.10221797,0.3296227,-0.2596036,0.4782488,-0.29544303,-0.3434281,-0.33072475,0.046308633,-0.08517445,-0.010581533,0.28442118,-0.35198525,0.17803153,0.0074563175,-0.42360142,0.04659724,0.12432086,0.09513638,-0.14117917,-0.030250128,0.21791473,0.008384477,0.1440687,-0.35547033,-0.33703303,0.15902562,-0.27106032,0.36288664,0.13599922,0.21262732,0.2412323,0.1623472,-0.2887039,0.06295976,0.24107794,0.11454062,-0.16487421,-0.32174018,-0.017880196,-0.06521407,-0.12006693,0.008542318,0.056279294,0.328906,0.09109464,0.11596717,-0.3006603,-0.19399583,0.3191786,-0.16034363,-0.0044631334,-0.27073193,0.26669,-0.054701596,0.06056215,0.28825432,0.22660689,-0.10153153,-0.25617066,-0.024888363,-0.32328317,-0.3654582,0.16760208,0.2070647,0.26340544,0.17803779,0.14680158,-0.015856985,0.13523728,-0.1008205,-0.27410403,-0.032177635,0.4818677,-0.3276195,0.33207434,-0.037299328,-0.34873068,-0.09066761,-0.17772727,-0.017339434,0.29377317,0.21459338,0.3670639,-0.08505795,-0.20021492,-0.29957592,-0.20639147,-0.1345357,0.043989316,0.27191573,-0.07634403,-0.37162432,-0.0031348963,0.13608196,-0.0958969,0.05548997,-0.005827273,0.09165668,0.17461082,0.22475576,0.19049564,0.028019603,-0.4281278,0.1636462,0.035995148,0.25277972,0.31787974,-0.2479668,-0.24847418,-0.25251642,0.050713416,0.07842623,-0.32182294,-0.42330578,0.32928625,-0.41108885,-0.034717318,0.223016,0.42085233,0.22300656,0.23826008,-0.33324665,0.25794813,0.11011819,0.23398149,0.26267678,-0.34596774,-0.10266131,-0.44015807,0.135077,-0.116797574,0.40542135,-0.21252246,-0.10036573,-0.19762485,-0.25957063,0.26299277,0.17093365,0.2523724,0.26227012,-0.03905009,-0.30100346,0.32800525,-0.12806346,-0.10655276,-0.2658647,-0.2758812,0.31410697,-0.111790664,-0.28926983,0.09458654,-0.09229126,0.36387023,-0.23050116,-0.27911952,0.30405405,-0.018385388,0.35542658,-0.23218518,0.070738465,-0.06043892,-0.26317057,-0.3330266,0.02251835,0.42420143,-0.28776157,0.15389995,-0.33747128,-0.30678746,0.34731507,0.034383252,0.1404991,-0.17174602,0.4047757,-0.31941324,-0.2465009,0.113347664,-0.10518648,0.4229694,0.2538585,-0.302693,-0.042723645,-0.07251906,0.30932868,-0.11427443,0.26206243,-0.005789511,-0.18974544,0.26250613,0.20210686,-0.1371808,-0.048319973,0.031526368,-0.25562096,0.13095222,-0.0144548835,-0.11036727,-0.13131002,-0.20185672,-0.005038437,-0.0818206,-0.17024882,-0.19218901,-0.09850414,0.0994338,0.21001875,0.17197552,-0.3717432,0.4711455,-0.09425136,-0.26718795,-0.25612998,0.28989756,0.016886158,0.30012864,0.377482,-0.07886303,0.10301893,-0.21723844,0.26589298,-0.1089667,-0.422022,0.29516208,0.05436762,0.37339818,-0.31289756,0.45162192,-0.3009697,-0.114311375,-0.21852496,-0.18245797,-0.24966908,0.24469168,-0.27798775,-0.22934063,0.04713236,0.17423154,-0.19634326,0.16229546,-0.01577626,-0.09620507,-0.14158754,-0.29232487,0.3790622,0.019689128,0.16954494,0.253563,0.004001763,-0.017713679,0.16128494,-0.31807637,0.3280837,-0.25459665,0.27701473,0.049612097,0.40927038,-0.37270644,-0.13086641,-0.25044718,-0.23519693,0.3391507,-0.3433256,0.27191955,-0.16824354,0.077551715,0.25223294,0.42714968,-0.26154724,-0.095592804,-0.19316095,0.099280626,0.35091466,-0.15639281,-0.16133735,-0.12798285,0.12160835,-0.048263844,0.09307136,-0.23502326,0.026771517,0.31495914,-0.3592367,0.2911168,0.011683188,-2.7504604E-4,0.30670553,-0.32775196,-0.15636216,0.3914486,-0.09748742,0.038273074,-0.12977727,0.31591168,-0.32948256,-0.26596034,0.34181863,0.15964773,-0.18360086,0.36252946,0.09958477,-0.5234281,-0.399741,0.064762436,0.3734026,0.23102273,-0.41123274,0.12292456,0.19704188,-0.3735272,-0.35719767,0.3645047,-0.3229855,0.2343454,0.38552734,-0.04614469,-0.23678501,-0.03885942,0.06330968,0.008569298,-0.073988676,0.27909034,-0.14293309,-0.10895506,0.003802174,-0.28083414,-0.104141824,0.38453418,0.24728018,0.32435453,0.35226366,-0.3973816,0.21571164,-0.012530339,-0.33544013,0.24552615,-0.3305538,-0.27356637,0.01488114,-0.059974544,-0.092301436,-0.15447462,0.06153879,0.35402736,-0.16710782,0.19551508,0.07959286,-0.09200273,0.054682117,0.23690458,-0.016111733,-0.431126,0.39834982,-0.22713274,-0.3543715,0.074154556,0.246347,0.12100104,0.30487394,-0.3608895,0.37978044,-0.32656395,0.08456022,-0.016888492,0.2504725,-0.09874318,0.025600774,-0.21068688,-0.06833332,-0.0020169038,0.070904605,-0.18917984,0.27068114,-0.112971775,-0.124680065,0.08506816,0.15058926,-0.35725248,0.13649134,0.013706718,-0.3364012,0.11804963,0.33656576,-0.3965561,0.17662793,-0.27434966,0.26468503,-0.0072689084,-0.015455344,0.15345718,0.2914677,-0.022116585,-0.04078685,-0.19251217,-0.030450111,-0.09277779,0.060921434,-0.22771288,0.117877536,0.07249606,0.30038136,-0.04957248,0.15304902,0.14386714,-0.24666402,-0.18635556,-0.1085397,0.26048875,-0.18873242,-0.1265247,0.27157378,0.32042238,-0.09751432,-0.22850654,-0.09990804,0.21626323,0.24956098,0.18770552,0.26735443,-0.44430745,0.15240219,-0.44863862,0.19486488,-0.20876499,0.026355928,0.24173096,0.053623747,-0.47588068,0.3424068,0.014178924,-0.4224641,0.07460415,-0.29683152,0.36928436,0.18790923,-0.3575034,0.078331806,0.10850081,0.075225554,0.13666274,-0.31636608,0.04932357,-0.28210512,0.30504566,-0.3720746,-0.28731552,0.5144183,-0.26427504,-0.30599907,0.40197578,0.16189694,0.28952068,0.33145016,-0.10381383,-0.108234644,-0.078612976,0.06864133,-0.36075726,-0.42649972,0.3093301,0.2852707,-0.46348554,0.27623695,-0.11644837,0.18384963,0.117977396,0.24886476,0.054068595,0.013891279,0.0056906957,0.09728793,-0.27274576,0.251791,-0.12628098,-0.1710622,-0.01867925,0.23108551,0.1809634,0.20019351,0.22599529,-0.31030595,-0.22184572,-0.18406832,-0.23534344,-0.22731362,0.2013604,0.2094252,-0.0036661967,-0.22371571,0.068606056,-0.088373475,-0.043808963,-0.34842265,0.20288019,0.2392561,-0.2568477,-0.36637107,0.12691785,0.32926214,-0.46312854,0.39099893,-0.029039983,0.27142882,0.32399827,0.044430602,-0.05701894,-0.19544668,-0.052575424,-0.32476518,0.52722925,-0.17956968,-0.26385018,0.13189471,0.0056365654,0.24694264,0.26677594,0.27273974,-0.13367066,-0.28089947,-0.035900943,0.30979437,-0.17824443,-0.13466065,-0.21758546,0.47658956,0.020664614,-0.07353109,-0.21310098,0.06774246,0.042332586,-0.30219865,0.038257472,-0.25890833,0.47574148,-0.15960468,0.0697563,0.3505313,0.07692576,0.26986435,-0.40905145,-0.1997236,0.15053666,0.26388127,-0.18027903,0.37321874,-0.28800148,-0.12587653,-0.27181372,-0.08032565,0.19370803,-0.23208512,0.31861663,-0.06641939,-0.14359327,-0.35285744,-0.34337822,0.39943334,0.090081885,0.22718315,-0.08109972,-0.091423064,0.36695468,-0.42588657,0.228123,0.098666295,0.17727114,0.2721367,-0.35194412,-0.001073838,-0.26382935,0.33228913,-0.28538233,0.15715191,0.30557218,-0.20850468,0.30448443,0.07560524,-0.10290203,-0.19678935,-0.0031728686,-0.21441539,0.054644693,0.11086446,-0.09423535,0.012800955,-0.09195898,0.20311925,0.08965138,0.2677836,-0.25249386,-0.21100822,0.2852503,-0.2813341,0.20604979,-0.33808693,0.08273796,0.06329722,-0.13581556,-0.09935164,0.15393962,0.24479057,-0.0041394276,-0.4605875,0.22838919,0.018394373,-0.3793694,0.20993266,0.025452599,-0.115787946,0.1282015,-0.13368414,0.03926629,0.16285706,0.06852304,-0.0050718905,0.13451505,-0.011287058,-0.14443457,0.09696183,0.32082647,-0.15256153,0.02667225,-0.21286733,0.15115412,0.19871728,0.33174682,0.16120665,-0.23975235,-0.23682344,0.035756066,-0.29073915,-0.10799709,-0.03349786,-0.12255034,0.089013815,-0.06434591,-0.40812743,0.045255363,-0.17509188,-0.28857225,0.11507127,0.07919883,0.09843696,0.43158612,-0.3026661,0.3839099,0.20436904,0.052333288,-0.0451407,-0.023730904,-0.08122652,-0.29197705,-0.05573143,0.103659794,0.08648379,0.03928986,0.30639064,0.0016474412,0.041738275,0.2047244,0.15611556,-0.078589104,-0.009903844,-0.16400792,0.20804247,0.22570485,0.36892805,-0.1427604,-0.11815616,0.01909146,0.04814041,0.1342528,-0.4360474,0.23155113,-0.2531501,0.4485086,-0.270678,-0.1936812,-0.28082824,0.1310813,-0.010835962,0.07807255,-0.012363022,-0.14892232,0.36957648,0.04632254,0.03175451,-0.32965195,0.03662124,0.25929806,-0.045235932,-0.04799935,0.14197206,0.07290948,-0.14204583,-0.2094011,-0.15273084,-0.12988865,-0.12732777,-0.09256004,0.011109772,-0.29081914,0.0599593,0.07426905,-0.008362447,0.49874496,-0.26648074,0.19141056,0.28287068,-0.17380892,0.25018492,-0.32785085,0.087481715,-0.30174473,0.17612413,0.38232565,-0.31834632,0.4023929,-0.22799398,-0.22469972,-0.06728472,-0.2500555,0.27032644,-0.18560717,0.1632596,0.3911098,-0.10594084,-0.1817645,-0.040963385,-0.13000602,-0.17211244,0.109649345,0.19264825,-0.16811043,0.2739453,-0.06496237,0.11702286,0.019899182,-0.21977755,-0.21304029,-0.2650581,0.23055121,0.38543403,-0.22892566,0.020936096,-0.35299692,0.19291107,-0.09140762,0.18805659,0.3192662,0.17514527,0.2726741,-0.1775618,-0.27596903,0.015135128,-0.39101422,0.45868206,0.26996252,-0.3331728,-0.28989992,-0.08367155,0.29433468,-0.12433132,0.14398456,0.1422739,-0.3156679,0.109284274,-0.001153465,0.11110386,0.22864062,-0.5093488,0.29081622,-0.20090933,0.051273767,-0.31481993,0.26285338,-0.14145368,0.04154566,0.026835509,-0.071624085,0.03273339,-0.121845074,-0.32153618,0.21185507,0.17892362,-0.11678946,-0.010398782,-0.10703123,-0.066871054,-0.117143415,0.41813445,0.1406848,-0.37125534,0.26453826,0.24051607,-0.043537278,-0.33780497,0.05178352,-0.058621567,0.36301523,-0.36935627,-0.3879884,0.37831768,0.23582788,-0.23709576,0.3087438,0.04236759,0.07375078,0.23896064,-0.22881304,0.1015859,-0.21992242,0.42332557,-0.30661863,0.25317052,0.26350078,-0.11150048,-0.06379082,0.030423293,-0.0059031383,-0.06785295,-0.024192603,-0.095792174,-0.13908944,-0.114636324,-0.14556834,0.17876607,0.0064194654,-0.027509527,-0.21729787,0.18168531,0.07757551,-0.08718415,0.47644052,-0.12176376,-0.16480903,-0.009990611,0.14817095,-0.20717226,-0.059696797,0.12545757,-0.302134,-0.2286861,-0.09210145,0.2856959,-0.18094435,0.22830516,0.1656165,-0.16690575,-0.3699606,0.3584247,0.26723263,-0.14809015,0.21350892,-0.37497362,0.3219505,0.21192156,-0.3299903,-0.2626284,0.114289775,-0.24812311,-0.3782617,0.3990944,0.28842166,-0.26536986,0.3617983,-0.07420571,0.26751372,0.11312707,-0.094548635,-0.05730563,-0.09586831,-0.036162935,-0.050153434,-0.2895111,-0.07275999,-0.17273797,0.20497547,-0.09104188,-0.027501406,0.1354494,0.33711746,-0.2588102,-0.22345908,-0.21590848,0.3957233,0.3357252,0.0720987,0.14782563,0.29182938,0.012747805,-0.10268678,-0.12367396,0.27742812,-0.28390813,-0.05215401,-0.20087466,0.09065456,0.36764246,-0.47597355,0.39872628,0.14979666,-0.34670207,-0.10046785,0.047017854,0.07420703,0.05717552,0.15017813,-0.33037585,-0.30942616,0.13505532,0.05055725,0.010115536,-0.05690027,0.36320543,-0.038105056,-0.24548262,0.024633212,0.4910563,-0.36416775,-0.38268313,0.1988271,-0.002055412,-0.14156616,-0.08033087,-0.17270806,-0.27918324,0.3877576,-0.15630515,-0.08991444,0.30829972,-0.09811566,0.36722708,0.023613876,-0.38628778,0.3750687,-0.32842177,0.33062068,-0.14931117,0.24205728,0.22203584,-0.16569695,-0.07615297,-0.038004644,0.36179572,0.06333693,-0.09673329,0.3408812,-0.3932756,-0.048143517,-0.058886785,-0.2704011,0.1363101,0.21920617,0.29476514,0.3114263,-0.3997521,0.15494126,-0.3533665,0.06438888,-0.22102362,-0.2708751,0.12436504,0.23336716,-0.24157853,-0.33100602,0.22244234,0.060635217,-0.21854366,0.02216733,-0.19634987,-0.029381154,0.25635612,-0.22272132,0.2722594,0.082254715,-0.022799205,0.06597846,0.1407387,-0.26426908,0.019557098,3.2125582E-4,-0.18137357,0.0151793165,-0.14341265,0.47569802,-0.35014498,-0.08466648,-0.053961553,-0.17110518,0.32038486,0.298002,-0.3173284,-0.031294666,-0.26541075,0.28233126,0.27336785,0.043614414,0.019844072,-0.36054504,-0.104341,0.18593517,-0.024832368,-0.056990255,-0.4202035,0.31716165,-0.018045556,0.34759575,-0.29439372,-0.09743553,0.16763882,0.23723862,-0.1284537,0.19608688,-0.39678764,0.32764065,0.33186442,0.015638193,0.2949084,0.29884207,-0.3408106,-0.32481036,0.16332306,0.026546113,-0.3339293,0.06513455,-0.052357607,0.048959084,-0.16582863,0.1310933,0.032593373,-0.20801976,0.14048424,-0.32279563,0.31670284,-0.13466297,0.33892995,0.025863554,-0.15541837,0.30044177,-0.20248777,-0.047553863,-0.048394244,-0.07509107,-0.029292244,-0.27627298,0.31499907,-0.056572072,-0.3488902,-0.13087672,-0.09441094,0.22269921,0.1278442,-0.32544747,0.21263187,-0.20316614,-0.16197,0.11429216,0.3629228,0.22762388,-0.39374194,0.232402,0.06591206,0.05005865,-0.06407957,0.25608853,-0.1529136,0.25858822,-0.10989139,-0.113653086,0.075333275,0.23562066,0.2028039,-0.14201522,-0.33514777,-0.4245561,0.38202497,0.091203935,0.1391936,-0.14296018,0.34113443,0.021492718,0.106028974,-0.046939243,-0.24160537,-0.37951064,-0.010233784,-0.08591317,0.28605148,-0.35943794,0.27045336,-0.28235948,-0.317222,0.09794371,0.30390048,0.52546775,0.16831803,0.3224549,0.031922307,0.011666107,-0.38442102,-0.38134366,0.32321307,0.42496565,-0.19283673,-0.09639358,-0.11256,-0.22088744,-0.22788374,0.3203435,0.338598,-0.15543894,-0.27028954,-0.20775351,-0.15864345,0.2581306,0.040450566,-0.24936849,0.122088544,0.24651305,-0.427365,0.1555371,-0.061971243,0.0606496,0.30492833,0.30261797,0.051594585,-0.27208525,0.2795989,-0.15345687,0.037889708,-0.013942115,-0.09818522,-0.16277,-0.3614452,-0.121313825,0.06419468,0.12578773,0.34051442,-0.089581944,0.21775728,-0.08162618,0.21000414,-0.21415262,0.2364997,0.18765157,0.35287872,-0.03682422,0.2791611,0.013608154,-0.45536697,0.41590834,-0.5239705,0.09970023,-0.1633302,-0.450695,0.36343244,0.18453494,-0.20645504,-0.21030821,-0.24949291,-0.13177502,0.22328684,-0.3367543,0.26843348,-0.23807143,-0.2047132,-0.14960401,0.23099147,0.2315728,-0.29726154,0.34924546,-0.12575132,0.15386462,-0.23748013,0.36698884,-0.24727757,0.2485687,-0.20197271,0.117898226,0.050074667,0.09354117,0.020736137,0.25668064,-0.14022504,0.033595704,0.01986673,-0.0859959,0.08668843,-0.097702764,0.07551249,-0.30186197,0.3251495,-0.1747792,-0.061481144,0.39564613,0.21136105,-0.13639593,-0.34674984,-0.16807976,-0.04741884,-0.18697087,0.2457307,-0.3819415,0.16878918,-0.32345644,0.36391652,0.20382528,-0.24537128,0.021746404,0.14507534,0.26691973,-0.13455854,-0.13526554,-0.18141162,-0.23591132,-0.11014091,-0.01629271,0.22284657,-0.05221987,0.27715927,0.10642558,0.08538652,-0.12552753,0.41137624,-0.15041304,-0.33769464,-0.2791459,0.21785942,-0.19893347,0.0029600454,-0.042220358,0.115426,0.334731,0.3440769,0.49846026,-0.416522,-0.33713883,0.06467189,-0.2881142,0.21584417,0.24953851,-0.2679015,-0.06417966,0.16636068,0.25993487,-0.16862777,-0.23289837,-0.16313763,-0.006759141,-0.44242942,0.19191252,0.21758957,0.19350709,0.39958906,-0.29378945,-0.30035377,0.032336734,0.12760788,0.31438977,-0.4702198,0.23797247,0.23923768,-0.05769955,0.09319375,-0.37526584,-0.24951369,-0.047876835,-0.14896852,0.18251197,0.13703275,0.40984136,-0.33992207,-0.15041061,-0.012798828,-0.07293084,0.23373021,-0.26463792,0.1363386,0.14586236,0.28113833,0.23577403,0.049932662,0.41408905,-0.021154717,-0.37120634,-0.21121056,-0.23791337,0.23374179,0.37252873,0.07651149,0.54051906,-0.38570318,-0.26244372,-0.1557359,-0.4229593,0.4118761,-0.3896391,-0.023589589,-0.06233652,-0.34345296,0.31960994,0.1435603,-0.049448065,0.21166886,0.39626998,-0.30230582,-0.33411437,0.2585327,-0.040096458,0.029266797,-0.11860586,0.010438908,0.16230656,-0.23741825,-0.11841253,0.13257746,0.34475642,-0.13684912,-0.26987568,-0.37163666,-0.14906807,0.043182794,-0.13917564,-0.39873004,0.52616936,0.24022783,0.0033895532,0.049639046,0.041639324,-0.09944344,-0.29004773,0.43082073,0.14360677,-0.29268628,0.23344117,0.15573983,0.05485217,0.39522213,-0.10179124,-0.12630074,0.15693161,0.09308182,-0.007684789,-0.33684325,0.2557684,-0.39436123,0.34822863,-0.21287408,-0.46439782,0.13600682,0.1721518,-0.27416798,-0.39506897,0.41869614,-0.37778834,0.21041672,0.44200784,0.10208344,0.19221549,-0.19687586,0.23769677,0.06656663,0.14651568,-0.22005428,-0.37757337,0.36613756,-0.12668864,0.34224796,-0.35177377,-0.101181544,-0.28080395,0.12592122,0.18927123,0.16121379,0.26122817,0.02142425,-0.25296608,0.0010428763,-0.18459497,0.0061440296,0.16782151,-0.06078271,0.06322912,0.07769236,-0.062002994,-0.23655887,-0.10918889,-0.1675216,0.3208811,0.2197126,0.015705936,0.105189845,0.14345475,0.118361875,-0.40601546,0.044817813,0.23538269,-0.53967154,0.2312952,0.22108036,0.11290844,0.31917113,-0.17729056,-0.22250539,0.23064315,-0.19741347,-0.15560836,0.045889463,0.015802713,0.26893663,-0.25558567,0.28876507,-0.1068074,-0.11921737,-0.1967532,-0.3618977,0.41393632,0.100501224,0.128952,-0.43600363,0.1505343,-0.009522569,-0.30058676,0.08243272,-0.012625602,0.32571265,0.23805457,-0.0070329136,-0.22590604,0.17741884,-0.22287993,-0.13214996,-0.16425936,0.019345885,0.11782845,0.08532206,0.36432463,-0.11214763,-0.2233819,-0.33376086,0.21881305,-0.06450849,-0.18007892,0.20985898,0.3382144,0.14378227,-0.2964477,0.08237834,-0.3635387,0.107120216,-0.09005521,0.38851196,0.4270495,-0.28493994,0.12936522,0.32666028,-0.3302532,-0.25064355,0.27971354,-0.07344487,-0.123418696,-0.21006355,-0.1604154,-0.3455556,0.12359828,0.24555375,